-0.4 -0.5 -0.5 0.1 0.2 -0.2 -0.4 0.3 0.3 0.1 -0.5 0.3 0.399993 -0.100007 2.64123e-09 -0.3 -0.2 0.2 -0.2 -0.4 0.2 0.1 0.2 0.5 0 0.2 -0.2 0.1 -0.3 -0.5 -0.2 0.4 -0.2 0.2 0.2 -7.99433e-05 0.099879 -0.301275 -0.515565 0.484521 -0.0138038 -0.416602 0.518014 -0.493884 0.229043 0.189718 -0.39998 0.199832 0.299833 0.199867 -0.296143 0.303856 0.1 0.3 0 0.1 0.2 -0.5 -0.3 0.2 -0.1 0.2 6.03692e-05 0.226032 -0.0961577 0.243478 0.313031 0.0633412 0.299214 -0.247372 -0.447073 0.354859 -0.261237 0.257654 -0.598322 -0.104306 0.037061 -0.15846 0.462719 -0.311824 0.198585 0.200089 -0.2 0.1 0.4 0.3 0.369287 0.0692873 -0.10801 -0.399316 0.315223 0.171159 0.249145 0.308571 -0.300679 0.481167 -0.429466 0.0209945 -0.0172895 -0.269303 -0.238169 -0.233641 -0.525079 -0.0912714 -0.46712 0.173046 0.00721014 -0.0424705 0.377847 0.506089 0.00459336 -0.4 0.5 -2.78817e-11 -0.231505 0.100523 -0.0260744 0.123425 -0.45429 -0.278386 -0.317571 -0.163832 -0.418305 -0.286355 -0.184818 -0.0748994 -0.36048 -0.349172 -0.377879 -0.242829 -0.61911 -0.908599 -0.232122 0.0724467 0.370407 0.629964 0.11114 0.159525 -0.380258 0.452734 0.5 0.5 -0.131515 -0.35857 -0.0279461 0.148566 -0.0991705 -0.759639 0.346772 0.0958069 0.25659 -0.108515 0.248897 0.0515708 0.782727 0.0364148 -0.271613 0.338531 -0.818679 -0.330521 -0.999198 -0.543909 -0.110914 -0.496868 -0.217107 0.177334 -0.549288 0.0527628 -0.3 0.499957 -0.500274 0.0384799 -0.667635 -0.740092 -0.3134 -0.0703205 0.0377184 1.37119 0.425297 -0.0554398 -0.0947836 1.04897 1.57071 0.712611 0.777033 0.789652 -0.242934 0.113158 -0.21694 -0.94663 -1.26318 -0.192341 -0.0300945 -0.740696 -0.00539201 -0.526904 -0.5 0.0998038 -0.0637853 0.235935 -0.385433 -0.407309 -0.283292 -0.221048 -0.137002 0.115344 0.631856 0.892536 1.74421 1.32018 1.51232 1.40181 0.798259 1.58735 0.494021 0.699401 1.18949 -0.0842656 -0.291646 -0.611328 -0.475077 0.344302 0.163934 -0.22758 -0.100002 0.248438 -0.129826 -0.0916465 -0.323544 0.657613 -0.163199 0.319692 1.08433 1.00755 0.798485 1.2353 1.2531 1.99003 1.92559 1.57859 0.600103 -0.0688613 0.683139 0.218431 -0.331108 -0.955996 -0.810506 -0.381826 0.42597 -0.552111 -0.305491 0.394175 -0.1 0.347415 0.0384505 0.371036 0.491175 1.09112 0.875737 0.326152 0.571166 0.732906 1.65398 1.6853 1.17601 1.16171 0.252812 0.397009 0.948465 -0.231181 0.178465 0.697493 -0.0183634 -0.517286 -0.898911 0.23139 -0.00509715 0.433016 0.0826543 0.00563824 0.4 0.359844 -0.122577 -0.0128098 0.34124 0.910639 0.801173 0.754071 0.377608 1.08635 0.917962 0.0796897 0.306692 0.60573 0.101701 0.107733 -0.154631 -0.392064 0.49019 -0.0114843 -0.0640684 -0.172819 -0.742148 -0.119582 0.0542282 0.709344 0.411796 0.10414 -0.3 -0.2405 -0.138056 0.373462 0.463344 1.11706 0.324153 0.368428 -0.198366 -0.637759 -0.798294 -0.547539 -1.50771 -0.501537 0.814121 0.618404 -0.368873 -0.764827 0.367284 0.0534011 -0.0560194 -0.188124 -0.088531 0.34851 -0.199641 0.361359 0.0703966 0.100008 0.5 0.362256 -0.125931 0.0557392 0.835526 0.435531 0.455632 -0.485616 -0.235483 -0.892902 -1.67182 -1.48493 -0.947189 -0.298338 0.436976 -0.0829843 0.316963 -0.41883 0.659237 -0.374274 0.602056 -0.237286 0.624685 -0.0256708 -0.0903837 0.377134 -0.178749 0.401089 -0.1 0.414985 0.0668354 0.414686 0.0884433 0.0431483 -0.866403 -0.560248 -0.866065 -1.37207 -1.5106 -1.70285 -2.07084 -0.472833 0.570767 0.273911 -0.573092 -0.275617 -0.55753 -0.47825 0.405209 0.000219857 0.17081 -0.320006 -0.324249 0.0693802 0.476076 -0.498911 -0.1 0.497914 -0.346183 0.0242007 -0.27493 -0.700746 -0.880289 -1.8717 -1.44204 -0.700057 -1.45057 -1.43833 -0.781704 0.378689 0.71964 0.739417 -0.165557 -1.01537 -0.327217 -0.500352 -0.42265 -0.232557 -0.422165 -0.318228 -0.747976 0.323511 -0.177685 0.401089 0.199996 -0.502331 -0.616735 -0.186604 0.0189811 -1.16981 -1.23067 -1.18669 -1.22626 -1.13202 -0.49531 -0.422106 0.895483 -0.0181627 -0.09113 -0.759167 -0.623288 -1.32405 0.214554 -0.890022 -0.716725 -0.618906 -0.54528 -0.83855 -0.602648 0.226168 -0.249011 -0.478721 -4.3238e-06 0.197665 -0.0930132 -0.130557 -0.143569 -0.937598 -0.405604 -0.393533 -0.140025 -0.456506 -0.0419134 0.0139172 0.121193 0.572366 -0.341242 -0.446517 -0.315177 -0.409613 -0.336679 -0.804088 -0.31206 -0.486662 -0.89397 0.132694 -0.137282 -0.089654 0.0466091 -0.398741 -0.4 0.19664 -0.216305 -0.684503 -0.793864 -0.625179 -0.691029 0.47352 -0.885859 -0.446659 -0.104146 -0.00764611 0.0830989 0.0625691 0.0971357 -0.807618 -0.37662 -0.635463 -0.783284 -1.13339 -0.78654 -0.512276 0.190697 -0.838382 0.137371 0.32373 -0.357011 0.420117 0.3 -0.00102478 0.211279 -0.72759 -0.258939 -0.0207946 -0.108417 0.196623 -0.663845 0.043086 -0.0876118 -0.00499891 0.474687 0.278265 -0.816042 -0.555262 -0.487044 0.15738 -0.721532 -0.390095 0.238726 -0.564423 -0.0649369 -0.325499 -0.239158 0.163244 -0.402166 -0.388837 0.5 0.499986 -0.375274 -0.638017 -0.37663 -0.0260324 0.839448 0.239624 -0.192439 -0.795095 -0.605146 -0.713972 -0.627844 0.0577877 -0.882753 -0.563519 -0.553867 0.554778 -0.12377 -0.13829 0.222549 0.579842 0.698275 -0.146042 0.128349 -0.260624 -0.488511 0.00723368 0 -0.399718 -0.234899 -0.734266 0.294658 0.233238 0.901403 0.393172 0.538661 0.0447496 -1.11823 -0.384989 -0.922614 -0.924085 -0.85354 -0.531445 -0.184277 -0.15529 0.181552 0.227062 0.13001 -0.0487823 0.214887 0.743731 0.756365 0.526148 0.195141 -0.000448933 -0.3 -0.399683 -0.38715 -0.0716961 -0.301954 -0.33126 0.796517 0.705211 0.733886 -0.128833 0.335502 -1.02012 -0.777912 -0.139955 -0.410665 -1.03882 -0.386328 -0.238197 0.724464 -0.207539 -0.0357206 0.748899 0.664248 0.15524 0.803603 -0.261803 -0.231069 -0.299909 0.5 0.500003 -0.432291 0.429614 -0.285216 -0.132584 0.455271 0.88762 1.06171 0.171008 0.530259 0.245238 -0.0162347 -0.564943 -0.532111 0.253239 0.34709 -0.328399 0.0596404 0.287997 0.522007 0.259388 0.441708 0.851751 0.716111 0.162553 0.385371 9.08532e-05 -0.4 -0.3 -0.301711 0.37983 -0.69645 -0.283178 -0.357856 0.293834 0.585848 0.788111 0.912825 0.713766 0.386079 1.03346 0.9126 0.283571 0.715395 0.299156 0.807016 0.398807 0.114896 0.0041319 -0.0231745 0.131219 -0.268176 0.170419 -0.494498 -0.4 -0.5 0.2 -0.100379 0.144588 0.325518 -0.401011 0.117829 0.409103 -0.163311 0.0146731 0.48985 0.870274 0.847975 0.793267 0.700953 0.72774 0.767199 0.322731 0.0109075 -0.222383 0.561778 -0.347793 -0.247491 -0.133662 -0.47411 0.285419 -0.20041 0.1 0 0 -0.500001 -0.299998 -0.339789 0.494163 0.139514 0.440277 -0.00232189 0.0239865 0.57692 0.424976 0.724646 1.18826 1.16911 1.088 1.33482 0.627632 0.494403 0.513425 -0.0678113 0.254482 -0.363262 -0.119367 0.440028 0.499591 0.0995898 0.5 -0.1 0.3 -0.4 -0.19609 -0.398319 -0.273072 -0.25196 0.685815 0.303747 0.394772 0.377333 0.89268 1.07863 0.836469 1.35024 1.14228 0.948559 0.647659 0.753378 -0.228046 -0.172714 0.23063 -0.336948 0.210887 -0.0994775 2.61051e-14 0.4 0 0.2 -0.4 -0.3 -0.5 -0.1 -0.0931111 0.0194015 0.419667 -0.356414 -0.391408 0.525646 0.135826 0.145048 0.467759 0.119759 0.544697 0.12909 0.0641622 0.607967 -0.045772 0.00162687 0.329664 -0.372884 0.0270903 0.1 0 -0.1 -0.2 -0.126391 
-0.2 -0.3 -0.4 0.1 0 0.5 -0.4 0.5 0.3 0 -0.3 -0.4 -0.00018545 0.0998145 1.56632e-08 0.4 0 0 0.4 -0.4 0.5 -0.2 -0.5 -0.3 0.3 -0.4 0.1 0.2 -0.2 -0.2 0.3 0.1 -0.3 -0.3 -7.12463e-06 -0.200008 -0.298012 -0.00880875 0.291863 0.29192 0.311688 -0.493654 0.309644 -0.362787 0.0401086 0.400162 -0.00150664 -0.299217 -0.399207 0.0999577 0.214379 -0.0856213 -0.3 0.5 0.4 0.3 -0.1 0.2 -0.5 0.3 -1.97483e-06 -0.200011 0.499986 -0.500155 -0.355941 0.191028 0.487859 -0.0869628 0.233024 0.352981 -0.641754 0.312566 0.0677793 -0.652678 -0.192854 -0.0599074 -0.242203 0.278843 -0.406299 0.392755 0.0904018 0.400265 0.2 -0.1 -0.1 0.3 0.4 0.5 0.487386 0.268651 0.27122 -0.188644 0.188498 0.346559 0.0276463 0.299602 -0.391908 -0.52212 -0.487979 -0.0856024 0.396948 0.0268205 -0.119416 -0.158831 0.129114 -0.101375 -0.201992 -0.0343546 0.0728394 0.311156 6.0672e-06 -0.3 -0.5 -0.4 -0.194174 -0.548445 -0.0860282 0.28279 -0.0161173 -0.0211534 -0.146643 -0.015098 0.107814 0.621855 0.21382 0.0328751 -0.269853 0.0512659 0.61649 0.673861 0.305328 0.977397 0.688813 0.245266 0.491843 -0.202452 0.375833 0.518731 0.199419 -8.88282e-06 -0.1 0.2 -0.194383 0.281849 -0.50237 -0.0753845 -0.559574 -0.287067 -0.537032 0.410981 0.844005 1.18972 0.608599 0.434894 0.35266 0.634048 0.805017 1.29441 0.681469 0.552417 1.19108 1.32812 0.724578 0.636897 0.129307 -0.238416 -0.394681 -0.500009 0.5 -0.1 0.460027 -0.403105 0.0871016 -0.571152 -0.46658 -0.668517 -0.377363 -0.412539 0.698211 0.363475 0.752454 0.662754 0.616217 -0.261891 0.418167 0.812963 0.776964 0.709954 0.362167 0.427221 0.418375 0.405566 -0.146815 0.669172 0.322406 0.11533 2.43584e-09 -1.75334e-05 0.104011 -0.581815 -0.578052 -0.71255 0.156891 0.740643 0.125852 -0.587222 0.299396 0.643625 0.756246 1.08823 0.422946 0.315396 -0.313476 0.627121 -0.585285 0.136763 -0.0770135 0.34182 -0.486103 -0.258217 0.576373 0.0447069 0.450686 0.417034 0.5 -0.399996 0.424621 -0.56452 0.159257 -0.890607 -0.294745 -0.299331 0.832173 0.520089 0.380951 0.996139 0.515783 -0.734985 -0.224184 -0.627767 0.0859219 -0.835999 -0.901636 -0.643456 -0.329293 -0.577534 -0.0880897 -0.667614 -0.452033 -0.0108929 0.133476 0.503107 -0.5 -0.0975052 0.241426 0.389243 -0.0999663 0.0595657 0.662057 0.104218 0.229028 0.535532 0.328487 0.850604 -0.338444 -1.37921 -1.51685 -1.20627 -1.80485 -1.35051 -1.97199 -2.01583 -0.653414 -1.36051 -0.836773 -0.10976 0.156115 -0.603643 0.364242 -0.196846 -0.4 0.102463 0.0753955 0.0516346 -0.126205 0.251694 -0.160365 0.241732 -0.212469 0.774682 0.920485 1.03393 -0.289265 -0.646408 -1.17969 -1.12138 -0.495613 -1.26464 -1.62864 -0.996526 -1.35092 -0.805063 -1.20548 -1.06057 -0.647207 0.240513 0.324481 -0.299354 -0.5 -0.400888 -0.176529 0.472845 0.109543 0.320349 -0.203084 -0.342018 -0.547566 -0.229526 -0.54346 -0.461812 -0.577396 -1.34397 -1.1723 -1.12842 -0.957136 -0.0378602 -0.36693 -0.472699 -0.595941 -0.765529 -1.49317 -0.785241 -0.91559 0.234731 0.148028 -0.0999025 0.4 -0.400032 0.414274 0.375438 -0.119323 -0.876303 -0.493243 -0.733491 -0.46542 -0.825111 -0.244763 -1.05558 -0.973851 -0.773435 -1.34889 -0.824489 0.00833579 0.346804 -0.0214945 0.0837523 -0.0122566 -0.0956622 -0.93081 -0.177737 0.053284 0.316944 0.340641 0.40011 0.2 -0.200031 0.474937 -0.336715 -0.0701474 -0.245563 -0.72268 -0.963931 -0.97494 -1.56119 -1.1928 -1.11182 -0.821573 -0.940672 -1.16767 -1.23872 0.362447 0.550033 -0.226292 -0.466067 -0.598337 0.334916 -0.581908 -0.379836 -0.378528 0.00307474 0.0892507 -0.0998904 0.2 -0.4012 -0.200562 0.147042 0.0422855 -0.847509 -1.22233 -1.24285 -0.697772 -1.06969 -0.188273 -0.618225 -0.91194 -0.547835 -1.09027 -1.06575 -0.221346 -0.894588 -0.497057 -0.494115 -0.981447 -0.273362 -0.111122 -0.626379 -0.903485 -0.191375 -0.437413 -0.399988 0.4 0.4988 0.294482 0.159315 -0.0937546 -0.603366 -1.29544 -0.723793 -0.665294 -0.431417 -0.872217 -0.716831 -0.316478 -0.73175 -0.252466 -0.613621 -0.391315 -0.969546 0.405024 -0.473709 -0.714709 -0.547631 -0.191768 -0.166052 0.171446 -0.278318 0.126565 0.00162755 -0.1 -0.501202 0.0731184 -0.239406 0.11956 -0.80351 -0.83698 -0.0868287 -0.43521 0.322541 0.112867 -0.360384 -0.260275 -0.614952 -0.365382 -0.661455 0.0269727 -0.615602 -0.0869597 -0.663664 -0.727239 -1.05314 0.0165966 0.0754766 0.418856 0.499964 -0.253456 0.416 0.4 0.198798 -0.0446278 -0.515253 -0.343798 -0.659732 -0.582787 0.0848752 0.181884 0.0372867 -0.6652 -0.676277 0.347119 -0.407501 0.148404 -0.538323 -0.345747 -0.305089 0.332674 -0.124353 -0.70857 -0.352837 0.0799889 -0.0229945 0.950309 0.437014 -0.0666931 -0.182959 0.1 0.2 -0.0491596 0.555788 0.179487 0.054777 -0.110235 0.0591302 -0.196742 0.297651 -0.889526 0.156207 -0.284638 0.0222047 0.195299 -0.411025 -0.367725 -0.406282 -0.542136 -0.0766335 -0.335348 -0.590536 0.0773005 0.902269 0.952191 0.303334 0.172006 0.404012 -2.43508e-21 -0.199949 0.157383 -0.156599 -0.441307 0.0243274 0.597654 0.112579 -0.0934192 -0.259102 0.131366 -0.570467 0.67989 -0.246906 0.281197 -0.347291 0.400053 -0.0924329 0.207833 0.359365 -0.0747039 -0.128114 0.618512 1.19673 0.962564 -0.044884 0.165732 -0.0982878 0.2 0.0011463 0.273991 -0.383457 -0.265279 0.201169 -0.260271 0.75013 0.010938 0.325299 0.0211407 0.802958 0.0233626 0.158906 0.923794 0.93207 0.94474 -0.167615 0.354205 0.0379986 0.163833 0.536241 0.82278 0.771667 0.32742 0.552402 -0.340785 -0.0999019 0.2 -0.198905 -0.226945 -0.419443 -0.18863 -0.563559 0.369855 0.69253 0.278457 0.435751 0.480956 0.825316 0.328952 0.340689 0.990468 0.401812 0.846083 0.8897 1.11018 0.605057 -0.219478 0.445591 0.914218 0.513886 1.09658 0.358479 -0.441752 -0.199236 0.4 0.2 0.371655 0.355226 0.149772 -0.0387236 0.223812 0.755843 0.50559 0.835749 -0.129683 0.744846 0.587102 0.440055 -0.240503 0.498432 0.619676 0.8357 0.859553 1.2572 1.00934 0.687244 1.34779 0.657527 -0.0231396 0.294284 0.418838 0.000763905 -0.3 0.4 -0.527558 0.0581227 -0.379386 0.439242 -0.284274 0.444974 0.0175363 0.072637 -0.258026 0.851314 0.0372677 -0.381843 -0.150692 0.251077 0.677486 0.319449 0.224385 0.820679 1.09841 0.479123 0.886046 0.298432 0.401881 0.10159 -0.279237 0.3 -0.3 0 -0.041861 0.206742 0.372193 -0.318093 0.0506821 -0.685794 -0.653986 0.173186 -0.161049 0.240044 0.589363 0.0318755 0.195274 0.088809 0.443016 -0.46097 0.579551 0.430979 -0.0549534 0.498091 0.659438 -0.152865 -0.258901 0.109775 0.00111582 -0.5 0 -0.2 -8.05436e-07 -0.21437 0.169917 -0.101159 -0.147813 -0.0371102 0.0463265 -0.313671 0.333339 -0.245922 0.173821 0.0551902 -0.0534471 -0.440762 0.40035 0.0926664 0.15053 0.652441 -0.0285586 -0.498977 -0.524133 -0.456855 0.268658 -0.0997544 -0.399754 0.1 -0.5 0 0 0.200001 0.299252 0.108333 0.107236 0.507051 -0.386925 0.358501 -0.0843642 0.338253 -0.247307 0.438664 0.373061 -0.4337 0.248872 0.0552868 0.232468 -0.0923419 -0.0860193 0.0942001 0.0995167 0.503674 0.1 0.3 0.2 -0.3 -0.3 -0.5 0.1 -0.4 -0.3 0.00335711 -0.191564 -0.191564 -0.0949211 0.4 0.201128 -0.498916 -0.0962959 0.203013 -0.0968922 -0.0952042 -0.294459 0.0962056 0.0915551 0.491054 0.500322 -0.0960134 -0.396035 0.4 0.2 0 0.2 -0.4 -0.0494041 
0.5 -0.1 0.2 0.2 0.4 0 0.2 -0.1 0.4 0 0.2 0.1 0.208005 -0.391995 0.00502601 0.205026 -0.3 0.1 0.4 0 -0.2 0.5 0.1 0.4 -0.2 0.3 0.2 0.5 -0.1 -0.1 0.5 0.3 0.4 -0.399993 0.100444 0.101464 -0.394543 0.313612 -0.2705 0.218709 -0.280782 0.316519 -0.151449 -0.145325 -0.14709 -0.237828 0.008138 0.0133676 0.11397 0.468045 0.00155052 -0.199785 -0.2 0.2 0 -0.2 0.3 0.1 -0.5 -0.100462 -0.500043 0.0100654 0.502772 0.205898 0.00880568 0.658947 0.517968 0.176211 -0.26822 0.536492 0.215866 -0.0869043 0.481353 0.0858349 0.132644 0.288756 0.555893 0.139923 0.103302 0.409766 -0.377273 0.102881 0.5 -0.3 -0.5 0 0.0972009 0.0110112 0.208092 -0.49899 -0.0205366 0.619763 -0.362122 0.184854 0.846799 -0.0102656 0.651469 0.838753 0.443239 0.511395 0.835983 0.732493 0.719912 1.39219 0.903209 0.533558 0.626578 0.179168 0.540393 0.220008 0.519712 -0.3 -0.1 -0.2 -0.502783 0.111579 -0.302891 0.509039 -0.0083041 0.0798051 0.372349 0.205805 0.344846 0.535181 0.253688 0.172867 0.431984 -0.266549 0.244027 -0.123088 0.910188 0.660066 0.635703 0.859877 0.415535 0.444369 0.113479 -0.0985755 -0.0915581 -0.500027 0.3 0.2 0.101565 -0.31304 0.144997 0.527588 0.0268838 0.0321994 0.55676 -0.435222 -0.280889 -0.119889 -0.610722 -0.328986 -0.256402 -0.268686 -0.0679766 -0.631974 -0.61875 0.0487146 0.095277 -0.0304013 0.00570441 -0.179514 0.0534266 -0.00116476 -0.411497 -0.199767 -0.2 -0.3 0.544464 0.244683 0.0753744 -0.0961528 0.301647 0.379607 0.05017 0.0016543 -0.93627 -0.310552 -0.328521 -0.279657 -0.25496 -1.20622 -1.38215 -0.677473 -0.946007 -0.454384 -0.796377 -0.474584 -0.167378 -0.131987 -0.528757 0.129649 -0.415234 -0.299784 2.42285e-10 0.400063 -0.487596 -0.235632 0.604899 -0.512001 0.29774 0.55571 -0.262549 -0.0883541 -0.14881 -0.794825 -1.02497 -0.744938 -1.09558 -0.563112 -1.19268 -1.52366 -1.14525 -0.488172 -1.56567 -0.876813 -0.332297 -0.622663 0.0203442 0.366159 0.195016 0.384981 0.2 -0.364272 -0.46272 -0.115584 0.0940079 0.199573 0.266232 0.499355 -0.768146 -0.242716 -0.585348 -1.44406 -1.29961 -0.257806 -0.878983 -0.892924 -0.367214 -1.47238 -1.41807 -1.01123 -0.479881 -0.686858 -0.808028 -0.821683 0.0647161 -0.409683 -0.0412865 -0.015556 0.2 0.553308 -0.248268 0.166704 0.750999 -0.151743 0.0164513 0.0182834 -0.841025 -0.310394 -0.291701 -0.552081 -0.159676 0.385705 -0.153549 -0.634974 -0.468666 -1.00791 -0.39659 -1.32335 -0.424583 0.0769223 -0.439969 -0.37673 -0.387361 -0.638724 0.374167 -0.171068 -0.5 0.0443917 -0.28523 0.83061 0.429558 -0.213996 -0.261232 0.28418 -0.18218 -0.0389049 -0.436029 0.563198 0.622498 0.617865 0.885038 -0.343105 -0.0896036 -0.833011 -0.428742 -0.536452 -0.273694 -0.482637 0.182203 0.0633399 0.130492 0.39859 -0.393784 0.149669 -0.2 0.326837 0.309089 0.142392 -0.196615 0.590582 0.164424 -0.0193663 0.0557401 -0.584473 0.581918 0.377038 0.96099 1.73836 1.75641 0.312302 -0.286815 -0.343707 -0.318837 -0.319011 -0.0130263 -0.456489 0.483625 0.772387 -0.34323 0.638123 -0.255201 0.0195196 -0.0999893 -0.253386 0.530459 0.287141 0.655805 0.516085 -0.130992 0.297927 -0.369954 0.213472 -0.328702 0.148113 1.18542 0.979503 0.985123 0.974288 0.302817 -0.166041 -0.137694 -0.261141 -0.516481 -0.342299 0.186787 0.518432 0.573091 0.114118 0.3025 0.220388 -0.2 0.119804 0.326425 0.517398 -0.00522437 0.566294 0.279562 -0.211777 0.673963 0.144007 0.186021 0.200776 -0.45629 -0.454083 -0.325568 0.492238 -0.0974246 -0.0381211 -0.0856971 0.595502 0.623398 -0.106942 0.96973 1.05701 -0.0824099 -0.0157881 -0.134666 -0.206429 0.4 0.516142 -0.319051 0.678862 0.510959 -0.332624 0.803514 -0.157954 0.117102 0.241903 -0.470751 -0.678304 -0.809064 -0.56817 -0.482561 -0.0494803 -0.919197 -0.614975 -0.0412858 0.24484 1.01939 1.03599 0.90416 1.04781 0.401636 0.0407578 0.261663 -0.206427 0.000603444 0.200158 -0.427147 -0.0207181 0.15196 -0.0365244 0.00039458 0.0466518 -0.30477 0.071645 -0.637993 -0.507711 -0.801189 -0.0171801 -0.682442 -0.269332 -0.573542 -1.37578 0.138537 0.955728 0.8638 1.0326 0.836252 0.0558593 0.279699 -0.208302 -0.446 -0.525444 0.200603 -0.199842 0.259246 -0.124898 -0.0396694 -0.312586 0.221229 0.0286909 0.258139 -0.735034 0.503322 0.195195 -0.640307 0.295339 -0.642338 -0.906472 -0.511721 -0.629687 0.182156 0.61317 1.09063 1.23943 0.599951 0.46594 -0.044457 -0.0932476 -0.389638 -0.52274 0 -0.199842 0.258979 -0.413815 -0.17534 -0.218028 -0.135578 -0.0974361 -0.258241 0.0345299 0.204906 -0.0773379 -0.392933 0.00727704 -0.493029 -0.326976 0.12981 -0.0890245 -0.199598 0.426275 1.41127 0.758278 0.33981 0.516911 0.318675 -0.517907 0.0840762 0.355347 0.303839 0.4 0.0613002 0.192015 0.0636115 -0.236693 0.0500181 -0.0955282 0.352538 -0.0755406 0.490848 0.826201 0.807673 0.558463 -0.114439 -0.550182 0.22981 0.379824 -0.138934 0.734352 0.588832 -0.000649245 0.61085 -0.0874826 -0.134825 0.415536 0.0805314 0.461366 -0.4 -0.099996 -0.373104 0.282208 0.151535 -0.733743 -0.803515 -0.0262253 0.19531 0.224103 0.502609 1.15693 0.523907 0.766098 0.380451 0.889985 0.0406246 0.355533 0.204486 -0.325496 0.263269 0.134583 0.279162 -0.392037 0.0909246 0.348893 -0.0304211 -0.310534 -0.2 -0.3 0.219946 -0.556908 -0.265064 -0.781846 0.117161 -0.22869 -0.440541 0.0685508 0.353136 0.69996 1.11861 0.589786 0.59171 0.692923 0.370619 0.595138 0.0857415 -0.438177 -0.0741185 0.303722 -0.569316 -0.204013 0.272727 -0.424785 0.391663 -0.2 -0.2 0.2 -0.387083 -0.479265 -0.613934 -0.341884 -0.293702 -0.0812993 -0.16854 0.225907 0.490287 0.921466 0.929426 1.04492 1.38391 0.980943 0.681239 0.396477 0.305818 0.128926 -0.157391 0.0737493 -0.640904 -0.276707 -0.351613 -0.152244 0.194309 -0.5 -0.4 0.1 0.200029 -0.386835 -0.430485 -0.0268627 -0.268754 -1.34318 -0.985665 -0.251689 -0.00645548 0.398575 0.571585 0.670063 0.118776 0.379459 0.260141 0.615543 -0.233969 -0.166005 -0.270089 -0.250674 -0.375007 -0.299957 0.26546 -0.230705 0.0979841 2.76039e-10 -0.5 0.4 0.100007 -0.269715 -0.56623 -0.138504 -0.644332 -0.30105 -0.795953 -1.24372 0.122051 -1.15211 -0.772588 -0.589673 -0.541309 -0.542627 -1.16941 -1.5928 -1.30381 -0.512587 -0.0392898 -0.290843 -0.788204 -0.168253 0.274156 -0.0280701 -8.77507e-05 0.4 -0.3 -0.5 -0.4 0.402785 0.110263 -0.391494 0.0629041 0.204119 -0.575593 0.216869 -0.628368 0.237097 -0.307434 -0.50534 -0.068571 0.428605 -0.487457 0.309362 0.0642586 -0.660927 -0.30337 0.303644 0.260697 -0.468431 -0.532079 -0.180455 0.320242 0.3 0.3 0.4 1.06885e-09 -0.3 0.499989 0.0580258 -0.455526 0.556795 0.487297 -0.183657 0.0017882 -0.0276142 -0.12153 0.0540641 0.0903097 0.101596 0.0749997 0.209083 0.420767 -0.340753 -0.354485 0.160006 0.0242744 -0.124323 -0.20031 0.5 0.5 0.4 0 0 -0.3 0.2 0.000263923 -0.476723 -0.169913 -0.186336 0.320515 -0.126789 -0.268318 0.653897 -0.251244 0.522623 -0.0750629 -0.455777 -0.0307913 0.422391 0.068761 -0.0261436 0.410721 -0.174253 0.438856 0.205597 -0.10009 8.84673e-21 0.4 -0.3 -0.4 0.3 -0.2 -0.2 -0.39969 0.401517 0.302647 0.102647 -0.272461 -0.373534 -0.448478 0.00940144 -0.194055 -0.298192 0.0253749 0.482521 0.187538 0.474408 0.0134706 -0.0149227 0.196965 0.387858 -0.103485 -0.0942807 0.4 -0.2 0.3 0.3 -0.895373 
0.1 0 0.4 0.1 0.1 -0.1 -0.1 -0.1 -0.5 0.3 0.3 -0.1 -0.301069 0.498931 -1.2386e-07 -1.2386e-07 -0.5 0 -0.3 -0.5 0.4 -0.5 -0.4 0.2 -0.5 -0.5 0.5 0.5 0.3 0.3 -0.3 -0.2 0.4 0.373028 -0.560653 -0.570704 -0.460343 -0.0356757 -0.209369 -0.414836 -0.0547399 0.0460663 -0.440111 0.178315 -0.111228 -0.216802 -0.00584078 -0.494312 0.287869 -0.511417 -0.20899 0.399784 -0.2 -0.4 -0.4 0.2 0.4 0.4 0 0.2 -0.299984 -0.426946 -0.268362 -0.545935 -0.367594 -0.134687 -0.020235 -0.506458 -0.136647 -0.626317 -0.138902 0.210662 0.155641 -0.0569122 -0.0855253 0.377359 -0.0741385 0.319711 -0.065577 0.00545539 -0.197709 -0.5 0.4 -0.5 0.2 0.4 0.2 0.489291 0.127809 0.301425 -0.273369 -0.237786 -0.627568 0.172529 -0.178785 -0.3088 -0.16117 0.0436026 -0.129246 -0.373123 0.0597581 0.0146077 0.476425 -0.0664251 0.0512924 -0.428041 0.114842 0.273797 -0.315559 0.287405 -0.5 0.2 -0.1 0.3 0.5 0.0126871 -0.441729 -0.547093 -0.0598327 -0.49543 0.511923 0.0800541 -0.400804 -0.902428 -0.0104593 0.0177329 -0.778393 0.0593951 0.183967 0.495593 0.212208 -0.343861 0.00481255 0.370883 0.283828 0.35224 0.613327 0.226612 -0.499122 -0.2 0.5 -0.1 0.0998709 0.00476788 0.0406938 -0.0977613 0.0590466 -0.223907 0.497877 -0.0502528 0.337871 -0.102505 -0.413574 -0.799758 -0.558539 0.000710323 -0.443037 0.0264148 0.00826072 0.181953 -0.133932 0.0180577 -0.0675568 0.545874 0.120119 0.0480747 0.107726 -0.299989 0 -0.5 -0.0190866 0.50084 0.26145 -0.00777583 0.138891 -0.341569 -0.156962 0.280148 -0.0133472 0.327171 0.354522 0.122719 0.287272 0.764709 0.681482 0.850753 0.355952 -0.207575 0.523988 0.193423 0.438629 0.0884441 0.853239 -0.19399 0.490232 -0.426622 0.2 0.00393608 -0.0274248 -0.513884 -0.326678 0.516666 0.187487 0.0824385 0.255666 -0.0824816 -0.353115 -0.119229 -0.0583793 0.590123 0.729196 0.924198 1.35032 0.677725 0.808918 0.581425 0.190278 0.0315715 0.343038 0.191009 0.750814 0.444156 0.128066 -0.154046 -0.4 0.00411339 0.0724737 -0.148969 0.0989732 -0.214254 0.409033 -0.426994 -0.195241 -0.670733 -0.289924 0.205056 0.357566 0.213508 0.761194 0.680407 0.410286 0.250536 0.426255 0.343876 0.438397 0.435097 0.830651 0.527016 0.651154 0.339431 -0.454096 0.370543 0.2 0.00719931 -0.419418 0.450349 -0.22625 0.0376942 -0.0219517 -0.266248 -0.474146 -0.224957 -0.579238 0.197261 0.558907 0.546595 0.0652571 0.62999 0.415612 -0.22857 0.867482 -0.130616 0.486856 0.636724 0.460633 0.107425 -0.0285399 0.92119 0.111896 -0.329501 0.5 0.00719966 0.105919 -0.327819 0.418562 0.253324 -0.234359 -0.177834 -0.551583 -0.179962 0.0483321 0.586086 0.208199 0.368276 0.374702 0.44533 0.583505 0.587828 0.776877 0.147822 -0.137749 -0.698642 0.298063 0.580303 0.342928 0.803995 0.182816 0.0651101 -0.3 0.299026 -0.0975032 -0.440943 0.181457 -0.463594 -0.304535 -0.763959 0.212058 0.273194 0.972751 1.35383 0.909598 0.886222 0.335102 0.854953 0.370153 0.748251 0.738243 0.267856 -0.417502 -0.853003 -0.622651 -0.153692 -0.52113 0.797807 0.00699989 0.0671998 -5.51624e-18 -0.299964 0.314753 -0.212042 0.261645 -0.157907 -0.30717 0.422271 -0.330663 0.670677 0.760854 1.2832 0.762808 0.517372 0.159921 -0.0325188 0.263039 0.0444187 -0.127264 -0.657746 -0.0308255 -0.73021 -0.307216 -1.03503 -0.800355 0.0734273 0.422028 -0.4999 -0.5 -0.0999997 -0.213322 -0.214103 -0.106608 0.174522 -0.0187313 -0.292657 0.863099 0.603248 1.66671 0.384957 0.347412 -0.15356 -0.253717 0.399745 0.747193 -0.485248 0.391995 0.248456 -0.0947635 -0.913377 -0.909816 -1.21333 -0.669152 -0.0984603 -0.153966 -0.0998996 0.1 0.100017 -0.00147474 0.0595061 -0.208836 -0.235358 0.856251 0.640697 0.845697 0.320723 0.838652 0.753753 -0.109847 0.0522871 0.373568 0.0902754 0.0108251 0.837818 0.215601 0.0916366 -0.0727511 0.0652015 -0.666759 -0.740516 -0.853254 -0.119896 0.311822 9.75628e-05 -0.300139 0.300017 0.400017 0.437123 0.0708994 0.310311 0.331097 0.543736 0.597108 0.737714 0.221764 0.665565 0.124449 -0.0715521 0.134747 -0.0308559 0.510158 1.52353 1.08307 0.556095 -0.232756 -0.198024 -0.32033 -0.745017 -0.111921 -0.163721 0.353698 0.120952 0.0998612 0.49782 -0.00117779 0.157366 0.478469 -0.152102 -0.182134 -0.45839 -0.236451 0.667752 0.417774 0.714495 0.374197 -0.36684 0.112644 0.0537163 0.502605 1.10966 0.354846 0.235586 -0.253928 -0.474109 -0.0273117 -0.515047 -0.321053 -0.0801944 -0.170824 0.218232 0.4 -0.50213 -0.184618 0.362921 0.593708 0.515336 0.0651567 -0.0568631 -0.321798 -0.427809 -0.442436 -0.850122 0.309635 0.626685 0.181488 -0.0133713 0.462466 0.350636 0.323082 0.0218764 -0.35861 -0.396498 -0.79135 -0.396447 0.160514 -0.646126 0.178964 -0.00796099 0.4 -0.29995 0.217492 0.0640559 -0.0243961 0.19522 0.707206 -0.32405 -0.406597 -0.916691 -0.687464 -0.578477 -0.828665 0.166661 0.257346 0.493303 0.743016 0.44699 0.117462 0.00186918 -0.0116799 -0.632107 -0.248504 -0.378026 -0.339927 -0.500614 -0.0363013 -0.518598 0.4 -0.2 0.16423 0.112118 0.469828 0.368837 0.122756 -0.219622 -0.499619 -0.364708 -0.573142 -0.248256 -0.354402 -0.136308 0.00807206 -0.0568768 0.0138834 0.0708321 -0.699546 -0.864744 -0.501863 -0.35065 -0.0646309 0.0297929 -0.0582032 0.020176 -0.00284308 -0.110761 0.5 -0.495262 -0.0447107 0.193096 -0.00373394 0.164521 0.405266 -0.515925 -0.466981 -0.678632 -0.914873 -1.02463 -0.495707 -0.530553 -0.22754 0.322869 -0.542097 -0.632564 -0.704439 -0.25304 -0.202044 0.02754 0.565336 -0.0635197 0.575731 -0.311876 -0.0165 -0.399841 -0.2 -0.495262 0.0584433 0.405331 0.28185 -0.68407 -0.23675 -0.202479 0.299593 0.143985 -0.551914 -0.51053 -0.939495 -0.404436 -0.510875 0.133366 -0.745383 -0.706821 -0.346908 -0.625519 -0.0574212 0.83389 0.891937 0.170272 0.663383 0.248249 0.0549796 -2.26715e-11 -0.2 -0.2 0.0188328 0.0131946 0.0901651 -0.0285867 0.0523168 -0.552191 -0.511602 0.143363 0.771698 -0.466847 -0.0248577 -0.161989 0.190968 0.0761528 -0.597622 -0.0820104 -0.083228 0.215441 0.243198 0.325152 -0.139618 0.300806 -0.137529 -0.0073302 0.450756 -0.2 -0.5 0.1 0.299189 -0.443388 0.334362 0.440344 -0.208413 0.566055 0.272943 0.731783 0.328342 0.14834 -0.342803 -0.428324 -0.459788 0.551908 0.141777 0.341899 -0.58992 0.397353 -0.335803 0.525299 -0.217509 0.242331 0.0757255 -0.00104107 -0.0999072 0.5 -0.3 0 -0.501146 -0.182587 -0.0823242 0.158152 0.579686 0.0363388 0.677762 0.0885412 0.447319 0.205051 -0.328468 -0.187661 0.0738467 0.0770727 0.161547 0.331316 0.617836 -0.372577 0.204723 0.0231527 -0.286808 0.33099 -0.474785 0.102653 -0.100087 -0.5 0.2 0.5 -0.401703 0.506126 -0.274269 0.330084 0.0057837 0.689051 0.00271159 0.682488 0.658295 0.536057 0.505531 0.2077 0.0404841 0.441865 0.535207 0.0370767 0.691322 0.61466 0.0844422 0.499246 -0.180908 0.0561803 -0.23855 0.199988 -1.19339e-05 -0.3 0 0.4 0.2 0.209238 0.130897 -0.341309 -0.0388572 -0.0563045 -0.21545 0.301097 0.169983 0.490213 0.173748 -0.445695 -0.514873 -0.288877 -0.0657037 0.334556 0.106589 -0.0878759 0.434766 -0.483791 -0.482649 0.415284 0.5 4.92222e-22 0.4 0.3 0.5 -0.5 0.2 -0.3 0.200746 0.489006 -0.11768 0.28232 -0.106686 -0.199999 0.499821 0.101881 0.200767 -0.487928 0.504653 0.104371 -0.506779 0.493548 -0.000322315 -0.39969 0.500589 -0.298251 -0.0986228 0.200009 0.3 -0.1 -0.1 0.1 0.643934 
0.4 -0.4 -0.2 -0.4 -0.3 0.2 0 0.2 -0.5 -0.5 -0.5 -0.4 -3.51903e-05 0.399965 5.28835e-07 0.200001 0.3 0.4 -0.2 0.4 0 -0.2 0.5 0.1 0.1 0.3 0.1 0.5 -0.4 -0.3 0.5 -0.2 0.5 0.1 -0.2 -1.33722e-05 0.299642 -0.000357778 0.199658 -0.399993 0.000158524 -0.223566 -0.324016 -0.523693 0.000963838 0.299199 0.497942 -0.00242993 0.199564 0.199988 -0.400021 0.300005 -0.1 0.1 -0.3 -0.5 0 -0.1 0.4 0.5 0.4 -0.2 -0.5 -0.334845 -0.343835 -0.222921 -0.469907 -0.0955819 -0.445021 -0.0465608 -0.261226 -0.577416 0.319692 0.384521 0.165189 0.499376 0.298416 -0.299897 0.200797 0.0994687 -0.400528 1.37024e-18 0.2 0.5 0.3 -0.3 -0.1 0.2 5.37464e-09 0.399922 -0.0059318 -0.258517 -0.294532 -0.276452 -0.561026 -0.61529 0.0602525 -0.277756 -0.737359 -0.429662 -0.105957 0.243914 -0.661715 0.253304 -0.679133 -0.296345 -0.448554 0.464581 -0.00437057 0.299826 0.3 0.4 0.1 0.3 0.5 0.100506 -0.316439 0.453785 0.126964 0.273406 -0.487256 -0.670994 -0.52761 0.158629 0.151891 -0.769001 0.0219121 -0.624117 0.0327796 0.278146 -0.296169 0.0992552 -0.518548 -0.738075 -0.136036 -0.0598954 0.150464 -0.298732 0.297428 -0.4 0 0.1 -0.200003 0.518847 0.376472 -0.549699 0.022537 -0.189448 -0.279325 -0.364972 -0.37913 -0.0831227 -0.244115 -0.37028 -0.109047 -0.378198 -0.157863 -0.159911 0.06126 -0.231819 -0.27085 -0.44196 -0.379498 -0.430409 0.231335 0.0691444 -0.012049 6.9221e-10 0 0.3 0.34455 -0.444967 0.00802905 -0.521081 -0.508058 -0.124437 0.21224 -0.326268 -0.332454 -0.412768 -0.0107495 -0.186212 -0.426447 -0.00459913 0.126007 0.171381 0.56358 0.171172 -0.387182 -0.0163044 0.336993 -0.205022 -0.199182 0.309641 0.161452 -0.398378 0.4 0.301227 -0.052445 0.166651 0.146786 0.0863686 -0.0943599 -0.0166786 -0.248645 0.320874 -0.339694 -0.132323 -0.55441 0.491349 -0.00884454 -0.463793 -0.200982 0.312684 0.540473 0.0186466 0.377293 0.144112 0.281092 -0.115355 -0.334872 -0.235308 -0.372427 0.0065013 1.93722e-10 0.299999 0.256593 -0.0101055 -0.26337 0.119194 0.572378 0.368631 -0.846788 -0.273791 -0.105833 -0.476342 0.0796638 -0.192704 -0.434497 -0.266473 -0.316715 0.19063 0.444428 0.802059 -0.152393 -0.185864 -0.156196 -0.087675 -0.424758 -0.487157 -0.0352609 0.500109 0.1 0.00587162 -0.406422 0.459301 -0.241694 -0.168217 -0.327724 0.316379 -0.187385 0.159991 -0.514229 0.167084 0.181224 0.273502 -0.222674 -0.171774 -0.460149 -0.086063 0.791279 0.121681 0.375613 0.680425 0.146598 -0.0433453 0.160808 -0.219463 -0.354998 -0.0997526 0.5 0.105914 0.292405 0.324995 -0.294478 0.523021 0.390175 0.182629 0.26433 -0.149128 0.0579677 -0.533387 -0.431705 -0.088449 -0.29559 -0.192352 0.373905 -0.185693 0.118604 0.558105 0.0362284 -0.501225 -0.251957 0.575807 -0.71815 -0.564651 0.0118275 0.100072 -2.43413e-09 -0.198487 -0.00349196 -0.233648 0.328396 0.653529 0.152161 -0.108988 0.0601636 0.594133 -0.193423 -0.684906 -0.441496 -0.00159491 -0.118082 -0.229623 0.0648685 0.230301 0.168651 0.321752 0.613219 0.267516 0.141988 0.516323 0.0583368 0.0104198 -0.564197 -0.199987 0.3 -0.499965 0.0951042 -0.36313 0.492729 0.763333 0.161456 0.377683 0.449439 0.227525 -0.228171 -0.107685 0.0856714 0.13573 0.527866 0.37814 0.566169 -0.0823722 -0.221993 0.148167 -0.0307097 0.845196 0.152156 0.74574 -0.034626 0.392794 0.369809 0.300015 -0.1 -0.499965 -0.501597 -0.0634086 0.137432 0.130265 0.193279 -0.230038 0.469937 -0.273793 -0.72431 -0.994121 -0.165399 0.550865 0.337825 -0.0159302 0.0828121 0.129871 0.101193 0.703005 0.232667 0.521107 0.675365 0.185558 0.286214 0.343679 0.392772 0.400008 -1.93704e-15 -0.390569 -0.190546 0.0426004 -0.374467 -0.350211 0.488706 0.294133 0.0104412 -0.711807 -0.299515 -0.404317 0.0944411 0.40272 0.0551835 -0.00770488 0.00475399 -0.0102225 -0.193991 -0.187389 0.0347896 -0.300466 0.548993 -0.0115746 0.374174 0.430949 -0.187344 0.3 3.26249e-05 0.0094311 -0.390682 -0.16133 0.490365 0.401532 -0.199518 -0.137764 -0.0279129 -0.486756 -0.331403 -0.671199 -0.164526 -0.237139 -0.493181 -0.0761136 0.299182 -0.234831 -0.30752 -0.616412 -0.210334 -0.528551 -0.0212385 -0.0365238 -0.261033 -0.0120897 -0.304124 -0.100879 -0.499967 0.209397 0.309275 -0.450144 -0.23115 -0.533892 0.0268022 0.17103 -0.620981 0.00663954 -0.112494 -0.774402 -0.870338 -0.487749 -0.121833 -0.238343 -0.115285 -0.052503 -0.0642278 -0.766726 -0.616467 -0.431882 -0.614825 0.0450691 -0.740338 0.12119 0.284166 0.399055 0.4 -0.0905408 -0.292854 -0.0509022 0.162043 -0.120193 -0.330955 -0.197027 -0.213653 -0.199979 -0.354325 -0.309213 0.0643525 -0.73014 -0.675383 -1.02992 -0.432432 -0.350257 -1.22918 -0.68582 -0.405606 0.266184 0.0410263 -0.262376 -0.180897 0.132646 -0.445616 -0.214673 4.25552e-09 -0.0999382 0.0389973 -0.498218 0.248457 -0.575469 -0.679611 -0.36759 -0.565845 -0.436586 -0.972912 -0.443108 -0.319487 -0.412885 -0.517256 -0.82084 -1.03352 -1.31692 -0.475312 -1.01587 -0.181971 -0.846736 -0.427286 -0.67753 -0.607004 -0.395659 -0.0540334 -0.30675 -0.4 0.2 -0.287355 -0.0201107 -0.633797 0.180879 -0.0895794 -1.04134 -0.750668 -1.17082 -0.862824 -1.1654 -0.95122 -0.253135 -0.820454 -0.584123 -0.525932 -0.698087 -1.41151 -1.0637 -0.387749 -0.515697 -0.312996 -0.226576 0.384823 0.313588 0.266008 0.509292 0.5 0.3 -0.427739 -0.740737 -0.126587 -0.0802926 -0.571496 -1.06406 -0.751665 -1.07881 -1.32525 -1.46847 -1.17952 -1.37673 -0.434641 -0.788911 -0.79274 -0.829036 -0.681534 -1.39583 -0.179724 -0.192303 -0.0950995 -0.662571 -0.450434 -0.1082 0.161935 -0.100003 -3.46781e-10 0.3 -0.26266 0.174104 -0.71165 -0.143989 -0.263526 -0.819613 -0.0995963 0.0999367 -0.967077 -0.473504 -0.370623 -0.707532 -0.737035 -0.22178 -0.353071 -0.601914 -0.790902 -0.661776 -0.00179205 -0.267076 -0.622581 -0.100757 -0.500525 -0.031222 0.490301 -0.499995 0.4 -0.5 0.0591773 -0.365563 -0.0525002 0.275935 0.53944 -0.479311 0.139682 0.0363262 -0.331964 -0.157748 -0.350835 -0.232186 0.363158 -0.210167 -0.67816 -0.902252 -0.297344 -0.158943 0.0407118 -0.160185 -0.47936 -0.103669 -0.381931 -0.0433407 -0.0181549 -0.399995 -0.4 -0.3 -0.0160036 -0.400383 -0.14906 -0.362902 0.446345 0.30513 0.0461565 0.195852 0.679606 0.45672 0.122797 -0.44729 -0.0488541 0.204086 0.307851 0.237905 0.130324 0.32911 -0.272354 -0.167778 0.187473 0.0177285 0.496181 -0.0417573 -0.410079 -0.3 -0.1 0.1 -0.220492 -0.412754 0.253524 -0.175512 -0.582302 0.227476 -0.135837 0.544819 0.540765 0.303805 -0.435744 0.448005 -0.0412222 0.143984 -0.365535 0.0909379 -0.521473 0.173775 0.617525 0.182426 -0.339311 0.391746 -0.221957 -0.328096 -0.0269382 -0.1 -0.3 0.1 -0.320468 -0.411582 -0.299245 0.0148353 0.187718 0.209374 0.0883893 0.246889 -0.0563776 -0.013781 0.277568 -0.0581151 0.00733952 0.523142 -0.0758153 0.124684 0.0427185 0.588749 -0.483906 -0.35932 0.354276 -0.29308 0.275668 -0.126938 0.073062 -0.2 -0.1 -0.5 -0.1 0.303222 -0.298571 -0.0849881 -0.283366 0.41284 0.105255 -0.00684473 -0.116966 0.292467 -0.505808 0.161869 -0.0203952 -0.182057 0.419249 0.102246 -0.16943 -0.427577 0.0351638 0.320678 -0.374849 0.304172 -0.4 0.2 0.4 -0.3 -0.5 0 -0.5 0.3 0.500699 -0.489199 -0.48698 0.31302 0.00043959 -0.501777 0.09838 0.00037049 0.000591215 0.501386 -0.000433538 0.399719 -0.395165 0.027714 0.523046 0.410923 0.513449 -0.286484 0.413493 4.47048e-05 0.2 -0.1 -0.3 0 -0.686272 
0 -0.4 0.3 -0.1 -0.3 0.5 0 0 0.1 0.3 -0.3 -0.4 0.4 0.3 0.2 0.4 0.2 -0.5 -0.2 0 -0.4 0.2 0.3 0 0.1 -0.4 0 0.4 0 -0.1 0.1 -0.3 -3.41539e-23 -1.10231e-11 8.93133e-09 -0.3 0.499986 -1.37305e-05 0.199956 -0.400044 -0.195624 0.306014 -0.296285 -0.496109 0.00224908 0.400045 -0.400004 -0.299992 0.0999952 -0.500005 -0.200022 0.299995 0 -0.1 0.4 0.3 0 0.2 -0.5 -0.3 4.99886e-08 -0.2 1.72756e-08 -0.00157491 -0.0789183 0.0199776 0.0627471 -0.158719 0.135601 0.0923823 -0.0447645 -0.425452 -0.131632 0.0227409 0.471522 -0.15436 -0.25798 -0.16112 0.0388136 0.238217 0.499952 -0.3 -0.2 0.3 -0.1 -0.2 -0.200001 0.399999 -0.400621 -0.499029 -0.448007 0.404625 -0.416046 0.330135 0.0294993 -0.502825 -0.0292682 0.0457991 -0.146068 -0.0524476 0.4556 0.552681 -0.152809 0.3079 0.315081 0.469667 -0.273504 0.158012 0.258649 0.100002 -0.3 0.5 -0.1 -5.14904e-14 0.399972 0.0314996 0.181212 -0.152196 0.268258 -0.0463578 0.0401547 -0.163534 -0.011995 -0.306239 -0.30337 -0.278082 -0.628748 0.326194 0.537263 0.280187 0.0450608 0.5658 0.710218 0.117318 -0.055836 -0.555956 -0.649177 -0.517777 -0.0025322 -0.1 0.1 0 0.499972 -0.33492 0.17065 0.619283 0.00512089 -0.0963555 0.27995 0.294703 -0.721699 0.451107 -0.0696503 -0.372096 0.581141 0.656129 0.027315 0.591881 0.63188 0.104352 0.759909 0.331693 0.339094 -0.0771649 0.4518 0.0391573 -0.391085 -0.400006 0.2 0.0127085 -0.0755416 -0.0959048 0.447085 0.719386 0.142397 0.352894 0.361892 -0.518023 0.0686057 -0.138054 -0.904062 -0.545796 -0.439573 -0.14646 -0.032284 0.2905 0.667115 -0.103205 0.0524757 -0.768489 0.192976 0.595095 -0.285952 -0.161188 -0.244655 -0.565998 -0.2 -0.189378 0.00575173 0.304465 -0.01422 -0.379796 -0.230631 -0.0965478 0.797811 -0.590593 0.132671 -0.614399 -0.553951 -0.418281 -0.447656 0.307131 -0.685207 0.193225 -0.636441 0.270592 0.193422 -0.0291433 -0.110927 0.402546 -0.546249 -0.533097 0.110887 0.332967 -0.1 0.324219 0.0554307 0.49471 -0.294234 0.269977 -0.564566 -0.258218 0.424862 -0.840533 -0.105511 -1.05735 -0.475909 -0.911026 -0.897632 0.450757 0.10228 0.767161 0.366534 -0.291868 0.00841825 0.317205 0.568899 -0.118784 0.212279 0.189957 -0.190332 0.0978897 0.3 -0.280868 -0.21555 0.367194 -0.176304 -0.562889 -0.280353 -0.587462 -0.382183 0.0485897 -0.172829 -0.142738 -0.596375 -0.551134 -0.872236 -0.345717 0.713311 1.32642 0.0855315 0.320712 0.286204 0.603744 0.39699 0.627822 -0.0211224 -0.355725 0.0890824 -0.00105261 -0.2 0.321195 0.192282 0.450488 -0.743032 -0.383879 -0.640762 0.069077 -0.220209 -0.226917 0.0349714 0.573122 -0.079767 0.0633573 -0.0784614 0.457064 1.15677 0.843135 0.982787 1.05726 0.678123 0.136857 1.08704 0.413828 -0.0310994 0.11334 0.00143563 0.5 5.58552e-08 -0.484363 0.0335569 -0.371907 -0.00537389 -0.060306 0.242204 -0.571383 0.224853 0.946579 1.0242 0.601479 0.0317812 -0.433877 0.141917 0.307873 0.719459 1.46137 0.537907 1.16203 0.77793 0.375953 1.23793 0.77676 0.243542 0.302562 0.396197 -0.300009 -8.79378e-08 0.209217 -0.190862 -0.155788 0.296873 -0.425834 -0.437868 0.0502925 -0.393933 1.1763 0.591464 -0.645135 0.013264 -0.0937289 0.243245 0.365393 0.582952 1.31818 0.641907 0.955035 0.378661 0.788691 0.541572 1.05006 0.749059 0.314902 0.29879 -0.500008 -0.3 0.495653 0.213178 -0.522244 0.221105 0.1376 -0.0901822 -0.472265 0.355282 -0.365655 0.196332 0.0233057 -0.316091 -0.725492 -0.303051 0.301236 0.682215 0.478561 0.00831202 0.478181 0.0122512 0.462922 0.717732 0.632351 0.983831 -0.21753 0.298758 3.09188e-12 0.3 0.299949 0.500531 0.226656 0.215142 0.0196269 -0.255832 -0.146986 -0.225509 -0.151463 -0.137774 0.214396 -0.243326 -0.541431 -0.372069 0.194334 0.257085 0.368127 0.159325 -0.252351 -0.134955 0.109825 0.422647 -0.0300701 0.931898 0.170326 -0.396874 0.3 0.200421 0.299949 0.399479 -0.29144 -0.178539 0.210056 -0.269479 0.699147 0.726775 0.743151 0.0375964 -0.177473 0.061143 -0.842977 -0.152402 -0.122485 0.967829 1.05126 1.0904 -0.36219 0.0887862 -0.588347 -0.143777 -0.106865 0.169557 -0.147762 -0.193484 0.408964 -0.499579 0.199946 0.287952 0.44828 -0.24223 0.169673 1.12649 1.58972 1.04996 1.04601 0.686625 0.932068 -0.244503 -0.0313043 -0.132662 0.381743 0.230341 -0.492965 0.132829 -0.57411 -0.173376 -0.484918 -0.64471 -0.0861679 0.700641 0.613384 -0.319515 0.508963 0 -5.45383e-05 0.183694 0.466111 0.435733 0.347066 1.06702 1.08449 1.57494 2.6559 1.8508 1.47891 0.465456 0.291301 0.371519 0.7713 0.278573 -0.416444 -0.376529 -0.379432 -0.164716 -0.0760906 -0.433804 -0.415159 -0.526984 0.00542968 -0.221054 0.00686382 -0.5 -1.33975e-07 0.429992 -0.0423964 0.0417638 -0.449745 0.282604 1.48175 1.58741 2.14409 2.19817 2.00931 2.42759 1.08001 0.716325 -0.0632572 -0.17585 -0.28813 -0.668164 -0.890655 -0.750103 -0.823011 -0.805749 -0.483623 -0.272822 -0.49094 0.0656145 -0.412195 -0.4 -0.26067 -0.278177 -0.490636 -0.191926 -0.482842 0.118598 0.782501 1.23824 1.07752 1.60007 2.30654 1.75302 0.887891 0.662219 -1.14041 -0.516732 -1.20882 -0.721225 -0.997191 -0.87906 -0.211787 -0.125631 -0.362386 -0.671433 0.206678 0.00233077 0.0898389 -0.5 0.199496 -0.594164 -0.804133 -0.65365 -0.293263 0.106888 -0.566868 0.165634 0.448608 0.325302 0.74602 0.457748 -0.287135 -0.267657 -0.858696 -0.630169 -0.619693 -1.24809 -1.16879 -0.5949 -0.410082 -0.183298 0.104257 -0.264011 0.158358 -0.507467 -0.300006 -0.2 2.9421e-06 -0.304948 0.275867 -0.344108 -0.765053 -0.535298 -0.28399 -0.802172 -0.479051 -0.316588 -0.177087 -0.450408 -0.457708 -0.970667 -0.302612 -0.718589 -0.689089 -1.28264 0.040744 -0.874634 -0.157081 0.3667 0.494321 0.363736 -0.445721 0.489613 0.2 -0.2 -0.299997 0.274154 -0.00791251 -0.899151 -0.0136517 -0.677241 -1.00358 -1.23956 -1.43905 -0.902587 -0.857264 -1.02386 -0.855518 -0.821035 -0.778081 0.338103 -0.0479987 -0.440062 -0.0076938 -0.398038 -0.128523 -0.300866 0.201022 0.446064 -0.466819 -0.202514 -0.2 -0.2 0 -0.104479 -0.182786 -0.203599 -0.353766 -0.860932 -0.380598 -0.612796 -1.06301 -0.977158 -1.16637 -0.82152 -0.678685 -0.297696 0.131228 0.2526 -0.124437 0.196115 -0.190303 -0.172269 0.542387 -0.408068 -0.352158 -0.115965 0.125601 0.29758 0.5 -0.5 -0.1 -0.303428 -0.550918 0.411001 -0.694633 -0.182467 -0.649366 -0.842156 -0.721956 -1.06271 -0.571672 -0.837207 -0.443243 0.353392 -0.188755 0.197582 0.612049 0.141287 0.572222 -0.0996585 0.202774 -0.0808331 0.0725329 -0.29628 0.402266 0.199989 0.4 0 -0.3 0.2 -0.502405 -0.20445 0.0986813 -0.763318 -0.42446 -0.306956 -0.398081 -0.75149 -0.738639 -0.837398 0.271852 0.15064 0.760808 0.289269 -0.24679 0.283087 0.18561 0.402609 -0.0572895 0.0980571 0.406361 8.66445e-06 0.1 0.2 -0.4 0.2 0.2 0 0.0257312 -0.470398 -0.158446 -0.13813 -0.0760338 0.27641 -0.384043 0.015613 -0.490003 0.435356 0.228702 0.330126 0.1475 0.159247 -0.156334 0.236282 -0.166288 0.014096 -0.431331 0.06289 0.198977 -1.9171e-12 -0.5 -0.2 -0.5 -0.4 0.5 0 0.3 -0.3 0.501094 0.204154 -0.295846 0.40306 0.400104 -0.400164 -0.202823 0.0262717 -0.173372 0.0138912 -0.284024 0.509719 -0.17876 0.120099 -0.0803016 0.210613 0.00286068 0.200534 0.2 0.2 0 0.4 0.3 0.380121 
-0.2 0 -0.5 0 -0.4 -0.5 -0.3 -0.1 0.1 -0.4 -0.2 0.2 7.44391e-07 7.44391e-07 7.77777e-07 7.77777e-07 0.4 -0.2 -0.3 0.2 -0.4 -0.4 -0.4 -0.1 -0.5 -0.1 -0.3 -0.1 0 -0.3 0 0.1 0.1 -0.5 0.3 -0.3 -0.3 -0.5 -0.199999 0.300001 1.61098e-06 0.399931 -0.096734 -0.29768 -0.197929 -0.401363 0.300004 -0.399646 0.004208 0.00420726 -0.496146 -0.3 0.2 0.1 0 0.2 0.4 0 0.2 -0.5 0.2 -0.5 -2.82342e-05 -0.106572 0.284046 -0.409082 0.178657 -0.446533 0.412867 -0.568132 -0.0710218 -0.488637 0.0695963 0.184645 -0.517792 -0.00277298 0.3188 -0.482683 0.0222079 -0.390843 0.00478017 0.299998 -0.3 -0.3 0.3 0 -0.299886 0.300114 0.00142835 0.216201 0.0139959 0.340227 -0.4418 -0.255774 -0.118896 -0.101121 0.173419 -0.659287 0.395056 -0.517035 -0.483736 0.222725 -0.0543747 -0.147979 0.300296 -0.0655016 0.264631 -0.267139 0.245743 0.0202553 0.49982 0.5 -0.5 0.3 -0.299886 0.502984 -0.406125 -0.36371 -0.302864 0.633848 -0.486915 -0.217809 -0.116378 -0.0752548 0.0476406 0.304649 0.0506121 0.0183189 -0.382911 -0.0269281 -0.556177 0.219319 -0.130788 0.00203034 -0.127086 -0.545011 0.367903 0.320096 -0.0966335 0.502192 0 0 -0.397066 0.000914489 -0.204645 -0.14671 0.271958 -0.0437335 -0.209063 -0.409196 -0.0698183 0.10028 0.0991883 -0.230048 -0.617732 -0.455233 0.0510122 0.300357 -0.710697 -0.170195 -0.254932 -0.177907 -0.00113354 -0.342264 0.262715 -0.255553 -0.0960262 0.102195 0.1 0.3 0.0988515 0.245798 0.256911 -0.368131 -0.782745 -0.634608 -0.338188 -0.569585 -0.263671 0.333622 -0.872154 -0.379878 -0.690518 -0.815409 -0.565577 -0.093992 -0.170176 0.152531 -0.462423 -0.29069 -0.424318 -0.156263 0.0398026 0.10038 0.100734 0.400639 0.4 0.497937 -0.0222116 0.260086 0.344739 0.108853 -0.373174 -0.120792 -0.284242 -0.0177759 -0.122229 0.516211 -0.936848 -0.6502 -0.485095 0.130395 0.337327 0.0241634 -0.0224622 0.395844 0.276473 -0.113025 -0.228337 -0.593138 -0.56696 0.281343 -0.0472628 -0.49928 0.2 -0.210533 -0.0331316 -0.0377878 0.308975 -0.209202 0.130504 0.399233 -0.128354 -0.347893 -0.285239 -0.851718 -0.496245 -0.590748 -0.283634 0.532303 0.821725 0.490764 0.0453328 0.207876 0.0569239 0.619087 -0.633243 -0.125764 0.0184467 -0.486891 0.3252 -5.12105e-05 0.2 -0.111401 0.47567 -0.36378 0.523604 -0.184416 -0.450698 0.0798722 0.04522 0.17847 -0.765799 -1.20271 -0.949378 -1.23151 1.20744 0.235569 0.595853 0.758741 -0.199713 -0.0539438 -0.167067 0.594099 -0.20789 -0.597972 -0.291714 -0.0212213 -0.17762 0.49973 -0.1 -0.30578 0.00417771 -0.0258442 0.134854 0.314222 -0.321946 0.0996835 -0.667218 -0.669152 -0.817212 -1.36663 -1.06452 -0.624308 0.812017 0.644105 0.995699 0.345108 0.441646 0.0975227 0.318533 0.0505515 -0.633551 -0.728612 -0.52299 -0.685206 0.0980082 -0.1997 0.5 -0.206726 0.290159 0.35484 -0.193818 0.145177 0.286894 -0.978682 -0.603017 0.131636 0.126708 -0.908257 -0.172065 0.569516 0.546038 0.825282 0.641561 0.634575 0.177499 -0.0642962 0.177014 0.171218 0.0470312 -0.235321 -0.353884 -0.392186 0.317847 0.00302428 0.300311 -0.106306 0.091387 -0.518424 0.00641953 0.479494 -0.514549 -0.0245321 -0.267991 -0.895986 -0.425784 -0.672498 0.410697 0.574636 1.42094 1.21643 0.342805 0.157463 0.227017 -0.406866 -0.845425 -0.220616 -0.369738 0.125478 0.154772 0.103341 0.0193783 -0.397252 0.4 -0.499578 -0.198878 -0.205671 0.0924599 0.0885934 0.242761 -0.462421 0.318378 -0.550021 -1.13854 0.0780214 1.17538 0.970721 1.00568 1.13779 0.847903 -0.257683 -0.0673756 -0.167276 -0.436236 -0.814354 -0.23194 -0.491066 -0.663553 -0.101807 -0.102414 0.5 0.3 -0.299572 -0.0879243 -0.3971 -0.0146483 -0.311427 0.104467 0.0257784 -0.230163 -0.197642 -0.242996 -0.268618 0.196266 0.597621 0.325133 -0.094966 0.354264 0.443275 -0.522382 -0.96752 -0.759004 -1.03198 -0.247845 -0.57367 0.0533297 0.157076 0.477286 -0.5 0.000108445 -0.299571 -0.0687104 0.212169 0.340951 -0.335014 0.0981599 -0.35708 -0.197659 -0.428981 -0.298781 0.765077 0.914023 0.334391 0.542757 0.406768 0.139159 0.341138 0.553642 -0.744791 0.172495 -0.719315 -0.152116 -0.252937 -0.44386 -0.0839752 -0.116268 -0.500003 0.400108 0.300456 0.0325728 0.466301 -0.173101 -0.187357 -0.342229 -0.423623 -0.0984217 -0.283338 -1.09739 -0.723312 -0.211077 0.120767 0.355024 -0.384372 0.125494 -0.415912 0.150272 -0.198576 -0.0304376 -0.351804 -0.501444 -0.129645 -0.122845 0.243357 -0.0528174 0.298658 -0.2 -0.0995428 -0.0737619 -0.331916 0.114651 -0.267445 -1.10669 -1.16601 -0.877941 -1.24081 -0.933666 -1.33479 -0.807811 -0.143153 0.0856147 -0.450006 -0.71509 -0.990187 -0.217864 0.326998 0.504005 -0.516475 -0.440065 -0.11025 -0.649032 0.237385 -0.450181 0.401767 0.3 -0.499999 -0.0486505 0.538579 0.596484 -0.787445 -0.586779 -0.241465 -0.197613 -1.28978 -1.74312 -1.36847 -1.32142 -0.861973 0.143779 -0.612694 -0.743447 -0.0331166 -0.0337793 -0.149774 -0.436054 0.357724 -0.00699533 -0.227312 -0.57209 -0.0174596 0.0484784 0.113261 -0.3 0.100665 -0.220314 0.244588 0.55523 -0.442831 -0.57015 -0.197987 -0.270516 -0.786793 -1.23031 -1.33732 -0.922382 0.298753 0.0700104 0.120589 -0.47862 -0.708933 0.22899 0.000855945 -0.470411 -0.425337 -0.486624 -0.553898 -0.0888641 -0.398737 0.034671 0.313261 0.2 -0.399335 0.346205 0.265422 0.700022 -0.285899 0.644994 0.045242 0.649569 -0.196646 -0.623061 -0.986551 -1.11426 -0.227982 -0.211316 -0.32825 -0.301054 -0.795648 -0.177249 -0.185042 -0.166672 0.0840499 0.0605508 -0.279141 -0.512226 0.312659 -0.147286 0.2 0.1 0.3 0.135533 0.0524171 0.551653 0.245186 0.518768 0.177748 0.29581 0.431379 -0.318883 0.153979 -0.608468 -0.261471 -0.105597 -0.0433343 -0.472914 -0.142632 -0.961388 -0.634931 -0.94849 -0.468555 -0.757084 -0.667143 -0.657154 -0.0986342 -0.0420858 0.3 8.41402e-08 -0.4 0.00724864 0.481075 0.576627 0.682503 0.714842 0.917555 0.988001 0.387814 -0.204863 -0.654308 0.0411718 -0.0923132 -0.354693 -0.0374895 -0.0780245 -0.0913771 -0.435756 -0.437566 -0.768537 -0.785637 -0.978568 -0.647998 0.0761975 -0.028306 -0.499015 -0.3 0.1 0 -0.292546 0.519206 0.0698594 0.264812 0.106569 0.686886 1.34379 1.14129 0.832163 0.509501 0.214891 0.655683 0.604929 0.261661 -0.392456 0.105305 -0.582486 -0.912919 -0.681815 -0.265307 -0.193361 0.27395 0.483834 -0.411924 -0.299637 0.2 0.2 0 0.00708231 0.469954 0.0630838 0.127889 0.373647 0.6118 0.22704 -0.0584625 0.489725 0.597967 -0.660015 0.157495 -0.0354617 0.192995 -0.591032 -0.489573 -0.816892 -0.303442 -0.771345 -0.196575 -0.372002 0.25047 0.0862092 0.100319 0.000266358 0.4 0.5 0.1 0.200218 0.0951403 -0.475775 0.0293566 0.249105 0.573143 0.732579 0.233722 -0.160141 0.285099 0.277747 -0.362811 -0.399792 -0.2084 -0.198077 -0.299165 -0.430798 -0.280147 -0.568485 0.183068 0.277185 0.31081 0.315062 0.100054 0.1 -0.4 0.4 0 -0.1 0.49374 0.485274 -0.113795 -0.323053 0.495829 0.356181 0.0289575 -0.23584 -0.269788 -0.061269 -0.473209 -0.264765 0.331686 -0.135456 0.395249 0.147686 0.364153 -0.517655 -0.292562 0.0953686 -0.00251181 0.1 -0.5 0.2 -0.2 0.4 0.2 0.4 0.3 -0.200048 0.0954189 0.164074 -0.135926 -0.127269 0.00224908 0.00100242 0.00778963 -0.293611 0.0923056 0.0934876 -0.408069 -0.1216 0.265439 0.363547 -0.312043 0.49553 -0.200028 -2.70703e-05 0.200014 -0.2 0.2 -0.5 0.4 -0.209523 
0 -0.3 -0.2 -0.5 0.1 0.3 0.2 0.1 -0.5 0.1 -0.1 0 -0.000316107 -0.200316 -0.100316 0.499684 0 0.5 0.1 0 0.4 -0.1 -0.3 0.2 0 -0.2 0.2 0.3 -0.5 0 0.4 -0.4 0.3 -0.4 -0.4 -0.0945947 0.00538722 0.305388 0.108834 -0.396971 -0.407544 0.0986277 -0.0190744 -0.0454551 -0.0558107 0.379028 0.320261 0.424508 0.407053 -0.293573 -0.00239389 -0.4 0.3 0 0.3 -0.2 0.3 -0.1 0.4 -0.500156 -0.100134 -0.494697 0.203501 0.232135 0.530082 0.255774 -0.0422712 0.449884 -0.024081 0.123091 0.593597 0.0650667 0.269645 0.0322946 -0.205705 0.458702 -0.324172 -0.388377 -0.109995 -0.363165 0.235703 -0.16491 0.4 -0.1 0.5 0.2 0.1 0.00532807 -0.294646 -0.196974 -0.345152 0.421227 0.385922 0.0753058 -0.24043 -0.42596 0.0178198 -0.159618 0.121804 0.478123 -0.000706446 0.369838 -0.0784305 0.77164 0.662201 -0.15765 0.546225 0.0970347 -0.548605 0.10533 0.20184 -0.5 0 -1.8154e-21 -0.199368 -0.394361 0.493307 0.497706 0.333184 -0.030355 0.00115787 -0.575428 -0.350714 -1.10106 -1.43201 -1.14713 -0.0843673 -0.370649 -0.314146 -0.785578 0.112201 0.0824061 0.711976 0.150895 0.0190659 0.016162 -0.231864 -0.422582 -0.0948383 -0.399761 -0.3 -0.3 -0.199041 0.109646 0.408671 0.570841 0.132171 -0.0562969 -0.719568 -0.677075 -0.956263 -1.644 -1.55767 -1.61714 -1.09655 0.285813 -0.664653 -0.736952 -0.680087 -0.585236 0.41551 -0.153641 -0.156043 0.309225 -0.048354 0.345652 0.169882 -0.300909 0 -0.5 0.0966935 0.172453 -0.0578078 0.349854 0.464607 0.969272 0.147406 0.187391 0.381488 0.182456 0.382608 0.28344 -0.070547 -0.382073 -0.763117 -0.865998 -0.550676 -0.633135 -0.297066 -0.0526075 -0.115977 0.298914 0.642058 0.352284 0.500159 0.386677 0.1 0.22136 -0.391125 0.579964 0.563156 0.129444 0.382949 0.317761 1.1293 0.840642 0.0685255 -0.312025 -0.163232 -1.04568 -1.17971 -1.75373 -1.79581 -1.2155 -0.279374 -0.166493 -0.0947594 -0.109184 0.0841377 0.175521 -0.355963 -0.698303 -0.260513 -0.00337933 -1.39304e-05 0.0364426 0.0733301 0.109485 0.092246 0.379951 0.68465 0.5632 0.628493 0.471466 0.516649 0.462749 0.737902 0.162506 -1.05337 -1.19431 -1.21552 -0.635224 -1.0845 -0.792127 -0.463554 -0.433926 -0.36151 -0.638811 -0.95707 0.168616 -0.233894 -0.591642 -0.5 0.425845 0.151828 0.295723 0.361543 -0.0618679 0.383653 0.735447 0.083378 0.549194 0.35048 0.11222 -0.517873 0.263018 -0.705162 -0.626577 -0.162963 -0.531104 -0.262998 -0.792454 0.321772 -0.036798 -0.456146 -0.892107 -0.894703 -0.414458 -0.727418 -0.0925092 2.8219e-07 -0.247747 0.0644095 0.267093 0.753208 0.0880333 0.496832 0.0261759 -0.0367193 -0.73694 -0.328908 -0.0758019 0.380951 -0.222229 -0.123016 -0.141457 0.124935 -0.00510457 -0.0965866 -0.940227 0.271321 -0.741999 -0.203328 -0.83785 -0.431389 -0.922455 0.229797 -0.200456 -0.4 -0.419974 0.313286 0.17939 -0.174312 0.292069 0.498683 0.0416861 0.490787 0.541755 0.524966 -0.0203731 0.0539597 0.107243 -0.651801 0.201941 -0.295365 -0.0945306 -0.724852 -0.818719 0.385563 -0.178214 0.0515415 -0.326552 -0.0576864 -0.265022 0.336738 0.198845 0.400003 -0.168413 -0.174875 -0.0396591 0.233358 -0.104606 -0.130499 -0.0736464 -0.548962 0.395583 0.187478 0.379728 0.13101 -0.509548 -1.42559 0.248092 0.467773 0.615262 -0.348215 -0.720042 0.133374 0.576674 0.31302 -0.629806 -0.458499 -0.0643446 0.260341 0.0987973 0.2 -0.314635 0.194035 0.520051 0.689787 0.039674 0.107837 -0.0339193 -0.214912 0.1819 0.269313 0.608175 -0.241316 -1.09642 -1.03363 -0.347416 0.203834 0.705435 -0.000841725 1.01288 0.556894 0.239645 0.202315 0.452022 -0.0913059 0.514564 0.293077 -0.000343522 1.58357e-11 -0.0999342 -0.177115 0.185511 0.380338 -0.0120482 -0.534281 0.19332 -0.502678 0.295203 0.0961318 0.153432 -0.5382 -0.889419 -0.204303 0.371415 0.691346 0.43149 0.903151 0.482829 1.62324 1.11605 0.470889 -0.0602488 0.308384 0.0672283 -0.0817805 -0.300002 -0.399323 -0.5 0.520593 -0.236304 -0.0273319 -0.744361 -0.0258915 0.100421 -0.247906 0.19678 -0.535135 -0.0645269 -0.344807 -0.157889 0.478043 0.594965 0.968622 1.15147 0.741739 0.705165 0.74084 1.0482 -0.16775 0.287614 0.394392 -0.00766798 0.0171524 -0.27505 0.300677 -0.1 -0.0169466 -0.0460077 -0.0622996 -0.296646 0.189199 -0.518226 0.427573 0.157899 0.787706 1.02277 0.918037 0.862835 0.903747 1.72098 0.908471 0.910447 1.27839 1.15393 1.1778 1.15892 0.287944 -0.422753 -0.136743 -0.0790119 -0.291129 0.110725 0.4 0.5 -0.0284737 -0.0502268 0.0674047 -0.823521 -0.482746 0.142689 -0.0235814 -0.274875 0.156838 0.374168 0.502048 1.02803 0.560253 0.750742 -0.47241 0.388667 0.624246 0.822528 0.831726 0.181455 0.508064 0.0748386 -0.285145 0.385307 0.561012 0.452169 -0.316443 -0.3 0.172164 0.241912 -0.475419 -0.603089 -1.06078 -1.13414 -0.934624 -0.672637 -0.422578 0.28645 0.730782 1.65057 0.615105 -0.743878 -0.729238 0.595557 0.102502 0.359424 0.787794 0.0296553 -0.352998 -0.470633 -0.435286 -0.312353 -0.0046684 0.166335 0.2 0.21106 0.458921 0.334234 -0.60154 -0.661833 -1.85934 -1.67054 -0.805115 -1.22561 -0.408024 -0.234465 -0.0923308 -0.129053 0.00624477 0.0717238 -0.151773 -0.435167 -0.613195 -0.0757279 -0.716074 -0.400454 -0.401667 -0.673116 -0.691632 -0.676141 0.48025 -0.201144 -0.4 -0.300063 -0.351363 0.24137 -0.656732 -0.957441 -0.828393 -1.25155 -1.17892 -1.15367 -0.60064 -0.697264 -0.354201 0.141014 -0.502345 -0.291553 0.0291699 -0.273205 -0.748852 -0.345452 -0.81014 -0.687309 -0.358079 -0.610035 -0.517968 -0.314318 0.396138 -0.0996796 -0.5 0.2 0.271255 -0.700149 -0.791437 -0.888471 -1.12427 -1.13101 -0.641206 -0.858153 -0.278905 -1.28911 -0.0845555 0.0403804 -0.678732 -1.04681 -0.154133 -0.758915 -0.408871 -0.542445 -0.646441 -0.51053 -0.346095 -0.271619 -0.453905 -0.11901 -0.0862807 0.100011 -5.34032e-09 0.2 0.119208 -0.550278 -0.399316 0.34361 -0.50932 -0.165168 0.204544 -0.191257 -0.995655 -0.491767 -1.48237 -0.73457 -0.568457 -0.889183 -0.202005 -1.12688 -0.68431 0.0238476 0.0988238 -0.651649 -0.184173 0.125974 0.461092 0.0824885 0.12347 0.500011 0.3 -0.3 0.510363 0.494787 0.0852728 -0.291959 -0.0304462 -0.0259952 0.497184 -0.49883 -0.264318 -1.67709 -1.29803 -0.730528 -0.880252 -0.154187 -0.606238 -0.216905 -0.227613 0.161684 -0.320518 0.323367 -0.119198 0.418452 -0.518615 0.50701 0.200007 0 0.4 0.5 -0.00515158 0.112436 0.127207 0.642734 -0.00429373 0.253203 0.77664 0.0844327 0.353939 -0.840723 0.07086 0.21527 -0.445628 0.674279 -0.078799 0.642731 -0.61768 -0.583215 -0.0580128 0.255544 -0.442601 0.269162 -0.259333 -0.295955 -0.204275 0 -0.4 0.1 -0.500053 0.507411 0.282086 -0.142681 0.321023 0.0486947 0.288175 -0.3247 -0.583184 -0.832051 -0.250759 -0.349083 0.457859 -0.212815 0.278873 0.232471 -0.552792 -0.369611 0.258306 0.130921 0.0846008 0.135637 0.323529 0.295753 -0.104247 -0.1 0 -0.1 0 -0.09761 0.256116 -0.27451 0.447389 0.173498 0.164539 -0.143445 -0.329506 -0.606925 -0.297515 0.0758501 -0.534909 -0.691222 -0.135449 0.443622 0.400532 -0.279927 -0.171268 0.0687309 0.271058 0.0177293 0.399999 6.83455e-12 -0.4 -0.5 0.5 0.1 0.1 0 -0.28817 0.0127397 0.108396 -0.491603 -0.494637 -0.0710243 0.140502 -0.417368 -0.323108 -0.0645051 -0.517157 -0.491581 0.047204 -0.180888 -0.478874 0.470831 0.384582 -0.10462 -0.40383 0.00248724 -0.5 -0.4 0 0 -0.025619 
0.3 0.2 -0.2 0.2 0.1 -0.3 0 -0.1 -0.5 -0.5 -0.3 -0.5 -0.5 -0.5 -0.5 -0.4 -0.5 0.4 -0.2 0.1 -0.3 0 0 -0.2 -0.5 0.2 0.3 -0.5 0.3 0.2 0.1 0.3 -2.54225e-20 -0.3 0.5 -0.5 -0.100638 -0.200638 -0.511879 -0.211217 0.29909 -0.401022 0.198785 -0.0039169 -0.302288 0.375283 -0.419305 -0.303079 0.0952891 -0.204711 -0.0016322 0.3 -0.5 0.5 0.3 0 0.4 0.2 -0.3 -2.71856e-10 -0.100034 0.399538 -0.400428 -0.213419 -0.208416 0.489572 0.360455 0.0429894 0.14915 0.0334463 0.480765 -0.388432 -0.11887 -0.00814706 -0.0267178 0.172926 -0.314738 0.485276 -0.502811 -0.2017 0.299582 -4.24145e-11 0.2 0.2 -0.1 0.3 0.5 -0.5 -0.500034 -0.400462 0.0881781 0.470753 0.387728 0.307849 -0.310484 -0.0800157 -0.402916 0.324184 -0.469819 -0.0172489 0.491482 0.542746 -0.10118 -0.407997 0.0300321 0.50364 -0.377619 -0.413037 0.499659 -0.0999735 -0.299967 0 0.5 -0.5 -3.96314e-10 0.0999998 -0.080231 -0.169332 0.0320831 0.284811 0.507536 0.306304 0.590591 0.227515 0.672206 0.593873 0.739408 0.313972 0.259077 -0.079267 0.236769 -0.0156044 -0.522788 0.270278 -0.506483 -0.633002 -0.125699 0.00386094 0.500033 -1.72062e-07 -0.4 0.1 -0.299888 0.131243 0.107441 -0.0135837 0.506508 0.823375 0.866443 0.661059 0.525295 0.29956 0.853168 -0.0246984 0.591618 -0.0377732 0.543995 0.0632505 0.316397 -0.28932 -0.0479493 -0.546799 0.161831 -0.46441 0.477099 0.413275 -0.305324 0.500061 0.5 -2.29184e-12 -0.494876 -0.342994 0.464949 0.522574 0.843294 0.124569 0.660703 -0.135532 -0.0376918 -0.134895 0.798371 0.394503 -0.253787 0.462904 0.279516 -0.381177 -0.524979 -0.115561 0.2704 0.193869 -0.22544 0.523101 -0.335408 -0.0923213 0.332747 0.201569 -0.5 0.000275821 -0.389754 0.317011 0.456633 0.114597 0.424216 0.0957842 0.382688 0.661832 0.0109661 0.193337 0.396757 0.456691 0.0485592 -0.470097 -0.218028 0.608831 -0.483833 0.420083 -0.189924 -0.302862 0.552624 0.0139293 0.399967 0.0161155 0.118267 0.00208873 0.2 -0.500003 -0.299198 0.491812 0.151561 -0.314732 0.155529 0.244182 -0.381962 0.236762 0.189646 -0.210009 0.088509 0.266808 -0.288525 -0.503448 -0.680016 -0.0672019 -0.312223 -0.352816 0.399079 0.572275 0.704098 0.432941 0.109013 0.0680377 -0.487976 -0.302169 -0.2 0.0905735 -0.534345 0.0830951 -0.322871 -0.161255 0.0298963 0.255426 -0.0243746 0.105081 -0.156616 -0.161905 0.695632 0.0734132 -0.126313 0.3531 0.603238 0.785972 0.446609 0.307696 0.123274 0.431333 -0.215813 0.425376 0.432094 0.273494 0.536746 -0.101104 2.76095e-08 0.290573 0.273035 0.379369 0.441593 0.354121 -0.518549 -0.00753157 -0.0373273 -0.551833 -0.571907 0.251972 0.170223 -0.201568 0.754232 0.492011 0.341995 0.00761921 0.21974 0.0906471 0.671768 0.192134 -0.457882 0.142215 0.0759532 -0.406862 0.119527 -0.29835 2.76095e-08 -0.0984308 -0.321602 -0.140737 0.0924279 0.274427 -0.389021 0.113169 -0.560741 -0.414153 -0.107687 0.210506 -0.342952 0.453988 0.217836 0.279824 0.815614 -0.13317 0.470808 0.735295 0.549908 0.00913503 -0.839999 -0.282958 -0.40072 0.218117 0.114425 -0.499199 0.1 -0.300002 -0.499642 -0.33889 0.0777556 -0.205188 -0.528422 -0.340243 -0.488644 -0.162055 -0.381061 -0.19288 -0.196875 0.208526 0.0491968 0.63993 0.821761 0.384187 -0.31018 0.566012 0.511426 0.528041 -0.784053 -0.406455 -0.748256 -0.470667 0.49958 0.100253 -7.34391e-17 -1.28088e-07 -0.302703 -0.200394 -0.31621 -0.177883 -0.340969 -0.431229 -0.00889596 -0.24255 0.218992 0.386014 -0.579038 0.529536 0.535248 0.032544 0.443151 -0.133852 0.320532 0.490297 -0.293532 0.202342 -0.165127 -0.158304 -0.713654 0.226332 -0.000625735 -0.39997 0.2 0.2 -0.199744 0.218408 0.156243 -0.530919 0.245902 -0.601712 -0.327626 0.345694 -0.217834 0.291874 0.200301 0.876806 0.380078 0.820754 -0.330754 0.605885 0.322614 0.343995 0.0857682 0.424228 -0.348827 -0.577671 -0.00742725 -0.0826518 0.000489463 0.20003 -0.4 0.4 -0.0996191 0.154753 0.493226 -0.545905 0.347225 0.353638 -0.470585 -0.0139988 -0.150843 0.327643 0.522899 0.993471 0.866049 0.707494 0.591588 0.23153 0.814012 0.249567 0.306595 -0.0261849 -0.383612 0.211302 -0.271193 0.0628605 -0.138247 -0.499941 -0.3 -0.494626 0.187294 -0.360687 -0.271586 0.121387 0.0127211 -0.372356 0.390961 -0.453847 -0.182749 -0.114547 0.691161 0.490091 0.291147 0.538926 0.619541 0.235221 0.298622 -0.12306 -0.0468462 0.0987551 -0.0799548 -0.284308 -0.288529 0.496798 -0.416327 0.300018 0.2 0.505384 0.00099404 -0.00911655 0.481729 0.283045 0.607034 0.130091 0.661404 0.000563241 -0.0929505 -0.202206 -0.208932 0.125663 -0.0365317 0.4337 0.203651 0.247379 -0.0248333 0.622632 0.0574952 0.131185 0.0192358 0.0421999 -0.0957713 -0.299224 -0.0557222 0.00682263 0.3 0.10001 0.456968 0.0661185 0.35309 0.621598 0.361155 0.259557 -0.101048 -0.363188 -0.362436 -0.400853 -0.5907 -0.321831 0.130246 1.14128 0.963378 0.224486 0.195549 0.0233307 -0.306691 0.609727 0.26496 -0.140047 0.550993 0.165927 -0.35606 -0.216551 0.3 -2.90725e-08 0.15932 -0.342632 0.302982 0.530094 1.01578 0.927144 0.445035 -0.382307 -0.0891642 0.262095 -0.471171 0.517277 0.37314 0.786189 0.380506 0.739701 0.642428 -0.56382 0.490882 -0.0618935 0.743963 0.687769 0.747379 0.499463 0.335407 -0.52151 0.1 0.2 -0.422263 0.519386 0.297977 0.367635 0.543413 0.824625 0.453748 0.800917 -0.0287194 -0.253326 0.119111 -0.239835 0.688031 0.0637101 0.477084 -0.0248521 0.388822 0.225553 -0.123176 0.357122 0.493505 0.621973 0.63787 0.138604 0.537325 0.00371597 0.3 0.1 0.0147821 0.502324 -0.237485 0.469466 0.807292 0.767001 0.0901146 0.273086 -0.11827 -0.578125 -0.640955 0.440825 0.195681 0.451773 0.767509 0.890589 0.175616 0.215342 -0.244885 0.404146 -0.094562 0.251408 -0.0127461 -0.0537982 -0.201214 0.3 -0.3 -0.4 -0.0935649 0.153893 0.304509 0.212363 0.462504 0.806686 0.42169 0.397343 0.453947 -0.114964 0.116372 -0.659173 -0.494956 -0.216841 0.199949 0.135896 -0.0673212 -0.145473 -0.0609902 0.337882 0.145435 -0.235715 -0.0530883 -0.369973 -0.479944 0.4 0.3 0.3 0.10001 0.391311 -0.0501335 0.150314 0.794323 0.5367 0.121162 0.571973 -0.463242 -0.129325 -0.337368 -0.401892 -0.0138957 -0.12118 0.474814 0.427585 0.553787 0.111837 -0.00836612 0.246953 -0.402132 -0.228024 0.309923 0.421387 0.42133 -0.4 -0.2 -0.5 -0.3 0.226299 0.268704 0.0425514 -0.0777551 0.768776 0.0581025 -0.056584 -0.558468 -0.142561 0.141614 -0.0693451 -0.192116 0.461311 0.106477 0.382112 0.0933765 0.343286 -0.318937 0.123478 -0.298115 0.20772 0.000510811 5.75493e-06 6.90824e-09 0.4 -0.5 -0.5 0.1 -0.198336 -0.300128 0.0467172 0.181263 0.324018 0.490491 0.816525 0.0274334 0.248739 -0.144219 -0.526326 -0.0667939 -0.274706 0.0497058 -0.208875 0.0737483 -0.0616386 0.562146 0.437003 0.195724 0.40396 0.200014 0.2 -0.2 -0.4 -0.4 0 0.2 0.285918 -0.216493 0.0980016 -0.328008 0.474692 -0.0234366 0.290328 0.277366 -0.289578 0.103206 -0.605138 -0.29787 -0.458633 -0.0312091 0.103997 -0.555374 -0.402575 -0.0882056 -0.388685 -0.499237 0.0049198 0.3 -0.2 0 -0.2 0.4 -0.3 0.5 0.3 -0.2 -0.201468 -0.306738 -0.00673752 0.294731 0.5 -0.400009 -0.299145 0.000166553 -0.500041 -0.503112 -0.506453 -0.39762 -0.011911 -0.00855802 -0.104814 -0.38921 0.013822 0.00429125 -0.2 -0.3 -0.2 -0.3 -0.5 0.218775 
0 0.1 -0.1 0 -0.1 0.2 0.5 -0.5 0 -0.5 0.1 0 -0.399972 -0.499972 -0.2 0.3 -0.2 0 -0.3 0.3 0.5 0 0.4 0 -0.3 -0.1 0.4 -0.4 0 -0.3 -0.3 0.4 -0.4 1.07621e-06 -0.0999982 1.96559e-06 0.100003 8.86567e-06 -0.396383 -0.396346 0.402096 0.199373 0.513967 0.212488 0.115772 -0.100321 0.100195 -0.294359 -0.489619 0.110381 0.504791 -0.399928 0.5 -0.2 0 0.2 0.4 0.3 0.3 -0.2 0.1 -0.0999789 2.21706e-05 0.000310119 0.000289676 -0.397811 -0.00627676 0.38638 -0.500975 0.531512 -0.272411 0.00825361 -0.365896 -0.278264 0.0612545 -0.255629 0.0358678 0.210132 0.50425 0.189774 -0.110252 0.299999 0 0.2 0.2 0.1 -0.499955 -0.099955 -0.2 -0.000109912 -0.200173 0.00559794 0.000101706 0.0981341 -0.207981 -0.360532 -0.151807 -0.0480242 -0.190477 -0.397292 -0.046082 -0.157635 0.481678 -0.113229 0.0847875 0.00677487 0.378826 0.156953 -0.310878 -4.10016e-06 1.48537e-09 -0.1 0 -0.1 -0.000166392 0.299851 -0.302548 0.191765 0.0947457 0.10021 0.00773343 -0.139132 -0.415524 0.034324 0.349982 -0.0203956 0.286187 -0.463827 0.331987 0.517482 0.0104015 0.328714 0.347793 -0.0647992 -0.120866 -0.617747 -0.203412 0.387108 -0.000283972 0.400006 0.4 0.4 0.499927 -0.203105 0.392308 -0.104624 -0.0938023 -0.485487 -0.449825 -0.0263951 -0.114093 -0.447579 0.0277575 -0.356337 0.208678 0.17263 0.840878 0.324331 0.427611 -0.112811 0.36509 -0.606193 -0.488343 -0.168302 -0.0418955 0.253053 0.401171 -0.399999 0.4 3.86739e-08 0.20057 -0.188855 -0.488426 0.473047 -0.214569 0.314579 -0.111823 -0.0488037 -0.575226 -0.203314 -0.664165 -0.407309 0.0029369 -0.0646595 -0.0274518 -0.170776 0.226636 -0.534383 0.107388 -0.645925 -0.223167 -0.133309 0.389475 -0.345921 0.111642 -0.387371 0.2 -0.299997 -0.500253 0.0262286 0.256615 -0.308334 0.403586 0.198983 -0.486175 0.258976 -0.122276 -0.638971 -0.035775 0.00412806 -0.135961 0.183493 0.34505 -0.395221 -0.419256 -0.665222 -0.191005 -0.143618 0.144362 -0.271279 0.142477 0.19784 0.270257 0.0151665 -0.1 2.18221e-08 -0.200629 0.135028 0.0493834 0.0483258 0.295037 -0.20839 -0.649403 0.422015 -0.374558 0.269089 0.351382 0.0196006 0.0743218 -0.0855786 -0.397993 -0.490503 -0.379951 -0.545891 -0.581461 0.189412 0.279263 -0.270486 -0.0622616 0.386869 -0.13181 -0.197462 -0.2 0.100723 0.101663 -0.0735755 0.45829 0.5196 0.309062 -0.580932 -0.523326 -0.548388 0.096726 -0.590662 -0.0679545 0.0915838 0.255565 0.158521 -0.467004 -0.448352 -0.36101 -0.0144005 -0.380528 -0.482035 -0.109437 0.111394 -0.475643 -0.0241897 0.488613 0.199886 -0.2 0.500729 -0.197597 -0.396264 -0.36633 -0.479754 -0.0332242 -0.288365 0.455856 -0.376452 0.422886 -0.457408 -0.433632 0.091947 -0.204424 -0.438609 -0.158233 -0.130574 -0.246926 -0.238361 -0.0306778 0.219805 0.338574 -0.12218 -0.292928 -0.289233 -0.0102078 -0.00250735 0.4 7.36971e-06 0.502627 0.300557 0.0024553 -0.117231 0.235233 -0.497633 -0.224018 -0.331886 -0.525944 -0.0991488 0.158495 0.451181 -0.355669 0.237546 -0.544356 0.0914913 0.329135 -0.150747 -0.21458 -0.245685 -0.254874 -0.327639 -0.00357774 -0.0243737 0.255309 0.0570909 -0.3 -0.499994 0.100758 -0.101781 -0.119402 -0.53119 -0.29108 -0.161149 0.0344978 0.0947695 -0.00350593 -0.608422 0.364417 0.227687 0.731082 0.59945 0.282982 -0.178907 -0.107671 0.0151494 0.345701 0.49222 -0.276418 0.163285 0.040746 0.532027 0.156995 0.557047 0.4 -0.200002 0.000772023 0.0997512 0.157821 -0.170044 -0.0532362 0.0734123 0.378916 -0.0916484 -0.412126 -0.693668 -0.144417 -0.178149 0.661753 0.268256 0.220978 -0.229263 -0.0279761 -0.39475 0.203813 -0.000847045 -0.142901 0.521151 -0.415805 -0.181001 0.0114774 0.0999949 0.1 0.20013 -0.0985978 -0.500195 -0.564114 -0.0177836 -0.119004 -0.412644 -0.161075 0.0833286 -0.00482818 -0.384122 0.233592 0.355447 0.352048 0.266223 0.286982 -0.5572 0.152453 0.242304 -0.0783751 0.366811 0.46471 0.179724 0.505816 -0.385352 0.00128307 -0.400005 0.1 0.50013 0.500642 -0.00102896 -0.0452176 -0.406782 -0.496915 -0.319705 -0.76054 -0.193271 0.135886 -0.336834 0.574635 0.366337 0.305338 0.648325 -0.353457 -0.655229 -0.127503 -0.364006 -0.473174 -0.022003 -0.602097 0.246043 0.476381 0.00186232 -0.0131787 -0.399961 -0.0999999 0.000130411 -0.196602 0.497939 0.496887 0.212093 -0.242405 -0.156863 0.0750964 -0.522922 0.0729665 -0.405734 0.306428 0.242693 -0.358673 0.428408 -0.74504 -0.096201 -0.101384 -0.366754 -0.00169645 -0.0182446 0.188054 -0.113463 -0.576617 0.487114 0.287653 -0.0999958 -0.5 0.000130411 -0.39587 -0.398215 -0.00975789 0.395704 -0.720934 -0.653071 0.286086 -0.233288 -0.0594668 0.400985 0.558002 -0.412679 0.414354 0.277395 -0.667861 -0.227275 -0.735199 -0.0124446 -0.289108 -0.101362 -0.352386 -0.371279 -0.0755036 -0.222899 0.493082 0.39491 0.300001 -0.5 -0.0930777 0.319295 -0.165296 -0.251627 -0.458155 0.153028 -0.688964 -0.235735 0.393634 -0.294923 0.259055 0.367713 -0.123536 -0.626444 0.136311 -0.469049 0.53062 0.184029 0.599425 -0.0336641 0.209684 0.247737 -0.328296 -0.110869 -0.205493 -0.103555 0.5 0.299998 -0.0951706 -0.0985222 -0.335042 -0.0641518 0.468525 0.0337475 -0.55621 -0.0889496 0.494175 0.20639 0.345861 -0.422316 -0.431042 -0.451511 -0.561979 0.0696505 0.437234 0.199438 0.000725448 -0.192369 0.339913 -0.372692 -0.42354 -0.300046 0.000120812 -0.202018 0 0.499999 0.510544 0.343078 0.229011 0.0517435 0.568575 -0.611601 0.0433265 0.189444 0.341293 -0.316443 0.00855612 -0.330659 0.00170146 0.14057 0.465925 -0.268973 -0.291956 -0.409217 -0.448461 -0.580366 0.10928 0.379984 -0.192144 -0.079723 -0.40362 0.4 -0.1 0.1 -0.186897 -0.0374746 0.0838826 -0.106389 0.249043 0.139103 -0.567671 0.392731 0.0607178 -0.233532 0.33106 -0.0288601 -0.415857 -0.444221 -0.505181 0.196769 -0.362776 0.339839 0.315476 0.256549 0.329681 -0.529574 -0.302235 0.302145 -0.0019154 -0.5 -0.5 3.32284e-10 -0.286472 -0.35385 -0.0173374 0.0176687 0.0815223 0.382681 0.423087 0.065404 -0.135992 -0.0973751 0.311225 -0.302164 0.416479 0.162536 -0.0444652 0.395274 0.441746 -0.499432 0.445535 -0.261951 -0.54637 -0.511597 0.486338 -0.105964 -0.500752 -0.1 0.1 -0.4 0.5 0.0183139 0.229482 -0.00311354 0.0169295 -0.259903 0.0393503 -0.180619 -0.115278 -0.435792 0.233206 -0.416421 -0.0546794 0.0214016 -0.190272 -0.585248 -0.169418 -0.562872 -0.461024 -0.0359982 -0.0108334 -0.218995 0.393411 3.30178e-05 -0.4 0.1 -0.5 0.4 0.2 0.109369 0.274516 -0.320136 -0.0441505 0.243891 -0.342113 -0.235523 -0.561372 0.0987851 -0.419972 -0.117813 0.109239 -0.393652 0.243968 -0.0699291 -0.447102 -0.115155 -0.396684 0.405197 -0.404742 -0.21603 -0.50002 0.399953 -0.400046 0.4 0.2 0 0.1 -0.406813 0.27094 0.145964 -0.246951 -0.259266 0.152726 -0.0162051 0.246041 -0.103615 -0.431262 0.158885 0.146367 -0.20443 0.123062 0.117105 -0.486112 -0.467538 0.0316614 -0.310779 0.288775 -0.0204066 -0.207855 0.1 0.3 -0.1 -0.4 0.1 0.3 -0.100007 0.299518 0.493995 0.291721 -0.292761 -0.180478 0.307309 -0.00205908 0.198259 -0.285395 0.457026 -0.331959 -0.185526 -0.305855 -0.405699 0.358986 -0.0199579 -0.50014 -0.000131479 0.0999889 -0.40006 -0.5 -0.3 0.1 -0.5 -0.1 0.5 -0.3 -0.2 0.3 0.194511 -0.114116 -0.514116 0.491377 -0.499996 -2.92975e-05 -0.300033 -0.00728324 0.492842 0.192927 0.300062 -0.0999333 0.19993 0.199965 -0.10001 -0.0999517 5.22199e-05 -0.199948 -0.1 -0.2 0.1 0.1 -0.4 -0.132538 
-0.2 0 -0.1 -0.4 -0.3 0 0.5 0.4 -0.5 0.3 0.2 -0.3 7.83356e-05 0.400078 0.199999 0.299999 0.5 0 0.2 0.4 0.4 0 -0.4 0.2 -0.3 0 -0.3 -0.4 -0.5 -0.3 0.3 0.4 0.2 0.0999915 0.399991 0.00211296 0.101656 -0.298339 0.306126 0.498048 0.31164 -0.0996769 0.00867785 -0.0417621 0.163148 -0.115956 0.496586 1.77462e-05 -0.499998 -0.299997 -0.4 0.4 0.5 -0.2 0.5 -0.5 -0.3 0.1 -8.04031e-19 -0.5 -0.0999992 -0.0999353 0.0478473 0.551379 -0.0598579 0.0618541 0.186471 0.210098 0.413046 0.35963 -0.231041 -0.406211 -0.103172 -0.0838318 0.0366865 -0.449851 0.261108 -0.125164 -0.546588 -0.0479028 -0.346087 0.297878 0.3 -0.2 -0.1 0 1.84667e-18 -0.1 0.1005 -0.310368 0.0183653 -0.127393 -0.329412 -0.308459 0.519168 0.141951 -0.594632 -0.18495 -0.290961 -0.115269 -0.331612 -0.642727 -0.25616 -0.655777 -0.409691 -0.279542 -0.0595857 0.304019 -0.577675 -0.318641 -0.299882 0.1 0 -0.2 -0.5 -0.10348 -0.431104 -0.220038 0.0524859 -0.0115809 0.30286 1.03334 0.0650144 -0.136639 0.0256839 -0.967652 -0.896451 -0.921864 -1.45853 -0.407124 -0.310652 -0.0722829 -0.645011 -0.267616 0.203752 -0.375859 -0.0179101 0.219364 0.318577 -0.203567 -0.1 0.2 0.397252 0.213477 0.0535739 0.307914 -0.341677 0.429244 0.146976 0.825623 0.120764 0.136093 -0.543066 -1.41161 -1.69261 -1.2612 -1.01751 -0.631114 -0.302183 0.514594 0.672254 0.128348 0.530024 0.36853 0.143587 0.26185 0.317188 0.200013 -0.1 0.1 -0.482999 -0.62788 0.28722 -0.224177 0.527741 0.512486 0.402784 0.523439 0.338813 -0.0615833 -0.557039 -1.73711 -2.19185 -1.39797 -0.154208 0.365285 0.173722 1.26396 -0.177481 0.317566 1.10877 0.932749 0.628919 0.844792 -0.273929 0.288464 -0.1 0.197654 0.193903 -0.336885 -0.0798225 0.097697 0.551792 0.441019 0.189769 1.25307 0.942733 0.228454 -0.410789 -1.94816 -2.53434 -1.801 0.17973 -0.259566 -0.0598415 0.768487 0.272334 -0.0868318 0.931632 0.396768 1.20277 0.0533624 0.20079 -0.105019 -0.3 -0.303063 0.378503 0.145583 -0.55612 -0.131453 0.119217 0.131073 0.571781 0.171711 0.810827 -0.707775 -1.2696 -2.09562 -1.04891 0.347738 0.267141 0.743283 0.389998 0.101278 0.287059 0.537278 0.799261 0.393687 0.640234 0.6957 0.0669052 0.313554 -0.3 0.265601 -0.150018 -0.300352 -0.018204 -0.321482 -0.269996 -0.496391 0.723201 0.807937 0.749975 -0.344531 -1.64215 -2.74023 -1.62336 -0.424697 -0.123894 0.491611 -0.11066 -0.268094 0.578872 -0.140436 -0.0206589 0.202455 0.103593 0.0639316 0.330314 -0.447165 -0.2 0.06782 0.175174 0.220026 -0.633844 0.133262 0.0610599 0.0434131 0.573297 1.06103 0.83102 -0.130401 -1.15439 -2.59158 -1.38935 -1.4862 -0.556193 -0.0982431 0.345152 -0.422841 -1.10591 -0.109248 -1.07886 0.101209 -0.411641 0.323525 0.0686347 0.400627 -0.3 0.204096 -0.181472 -0.293873 -0.122134 -0.141353 -0.336851 -0.621676 0.699773 0.359913 1.56739 0.442752 -1.01988 -1.4784 -0.680607 -0.524454 0.0392643 -0.525891 -0.938779 -0.856587 -1.24911 -0.446749 0.0831726 -0.476551 0.0432339 0.208489 -0.365075 0.163723 0.4 -0.0406325 -0.566959 -0.12373 -0.532581 0.174296 0.361191 0.927837 0.435198 1.05717 0.635254 0.105393 -0.211018 0.25242 0.166604 0.280385 0.450487 0.113142 -0.442114 0.0790291 -0.116595 -0.0645899 -0.0281425 -0.236211 -0.307488 -0.111811 -0.419304 -0.336066 -0.3 0.457781 -0.163032 -0.285457 -0.118448 0.450845 0.394822 0.85676 0.449883 0.256432 1.01609 -0.293024 0.508768 1.09891 -0.420918 -0.207661 0.456534 -0.310177 -0.220271 -0.495784 -0.586119 0.468572 0.0050889 0.661455 0.325348 -0.337748 -0.49494 0.199987 0.5 0.0999957 0.459127 -0.357863 -0.0300605 -0.18651 0.263062 0.532539 0.436097 0.659494 0.467841 0.00166507 0.230871 0.17287 0.13858 0.700033 0.208298 0.229257 0.0688432 -0.118125 -0.324501 0.431463 0.714265 0.739527 -0.17716 0.450102 -0.0132091 0.299987 0.499992 -0.1 -0.418673 -0.413605 -0.506206 0.729194 -0.503359 0.408973 -0.140883 0.283482 0.0125301 0.26582 0.117374 0.482144 0.0090494 0.277965 0.0561247 -0.183272 -0.35982 -0.420273 0.0355424 0.337782 0.464706 0.659596 0.464633 -0.475834 -0.286738 -0.417395 -7.84636e-06 0.0999998 -0.348511 0.0140038 -0.176908 0.0868089 -0.0734237 -0.449759 0.0570001 0.228414 0.501713 0.37505 0.764988 0.433722 0.279318 0.0573023 0.33987 -0.587495 0.0398302 -0.537846 -0.649231 -0.0944601 0.450942 -0.0635506 0.193975 -0.262565 -0.333156 -0.101666 -0.2 -0.1 0.0726413 0.221089 -0.345109 0.03406 -0.572358 -0.768436 -0.310645 0.737421 0.546358 -0.629023 0.355655 -0.420345 -0.0865491 -0.739716 -0.303224 -0.488488 -0.367648 -0.0516401 -0.255549 -0.124067 0.158843 -0.206403 0.514467 -0.201495 -0.279655 -0.105881 -0.2 -0.5 -0.452626 -0.177291 -0.233257 -1.24053 -1.13873 -0.554437 -0.472516 -0.0290724 0.428423 0.0812149 0.476346 -0.737882 -0.358279 -0.670958 -0.338974 -0.496248 -0.191052 -0.109655 -0.453603 -0.356714 -0.132232 -0.219926 -0.0157904 -0.278222 -0.0198114 -0.203734 0.2 0.4 -0.398344 0.364271 -0.82504 -0.911814 -0.704543 -0.735706 -0.00251964 0.873348 0.586674 0.736663 0.348838 -0.226366 -0.472225 -0.719611 -0.747339 -0.0757654 0.28947 0.491284 0.40231 0.81937 0.830428 0.436964 -0.262657 0.00597753 -0.0101267 0.300077 -0.5 0.5 -0.479363 0.367443 -0.59293 -0.648792 -0.729128 -0.681846 -0.412646 0.0829219 -0.00242131 0.672022 0.423205 0.259474 0.0749636 -0.324046 -0.938924 0.296802 -0.0326491 0.625293 0.587001 -0.0851767 0.447905 0.297324 -0.0641915 0.402593 -0.00257362 0.00175918 0.1 0.5 0.294584 -0.403308 -0.257905 0.187418 -0.765303 -0.662748 -0.877478 -0.241005 0.248591 0.161993 0.588433 -0.868614 -0.384219 -0.522924 -0.000958952 0.010989 0.208376 0.397975 0.607283 -0.0419339 0.0444687 0.169513 0.409783 0.51435 0.216663 0.200068 -0.1 0.5 -0.399214 -0.238154 0.100877 0.363218 0.191802 -0.0428458 0.404531 -0.538504 0.130643 0.329918 -0.225983 -0.370071 -0.337048 -0.35049 -0.473976 0.683684 -0.378776 0.495698 -0.0236153 0.109703 0.0887982 -0.168606 -0.10664 0.314341 -0.191514 0.100068 -0.2 0.5 0.297319 -0.0510581 0.421792 -0.270456 -0.294995 -0.135309 0.251774 0.248601 -0.0776989 0.000690695 0.319711 0.0205645 -0.363141 0.0154568 0.983102 0.825057 0.376604 0.225897 0.242817 0.274865 -0.295878 0.437084 -0.150059 -0.348711 0.236341 -0.4 -0.5 0.3 -0.00311347 0.177654 -0.186525 -0.477785 -0.141952 -0.250455 -0.425043 -0.688844 -0.351201 -0.00791151 0.575362 -0.0354918 0.643982 0.743108 0.569174 0.565995 -0.00518154 0.156987 0.136487 0.0921467 0.0654678 0.122375 -0.145326 -0.362531 0.199999 -0.4 0 0.4 0.5 0.364287 -0.00318663 -0.54774 -0.24115 -0.44657 -0.0668705 -0.761029 -1.09063 -0.245584 0.122056 -0.00758031 0.211297 0.235815 0.782611 -0.157161 -0.0714347 0.168807 0.0114291 -0.618722 -0.0931852 -0.161612 -0.409671 -0.200001 -0.200001 0.1 0.4 -0.2 0.2 -0.1028 0.0583984 0.130724 0.290528 -0.542338 -0.153523 -0.417256 -0.360719 0.147536 0.0416452 -0.375043 -0.503172 -0.1587 -0.918419 -0.55123 -0.436069 -0.0678722 -0.088249 -0.366031 -0.284748 -0.476166 0.507609 0.2 -0.2 0 0.5 -0.1 -0.2 -0.2 0.1 0.395301 0.192031 -0.308003 -0.00330455 0.400459 0.476387 -0.24217 0.0807385 -0.0807395 -0.0328456 0.318415 0.207722 0.149347 -0.261546 -0.0604254 0.368621 -0.0328152 0.0680887 -0.500179 -0.3 -0.5 -0.3 -0.1 -0.252008 
-0.1 -0.5 0.1 -0.4 0.4 -0.4 0.5 0 -0.3 -0.5 0.2 0.2 -0.1 -0.4 -0.2 0.2 -0.5 0.5 0.3 -0.1 -0.4 -0.5 0 -0.1 -0.2 0.3 0.4 -0.1 0.2 0.1 0 0 0.1 -0.4 0.1 -0.200005 -0.100004 -0.0999975 -0.499922 0.400082 -0.399988 -0.23603 0.482531 -0.217993 -0.277756 -0.396343 0.0999998 0.398247 0.0982712 0.498285 0.400024 -0.4 -0.2 0 -0.5 0.5 -0.1 -0.5 -1.34458e-22 2.65545e-10 0.499998 0.200201 0.396857 0.296745 -0.387949 0.418373 0.0947056 0.518105 -0.518532 -0.132297 0.460728 0.387554 -0.582666 0.394403 -0.250633 -0.275494 0.284865 -0.0163578 -0.107305 -0.291759 0.108215 -0.388735 0.1 0 0.5 -0.2 -0.499512 -0.399512 0.0974294 -0.147982 0.267555 -0.27492 -0.0733664 -0.0743315 0.188204 -0.428839 -0.299126 0.223223 -0.391543 0.0704725 0.0255675 -0.9052 -0.351054 -0.660848 -0.45703 -0.970508 -0.631422 -0.544163 -0.183875 0.0477618 0.493248 -0.1 -0.3 -0.2 0.100463 0.000474438 0.210065 -0.484256 0.314868 0.344942 0.491479 -0.169391 0.352776 1.00053 0.636403 0.762305 0.684589 0.776931 0.332068 0.354597 -0.512515 -0.607532 -0.415373 0.307308 0.280505 -0.0470321 0.116475 0.448336 0.444885 2.8775e-05 0.3 -0.1 0.300431 -0.271627 0.311584 0.174362 0.00591603 -0.208144 -0.153748 0.552433 -0.00990496 1.35641 0.955607 0.684377 0.667242 0.564199 0.653373 0.470243 0.50486 0.676511 0.0156886 0.354098 0.204702 -0.0318652 -0.0561386 -0.391508 -0.426131 0.002044 0.1 0.500002 -0.116318 0.5168 -0.486348 -0.00520535 0.402472 -0.0562486 0.105585 0.584329 0.447208 0.355546 0.578203 0.416712 -0.606464 0.444931 0.661938 0.328425 0.0916164 -0.0815321 -0.100129 0.421053 0.241292 0.310936 0.0323401 0.250431 -0.350756 0.204858 -0.3 -0.475771 0.281382 0.0971269 0.33995 0.330961 0.181237 0.258963 0.437496 0.152559 0.932054 0.390635 0.33499 0.332464 0.342977 0.344715 0.253641 0.911079 0.0196026 0.594989 0.315633 0.162247 0.275905 0.61266 0.074497 0.380328 -0.255478 0.499793 0.4 -0.375787 -0.221095 0.117231 0.278532 0.226144 0.31347 0.737748 0.326238 0.302519 0.898537 1.23372 -0.370755 0.746123 0.191783 0.355757 0.0637559 0.716158 0.00241195 0.816225 0.165231 -0.169217 0.582854 0.657866 1.07774 0.42666 0.136049 0.0234493 -0.499898 0.00355703 -0.196708 0.284074 0.899133 0.119122 0.34346 -0.237915 0.112574 0.747979 0.809573 0.453925 -0.014004 0.563107 0.532779 0.555444 0.818548 0.275149 0.487456 0.0738321 0.0973929 0.842301 0.200801 0.317953 1.01528 0.37661 0.03422 0.141515 -0.199898 -0.126189 -0.0160486 0.716807 0.742096 0.641843 0.53485 0.489577 0.307355 0.155995 0.224782 -0.552288 -0.109548 0.264308 0.202398 -0.335201 -0.662942 -0.794377 -0.430139 -0.00909623 -0.142201 0.227566 0.28786 0.13969 0.868606 0.225293 -0.117064 -0.377503 0.000102131 -0.525792 0.0367918 0.161489 0.157094 0.754341 -0.603023 0.110401 0.764334 -0.43543 -0.74579 -0.444949 -0.410891 0.442236 0.176087 -0.250708 -1.48103 -1.45313 -1.35874 -0.515166 -0.197872 0.627585 0.551291 0.713226 0.843287 0.398529 -0.0320878 0.201837 -0.293762 0.467703 0.00218607 -0.442783 -0.292284 -0.270635 -1.17368 0.215542 0.451164 -0.32672 -0.818656 -1.21776 -0.560054 0.079179 0.375562 -1.03126 -1.88389 -1.32147 -1.50286 -0.638315 -0.687348 -0.0814006 0.259679 0.300571 0.215167 0.540919 -0.398119 0.400041 1.52441e-11 0.494108 0.259227 0.115953 -0.429545 -0.202567 -1.05136 -0.480055 0.22221 -0.378726 -0.76808 -0.291843 0.175339 0.868538 0.171587 -0.899242 -1.15573 -1.12373 -1.52679 -0.198796 -0.0534163 -0.160497 -0.0511929 -0.251337 -0.446281 0.0513531 0.0476928 -0.299959 -0.5 0.5 0.275938 -0.674367 -0.170811 -0.0944189 -0.185481 -0.921769 -0.521721 -0.914664 -0.454777 -0.372629 0.00160184 0.399765 0.326112 -0.236646 -0.394251 -0.873743 -1.02531 -0.520223 -0.795624 -0.742369 -0.702438 -0.440133 0.178913 -0.0645373 -0.0484131 0.5 0.2 0.4 -0.0756913 0.283124 -0.439843 -0.653874 -1.38873 -0.879376 -0.564833 -0.746942 -0.758067 -0.600208 -0.169371 0.46738 -0.181509 -0.896014 -1.73959 -1.59562 -0.955992 -1.25329 -0.738265 -0.663862 0.0544807 0.0524941 0.162652 0.498306 -0.0504904 0.0993494 -0.4 0.21347 -0.227339 -0.336371 0.271498 -0.319356 -1.10862 -0.355863 -0.110817 -0.352802 -0.251992 -0.459901 0.318094 0.311206 -0.920387 -1.58496 -1.56177 -0.488215 -0.980264 -0.847917 -0.993995 -0.766215 0.001277 -0.119771 0.314964 -0.0391645 0.468035 0.509221 0.5 -0.183187 0.21644 0.469009 -0.273587 -0.464078 -0.631604 -0.693493 0.0643581 -0.125539 0.0924388 0.467939 0.833358 -0.0245153 -0.903154 -1.13243 -1.41562 -0.523683 0.351512 0.341234 -0.536505 0.0413315 0.208822 0.587574 -0.369641 -0.042124 0.311084 0.0214369 2.3201e-09 -0.396656 0.15778 0.544994 0.20442 0.707267 -0.0867157 -0.477089 0.0375432 0.206796 -0.0247837 -0.538286 0.142721 -0.0796773 -1.10714 -1.01391 -0.871207 0.0213407 0.281133 0.460751 0.591817 -0.127236 1.14802 0.176786 0.147821 -0.216612 0.105288 0.405689 0.2 -0.198551 -0.425264 0.0801751 0.11243 0.614629 0.570055 0.23632 0.834431 0.438309 -0.13328 0.380697 0.102535 -1.25213 -1.35903 -0.719486 -0.303766 0.798969 0.581647 0.228939 0.810754 0.945938 0.435808 0.651378 0.648099 -0.0845248 -0.497649 0.305861 0.4 -0.300517 0.0207014 -0.0475361 0.564604 1.23966 1.59575 1.45261 0.923552 0.441981 1.00179 0.803928 0.570341 -0.0607404 -0.561063 0.153935 -0.239115 0.899588 1.08615 0.331847 0.61236 0.441138 0.677124 0.172982 0.0870584 -0.227569 0.201999 -0.400027 -0.4 0.198034 -0.181716 -0.306993 0.322242 0.664162 1.42386 1.88233 1.13342 1.43542 0.970609 1.00051 0.586342 1.05988 0.185218 0.0791888 0.531762 0.928128 0.823491 0.749276 0.979898 0.501457 1.07009 0.261278 -0.337858 0.506067 0.101427 0.5 0.2 0.4 0.311865 0.547127 0.202071 1.00816 0.629834 0.447204 0.849939 1.07102 0.76928 1.66182 1.48834 1.12429 1.26776 1.00949 0.577163 0.889639 0.692301 0.565156 0.719401 1.29045 0.421363 -0.158107 0.20144 -0.166511 0.0005656 -0.3 -0.2 0.1 -0.0994365 0.0855294 -0.143758 0.425446 0.404059 0.17113 0.546028 0.401945 0.322979 1.50103 1.78554 1.95292 1.88134 0.913095 0.838992 0.896312 0.476234 0.238778 0.40458 0.357333 0.54605 -0.301675 0.383077 -0.196293 0.39996 0.5 -0.2 -0.3 0.200021 -0.478488 -0.445394 -0.095865 -0.464378 -0.470092 -0.242568 -0.488912 -0.306969 0.541398 0.238323 0.441474 1.22616 0.586277 0.774959 0.699572 0.208641 -0.139392 -0.746941 -0.360207 0.407914 -0.137408 -0.49189 0.401768 2.21085e-08 0.5 -0.3 -0.1 0.400006 0.500684 0.190659 -0.309623 -0.177176 -0.147655 -0.313513 0.745036 0.407953 -0.465951 -0.435872 -0.221818 0.391278 0.141565 -0.0544326 0.410072 0.114923 -0.452482 -0.420549 0.066957 -0.0292454 0.427978 -0.237017 0.302844 0.5 -0.3 0.5 0.3 -0.3 -0.536428 -0.0257971 -0.159434 0.334764 -0.244504 -0.0655409 -0.576216 -0.0479854 0.583291 0.479022 0.135464 -0.21636 0.332742 0.0993116 0.576683 -0.426579 0.343065 -0.0888863 0.5034 0.00714658 -0.0597523 0.199999 -0.2 0 0 0.4 0.4 0 -0.5 -0.00677539 -0.402204 0.302143 -0.102453 0.101619 -0.311097 0.199477 -0.29848 0.360632 -0.0494834 0.469489 0.492758 0.293102 -0.0950483 -0.414664 -0.408727 0.211907 -0.00844191 -0.304006 0.199474 -0.1 -0.5 -0.2 0.5 -0.0926888 
0.1 -0.2 0.5 -0.3 0.1 -0.3 -0.4 -0.1 0.3 0.4 -0.1 -0.4 -0.408844 0.491156 0.2 -0.2 0 0.3 0 0.3 0 -0.2 0.4 0 -0.5 0 0 0 0 -0.1 -0.4 -0.2 0.3 0.0998835 -0.400127 -0.200329 0.199021 -0.00608834 0.493733 -0.211725 -0.417054 0.178781 0.316793 0.110843 -0.280185 0.398624 0.304353 -0.190088 -0.307295 0.19264 -0.510575 -0.199975 -0.1 0.3 -0.1 -0.2 -0.4 0 -0.2 -0.199996 -0.199931 -0.498168 -0.20354 0.2043 -0.398064 -0.0587349 -0.288895 -0.0312491 -0.145114 -0.0687188 0.425127 0.27697 -0.254195 -0.12095 0.301307 0.39185 -0.535504 -0.105223 -0.110085 -0.401588 -0.00085161 -0.4 0.3 0.4 0.4 0.5 -0.5 -0.198973 -0.0998581 0.413799 0.217232 0.272083 0.622187 0.0320747 -0.277504 0.503181 -0.101671 -0.517197 0.541033 -0.278144 -0.226538 0.641273 -0.249507 0.0278094 -0.0506144 0.0697197 -0.349566 0.384145 0.254931 0.103495 0.200001 -0.5 -0.4 0.2 0.400073 -0.498604 0.507766 0.390759 0.0948884 0.263546 0.385708 0.683497 1.08975 0.528391 1.00389 0.311617 0.582412 -0.280225 -0.262771 -0.367936 0.343076 -0.374702 -0.292684 -0.270414 -0.089043 -0.450951 0.0761962 0.454819 -0.299999 -0.3 -0.3 0.1 0.499947 0.121217 0.110022 -0.235762 0.0165116 0.269791 0.179971 0.43133 0.0594996 0.164192 0.94686 1.15403 0.456212 0.189496 0.37967 -0.0908529 -0.0991553 0.114893 -0.341564 -0.205071 -0.59558 -0.0566123 -0.125827 -0.367397 0.00606701 0.5 -0.5 -0.199316 -0.265558 0.45875 0.297335 -0.019369 -0.179381 0.300095 0.130505 0.500535 0.336014 0.606265 0.958078 0.675846 0.638466 1.71149 1.42129 1.58713 1.08108 0.124875 0.642834 0.0085693 -0.755154 -0.662081 -0.445728 -0.66154 0.379654 -0.396977 0.4 -0.189916 -0.0777512 0.032476 0.311747 0.63604 0.587187 0.519827 0.118491 0.0208884 0.425542 0.227169 0.824594 0.491635 1.01673 0.683759 0.588527 1.50369 1.01276 0.153143 -0.410447 -0.396239 -0.276222 -0.59548 -0.931244 -0.455574 -0.0325913 0.503644 0.144348 0.201694 0.0896313 0.701412 0.159607 -0.488116 0.272117 -0.227285 -0.0581874 0.348036 -0.409688 -0.642719 -0.675746 -0.866765 0.278191 0.851115 1.25965 0.887385 0.94936 0.409933 0.655684 -0.149755 -0.410421 -0.502741 -1.3509 -0.101117 0.0789118 0.261968 0.100009 -0.0988745 -0.523053 0.220376 0.70476 0.109144 -0.468673 0.0271002 -0.385294 -0.73336 -1.38672 -0.775158 -1.64744 -1.71859 0.0190473 1.36104 1.79356 1.47657 1.48512 1.10541 0.62262 0.444528 -0.539902 -1.09267 -1.10653 -0.21131 -0.0879978 0.262024 -0.299991 -0.393198 0.115236 0.580302 -0.091507 0.212367 -0.84386 -1.13345 -0.740211 -1.02019 -1.80812 -1.61931 -1.09707 -1.51783 -0.843404 0.174833 1.03317 1.0203 1.32847 0.817942 0.530448 0.246507 0.708497 -0.135586 -0.21444 -0.0971859 -0.305706 0.500033 0.500009 -0.187105 0.346585 -0.178806 -0.332072 -0.179627 -0.915629 -0.907184 -1.03958 -1.08372 -1.03701 -1.46205 -1.47508 -1.19527 -1.51329 -0.838934 -0.421014 -0.0493117 0.824996 0.616645 0.526561 0.596674 0.900272 0.740819 0.214503 -0.482283 -0.303347 -0.200051 0.499979 0.51201 0.0413197 -0.154863 -0.425377 0.0373007 -0.853517 -0.419508 -0.845113 -0.40974 -0.360777 -1.6668 -2.02373 -1.97948 -0.85713 -1.00765 -0.968591 -0.489386 -0.405906 0.801238 -0.115257 -0.0744183 0.693976 0.242923 0.355971 -0.236465 -0.0869129 7.08698e-07 -1.16951e-14 -0.199816 -0.491406 0.355846 -0.071929 -0.103589 -0.556745 -0.732812 -0.179749 -0.648528 -1.33398 -0.884649 -0.841158 -0.569567 -1.2312 -1.67101 -0.542288 -0.187276 0.548642 0.249945 0.243227 0.00697431 0.157736 0.690154 0.25338 -0.170106 -0.0940647 -0.0999993 0.1 0.212528 -0.0480384 -0.49663 -0.308899 0.296586 0.156092 0.244914 0.40089 -0.590226 -0.929599 -0.858336 -0.375496 -0.968878 -1.08943 -0.555282 -0.537848 -0.258948 0.240522 0.437714 0.785477 0.210891 0.945819 0.0841478 0.236534 -0.546669 0.294754 -1.25357e-06 0.20443 -0.487649 0.136298 0.0418641 0.478685 0.126907 -0.775905 -0.0513985 0.560514 -0.0225719 -1.10765 -0.68598 -1.11766 -0.89273 -0.54843 -0.581708 -0.21602 0.978364 0.804854 0.787901 0.0383013 0.0141102 0.688717 0.446294 0.597316 0.270694 0.353893 -0.225431 -0.29557 -0.287649 0.441207 0.356699 0.305682 -0.353639 -0.647846 -0.626412 0.368446 0.00875586 -0.605015 -0.738788 -0.198424 -1.15719 -0.537096 -0.438106 0.0703212 0.536982 0.217909 0.925426 0.18977 -0.489695 0.799415 0.245627 -0.052043 0.23814 0.0591828 0.0945256 -0.5 0.112434 0.122642 0.437208 0.143744 -0.418126 -0.248226 0.223146 1.00998 0.103469 -0.604129 -0.640087 -0.911079 -0.648666 -0.667091 -0.53428 -0.118446 0.660915 1.14165 0.704919 0.60494 0.272654 -0.373343 -0.453577 -0.356336 -0.0880346 0.17333 -0.0835985 -0.4 -0.199917 -0.142415 -0.101978 0.420126 0.389783 -0.38611 0.0823238 0.370044 0.0963478 0.0899781 -1.05604 -0.719712 -0.183102 -0.251383 0.0636601 0.228016 0.479806 0.525179 0.526617 -0.446152 -0.760845 -0.151323 -0.545782 -0.506176 0.303429 -0.523844 -0.402098 1.9647e-14 -0.500072 -0.212045 0.563353 0.314126 0.471713 -0.0395326 0.0514573 -0.591162 -0.123946 -0.211913 -0.375879 -0.379305 -0.00179327 -0.737061 0.448255 0.668349 0.117245 0.0788778 0.546963 -0.157625 -0.441898 -0.0237859 -0.793885 -0.296629 -0.168176 0.0541873 0.40028 -0.4 0.199928 0.308823 -0.0833301 0.57607 0.849391 0.932554 -0.00287035 -0.352759 -0.615556 -0.312044 0.601106 0.0369455 0.250436 0.749808 0.86462 -0.122027 0.488693 -0.0186994 0.0638244 -0.456719 -0.662015 -0.856257 -0.357693 -0.307274 0.372721 -0.0378455 0.2 0.1 0.4 0.439907 0.90389 0.932029 0.558532 0.36046 -0.0389679 0.1532 -0.232679 -0.432562 -0.721492 -0.413184 0.727736 0.357145 -0.0879009 -0.592273 0.329099 0.151531 -0.190764 0.0701018 0.162546 -0.640664 -0.179911 -0.455613 -0.0263569 -0.335385 -1.88857e-09 0.1 -4.26041e-12 -0.0722218 0.0630822 0.207408 0.454011 0.618673 0.561073 -0.146604 -0.414082 0.24944 0.0679765 0.38927 0.651184 0.045502 -0.391233 -0.182602 -0.183397 -0.348736 -0.522487 0.280506 -0.480835 -1.04029 -0.833023 0.28044 0.0379598 -0.00042278 -1.88857e-09 -0.3 0.2 0.0165242 0.474076 0.307874 -0.013524 1.18894 0.517748 0.146851 -0.228242 0.150231 0.368731 0.324385 0.0168553 0.352575 -0.358035 0.137923 -1.10663 -0.465105 0.266775 -0.603213 -0.227112 -0.467637 -0.523967 -0.178965 -0.142183 -0.500122 0.5 -0.1 0.3 -0.291091 0.124396 0.506855 -0.476172 -0.00592128 0.61768 0.218127 -0.422475 -0.0572427 0.292833 -0.491831 -0.0172178 0.479211 0.140471 -0.0398496 -0.205291 -0.270501 -0.153411 -0.334764 0.172399 -0.118449 0.457376 0.187475 0.130995 -0.00076295 0.1 0 -0.3 -0.296335 -0.394288 0.00837424 -0.134056 0.323307 -0.16207 0.51457 -0.252716 0.267844 0.34327 0.0836476 -0.00419566 -0.176276 -0.101208 -0.143517 0.0829099 -0.112253 -0.265091 0.640465 -0.397377 0.0305833 -0.00561278 0.398335 -0.300768 -0.400763 0 0.3 -0.5 0.5 0.19996 -0.366957 0.0144662 -0.242151 0.594867 0.0924839 0.050837 0.078152 0.102723 0.473736 -0.33377 -0.0667329 -0.0792346 0.160686 -0.549738 -0.0823561 0.0781093 -0.426012 0.196943 0.329188 0.096319 -0.00221555 -0.4 0.1 0.3 0.4 -0.4 -0.5 0.5 -0.199999 -0.0916127 -0.178452 -0.473442 -0.241541 -0.254643 -0.552128 -0.113709 -0.193847 0.418169 -0.188596 -0.302416 0.218211 0.116283 -0.196059 0.10263 0.199332 0.199132 0.100087 -0.400197 0 0 0.5 0.3 -1.62155 
0 0.2 -0.3 0.3 0.4 0.1 -0.4 -0.5 0.3 0.1 -0.2 0.3 -6.3198e-06 -6.3198e-06 -0.5 0.5 -0.1 -0.5 0 0.4 0.4 -0.1 0 0.3 0.2 -0.3 0.5 -0.3 -0.3 -0.4 0 -0.4 -0.5 -0.1 -0.2 -0.5 0.498653 0.298653 -0.201468 -0.100119 0.198412 -0.116741 -0.172753 0.426867 -0.456913 -0.0151835 -0.413434 -0.214213 0.0131814 -0.38672 0.113202 -0.1 0.1 0.1 -0.1 -0.3 -0.4 0.2 0.4 0.1 0.500719 0.502663 -0.498059 0.399486 -0.116012 0.37574 0.258378 -0.43155 0.070486 0.395209 -0.524343 0.084541 -0.633328 -0.511818 -0.068221 0.410162 -0.0783964 -0.189076 -0.146859 -0.112339 0.302226 -0.1 0.2 -0.2 -0.1 -0.2 0.21141 -0.48859 0.000719759 0.00325914 -0.294578 0.387069 -0.467674 0.0738061 0.153415 0.151666 0.633283 -0.0957216 -0.0978941 0.324876 0.498295 -0.174898 0.0274626 0.0382055 0.445982 0.328722 -0.0745324 -0.5753 -0.496253 0.49064 0.400452 0 -0.3 6.29363e-17 0.51141 -0.488548 0.0678203 0.677404 0.477972 -0.346285 -0.0483025 0.163068 0.41016 -0.0919567 0.0584216 -0.29725 0.0930632 0.544507 0.566907 0.147211 0.122514 0.716476 0.171599 0.482956 0.429384 -0.0676188 0.236539 -0.0381805 -0.19965 0.499901 0.3 0 0.411463 0.00412288 0.450225 0.240651 0.639053 0.119788 -0.146687 -0.00564779 -0.70986 0.244105 0.308876 -0.113957 0.0357908 -0.269409 -0.0614378 0.063322 0.353867 -0.260361 -0.262411 -0.339683 0.263649 -0.383801 -0.190657 0.318526 0.0217372 0.29992 0 0.481659 0.0560237 -0.528665 0.153541 0.256834 -0.162803 -0.435675 0.177749 -0.00866283 0.0419642 0.00264985 0.345646 0.226341 -0.422331 0.387939 0.639033 0.805122 0.81222 -0.423529 -0.0713678 0.295586 0.0585434 0.530427 0.297106 0.372535 0.0361851 -0.407837 0.1 -0.521709 -0.16306 -0.335321 -0.225234 -0.220642 -0.428386 -0.182069 -0.67431 0.112651 0.18354 0.803548 -0.0532966 0.0661267 0.474059 0.00115585 0.655638 0.256287 -0.656292 -0.408377 0.429093 0.268972 0.3419 -0.424569 0.427032 -0.15839 -0.0564998 -0.393297 -0.000111608 0.475901 -0.346857 -0.0225436 0.193692 0.653784 0.443754 0.261311 0.380242 -0.469681 0.379461 0.140872 -0.224342 -0.19047 -0.279943 -0.466263 0.200402 -0.655722 -0.0147655 -0.623533 -0.52293 -0.189044 0.0198426 -0.115442 -0.408553 -0.255614 0.0625296 -0.100636 0.2 0.403007 -0.155278 -0.100544 0.0523249 -0.311405 0.00134425 -0.0284244 0.244938 -0.540611 -0.574055 -0.766032 -1.51349 -1.13887 0.370085 -0.668447 -0.788568 -1.00169 -0.845108 -0.706065 -0.454127 -0.658069 -0.498593 -0.0964795 -0.228372 0.60312 0.0602266 0.317965 -0.3 -0.497745 0.442245 0.324404 -0.141053 -0.00976075 -0.10518 0.0919062 -0.0839138 -0.184416 -0.773517 -0.605661 -0.482746 -0.260013 -0.0764184 -0.187526 -0.378542 -0.156759 -0.532618 -0.423498 -0.508484 -1.07422 -0.295624 -0.74499 -0.109683 -0.297073 0.589916 0.518575 -0.2 0.0994389 0.134131 -0.681326 -0.771807 -0.201107 0.285448 -0.0977624 -0.141764 0.093029 0.0388624 0.0897829 0.341704 0.0866504 0.790288 0.633327 0.558485 0.38889 0.347607 0.23428 -0.21217 -0.0999986 -0.607596 -0.0604436 -0.335202 -0.3109 -0.140108 0.0124031 -0.4 -0.218628 -0.567129 -0.0937818 -0.343462 -0.628167 -0.296076 -0.226785 0.183534 -0.012743 0.136983 0.958517 1.05118 0.843773 1.53836 1.54045 1.69222 0.682585 0.348608 0.918501 0.925586 0.269448 -0.537861 -0.655804 -0.436009 0.176561 -0.520249 -0.488536 -0.5 -0.518854 0.272561 0.0710924 0.00552305 -0.39768 -0.903079 -0.632831 -0.137287 0.493295 0.70677 0.930094 0.87536 0.28152 0.656628 -0.088452 -0.266521 0.0596781 0.110688 0.305619 0.716512 0.0630727 0.0195242 -0.248539 0.183527 -0.116948 -0.301303 0.0114039 0.2 -0.206431 -0.414659 -0.116177 -0.79268 -0.0601351 -0.617254 -0.714571 -0.947312 0.0174758 -0.107188 0.45699 0.986299 0.0279955 -0.13833 0.0614151 0.526755 -0.466415 0.0111948 0.00531047 -0.145357 0.85708 -0.313878 -0.467571 0.132661 -0.391522 0.280849 0.199077 0.5 0.39992 -0.40535 -0.247964 -0.0844921 -0.427624 -0.584953 -0.932411 -1.48597 -1.31024 -0.676171 -0.953761 -0.853312 -0.474337 -0.219347 -0.0434365 -0.233141 0.332301 -0.136636 -0.307239 -0.419771 0.227852 0.31503 -0.0635692 0.055569 -0.672922 0.0485064 0.206315 0.3 -0.000798749 -0.293614 0.270749 0.235817 -0.487553 -0.930131 -1.2652 -1.38445 -2.2427 -2.63616 -1.39622 -1.50643 -0.914331 0.0142232 -0.922095 -0.707971 -0.0513527 -0.400098 -0.464103 -0.151069 0.287833 0.644753 0.358255 0.506654 -0.460769 -0.335002 -0.389924 0.5 -0.000253776 0.513409 -0.309675 0.422277 0.243836 -0.287561 -0.689152 -1.89725 -1.49084 -1.42906 -1.4321 -1.52346 -0.360306 -0.445303 -0.870621 -0.58082 -0.229032 -0.379014 -0.00334396 0.194427 0.444595 0.259389 -0.618755 0.137556 -0.473835 -0.317433 0.0116571 -0.399999 0.000544998 0.142697 0.0219561 0.301615 0.336694 0.683144 -0.108287 -0.0724398 -0.751295 -1.14969 -1.04004 -0.792089 -0.28806 -0.486683 -0.182177 -0.410748 -0.170472 -0.0729596 -0.699536 -0.281293 -0.654998 0.453654 0.440801 -0.222718 -0.244955 -0.236224 -0.391856 0.2 0.499911 -0.382348 0.446054 0.537007 0.715555 0.0928044 0.484904 0.515665 -0.0489353 0.0952982 0.705223 0.342308 0.397049 -0.382487 -0.789644 -0.448465 -0.106237 -0.558379 -0.80725 -0.904722 -0.0283251 -0.142633 -0.240592 0.119842 -0.362513 -0.134847 -0.0983524 0.5 0.501726 -0.283357 0.654118 0.672627 0.451231 0.382994 0.890617 -0.311675 1.15146 0.616957 0.340448 0.522274 0.361678 -0.0780894 -0.80895 0.0140442 -0.0386114 -0.304255 -1.19205 -0.431708 -0.198012 -0.533695 0.138111 0.237824 0.354765 0.457424 1.11555e-05 -0.3 0.00172762 -0.208313 -0.187504 0.288798 0.816397 0.392506 0.9973 0.285778 0.146366 1.09149 0.576069 0.163109 0.236128 -0.425697 -0.751508 -0.347716 -0.497082 -0.406186 -0.244494 -0.408163 -0.41861 0.434374 -0.25363 0.368903 -0.0274946 0.385283 0.1 -0.5 -4.68132e-06 -0.012832 -0.261217 0.525477 0.18011 0.139872 0.781651 -0.205198 -0.322662 -0.364341 0.496131 -0.029854 -0.13283 -0.581252 0.0698743 -0.368096 -0.189569 -0.107537 -0.448499 -0.756848 -0.586497 0.123496 -0.579269 0.380875 -0.448009 0.401179 -0.3 0.1 0.1 0.032127 -0.29521 0.543302 0.0413428 -0.0374608 0.740169 -0.121124 -0.0915157 -0.118708 -0.676004 -0.318091 -0.815971 -0.739116 -0.709878 -0.719961 0.116165 -0.478779 -0.10003 -0.431953 0.345589 -0.0648365 -0.133349 0.406194 0.261065 0.302423 0.2 -0.1 -0.5 -0.278091 -0.0495417 0.0179757 -0.105599 0.00560554 0.8089 0.638422 -0.547094 0.183658 -0.137968 -0.584234 -0.776863 -0.937313 -1.09007 -0.33577 -0.703694 -0.390838 -0.538964 0.229067 0.111351 0.371933 0.165915 -0.267319 -0.0996978 0.500211 0.5 -0.5 0.5 -0.200072 -0.0805924 -0.452781 0.0408941 0.399025 -0.0419801 -0.219682 0.268773 0.503285 0.403293 -0.105267 -0.448329 0.398469 -0.549779 -0.128438 0.333855 -0.186678 -0.331586 -0.245296 0.318306 -0.350954 0.00363816 -0.499713 -0.5 -0.3 -0.1 0 -0.4 0 0.0999553 0.192402 -0.389857 -0.0608169 -0.565826 0.308901 0.496797 0.481453 -0.459115 -0.374341 -0.253121 0.0592912 0.535345 0.058357 -0.581449 -0.60853 -0.0798412 0.220342 0.177673 -0.0443931 0.170348 2.45961e-10 -0.4 0.5 -0.4 0.4 -0.2 0.3 0 0.3 -0.300407 0.371989 -0.228011 -0.229165 -0.134999 0.0624963 -0.237762 -0.206641 0.184016 -0.104816 0.0865572 0.297142 -0.0405439 0.263828 -0.250751 0.370935 -0.101581 0.0991906 -6.3818e-09 -0.2 -0.1 -0.2 -0.5 0.496887 
