-0.1 0.2 -0.4 -0.3 0 0.1 -0.3 -0.5 -0.1 0.4 -0.3 -0.2 -0.200327 -0.200327 -0.300321 0.399679 -0.1 0.2 0 0.4 0.2 -0.1 0 -0.2 0.3 0.1 0.1 0.2 0.1 0.1 -0.4 0 -0.3 0.299192 -0.00262532 -0.50269 0.398138 -0.500987 -0.4029 0.293436 -0.408341 -0.00984356 0.402813 0.1928 0.197015 -0.110587 0.192086 -0.00125624 -0.102791 -0.30265 0.195032 0.396959 0.5 0.1 -0.2 0.3 0.5 -0.4 -0.0999998 0.1 -0.300701 0.0984702 -0.302619 -0.509435 -0.213575 0.078288 0.168911 -0.338783 0.460978 0.260551 -0.127215 0.369635 0.0787047 0.0760341 0.256289 -0.315527 0.500484 -0.198067 -0.397352 -0.000776182 -0.101676 -0.30032 -0.2 0.1 0.3 -0.3 0.103592 -0.196399 -0.400281 -0.0995664 0.00700039 -0.298266 0.00753009 -0.0782433 0.415165 -0.316513 -0.394607 -0.495353 0.483147 0.186628 0.275979 0.362802 -0.160069 0.388241 -0.185543 0.0325101 0.236144 0.411258 0.486945 -0.499398 -0.000583302 0.5 0.5 0.1 -0.496409 -0.495786 0.322747 0.323818 -0.167043 -0.379231 0.560146 0.014448 -0.0418338 -0.00676559 0.0344768 -0.0735704 -0.31755 0.44468 -0.205653 0.0158737 -0.131184 -0.364228 0.316321 -0.0492319 0.160555 -0.397983 0.166767 -0.332106 -0.299271 0.00479122 0.4 0.1 0.203586 -0.295258 -0.179445 -0.132913 0.0735817 0.125253 0.234175 -0.0162852 -0.524448 0.458142 0.168885 0.503189 -0.389607 -0.433314 0.204389 0.220021 0.130014 -0.0164124 0.422849 0.524482 -0.156183 0.0767838 0.342153 -0.323194 0.098111 0.204747 -0.3 -5.18581e-05 -0.503001 -0.103705 0.00897238 0.159032 0.182292 -0.37752 0.277093 0.249379 -0.0696627 0.0828021 -0.173638 -0.160818 -0.0174513 -0.471796 -0.0635751 0.244219 -0.0401159 -0.0333298 0.527297 0.40285 -0.534843 0.414164 -0.104439 0.430351 -0.405082 -0.405463 -0.5 -0.301207 -0.205506 -0.402549 0.41253 0.0268253 0.532392 0.371955 -0.50526 0.0994288 -0.17223 -0.174473 -0.50926 0.0153131 -0.428118 0.36375 -0.287722 -0.376158 -0.108636 0.214531 -0.491326 -0.454131 0.0040121 -0.724712 0.270485 -0.132057 -0.415379 -0.405723 -0.400052 0.394632 -0.203199 0.204404 -0.0599798 -0.390784 0.450265 -0.0106833 0.132754 0.177629 -0.298863 -0.314891 -0.0969287 0.238471 0.2444 0.463577 0.230178 -0.00907998 -0.254107 -0.13566 -0.0160514 -0.343196 -0.203263 -0.129091 -0.404279 0.230451 0.272798 0.0996816 -0.4 -0.303774 0.295765 0.00221142 0.365187 0.016762 0.164098 -0.180923 -0.671774 -0.765573 -0.137465 -0.196555 -0.441743 -0.375353 0.394426 0.549406 0.653619 0.150737 -0.257406 0.344357 -0.754716 -0.422791 -0.276623 -0.857198 -0.650852 -0.0887505 -0.521223 0.200103 0.5 -0.398929 -0.404625 0.00882689 -0.446317 -0.0210673 -0.61358 0.228068 0.0589752 -0.475475 -0.164137 -0.61946 -0.215363 0.131858 0.162375 0.1493 -0.20537 0.357183 -0.0798896 -0.655533 -0.249345 0.139965 0.106492 -0.46304 -0.488119 -0.256859 -0.331758 0.39963 0.4 -0.298689 0.104922 -0.389529 -0.377378 -0.151351 -0.558063 -0.635379 -0.702534 -0.397892 -0.491783 0.0547591 -0.159743 0.163793 -0.250166 0.185298 0.183497 -0.071168 -0.231205 -0.705644 0.156234 0.152552 0.285357 0.162083 -0.114134 -0.00309429 0.0729572 -0.000876393 -2.9072e-12 0.0999486 0.302054 -0.300477 0.0162966 -0.143663 0.047862 -0.0649891 -0.561975 -0.257895 0.249894 -0.0936112 0.161641 0.3142 0.511084 -0.114943 0.61134 -0.0953199 -0.175282 0.0759413 -0.0426067 -0.107191 -0.16803 -0.317539 0.0985976 0.365287 -0.299419 0.200111 -0.2 -0.500768 -0.00169852 0.00292989 -0.181157 -0.0174373 0.403575 -0.341744 0.31078 -0.1547 0.161291 0.109357 -0.0259824 0.395419 -0.167089 0.524207 0.110942 0.305771 -0.434369 0.0749853 -0.00519722 -0.439177 -0.050333 -0.0475436 -0.251232 -0.11563 0.109834 -0.29947 -0.3 0.30049 -0.39704 0.00105799 0.353038 0.53046 -0.271463 0.268966 -0.0134192 -0.391056 0.29067 -0.204871 -0.0666467 0.248754 0.492407 0.147437 0.419932 0.431012 -0.269423 0.459077 -0.377731 -0.0329122 0.248169 -0.167201 -0.15249 0.485775 -0.290515 -0.399473 0.5 0.000396504 -0.496766 -0.275044 0.461094 -0.468661 0.391037 0.330883 0.0338938 0.0418825 -0.390482 0.105688 0.369839 0.14117 0.121391 0.0745562 0.214448 0.199158 -0.122347 -0.464114 -0.0452253 -0.429532 0.272846 -0.308826 0.265331 0.490661 0.0174266 0.302733 -0.2 0.000660684 -0.0979114 0.499549 0.16435 -0.465782 -0.0854832 -0.492219 0.468917 -0.163687 0.0850924 0.336443 -0.0511966 0.618908 0.232666 0.22736 0.376491 -0.0756494 -0.511626 -0.152994 -0.553598 -0.491016 -0.0288237 -0.233045 -0.447965 0.00551672 -0.273214 0.503657 -0.4 0.300692 0.19723 -0.39497 0.334748 -0.386597 0.24564 0.0324342 -0.135819 0.375498 -0.592071 -0.523119 0.0228379 0.0851261 -0.44338 -0.0474086 0.0361919 -0.217324 0.0476224 -0.435155 0.174461 -0.308098 0.195485 -0.0612159 -0.0593995 -0.447472 -0.172931 0.509687 0.100369 0.500031 -0.400101 -0.0879849 0.447789 -0.183398 -0.335371 0.153292 -0.422515 0.0138484 0.0762301 -0.349634 0.0750761 -0.0243944 0.332431 -0.339472 -0.535674 -0.367267 0.300122 -0.524362 -0.353697 0.326981 -0.275478 -0.0662499 -0.165406 0.13181 -0.281694 -0.187091 0.2 0.198964 0.295262 -0.194873 0.0538764 0.124159 -0.172539 -0.386669 -0.491074 0.152946 -0.677725 -0.084798 0.147205 -0.532365 0.213051 -0.451247 0.0568214 -0.344022 -0.438196 -0.315031 0.156129 0.306363 -0.340386 -0.232885 0.18155 -0.259675 -0.387556 -0.294549 0 0.0989327 -0.00345374 0.105591 -0.222689 0.131984 -0.576241 -0.619507 0.192589 -0.292721 -0.398095 0.182191 0.341426 -0.333763 -0.0710324 0.285352 -0.332542 0.313348 0.0850104 0.610922 -0.0438495 -0.190814 0.00560708 -0.174324 -0.378392 0.0343316 0.011287 0.5 0.1 -0.5 -0.504574 -0.001391 0.248633 0.0406263 0.0769708 0.0034861 -0.361986 -0.349182 -0.0316173 0.0679699 -0.254852 -0.0322165 -0.182471 -0.338216 0.570203 0.213728 0.362805 0.254263 0.122627 0.24802 0.242571 -0.255891 -0.133515 0.0121784 0.0114117 0.2 -0.1 0.2 0.298832 -0.188819 0.120015 0.415472 0.120771 0.314607 -0.0473761 -0.1501 0.1042 -0.0190286 -0.104092 -0.15518 0.0211142 0.198475 0.108368 -0.0244208 -0.233282 0.46581 0.519659 0.0414729 0.0439095 0.0502572 0.525618 -0.0894928 0.504885 0.3 -0.4 -0.3 0.500414 -0.286783 -0.199614 -0.393176 -0.104175 0.364938 0.157513 -0.375074 -0.211384 -0.166566 -0.2289 -0.443599 -0.396179 0.40662 -0.477379 0.547458 0.341171 -0.236512 -0.240265 -0.325973 0.142603 -0.47042 0.0147412 0.0161628 0.110259 0.1 0.5 0.1 -0.399992 0.00924072 -0.403796 0.118995 -0.512324 0.319377 -0.554336 -0.434222 -0.443467 -0.326897 -0.485897 0.497527 0.110254 0.185759 0.14808 0.313981 0.195098 0.525973 0.0633928 0.554466 -0.162634 0.0325625 -0.396314 0.409689 -0.0975936 0.4 0.1 -0.1 0.0999832 -0.000932457 -0.509855 0.289696 -0.417563 0.440687 -0.0814323 0.216257 0.31034 -0.601898 0.124483 0.0525744 -0.285309 -0.481922 -0.0672638 -0.193529 -0.45328 -0.0291797 0.401026 -0.286421 0.319605 -0.397178 -0.49893 -0.0991379 0.000666374 -0.4 0.1 -0.4 -0.3 0.29982 -0.305208 0.292588 -0.416363 -0.323093 0.265635 -0.245645 0.15547 -0.046463 -0.366618 -0.371746 -0.0728533 -0.262991 -0.264113 0.239802 -0.443509 0.47211 -0.230225 0.0837713 -0.305386 0.496791 0.0999308 0.5 -0.4 -0.1 0.4 0.2 -0.1 0.4 -0.1 -0.499582 -0.298926 0.501074 0.399283 0.49961 -0.00263953 0.399109 0.394805 -0.106648 -0.0115905 0.0974342 0.400251 -0.101278 -0.302382 0.498188 0.299424 0.00225775 0.00173064 -0.499982 0.1 0.1 -0.4 -0.5 -0.0733062 
-0.2 0.1 -0.3 0.4 0.1 -0.2 0.2 0.2 0.5 0.5 0.4 0 0.300471 0.300471 -0.299995 0.400005 -0.2 0 -0.1 0.2 -0.2 0.3 0 0.4 0 -0.1 -0.5 -0.3 0.2 0.5 -0.2 -0.3 -0.1 -0.2 2.56001e-05 0.302183 0.302184 -0.197815 -0.495325 0.102798 -0.0989408 0.200938 -0.00193731 -0.405998 0.19387 0.495926 0.500535 0.50027 0.401286 0.101284 0.20105 0.200026 -0.3 0.1 0.2 0 -0.2 0.5 -2.75066e-09 4.50616e-08 0.3 0.400369 0.000169326 0.50263 0.405886 0.208922 0.11552 0.20559 0.377671 -0.524489 0.290928 -0.508666 -0.511251 0.36114 -0.206902 0.304316 -0.195415 0.204751 -0.40158 0.299687 -0.00111686 0.400078 0 0.4 -0.1 -0.1 -0.00104836 -0.20104 -0.503531 0.293931 -0.213568 0.285879 -0.0235198 -0.432309 0.458358 -0.251595 0.243591 -0.341435 0.465946 -0.379487 -0.240128 0.0498999 0.0663021 -0.216197 -0.509138 -0.393528 0.32299 -0.280436 0.499157 -0.00497743 0.000417466 0 0.2 0.2 -0.301048 -0.401175 0.0877889 -0.0227013 -0.120709 0.158732 -0.525649 0.515557 -0.369524 0.529187 -0.0966132 -0.433871 -0.180379 0.0780174 -0.0111481 -0.373077 0.0519774 0.0884968 0.00805662 0.323446 0.00587318 -0.472377 0.472096 0.0882384 0.000389317 -0.00164306 -0.3 0 0.19899 -0.00931486 0.0829572 0.283129 0.480348 -0.199609 -0.266547 -0.22413 -0.320772 0.191303 -0.28474 0.160346 0.387637 -0.326008 0.221872 -0.0228405 -0.285529 0.123989 -0.557584 -0.172906 0.116066 -0.473876 -0.388502 -0.420916 0.297471 0.19929 0.4 -0.204639 -0.0114775 0.490974 -0.0506477 -0.387087 0.194566 -0.498692 0.466001 -0.303706 0.225507 0.130573 -0.539557 -0.184863 0.387048 -0.385585 0.00967746 -0.322431 -0.914357 -0.252272 -0.637998 0.0670376 0.511274 0.586813 -0.460091 -0.496354 0.282689 0.296954 0.4 0.493157 -0.0115406 -0.520866 0.32561 0.202732 -0.245467 -0.0970054 -0.223575 -0.359757 0.000538997 -0.254632 -0.0100153 -0.243839 0.0602285 0.495894 0.0812345 -0.657065 -0.759472 -0.421421 -0.246427 -0.480651 0.386333 -0.154439 0.410934 -0.035887 -0.00152595 -0.0028458 0.00114889 0.300966 0.195046 -0.0222156 -0.181307 -0.0934139 0.204447 0.315675 0.536117 0.54356 0.130673 0.232218 0.133242 0.595539 0.343184 0.677023 -0.187097 -0.290614 -0.8299 -0.086777 0.245401 0.0727835 -0.158847 0.392448 0.350464 0.259606 0.419592 -0.299995 0.3 -0.400737 0.189057 -0.41482 0.216478 0.0686101 0.374592 0.195002 -0.0264086 0.061823 0.174761 0.427514 0.8978 0.574214 0.538093 0.20852 -0.335466 -0.843877 -0.383394 -0.212525 -0.26932 -0.127639 0.648899 -0.0430802 0.589271 0.494427 0.413315 0.000103636 -0.1 0.495929 -0.0107628 0.382663 0.351149 0.136704 0.352748 -0.0185706 0.599668 0.421757 0.561214 0.853484 0.099932 -0.0211616 0.402334 0.0372259 -0.577169 -0.534569 -0.157918 0.241457 -0.0989733 0.468615 -0.100151 0.630644 0.348119 -0.190197 -0.475738 0.299867 0.3 0.0959062 -0.396872 -0.0128937 0.292428 0.478621 -0.317206 -0.0995997 0.295405 0.0363634 0.044272 -0.0681054 0.560291 0.259813 0.24387 -0.405808 -0.28827 -0.485216 -0.0243133 -0.544062 -0.29447 0.358309 0.101827 -0.25093 0.266026 0.297306 -0.379506 -0.300101 0.5 -0.200628 -0.1935 0.486953 0.311656 0.199719 0.287604 -0.325687 -0.164271 0.0253287 0.280271 -0.193642 0.168923 0.548079 0.433959 -0.400322 -0.130778 -0.60896 -0.16657 0.373918 -0.155775 0.0774272 -0.179641 0.292376 0.284387 -0.183088 0.302751 0.400033 -0.1 0.100035 -0.292583 -0.419932 -0.199084 -0.308442 0.443628 0.0603086 -0.302204 0.0981952 0.0407487 -0.029045 -0.261109 0.436071 0.288484 -0.241783 0.156305 0.40931 0.146373 -0.116372 0.564214 0.206067 0.471601 0.0799392 0.366887 -0.0986338 0.101525 -0.099995 5.87667e-10 0.498567 -0.100138 0.479063 -0.521335 0.133864 -0.415219 -0.185361 0.445587 0.484137 0.131968 -0.391193 -0.483458 -0.327689 -0.430526 0.0594211 -0.486393 0.0683163 -0.119625 -0.355858 0.572333 0.288469 0.528533 0.164886 -0.163834 0.507962 0.301402 -0.499986 -0.5 0.398833 0.393984 -0.524734 0.169234 -0.259538 0.0616823 0.345681 -0.440785 0.128342 -0.0857894 0.583859 -0.440071 0.428928 -0.318824 -0.126238 -0.129308 0.185163 0.221196 0.0588121 0.342232 -0.225397 -0.0317212 0.110594 -0.139897 -0.488528 0.19906 0.0998538 0.4 -0.00459821 0.392471 0.299278 0.0287118 0.406139 -0.265885 0.555381 -0.308682 0.321068 0.136591 0.279983 0.00739505 0.244132 -0.147153 -0.13518 0.0875303 0.287873 0.131075 0.63696 0.398791 0.558191 0.107127 0.224402 0.448715 -0.213029 0.1805 -0.000660746 0.5 -0.00572615 -0.00687543 0.0834628 -0.328862 0.044193 0.602634 -0.0912682 0.228996 -0.113925 0.298538 0.0857673 -0.22374 0.369212 0.190818 -0.310115 0.400921 0.528648 0.203446 -0.505682 -0.379234 -0.432203 0.347358 -0.325089 0.0247494 0.159856 -0.417166 0.19905 0.500035 -0.201128 -0.0128101 0.458578 0.335717 0.241691 -0.0827952 0.0647749 -0.393176 0.46481 0.513174 0.494369 0.196199 0.479185 0.126313 0.471541 0.381496 -0.392814 0.20793 -0.439783 0.018159 0.563238 -0.158349 0.0857232 -0.381331 0.26436 -0.0176139 0.498668 -4.54412e-12 -0.385966 -0.29125 -0.557055 0.00133424 0.366284 -0.304525 0.160699 -0.345615 0.0301739 -0.216481 -0.260125 -0.133786 -0.00756645 -0.089331 0.0395498 0.00292092 -0.163399 -0.0238754 -0.294121 0.262827 -0.235096 -0.018954 -0.0143348 0.196106 -0.314727 -0.108746 -0.00101068 0 0.0140286 0.195682 -0.495613 -0.573812 0.469142 -0.407081 0.486397 -0.0745432 -0.0979134 0.458053 0.0924992 0.366031 0.483364 -0.455827 -0.365327 -0.125044 0.0647828 0.393707 0.30329 -0.124708 -0.11739 -0.251964 -0.0237993 -0.00933168 -0.00901471 0.193023 5.62576e-10 0.1 -0.200006 -0.0168276 0.0143539 0.305104 -0.228658 -0.180079 0.0161628 0.196661 0.552654 0.0936405 0.389832 0.408845 0.435689 -0.583981 -0.569676 0.244314 -0.32681 -0.379864 -0.0863531 -0.511245 -0.221805 0.189111 -0.326678 -0.433838 0.298248 0.396028 5.94157e-09 2.67351e-09 -2.03446e-08 -0.320126 0.262067 0.218128 0.213732 -0.304177 -0.00887228 -0.364197 -0.0288206 0.140849 -0.0217797 -0.364952 0.40138 0.159562 -0.374726 -0.00947625 0.335611 0.0541832 0.298608 -0.016898 -0.319483 -0.179401 -0.0177484 -0.20217 0.0014125 -0.499605 -0.4 -0.1 -0.1 0.4791 0.260506 0.131633 -0.444475 0.0719134 -0.0421031 0.199205 0.222761 0.258562 -0.277455 0.13581 -0.368544 -0.0575988 0.201078 0.313884 -0.320309 0.20141 -0.0872129 0.484871 0.32608 -0.00681133 -0.389533 0.500465 -0.199153 -0.300501 -0.1 -0.2 0 -0.199854 -0.195984 0.227933 0.391756 0.172093 -0.511402 -0.140263 0.298873 0.266416 0.0135473 0.415879 0.267307 0.24405 0.306315 -0.209827 0.259593 -0.612855 -0.4468 -0.544953 0.231418 -0.488229 -0.411994 0.0990327 0.401529 0.399834 0.4 -0.2 0.4 0.000528015 -0.0914651 -0.477579 0.129798 0.537281 0.22412 -0.00171966 0.404436 -0.226665 0.271555 0.305939 0.390246 0.0866749 0.0641408 -0.101523 0.577843 -0.491796 0.367922 0.00467179 -0.455843 -0.134409 -0.0761587 0.296419 -0.396427 0.399839 0.4 0.2 0.3 -0.3 -0.0983754 -0.494036 0.0153405 0.228754 -0.469858 0.0319005 -0.458339 0.249889 0.363264 0.279398 -0.130627 0.363808 -0.117499 -0.0186726 -0.226198 0.461 0.229338 0.028264 0.21378 0.507611 -0.391092 0.404634 -0.2 -0.5 -0.3 -0.4 -0.5 -0.4 0.5 0.3 0.199927 0.399925 0.0999247 0.500044 5.14608e-05 0.307553 0.00841926 -0.290034 0.0180534 0.417504 -0.196239 -0.0983297 0.0048631 -0.0909866 -0.291651 -0.0967123 0.499877 -0.200185 0.299943 -0.2 0 -0.3 0.4 0.837765 
-0.3 0.4 -0.3 -0.4 -0.3 0.3 0.1 0.2 0.4 -0.2 -0.2 0.1 0.0999914 0.499991 0.500014 0.300014 0.4 -0.1 -0.5 -0.3 0.1 0.2 0 -0.2 0.2 -0.4 0.1 -0.3 -0.3 0.1 0.2 0.4 -0.3 -0.200004 0.299821 -0.000191842 0.0984281 -0.101537 -0.00186036 -0.405623 -0.0056624 0.394851 0.498979 -0.0967757 -0.49743 0.502245 0.398109 0.0990211 -0.500329 -0.200037 0.499865 0.0998511 0.1 0 -0.3 -0.3 0.1 0 -0.300001 -6.83733e-05 -0.100184 -0.100089 -0.3002 0.394443 -0.310669 0.279033 0.268333 0.0730456 0.367686 -0.0209867 -0.0299763 -0.227444 0.456063 0.475026 -0.508595 -0.199174 0.000248411 -0.301606 0.498582 -0.503292 0.199264 0.0995875 -0.3 0.1 -0.3 -0.5 0.500375 -0.399662 0.500151 -0.499871 0.000901765 -0.224148 0.171139 -0.0364742 -0.353246 -0.0774619 -0.485692 -0.0697394 -0.204063 -0.469101 0.213639 -0.0562109 0.281953 0.194752 -0.503996 0.470287 -0.107202 -0.00277902 0.499607 0.0959497 0.39979 -0.3 0.2 -0.1 -0.0996236 -0.00125747 0.296596 0.391608 -0.125345 0.354855 -0.0349873 -0.0319644 0.241548 -0.0246841 0.00603344 -0.51203 0.218909 -0.433027 -0.249486 -0.141381 -0.31175 -0.3148 0.287105 -0.0973604 0.00986662 -0.0973787 0.109486 -0.196391 0.104076 0.299612 -0.4 -0.2 -0.199624 0.402493 0.398561 -0.396117 -0.220555 -0.349948 0.0988758 -0.223578 -0.359191 -0.00397282 -0.125255 0.245235 -0.424539 -0.0723106 0.347274 -0.148033 0.0589962 0.0620767 -0.0951343 -0.147465 0.0394267 0.236421 -0.500548 0.400555 -0.000423435 0.0992537 0.2 -0.399978 0.404501 -0.0935128 0.00541897 0.281216 -0.419102 0.246129 0.262648 -0.254798 0.215873 0.315386 0.213274 0.460502 0.0320702 -0.0625827 0.477776 -0.0142118 -0.00311964 -0.527414 0.407739 -0.228809 0.152395 0.0406692 -0.198444 0.501873 -0.399255 0.00149721 1.38621e-09 0.498425 0.503289 0.404452 -0.284833 -0.543216 -0.230903 -0.141085 -0.0326605 -0.194383 -0.226861 -0.197929 -0.0848194 0.0367259 0.357036 -0.126572 0.247319 -0.354032 0.122169 -0.312876 0.00476253 0.448832 -0.40969 0.149256 -0.080262 0.491468 0.203054 -0.195289 0.0973845 0.000925344 0.0074983 0.100993 -0.496568 0.0836917 0.164655 0.124178 -0.100235 0.0302304 0.408582 -0.174688 -0.156861 0.492336 -0.261589 0.124531 -0.233638 0.429623 0.344985 -0.140138 -0.00575262 0.156865 0.487607 0.0891243 -0.0535052 0.119263 -0.291106 -0.00018383 0.3 -0.399742 -0.501472 -0.38992 -0.485184 0.0180578 -0.12469 -0.446339 -0.229689 0.0778522 0.557144 0.396529 0.102176 0.578215 -0.012507 0.0155234 0.439598 -0.268435 -0.149139 -0.544805 0.472223 -0.126552 0.483487 0.10614 0.437018 -0.488536 -0.479867 0.498291 -0.1 0.40032 0.0963521 0.211293 0.132011 -0.103023 0.350691 0.285052 -0.282929 -0.438946 0.375862 -0.0167574 0.352237 0.116844 0.112782 -0.240907 -0.481539 0.43281 -0.102648 -0.583543 0.48214 0.346307 0.635737 0.0464366 0.0801016 0.242585 0.42884 -0.191478 2.46424e-09 -0.509241 0.199767 -0.282041 0.44104 0.0925137 0.104934 0.0747064 -0.301594 -0.429571 -0.472532 0.277178 -0.480322 0.571658 -0.0104689 -0.369767 -0.105189 -0.452715 -0.331525 0.323948 0.164067 0.708775 0.169355 0.445383 0.350954 -0.363074 -0.481311 0.209739 0.4 -0.0991722 -0.00366931 -0.407019 -0.0678338 0.388519 0.174629 0.00636112 -0.00219537 0.0971813 -0.525498 0.347499 -0.561461 -0.53012 -0.375801 -0.579053 0.257948 -0.343432 0.0398678 0.325063 0.0533889 0.382516 -0.130306 0.465062 0.111899 -0.064271 -0.280091 -0.499869 -0.2 0.000265133 0.498831 -0.411726 0.023349 0.137533 -0.242257 0.403971 0.294341 -0.0138109 0.0498648 -0.476469 -0.368088 0.0391431 0.0991268 0.531841 0.272659 0.0950799 0.116089 0.16443 -0.189854 0.592596 0.108113 0.239098 -0.0366404 0.225481 -0.487248 -0.199533 0.5 -0.403363 -0.103866 -0.316355 -0.390354 -0.163349 0.436868 -0.308705 -0.296554 -0.157536 -0.126612 -0.51517 -0.0195961 -0.499537 -0.148811 0.655493 -0.196868 -0.232013 -0.283882 -0.278842 0.154462 -0.2461 -0.00499884 -0.052532 -0.561464 -0.113391 -0.0930227 0.400169 0.1 -0.103427 -0.305421 -0.00949537 -0.495946 -0.198748 -0.226177 0.105068 0.0120962 -0.0209476 0.267871 -0.172367 -0.455015 -0.072188 -0.304835 -0.358724 0.120914 -0.347873 0.279944 -0.114576 0.0487797 -0.316953 -0.128217 0.139801 -0.261744 0.39086 0.109025 0.200055 0.1 -0.102962 0.392011 -0.0129202 0.327916 -0.166146 -0.05595 -0.433455 -0.341519 0.050027 0.179399 0.0328169 0.215425 -0.0838373 0.442759 -0.060548 0.197238 -0.355989 0.422357 0.343505 -0.00986117 -0.56674 0.298074 -0.562057 -0.155706 -0.30974 -0.493639 0.499958 0 0.296997 -0.109065 -0.017021 -0.269715 0.518577 0.46203 0.160295 0.346128 -0.261601 0.1187 -0.0929147 0.126507 -0.0550035 -0.333854 0.433719 -0.0507215 0.0204699 0.0452267 -0.251231 -0.365025 -0.638243 -0.381058 -0.171211 -0.0434352 0.500961 0.109724 0.00613346 0.300032 0.499959 -0.211337 0.289279 -0.481776 -0.260963 -0.144269 0.43487 0.095106 -0.103992 0.215342 0.0453932 0.261182 0.107107 0.457374 0.187978 -0.546657 0.414074 -0.121391 0.0603032 -0.470432 -0.555072 -0.0910303 0.128524 -0.329371 0.196455 -0.293322 0.506711 -2.28519e-13 0.399744 0.393071 -0.216472 -0.0935119 -0.214338 -0.367208 -0.44954 -0.0505455 -0.300446 -0.339459 -0.398224 -0.242599 0.0892533 0.0718982 0.167965 -0.478668 -0.00472025 -0.376822 0.12402 -0.614051 -0.500094 0.0122008 -0.140882 0.116398 0.502115 0.00435461 -0.397809 -0.2 -0.000542829 -0.207826 0.383145 0.514573 0.574314 -0.252522 0.463511 -0.2317 -0.036989 0.141393 -0.458256 -0.440922 -0.0452674 0.388623 -0.320317 0.0886441 -0.315049 0.49942 0.515355 -0.597803 0.220791 -0.282552 -0.304621 0.209503 0.0111661 -0.20393 -0.4 0.4 -9.33955e-05 -0.0100995 -0.015431 0.295653 0.409438 -0.127106 0.362624 0.273811 0.149834 -0.508847 0.0190634 0.384574 -0.225607 0.110323 -0.0826806 0.0250981 0.0824174 0.1952 -0.104172 0.241983 0.322864 0.359544 -0.380924 0.350016 0.11373 -0.00664701 2.09724e-10 9.64155e-10 -0.4 0.492099 0.500999 -0.127649 0.279707 0.611936 -0.373685 0.185734 -0.0225927 0.0266428 -0.328838 -0.353481 -0.153508 0.468195 -0.000213069 -0.422244 0.509669 0.151979 -0.162907 0.087729 -0.00538274 0.132817 -0.0434256 0.236954 0.319274 0.497706 0.1 -0.5 -0.3 -0.29989 -0.00263949 0.477713 0.483583 0.0574752 -0.222585 0.00524074 0.281708 0.30167 -0.0450305 0.209252 -0.0482554 0.290201 0.142566 -0.204332 0.448217 0.19254 0.448881 0.163925 -0.32034 0.0680031 0.0606155 -0.471907 0.120501 -0.299453 -0.1 0.4 -0.5 0.497893 0.0887828 0.264752 -0.433443 0.475427 -0.146053 0.339891 -0.303488 -0.222832 -0.0289692 0.358775 0.265707 0.349903 0.250988 0.172512 0.0160016 0.0756863 -0.460009 0.0574408 0.35137 -0.0508048 0.239987 -0.0811876 -0.385547 0.101525 -0.4 0.5 -0.2 0.098953 0.395931 0.390038 0.499889 0.0998808 -0.315756 -0.099888 0.302487 0.273659 -0.123682 -0.0285939 0.175072 0.12222 0.253466 0.328066 0.383838 0.410987 -0.0745522 0.511295 0.00904732 -0.0924538 -0.398413 0.200297 -0.398084 0.00084072 0.3 -0.2 0.5 0 -0.299405 0.0990612 -0.397742 -0.191875 -0.383309 0.438721 0.538495 0.0151299 -0.179942 0.124399 0.336544 -0.354662 0.0374945 0.0108751 -0.0942044 -0.189994 0.513624 -0.18277 -0.492572 0.106397 -0.397501 -0.299996 -0.2 -0.5 0.1 0.3 0.5 -0.1 0.4 -0.1 -0.201629 0.195602 -0.104443 0.100417 0.00547756 0.503926 -0.293869 0.0129376 -0.187794 -0.18359 0.306071 0.0068888 0.0108681 -0.0895882 0.107059 0.00314009 -0.197571 0.101289 0.200927 0 0.2 0.5 -0.5 0.186378 
-0.5 0.5 -0.3 0.4 0.3 0 0.1 0.2 0 -0.4 0.3 0.3 -0.207327 -0.00732725 -1.84502e-06 0.299998 0.1 0.5 0.4 -0.2 0.4 -0.4 -0.1 0.5 0.5 0 0 -0.5 0.4 -0.2 0.2 -0.2 -0.3 -0.101157 -0.01415 -0.0155594 0.288757 -0.0105617 0.0835879 -0.220839 0.0742086 -0.324303 -0.416948 0.0690314 0.174047 -0.32067 -0.0348881 -0.123352 0.479023 0.18802 -0.410067 -0.00888587 -0.2 0.4 -0.3 0.4 0.1 -0.3 0.499994 -0.199944 -0.199875 -0.306405 -0.320806 0.460437 0.460275 -0.346473 -0.591645 -0.617101 -0.427944 -0.612645 -0.631231 -0.475458 -0.204195 -0.279741 -0.156418 -0.423448 0.220299 0.0258251 0.246033 0.361613 0.290065 -0.301646 0.5 0.4 0.1 -0.5 -0.199659 -0.399838 0.199045 -0.313251 -0.00670242 0.16324 -0.547266 0.0527413 -0.0578727 -0.0448239 0.415594 -0.589781 -0.0295601 0.0215251 -0.381232 -0.187112 -0.454889 0.128983 -0.239033 -0.66588 0.337501 -0.397856 0.0553773 -0.215676 -0.00280577 0 -0.4 0.5 0.300347 0.496466 0.0127295 0.00395212 -0.196889 -0.387757 0.184721 -0.4147 -0.0340477 -0.167738 0.354768 -0.263588 -0.463145 0.324857 -0.543191 -0.0754769 -0.125986 -0.561846 0.310625 0.334665 -0.620747 -0.196472 0.148563 -0.21016 0.298401 0.394566 -0.1 0.4 -0.000480034 -0.405055 -0.294462 0.225861 -0.272673 0.0746967 0.204681 0.483258 0.572297 -0.321308 -0.0196351 0.641712 0.246456 0.180271 0.420922 -0.240457 -0.300368 -0.375708 -0.389694 0.118971 0.459403 -0.412878 -0.533599 0.0985597 0.102101 -0.305529 -0.1 -0.500208 0.303819 0.193577 -0.0837203 -0.210427 0.430057 0.246327 0.430664 0.270407 0.5087 -0.0375806 -0.168542 0.26301 0.434447 0.276752 0.431915 0.45271 0.043903 0.544295 0.132592 0.0874322 -0.418834 -0.193385 0.126742 0.222404 -0.0899044 0.00286491 0.0999999 -0.399513 -0.197269 -0.307575 0.205413 -0.309217 0.510082 0.330654 0.0372897 0.439625 0.142815 -0.165521 -0.114406 0.392307 0.437973 0.767421 0.727289 0.686845 0.479048 -0.253076 0.539424 0.621422 0.454052 0.0677385 -0.213048 -0.170147 0.0236966 -0.499188 0.400088 -0.410695 0.200302 -0.00920201 0.505689 -0.0055278 -0.42237 -0.115498 -0.475325 0.536931 0.719801 0.532276 0.849064 0.405816 0.465201 -0.147591 0.350527 0.380598 0.718549 0.429697 0.113961 -0.150963 0.59682 0.229784 0.284849 -0.0644762 -0.0901068 -0.304258 -0.3 -0.507736 0.395005 -0.506924 -0.470529 -0.474208 -0.0423761 0.0815883 -0.43173 0.496372 0.0468185 0.0613367 0.216936 -0.113314 0.241941 0.0674747 -0.161561 0.693731 -0.21907 0.523104 0.52582 0.0856865 0.726252 -0.249237 -0.000286617 0.393737 0.105188 0.297059 0.1 0.398769 -0.107582 -0.394713 0.162511 -0.049237 0.309251 -0.249048 -0.337636 0.15608 0.569876 0.0544767 -0.306257 0.379561 -0.330377 -0.428017 -0.10069 0.0389515 -0.416306 0.0553671 -0.264436 0.261115 -0.367169 -0.377142 -0.121731 -0.495686 -0.297903 0.404197 0.2 0.0967437 -0.318263 0.374644 -0.288116 -0.361757 -0.155983 -0.260144 -0.433514 -0.146415 0.269889 0.270956 0.207273 -0.691253 -0.121562 0.234155 -0.072046 0.322806 0.306856 -0.60739 0.300621 -0.304746 -0.0566962 -0.091433 -0.286645 0.275837 0.00012256 0.303268 0.1 -0.20883 0.0819854 -0.024081 -0.378849 0.127791 -0.0710641 0.236361 -0.534172 -0.24517 -0.31355 0.0746768 -0.0243491 -0.156463 0.0679059 0.0482469 -0.362073 -0.178376 -0.119593 0.0557679 0.0650049 -0.556743 -0.0837521 -0.237787 -0.063931 0.124566 0.0110328 -0.200012 0.1 -0.00527956 -0.0152167 -0.218224 0.0268785 0.22288 0.189506 0.00519023 -0.442785 -0.123874 -0.527714 0.426699 0.364497 0.476863 -0.231314 -0.293876 0.312457 -0.408952 0.174178 0.0736883 -0.251019 0.190806 -0.104159 -0.0876877 -0.298887 -0.292973 0.114959 -0.000544298 -3.43996e-13 0.499828 -0.307413 -0.0196419 0.0469223 0.05949 0.000255484 0.312072 0.201964 0.414137 0.467276 -0.328855 0.273092 0.0422993 -0.0615092 0.280694 0.0604356 0.147984 0.0327678 -0.108545 0.0560207 -0.512099 -0.269148 -0.570934 0.421328 -0.0195442 -0.292786 0.199735 -0.0999999 0.500016 0.299444 -0.483951 0.465938 0.434488 0.0528935 -0.0272038 0.266757 0.0827497 0.0301344 -0.028111 0.186966 0.425672 -0.271023 -0.231508 0.0866342 0.638766 -0.183985 0.257468 -0.184609 -0.302355 0.22897 0.431145 0.0621654 -0.199985 0.230757 -0.392825 0.1 -7.06595e-05 0.296304 0.00928435 -0.00718352 0.199307 0.278934 -0.111323 0.355354 -0.382585 0.15286 0.325945 0.0471938 -0.599618 -0.535229 0.0211095 0.684056 0.314285 0.255035 0.376747 0.226119 -0.343804 -0.0380959 -0.249406 0.124961 -0.445107 -0.0425997 -0.19586 0 0.49993 -0.104045 -0.38038 0.181934 0.0741914 0.387865 -0.429721 0.448999 0.0888562 0.409102 -0.00258933 0.00206496 0.248433 -0.360003 0.178685 0.336006 -0.517467 -0.0127287 0.0314055 -0.00230268 -0.317775 -0.0894328 -0.306708 -0.306514 0.18732 -0.339534 0.41242 0.0994523 7.9949e-07 0.493231 -0.417926 -0.140568 0.325545 -0.321632 0.0327548 -0.183422 -0.485337 -0.0955641 -0.30405 0.16231 0.121633 0.00701809 -0.0670079 -0.383335 0.0776897 -0.437789 0.441513 0.126651 -0.0191805 -0.0228898 0.0925137 -0.196862 0.575463 0.149232 -0.184595 -0.1 0.499773 -0.0162427 0.2865 0.235653 -0.179777 0.338061 -0.5104 0.282791 0.227341 0.138096 0.0400987 -0.649468 -0.0350445 -0.449585 -0.0800268 -0.614534 0.0374085 0.225837 -0.277819 0.0351322 0.328541 0.514507 0.296374 -0.464698 -0.474681 0.319571 0.507353 -0.3 0.299887 -0.0124904 0.432595 0.456169 0.203776 -0.192137 -0.255621 -0.367273 -0.423007 -0.440469 -0.277784 -0.552018 -0.315976 -0.101769 0.388583 -0.146569 -0.0622377 -0.0593628 0.545363 0.0165525 0.112392 -0.45263 0.0856128 0.369035 0.134527 -0.491928 -0.2 -3.94838e-09 -0.2 0.0938549 -0.357346 0.25538 0.27563 0.143693 0.00599476 0.193499 -0.41558 -0.440511 -0.193309 -0.484511 -0.508477 -0.605566 -0.320737 -0.00925919 -0.444686 0.49802 0.0455174 -0.145035 0.0612054 0.370818 -0.103855 0.094128 -0.276794 0.404445 -0.1 0.1 -0.4 0.198997 -0.267022 -0.453568 -0.346597 0.0781966 -0.0934402 -0.0894028 0.442359 -0.222954 0.158592 0.173129 -0.255643 0.0776976 -0.146784 0.0732576 -0.344653 0.111373 -0.262397 -0.202996 -0.292977 -0.228555 0.501125 0.557699 -0.271053 0.408775 -0.2 0.2 0.2 0.101501 -0.188584 0.237881 -0.287618 0.0233193 -0.337151 0.32535 0.701855 0.285096 0.340871 0.242589 0.301547 0.211888 0.628776 0.673556 0.062099 0.318496 -0.276224 0.14777 0.177781 -0.257211 0.376265 0.0393316 0.0264622 -0.191766 0.2 0 0.5 0.299975 0.0999868 0.300203 0.205985 -0.0744075 -0.154515 0.0699958 0.078851 -0.0374113 0.558522 -0.39137 0.580195 -0.0760116 -0.0753952 0.141594 0.128319 0.219068 0.281645 0.096913 0.0720981 -0.320525 -0.133376 0.525543 -0.0908669 0.300142 -0.2 0.5 0.5 -0.499929 -0.000666649 -0.00500533 -0.306856 0.0992359 0.499815 -0.497466 0.00717288 -0.228951 0.449731 0.110189 -0.200769 0.242593 0.39876 -0.523225 0.40676 0.409229 0.316898 0.329081 0.0426652 0.138112 -0.27077 0.204603 -0.299958 -0.399967 0.1 -0.1 -0.2 -0.2 0.00133695 -0.40053 -0.305468 0.49347 -0.414663 -0.426456 0.275142 -0.334005 -0.316317 0.0209543 0.149018 0.0668139 0.233715 0.31189 0.135129 -0.189382 0.203361 -0.2862 0.520474 0.306939 0.0984282 -0.199995 -0.2 0.4 -0.4 0.5 -0.5 -0.3 -0.3 0.1 -0.199587 -0.295211 0.00478924 0.00206479 0.398816 -0.00241061 0.198186 0.298204 0.00566102 -0.0871322 0.109172 0.299463 0.202554 0.505104 -0.295004 0.00593005 -0.194838 -0.500915 0.0982005 0 0.1 0.4 0.1 -0.286161 
-0.4 0 -0.4 -0.4 0.2 -0.2 -0.2 0.4 0.2 -0.4 -0.1 -0.5 -0.299768 -0.299768 5.65062e-07 5.65062e-07 0.5 0.2 0.3 0.2 -0.1 0.4 -0.1 0.1 -0.4 0 -0.3 0.2 0.1 -0.1 0.5 -0.4 0.1 0.19999 0.399193 -0.400499 0.499823 0.299817 0.106013 -0.496992 -0.100305 -0.000660699 0.401791 0.00211434 0.0015678 -0.298281 -0.197135 0.203794 0.00301799 0.202192 -0.500959 0.299003 -0.4 0.1 -0.5 -0.2 0.1 0 -0.399994 0.00110556 0.200444 0.202087 -0.399086 0.199727 0.399147 0.506982 0.0148497 0.112137 -0.48586 0.413218 0.131247 -0.0654581 0.247184 -0.272682 0.0202241 0.0283327 0.0184893 0.412748 0.406474 0.00110878 -0.099575 0.499845 -0.4 0 0 -0.4 0.400759 0.00260864 0.408452 0.218931 0.0112762 0.0146614 0.317309 0.235417 0.032094 0.193744 -0.391339 -0.277431 -0.47414 -0.181492 0.427262 0.414628 0.115926 0.443324 0.3961 0.113644 0.322851 0.0111195 0.106719 0.499619 -0.0989649 0.1 -0.1 0.4 -0.299247 -0.100251 0.116848 -0.152733 -0.452828 -0.46107 0.578351 0.299893 0.605733 -0.249189 0.595526 0.536705 0.488815 0.393933 0.193378 0.0984602 0.339767 -0.0479861 -0.253555 0.120147 0.404943 -0.151139 -0.2626 0.101248 0.298615 0.401731 -0.2 -0.1 0.00143735 -0.0960877 0.239363 0.0787309 -0.441371 0.258932 0.555989 0.451449 0.0963939 0.250355 0.281163 -0.142375 0.241534 0.353016 0.0652416 0.246481 0.398455 0.447897 0.551544 -0.156307 0.633088 0.0967771 0.0461381 0.289077 0.195744 0.201437 0.3 9.35325e-07 0.298133 -0.299053 0.022213 0.174418 0.362129 0.0605571 -0.110075 -0.513983 0.0677362 -0.163423 0.113335 0.00461182 -0.319288 0.393532 0.249549 0.0452719 -0.321464 0.235243 0.252146 0.265688 -0.131668 0.337354 -0.243464 0.102708 0.0120717 0.300009 -0.2 -0.500376 -0.105777 -0.508896 -0.297147 -0.339061 -0.433326 0.253311 0.310099 -0.483106 0.410728 -0.0148304 -0.164245 -0.457033 -0.427948 -0.262634 -0.130954 -0.694866 -0.556221 0.426698 0.261234 0.293832 -0.144507 -0.289122 -0.174735 0.187608 0.507579 -0.495543 0.399721 -0.300448 -0.00465668 -0.420744 0.0917232 -0.289502 -0.509453 0.168251 0.277248 -0.468695 -0.494418 0.0297784 0.18278 -0.322493 0.284871 -0.0635283 -0.339226 -0.610436 0.0685276 -0.379368 -0.358067 0.0286181 -0.387889 0.0944634 0.066694 -0.214437 -0.0896627 0.0110144 0.4 0.399903 0.19346 0.0712797 0.473589 0.235639 0.406036 -0.506476 -0.300977 0.0378611 -0.444481 -0.0580822 0.00259113 0.0626543 0.131567 0.0672982 -0.034983 -0.401941 0.151925 -0.299837 -0.144401 0.0407584 -0.161465 -0.30993 -0.398742 -0.430524 0.294557 0.505006 0.2 -0.400308 -0.106204 -0.0318648 -0.151455 -0.136423 -0.661259 -0.369227 0.170435 -0.0331839 0.319529 0.0369942 0.140183 0.170377 0.264007 0.535759 -0.0568478 0.101882 0.381703 -0.0388969 -0.306754 -0.0948798 0.0511472 -0.126571 -0.122278 0.329597 -0.219438 -0.401802 -0.1 -0.299624 0.0923314 -0.126699 0.456895 -0.143007 -0.205334 -0.197915 -0.549018 0.0194894 0.0123048 0.281073 0.0862784 -0.0604503 0.610685 0.00209065 0.215653 -0.088007 -0.501245 -0.376449 -0.0612116 -0.0889863 -0.301615 0.116845 -0.652359 0.0413122 0.393424 0.302376 0.3 0.197635 -0.506972 -0.513035 -0.12612 -0.264911 0.0529741 -0.279613 -0.427544 -0.126889 -0.215003 0.326483 0.589022 -0.170953 0.66478 0.000459612 0.495107 -0.0734044 -0.338731 -0.161071 0.143303 -0.499887 -0.39844 -0.495713 -0.197375 0.370696 0.292718 0.000862268 -0.2 -0.00209626 0.197341 0.00804509 0.502808 0.0611422 -0.0717357 0.477745 -0.175377 -0.329158 -0.293702 -0.428069 0.191602 -0.240075 0.237788 -0.170558 0.579607 0.118474 -0.457612 -0.562154 -0.435487 -0.559298 -0.647174 -0.0730089 -0.462221 -0.416516 -0.203153 -0.0988952 -0.2 3.28863e-06 0.00642697 0.415405 0.402793 -0.511001 -0.064362 -0.405427 -0.166144 0.192948 -0.500708 -0.212222 -0.496972 -0.261035 0.178872 -0.258473 0.26737 0.0130445 -0.558604 -0.258215 0.269527 -0.494892 0.310754 0.422348 -0.0392427 0.481696 -0.204985 0.100361 0.2 -0.0994359 0.514257 -0.0951496 0.259851 -0.130428 -0.194311 -0.300389 0.244954 -0.17067 0.156229 0.142599 0.203696 0.113285 0.139532 -0.482239 0.152313 -0.0182508 -0.410105 -0.217006 0.0334456 -0.37206 -0.437724 0.310843 0.284295 0.379929 -0.410046 0.398755 -0.1 0.100749 -0.086171 0.505172 -0.243006 0.451427 -0.545532 0.506775 0.538543 0.310588 -0.572844 0.270894 -0.0899003 0.160951 0.0651576 -0.529648 -0.699351 -0.54806 -0.0565421 0.162132 0.182459 0.0178456 -0.304119 -0.45998 -0.443072 -0.0281751 0.385403 0.199239 0.5 0.500789 -0.496838 -0.223721 -0.11962 0.0231147 -0.258425 0.000965807 0.120346 -0.392611 0.41557 0.0230295 -0.126158 0.0343915 0.437638 0.00893471 -0.371105 -0.247301 -0.435049 0.373193 0.019662 0.544275 -0.490436 -0.513631 0.35962 -0.0149333 -0.112003 -0.20143 -0.40003 0.300041 0.000161863 0.48389 0.202479 -0.344109 -0.29029 0.0832573 0.112597 -0.268767 -0.251778 0.269668 -0.138596 0.171796 0.0519008 -0.142429 -0.269908 -0.0823598 -0.231103 0.324626 0.347397 0.187221 0.0592778 -0.484867 0.487385 -0.00245663 -0.41149 0.000865983 -0.3 -0.200285 -0.203651 -0.410057 -0.124822 -0.179085 -0.444978 -0.396892 0.398396 0.307939 -0.0985024 0.365927 -0.0289328 0.491189 0.105089 -0.0568301 -0.146202 0.429391 0.5713 -0.217338 0.118854 -0.211736 0.420636 0.0373151 -0.373725 -0.285238 0.498233 0.50155 -0.2 0.499845 0.292939 0.278291 -0.204435 0.533469 0.0362346 0.197413 -0.0250882 0.49036 -0.0675741 0.26207 -0.0668461 0.114176 0.0183432 -0.0391714 0.20138 0.374003 0.608979 0.296933 -0.263292 0.0913249 -0.156362 0.330957 -0.182728 -0.00678905 -0.402146 -1.8033e-10 -0.2 -0.10002 0.396802 0.277368 -0.00797064 0.148482 -0.290924 0.5592 -0.23702 0.278862 0.314842 -0.528451 0.122723 -0.113058 0.110155 0.356916 0.297471 0.12597 0.517281 0.318188 0.526384 0.0353235 0.175674 -0.4591 0.190747 0.390479 0.0970771 0.5 -0.5 -0.4 -0.497997 0.396775 -0.491393 -0.192012 -0.18206 0.543199 -0.320748 -0.168547 -0.262947 -0.422656 -0.202561 0.0285404 0.20171 -0.122494 -0.328183 0.51959 0.367549 0.276045 -0.393602 0.17927 0.243601 -0.492779 0.191585 -0.505569 -0.40181 -1.66331e-08 -0.3 0.3 -0.0970832 -0.385069 -0.305378 0.146697 -0.41344 0.549751 0.447883 0.451113 -0.298185 0.470134 -0.157724 0.404021 0.0446276 -0.0303736 -0.539364 0.0140707 0.20501 0.557189 -0.380667 0.0507835 0.00620245 -0.407199 0.093806 -0.303991 0.401735 0.2 -0.4 -0.1 0.000229666 0.00725325 0.0787994 0.397761 -0.100074 0.184234 0.408871 -0.0812576 0.323237 0.199308 -0.464644 0.116685 0.101359 0.381124 -0.20409 0.164737 -0.391694 -0.478918 0.0277008 0.222234 -0.394523 0.287609 0.0936199 -0.201329 -0.299677 -0.2 -0.1 0.5 -0.399771 -0.00187996 -0.125047 0.457322 -0.563725 0.0430223 -0.0355866 -0.468569 -0.0753901 -0.386131 -0.124487 0.280586 -0.0192139 0.187561 -0.018141 -0.421479 -0.276717 0.264104 -0.0240149 0.497382 -0.408591 0.0940768 -0.0994687 6.23508e-06 -0.299994 0 -0.1 0.1 0.1 -0.205343 -0.00799448 0.486841 -0.0214165 0.0871078 0.189602 0.0866637 -0.0190367 0.173753 -0.0812206 0.00492871 -0.388204 0.342639 -0.250629 0.453281 -0.137779 0.0656357 -0.214521 -0.502916 0.101563 0.000863961 0.099889 -0.1 -0.2 -0.3 0.3 -0.5 0.3 -0.1 -0.3 -0.5002 0.298693 0.0986928 -0.501156 0.0997658 -0.502971 -0.104348 0.392094 0.288526 0.0780311 -0.203265 0.200848 -0.402831 -0.103349 0.195384 0.300818 -0.0983676 0.00198868 0.300779 -0.1 0.2 0.1 -0.2 -0.191469 
0 0.2 0 0 -0.1 -0.1 0.3 0.3 0.2 -0.5 -0.5 0.1 -0.199827 0.300173 0.300175 0.100175 -0.3 0.2 0 0.4 0.1 -0.4 0.1 -0.3 -0.5 0 0.4 -0.5 0.3 0.2 -0.5 0 0.3 0.1 0.200001 0.198871 -0.301127 0.198978 -0.301225 -0.00295635 0.0970368 -0.402862 -0.195864 0.104289 0.404132 -0.499977 -0.399842 -0.0991916 0.000982415 -0.199132 0.50016 0.40021 0.2 0.3 -0.5 0.4 0.5 0.3 -0.4 0.499963 -0.500039 0.199879 -0.201536 0.0980351 0.49406 -0.00622455 0.290533 0.19365 -0.205641 0.097187 -0.187911 -0.483121 -0.291365 -0.00136684 0.20307 0.0949306 -0.406469 -0.106151 0.0962614 0.401646 0.200395 -0.199647 -0.1 -0.3 0.3 0.1 -0.496299 -0.396339 0.499972 0.202151 0.199057 -0.102816 -0.51695 0.286394 0.0685992 0.470645 -0.324233 -0.423658 0.164218 -0.0562457 -0.141395 -0.0436502 0.462757 0.0223476 0.0378641 -0.425664 -0.318373 0.188613 -0.0152252 -0.0140267 -0.400656 0 -0.3 -0.3 -0.396299 0.105345 0.203253 -0.396146 -0.210447 -0.317885 -0.129578 0.152318 -0.0451712 0.00421569 0.08915 0.386018 -0.353571 0.227265 -0.0746782 -0.220323 0.444625 -0.513072 -0.645673 -0.125016 -0.264679 -0.0226633 -0.0196305 0.459981 0.485966 -0.215761 0.1 0.5 -0.096299 -0.198332 0.497325 -0.0130136 0.193755 0.403493 -0.518103 -0.00446006 -0.238365 0.0476705 0.100604 -0.304191 0.0825422 0.0116635 -0.0314456 0.223474 -0.150525 -0.231165 -0.142236 -0.268975 -0.321948 -0.252959 -0.231419 -0.0194923 0.489893 0.284639 0.1 -0.300004 -0.198365 0.39897 0.387614 -0.218619 0.340269 -0.466554 -0.0679217 -0.203946 -0.261998 -0.274246 0.329483 0.49396 -0.172707 0.314886 -0.329372 -0.192681 -0.017036 -0.0409374 -0.444919 -0.00189181 -0.561037 -0.492321 -0.0338347 -0.0285284 -0.186421 0.503391 0.4 0.29776 0.201141 -0.102138 0.378548 -0.410833 -0.241916 0.520965 -0.223036 -0.420421 0.0615887 -0.416998 -0.14357 -0.453606 0.0369502 -0.0435727 -0.485946 -0.465181 0.0958414 0.00427552 -0.471171 0.075669 -0.121542 -0.0632825 -0.115578 -0.503121 0.0219307 -0.401187 0.195193 0.402235 0.197793 0.0964771 0.285669 -0.37724 0.121875 -0.399252 -0.0781779 -0.222999 0.0630383 0.0393422 0.370294 0.241598 -0.436547 0.0604489 0.0130528 -0.176706 -0.00419972 -0.543416 -0.455794 -0.607572 0.156522 -0.0799699 -0.148221 -0.0600027 -0.0751029 0.307174 -0.5 -0.395527 0.49889 -0.00191162 -0.321123 0.409774 -0.430616 0.0068022 0.36651 -0.167183 -0.504339 -0.541665 -0.25424 0.105272 0.649971 0.428077 0.380636 -0.260744 0.169414 -0.288829 -0.418744 0.0772627 -0.112055 0.0674028 0.193108 0.602713 0.452778 0.018055 0.1 -0.202161 0.0979782 -0.205681 -0.503759 0.0812888 0.29945 -0.210765 -0.192195 -0.186161 0.639883 0.0516629 -0.304085 -0.365222 0.113229 -0.138057 0.176143 0.499571 0.477416 -0.32482 0.443904 0.476063 -0.263756 0.0566117 0.102303 0.415207 -0.0439802 -0.38902 0.3 0.295246 -0.303225 0.401312 0.195781 -0.245537 0.20315 -0.12453 -0.405058 -0.142939 -0.111346 0.303009 0.602256 0.545493 0.683945 0.523317 0.0354754 0.0586987 -0.0118584 0.337144 0.363053 0.125751 -0.0870811 0.242655 0.44623 -0.184594 0.321041 0.404343 0.5 -0.204491 -0.507922 0.3938 -0.101587 0.506824 -0.19077 0.383776 -0.0723403 -0.139047 0.218336 0.230063 -0.277644 0.47 -0.0503933 -0.0986659 -0.359684 -0.0360423 -0.161084 0.235412 0.0279491 -0.248954 0.607566 0.31932 -0.490015 -0.354082 0.0330967 0.00472361 -0.2 -0.00236797 -0.106129 0.201273 0.0180925 -0.173981 0.286507 0.165676 0.582073 -0.355607 -0.339566 0.376536 0.530655 0.302841 -0.40626 -0.0580213 -0.469958 -0.389085 -0.329859 -0.563417 -0.270218 0.0335912 -0.31421 0.127262 0.397801 0.5226 0.0466077 -0.397913 -0.4 -0.102109 -0.201317 0.403812 0.172897 -0.337361 -0.17941 -0.111158 0.107199 0.100299 0.40317 -0.0664131 -0.133263 -0.336392 0.0220186 0.348718 -0.0439441 -0.334583 -0.745984 -0.00894727 -0.577977 0.257466 -0.402921 0.377238 -0.492497 0.531976 0.536214 -0.497854 -1.96062e-09 -0.300004 0.395145 0.0929627 -0.215532 0.432552 -0.0995702 -0.107277 -0.0713691 0.0180506 0.0994676 -0.136881 -0.304316 0.319054 -0.512851 -0.0566416 -0.451752 -0.552081 -0.0407575 -0.21525 -0.290856 0.103484 0.241315 0.420844 0.426115 0.322933 0.329138 -0.000173506 -0.5 -0.100547 0.399442 -0.193573 0.0611231 0.14537 0.180464 -0.407444 0.4812 -0.0192542 -0.520591 0.0202227 -0.012151 -0.0887599 -0.0847958 -0.141445 0.174399 0.212824 -0.417571 -0.514703 -0.264289 0.0147309 0.502884 0.45648 0.102325 0.0140036 0.111156 0.498769 -0.1 -0.000545727 0.396736 -0.0885331 -0.253989 0.51652 0.191254 -0.147406 0.30532 -0.398829 -0.237171 0.528121 -0.265786 0.098 0.497283 -0.0746136 0.240337 0.392894 -0.493263 0.00855265 -0.192708 -0.217462 -0.116482 -0.260308 -0.13368 -0.405624 -0.495126 -0.000586609 -0.100291 0.300001 0.39707 -0.0945469 0.507262 0.600724 0.248872 0.473384 0.0485685 -0.074572 -0.37274 0.52036 0.0111219 0.374188 0.304206 -0.43006 -0.189645 -0.549222 -0.0348686 0.366024 -0.0195265 -0.504376 0.138149 0.028302 -0.0145608 -0.404862 0.303487 0.00109213 0.1 0.29792 -0.49741 0.392783 -0.116815 0.0399455 -0.00888047 0.355881 -0.0456736 0.446526 -0.0633554 -0.0967583 -0.380507 0.488035 0.139712 -0.169749 -0.395577 0.129131 -0.422562 0.120132 0.17901 -0.539866 0.313917 0.19301 -0.400006 -0.285689 -0.29622 -0.399158 0.3 -0.000792819 -0.0987127 -0.304098 -0.119444 -0.040295 0.330572 -0.48056 0.283001 -0.421983 -0.317055 0.281919 0.0219123 0.351921 -0.258876 0.142865 0.181622 -0.206194 -0.404816 -0.0625548 -1.65932e-05 0.0289529 0.308148 0.0266975 -0.382367 0.104806 0.000152717 0.1 0.2 -0.5 -0.200892 0.293472 -0.0076656 0.21373 -0.61077 -0.542914 -0.404546 0.442072 -0.297163 -0.244248 0.384773 -0.105759 -0.506374 -0.416929 -0.452651 -0.50052 0.125797 -0.426414 0.387612 -0.286148 -0.373266 0.418852 0.415265 -0.304562 0.00383517 -0.5 -0.1 -0.2 0.199757 0.399191 -0.00278496 0.0335542 -0.104198 -0.104179 -0.0463345 -0.339125 0.0373808 -0.450551 0.149339 -0.61061 0.374526 0.541913 -0.0187452 -0.234624 -0.0181704 0.273532 0.383911 0.00519167 0.527864 0.427424 0.501287 -0.204754 0.410051 -9.72473e-14 0.3 -0.2 1.25176e-06 -0.302785 0.0878452 -0.423448 -0.343962 0.436744 0.398352 -0.0544485 0.0958525 0.0558426 0.212981 0.0421774 -0.197825 -0.418804 -0.182856 0.478624 0.0423708 0.398022 0.43741 -0.0815191 -0.26964 0.528702 0.311512 0.200665 0.111186 0.2 -0.1 0 -0.400001 0.200114 -0.00103098 -0.120316 -0.536195 -0.047707 -0.0691302 -0.335209 -0.0150804 0.00826186 -0.411217 -0.0434803 -0.400792 0.0732329 -0.539808 -0.45237 -0.480497 0.206367 -0.487419 -0.50116 0.00630318 0.00876147 -0.385214 -0.200105 0.199912 0 0.5 0 -0.199999 -0.299656 0.397847 -0.505311 -0.00493188 -0.108286 -0.241802 -0.0350194 -0.361958 -0.28379 0.156081 0.312958 0.323045 0.256211 -0.0355653 -0.312703 0.00420187 0.512728 0.415362 0.417979 0.422246 0.111999 0.403326 0.0999644 0.0999643 0 0 0.4 0.5 -0.400296 -0.199992 0.00355289 0.400376 -0.205254 -0.0163618 -0.411527 0.0848244 -0.00928148 -0.004131 0.309402 -0.0807482 -0.412787 -0.0106375 0.188382 -0.113371 -0.01077 0.00513627 -0.0912009 -0.199123 0.505939 0.303871 8.5212e-14 0.2 -0.5 0.5 -0.5 0.4 -0.4 0.2 0.299999 -0.000128531 0.499874 -0.100215 0.199573 -0.200239 -0.205184 -0.500256 0.504764 -0.498411 -0.505402 -0.000152417 0.0994632 0.396137 -0.302614 0.301411 0.103421 -0.198848 0.00161319 -0.5 0.5 -0.2 -0.5 -0.324208 
0.5 -0.1 0.3 -0.1 0.2 -0.5 -0.3 0.3 0.4 0.3 0.1 0.3 0.301792 -0.298208 0.200734 -0.0992661 -0.2 0.4 -0.2 -0.2 0.2 -0.5 -0.2 0.1 0.4 0.4 0 -0.4 0.2 0.4 -0.1 0 2.5742e-14 0.200378 0.103818 0.00430423 0.00729375 0.00759727 0.305582 0.206983 0.00696601 0.0122589 0.0142751 0.341269 0.231819 -0.484029 -0.487821 0.403414 0.00333971 -0.297937 0.504685 -0.295325 0 0.5 -0.4 -0.1 0 -0.1 0.200011 0.40051 0.200009 0.400722 0.00423828 0.208991 0.519488 0.0379707 0.0575516 0.257759 0.467708 0.543956 0.158584 -0.116914 0.110368 0.175466 0.263182 0.336737 0.234792 -0.0723948 0.125663 0.0108816 0.00206009 -0.399411 0.1 0.2 0 0.5 0.100096 -0.300738 -0.0937698 0.0107306 0.309328 -0.339909 -0.130968 0.382867 -0.0144621 0.0912145 0.0875082 0.0634572 -0.2842 -0.405856 -0.183937 -0.397377 0.229636 -0.216844 0.0396945 -0.133146 0.046654 -0.372954 0.31283 -0.195655 0.00650729 0.4 -0.5 -0.4 8.48694e-05 -0.501269 -0.182096 -0.457871 0.0385263 0.275106 0.0736961 0.680898 0.39603 -0.326425 0.507088 -0.0704556 0.470181 -0.0100216 0.425766 0.166344 0.546794 0.191669 -0.552894 0.291535 -0.235439 -0.0785508 -0.465999 0.510582 -0.295519 0.0986675 -0.1 0.1 -0.398267 -0.0981467 0.168924 0.576557 0.272167 0.406639 -0.41592 0.214309 0.273461 -0.0984683 -0.206247 0.14986 0.556664 -0.1462 0.353909 0.356086 0.507618 -0.27393 0.57129 -0.225643 -0.0543579 0.155883 -0.405364 0.513398 0.112466 0.299051 0 0.00879777 0.0154733 -0.00185472 0.565312 -0.0929832 0.0892044 -0.00842511 0.0915928 0.109435 0.457172 0.413962 0.104797 0.297225 -0.0885451 -0.429375 -0.12568 -0.115127 -0.501464 0.210903 0.210968 0.329857 0.111472 0.0513913 -0.270721 0.378002 0.307057 -0.298765 1.27915e-08 -0.487706 0.51219 0.0839099 -0.381184 0.286368 0.0902172 0.254415 0.152462 -0.116183 -0.310332 -0.216212 -0.123534 -0.291289 -0.165091 0.0212171 -0.0657295 -0.673516 -0.0342287 0.194313 -0.155497 -0.098888 -0.0237387 -0.131394 0.0414282 0.45875 0.507189 0.197658 -0.000332218 -0.090682 0.09386 -0.234578 -0.408952 -0.0254505 -0.476529 -0.177133 -0.225028 -0.316518 0.0596431 0.17889 -0.790965 0.00765028 -0.437913 0.144721 -0.713899 -0.47097 -0.395854 0.14752 0.142356 -0.501194 -0.106409 0.081932 -0.262119 0.24728 -0.304192 0.196804 -0.5 0.298533 -0.213838 -0.220039 -0.0381763 0.159849 0.125527 0.125806 -0.476135 -0.179339 -0.167815 -0.171271 -0.796517 -0.598882 -0.146291 -0.357406 -0.193874 0.193831 -0.740837 -0.511402 -0.239309 -0.475011 -0.339036 -0.605987 -0.31568 -0.0310474 0.0890483 0.00579495 -0.4 0.494773 0.289145 0.0748444 0.15637 -0.218624 -0.188077 0.0574357 -0.529495 -0.398762 0.0314382 -0.165668 -0.0813446 -0.180436 0.243568 0.242987 0.149002 -0.245664 -0.311525 -0.143399 -0.371785 -0.0649999 0.159296 -0.0780368 0.42042 -0.00519803 -0.217761 0.0991871 0.3 0.194734 0.0940709 0.0751943 -0.550514 0.181736 0.214771 -0.708153 -0.56786 -0.742361 -0.630052 -0.345968 -0.0126248 0.0594651 0.17744 0.297569 0.190344 0.401844 -0.141982 0.257119 -0.123849 -0.160226 0.16252 0.00519544 0.27622 -0.262031 -0.0232131 -0.306078 -0.3 -0.503305 -0.00258742 0.299423 -0.058704 0.00949706 -0.685311 0.0663137 -0.53715 -0.254839 0.25841 0.00622993 -0.310528 -0.135142 0.259171 -0.144249 -0.155092 0.718144 0.391494 0.376876 -0.151735 0.110964 -0.474865 -0.358877 -0.530141 -0.292377 0.492164 -0.496799 0.1 -0.40008 -0.0996032 0.290398 -0.46712 0.0103111 -0.168696 -0.0802641 0.276446 -0.468347 -0.725718 -0.522267 0.141598 0.111404 -0.227075 0.334012 0.104576 0.612448 0.183167 -0.342803 0.37021 0.460421 -0.154084 -0.249314 0.375894 0.191967 -0.50075 -0.100179 -0.5 0.00102253 -0.196666 -0.425509 -0.278527 -0.49136 -0.0225274 -0.057394 -0.0873864 0.219473 0.199232 -0.161341 -0.447832 0.496815 0.653228 0.498379 0.0837372 -0.322436 0.319768 -0.0717076 0.242104 0.369837 0.130969 0.203972 0.174013 0.403004 -0.298644 -0.000230848 -0.3 -0.0989676 0.202375 -0.274407 0.0553319 0.520483 -0.07791 -0.203616 -0.648238 0.231178 -0.586032 0.119802 0.308983 -0.326418 -0.304708 -0.177013 -0.0406332 0.0776577 -0.570162 0.503368 -0.208578 0.629414 -0.122808 -0.145102 0.372687 0.32812 -0.197959 0.498369 0.3 0.102613 -0.0942976 0.341513 0.0182657 0.145267 -0.280197 -0.286461 -0.428878 -0.412196 -0.232521 -0.315819 -0.458077 0.279418 -0.291048 -0.553015 -0.395649 -0.489265 -0.416665 -0.337615 0.0856352 0.12623 0.141487 0.191562 -0.11921 -0.167488 0.101636 0.400025 0.5 0.00376191 0.00293566 -0.228603 -0.313131 -0.262946 -0.248926 0.178668 -0.385486 -0.0385183 -0.364177 0.246687 -0.251125 -0.00350228 0.151768 -0.26241 0.20766 -0.411297 0.104787 0.19724 -0.133624 0.610895 0.322983 -0.0729373 -0.1343 -0.406301 -0.202991 0.20023 0.296758 -0.298851 0.507218 0.30228 0.135696 0.0133855 -0.392412 0.231264 0.0968892 -0.324205 0.639389 0.627028 0.243455 0.270083 0.181425 0.355299 -0.0205049 0.0120032 0.165971 0.245851 0.0191353 0.268408 0.366259 -0.0906381 -0.119451 0.38854 -0.205957 -0.199275 0.1 0.397423 -0.390471 0.0830452 0.639967 0.512693 -0.163536 0.540586 0.528006 -0.0249378 -0.116695 0.37676 0.627142 0.0869741 0.53252 0.647767 0.148409 0.159157 -0.159201 0.118569 -0.171149 0.20454 0.270231 -0.190805 0.07788 0.433493 0.402851 -0.398134 0 0.197592 0.508866 -0.124132 0.441019 0.393947 -0.400507 0.137892 -0.447744 0.0351271 0.222165 0.370315 0.561313 0.0252101 0.48486 0.461854 0.544892 -0.166127 0.131303 0.180424 -0.0524029 0.0828931 -0.277823 -0.3089 0.0415559 -0.177414 -0.0010974 0.2 0.5 0.500133 0.00502113 -0.144035 -0.0830917 -0.253108 0.139816 -0.0331981 0.380928 -0.226518 0.234276 -0.297721 0.576651 -0.0354614 0.237492 0.436902 -0.0562489 0.202168 0.203023 -0.0216316 0.234783 -0.393964 -0.461066 -0.231392 0.225401 0.300486 0.30582 -1.7218e-08 0.2 0.4 -0.389064 -0.157264 0.545879 -0.0326089 -0.440619 -0.385005 0.344703 0.617799 -0.261089 -0.483441 0.239351 -0.0129451 -0.129698 -0.208678 -0.206227 -0.461758 0.204816 -0.133985 0.2375 -0.0828936 0.179481 0.421723 -0.00520874 -0.398555 0.403617 0.2 0.5 0.1 0.10503 0.231643 -0.0202066 -0.247006 0.0681732 -0.056136 -0.256047 0.52781 -0.388577 -0.18221 -0.48553 -0.462689 -0.135387 -0.371694 -0.152269 0.161507 0.0414724 0.59113 0.391375 -0.218068 0.0619234 -0.119974 0.194129 -0.0931946 -0.187473 0.4 -0.1 0.1 0.100725 0.416628 -0.0832637 0.515074 -0.314687 -0.521922 0.229798 -0.11545 0.0324247 -0.225946 -0.126878 -0.34329 -0.0588735 -0.145292 0.108206 0.071546 0.18266 0.218964 -0.0727683 -0.313082 -0.0378048 -0.0301426 -0.204282 -0.297309 0.100424 -0.1 0.1 0.1 0.503633 0.502883 0.371004 -0.257093 -0.262837 0.321168 -0.617468 -0.205171 0.068113 -0.5898 -0.0645639 -0.214106 -0.389863 0.459303 -0.0874899 -0.237942 -0.306121 -0.258445 0.460262 -0.284014 -0.0146999 -0.513667 -0.502096 0.1 5.8504e-07 -0.3 0.2 0.4 0 -0.204115 -0.00673635 0.291991 0.0846546 0.186577 -0.118897 -0.414509 -0.207023 -0.505728 -0.0446929 0.361068 0.48239 -0.0531265 -0.0425506 0.349945 0.359438 0.379192 -0.00637591 -0.39645 -0.296365 0.399762 0.300001 0.4 0 -0.3 0.5 0.2 -0.4 0.2 0.5 1.08994e-05 -0.201566 0.498434 0.49842 0.0999822 -0.0016303 0.197864 0.398831 0.198757 0.496399 -0.203214 -0.301101 -0.00214202 -0.102372 0.0989009 0.300864 -0.0990913 -0.0992301 1.38607e-05 0 -0.4 -0.3 -0.3 0.551567 
-0.4 -0.4 0 0.5 0.1 0.4 -0.4 0 -0.3 0.2 -0.4 0 -0.49993 0.20007 0.2 -0.0999998 0 0.1 0.2 -0.4 -0.3 -0.2 0.4 -0.3 -0.1 0 -0.2 0 -0.1 0 -0.2 -0.5 0.5 -0.499921 -0.399196 -0.099174 -0.198562 -0.0987223 -0.196429 -0.39385 0.00545082 -0.0962289 0.400672 -0.201379 -0.00197859 0.198005 0.100104 9.44178e-05 -0.399887 -0.39989 0.100067 -0.199981 -0.5 0 0 -0.5 -0.2 0.1 0.1 -0.499989 -0.299978 -0.500571 0.000548622 0.207647 -0.289244 0.11386 0.22217 0.0282602 -0.272158 0.220422 -0.0838664 0.019233 -0.0751879 0.509761 -0.492551 -0.00223288 -0.503638 0.39723 0.396688 0.500157 -0.200017 0.4 0 0.3 0 0.2 0.299997 -0.300744 -0.501175 -0.00337334 0.0939934 0.308339 -0.188298 -0.0801854 0.293775 0.45237 0.0549988 0.0644102 0.45611 0.528633 0.24202 0.430559 -0.237676 0.230489 0.331468 0.0146555 0.495784 0.303284 -0.0918833 0.00140308 9.55957e-05 0.5 -0.4 -0.3 0.0999968 -0.199974 -0.301381 -0.100686 0.48792 -0.220548 0.407353 -0.0162614 -0.388462 0.178063 0.407499 0.116588 -0.2311 0.164379 0.280688 -0.401009 0.0398084 -0.195276 0.0247317 -0.468577 -0.469095 -0.469538 -0.374341 -0.182929 0.502103 0.400007 0.5 -0.5 -0.300003 -0.404099 -0.397457 0.357658 -0.159146 -0.0572858 -0.152369 0.189138 -0.241876 -0.470156 -0.185636 0.395331 0.486386 0.362412 -0.217772 0.07776 -0.274994 -0.322158 -0.416593 0.0443183 -0.441575 0.0217366 -0.198513 -0.202506 0.00762496 0.500082 -0.4 -0.00370711 0.183865 0.172909 0.390489 -0.577186 0.284806 0.0407531 -0.552098 -0.234165 -0.335073 0.0359049 -0.0614235 0.0427608 0.151538 0.251401 0.398104 0.542165 -0.090564 -0.11438 0.266293 -0.0702367 0.176739 0.197808 -0.157132 0.0894937 0.510543 -0.198917 -0.2 -0.307645 0.0808851 -0.340407 0.455238 0.153491 0.0196937 -0.0640078 -0.0318062 -0.25654 0.0274357 0.366886 0.244557 0.347091 -0.469128 0.564842 0.13134 0.460865 0.282977 -0.442046 -0.566325 -0.102804 0.366302 -0.0325723 -0.404136 0.389281 -0.378234 -0.492466 -0.100155 -0.00726958 -0.515466 -0.447859 -0.587275 0.0714925 0.111503 0.448893 0.457568 0.460502 0.0286963 -0.174558 -0.207502 -0.221696 0.370735 -0.175658 0.0541255 -0.381614 -0.0567461 0.306214 -0.218846 0.275354 0.228268 0.0917872 0.318311 -0.154829 0.231829 -0.483869 0.2 -0.401432 -0.203592 -0.0321699 0.132135 -0.498918 -0.467969 0.443045 0.189549 0.165009 0.133316 0.133452 0.460468 0.395706 0.602914 -0.000303699 0.188632 -0.150866 -0.113427 -0.549234 -0.598427 -0.327141 0.329469 -0.295383 -0.157915 0.0742661 -0.0719611 0.116178 0.3 -0.402675 -0.00588014 -0.0396968 0.369265 0.0967247 -0.420606 0.325977 0.341046 -0.455879 -0.160331 -0.459342 0.049661 -0.0605929 -0.0324507 -0.391274 -0.124531 0.184916 -0.214597 -0.181824 -0.491022 0.217858 -0.277824 0.0420719 0.431224 0.237966 -0.190393 -0.100021 1.58453e-09 -0.10181 -0.414532 -0.0559824 -0.0258209 -0.00675933 -0.296221 -0.229965 0.2054 0.267356 0.00222012 0.178216 -0.336701 0.703226 0.059216 0.356095 -0.220991 -0.0170145 -0.138259 0.0768914 -0.0986941 0.0436526 0.509167 0.502476 -0.268997 -0.377839 0.308517 0.499998 0.4 0.289057 -0.215779 0.165682 -0.401675 0.112748 -0.433245 0.0181939 -0.478596 0.328361 -0.00385966 -0.432738 0.234561 0.518483 -0.0489871 0.531308 -0.389099 -0.357237 0.10877 -0.0550386 0.014805 -0.220858 -0.176511 -0.0625858 -0.400018 0.0208316 -0.398229 -0.200001 0.5 -0.402211 0.286846 0.276624 0.505199 -0.292067 -0.298451 -0.017748 0.304062 0.0632605 0.395432 0.587184 0.741552 0.39068 0.676761 0.412492 -0.315484 -0.708509 0.228172 0.177112 0.348693 -0.0817736 0.615793 0.513808 0.216354 0.521641 0.301158 -0.1 -0.3 -0.100044 0.0938135 0.476939 0.520926 0.507192 0.522249 0.0269154 0.276407 -0.024465 0.0870746 0.415613 0.463543 0.832273 0.470087 0.358701 0.425002 -0.0395851 0.0512874 0.311721 0.398374 0.598103 -0.00616951 0.224517 -0.405873 -0.191658 -0.00419704 0.4 -6.77458e-08 -0.299855 0.493154 0.185955 0.197964 0.147895 -0.0268915 0.348638 -0.0583875 -0.176282 0.825326 0.507413 0.460808 0.0967639 0.0254495 0.291234 -0.435595 -0.120748 -0.345825 -0.455867 0.301915 0.340257 -0.425952 -0.0802519 0.477975 0.0159118 -0.409238 0.49766 0.5 -0.499834 -0.408511 -0.000706227 0.303343 -0.117971 0.156127 -0.315521 0.469149 0.799154 0.368368 0.27536 0.706509 0.0750295 0.258326 -0.126198 -0.418151 -0.173591 -0.454917 -0.2869 -0.183383 0.170238 -0.295079 -0.409683 0.367279 0.51776 -0.308855 0.39767 -0.1 0.300167 -0.500816 -0.000818582 0.196415 0.0107614 0.546356 0.499416 0.487831 0.118874 0.315215 -0.199862 -0.255609 0.331737 -0.203011 -0.0830187 -0.212812 -0.0758669 0.122914 -0.148477 -0.00800584 0.548359 0.569704 0.371543 0.517351 -0.292794 -0.409314 -0.00481423 0.197109 -0.199999 -0.00143365 0.491501 -0.0370027 0.453307 0.438612 0.0576868 0.462183 0.258298 0.201055 0.160031 -0.409738 -0.11428 -0.18765 -0.296782 0.031487 0.380075 -0.196957 -0.0194679 0.480589 0.146027 -0.0576432 0.0822544 -0.0812469 -0.499082 -0.10468 0.29517 0.5 -0.101727 -0.00207805 -0.407579 -0.146584 -0.00232359 0.2949 0.29975 0.19137 -0.261572 0.304223 0.150478 -0.387153 -0.369845 0.305467 -0.0169934 0.239309 -0.367291 0.0297759 0.17604 -0.0919936 -0.0515417 -0.30923 -0.253239 0.368503 0.0127332 0.297545 0.499989 0.3 0.200027 0.288334 0.36387 0.131285 0.172707 -0.00922306 0.417493 0.42537 0.48808 0.317795 -0.213983 -0.358483 0.107164 -0.0967646 -0.400563 -0.344786 0.496125 -0.256808 0.156437 -0.494172 -0.524054 0.182055 -0.0406403 -0.332011 -0.113352 0.498019 -0.2 -0.3 0.500027 0.293158 -0.545524 -0.187754 -0.0455185 0.305707 -0.358889 -0.313536 -0.0871783 -0.318854 -0.462422 0.254741 -0.143707 -0.231016 -0.116901 -0.376481 0.215224 -0.0263121 -0.525886 0.166629 -0.415746 -0.33344 -0.0909686 0.318293 -0.122619 -0.00449612 -0.3 4.82874e-09 0.5 0.291509 0.448588 0.327441 -0.586386 -0.21511 0.303451 0.321906 -0.206552 -0.30005 -0.294168 -0.254366 -0.0694123 0.0383958 0.211024 -0.0830669 -0.630021 0.266469 0.0358659 0.15322 -0.490565 -0.0555893 0.0350994 0.0272307 0.257785 0.295767 0.4 -0.2 0.1 -0.408952 -0.0332078 -0.371096 -0.568529 -0.143535 -0.489472 -0.44233 -0.119531 -0.524981 0.0158993 0.255659 0.248753 0.187316 -0.0941923 0.291246 -0.549299 -0.0866363 -0.58699 -0.321075 0.353867 -0.136982 0.148036 0.451147 -0.145068 -0.102949 0.3 -0.4 0.3 0.500279 -0.204216 -0.190922 -0.280482 0.192187 0.0212782 0.215389 0.311318 -0.00867398 0.118859 -0.0372633 -0.405089 0.143284 0.437778 0.340749 -0.424154 0.2445 -0.109196 0.462029 0.322583 -0.187504 -0.0348904 0.461606 0.365506 0.199995 0.4 0.5 0 -0.297055 0.00570287 0.198224 -0.490499 0.388587 0.104106 -0.334768 0.242793 -0.238057 -0.581091 -0.032407 0.120878 -0.433121 0.134081 -0.260223 0.342058 -0.410365 -0.321438 0.0127952 0.113772 0.131827 0.418333 0.0140198 -0.299174 -6.76971e-07 -0.5 -0.5 0 0 0.502707 0.195961 0.309792 0.109331 0.104673 -0.115934 0.0764325 -0.0769812 -0.291384 0.325451 -0.186188 0.477633 0.490826 -0.022181 -0.016654 -0.414659 -0.314431 0.285009 0.20284 0.389424 -0.305888 -0.3 0.5 -0.4 -0.1 0.5 0.1 0.1 0.4 -6.55251e-08 0.399854 0.496872 -0.00359061 0.494822 -0.40538 0.189395 -0.110204 -0.0118985 -0.113871 0.379182 -0.205746 -0.308246 -0.110417 0.402293 0.201602 -0.00346684 0.100532 0.401983 -1.2844e-05 -0.2 -0.3 0 -0.3 0.282163 
0.4 0.3 0 0 -0.5 0.5 -0.3 0.4 0.2 0.3 0.1 0.5 -0.300966 0.399034 0.201867 0.401867 -0.4 0.4 0.5 0.4 0.3 -0.4 0.5 0 0 -0.2 -0.1 -0.2 0.5 0.2 0.4 -0.1 -0.1 -0.299971 0.1004 0.0010341 0.100851 0.200883 0.200569 0.200608 0.398914 0.196157 -0.300849 0.199485 -0.299456 0.500487 -0.29974 0.400773 0.101307 0.001315 0.100616 -0.499972 0.3 -0.3 0 0 0.5 0.1 0.5 -0.300001 -8.9167e-05 0.295803 -0.403745 0.393537 -0.393185 0.403017 -0.308247 -0.00517508 0.00583047 -0.290069 0.192695 -0.225023 -0.0491821 0.0805151 -0.293715 -0.10344 -0.302972 0.490127 -0.00734977 -0.303134 0.498977 2.98263e-05 -0.2 0 -0.5 -0.3 -0.400002 0.399988 -0.00010789 -0.305017 0.00593694 0.499423 0.315139 0.45025 -0.4065 -0.305977 0.218156 0.491516 -0.005201 -0.285371 -0.284862 0.30931 -0.0797471 0.328472 0.0904469 -0.117445 0.247811 0.388137 0.190855 -0.0151518 -0.499823 0.4 0.2 -4.75234e-14 0.299998 0.301957 -0.197298 -0.0142981 0.0855682 0.205704 0.319298 0.0995644 0.423698 0.432329 0.0219321 -0.149923 0.304434 0.578803 -0.0925089 0.374052 -0.422604 0.198569 -0.202435 -0.263163 0.454879 -0.00474693 -0.0050364 -0.388656 -0.29897 -0.200002 0 0 -0.0999983 0.206452 -0.0828887 -0.340992 0.339267 0.518099 0.279835 -0.255547 0.633818 0.0974689 0.600086 0.266202 -0.0341236 -0.113163 -0.0599264 -0.0277268 0.196392 0.203233 -0.121892 0.51921 0.208954 0.173469 0.363646 -0.383807 0.202872 -0.399937 0 0.104258 0.504773 -0.47595 -0.14523 0.46904 0.442196 0.575022 0.219789 0.340475 0.166895 0.457445 0.205843 -0.0758593 0.159391 -0.0651407 0.406459 0.407472 -0.137964 0.613692 0.225985 -0.0975927 -0.357425 0.194265 -0.115285 0.441472 -0.0169368 0.19492 -0.1 -0.392898 0.502038 -0.350152 0.500995 0.0325903 0.149535 0.569457 0.258495 0.399046 0.65062 0.127164 0.598306 0.224132 0.597492 0.701066 -0.0725419 0.387164 -0.149186 -0.297031 -0.121919 -0.223567 -0.11148 0.251328 0.235262 -0.295968 0.367525 -0.305927 3.25124e-08 -0.195722 0.0998746 -0.430528 -0.159145 0.14034 -0.245445 0.272844 0.393504 -0.249095 0.42312 0.0389517 0.0230936 0.409716 0.00259881 0.58041 0.510464 0.228194 0.174049 -0.0122142 0.0935273 0.1091 0.212542 -0.596405 -0.629454 0.223673 -0.132391 -0.298878 0.4 0.502256 -0.378217 0.357414 -0.217118 -0.412697 -0.360516 0.169925 -0.0964837 0.0817287 -0.200162 -0.079221 -0.311995 0.128511 0.00234816 -0.372228 0.0174343 0.505124 0.41182 0.000389408 0.011529 0.0143816 0.386677 -0.0866483 -0.0864356 0.282448 0.302098 0.0993811 0.4 -0.0977449 -0.280585 0.323111 0.0254239 0.0945873 -0.0456186 -0.473049 0.0437766 -0.0237264 -0.274428 -0.313835 -0.026098 -0.493437 0.153746 -0.407139 -0.372542 0.0961217 -0.344009 0.10516 -0.0490381 -0.182384 0.0495344 -0.608549 0.415423 0.0103232 -0.482102 0.500159 0.5 0.4029 -0.297673 0.394252 -0.434832 -0.516155 -0.268992 -0.313753 -0.703401 -0.525491 -0.150757 -0.454433 -0.750029 -0.584126 -0.242902 -0.106915 -0.18643 0.339621 -0.288025 0.0646318 -0.541263 0.286081 -0.172018 -0.131104 0.0656536 0.385247 0.311142 -0.299676 0.4 0.203063 -0.00192604 -0.0283445 0.281971 -0.112806 -0.74803 -0.111383 -0.127413 -0.0530233 -0.182138 0.182377 -0.853715 -0.160265 0.0405848 -0.588988 -0.0609401 -0.238944 -0.0945893 -0.355496 0.0747017 -0.505602 0.0971986 -0.447587 -0.145652 -0.0360873 -0.40402 0.100311 -6.14555e-12 0.50028 -0.493254 0.0742726 0.226684 -0.406143 -0.229519 -0.508108 -0.279309 0.113104 0.188463 -0.632822 -0.521058 -0.241472 -0.456212 -0.698844 -0.190789 -0.0874602 0.0609918 -0.216873 0.368408 -0.292677 0.235507 0.282295 -0.0798542 0.23939 0.292308 -0.0999312 0.3 -0.299959 -0.0977067 -0.340873 -0.220263 0.147944 -0.66625 0.0768485 -0.0284889 -0.221172 -0.112473 -0.0870082 -0.140825 -0.265223 -0.351663 -0.506272 -0.21159 -0.574449 -0.535593 0.220653 0.272092 -0.312087 -0.636836 0.073774 -0.145875 0.166654 0.202412 4.97667e-07 -4.72045e-09 5.90079e-07 0.303265 0.070244 0.401033 -0.341065 0.268362 -0.0419192 0.275666 -0.543737 0.0638325 -0.310111 -0.169184 0.0319856 0.0879751 -0.825938 -0.121069 -0.453109 -0.613071 0.485006 0.0582384 -0.0913308 0.130554 -0.269548 0.485097 -0.217465 0.00731229 0.299961 0.2 0.100554 0.113673 0.387739 -0.106519 0.522938 0.150413 -0.207345 0.169762 -0.068163 -0.0528381 -0.180128 0.217835 -0.663933 -0.506957 -0.562328 -0.255322 -0.413575 -0.651124 -0.0761814 0.172271 -0.187696 -0.0148213 -0.0178453 -0.176641 -0.397849 -0.272479 0.499974 0.3 -0.498182 -0.490336 -0.279571 0.242622 -0.0450697 -0.620131 0.00299485 -0.347759 -0.5815 -0.25037 -0.718732 -0.337287 -0.642476 -0.669141 -0.107027 -1.06207 -0.300258 0.22312 -0.361251 -0.159241 0.487973 -0.353695 0.363512 0.112428 -0.49817 0.0342378 0.107826 -0.3 0.00126473 0.0163619 0.265115 0.406271 0.0417894 -0.2002 -0.207343 -0.664379 -0.771154 -0.276925 -0.292289 -0.392216 -0.34027 -0.366702 -0.791011 0.18815 -0.409825 0.451366 0.171529 0.631564 -0.332263 0.0684141 0.323511 0.502748 -0.274448 0.13492 -0.491597 -0.5 -0.0999999 0.0224925 0.470637 0.239739 -0.0467433 -0.225698 -0.434468 -0.604032 -0.284816 -0.383113 0.112032 -0.677912 0.0308356 0.125373 -0.103784 -0.0192996 0.315818 0.202846 -0.254934 0.237903 0.276205 0.427066 0.5291 0.0306786 0.525446 0.21381 0.500708 -0.5 -0.199796 -0.39492 -0.311156 0.383479 0.253922 0.346797 0.0712783 0.17581 -0.327493 -0.351208 0.28627 -0.091069 0.297175 -0.204665 0.103092 0.91094 0.661347 -0.0947134 0.160759 0.740972 -0.227051 -0.308856 -0.220532 -0.00593437 -0.354629 0.113765 0.2 0.2 0.300204 0.004725 -0.21922 0.183587 0.400975 0.467863 0.434661 -0.209761 0.632556 0.457262 -0.281886 0.287759 0.361195 0.558442 0.34872 0.813546 -0.0178233 0.270513 -0.168484 0.218897 -0.13965 0.178265 -0.428294 -0.0838013 0.344342 -0.28484 -0.5 0.5 -0.1 -0.394036 -0.269783 0.436053 0.0440045 0.256839 0.39889 -0.174199 0.60508 0.580722 0.415143 0.564828 -0.163313 0.281412 0.623035 0.0286104 -0.116444 0.427745 0.0369513 0.30594 0.459285 0.230698 -0.0680246 -0.4493 0.527911 0.206728 -0.2 -0.4 0.1 0.202506 -0.061789 0.435989 -0.264162 0.391996 -0.0345867 0.0586162 0.505015 0.073515 0.689607 0.192548 0.407265 -0.141831 0.201856 0.0538474 -0.261958 0.156731 0.400162 -0.0427545 0.126035 0.0645223 -0.23812 -0.47303 0.121383 0.50032 0 -0.5 0.4 0.501127 0.140164 -0.0378084 0.509713 0.361862 0.293246 0.165581 -0.193294 0.277997 0.358765 0.519381 0.209536 -0.18267 0.164732 0.47027 -0.165788 0.167267 0.0358851 -0.276239 0.00471939 -0.199075 -0.387228 -0.182925 -0.489915 0.500065 -0.4 0.2 -0.3 -0.399972 0.502602 -0.185124 0.0263255 0.19034 0.262771 0.399643 0.165845 -0.118001 -0.141649 0.694318 -0.0892968 0.340723 0.0136903 -0.098949 0.466595 0.0546277 -0.477692 0.501067 -0.0346192 0.0869092 0.186995 0.296418 -0.500055 -0.0999991 -0.3 0.4 -0.2 -0.2 -0.500389 0.304938 -0.3929 -0.488439 0.230927 0.530538 0.0593742 0.0761604 -0.248633 -0.228373 -0.0341868 -0.287774 -0.500548 -0.0916288 0.523552 -0.472917 0.0200517 0.304671 0.291617 0.00444728 -0.202652 0.4 -0.5 0.4 0.4 0.2 0 0 -0.2 -0.5 0.00292054 0.505486 0.405486 -0.297434 0.500185 -0.299757 0.500238 -0.10005 0.198791 -0.401115 0.0997369 0.201412 -0.101654 0.49789 0.292439 0.497687 0.495854 -0.203042 -0.200001 -0.1 -0.1 -0.5 0.2 0.318047 
0.3 -0.2 -0.4 -0.4 -0.1 -0.3 -0.4 -0.1 -0.4 -0.4 0.1 0.5 0.300728 0.000728277 -0.499965 -0.199965 -0.1 0.2 -0.3 0.4 0 0.2 0.3 -0.5 -0.2 -0.5 -0.1 0.1 0.3 0.4 -0.5 0 9.49695e-15 0.0999887 0.00435582 0.104403 0.0022208 -0.198166 0.00392355 0.00468728 0.30422 0.00335344 0.301931 -0.0927889 -0.493587 -0.391779 -0.0958281 0.301798 -0.397851 -0.0983616 0.100708 0.0999604 -0.5 0 -0.5 0.4 0.3 0.4 0.300025 -0.299899 0.000202104 0.000407237 -0.294207 -0.0914737 -0.396108 0.00300728 -0.0949693 -0.194136 0.402947 0.396364 -0.396458 0.323337 -0.377872 0.0140257 -0.282959 -0.185966 0.310754 0.507606 0.204748 0.203359 0.300883 0.399495 0.1 0.2 -0.5 0.1 -0.400099 0.300742 0.400176 -0.199711 0.401147 0.00654909 -0.305121 -0.212231 -0.00734889 0.310594 -0.382757 -0.052807 -0.353073 0.0393564 -0.373753 -0.184008 0.00832755 -0.0807502 0.418316 -0.366349 -0.276527 0.418826 0.0076869 0.300266 0.200128 -0.1 0.4 0.3 0.0998753 0.500852 -0.503791 0.390384 -0.307914 -0.0274148 0.377285 0.0575544 -0.514231 -0.372804 0.0513827 -0.0359156 0.480177 0.181197 -0.115872 0.572725 -0.154397 -0.269809 0.552358 -0.241385 0.448819 0.0341744 0.00853638 -0.494122 -0.0992364 0.00031449 -0.3 -0.5 -0.10008 -0.00316289 -0.509754 0.172429 -0.326959 -0.133726 0.329147 -0.441297 -0.0207044 0.0391297 0.0772649 0.307004 -0.0746784 -0.358042 0.212799 0.206523 -0.158372 0.238547 -0.383192 -0.111716 -0.19141 0.312133 -0.495277 0.50261 0.101021 0.400151 -0.4 0.500012 -0.102138 -0.212815 0.482528 0.28999 0.175381 0.0873166 -0.360091 -0.0229045 -0.0370463 0.505109 0.48502 0.330497 -0.320596 -0.338308 0.013301 -0.211857 0.214978 -0.411741 0.240309 -0.0997003 0.149407 0.473405 0.00999201 -0.188183 -0.496769 -0.000476682 -0.1 -0.00220185 -0.304464 -0.516306 0.169634 0.474456 -0.0428306 -0.477396 -0.57757 0.0595952 -0.123808 0.265561 -0.158645 -0.25809 -0.148721 0.101845 -0.64098 -0.287508 0.119689 -0.565822 -0.480365 -0.168074 -0.616966 0.0306789 -0.480697 0.228454 -0.0829412 -0.000145323 -0.390991 -0.202279 0.496702 -0.328152 0.464341 -0.518168 -0.284733 0.091185 -0.0699931 -0.356809 -0.242776 0.103812 0.472596 -0.0573035 -0.544231 0.175862 -0.128867 -0.553757 -0.33863 -0.234109 -0.180654 0.365268 0.326721 -0.5239 0.063493 0.0536762 0.420448 0.406637 -0.1 0.196416 -0.305151 -0.521336 0.379247 -0.176896 0.306761 -0.486898 0.186337 -0.233775 0.00957683 0.515667 -0.123538 0.306311 -0.549306 -0.161753 0.247474 0.291811 -0.156136 -0.136039 -0.624511 -0.527319 -0.270317 0.21768 -0.00381543 0.560552 -0.191508 0.404975 -1.13668e-09 -0.203682 -0.107723 0.169841 -0.0702697 0.309209 0.408459 -0.59011 -0.0655711 -0.456717 0.143325 0.112065 0.275953 -0.379308 -0.0522074 0.102309 -0.0588055 0.0883175 -0.135548 -0.357874 0.0689451 0.158104 -0.516035 0.324367 0.183794 0.0219166 -0.102014 0.495067 0.4 -0.0919062 -0.215484 -0.151066 0.397406 -0.21677 -0.0772503 -0.235634 0.358429 0.394346 0.442164 0.262049 -0.303498 -0.159931 -0.129593 0.0930424 -0.276335 0.20114 -0.216418 0.533552 0.305595 0.0642571 0.0793734 -0.166977 0.146818 -0.0807069 -0.294686 -0.403163 -0.4 -0.303391 0.0884819 0.0446081 0.196004 -0.091499 0.000384227 -0.202905 0.107427 -0.0582172 -0.277606 0.240661 0.179507 -0.514353 -0.451496 0.228517 -0.0608981 -0.429489 0.116675 0.27756 -0.434205 0.107631 0.419233 0.226199 0.126362 -0.0898285 0.309734 -0.0997232 -0.2 0.197105 -0.00143594 0.355653 -0.289563 -0.551527 0.385303 0.246277 0.326413 -0.0571318 0.362786 0.0751103 0.43882 -0.0196931 -0.547432 -0.431662 -0.0269389 0.50277 0.343108 -0.268548 -0.0525461 -0.0285784 -0.441917 0.222276 0.420279 0.415483 -0.290704 -0.299735 -0.3 0.0938793 0.492124 -0.234238 -0.450446 -0.272769 -0.0460988 0.373128 0.300904 0.0255165 -0.390832 0.407353 -0.151238 -0.295401 0.334982 0.373874 -0.322562 0.347376 0.0558281 0.437678 0.175176 -0.00712216 0.587059 -0.470678 -0.192999 -0.19158 -0.294665 -0.40011 -0.4 -0.105518 -0.00831501 -0.415375 0.0691732 0.170779 -0.524536 0.0613991 -0.109382 0.167553 -0.385323 0.263684 -0.0996603 0.209308 0.0484956 -0.0657617 -0.0747507 -0.109127 -0.0170293 0.0194304 0.413399 0.0133627 0.545525 -0.294897 -0.0906946 0.00910311 -0.105247 0.200487 -0.2 -0.106235 -0.410027 -0.425879 0.468658 -0.116816 0.042898 0.128175 -0.435724 -0.159898 -0.110914 -0.373718 0.0195891 0.429464 -0.0679536 -0.16075 0.233114 -0.0304181 0.0146307 0.0347939 0.074951 -0.330391 0.516246 0.199493 -0.500831 0.213573 -0.508547 0.199803 0 -0.00630436 0.389965 -0.415137 0.476271 -0.0310394 0.0849483 0.275658 -0.31888 -0.00770042 -0.247779 0.0679135 0.252712 0.439392 -0.460972 -0.172876 0.0296428 -0.0822646 0.0319403 0.404169 -0.0607356 0.168847 0.0781278 -0.311143 -0.185125 0.00862609 -0.202802 -0.300838 -0.101224 -6.97798e-05 0.394667 0.00062975 0.173996 -0.514556 0.546164 -0.330258 0.124496 -0.111773 0.132956 0.4786 0.0563602 0.398885 0.24619 -0.123956 -0.0965329 0.100474 0.059527 -0.318773 0.219916 0.13566 0.288003 -0.289578 0.00162287 -0.000967129 0.398349 0.499476 0.1 0.499471 0.402605 -0.499607 0.286145 0.475561 -0.157999 0.436659 0.306456 0.122571 -0.239122 -0.193063 0.185756 0.0146836 -0.415859 0.3711 -0.434282 -0.483154 0.401776 -0.212323 -0.514435 -0.317926 -0.100236 -0.372928 -0.0190181 0.497513 -0.000902995 0.399637 -0.1 0.100659 -0.19371 0.00126238 0.000278791 0.39416 0.312164 -0.260979 0.468101 0.145957 0.21052 0.170623 0.0937724 0.167265 0.419 -0.24872 0.217684 -0.26314 -0.0216989 0.246153 0.130596 -0.25554 -0.0210038 -0.100375 -0.215765 -0.304159 -0.299049 0.1 0.1 0.4 -0.000178083 0.289575 0.0912697 -0.0264501 -0.529185 -0.302341 -0.290805 -0.192555 -0.0766983 -0.362563 -0.24251 -0.158704 0.418245 -0.420686 -0.393983 -0.234447 0.0771456 -0.0610936 -0.5884 -0.0701241 -0.0169062 0.101698 -0.118903 -0.205319 0.204386 -0.3 2.99397e-10 0.2 0.100132 0.104522 -0.0965815 0.0751783 -0.0547044 -0.448422 -0.191126 0.0878184 0.198396 0.0763057 0.0443148 -0.391375 -0.183467 0.501867 -0.383042 -0.491449 -0.371841 -0.193946 -0.207148 0.118176 -0.00863265 0.390007 0.38856 -0.198838 -0.495037 -0.1 0.2 -0.5 -0.499987 0.0013378 -0.101672 -0.511089 -0.423664 0.339056 -0.00962129 0.127099 0.11979 -0.0934208 0.0600078 0.291513 0.0847149 0.177529 0.154196 0.0380479 -0.465982 -0.217835 0.301779 0.227436 -0.407779 -0.214761 0.288061 -0.30095 -0.0967854 -0.3 -0.2 -0.1 -0.100041 0.302823 -0.404177 0.0921316 0.0728306 -0.0795217 0.357022 -0.357786 0.129224 -0.456081 -0.0302733 -0.489809 0.257653 0.241108 -0.529102 -0.0301459 -0.0902902 0.0985377 0.305735 -0.557567 0.0680903 -0.416849 -0.108705 -0.503435 -0.202389 -0.1 -0.5 -0.5 0.299999 0.50001 0.198159 -0.10599 -0.526433 -0.53815 0.141203 0.138037 -0.225793 -0.0322024 -0.298112 -0.220667 -0.213785 -0.211332 -0.0959106 -0.31601 0.252295 0.219671 0.317889 0.241159 -0.334629 0.489707 -0.301884 -1.48825e-05 -0.299984 0.4 0.5 0.4 -0.2 0.299965 -0.199377 0.295789 -0.11278 0.477086 -0.0431399 -0.0403859 -0.131178 -0.0405622 0.0534539 0.465203 -0.423925 -0.312914 -0.107541 -0.114224 -0.427564 0.359673 0.362555 0.263531 -0.00880946 -0.202188 -0.300174 -0.4 0.5 -0.4 0.1 -0.3 0.4 -0.3 0.2 0.0964908 -0.0110451 0.388749 -0.00890941 0.193552 0.294603 -0.510596 -0.0123603 0.0945471 -0.511197 -0.102704 0.499473 -0.407491 -0.210163 0.0890607 0.194392 -0.306165 -0.302668 -0.000731788 -0.5 0.5 0.5 -0.1 -0.605468 
0 0.3 0 0.5 -0.4 -0.5 -0.3 -0.2 0.2 -0.4 0 -0.1 0.399958 0.299958 -0.4 0.1 0.4 0.2 0.3 -0.1 -0.4 0.2 0.4 -0.2 0.2 0.1 -0.2 0.1 0 0.1 0.4 0.3 0.2 -0.200001 -0.300543 0.399451 -0.000986101 -0.500951 0.401642 0.301955 0.00232622 0.102424 0.401032 0.400397 0.199608 -0.500616 0.300291 0.200451 0.500482 -0.500106 0.499912 0.199913 -0.3 -0.2 -0.5 -0.5 0.1 -0.4 -0.5 -0.299998 3.84506e-07 0.400151 -0.000393248 -0.400314 0.193041 -0.00715429 -0.507859 0.388896 -0.0157258 0.0858221 -0.30144 -0.281051 0.0145136 0.333558 -0.263423 -0.481196 -0.0949939 0.299294 0.300976 0.00090428 -0.0999285 0.400034 0.1 0.1 -0.5 0.4 0.0953981 0.2954 1.68202e-06 0.0994362 -0.509663 0.37635 -0.0283183 0.465381 -0.131465 -0.43695 0.463873 0.472567 0.0929089 0.551487 0.0863494 0.095154 0.476255 -0.0514505 0.0099719 0.495246 -0.499624 -0.205098 -0.101511 -0.0999266 1.09413e-05 -0.1 0 0.2 -0.404602 0.493913 -0.41066 -0.538782 0.441542 0.112411 -0.138094 -0.256676 -0.0575179 -0.372955 0.300364 0.0115859 -0.287984 0.530211 0.241026 0.00775527 -0.400154 0.26758 -0.0562742 -0.0674869 0.427587 -0.288067 0.0154474 0.311361 -0.0999861 0.1 -0.3 0.4 -0.00464907 -0.508091 -0.318712 0.428641 0.0731162 -0.500016 -0.52923 -0.238339 -0.624736 -0.323799 -0.427753 -0.496361 0.130188 0.0769492 0.38876 0.595767 0.332128 0.408633 0.106481 0.594731 0.26236 -0.163637 -0.0832326 0.403943 0.0996773 0.299997 -0.5 0.0999887 0.500458 -0.101612 -0.412385 0.0529013 0.234567 0.0802387 -0.539272 0.16576 -0.0624308 -0.126553 -0.113651 0.29534 -0.00736343 0.354619 -0.249403 0.180455 0.408992 0.463532 -0.144298 0.428136 0.10848 0.160385 -0.0760844 -0.394415 -0.496206 0.400581 -5.16036e-10 -0.50013 0.100889 -0.106056 0.0566136 -0.276757 -0.511238 -0.425796 0.105636 -0.016387 -0.397272 0.302134 -0.385776 -0.320636 -0.494677 -0.0719054 0.467343 -0.216515 0.0607939 0.34778 0.353514 -0.0761439 -0.201678 0.203354 0.0618466 0.228866 0.219323 -0.000221523 -0.300006 0.399937 -0.10055 -0.309083 -0.0512493 0.442519 -0.159262 -0.116438 0.287441 -0.514587 -0.0149295 -0.178027 -0.161441 -0.574684 -0.245394 0.168517 -0.398782 -0.200087 0.132351 0.40099 0.61333 0.192644 -0.0307979 0.104292 -0.419598 -0.473123 -0.382679 0.00040526 -0.2 0.399942 -0.00091303 -0.41407 -0.272721 -0.25807 0.418911 0.329755 -0.214972 0.529938 0.40162 -0.0893761 -0.0520783 0.0113227 -0.634604 -0.485646 -0.104354 -0.0141579 0.587252 0.684827 0.686852 0.529872 0.459981 0.344101 0.346336 0.0214185 -0.482387 0.308314 0.2 0.499777 0.398083 -0.10677 0.359824 -0.0352472 -0.0486059 0.384656 -0.154281 0.168043 0.119354 -0.371848 0.241185 -0.530613 -0.71221 -0.375865 0.549169 0.4946 -0.221857 -0.0462223 0.57614 0.373667 0.488737 0.0437701 0.105939 -0.0191791 0.207865 -0.395853 0.3 0.299799 0.499915 0.400922 0.00285539 -0.00847921 -0.00388182 -0.0985178 0.48403 0.432964 -0.322852 -0.604837 0.215599 0.246922 -0.356873 -0.592367 0.168921 0.720865 0.298368 -0.00424394 0.638194 -0.125593 -0.281832 -0.0372589 0.101767 0.304554 0.095837 -0.403387 0.1 -0.300679 0.0998103 0.303256 0.207264 0.10133 0.476904 0.368827 0.401864 -0.254755 -0.371212 0.304739 -0.542778 -0.566671 -0.0543436 0.174286 -0.0788298 -0.340079 0.632439 0.523901 -0.1367 0.68695 0.499314 0.0467622 -0.327815 -0.226361 -0.300365 0.298529 0.3 0.0995186 -0.400285 -0.404739 0.293478 -0.0236909 0.168293 -0.204202 0.0467156 -0.207651 -0.261333 0.335104 0.217758 -0.617245 -0.497277 0.359653 0.500921 0.342076 0.0749401 -0.0293801 -0.289085 0.419795 0.201707 -0.486315 -0.343995 -0.0581087 0.182234 -0.00154101 -0.4 -0.00013915 -0.200426 0.490399 0.00263494 0.193293 0.278399 0.0429544 -0.20098 0.023807 0.00783727 -0.293635 -0.132431 -0.19369 0.00310408 -0.487533 0.281892 0.241833 -0.199057 0.335129 -0.0181521 0.121571 -0.406644 -0.225696 0.336526 0.135267 0.278626 0.398474 0.1 -1.93965e-05 -0.300146 0.488755 0.1205 0.113279 -0.225329 -0.278249 0.419649 0.0783637 0.286223 0.409135 -0.242671 0.437187 0.277623 -0.146284 0.554436 0.36761 0.453194 -0.235122 0.223915 -0.554262 0.341174 0.0587933 -0.265269 0.0291718 -0.228148 0.198216 -0.2 -0.300127 -0.0999987 -0.00443839 0.311956 0.42994 0.496426 0.339932 -0.399171 0.18032 -0.157222 -0.0912358 0.0648234 0.387973 0.0940173 -0.0735422 0.353174 -0.0369827 -0.542226 0.39912 -0.00043388 -0.439165 -0.253492 -0.158079 0.0244212 -0.143096 -0.41917 0.296869 0 0.499872 0.500088 0.411293 0.0383542 0.342052 -0.190965 -0.427553 0.12808 -0.0222602 0.41148 0.0359008 0.192634 0.36247 0.3386 -0.0703072 0.228634 -0.067529 -0.319842 -0.0455446 0.306531 0.379151 -0.66224 -0.268806 -0.0412162 0.363167 -0.108602 0.093696 -7.77493e-05 0.0999996 0.302241 0.017588 -0.468932 0.248443 -0.0812286 -0.462181 0.318622 0.563208 0.0513923 -0.232598 0.0862546 -0.372127 0.228952 0.183394 0.166801 0.254212 0.176091 -0.418803 0.128001 -0.507562 0.265 0.0937828 0.458152 0.471229 -0.51435 0.093375 -0.5 -0.0993237 0.102432 -0.180972 0.148915 -0.221458 0.0267209 0.568863 -0.299677 0.474301 0.541611 0.41919 0.369018 -0.50578 0.38448 0.0173241 0.20197 0.211719 -0.267324 -0.515733 -0.106458 0.304483 0.36192 -0.0841049 -0.530411 0.0912391 -0.00914192 0.394851 -0.3 -0.299318 -0.49765 0.313947 -0.14568 0.469348 0.0309465 -0.0199533 0.130743 0.38053 -0.211371 -0.355049 0.287245 -0.304559 -0.185564 0.405252 -0.417967 0.0720515 0.334366 -0.487536 0.336812 -0.481687 0.00731651 -0.281236 -0.513112 0.00321955 0.395544 1.22859e-09 -0.1 0.3 -0.00133358 0.00884049 -0.0671454 0.253902 0.320205 -0.113787 -0.377159 0.364716 0.337534 0.186602 -0.123476 -0.116695 0.0668463 0.170346 0.436188 0.116068 -0.347537 -0.148652 -0.560744 0.462099 -0.22628 0.221378 -0.369012 0.108614 0.4026 0.5 -0.5 0.5 -0.00140621 -0.397805 -0.296999 0.240623 -0.261997 0.191652 -0.259105 0.4595 0.0845959 0.476224 0.0508431 0.0224331 0.146938 -0.135208 0.21542 -0.356558 0.39371 0.5206 0.366774 -0.524849 0.17448 0.328393 0.00284288 -0.199844 0.501726 0.2 0.1 0 0.399914 -0.00153112 0.00146688 0.117957 0.00360744 0.210006 -0.33867 0.278612 0.137086 0.275683 0.323526 -0.172302 0.13236 0.0433021 0.504986 -0.0550341 0.448522 0.150428 -0.044017 -0.0417071 0.224707 0.345701 0.400493 0.397168 0.202299 0 -0.4 0 -0.299939 0.301416 0.502314 -0.385071 -0.0973289 -0.0143646 -0.207055 0.479925 0.275657 -0.196214 -0.425842 0.454304 0.358215 0.395141 -0.259889 -0.192217 0.163614 -0.0104609 0.00180481 -0.189249 -0.368461 0.024071 0.301246 0.0958041 0.499849 -0.2 0 0.2 4.33435e-05 0.300217 -0.100153 -0.50179 -0.303442 0.0895845 -0.107042 -0.494408 -0.4053 -0.0801657 0.122319 0.4107 0.448144 0.148361 0.207701 -0.27935 -0.263496 0.218684 -0.378576 0.432057 0.0324259 -0.176655 -0.099181 -0.400034 -0.300034 -0.3 0 0.1 0.4 0.000561817 -0.498968 -0.198942 -0.195826 0.00265168 0.404283 0.30541 0.198317 -0.304032 -0.300743 -0.386791 0.321782 0.010081 -0.403293 -0.095446 0.300503 -0.483029 0.0117647 -0.388043 0.213303 0.413474 0.399772 -0.3 0.5 0.5 0.4 0.4 -0.2 0.4 0.2 -0.2 -6.42633e-06 -6.41369e-06 0.499993 0.499952 -0.20091 -0.00804303 -0.308906 -0.509885 0.298471 -0.000818644 -0.102294 -0.00231713 -0.0026884 0.497454 0.298077 -0.000159302 -0.100169 0.200001 -0.1 -0.4 -0.4 0.2 -0.31171 
0.3 -0.1 0 0.3 -0.3 0.5 0.2 -0.1 0 -0.1 0.4 0.1 0.101405 0.501405 0.0993853 0.199385 -0.5 -0.4 0.3 0.3 0.4 0.4 0.3 -0.1 0.2 0.4 0 0.1 -0.2 0.5 -0.4 0 0.2 -3.42638e-05 -0.100013 -0.500201 -0.300245 -0.300226 -0.501101 0.298096 -0.200101 -0.20051 0.303122 -0.00156033 -0.100535 -0.105293 -0.50126 -0.501884 -0.0013034 -0.301344 -0.399619 0.200343 0.4 0.5 0 0.2 -0.5 0.3 -0.29998 -0.399221 0.500769 -0.400001 0.50025 -0.0994174 -0.505527 0.0905804 -0.322376 -0.12107 -0.509504 0.190184 0.0225803 0.11486 0.49408 0.46378 0.163903 -0.320139 -0.514265 -0.303617 0.199649 0.498132 -0.501125 0.299895 0.2 0.1 -0.1 -0.5 -0.297972 0.30219 0.50075 0.301534 -0.201688 0.188706 -0.531084 -0.35232 -0.398395 0.181646 -0.00615411 0.104674 -0.0503223 -0.249823 -0.240629 -0.00751159 0.098454 0.344106 -0.349656 -0.0215041 -0.501762 -0.00345365 0.101278 -0.394797 -0.299665 -0.1 0.3 0.3 -0.297991 0.101273 0.393159 0.182901 0.184009 0.371187 -0.0580122 0.139057 -0.443199 -0.0894405 0.0473194 0.0721376 -0.0917805 -0.060466 0.340393 -0.455476 0.340573 0.191139 -0.375949 0.138693 -0.060285 -0.397308 -0.0277323 -0.207221 -0.102943 0.301579 -0.2 0 -0.398274 -0.503278 -0.230924 -0.182545 -0.194926 -0.0924726 0.280456 -0.0418517 -0.410982 -0.395163 -0.400026 -0.229281 0.430192 0.471824 0.523542 -0.0407911 -0.113225 -0.0169208 -0.315609 -0.355039 -0.301786 -0.349414 0.214943 0.464138 -0.0113599 0.20118 0.3 -0.00474319 0.389744 -0.0279171 -0.264588 0.276006 -0.469959 -0.147477 -0.588867 -0.0520392 -0.223464 0.355284 0.265653 -0.371919 0.271941 -0.120363 0.364115 -0.00485532 0.162044 -0.0494544 -0.0669416 0.367747 -0.0412756 0.397133 0.444304 -0.238641 0.29198 -0.292465 -4.69662e-09 0.391614 -0.514481 -0.573946 0.342843 0.0428954 0.125388 0.337631 0.0795765 0.230526 0.293422 -0.455236 -0.135318 -0.346422 0.499747 0.161402 0.0104624 0.439496 -0.0272393 0.0724928 -0.0284946 -0.07595 -0.546974 0.488016 -0.208483 -0.528421 -0.0115733 0.410374 0.502978 -0.00744105 0.289488 0.398881 -0.0784266 -0.352175 -0.590608 -0.493829 -0.452259 -0.557137 -0.320228 -0.00173931 0.453302 -0.230504 0.205931 -0.0735984 -0.0608579 -0.131706 -0.476563 0.0463096 -0.432041 0.263322 -0.0906645 0.32583 -0.269467 -0.387425 0.499201 0.399805 -0.2 -0.40537 0.277501 -0.195469 -0.150551 -0.0986634 0.219158 0.439837 -0.481694 -0.573598 -0.00320276 0.417541 0.447057 0.573553 0.625943 -0.043399 -0.375498 0.13022 -0.0721035 0.105762 -0.59232 -0.183596 0.0724955 0.106653 -0.23287 -0.304482 0.0813182 -0.501892 1.2668e-09 0.29423 -0.126283 -0.0786803 0.442461 -0.0443138 0.497685 0.0685366 -0.0790411 0.3142 -0.305884 0.289198 0.0810294 0.106461 0.0692805 0.260457 -0.030516 -0.1326 -0.194222 0.182961 -0.15384 0.213305 0.106147 0.0483274 -0.0378338 -0.427817 -0.0207477 0.0960554 0.1 0.50525 -0.0187191 0.232633 -0.041526 -0.359095 -0.000686262 0.0835164 0.145404 -0.0231586 -0.00834802 0.145144 -0.287638 0.198785 0.544826 0.0147712 -0.183582 -0.458252 0.493725 -0.237702 -0.360811 -0.193022 0.249956 0.177183 -0.390475 -0.397608 -0.404649 -0.400656 0.3 -0.00376802 0.278813 0.0401232 -0.324023 -0.167869 -0.118861 -0.34011 0.32493 -0.301005 -0.412173 -0.138057 0.370663 0.541363 0.289342 0.00165197 -0.235604 0.565329 0.0799819 -0.14849 0.0329397 0.420632 0.198823 -0.220747 0.0292475 -0.177399 0.206958 -0.200723 0.3 0.496949 -0.304061 -0.0532834 -0.410656 0.034807 0.54652 0.466244 -0.542945 -0.64347 -0.0878125 -0.461074 0.191553 0.234445 0.403539 0.127168 0.0224726 0.385121 0.217292 -0.346889 -0.0627635 -0.439709 0.357743 0.412507 0.307419 0.13426 -0.0879994 -0.0998421 0.5 -0.400257 -0.501813 -0.448701 0.248339 0.0256502 -0.460064 0.0502637 0.385786 0.420707 -0.209487 -0.00119591 -0.448815 -0.364018 -0.0227224 -0.408289 -0.521067 -0.2727 -0.23956 -0.0736389 0.0220661 -0.16703 0.175375 0.56114 0.0843564 0.0242396 -0.487878 0.40014 0.3 0.299758 -0.301505 -0.0450124 -0.189708 -0.243777 -0.0196909 0.331519 0.47509 -0.0315572 0.287846 0.655514 -0.314301 -0.415141 -0.0354028 -0.2861 -0.103154 0.0903354 -0.425589 -0.243813 -0.543337 0.292306 -0.072971 0.0321219 0.242741 -0.492564 -0.496868 0.297921 -0.5 0.0995155 0.291101 -0.0500406 -0.301578 -0.250144 0.449392 0.394563 0.17535 0.0100029 0.55972 -0.363951 -0.574688 -0.104712 0.269874 -0.565728 -0.0316262 -0.280838 -0.33903 -0.572395 0.0652347 -0.285654 0.0841961 0.0313345 -0.293301 0.418406 0.00281741 -0.200675 -0.1 0.0980754 -0.40322 -0.0463001 -0.405911 -0.372429 -0.277864 -0.247032 0.255101 0.580777 0.593645 0.366102 0.269482 -0.315486 -0.0497261 -0.285534 -0.324202 -0.526131 0.119571 0.0996713 0.265285 0.125377 -0.314321 -0.325791 0.11875 0.517693 0.00182215 -0.200602 0.199474 0.0985599 -0.107965 0.135463 -0.532398 -0.254347 -0.18137 -0.296419 0.141534 0.142989 0.475673 -0.00897583 0.273756 -0.486335 0.228752 -0.417872 -0.0412869 -0.645463 -0.0101055 0.279972 -0.121807 -0.228782 0.0713438 0.477457 -0.379011 0.508488 -0.00371168 0.000611937 0.2 -0.400945 -0.0178619 -0.0630226 -0.422852 0.492725 0.557203 -0.285393 0.0537508 0.317196 -0.0968084 -0.382914 0.204513 0.188303 -0.399081 -0.234319 -0.418839 -0.294782 0.33931 0.37203 -0.360215 0.575802 0.479682 0.0535846 -0.00638041 0.216841 0.100168 -0.499089 0.2 -0.100683 -0.212394 0.0309589 0.0997659 0.225546 0.139575 -0.0615146 0.536715 0.431545 -0.0102677 -0.497138 -0.0341822 -0.0840258 -0.670252 0.0185171 -0.684994 -0.42321 -0.120475 -0.239009 -0.452569 -0.373597 0.43278 -0.0257459 0.556811 -0.194095 0.301129 -0.4 -0.3 -0.200023 0.288734 0.451435 -0.207536 -0.0752458 0.544988 -0.395229 -0.0535873 0.489515 -0.398476 -0.0787156 0.290768 0.419462 -0.518407 0.146905 -0.218673 -0.234879 -0.215611 -0.490236 -0.157288 -0.0832399 0.13547 0.496303 -0.175626 -0.00555521 -0.299683 0.5 -0.2 -0.4 -0.406949 -0.0156723 -0.0471242 0.516445 0.0604847 0.411346 -0.402442 -0.279905 0.195308 -0.0127717 0.513535 0.309299 0.0355994 -0.194027 0.102135 -0.176699 -0.26822 0.238655 0.0159704 0.00861794 0.22259 -0.268751 0.0215093 0.199341 0.00144933 0.5 -0.1 0 -0.00243509 -0.219649 -0.382797 -0.0718277 0.144809 -0.496265 0.2599 -0.20641 0.0139859 0.0665112 -0.0274176 -0.293193 0.164356 0.351714 0.255054 -0.525249 0.144026 0.263712 0.0230239 0.122592 0.366768 0.459221 -0.189162 0.00163898 -0.000482888 0.5 -0.5 -0.4 -0.100911 -0.313188 -0.0742995 -0.173084 0.169787 -0.0457146 -0.480495 -0.532847 0.47578 0.249534 -0.20842 -0.18234 -0.124467 -0.109869 -0.127257 -0.150998 0.291972 0.471919 0.0922527 0.232837 0.0464821 -0.152255 -0.396118 0.500455 0.400435 0.3 -0.4 -0.5 0.100008 -0.301787 -0.435788 0.0462089 -0.0690578 0.333395 -0.450157 -0.0723851 -0.339709 -0.49351 0.232012 -0.0523367 -0.583799 -0.155543 -0.447513 -0.581842 0.0289818 -0.453693 -0.114072 0.000274099 0.0205504 0.422757 0.299649 -0.0999711 2.70381e-05 -0.5 -0.4 0.2 0.4 0.501817 -0.00746916 -0.39692 -0.00767902 0.386199 -0.505028 0.383574 -0.129488 -0.0233157 0.282128 -0.491673 -0.296092 0.363484 -0.458649 0.275206 0.0755383 -0.0139377 -0.412997 -0.00620819 0.192763 0.0926011 -0.500107 -0.1 0.3 0 -0.4 -0.2 -0.1 -0.1 0.5 0.399766 0.489096 0.489038 -0.410736 -0.301245 0.399207 0.200035 -0.0987198 -0.0979261 -0.199398 -0.195088 0.393151 -0.00841214 -0.30224 -0.296357 -0.302781 0.489978 -0.00948183 -0.205833 0 0.1 0.2 -0.5 0.295397 
0.5 0.3 -0.3 -0.3 -0.3 0 0 -0.4 -0.2 -0.2 -0.2 -0.1 -0.491028 -0.291028 -0.299399 -0.499399 0.2 -0.1 0 -0.4 -0.2 0.2 0.5 0.3 0.1 0.5 -0.5 0.1 0.1 0.5 -0.1 -0.5 3.58002e-12 0.000724074 0.210371 0.210019 0.00874784 0.207496 0.397933 -0.201187 0.307312 -0.492652 0.495367 0.296528 -0.00209805 0.305543 0.505607 -0.2982 -0.197382 0.402025 0.407248 0.00557739 0 0.5 0.5 0 -0.2 0.3 -0.19999 0.500012 -0.100086 -0.299124 0.411636 0.227101 0.449314 0.485977 -0.118337 0.256927 0.461001 -0.12386 -0.17433 -0.377538 0.107451 0.31748 -0.400512 0.38702 -0.0952939 -0.18258 -0.180665 0.303743 -0.00099583 -0.301502 0.1 0 0 0.1 0.299965 -0.399621 0.500318 -0.393352 -0.0042602 0.105095 -0.324157 -0.411677 0.59766 0.473177 0.0100858 0.518442 -0.164466 -0.569416 0.273057 0.36798 -0.326865 -0.385472 -0.209658 0.283728 0.0303861 0.212966 0.0120218 -0.177685 -0.497932 -0.1 -0.5 0.5 0.199955 0.1858 -0.0230211 -0.178049 -0.0546578 -0.250874 0.352663 -0.0146138 0.1909 -0.221799 -0.103394 -0.445142 -0.310421 0.0549314 -0.322018 0.236115 0.0756367 0.580799 0.146278 0.613508 -0.191246 0.311689 -0.140443 0.0706701 -0.118243 0.0999945 -0.5 -0.3 -0.296687 0.181035 0.319171 -0.436329 0.175882 0.1283 0.463741 -0.469527 0.0480142 -0.383469 -0.423403 0.0536015 -0.0525078 0.336214 -0.35156 -0.22226 0.455441 0.16635 -0.491877 0.242529 -0.117295 -0.245879 0.164379 -0.55977 -0.0101311 -0.299948 -0.1 0.399864 0.00957586 -0.429537 -0.117056 0.30227 -0.226035 0.292832 -0.0427283 -0.663044 0.0613833 -0.148018 -0.439776 -0.400969 -0.0777268 -0.687418 0.229923 -0.567248 -0.153195 0.189913 -0.430082 0.0219205 -0.23928 -0.0440896 -0.615166 0.398664 0.397107 -0.100009 0.2 -0.299938 -0.29816 0.0415515 0.0586258 -0.0954697 -0.135536 -0.183262 -0.588204 0.233601 -0.194591 -0.353739 0.207439 0.147192 -0.337133 0.378088 0.0541293 -0.313586 0.00669662 0.313948 -0.013496 -0.0968131 -0.601814 -0.298912 0.117061 0.0530043 -0.116998 -0.301169 0.299989 0.10011 -0.195634 -0.575506 -0.366373 0.150056 -0.7161 -0.539971 0.106713 -0.63334 -0.0354249 -0.122487 0.318116 0.0390066 0.294612 -0.304269 -0.426516 0.128938 -0.289857 -0.245555 -0.449565 0.378262 -0.556438 -0.308564 -0.110735 -0.561488 -0.116618 0.499114 0.1 -0.103889 -0.210103 -0.253578 -0.568201 -0.178597 -0.0981304 0.00411781 0.0509857 0.392544 0.29394 0.0171234 0.0915349 -0.193339 0.27456 0.109774 -0.0305967 -0.130828 -0.533551 0.315428 0.142552 0.335054 -0.608217 0.348091 -0.172328 -0.141757 0.343478 0.198567 -0.3 -0.103878 -0.511275 0.272632 -0.546356 -0.579005 0.24954 -0.318283 -0.083711 0.53219 -0.034233 -0.309391 0.0449924 -0.403318 0.343544 -0.318416 -0.236277 0.0436545 -0.472104 -0.142664 -0.134612 -0.182928 -0.618975 0.320203 -0.203551 -0.365828 -0.288687 0.387739 0.3 -0.000946938 -0.400025 -0.0315311 0.147885 0.407447 -0.300701 0.134421 0.174511 0.249329 -0.279084 -0.119829 0.0452375 0.0856798 0.139569 0.0904927 0.148128 0.397487 -0.189208 -0.330192 -0.279601 0.132163 -0.454921 -0.559353 -0.371147 0.345386 -0.552261 -0.410772 -0.1 0.299951 0.202193 -0.12077 -0.443445 -0.0597193 -0.144605 -0.39281 -0.563549 -0.0417535 -0.0197983 -0.119983 -0.117709 0.24598 -0.401939 0.00783033 -0.113603 0.0729203 -0.0757841 -0.0907241 -0.127832 -0.0966267 -0.460079 -0.344032 -0.233168 -0.0856263 -0.0139349 -0.099005 0.4 -0.40005 -0.19795 -0.408145 -0.153636 0.0748408 -0.147071 -0.753897 -0.337754 -0.173558 -0.00554042 -0.373508 -0.108224 0.0494642 0.157169 -0.142649 0.0112565 -0.534562 -0.695251 -0.215854 -0.424878 0.481565 0.057625 0.321832 0.0769846 0.383218 0.338891 0.500404 -4.85346e-12 -0.400266 0.0997344 -0.213346 0.143379 0.133679 0.206994 -0.251592 -0.0385057 -0.152195 -0.283145 0.436655 0.186899 -0.300173 0.455827 -0.0573824 0.357171 -0.119756 -0.0585376 -0.358392 -0.305534 -0.244799 -0.0236651 0.218791 0.226464 -0.219073 0.0309196 0.400348 -0.5 0.299734 0.00330255 -0.153575 0.191061 -0.617937 -0.160546 -0.700046 -0.395228 0.261487 0.0249388 0.120776 0.50484 0.506486 -0.183068 0.176161 0.259362 -0.802623 -0.34828 -0.0652693 0.167526 -0.436422 0.345772 0.606923 0.0798202 0.313801 0.316029 -0.00586882 0.5 0.0997188 0.394462 -0.0865483 0.318281 -0.517286 -0.106543 -0.195145 0.391312 -0.103533 0.616126 0.673071 0.351421 0.125624 -0.194479 -0.390081 0.0056831 -0.47 -0.47946 -0.0918876 0.135355 -0.375326 0.0601781 0.282418 -0.228077 0.160363 0.521841 -0.504614 -0.5 0.198684 -0.311146 0.397637 -0.0209679 -0.705074 -0.221809 0.302195 0.373144 0.289496 -0.107097 0.354885 0.399701 0.426579 -0.270665 -0.247675 -0.604469 0.163846 -0.612424 0.042756 -0.561566 0.125286 -0.120863 -0.0806872 0.322185 0.674354 -0.279277 0.0997376 3.92081e-05 0.398965 0.493917 0.013661 -0.386893 -0.109104 -0.612588 0.0225921 -0.409003 0.229958 0.862301 0.87257 0.223575 0.195961 -0.389002 -0.126257 0.0183321 -0.0273649 -0.0871981 0.213838 -0.083831 0.0221955 0.164122 0.331322 -0.344422 0.621847 0.214614 0.403056 0.4 -0.50545 0.481984 -0.467773 -0.244402 -0.290091 -0.0711595 0.069732 0.270175 0.382234 0.944457 0.205304 0.237129 -0.421349 0.127128 -0.429352 -0.479387 0.29417 -0.0496225 -0.0434173 -0.143175 -0.00935804 -0.390101 0.453748 0.337643 -0.0510259 -0.382963 -0.196886 0 0.0945499 0.39358 0.0452595 -0.297334 -0.624479 -0.384749 -0.295955 0.305242 -0.0308525 0.391268 0.730391 0.423691 -0.478254 -0.25903 -0.491449 -0.170898 0.0424754 0.0213012 0.365966 0.00161641 -0.556958 -0.0162585 0.379106 0.357049 -0.157525 0.110066 -4.79578e-12 0.2 -0.3 0.302779 -0.508293 -0.337462 0.0817018 -0.486632 -0.44999 0.114769 -0.0260001 -0.321088 0.558714 0.23131 -0.252792 0.193701 -0.413136 -0.0598547 -0.165863 -0.301272 0.444001 0.376701 0.386738 -0.349411 0.0471001 0.481066 -0.389727 -0.302466 -0.1 0.1 -0.2 -0.00415046 0.506948 -0.331099 -0.00121508 -0.309409 -0.381841 0.110274 0.0295626 0.500797 -0.236497 0.29289 -0.044615 -0.245675 0.416239 -0.374338 -0.472648 0.473737 -0.345491 0.0409023 -0.096834 0.225353 -0.15041 -0.180247 0.215325 0.493039 -0.4 0.2 -0.3 0.309191 -0.41175 -0.0401953 0.175112 0.0344753 -0.0563859 -0.503329 0.369988 0.451216 0.319042 0.347037 -0.310303 -0.243092 -0.181986 -0.102509 -0.718696 0.380398 -0.300398 0.326453 0.221639 0.0409371 -0.37217 0.500378 0.00981013 -0.203552 0 0.1 -0.5 -0.000130797 -0.430404 -0.0585738 -0.127547 0.228649 -0.517944 -0.474836 -0.28916 0.0413161 -0.470013 -0.196666 0.434234 -0.0907811 -0.437007 -0.160524 -0.312311 -0.145223 0.0987038 0.026246 0.1629 -0.118568 0.302313 -0.296279 0.0106797 -0.496837 0.1 -0.5 0.4 -0.300002 0.395216 -0.501915 0.0713596 -0.156923 -0.157576 0.0542601 -0.438053 -0.517816 -0.479459 -0.611937 -0.108017 0.317741 -0.269602 0.317644 -0.0613203 0.0675676 -0.409547 -0.619364 -0.0149462 0.397487 -0.50243 0.201419 -0.498872 -0.398872 -0.4 -0.4 -0.5 -0.2 -0.493379 0.507764 0.00552045 -0.50296 0.195061 0.0828893 0.0879075 -0.138647 0.0649746 -0.338252 0.173039 -0.243818 -0.433524 -0.0434666 -0.141138 -0.00912279 0.00655366 -0.19413 0.003977 -0.504321 0.299716 0.199994 0.1 -0.4 -0.2 -0.1 0 -0.2 0.1 0.4 -0.00163086 0.393317 -0.206683 0.194945 0.500001 -0.300291 -0.300305 -0.299498 0.300952 0.500349 -0.0999228 -0.199495 0.00317974 0.403351 0.00527777 0.00157463 -0.498263 -0.200493 -0.299997 0.5 -0.1 0.2 0.4 -0.786835 
