-0.5 0 0.2 0.2 0 0.1 0 0 0.1 0.1 0 -0.4 0.5 -0.2 -0.4 0 -0.4 0.5 -0.2 0 0.3 0.1 -0.5 -0.1 -0.3 -0.1 0.2 0 -0.1 0.4 0 -0.1 0.1 0.1 0.4 0.4 -0.4 -0.3 -0.5 0.2 0.1 0.4 -0.4 0.5 -0.2 -0.2 0.4 -0.5 0.2 0 0 0.3 0 0.4 -0.5 0.3 0.2 0.2 0.2 -0.1 0 0.5 -0.5 0.5 -0.1 -0.3 -0.5 -0.2 -0.3 0 0.400097 0.30392 -0.193247 -0.293881 0.404809 -0.502556 0.299366 -0.5 0.5 0 0.1 -0.2 -0.2 0.2 0 -0.2 0.1 -0.3 0 -0.3 0 -0.5 -0.4 0.1 -0.100281 -0.400281 0.299719 0.298337 -0.201288 0.29954 0.306225 0.404584 0.506332 0.498925 0.499366 0 -0.5 -0.4 0 -0.1 -0.3 -0.5 0.3 -0.3 -0.5 -0.3 0.1 0 0.3 -0.4 0.1 -0.500281 0.000238107 -0.00199445 0.294269 -0.500045 0.404303 -0.39117 0.00564518 0.0117908 -0.388084 -0.491581 -0.49403 -0.400057 0.000142401 0.300142 -0.5 0.4 0 -0.4 -0.4 0.1 -0.1 -0.400212 -0.200212 -0.200403 -0.39969 -0.39969 -0.199587 0.400863 0.304854 -0.0951252 0.300988 0.400694 -0.297472 -0.389571 -0.494803 0.01449 0.00136988 -0.102425 -0.209774 -0.201894 -0.0109638 0.188628 0.5 0.4 0.3 -0.4 0.1 -0.2 0.2 0.199482 -0.400755 0.299245 0.497114 0.497764 -0.51312 -0.394892 -0.198761 0.505056 -0.195929 -0.312335 -0.414928 -0.107647 0.200949 -0.00109154 0.202826 0.298899 0.290656 -0.0162674 0.188147 0.374743 -0.313885 0.201371 -0.4 -0.4 0.4 -0.1 -0.1 0.503155 -0.397081 -0.401224 -0.00394263 -0.00722188 -0.00675539 0.100112 0.401493 -0.00109821 0.496255 0.292172 -0.41394 0.0943168 0.511697 0.10361 0.304526 0.202527 -0.406119 0.283471 0.476981 -0.528268 -0.127679 0.187577 0.2 0.2 -0.2 -0.1 0.5 0.300909 -0.299327 0.498791 0.104208 -0.307212 -0.294119 0.10292 -0.507721 0.20033 0.201588 0.204542 0.391192 0.197758 -0.382397 -0.0711355 -0.274622 0.0104937 0.113989 0.212711 0.281064 -0.325505 -0.112423 0.387577 0 0.5 0.3 -0.299584 -0.2 -0.20296 0.396804 0.498775 0.00355691 0.413051 -0.385524 0.10458 -0.386925 0.218597 0.0160138 0.00868342 0.495388 -0.487431 0.220146 0.319904 0.306818 0.204374 -0.172728 0.422471 0.00416369 0.17776 0.0862055 -0.10452 0 0.4 0.2 0.300416 -0.5 0.496995 -0.00300512 -0.194239 -0.0935689 0.0327929 -0.271282 0.327955 -0.47298 -0.278638 0.119082 0.292943 -0.394422 -0.0999389 -0.19235 0.00898193 -0.183477 0.314478 0.518393 0.131744 0.320703 -0.504475 0.19548 0.1 -0.4 0.3 0 0.2 -0.5 -0.400046 -0.000762367 0.508507 0.00713408 0.335504 0.0465148 0.14911 -0.157062 0.124703 0.0994737 0.0699656 -0.233537 -0.0250368 -0.405042 0.403042 -0.0793786 0.126787 -0.169751 0.237905 0.0246386 -0.393226 -0.493222 0.2 0 0.1 -0.2 0.2 -0.4 0.399954 -4.87654e-05 0.208492 0.0370176 -0.0627668 0.144258 -0.265472 -0.371858 -0.00296366 -0.0266052 -0.156882 0.245045 -0.448249 -0.342883 0.0148747 0.111842 0.0221602 -0.159639 0.338193 0.3237 -0.283876 0.00677813 0.4 0 0.5 0.3 0.3 0.1 -4.55428e-05 -0.500049 0.508492 0.138233 0.0401871 0.0444387 -0.35147 -0.361767 -0.0110291 -0.543998 -0.0700658 0.331971 -0.24908 0.267422 -0.412928 0.0180296 0.223971 0.352774 -0.364939 0.226723 0.516121 0.406778 -0.2 0.2 0.3 0.2 0 0 -4.55428e-05 0.199951 -0.0905818 0.137342 -0.363284 0.0380038 -0.379533 0.295598 0.266007 -0.348982 -0.0654511 0.251092 -0.0422983 -0.525155 0.295634 -0.371037 0.537451 0.537956 0.536003 0.528646 -0.0821478 -0.39149 -0.200066 0.1 -0.1 0 -0.1 -0.3 -4.55428e-05 0.299951 -0.280105 -0.471369 0.0313566 0.529898 -0.282598 -0.412495 0.370193 -0.144142 0.443607 -0.139287 0.368346 -0.0103244 0.00786664 -0.165486 0.32812 -0.370941 0.427584 -0.477832 0.0178522 -0.49149 -0.200066 0.5 0.5 0.1 0.5 0 0 0.199951 0.120363 0.129135 0.144423 -0.0787066 0.412152 0.186232 0.0848877 0.460679 -0.259318 -0.0299881 -0.139892 -0.104983 0.5175 -0.384314 -0.377896 0.424138 -0.47878 -0.177425 0.0160511 -0.393287 0.1 -0.3 -0.5 0.4 -0.3 0.4 0.1 -0.199499 -0.179591 0.424444 0.128057 0.418665 0.507884 0.390957 -0.511954 -0.444533 0.15471 -0.148802 -0.530266 0.205771 0.00407727 0.416459 0.119334 -0.491705 -0.478589 0.0218916 0.418048 0.208706 0 -0.1 0 -0.3 0.2 -0.3 -0.3 0.00684064 -0.295553 0.120522 0.323357 0.124935 -0.184939 -0.102829 0.0825964 0.0674331 -0.153423 0.343844 -0.544399 0.479633 -0.48243 0.115887 0.11888 -0.0929695 0.319971 -0.184574 -0.482216 -0.190644 -0.3 -0.5 0.3 -0.2 0.3 0.3 0 0.200501 -0.3949 -0.496131 0.010871 -0.277468 0.19798 -0.510132 -0.11991 -0.156232 0.129826 0.357477 0.474298 0.199348 -0.489587 0.208339 -0.189207 0.510729 0.0140788 0.0158652 0.317784 0.208706 -0.3 -0.5 0 0 -0.4 -0.1 0.3 -0.300935 0.0993416 0.00724983 0.110772 -0.0893277 -0.10243 -0.00351171 -0.515379 0.174918 -0.216331 -0.518954 0.296057 0.297372 0.105127 0.398674 0.415474 -0.496758 -0.381944 -0.0877888 0.0157616 0.499906 -0.2 -0.4 -0.5 0 -0.4 0 0 -0.200935 -0.404322 0.300194 0.306156 0.0987937 -0.296464 -0.190902 -0.292258 -0.276755 -0.377647 -0.296018 0.210025 -0.0978166 -0.291658 -0.0868126 -0.288288 -0.181599 -0.48678 0.112302 0.407334 0.499906 0.1 -0.3 -0.1 0.2 -0.2 -0.5 0.5 -0.300935 0.00661068 0.395787 -0.0989159 0.00730951 0.221015 -0.38569 0.0222252 -0.480979 -0.0865298 0.410624 0.517987 -0.268806 0.0252102 -0.286458 -0.194346 0.0128029 0.112302 0.213901 -0.000191018 0.5 -0.2 0.2 0.3 -0.1 0.5 0.2 0.1 0.287369 -0.116451 -0.505328 -0.408288 -0.101908 -0.478879 -0.381302 -0.385349 0.40928 0.010419 0.429835 -0.275276 0.015579 -0.0877494 0.507272 0.0101592 -0.192877 -0.401211 -0.00121082 0.399809 0.3 -0.3 0.4 -0.4 -0.3 0.3 -0.3 -0.3 -0.211194 0.188806 -0.510112 0.393465 -0.208403 -0.0112489 0.192432 0.183244 0.303546 0.414223 -0.284409 0.00767098 -0.190585 0.41286 -0.296176 -0.497146 -0.400497 -0.000497214 -0.100497 -0.000191018 -0.5 0.2 0.2 0.4 0 0.4 0.2 -0.1 0.5 -0.5 0.502907 0.306323 -0.0911104 -0.190989 -0.397292 0.194199 5.23727e-05 0.402748 0.102423 0.299927 -0.405611 -0.305684 0.194301 -0.000306197 -0.000306197 -0.1 0 0 -0.4 0.2 0 -0.4 0.5 0.4 0.2 0 0.4 -0.197636 -0.389174 0.207939 0.213085 0.111919 0.403424 -0.100343 0.507172 0.307172 -0.492792 -0.299767 0.399712 -0.300362 -0.000361737 -0.3 0.2 -0.3 0.2 0.2 0.2 -0.4 0.2 -0.1 -0.5 0 0.5 -0.1 -0.2 0.402477 0.510397 -0.289603 -0.19208 0 0.4 0 0.4 0.3 0.4 0 0 0.4 0 -0.3 0.5 -0.5 0 0.1 0 -0.3 0 -0.1 0.387972 
0.2 0.4 0.3 0.5 -0.4 -0.2 -0.1 -0.4 0.1 0 -0.2 0 -0.2 0.5 -0.4 -0.4 -0.3 0.5 0.3 0.2 -0.3 0 -0.2 0.3 0 0.4 0.5 0 -0.3 0 0 0.5 -0.3 0.3 0.5 -0.5 0.2 -0.5 0.5 -0.5 -0.1 0.3 0.5 -0.3 0.4 -0.4 0 -0.3 0 -0.1 -0.2 0.3 0.1 -0.4 0.2 0.1 -0.4 0.1 0 0.5 0.5 0.5 -0.3 0.4 -0.5 -0.4 0.1 0.4 0.3 -0.4 -0.500089 -0.0025249 -0.202997 -0.403743 0.0860479 -0.211242 0.299254 -0.4 -0.2 0 0 -0.1 -0.3 0.2 0.5 0.1 0.4 -0.3 0.4 -0.4 -0.2 0.3 0 -0.5 -4.58848e-05 -0.100046 -4.58848e-05 -0.302354 -0.502515 -0.104101 0.188129 -0.0223209 0.478014 -0.218883 -0.000746113 0 0.4 0.4 0.5 -0.4 -0.5 0.1 -0.1 -0.1 0 0.2 0.1 0.4 0.5 0.2 -0.4 0.499954 -0.199984 0.504027 0.29712 0.289155 -0.0115416 -0.22416 -0.433005 -0.527181 0.0771515 -0.517346 0.486022 -0.0999465 0.209335 -0.0906646 0.3 0.3 0 -0.4 0.3 -0.4 0 0.208517 0.508517 -0.0960551 -0.404597 0.095403 -0.1046 0.290938 -0.310386 0.177585 -0.0149906 -0.516521 -0.428457 -0.156836 -0.450141 -0.0404143 -0.422763 0.084933 -0.51226 0.0122878 -0.373559 0.223104 0.2 -0.5 0.5 -0.1 0.3 0.1 -0.3 0.499414 -0.500264 -0.400264 -0.0234168 0.274413 -0.419318 -0.133072 -0.336502 -0.524095 0.466233 0.350915 0.345029 -0.465273 -0.158659 -0.0290621 0.488689 -0.106335 -0.0786483 0.419866 -0.178161 0.0285163 0.305412 -0.498308 0.1 0.2 0.1 0 -0.3 -0.398784 0.201537 0.403708 -0.00327252 0.282241 -0.217735 -0.0191773 0.092719 -0.0178594 0.359979 0.3528 -0.0444677 -0.148942 -0.141753 -0.191484 -0.385314 0.512493 -0.277678 0.528244 0.028334 0.0191539 0.107867 0.404147 0.4 0.2 0.4 -0.3 -0.2 0.196673 -0.403005 -0.394489 0.302983 0.499951 0.387011 0.486751 0.38508 -0.40674 0.472161 -0.0219637 0.168436 -0.229556 -0.217391 0.213896 0.430819 0.32785 0.13964 0.119842 -0.190518 0.317798 0.104147 -0.195853 -0.4 0.1 0.4 0.00285111 0.1 0.103999 0.00432078 -0.485245 0.012073 0.508234 -0.188536 0.415391 0.323237 0.194135 0.0963065 0.49472 -0.405327 -0.135768 0.121627 -0.28638 0.0346 0.536716 0.244311 0.319661 0.189864 -0.0948535 -0.297546 0.0952688 0.4 0.2 -0.2 0.202851 -0.3 0.508893 0.108893 0.413621 -0.0804859 -0.381603 -0.284463 -0.0582713 -0.375526 0.202547 0.411992 0.186228 0.178031 -0.313517 0.122889 0.31539 0.0331058 -0.348361 -0.452977 0.116081 0.0930468 -0.506263 0.395269 0.5 -0.3 0.3 -0.2 0 0.2 0.00489417 -0.085734 0.308211 -0.489643 -0.0745431 0.542326 0.145213 0.518958 0.20146 -0.103979 0.205119 0.184937 -0.302372 0.490985 0.0233555 -0.460702 0.137825 0.0344605 0.0136225 -0.19847 -0.201868 -0.104797 0 0.3 0.1 0.2 0.2 0.1 0.00489417 0.505724 0.406408 0.518747 -0.27902 -0.266197 -0.262935 -0.38853 -0.479472 -0.20767 -0.292165 -0.315907 0.384793 0.385284 0.193343 0.0372991 -0.363643 0.106248 0.396082 0.305675 -0.206345 -0.204797 -0.4 0 -0.1 0.2 0.5 0.5 0.00489417 0.00572409 0.506408 0.318072 0.430255 -0.163886 -0.0753758 0.00753814 -0.290421 -0.409176 -0.529034 0.460907 -0.425909 -0.0954876 0.107773 0.504413 0.0130508 -0.00159204 -0.21217 -0.105544 0.194484 0.0952026 0 0.3 -0.3 0.2 0.4 -0.1 -0.0951058 -0.494276 0.50497 0.00755759 0.0395297 0.343761 0.537047 0.0133651 0.395743 0.200839 0.194803 -0.512334 -0.0952386 0.494769 0.50483 -0.0938622 -0.00493749 0.0920309 -0.219592 -0.098105 0.297351 0.198069 -0.00390819 0 -0.1 0.1 -0.2 -0.4 -0.495106 -0.494276 0.00315345 0.324166 0.239684 0.223316 -0.0854269 -0.290652 0.4906 0.409761 -0.499053 0.014978 0.117901 0.121727 -0.477297 -0.297282 -0.0199951 0.38184 -0.530514 -0.302909 -0.102649 -0.401931 0.396092 0 0 -0.5 -0.2 -0.3 -0.5 0.305724 0.496287 0.432464 -0.368101 0.0392034 -0.180567 0.303422 0.49519 0.00576012 0.123345 -0.290707 -0.16229 0.441443 0.229824 -0.512839 -0.12922 -0.018194 -0.0322877 0.185257 -0.506495 -0.00870561 0.4 -0.2 0.3 0.4 0.5 0 -0.2 0.30012 0.191393 -0.475382 -0.277639 0.0221427 0.203627 0.483439 -0.204306 -0.476459 -0.285257 -0.483293 0.0471562 -0.163839 0.0202348 0.473095 0.258602 0.368357 -0.324658 -0.0253043 -0.309409 0.0892099 0 0.5 -0.5 0 0.2 -0.4 0 -0.299347 0.494049 0.116366 0.117513 -0.49055 0.0901112 0.08159 -0.0151495 0.0110938 -0.186302 -0.151087 0.0446329 0.429262 0.509836 -0.0225091 -0.224639 -0.326205 -0.414852 0.177815 -0.214694 -0.312961 -0.5 -0.4 0.5 -0.3 0 0 0.3 0.40012 0.0910481 0.483375 -0.204828 0.489381 0.485027 -0.521674 -0.00196592 0.00359714 0.304787 -0.182053 -0.211911 -0.298854 -0.00634206 -0.513694 -0.125827 -0.305514 -0.213571 -0.0275153 -0.0146945 -0.21079 -0.4 -0.2 -0.5 -0.1 -0.4 -0.4 0.4 -0.400533 0.182937 -0.531547 -0.509744 0.199893 -0.232676 -0.134403 -0.00641674 -0.0169135 -0.223782 -0.0174452 -0.505578 -0.407922 -0.0112215 0.49161 0.0846507 0.199902 -0.513066 -0.513665 0.0906545 -0.100644 -0.2 0.3 -0.5 -0.4 -0.2 0.3 -0.3 -0.300533 -0.0100639 0.471879 -0.422744 -0.530336 -0.0494733 0.352763 -0.345183 0.143661 -0.0479531 -0.130913 0.0789385 -0.513072 -0.306746 -0.00974783 0.0120368 -0.518345 0.181849 0.481808 0.0923883 -0.000643698 0 -0.4 0.1 0.4 -0.3 -0.5 0.4 -0.300533 -0.314032 0.0917861 -0.120162 0.464587 -0.433431 -0.0222252 -0.119218 0.165921 0.0668469 -0.0171617 0.388799 -0.0188213 -0.507572 -0.181923 0.0115501 -0.418216 0.281808 -0.112309 -0.104573 -0.4 -0.4 0.2 -0.3 0.5 0 -0.3 0.5 -0.0997661 -0.00710333 -0.303903 -0.498015 -0.10854 0.394264 0.299786 -0.109757 -0.0178764 -0.420795 0.273067 -0.205488 0.19988 0.424702 -0.393307 -0.398143 0.392489 0.494866 -0.105134 0.295427 0.3 -0.1 0.3 0 -0.4 -0.4 -0.2 0.5 0.100887 -0.499113 -0.306571 -0.298963 -0.390886 0.0073864 -0.29226 -0.408663 0.0782465 -0.307451 0.291955 -0.48545 -0.391006 -0.175208 -0.197686 0.0909886 -0.113676 -0.0136757 -0.0136757 0.0954274 0.3 0 0.1 0.3 0.5 0.4 0.5 0 0.3 0.5 -0.200103 0.00277968 0.318724 -0.380306 0.119698 0.000640323 0.396797 0.396163 -0.202835 -0.00389393 -0.302376 0.195241 -0.406562 0.290897 0.190897 0.3 0 0.5 0.1 0 0.3 0.2 -0.3 0.1 -0.4 -0.3 -0.3 -0.202117 0.303146 0.00788205 -0.284449 0.0182609 0.510104 -0.39896 0.305323 0.00532278 0.405288 0.205209 -0.49658 -0.298963 -0.198963 0.2 -0.1 -0.1 0 -0.5 0.3 0.2 0.1 0.3 0 -0.5 0.2 -0.2 0 -0.0030609 0.100188 0.100188 0.503249 -0.2 0.2 0 -0.1 0.2 -0.4 -0.5 0.4 0.4 0.1 0.1 -0.1 -0.3 0.2 -0.2 -0.2 0.5 0 -0.2 -0.29656 
0 -0.1 0.1 0 0 0.4 -0.5 0.5 0 0 0 0.5 0.2 -0.1 0.3 0 0 -0.1 0.3 0 0 0.4 0 0 -0.4 0.2 -0.4 -0.3 -0.3 0.1 0.3 0.5 0.1 0 0.5 0.1 0 0.2 -0.3 0 0.5 0.3 0.5 0.1 0 0 0.2 0 0.3 0 0.2 0.1 0.2 -0.5 -0.4 -0.3 0.5 0.4 -0.2 -0.5 -0.3 0.3 0 -0.2 -0.5 0.5 -0.2 0.5 0.5 0 0.200261 -0.39885 -0.000322537 0.30012 0.30004 0.100724 0.200442 0.2 0.3 0.5 0.1 0.5 0 0 0.2 0.2 0.5 0 -0.4 -0.4 -0.4 -0.3 0 0.1 -0.400003 0.399997 -0.100003 -0.499125 0.00376465 -0.297587 0.104949 -0.0947669 0.102576 0.00324868 -0.499558 0.4 -0.3 0.5 -0.2 0.5 0.3 -0.2 0.4 -0.3 -0.2 -0.3 -0.2 0.3 0.4 -0.3 -0.3 -3.01734e-06 -0.199191 -0.191789 0.194328 -0.00624931 -0.203446 0.102275 -0.498222 0.204452 -0.101203 -0.011021 -0.0138268 -0.0080753 0.499553 -0.300447 -0.3 0 0 0.5 0.2 0.5 0 0.298458 0.0984585 -0.302172 0.0994263 0.399426 0.002155 0.0959873 -0.00519328 0.197291 -0.10767 0.482105 -0.529321 -0.027447 -0.233702 -0.331856 -0.0276447 -0.136497 -0.217992 0.487111 -0.00140183 -0.00563219 0 0 0.3 0.4 0.3 -0.2 0.5 0.0988024 0.107501 0.307501 -0.102185 -0.00431651 0.396746 0.288173 -0.197772 0.493255 0.08388 -0.330796 -0.0266675 -0.142282 -0.238742 -0.350401 -0.551834 0.453547 -0.438879 -0.0365638 -0.012059 -0.0234337 -0.517801 -0.0022814 -0.3 -0.1 -0.3 0.2 -0.3 -0.394081 -0.0853831 -0.292151 0.498647 0.491356 -0.107711 0.499902 -0.508741 -0.225121 0.078333 0.282905 0.388386 0.49509 -0.121792 -0.0275131 0.267056 -0.0417045 0.4595 -0.237113 0.0856703 0.479398 0.377964 -0.00651578 -0.2 0.5 -0.3 0.4 -0.4 -0.192248 -0.28355 0.00889922 0.19154 -0.0125026 -0.520928 0.290787 -0.0137279 0.294573 0.508018 -0.495533 0.305679 0.315772 0.20231 -0.297639 -0.0996155 -0.206459 0.49201 -0.015125 -0.425938 0.372287 -0.206516 -0.406516 0 -0.5 0 -0.484425 -0.5 0.000235388 0.208934 -0.094289 -0.107331 -0.313127 0.193208 -0.388259 0.311442 0.0308031 0.239071 0.118969 0.126338 0.522819 -0.110741 -0.204817 -0.0174395 0.096681 0.402765 0.194982 -0.331203 -0.119918 -0.504234 -0.200126 0 0.2 0.4 0.0155749 0 -0.190436 -0.390436 -0.00015566 0.491181 -0.498011 -0.0829515 -0.371384 -0.370503 -0.178328 -0.275962 0.422061 -0.385048 0.303609 0.00329057 -0.486486 0.00111281 -0.0907875 -0.376671 0.086584 -0.126872 -0.0231278 -0.300126 0 0.1 0.3 0.5 -0.5 -0.4 0.209329 0.107871 -0.394714 0.0950274 -0.472369 -0.278038 0.423483 -0.277285 0.0296441 0.00839045 0.00741833 -0.00878282 0.185711 -0.112137 -0.48153 0.0245324 -0.283658 0.0158682 -0.0992709 -0.333216 0.182563 0.491731 0.3 0 -0.4 0.5 -0.4 0.5 0.109329 0.509469 0.404235 -0.288951 -0.0901691 0.504339 0.302111 0.521179 0.423136 0.197074 0.189643 -0.105816 0.477227 -0.292866 -0.279819 0.32527 0.121544 -0.0785454 -0.202199 0.183505 -0.0124466 -0.00826869 0.5 0 0.1 0.4 -0.1 -0.3 -0.190671 -0.390531 -0.0957648 0.00830682 0.308339 -0.300136 -0.277738 0.536672 0.302909 -0.0140524 -0.440102 0.46082 0.0282448 0.0447884 0.445366 -0.250875 -0.165191 -0.39295 0.067135 0.172251 0.287694 0.191731 -0.2 -0.3 -0.2 0 0.1 -0.1 -0.390671 -0.490531 -0.197165 -0.0132312 -0.407995 0.492641 -0.10036 -0.206205 0.291296 0.0695577 -0.53084 0.100598 -0.465712 -0.264173 0.356131 0.248727 -0.476272 -0.0150801 -0.428918 0.170906 0.285719 -0.510243 0.297879 -0.2 0.5 0.2 0 -0.3 0.00932863 0.00946899 -0.212941 0.0809136 -0.0150764 -0.508607 0.39136 -0.406447 -0.526598 -0.134766 0.0881312 -0.371577 0.529343 0.351561 0.136764 0.245417 0.312631 0.275586 -0.325363 0.0746274 -0.214281 0.289757 0.297879 -0.5 0.2 0 -0.5 -0.2 -0.1 -0.290531 -0.113243 -0.320297 0.071823 -0.0345264 0.489283 -0.516044 -0.52995 0.468665 0.0767549 0.516265 0.421067 -0.255314 0.0251722 0.0278629 0.0264964 -0.512948 -0.0102692 0.38404 0.176405 0.389611 -0.1 0 0.2 -0.5 0.3 0.4 -0.1 -0.500513 0.277428 -0.435963 -0.149502 -0.340942 -0.533634 0.256765 -0.228199 0.064455 2.85196e-05 -0.184157 0.318047 -0.177283 0.31243 0.206738 -0.384145 -0.506376 -0.408576 -0.213366 -0.222031 0.491315 -0.4 0 0 -0.4 0.1 -0.5 0 -0.205483 0.380755 0.061794 0.0531599 0.448649 0.465373 -0.123405 -0.319887 -0.00832378 -0.09261 0.0235303 -0.197906 0.397608 -0.296581 -0.303039 0.0100005 -0.407381 -0.0103645 -0.00881176 -0.112565 -0.110816 0.3 -0.1 0.5 -0.4 0.5 0.2 0 -0.000512623 0.478483 -0.435011 -0.536708 0.356535 -0.331752 0.181327 -0.00513216 0.198149 -0.0972055 -0.473522 -0.00419853 -0.302526 -0.103458 -0.48953 0.315517 -0.2123 0.291374 0.28789 0.387435 -0.508685 -0.2 -0.3 0.5 -0.3 0.4 0.5 0.4 0.299796 -0.118982 0.283892 0.163497 -0.236055 -0.333282 -0.313446 -0.312631 -0.000704505 -0.288013 -0.0918067 -0.384851 0.0789744 0.402575 0.415716 0.217812 -0.00830088 -0.220887 -0.513724 0.285559 -0.302292 0.3 0 0.4 0.5 0 0.3 0 0.499796 0.295777 -0.516641 -0.329279 -0.129196 -0.0277232 -0.0124554 -0.00806224 -0.00831242 0.00576809 0.098297 -0.401326 0.484326 0.210749 0.107295 0.191721 0.181755 -0.516211 -0.314351 -0.412692 0.497708 -0.2 0 0.5 0.1 0.4 0.3 -0.4 0.299796 0.00309039 0.394348 0.178868 -0.420617 -0.00158256 -0.110078 -0.319169 0.18399 -0.303917 -0.0129202 -0.108979 -0.126687 0.00181161 0.384674 0.396694 0.285705 -0.0143513 -0.014194 -0.40063 0.5 -0.3 0.4 0.4 0.4 -0.4 0 -0.1 -0.0994065 -0.297693 -0.403865 -0.107795 -0.109099 0.392451 0.494736 -0.424511 0.180095 0.377111 -0.0170235 0.198567 0.0850465 0.385361 0.391542 0.493521 -0.505925 -0.401884 -0.00188435 0.19937 0.2 0 -0.4 0.3 0.2 -0.2 -0.5 0.5 0.200285 0.400285 0.197337 0.311972 -0.481221 0.305587 -0.403208 -0.314464 0.389404 -0.514649 -0.00875043 0.383884 0.49084 0.298232 0.401278 -0.192764 -0.300286 -0.300286 -0.300286 -0.20063 0.1 -0.3 -0.1 -0.1 -0.2 0 0.4 0.5 -0.5 0.5 -0.0912728 -0.387519 0.0149725 0.515559 -0.292886 0.508624 0.512748 -0.285583 0.0154318 0.408436 0.402762 0.502101 0.401051 0.300344 -0.399656 0.1 0.1 0 0.1 0.5 0 -0.2 0 -0.2 0.5 0.4 0 -0.495424 0.1179 0.417824 0.217732 -0.38319 0.412404 0.203063 0.218418 0.0184182 0.0186695 -0.191908 0.00142474 0.200764 0.000763911 -0.1 0.4 -0.2 0.5 0.4 0.3 0.2 0.2 0 -0.5 0.3 0.5 -0.2 0.1 -0.395367 -0.386195 -0.486195 0.209173 0.4 0.4 0 0 0.2 0 0 -0.4 -0.3 0.1 0.2 0.1 0.2 -0.1 -0.1 0.1 0.4 0.4 0 0.00168288 
0 0.2 0.3 0.5 0 0.3 0.1 0 -0.3 0.4 0.4 0.4 0.4 -0.4 0.4 0.4 0 0 -0.2 0 0 -0.5 -0.1 0.2 0.4 0.3 0.4 0 0 0.4 0.4 0 0.4 0.3 0 0.4 0.3 -0.3 -0.3 -0.1 -0.3 0.5 0.4 0 0.1 -0.1 -0.3 -0.1 0 -0.3 0.1 0 0.4 -0.1 0.4 -0.1 -0.5 -0.5 -0.2 0.4 0.3 -0.1 0.2 0 0.4 -0.4 0 0.5 -0.3 -0.5 -9.8321e-05 0.500954 -0.296826 0.50301 0.20319 -0.200088 -0.400164 -0.4 0 0.5 0.4 -0.5 0.4 -0.1 -0.2 0.5 0.3 0.5 0 0.4 -0.5 0 -0.2 0.2 0.101907 -0.298093 0.00190684 0.503073 0.303429 -0.394057 -0.49269 -0.29452 0.304888 -0.0986067 -0.300164 -0.4 0 -0.4 0.3 0 0.5 -0.5 0.2 -0.2 -0.4 0.1 -0.5 0.4 0.3 -0.2 -0.2 0.201907 0.496985 -0.00399424 -0.503917 -0.298289 0.402328 -0.00113642 0.397514 -0.214774 0.0870882 -0.316191 -0.305875 -0.300042 -0.202635 -0.402635 0 0.5 -0.4 0.4 -0.1 0.4 -0.1 0.390796 -0.109204 0.492755 -0.502406 0.397594 -0.00288742 -0.503725 0.496049 -0.50884 -0.11533 -0.0200125 0.471169 -0.526439 0.0746231 -0.132024 0.178649 -0.521125 -0.123 0.175712 0.174584 0.492385 0 0.3 -0.4 0 -0.1 0.1 0.5 -0.415072 0.380891 0.380891 0.285943 -0.213348 -0.323448 0.072689 0.0732371 -0.0315459 -0.326413 -0.243706 -0.0426731 0.150438 -0.0416086 0.153758 0.257166 0.16628 -0.243203 -0.0369759 -0.0376892 0.286353 0.193968 6.94336e-05 -0.3 0 0 0.5 0 -0.515141 -0.119178 -0.515412 0.383108 -0.412007 0.383154 0.380241 -0.0347213 -0.546777 0.359877 -0.242489 -0.335558 0.468691 -0.133032 0.465027 -0.531193 -0.0365319 -0.230932 -0.339776 0.264607 -0.503401 -0.103851 -0.397749 -0.3 -0.2 -0.2 0.4 0.2 -0.316409 -0.120446 -0.111377 0.392967 -0.515419 0.279257 -0.528165 0.177674 0.258917 0.465678 0.259838 0.257769 -0.536518 0.46434 -0.237764 -0.0215832 -0.12608 -0.433206 0.37101 0.183138 -0.107884 -0.397749 0.102251 -0.2 0.3 -0.4 -0.00156241 0.4 -0.00610706 -0.310145 0.0970132 -0.296659 -0.304898 0.284166 -0.211704 -0.0277391 -0.0252965 -0.534986 -0.433962 -0.441026 -0.517369 0.471514 -0.434819 -0.0207728 0.0746074 -0.435053 0.0631281 0.284262 0.196073 -0.497819 0.200014 -0.4 -0.4 -0.2 0.298438 0.5 0.287896 -0.512104 -0.20537 -0.402002 -0.320542 0.386676 0.368289 -0.231834 0.375704 -0.335518 -0.0331034 -0.0207089 -0.215643 0.267707 -0.323755 -0.510791 0.372026 0.264599 0.170447 -0.225732 -0.205329 0.300014 0.3 -0.5 0.4 0.5 0.1 -0.5 -0.105997 -0.1101 0.192991 0.3935 0.285044 0.370917 -0.133733 -0.0376201 -0.435953 -0.0434431 -0.0409987 -0.22817 0.470459 -0.229787 0.387732 0.494531 -0.121406 -0.0333824 -0.531533 0.0741211 0.395172 -0.500948 0.4 -0.5 0.4 -0.2 0.2 0.2 -0.305997 0.294739 -0.411045 -0.51262 -0.125778 -0.0287637 0.462932 -0.0436045 0.0541708 -0.442942 -0.041653 -0.525483 0.0762464 0.378569 -0.414973 0.0913361 0.485259 0.472184 -0.323713 0.0774228 -0.511592 -0.100948 -0.3 0.5 0.3 -0.1 0.4 0.4 -0.405997 -0.505261 -0.511045 0.0787781 -0.0278426 0.370869 0.262898 -0.133577 0.169866 0.268176 -0.226361 0.0707553 0.275078 0.18294 0.491859 0.285658 -0.518267 0.167813 -0.0221118 -0.52874 -0.0108567 -0.300948 0 0.1 -0.4 -0.4 -0.5 0.3 -0.405997 -0.105261 -0.109477 0.2699 -0.329676 -0.233452 -0.332576 -0.220805 -0.536094 -0.22884 -0.126101 -0.429083 -0.014821 -0.306062 0.0865521 0.483892 -0.310548 0.461312 -0.0203802 0.0751626 -0.104995 -0.495086 0.301108 -0.5 0.3 -0.3 0.3 0 -0.105997 -0.505261 0.0791598 0.25437 -0.0364029 0.464867 -0.421128 -0.0137045 -0.0105727 -0.419258 -0.317087 0.486023 0.286035 0.189726 -0.0123368 -0.00293001 -0.426685 -0.122593 -0.0309251 -0.432056 0.0950055 -0.0950861 0.00110792 0 0.5 0.5 0 0.2 0.4 -0.205261 -0.0211082 0.354217 0.366702 -0.0247564 0.488592 -0.40855 0.395905 0.000220875 -0.000580585 0.00436571 -0.102854 -0.20758 -0.101405 0.277088 0.064777 0.0749233 -0.226775 -0.234039 0.486372 0.000159646 0.3 -0.3 0.3 -0.4 0 0 -0.2 -0.00169671 0.284889 0.37177 -0.0247006 -0.227031 0.000453984 0.107212 0.410837 0.0020723 0.422022 0.0158617 -0.296928 0.00528545 -0.521287 -0.226166 0.460136 0.158193 0.367285 0.471329 0.286719 -0.498758 -0.5 0.5 -0.5 0.1 0.1 -0.1 0.2 0.493657 -0.510053 -0.123785 -0.0228433 -0.124317 0.0918975 0.0961255 0.516547 0.417426 0.0204536 -0.283896 -0.491636 -0.505094 -0.225496 -0.139182 0.459458 -0.433325 0.368134 -0.0195523 0.0974447 -0.0980487 0.5 0.5 0.2 0 0.2 0.5 0.5 -0.101697 -0.210079 0.179571 -0.123787 0.0701329 0.486917 -0.202809 0.106656 -0.0907989 0.115063 0.511808 -0.103969 -0.515537 -0.13685 -0.347106 -0.0382678 0.364838 0.474607 0.284146 -0.00255526 0.401242 -0.3 -0.2 0 -0.3 0.5 0.5 0.5 -0.501708 -0.012895 -0.521743 0.0663596 -0.43878 0.0765175 -0.514508 -0.31327 -0.300255 0.405826 -0.106089 -0.409248 0.464027 -0.0447565 0.0462937 -0.332708 0.173769 -0.327024 0.486187 -0.304481 -0.0997352 0 0.4 -0.4 0 0.2 -0.5 0.3 0.298292 -0.506906 0.382833 0.258197 -0.23749 0.0646043 -0.132068 0.276225 -0.501819 -0.302494 0.469281 -0.130511 -0.23982 0.364163 -0.239022 -0.227786 0.173229 -0.222567 0.486239 -0.499974 -0.399735 0.1 -0.1 0.4 0.5 0 0.1 0.5 -0.201708 -0.106983 0.180905 -0.241304 -0.0360026 -0.137663 -0.0363601 0.271157 0.471001 -0.0333507 -0.0340862 0.160824 -0.436131 -0.0319415 0.0666973 -0.125047 -0.118126 0.0862392 -0.313937 0.00195916 -0.5 -0.5 -0.5 0.2 0.2 0 0.4 -0.3 -0.404484 -0.508985 -0.114393 0.164872 0.0725373 -0.345204 0.261101 -0.443541 0.156105 -0.0518762 0.0510255 0.158805 -0.228751 -0.126998 -0.0248011 0.474279 -0.0129892 0.291253 -0.108747 -0.0980408 0.4 0.2 0 0 0.5 0.4 0 -0.5 0.395528 0.495528 0.286369 0.377542 -0.516642 -0.212803 0.187535 -0.0176294 0.479243 0.367273 -0.534171 -0.433001 0.0757742 0.482556 0.0843182 -0.0143298 -0.303908 -0.503908 -0.00390831 -0.498041 -0.2 -0.3 0.2 -0.1 -0.3 -0.3 0.2 -0.3 0.5 0.4 -0.198536 0.197096 -0.00076245 0.100554 0.30571 0.304404 0.499739 -0.0105918 -0.517139 -0.102969 0.495714 0.0957678 -0.108268 0.294133 0.194133 -0.3 0.4 0 0 0 0 -0.5 -0.5 0.1 0.5 0.4 0.2 -0.398897 -0.498569 -0.498167 -0.0957678 -0.195019 -0.0874031 0.50949 -0.0911973 -0.191197 -0.395262 0.502898 -0.402536 0.0975176 -0.402482 0 0.1 0.3 0.3 0.2 0.3 0.3 0.2 0.3 -0.3 0.1 -0.4 0.4 0.4 -0.299996 0.499972 -0.200028 0.499968 -0.2 -0.1 0.1 -0.4 -0.1 0.5 0 -0.3 -0.2 -0.5 -0.1 -0.2 0.1 0 -0.3 -0.2 0.2 -0.4 0.4 -0.141578 
0.1 0.1 -0.1 0 0.3 -0.3 0.4 -0.4 -0.3 0 0.4 0 0 0 0.2 0 0 -0.1 -0.3 -0.5 0.1 0.4 0 -0.3 -0.3 -0.5 0 0.4 0.5 0 -0.4 -0.4 0 -0.5 0.1 -0.4 0.5 -0.5 -0.4 0.2 -0.2 0.1 0 -0.4 -0.1 0 -0.3 0.1 0 -0.4 -0.4 0.1 -0.3 0.3 -0.1 -0.1 -0.5 0.1 -0.1 -0.4 0.3 0 -0.5 -0.1 0 -0.4 0.3 -0.2 -0.3 -0.4 0.00806516 -0.291667 0.309327 0.109992 0.301744 0.501225 -0.199335 -0.2 -0.2 -0.4 -0.4 0.3 -0.3 -0.4 0 -0.1 0 -0.5 0.3 0.4 -0.4 -0.4 -0.4 0.4 -0.100404 -0.200404 -0.300404 -0.00634686 -0.498231 -0.39702 -0.389389 -0.388425 0.00324403 -0.397355 0.200665 -0.1 0.4 -0.3 -0.3 0.2 0.3 0.5 0.3 -0.3 0.2 0 0.1 0.3 -0.2 -0.5 0 -0.00040403 -0.300257 -0.000257136 0.389627 -0.00985101 -0.208974 -0.29449 -0.0938554 -0.193016 -0.401386 -0.00182979 -0.404684 -0.500027 -1.08225e-05 -1.08225e-05 -0.1 -0.4 0.3 0.1 -0.4 -0.4 0.3 -0.500006 -6.29238e-06 -0.500007 -0.499953 4.68897e-05 0.000194503 -0.000238125 -0.201909 -0.0192106 -0.0252614 0.47535 -0.0173085 -2.3639e-05 0.396345 0.400086 -0.311141 -0.509974 0.492722 0.497894 -0.00146687 -0.401232 0.3 -0.5 -0.4 -0.4 0.1 -0.1 0 -0.299115 0.300801 -0.499199 0.101851 0.00185169 0.201909 -0.198576 0.295233 -0.316905 0.382592 0.0750938 0.383195 -0.00668915 -0.404747 -0.308656 -0.016496 -0.0159808 -0.0102547 -0.504821 -0.501767 0.0984534 0.299686 -0.400251 0 -0.2 0.4 -0.2 0.4 0.300898 -0.299186 0.500821 -0.098179 0.401802 -0.297969 -0.00488917 -0.204934 -0.30669 -0.0183847 -0.216357 -0.318362 0.0906718 -0.208879 0.0834807 0.384579 0.483801 0.289124 -0.305451 0.29766 0.0995272 0.40039 -0.499547 0.4 0.1 0 -0.1 0 -0.199095 0.500821 -0.399173 -0.499119 0.300856 0.100882 -0.204981 0.495616 -0.00681671 -0.208452 0.483779 0.380643 0.286965 0.184172 0.0836366 0.486179 -0.00817454 0.400236 0.399515 -0.000675264 -0.400851 0.000452871 -0.0995471 -0.2 0 -0.4 -0.298188 0.4 0.0999529 0.0998686 -0.000140916 0.199941 0.499942 0.199973 -0.00545223 -0.207826 -0.205462 -0.207765 -0.0152309 0.380913 -0.528523 0.183096 -0.409276 0.489314 -0.406997 0.400844 0.100423 -0.00035333 0.400262 -0.299296 -0.398724 -0.2 0 0.4 -0.398188 0.2 0.199869 0.499869 -0.100153 0.399944 -0.0994698 0.00119502 -0.00258294 0.195905 -0.495255 -0.00800399 -0.0166051 0.382585 -0.233822 0.387422 0.0914242 0.199556 -0.193497 -0.189424 -0.199777 -0.0985148 -0.0991331 -0.0987244 0.3 -0.3 -0.4 -0.4 0.1 0.1 -0.500084 -0.500162 0.499848 0.099395 0.5001 0.101608 -0.296792 0.00987261 0.51243 -0.400659 -0.0203743 -0.226516 -0.0266008 0.493877 -0.500246 0.00715319 0.408241 0.210052 0.00859063 -0.0997905 -0.500227 -0.299997 0.3 -0.5 -0.1 -0.2 -0.1 0 -8.40165e-05 -0.100109 -0.300158 -0.100503 -0.299106 -0.0991405 -0.096438 0.112176 0.511583 0.0984345 -0.526767 0.172478 0.272373 0.397848 0.203921 0.409423 0.110304 0.0119202 0.209516 -0.198841 0.499935 -0.099997 0.5 0.2 -0.4 -0.4 0.3 0.4 -8.40165e-05 0.0998911 0.399842 -0.199969 0.000620666 0.000873942 0.0133927 0.512112 -0.291124 0.0879254 0.063133 -0.326796 -0.524385 -0.503094 0.310551 0.512622 -0.388853 -0.089928 -0.189873 0.402701 -9.02331e-05 0.200003 0.2 -0.3 -0.5 0 0 -0.4 -0.100084 -0.500109 0.49986 -0.200106 0.201331 -0.297893 0.311855 -0.0914426 0.209304 -0.419918 0.171185 0.174416 0.374075 -0.00349313 0.312691 0.105114 0.0109081 -0.488625 -0.188641 -0.297332 0.199877 0.39997 0.399943 0.2 0.1 0.2 0 0.2 -0.400084 0.0998911 0.499882 -0.3997 -0.199224 -0.389782 0.411607 0.409058 -0.00018806 0.474508 0.375018 -0.0248844 0.280528 -0.000115602 0.301082 0.502336 0.210943 0.0114791 -0.487818 0.201822 -0.000123347 -0.10003 0.0999433 -0.1 0 0.2 0.5 0 -0.5 0.299891 -0.40018 0.100247 0.000811033 0.00943266 0.510999 -0.49773 -0.204278 -0.0247304 -0.429051 -0.226035 -0.0154858 0.498679 -0.100644 -0.386902 0.205517 -0.0943594 0.104161 0.102202 0.0996229 -5.37435e-05 -0.1 -0.2 -0.2 0.2 -0.2 0.1 0.5 0.299931 0.399904 0.399733 0.100794 0.409351 -0.390589 0.299997 0.396658 -0.326179 -0.431559 -0.230115 -0.0241269 -0.00567116 3.34371e-05 -0.394879 0.00616005 -0.0939353 0.503634 0.000472455 -0.000295131 0.200003 0 -0.2 0.4 -0.5 0.3 -0.5 -0.5 -0.500074 0.299897 -0.0993648 -0.197901 -0.290902 0.309376 -0.0987307 -0.30516 -0.529818 -0.0321495 -0.0258329 0.276397 0.197912 0.501138 0.501668 -0.495184 0.103637 0.500874 0.100513 0.500005 0.200004 0.3 -0.3 -0.4 -0.3 0.1 -0.4 0.1 0.299931 -7.74204e-05 0.200495 0.300967 -0.38993 0.104833 0.400569 -0.20885 0.0708653 0.0701066 -0.521569 -0.0192906 0.498462 -0.297184 -0.498492 -0.396495 0.394392 0.0999139 0.200521 0.100005 -0.399997 0.5 -0.5 -0.5 -0.3 -0.2 0.4 0 0.299931 0.499747 0.301409 -0.500314 0.0110951 0.50662 -0.00251271 0.49535 0.375771 0.282159 0.383306 -0.115467 -0.199165 -0.197089 0.501611 0.191981 0.393758 0.399924 -0.0995902 -5.44844e-06 -0.500011 0 -0.3 0 0.2 -0.4 0 -0.5 0.199931 -0.10027 -0.198844 -0.299138 0.0976568 0.00366771 -0.103676 0.195924 0.376047 0.179887 -0.413955 0.0899687 0.500209 -0.00726032 0.191745 -0.403404 0.500906 -0.09914 -0.299186 0.299993 0.199989 -0.3 -0.2 0.1 0.4 -0.3 0.1 -0.2 -0.200069 0.299764 -0.400017 -0.100593 -0.304177 -0.407648 0.285023 -0.217601 -0.523401 -0.0288471 -0.223637 0.279085 0.492998 0.0918275 -0.303779 -0.00299572 0.000860735 -0.499186 0.200831 0.3 -0.5 -0.1 0 0 0 -0.4 0.5 0 -6.45405e-05 -0.30031 -0.100849 -0.299584 -0.00251436 0.291701 -0.310756 0.388209 0.484448 0.283844 -0.217619 0.28509 0.0963388 -0.203316 0.497431 0.197841 -0.199171 0.000837447 -0.0991626 0.4 0 -0.1 -0.5 0 0.3 -0.1 -0.5 0.3 0.199935 -0.400065 -0.400314 -0.200683 0.297363 0.0935117 0.391756 -0.406054 -0.20528 -0.01227 -0.113686 0.0885711 -0.0036875 -0.00300932 -0.302236 -0.402137 -0.299109 0.200891 -0.299109 0.5 0 0.3 -0.5 0 -0.3 0 0.3 0 -0.5 0 3.04036e-05 0.300093 -0.100107 -0.200796 0.0991613 -0.299761 0.100934 0.302484 0.302527 -0.499004 0.497994 -0.202007 0.197987 -0.299109 -0.499109 0.2 -0.4 -0.4 -0.3 0.2 0.3 -0.2 0.3 -0.2 0.2 -0.3 0 -4.94541e-06 0.400094 0.200047 -0.000183537 0.49982 0.0999508 0.199992 0.000670229 0.50067 0.100671 0.000104738 0.300042 -0.399958 -0.399958 -0.1 -0.3 0.3 -0.4 -0.5 0.5 -0.4 -0.1 0.1 0 0.3 0 0.5 -0.5 1.91639e-06 -0.299935 0.400065 6.35833e-05 0.2 0.5 -0.4 -0.4 0.4 -0.3 -0.5 -0.2 0.1 0.2 0.1 -0.2 -0.3 0.1 0 -0.1 0.3 -0.2 -0.2 0.173335 
0.4 -0.5 0 -0.1 -0.5 0.4 0.3 0.2 0.2 0 -0.3 -0.5 0.2 0 0 0.4 0.5 0.5 -0.5 0.3 -0.2 -0.3 0.5 -0.4 0.5 0.3 0.2 0.4 0.2 0.3 0.4 0 -0.5 -0.5 -0.1 0 0.5 -0.2 0.5 0.2 0.3 -0.2 0 0.3 0.5 0.2 -0.2 0.3 -0.3 0.2 0.2 0.2 -0.2 0.1 -0.3 0.3 0.3 -0.1 -0.3 0.3 0.3 -0.2 -0.3 -0.2 0.1 -0.5 -0.3 0 -0.2 0 -0.300056 -0.300844 -0.00292781 -0.00285385 0.399211 0.400005 -0.499926 0.4 -0.3 -0.1 0.2 0.3 -0.4 -0.5 0.1 -0.5 0.5 0.5 -0.2 0.1 0.4 0 -0.2 0.4 0.0984658 0.198466 -0.401534 0.0986242 0.498051 -0.00182833 0.294675 -0.50386 0.29651 -0.00254466 7.39628e-05 -0.2 0.1 0 0.2 0.2 0 0.3 -0.2 0.3 0.2 0.4 0.5 0 0 0.4 0.2 0.298466 -0.00144217 -0.495576 -0.301257 -0.303701 0.392103 0.492588 0.492543 0.396941 -0.398807 -0.497027 0.205788 0.306122 0.199155 -0.500845 0 0 0.1 -0.5 0.3 0 -0.3 -0.50139 -0.00139029 0.497649 0.298439 -0.401561 -0.501469 -0.408183 -0.504306 -0.204093 -0.494833 0.305661 0.312041 -0.186144 0.302099 -0.299206 0.40859 -0.180877 0.330457 0.325142 0.114814 -0.0942812 0.5 -0.5 0.2 -0.3 -0.5 0.3 -0.5 0.498608 -0.502702 -0.502702 -0.403404 0.196321 -0.00497694 -0.3163 -0.404292 0.107779 -0.383103 0.107749 0.404159 0.00575124 -0.498002 -0.190449 0.510382 0.108202 0.343015 -0.169912 -0.48432 0.40547 -0.100249 -0.400049 -0.3 -0.5 -0.1 0 -0.1 0.104727 0.503417 -0.400213 -0.301161 0.502654 0.502524 -0.301039 0.307159 -0.0763743 0.00870465 0.00627244 0.204963 -0.295497 -0.0977946 -0.0905154 0.510742 0.415394 -0.264612 0.0345315 -0.078912 -0.498264 0.303383 -0.396417 0.2 -0.1 -0.2 -0.5 0 0.505037 0.00372712 0.000131491 -0.401044 0.00186647 0.304522 0.102813 0.00516577 0.420802 -0.0824867 0.523096 0.329143 0.315361 -0.0763234 0.122008 0.0316221 -0.263385 0.363702 -0.150173 0.509869 0.00331613 -0.496417 -0.496417 -0.3 0 0 -0.496369 0.2 0.49952 -0.201789 -0.505578 0.400864 0.500589 -0.0833808 -0.483653 0.525788 -0.471153 0.235462 -0.075126 0.521225 -0.0801594 -0.278738 0.524746 0.032946 0.0418778 0.249989 0.0420089 0.104328 -0.297085 0.203633 -0.297599 0.4 0.4 -0.3 0.503631 0.1 0.399171 0.399171 -0.505049 0.401134 0.406115 0.507117 0.419535 0.0137818 0.120327 0.12514 0.233996 -0.491671 -0.179122 0.345992 -0.0664244 0.524424 -0.462305 -0.361845 0.52456 0.00713915 -0.0961826 0.402401 0.5 0.4 0.2 -0.1 -0.2 0.2 -0.400349 -0.401188 -0.493445 0.00614367 0.32271 -0.0856073 -0.38923 -0.188329 -0.476162 0.13552 0.248848 -0.059443 -0.35267 0.216203 -0.365554 0.429636 0.130575 0.429571 0.213821 0.293161 0.498522 0.0999983 -0.1 -0.5 -0.2 0.1 0 0.5 -0.000349484 -0.100398 0.10621 -0.274546 0.417878 -0.0849797 0.114297 0.417209 -0.173238 0.0365819 -0.454013 -0.160598 0.0247758 0.126348 0.221542 -0.179118 -0.400702 0.320516 0.496975 -0.00549651 -0.499811 -0.200002 -0.5 0 -0.4 0.3 0 -0.2 0.499651 -0.400398 0.40621 0.121307 -0.188167 0.11106 0.303687 -0.292661 0.512023 -0.278094 0.410274 -0.389175 0.222534 -0.0726952 0.424153 0.0135608 0.206085 0.201467 -0.215228 -0.204297 -0.29986 -0.300002 0 0.3 -0.2 0.2 0.4 0.4 0.499651 -0.000398495 -0.00365939 0.507485 -0.009097 -0.512125 -0.0183022 -0.323724 -9.88909e-05 0.213222 -0.301792 -0.405042 -0.181023 0.312035 0.204626 -0.410086 -0.404014 0.290704 0.389161 0.196178 0.399655 0.199513 0.497716 0.4 0.2 -0.5 -0.4 -0.4 0.199651 -0.200398 -0.0111738 0.189806 -0.0192148 -0.4288 0.0643455 -0.43202 -0.508785 -0.187603 0.503997 0.221271 -0.484481 -0.485697 0.298119 -0.01745 -0.312143 -0.317781 -0.108606 -0.404563 0.199655 -0.000486539 0.0977165 -0.1 0.4 -0.3 -0.2 0 -0.3 -0.300398 0.0933638 0.48417 0.47712 0.268276 0.170818 -0.413465 -0.00479334 -0.39082 -0.204545 0.021762 0.131679 -0.0938039 0.000971878 -0.12078 -0.508955 0.48535 -0.00366839 0.398989 -0.103619 -0.402285 -0.5 0.1 -0.5 0.4 -0.4 0.5 -0.5 0.500191 0.393713 0.484423 -0.0175304 -0.314334 -0.119816 -0.196048 0.0106995 0.113875 -0.479754 -0.18077 0.117683 -0.387717 -0.499909 -0.226725 -0.0196531 -0.100776 0.296885 0.293254 0.493767 0.095052 -0.5 -0.1 -0.2 -0.3 -0.4 -0.3 -0.4 -0.19981 0.497791 0.489523 -0.408816 0.499367 0.00565175 0.12714 0.0209424 0.332641 0.0269563 0.424051 0.3177 -0.488499 -0.490012 0.37996 -0.416034 0.301178 -0.29936 -0.00709801 -0.205223 -0.205223 -0.5 0.1 -0.4 0.2 0.4 0.2 0.4 -0.099809 -0.00243433 0.196891 0.206094 0.517249 0.0264655 0.0224414 -0.166517 -0.387505 -0.477249 -0.392388 -0.482343 0.425547 -0.194619 0.286447 -0.00792176 -0.491077 0.494067 0.192901 -0.405223 -0.304948 0.2 -0.5 0.2 -0.3 0 -0.1 -0.5 -0.496937 -0.296127 0.404614 -0.282636 -0.471257 0.335757 -0.158061 -0.368419 -0.386175 0.410521 -0.398504 -0.457208 -0.389803 -0.00872716 -0.104207 -0.199914 0.304124 0.394447 -0.107232 0.194833 -0.404891 0 0.3 -0.3 -0.5 0.3 0.5 0.1 -0.496937 0.10511 0.104565 -0.175661 0.141884 -0.259859 -0.256699 0.213794 -0.203125 0.41348 -0.0870599 -0.48059 -0.485015 0.0843728 0.38607 0.396492 -0.00490475 -0.00725921 0.393342 0.394833 0.0951091 0.5 0.2 -0.2 0.3 0.1 -0.3 0 -0.196937 -0.4976 0.513886 -0.379738 0.444681 0.453369 -0.168247 0.119359 0.405394 0.413207 0.115506 0.221348 0.207138 0.282755 0.190229 -0.101973 -0.00725916 0.493342 -0.00664461 -0.000960244 0.5 0.5 0.2 0.4 -0.4 0.5 -0.1 0.4 -0.194157 -0.0905309 0.116812 0.327179 -0.443553 -0.248477 -0.368075 -0.068901 0.519322 -0.379401 0.520798 0.11676 0.401851 0.0937087 -0.0106336 -0.508894 0.293357 0.0982481 0.0982481 0.29904 0.5 -0.5 0.2 0 0.1 0.2 0 -0.3 0.102971 0.402971 0.00946839 0.0464819 -0.0481007 -0.466046 0.424908 0.221974 -0.0822338 -0.484498 0.0109662 -0.39314 -0.294457 0.392947 -0.106469 -0.200109 0.199038 -0.000962381 0.0990376 -0.10096 0.4 0.3 0.2 -0.4 0.5 -0.4 -0.3 0 0.2 -0.4 -0.194171 0.120061 0.219696 0.201484 -0.514569 -0.118874 -0.101972 0.403313 0.213786 0.413202 -0.288392 0.206337 0.0059921 0.0999979 0.499998 -0.3 0.1 0.2 -0.2 0 -0.4 -0.3 0.4 -0.2 0.5 0.5 0.4 -0.495936 0.116659 0.21266 -0.283663 -0.290873 0.492327 -0.110391 0.403201 -0.0967994 0.00888198 0.113204 0.110063 -0.195209 0.304791 -0.3 -0.4 0.5 0 -0.1 -0.2 0.3 -0.5 0.5 0.5 -0.5 -0.1 0 -0.5 0.1074 0.418229 0.518229 0.210829 0.4 0.3 -0.3 -0.1 0 -0.4 0.3 -0.3 0.5 0 -0.3 -0.1 -0.3 -0.1 0 0 0 -0.2 0.4 -0.179166 
0 0 0 -0.3 -0.4 0 -0.4 0 -0.5 0.3 -0.4 -0.2 0.2 0 0.3 -0.1 0.2 -0.5 0.3 0 -0.2 0.2 -0.4 -0.2 0.1 0.1 -0.5 -0.1 0.5 0.4 -0.1 -0.5 -0.1 0.5 0.3 -0.3 0.2 -0.5 0.4 -0.4 -0.3 0.2 -0.1 0.3 -0.2 -0.2 -0.5 0 0.3 0 -0.1 -0.5 0 0.1 -0.3 0.2 -0.2 -0.2 -0.1 -0.4 -0.2 0.4 -0.5 0.3 -0.5 0 0 -0.5 -0.5 -0.4 0.499803 0.0996224 -0.29893 -0.198477 0.00274736 -0.298509 -0.299547 -0.2 -0.1 0.2 -0.3 0.3 0.1 -0.1 0.2 0 -0.3 0.4 -0.3 0.1 0.5 -0.3 -0.4 -0.4 0.499586 0.299586 -0.000413884 0.300996 -0.0971688 0.504558 -0.0978805 0.00357144 0.501719 0.100643 -0.299547 -0.3 0.4 0.5 0.3 -0.4 -0.1 -0.2 0 -0.4 -0.5 -0.1 0.1 0 0.4 0.5 -0.5 0.0995861 -0.40125 -0.300078 0.197606 0.298972 0.497338 -0.10101 3.11142e-05 0.299775 -0.498431 0.30068 0.301061 -0.299318 -0.0975122 0.402488 0.1 0.1 -0.3 -0.3 -0.1 0.5 0.3 -0.399939 -0.299939 0.000819252 0.100759 -0.099241 0.500755 0.199435 0.197835 0.287253 -0.204891 0.496692 -0.301628 0.289828 0.0894898 0.282448 0.488112 -0.40805 0.409122 0.314873 -0.177139 0.108509 -0.4 -0.1 0 0 0.3 -0.2 0.5 -0.299976 0.513346 0.313346 -0.500631 -0.501092 -0.299432 -0.0194363 -0.216694 -0.210531 0.300024 0.0841519 -0.214171 -0.320746 -0.426863 -0.42843 -0.231988 -0.23254 0.100326 -0.495633 0.411102 0.105025 -0.303484 -0.504138 0 -0.2 -0.5 -0.2 0.2 0.503901 0.317223 -0.0729819 0.413249 -0.185912 0.0132496 -0.10384 0.29639 0.194936 0.093954 -0.202858 0.191477 0.0964345 0.28168 -0.0198085 -0.0324287 -0.310331 -0.107503 0.496249 0.00321887 -0.113906 -0.0138718 0.0854743 0.3 0 0 0.2 0.4 0.00370065 -0.382977 0.427249 0.412982 -0.486647 -0.394749 -0.205435 0.190219 -0.203838 -0.394399 -0.287461 -0.389369 -0.102671 0.38908 0.287182 0.378361 -0.0101065 0.205617 0.203713 0.381107 -0.314455 0.185474 -0.0145257 -0.1 0 0 -0.397731 0 -0.30014 0.113182 0.32731 -0.488204 -0.290889 -0.0787588 -0.495162 -0.496655 0.50303 0.0126263 -0.379287 -0.179258 0.40894 0.492599 -0.0209356 0.481728 -0.0121818 -0.0978922 -0.19107 -0.419898 -0.0124161 0.489612 0.0953618 0.4 -0.2 0 0.302269 0.3 0.0124244 0.512424 0.0219833 -0.193343 -0.191674 0.00887538 0.110477 -0.194866 -0.302696 0.307502 0.213461 0.509882 0.216687 0.512517 0.383645 0.286348 -0.201194 -0.396359 -0.395083 0.392793 -0.00589429 0.195362 -0.1 -0.1 0.5 0.1 0 0.4 -0.187435 -0.486858 -0.0860985 0.399318 -0.0839655 0.218824 0.0113519 0.297831 -0.307584 0.19816 0.315258 -0.0922465 0.218122 0.0809273 0.387803 -0.490799 -0.396922 0.012724 -0.484215 0.0976995 0.398678 -0.401337 0 -0.3 -0.3 0.5 0.5 0 -0.387435 0.413082 -0.286329 0.0154776 0.417175 0.510379 -0.00168907 0.491391 0.183844 -0.426487 0.289045 0.289056 -0.00619386 0.489123 -0.302686 -0.482729 -0.0986842 -0.185169 -0.196167 0.498956 -0.00510138 0.498663 0.3 -0.2 -0.4 -0.5 -0.1 0 -0.387435 -0.386918 0.0136709 -0.0836811 0.408679 -0.494169 -0.00570376 0.285085 0.355275 -0.53544 -0.424432 -0.41791 0.432993 0.0269612 -0.47899 0.0225249 0.108902 -0.284454 -0.000349392 0.499442 -0.204584 0.198663 0.4 -0.4 -0.4 -0.4 0.1 -0.1 -0.187435 -0.486918 0.513664 -0.389547 0.00592054 -0.308394 -0.402596 -0.226249 0.474345 0.381314 0.0937926 0.100177 0.234625 -0.174129 -0.181294 0.0210081 0.0159109 -0.481083 -0.0930771 -0.0965448 0.000186489 -0.396566 -0.00535229 0 -0.4 0.1 0.1 0.2 -0.187435 0.413082 0.41156 0.110427 0.00395946 0.192379 -0.315312 -0.425413 -0.0304671 -0.402065 0.308628 -0.376214 0.525934 -0.376185 0.42518 0.514911 0.0133991 -0.19929 0.401771 0.30144 0.400186 -0.0965663 -0.00535229 0 0 0.5 0.1 -0.2 -0.5 0.313082 -0.19001 -0.48814 0.414723 -0.50186 0.0926613 0.192184 0.485858 -0.214656 -0.517491 0.408631 -0.185433 0.103554 0.526262 -0.49325 0.513554 0.301293 -0.299639 0.00137692 0.190078 -0.406689 -0.3 -0.1 0.2 -0.3 -0.1 0.5 0.4 0.398459 -0.0025746 -0.405158 -0.108961 -0.504754 -0.214177 -0.100681 -0.00498703 -0.497181 -0.392483 -0.292772 0.011969 0.404488 0.0137158 -0.0027546 0.198083 0.195587 0.294553 0.494039 0.49309 0.0968393 -0.5 0.1 0 -0.2 0.2 -0.1 0.2 -0.00172071 0.296631 0.0886964 -0.213624 -0.50573 -0.293779 -0.188013 0.105772 -0.387677 -0.187463 -0.384471 0.216317 -0.190571 0.0164197 0.487984 0.401535 -0.106161 -0.403769 0.295178 0.494987 0.196379 0.5 0.4 -0.1 0.4 0 0.1 0.3 0.298459 0.195653 0.36846 0.27633 -0.517604 -0.490175 0.403664 0.309767 0.00345522 0.393486 -0.506233 -0.492758 -0.0929775 -0.194455 0.190915 -0.000243372 -0.102514 0.495737 0.194021 0.0949872 0.196839 -0.2 0.5 0 0 0.3 -0.1 0.5 0.197548 -0.512836 0.173463 -0.134821 -0.0293667 -0.0118607 0.0146518 0.0107683 -0.0062617 -0.217697 -0.0101474 0.420794 0.398014 -0.198432 0.490112 -0.00578852 -0.399863 -0.304386 0.496618 -0.00330774 -0.200119 0.5 0 0.1 0.1 0.2 -0.2 0.4 -0.502452 0.287693 -0.329283 -0.430166 -0.323263 0.280704 -0.00206244 0.280485 -0.0170061 0.188302 0.395103 -0.483334 -0.295914 -0.0995439 -0.0134074 -0.297385 -0.102101 0.196958 0.29779 -0.301916 0.0998812 0.4 -0.4 0 0 0.5 0.4 0 -0.202452 -0.312025 0.389008 0.478829 -0.020795 0.0935975 0.282159 -0.018897 -0.0164759 -0.311752 -0.201491 0.420641 0.205989 -0.30457 0.195538 -0.396791 0.197791 -0.40221 0.197934 -0.299242 0.5 0.2 0.4 0 0 0.1 0.2 -0.1 0.301049 0.291931 -0.509505 -0.110872 -0.407442 -0.505178 -0.0104009 0.486846 -0.00790458 -0.211259 0.00318555 0.0145728 0.302398 0.509508 -0.101034 0.102352 0.399271 0.100781 -0.499219 0.200758 0.1 -0.2 0.3 0 -0.5 0.1 -0.1 -0.2 0.501961 -0.498039 -0.508249 -0.298726 -0.493125 -0.202875 -0.107076 0.0920675 -0.300724 -0.090309 0.113746 -0.0803512 0.113529 0.512298 -0.100105 -0.295565 0.000720382 0.000720382 0.000720382 0.00075781 0 0.2 0.4 -0.1 -0.5 0.3 0.3 0 0.4 -0.3 0.499664 -0.295206 -0.19301 -0.299349 0.194427 -0.503795 -0.20029 0.305774 0.507817 0.00712894 0.397657 -0.406211 -0.00644208 0.0999626 0.199963 0 -0.2 -0.4 0.2 -0.2 -0.1 0 -0.1 -0.3 -0.3 -0.1 -0.3 -0.00160494 0.00388314 -0.501681 0.0057061 0.507053 0.100561 0.393883 0.305226 0.305226 0.406215 -0.492834 -0.395078 -0.398946 -0.198946 0 -0.2 0 0.3 0.1 0.4 0.4 -0.2 -0.3 0.5 0.2 -0.1 0.1 -0.3 -0.398134 -0.0939149 0.306085 0.00421955 -0.2 0.1 0 -0.3 0.5 0.5 0.4 -0.1 0 0.4 -0.4 -0.5 0.3 0.3 0 -0.5 0.1 -0.3 -0.4 0.405932 
-0.2 -0.2 0.2 -0.3 -0.1 -0.2 -0.3 0 0.4 -0.2 0.4 -0.4 0.4 -0.5 -0.5 -0.2 0.5 0 -0.1 0 -0.5 0 0 0.4 0.5 0.2 0.3 0.2 0.5 -0.3 -0.1 -0.3 0 -0.3 -0.3 0 0.5 0 -0.3 0.4 -0.2 0.5 -0.3 -0.5 0.2 0.3 0 0.1 0.2 -0.3 -0.1 0.3 0.1 -0.3 0.3 -0.3 -0.4 0.2 -0.3 0.1 0.2 -0.1 0.3 -0.4 -0.4 0.2 -0.2 -0.1 -0.4 0.3 -0.205623 -0.413414 0.277806 -0.518935 -0.513049 0.497867 -0.0967413 0.2 -0.5 0.2 0 -0.4 0.2 -0.1 0 0 0.2 0 -0.2 -0.4 -0.5 0 -0.2 0.2 -0.499364 0.100636 -0.0993636 -0.406948 0.0871341 -0.118274 -0.22875 -0.134778 0.176681 -0.212402 0.0032587 0.5 -0.2 0.2 0.4 0.3 -0.1 0.1 0.2 -0.2 -0.4 -0.2 -0.1 -0.3 0 -0.2 0.2 -0.299364 0.500993 0.200661 0.211869 -0.102302 -0.203732 -0.00393282 0.0985036 0.508883 0.218711 -0.283761 0.0117392 0.199979 0.19624 0.39624 0 0 -0.3 0.1 0.3 -0.3 -0.3 -0.098592 -0.398592 0.501538 0.100116 0.300116 -0.399987 -0.492215 0.210482 0.0208203 0.520963 0.328667 0.42462 -0.37198 0.0364627 0.549008 -0.249766 -0.153123 -0.0759715 -0.0863531 -0.493976 0.203182 0 0 0.1 0 0.5 -0.5 0 0.000784591 0.298419 -0.401581 -0.200556 0.00639533 0.412476 0.122897 0.0243766 -0.463952 0.327371 0.437879 -0.474287 0.541436 0.442046 0.0618117 0.0590466 0.556372 -0.352757 0.0341758 0.514069 -0.192823 -0.496004 -0.498182 -0.1 0.2 0 0.3 -0.3 -0.200964 -0.10333 0.0966276 -0.102557 0.106256 -0.093442 -0.280662 -0.378246 0.444004 -0.0525472 -0.477769 0.430878 -0.267243 0.55714 0.264186 0.364441 0.156476 0.0651768 -0.160054 -0.0805943 -0.389183 -0.0933966 0.404425 -0.4 0.5 0 0.4 0.3 -0.00101242 0.296622 0.289999 -0.406688 0.208761 -0.268231 0.431008 -0.360521 -0.358671 -0.486813 0.393689 0.00472403 -0.374252 0.33272 0.0436828 0.532343 -0.0761764 -0.474147 0.0267537 0.21531 0.506528 0.404425 -0.095575 0.2 -0.5 -0.5 0.385866 -0.3 -0.198627 -0.100993 0.490467 -0.501153 0.0101956 -0.372645 0.141363 0.0497728 0.505393 0.0808521 0.2876 0.512356 0.513122 0.438743 0.147905 0.533958 -0.266123 0.423076 0.311864 -0.485327 0.00556477 -0.0973925 -0.197837 -0.3 -0.2 -0.1 -0.314134 0.5 0.198877 -0.00112321 -0.00550463 -0.0990523 -0.196551 -0.48297 -0.469871 0.100803 -0.0126273 0.28398 -0.00459183 0.20139 0.111892 -0.474498 0.22084 0.506205 0.200994 -0.192327 0.115154 0.528146 -0.0970286 -0.397837 0.1 -0.4 -0.4 0 0.3 0.4 -0.502496 -0.101212 -0.105173 0.00118017 0.189845 0.211495 -0.392316 0.379129 0.0919114 0.394184 0.395608 0.00616154 0.500291 0.431089 -0.00151159 -0.0123251 -0.506043 -0.102202 0.401479 0.020997 0.102476 -0.0974259 0.5 0 0.5 0.2 -0.5 0.3 -0.00249606 -0.502634 0.101455 -0.209312 0.311777 -0.28054 -0.191342 -0.537494 -0.030567 0.281403 -0.28621 -0.497295 0.410179 0.170989 -0.215902 -0.522296 -0.316786 -0.503264 -0.00226927 -0.285394 0.00702419 0.202574 0.1 -0.4 0.5 -0.1 0.1 -0.3 -0.102496 -0.00263357 0.00145544 -0.200163 -0.171311 0.0165612 -0.325854 -0.440594 0.468568 -0.414781 0.0447121 0.413985 -0.0160926 -0.0265775 -0.523133 -0.0284006 -0.0267136 0.107045 -0.289546 0.221955 0.206887 0.502574 -0.3 -0.5 0 0.3 -0.2 -0.5 0.497504 -0.302634 0.0982515 -0.186044 -0.468122 0.0280975 -0.391535 -0.305322 0.291572 0.117898 -0.0972744 -0.319653 0.26117 0.261888 -0.436609 -0.0295679 -0.511707 0.00458525 0.300293 0.434088 0.21915 0.114837 0.312283 0.2 -0.4 0 0.3 -0.2 0.397504 -0.102634 0.307452 -0.0712566 0.538333 -0.479068 0.0119817 -0.208429 0.504005 0.50467 -0.023022 -0.220973 -0.123567 0.48135 0.474082 -0.00545503 -0.398794 0.324449 -0.0841767 -0.466643 0.41915 0.414837 0.512283 -0.3 -0.1 0 -0.5 0 -0.4 -0.102634 -0.390881 0.122181 0.0569905 0.546488 -0.48788 -0.39776 0.309678 0.411181 -0.518844 -0.044773 0.474149 -0.0197988 -0.406819 0.41802 0.412774 -0.268851 0.334073 0.138485 -0.280928 0.314857 0.5 -0.4 -0.5 -0.4 0 0.1 0 -0.0999467 0.0116149 -0.147915 0.0619057 -0.154499 0.408228 -0.489256 -0.204221 0.301183 -0.524896 0.184709 -0.324636 -0.00594401 0.0217376 -0.497892 0.111466 0.230011 -0.272798 0.122797 0.0161668 -0.188185 0.5 -0.5 0 0.2 0 0 -0.1 0.303416 0.420967 0.0650517 -0.235762 -0.348 0.307388 -0.399128 -0.0171603 0.478506 -0.418907 -0.0292418 0.286671 -0.0812364 -0.384574 0.312536 0.0135188 0.328631 0.0261301 0.123764 -0.477297 -0.181234 0.2 0.4 -0.3 0 0 -0.5 0 0.400053 0.0280555 -0.438331 -0.440833 -0.0502021 0.492107 -0.127402 -0.0433473 -0.234828 -0.209513 0.396567 -0.169972 0.420865 0.304892 -0.101943 -0.500544 -0.0699463 0.325058 -0.277024 0.0227031 0.0118145 -0.5 0.5 0.5 -0.1 0 -0.4 0.5 4.77534e-05 -0.0798746 -0.140565 -0.334737 0.545173 -0.279504 0.397542 -0.408698 0.0185956 0.425704 -0.169582 0.220214 -0.0884663 0.397907 0.214296 -0.401785 0.416982 0.118651 -0.085271 0.313481 0.100018 0.2 -0.5 0 -0.2 0 0 0.5 0.300048 0.00723461 -0.442685 0.467204 -0.344415 -0.154764 -0.284095 -0.288691 -0.470964 -0.375557 0.423778 0.522705 0.110987 -0.298689 -0.399436 0.11602 -0.182269 -0.385332 -0.385777 0.209544 0.400018 0 -0.4 -0.4 0.1 -0.4 -0.5 0.1 0.500048 0.404718 -0.272422 -0.134998 -0.441204 -0.355179 -0.453313 0.139459 -0.0577669 -0.448896 0.13964 0.0208133 0.21427 0.506733 0.0177405 0.41202 0.114209 0.114223 0.00745752 0.50013 -0.3 -0.2 0.5 -0.4 -0.3 -0.3 0 -0.4 -0.492375 -0.100246 0.504922 -0.174562 0.424806 0.023594 0.320519 -0.262717 0.0448787 -0.454633 0.224529 -0.490111 -0.180462 0.496441 0.300637 -0.0953439 0.204883 0.400928 0.400928 0.00012999 0.4 0 -0.4 -0.4 0 -0.3 0 0.4 0.00763085 0.00763085 -0.296883 0.490047 -0.211575 0.494898 -0.000612752 0.0110857 0.302845 0.411259 -0.0857897 0.406886 -0.499561 -0.203225 -0.502379 0.30095 -0.500493 -0.400493 0.499507 0.00012999 0 0 0.3 -0.3 0.3 0 -0.5 0.4 0.4 0.5 -0.202687 0.0875354 0.285964 -0.0140591 -0.308898 0.298976 -0.403061 -0.205384 -0.00437922 -0.402569 0.193812 0.295552 0.00218099 -0.100623 0.399377 0.2 0 -0.2 -0.2 -0.2 0.5 -0.3 -0.1 -0.1 0 -0.5 0.1 0.100738 -0.412295 0.388006 -0.013716 0.385516 0.100443 -0.395099 -0.0030065 0.296993 -0.00480364 -0.501946 -0.398938 0.00280195 -0.0971981 0.1 0.4 -0.1 0.3 -0.2 0.3 -0.4 0.4 0.4 0.3 -0.5 -0.2 0.2 -0.2 9.31222e-05 -0.409515 -0.309515 -0.209609 -0.3 0 0.2 0.3 0.4 -0.3 0.3 0.2 0.5 0.5 -0.3 -0.5 -0.3 0.1 0.5 -0.1 0.1 0.4 0 -0.195387 
0 -0.3 -0.1 -0.2 0.1 -0.5 0 0.4 0 -0.2 -0.3 0 0.5 0 -0.4 0 0.3 0 0 0.2 -0.1 -0.2 -0.3 -0.3 0.4 -0.1 -0.2 -0.4 0.4 0.3 0.2 -0.4 -0.4 0.5 0.2 0 -0.4 0.1 -0.1 0.1 0.3 -0.5 -0.2 -0.5 0.3 0 -0.4 0 -0.5 -0.3 0.2 -0.1 0.4 0.4 -0.4 -0.3 0 -0.5 -0.2 0.5 0.5 0.1 0.3 0.5 0.5 0.2 0.4 0.4 0.4 0.5 -0.0015928 -0.201579 -0.00147264 -0.101404 0.200347 -0.399756 -0.499931 0.3 0 0 -0.1 -0.3 -0.3 0.5 -0.2 0.2 0.3 -0.3 -0.2 0.4 0.1 0.2 0 -0.2 0.400315 -0.399685 -0.199685 -0.398239 -0.0997394 0.00470321 0.503695 -0.396444 -0.398068 -0.199331 6.85886e-05 0.1 -0.1 -0.4 -0.4 0 0.1 0.5 -0.3 0 -0.4 -0.5 0.4 -0.1 0.1 -0.4 0 0.000315041 -0.399982 -0.00143208 -0.295115 0.105126 0.206233 0.0104891 0.204451 0.104078 -0.29502 0.501351 -0.497733 0.099874 0.0999519 0.0999519 -0.1 0 0.4 -0.3 -0.5 0.4 0.5 0.400336 0.000335828 -0.0996479 0.100402 0.100402 0.400393 -0.497166 -0.49616 0.115248 0.407779 0.00742839 -0.389765 0.00676264 0.197118 0.198574 0.0202239 0.511807 -0.283517 0.0925572 0.183024 -0.00978112 0.1 0 0.2 -0.3 0 -0.5 -0.3 0.0988463 -0.401055 -0.201055 -0.498894 0.000927319 -0.000586431 -0.203247 -0.501741 0.500025 0.00314287 -0.501941 0.00120997 -0.00913267 -0.00813358 0.409484 -0.389385 0.00622124 0.40043 0.093347 -0.221222 -0.314224 -0.00444246 -0.200021 0.5 -0.1 -0.1 0.5 -0.3 0.00454225 -0.195359 0.00378467 0.103304 0.411257 0.0110283 0.411264 -0.491266 -0.20669 0.401195 0.00825929 0.309398 -0.492725 0.321148 -0.169904 0.115715 0.104805 -0.509856 -0.112619 0.270572 -0.212996 0.0877231 0.292145 0 -0.1 0.5 -0.4 0 0.29978 -0.500121 -0.385449 0.512952 -0.0875912 0.50919 0.10925 0.308244 -0.207213 -0.103034 -0.381437 -0.163373 -0.162279 -0.341113 0.0554562 0.0394009 -0.0636096 0.0255256 -0.299998 -0.51748 0.189706 -0.00785518 -0.00785518 0.4 -0.5 -0.2 -0.495002 0 -0.204812 0.295286 0.015645 0.513367 -0.48712 -0.490716 -0.291336 0.110192 -0.386998 0.0229528 0.425945 0.539732 -0.427213 0.443929 0.332145 0.140921 -0.164169 -0.182915 0.502961 -0.505788 0.290094 0.292166 -0.000382123 -0.1 0.1 -0.5 -0.0950023 0 -0.00472984 0.0952702 0.0074368 0.111061 0.308263 0.0179322 0.428639 -0.277898 -0.188959 0.326689 0.128508 0.33924 0.370183 0.348642 0.441751 -0.0550362 -0.27633 0.0108662 0.00371875 -0.293118 -0.00318289 -0.000382123 -0.3 -0.4 0 0.3 -0.4 0.2 8.26061e-05 9.64179e-05 -0.0827224 0.019302 0.537874 0.231184 0.433619 0.022333 0.300183 0.0969284 0.223865 0.335736 0.445984 0.118938 0.525943 0.0498243 -0.275099 0.0210794 0.419056 0.000110499 0.496781 -0.0014916 -0.4 0.5 -0.2 -0.5 0.3 0.4 8.26061e-05 0.500147 -0.0934888 0.136303 0.331084 -0.371812 -0.371196 -0.485765 -0.296031 -0.410037 -0.270674 -0.160157 0.422144 0.0234699 -0.0583627 -0.369626 0.128098 0.53059 0.219841 0.301211 -0.203436 -0.0014916 0.2 0.1 0.1 -0.1 -0.2 0.1 -0.299917 0.000146552 -0.393489 -0.47759 -0.0824494 0.0289555 -0.473608 0.020949 -0.00146069 0.096395 -0.187306 0.309741 0.332254 0.542068 0.0281611 0.0337397 0.528038 -0.0850303 0.406135 0.488905 -0.00337208 -0.401492 -0.4 0 -0.2 -0.4 -0.5 -0.5 0.500083 0.000146552 0.0065276 0.198768 -0.50736 -0.514141 -0.117488 -0.419302 -0.233069 0.501839 -0.384327 0.0375677 -0.248877 0.0470587 0.329009 -0.0699964 0.518729 -0.397822 -0.10225 -0.00943538 -0.101696 0.000184105 0.298838 0 -0.3 -0.4 0.2 0.5 -0.399917 -0.399853 -0.207734 -0.210871 -0.0112223 0.185949 -0.512787 0.180709 -0.013946 -0.481787 -0.366838 -0.44988 -0.352986 -0.470897 0.0208994 0.2243 0.106829 -0.00594904 -0.315445 0.386251 -0.00169638 0.400184 -0.101162 -0.4 -0.4 -0.1 0.2 0.5 0.3 -0.399853 -0.109346 0.189091 -0.409155 0.180424 -0.0211396 -0.209834 0.512129 -0.36834 0.0456736 0.0533394 0.543569 -0.167669 -0.478786 -0.282253 0.407642 -0.413581 -0.0120532 0.0864718 0.193739 -0.402653 0.2 0 0.3 0.2 0 0.5 -0.5 -0.201636 0.0905715 -0.516197 -0.517066 -0.318716 -0.317991 0.518555 0.0275554 -0.0590655 0.0508438 -0.144557 -0.36626 -0.0685458 0.115174 0.00604607 -0.397092 0.284494 -0.0139047 -0.0128848 -0.104262 -0.000589993 0 -0.1 0.1 0.5 -0.2 -0.4 0.2 -0.202718 -0.0111009 0.282559 0.282562 0.471365 -0.501267 -0.372624 0.130187 0.152241 0.157389 0.44764 0.328048 -0.279576 -0.0887944 0.106398 -0.301689 -0.311431 -0.410678 0.0938452 -0.50079 -0.000768933 0.4 0 -0.2 -0.3 0 0.4 -0.5 -0.201636 0.288656 -0.0243245 -0.221374 -0.226316 0.408156 0.325994 -0.156614 -0.245431 0.152869 -0.159311 -0.0877391 -0.289679 -0.0944954 -0.194325 -0.00620061 0.489278 0.495358 -0.106564 -0.30079 -0.000589993 -0.5 0 0.5 -0.4 0.4 0.4 -0.2 -0.201701 -0.411032 0.389191 0.369501 -0.0256936 -0.0934953 -0.271775 0.343373 -0.25318 0.240452 0.0151781 -0.380065 -0.395575 -0.291616 0.392175 -0.507968 -0.10096 -0.302923 -0.305046 0.500877 0.302568 -0.1 0.5 0.5 -0.5 0.2 -0.5 -0.2 -0.00170104 0.495919 0.0891915 0.277841 0.302154 -0.187828 -0.451528 -0.256955 0.0518942 0.341543 0.110213 0.513399 0.00353734 -0.0920784 -1.9148e-05 0.493093 -0.00630163 -0.305247 -0.105345 0.400897 -0.0974321 0.4 0.1 -0.5 0.1 0 0 -0.2 -0.201701 0.499994 -0.407725 0.481319 0.518966 0.1391 -0.452986 -0.170084 0.520736 0.317019 -0.291048 0.51542 0.00394925 -0.298307 -0.00112685 -0.10614 0.0950409 0.0946549 -0.100468 -0.0999837 0.1 -0.3 0 -0.5 0.1 0.3 0.2 0.5 0.498718 0.197458 -0.510631 0.288554 0.0275209 -0.368089 -0.367923 0.0225123 -0.49255 -0.406224 -0.488536 -0.278396 0.317818 0.315664 0.00320693 0.498352 -0.198976 -0.201523 -0.101523 1.62516e-05 0.1 -0.5 -0.1 -0.2 0.5 0.3 0.1 -0.4 0.498783 -0.501217 0.0963759 0.309507 -0.17972 0.322444 -0.174054 -0.089491 -0.397103 -0.390384 -0.379217 0.118128 -0.483526 -0.490521 0.196612 0.497173 -0.301473 0.298527 -0.501473 -0.199984 -0.3 -0.4 -0.1 0.4 -0.5 0.1 0 0.3 -0.5 0.2 -0.391195 -0.477878 0.318102 0.514236 0.102293 -0.503925 0.311572 0.5128 0.213105 -0.0855452 -0.0879527 0.00785092 0.297084 -0.50149 -0.00148952 0 0.4 -0.4 0.5 -0.2 -0.3 0.5 0.4 -0.2 0.4 -0.3 0.2 -0.394962 -0.0775406 -0.278039 -0.0800906 -0.0851716 -0.00118071 0.498635 0.116031 0.316031 0.0163468 0.415944 0.504186 -9.95883e-06 -9.95883e-06 0 0 0.3 -0.3 0.2 0.4 0.2 0.2 -0.2 -0.5 -0.2 0 0.5 -0.1 -0.0920936 0.0215604 -0.0784396 -0.086346 0.4 -0.2 -0.1 0.3 -0.1 -0.1 0 0.3 0.4 -0.3 0 0.1 0.3 -0.5 0.4 -0.4 0 0.2 -0.3 -0.248727 
0 0.1 0.2 0.5 0.1 0 0 0 -0.4 -0.3 -0.4 -0.4 0.3 0.2 0.1 0 -0.5 0.3 -0.4 0.4 0.4 0.4 0.3 0.3 -0.5 0.4 0.3 0.2 0 0.5 -0.5 0.4 0.4 0.4 0.4 0.4 -0.4 0.3 -0.2 0 0.3 0 -0.3 0 0.3 -0.5 0.3 0.5 -0.2 0 0.1 0.5 -0.5 -0.4 0 0.3 -0.3 -0.2 -0.2 0.5 0 0.5 0 0.1 0.3 -0.1 0.5 0.3 0.5 0 -0.000119995 -0.500717 -0.299262 -0.000782068 -0.201476 -0.204119 0.39848 -0.5 0.2 0.3 -0.1 0.2 0 -0.5 0.3 -0.1 -0.5 0.2 0.2 -0.5 0.2 0 0.2 -0.5 0.205002 0.00500154 -0.394998 0.409742 0.509361 0.209056 0.101834 0.0942336 0.19602 -0.00600336 0.49848 0 0 0.4 0 -0.5 0.5 -0.1 -0.5 0.5 -0.2 0.3 -0.2 -0.2 0.1 0.1 0.4 -0.0949985 0.399581 -0.500062 0.402457 -0.194587 0.00271019 -0.209062 0.490591 0.29029 -0.00715159 0.091795 0.294803 5.9591e-05 0.104091 -0.395909 -0.1 0 -0.1 -0.3 0.4 -0.1 -0.4 0.305037 0.405037 0.305038 0.197465 0.397465 0.297406 0.398756 -0.205933 -0.00505732 -0.490556 0.20634 0.188358 -0.22798 0.184543 0.0862957 -0.00632378 0.393396 0.0187958 0.419751 0.0208607 0.109927 0 -0.5 0.4 -0.1 -0.2 0 0.2 0.403613 0.417616 0.317616 0.387678 -0.411857 -0.513671 -0.0118204 -0.00988238 -0.00859959 -0.205985 -0.116847 -0.222014 -0.231832 -0.0313859 0.18355 -0.513475 -0.299419 -0.484451 0.420366 -0.372512 0.417934 -0.291993 0.498 -0.1 0 0.4 0.3 -0.3 -0.496578 0.0174252 0.0194811 -0.502164 0.386809 0.181491 0.492903 0.29505 0.20062 0.39117 -0.5118 0.084982 0.18291 -0.428133 -0.00466303 -0.193005 0.418727 0.429578 -0.281561 -0.274574 0.507789 -0.196335 0.193657 -0.4 0.3 -0.3 -0.5 0.3 0.000935153 -0.185062 0.419503 0.404759 0.490445 0.0830375 0.297383 0.405175 0.405202 -0.308329 0.396713 -0.409967 -0.0236687 -0.121225 -0.203774 0.401133 0.320929 0.0262978 -0.289056 -0.0923421 0.109826 -0.206343 -0.106343 -0.3 -0.4 0.3 -0.00300412 -0.2 0.505086 0.0190895 -0.467134 0.308653 0.29957 -0.100273 0.21199 0.0233961 0.00703466 0.305689 -0.0929518 0.498794 -0.124413 -0.00725845 -0.20647 0.51224 -0.365358 -0.176689 0.00677454 -0.403037 0.00767106 -0.104343 -0.204418 -0.1 0.5 0.2 -0.203004 -0.2 -0.480911 0.219089 -0.0720268 0.00293112 -0.500223 0.403561 -0.275676 0.398898 0.406508 -0.0962961 0.195064 0.488789 0.190669 -0.500359 0.212782 0.0226178 0.0371088 0.122357 0.0121765 -0.209711 -0.00383975 0.0955821 -0.5 0.1 -0.1 0.5 0 0.2 0.114003 -0.276301 -0.181853 -0.297527 0.505495 0.521844 0.321928 -0.203528 -0.00775761 -0.306255 -0.499424 0.383075 -0.494578 -0.0912082 0.0249758 -0.150477 0.0332259 -0.0756754 0.415487 0.298248 0.000327093 0.0958306 -0.2 -0.5 0.3 0.3 0.2 -0.1 -0.185997 0.116126 0.118126 -0.00223659 -0.190584 -0.379707 0.311334 -0.107488 -0.105802 -0.416678 -0.00142679 -0.0978518 -0.479907 0.207809 0.32288 -0.0524882 0.239695 0.418573 -0.284088 0.490978 -0.11372 -0.104169 0.2 -0.3 0 0.3 0.1 0 -0.285997 0.316126 0.318126 0.206429 -0.284579 -0.0803878 0.307842 0.191363 -0.102603 -0.0992647 0.0013622 0.00358182 0.528131 -0.264338 0.230747 -0.0779122 -0.0710368 0.118087 0.499701 0.192983 0.288403 -0.404169 0.1 0.3 0.2 -0.5 0.2 -0.5 -0.285997 0.516126 -0.0766668 0.00259068 0.121019 -0.375133 0.128284 0.216542 0.503038 -0.48789 0.527967 0.226138 -0.44706 -0.150394 -0.467302 -0.365451 0.53244 0.305753 0.483762 -0.00477456 0.390646 0.298074 0.100738 -0.2 0.4 -0.5 0.2 -0.3 -0.0859972 -0.283874 0.22099 -0.377388 -0.457342 -0.45587 0.430802 -0.264347 0.222588 0.0370928 -0.456854 -0.048889 0.250827 0.0446472 0.443535 0.0396649 -0.0751538 -0.111792 -0.00984784 -0.511498 0.190646 0.198074 0.200738 0 0.3 -0.5 -0.2 0.3 0.3 -0.483874 -0.38239 -0.372961 0.0364951 -0.0589581 0.0342636 0.238842 0.0315924 -0.376546 0.242996 0.238592 0.13981 -0.469725 0.0426079 0.426063 -0.292701 -0.211031 -0.0195387 0.284367 0.0936372 0.196568 0 -0.5 0.2 -0.5 0.5 0 -0.1 -0.200003 -0.496393 0.0117691 0.1169 0.0116658 -0.391208 -0.280432 -0.475968 0.236579 -0.0670198 -0.0639933 -0.181293 0.332938 0.0333389 0.00954472 -0.506677 -0.415828 -0.519183 0.287177 -0.409427 -0.00437284 0.2 0.1 -0.2 -0.2 -0.2 0.2 0.4 -0.500591 0.498808 0.103049 -0.496922 -0.00599353 0.0953339 -0.504111 -0.0955606 0.319376 0.0313072 0.138153 0.540173 -0.0698406 -0.282466 -0.293785 0.392896 -0.212109 0.291689 0.490803 0.491906 -0.403908 -0.2 0.4 0 0.5 0.2 0.4 0.1 -0.500003 -0.00285036 -0.307054 -0.0092134 -0.423623 -0.524634 -0.316943 -0.399077 -0.373751 -0.276724 0.425454 0.00831059 -0.0934731 -0.297121 -0.106529 -0.211821 -0.00227869 0.298492 -0.112778 -0.00809355 -0.404373 0.1 -0.3 -0.3 0 0.1 -0.2 0 -0.102074 0.494454 0.0907787 -0.415802 -0.429378 0.163775 -0.527935 0.208759 0.413406 -0.289978 -0.283013 0.396041 -0.305574 0.393515 -0.199346 -0.399335 -0.0949349 -0.302552 0.505553 -0.505233 -0.0973431 0 -0.5 0.1 0.4 0.1 -0.1 0 -0.00207429 -0.103232 0.192963 -0.319274 -0.527334 0.267091 0.279533 0.496655 -0.0971239 -0.198595 0.29885 -0.218095 -0.31952 0.397835 0.399777 0.00876632 -0.0102667 -0.407346 0.300552 -0.301048 0.502657 0.4 0.4 -0.3 -0.2 -0.3 -0.4 0.5 -0.00207429 -0.403871 0.195899 -0.40951 0.17069 0.184906 -0.101835 -0.49336 0.101461 -0.408251 -0.0147541 -0.0185284 0.0736988 -0.0139657 0.0140477 -0.395647 0.198016 0.000552036 -0.299549 0.1 0.4 0.3 -0.5 -0.3 0 -0.2 -0.3 -0.1 -0.50043 -0.101059 -0.204023 -0.107035 -0.510116 -0.207093 -0.295581 -0.0987075 -0.308463 0.377295 -0.332492 -0.0180871 -0.0241539 0.304552 0.103296 0.512102 0.204621 0.106149 0.106149 0.1 0.5 -0.1 0.5 0.5 0.3 -0.3 0 0 -0.198359 -0.298359 -0.401647 0.200536 0.402666 -0.180562 -0.182653 0.502889 -0.319568 -0.21983 0.484516 -0.302363 0.0940468 0.516075 0.010639 0.00530091 0.498576 -0.301424 -0.301424 -0.0999995 -0.5 -0.4 -0.3 0 -0.1 0.3 0.4 0.3 -0.1 0.4 -0.498112 -0.497532 0.0157903 0.527888 0.232505 0.110132 -0.205117 0.39306 -0.00910536 -0.0016443 -0.304642 0.295168 -0.004853 0.198575 -0.00142454 0.4 0.3 0 0.4 0.4 0.4 -0.5 0.1 -0.4 -0.5 0 0 0.50176 -0.197498 -0.396509 0.0107027 -0.490179 -0.393589 -0.293898 0.302049 0.00204863 0.300219 -0.40022 0.399854 0.399664 0.499664 0.2 0 0.2 -0.1 -0.4 0 -0.3 0 0.5 0.4 -0.2 -0.5 0.1 -0.3 -0.501404 0.199211 0.499211 0.200614 0.5 -0.3 -0.3 -0.4 0.5 -0.2 0.1 0 -0.1 -0.3 0 0 0.4 0 0.3 0.2 0.1 -0.2 0 0.0244636 
-0.3 -0.2 0.3 0.5 -0.5 0 -0.3 0.3 0.5 -0.4 0.1 0.4 -0.3 0.5 -0.3 0 0.3 0.1 0 0.3 -0.3 -0.3 0 0.1 0 -0.3 -0.3 -0.2 0 0.5 -0.4 -0.5 0 0.5 0.3 -0.4 0 -0.5 0.3 0.3 -0.3 0.3 0.4 -0.2 0.5 -0.3 -0.5 0.2 -0.1 0.5 0.5 0 -0.2 0.2 0.4 -0.1 0 0.4 0 0 -0.4 -0.1 -0.1 -0.2 0.1 0.2 0.3 -0.2 0.1 0.4 -0.506468 -0.510692 -0.0138994 0.0863161 0.0853731 -0.307849 0.000215533 0.3 0.2 -0.4 -0.5 -0.2 0 0.3 -0.4 -0.4 -0.2 0.1 0 0 0 0 0.4 -0.4 0.0999729 -0.200027 -2.70995e-05 0.0958056 -0.0115401 0.0847545 0.0821172 -0.32592 0.0820507 0.38957 -0.299784 0 -0.1 -0.1 0 0.4 -0.5 0.4 -0.2 -0.5 0.4 0.2 -0.1 -0.5 -0.2 0.2 -0.1 -0.200027 7.06632e-05 -0.299132 0.504533 -0.406822 0.292281 0.0805739 -0.323237 0.282703 -0.210393 -0.300291 0.501307 0.499978 -0.404016 -0.00401643 -0.2 0.1 0.1 -0.3 -0.2 -0.3 0.1 -0.0993245 0.100675 -0.197547 0.401909 -0.398091 -0.498017 -0.198864 0.203337 0.509961 -0.198768 -0.498806 0.395421 0.0818243 0.487548 0.193638 0.502716 0.105689 -0.0974874 -0.502605 -0.00450566 -0.103181 -0.2 -0.5 0.4 -0.1 0.2 -0.4 0.5 -0.392872 -0.190402 -0.290402 -0.291502 0.00849805 0.507592 -0.0862034 0.0146948 0.114988 0.204419 0.509162 0.0947928 0.189838 -0.510977 -0.0995376 0.0102189 0.209869 0.3003 -0.202023 0.193826 -0.00488834 -0.00170686 -0.299505 0 0.5 0 0 0.2 0.102819 0.105288 -0.297062 0.502265 -0.00856186 0.391537 0.400747 0.299568 -0.0126178 -0.107185 -0.526074 -0.517765 0.276108 -0.0202596 -0.305431 -0.403771 -0.0979989 0.00286147 0.497069 -0.106214 0.297677 -0.00609692 -0.203895 -0.1 0.4 0.3 0.2 0 -0.296329 -0.0938589 -0.206497 -0.4082 -0.414446 0.291615 0.500102 -0.00411199 0.480824 0.463241 -0.238379 0.46344 0.373482 0.176579 0.387588 -0.0192309 0.179822 -0.518539 0.390352 -0.107844 0.298769 0.196105 0.396105 0.2 -0.1 -0.5 -0.301911 0.1 -0.298604 0.203866 -0.514137 0.48764 -0.511974 0.482495 -0.513113 0.282331 0.174381 0.360115 -0.0340342 0.272357 -0.121122 -0.0111956 0.487778 -0.0159063 -0.0165768 0.0827174 -0.421339 -0.209486 -0.303065 -0.40439 -0.501923 -0.3 -0.5 0.3 0.398089 0.1 0.302089 0.202089 0.387326 0.18927 0.386962 -0.513415 -0.0163725 -0.524581 -0.0389764 -0.341122 -0.333847 0.172269 -0.00894734 -0.219448 -0.315277 0.0725501 0.375379 -0.425019 0.181942 0.193928 -0.00183122 -0.301923 0 0 0.2 -0.3 -0.4 -0.3 0.200693 0.500102 -0.209894 0.191872 0.180338 -0.0235637 0.481224 0.360747 -0.135112 -0.129918 -0.023641 0.295971 0.295829 0.507818 -0.122236 0.166377 -0.03008 -0.428216 0.379633 -0.00587793 0.500541 0.200138 0 0.5 -0.4 0.4 0 0 0.300693 -0.100442 0.499541 -0.319207 0.0822153 -0.0135702 -0.0145417 -0.137572 -0.5438 -0.527894 0.489277 0.295227 -0.108318 0.475582 -0.527916 -0.132389 -0.0308387 -0.534961 0.181145 -0.405164 -0.299224 0.400138 -0.5 -0.1 0 0.3 0.1 0.5 0.000692511 -0.100442 0.399541 -0.111651 -0.00190098 0.288537 0.461521 -0.439423 0.263323 -0.0333037 0.0136931 -0.00394763 0.282571 -0.231722 0.0678237 -0.0371653 0.271262 -0.0275058 -0.523672 -0.399014 -0.300358 -0.299862 -0.4 -0.5 0.4 -0.5 0.2 0 0.000692511 -0.200442 -0.102076 -0.105628 0.300589 -0.0932524 -0.0198397 0.282291 0.270415 0.0883392 0.184557 0.386652 0.170463 -0.238647 0.353868 -0.0270588 0.271962 -0.321334 0.368411 -0.400113 -0.39968 0.100817 -0.196046 0.1 0 0.5 0.4 0 0.200693 0.0995581 0.499555 -0.197678 0.205197 0.289586 0.28437 -0.521775 -0.524467 0.378784 -0.0203157 -0.527075 -0.526015 0.470075 -0.0251836 -0.0135632 0.174767 -0.116891 -0.513963 0.00287961 -0.0996799 -0.399183 0.203954 -0.4 0 0.5 0 0.3 -0.1 -0.500442 -0.300174 0.499101 -0.498722 0.0876179 -0.0215423 -0.422665 -0.217997 0.186875 0.288271 0.165017 -0.43324 0.165645 0.172046 -0.414803 -0.222795 -0.00950559 -0.105008 0.509582 0.00399841 0.304092 0.5 -0.4 -0.1 0.1 0 0 0.2 0.300253 -0.000866802 0.000119319 0.400327 0.381043 0.179966 -0.319888 -0.120333 0.485206 0.365239 -0.331902 -0.536584 0.160187 -0.0286682 -0.0257361 0.0837215 -0.310814 -0.197621 -0.191489 0.501845 0.200804 0.5 -0.1 0.4 0 0.2 -0.5 -0.5 0.10026 0.49958 -0.398967 -0.000539767 -0.214219 0.174957 -0.024545 0.379099 -0.230264 -0.0336973 -0.541718 0.048246 -0.240595 -0.0351138 0.0722289 -0.417951 0.295916 -0.0950895 0.307333 -0.0988345 -0.0991954 0.3 -0.2 -0.2 0.2 -0.3 -0.1 0.4 0.400253 0.000715203 -0.192603 0.502631 -0.513334 0.271506 0.268557 -0.450864 0.458889 -0.329402 -0.345926 0.26378 -0.530975 0.468108 0.174936 -0.210991 0.211504 0.30728 0.407465 0.501166 -0.399196 -0.2 0 0.1 -0.5 -0.4 0.3 0 0.500256 0.000272406 -0.191565 0.00391637 0.095221 -0.0240346 0.159394 0.454959 0.0717675 -0.436683 -0.532087 -0.0359301 -0.033215 0.472493 -0.10643 -0.105416 0.407394 0.307477 -0.492714 -0.0994004 0.3001 0.2 -0.4 0.3 -0.5 0 -0.3 0.4 -0.199744 -0.500626 -0.291431 0.107604 -0.397983 0.389748 -0.0312672 0.173849 -0.0193602 -0.0368933 0.174224 -0.534975 0.0729456 -0.511581 0.302996 -0.496834 -0.191621 0.00924682 -0.0909092 -0.499761 -0.2999 -0.3 -0.1 -0.2 -0.5 0.1 0 0.2 -0.0997444 -0.299491 0.20155 0.110023 0.306087 -0.00331718 -0.00111719 -0.297544 0.00706221 0.500388 0.092686 0.481188 -0.406207 -0.0941645 0.306275 -0.0968136 -0.190777 0.109091 0.309372 -0.398223 0.2 0.2 -0.5 -0.1 0.2 0.4 0 -0.4 -0.200039 -0.300232 -0.000175331 -0.29631 0.497826 0.197668 0.499849 -0.390725 0.102351 0.302746 -0.203672 0.291006 -0.000639904 -0.500312 0.0108595 0.208926 -0.490766 -0.491227 0.00877303 0.00177741 0.4 -0.2 0 -0.4 -0.5 -0.4 -0.1 -0.1 -0.400042 -4.17685e-05 -0.300225 0.388665 0.388491 -0.00233161 0.300463 0.00147357 -0.000435426 -0.304001 0.397838 -0.102198 -0.409264 0.0977667 -0.290274 0.507866 0.10823 -0.29177 0.00822953 -0.498223 0.2 -0.2 -0.4 -0.4 0 0 0.3 0.1 0.2 0.3 -0.100787 0.292278 0.192812 0.0952044 0.298548 0.399691 -0.315206 0.188549 0.486298 -0.410854 -0.509532 -0.505196 0.104239 -0.193548 -0.493548 0.4 0 0.3 0.4 0 0 0.1 -0.3 0.3 0.1 0 0.1 -0.00044188 0.192288 -0.306652 0.49283 -0.00486789 -0.496546 0.00657124 0.283183 0.383183 -0.318272 -0.317306 0.494868 -0.000795847 0.199204 0.2 -0.2 -0.3 0 0.4 -0.4 -0.2 0 0.3 0.5 -0.3 0.5 0 0.1 0.0993012 -0.307624 -0.307624 -0.206925 0.1 0.3 0.5 -0.3 0.4 0 0.5 -0.1 -0.5 0.1 -0.1 0.2 0.4 -0.1 -0.2 0.5 -0.4 0.5 0.5 -0.0385805 
0.4 0.4 -0.2 -0.2 -0.4 0.3 -0.4 -0.5 0 0.5 0.2 -0.1 -0.3 -0.3 -0.1 -0.5 -0.5 -0.3 0 -0.1 0.5 0.1 0.3 0.2 -0.1 0.1 -0.3 0.2 0.1 -0.5 -0.4 0.4 0.3 -0.3 0.3 0 0.4 0.4 -0.2 -0.2 -0.1 -0.5 0.4 -0.2 -0.3 0 -0.2 -0.3 0.2 -0.2 -0.3 0 0 0.1 -0.1 0.2 0.5 -0.4 -0.5 -0.1 0.5 -0.3 0 -0.1 0 -0.4 -0.2 0.3 0.5 -0.1 0.296687 0.49656 0.296595 -0.203439 -0.00242009 -0.202182 -3.35264e-05 0.5 -0.3 0 -0.2 0.4 0.5 0.2 0.1 0 0.4 -0.2 -0.1 0.2 -0.5 0.5 0.2 0.3 -0.201882 -0.00188206 0.498118 -0.400673 0.0960467 -0.403928 0.294249 -0.206017 -0.202927 -0.00266835 -0.100034 0.3 0.5 0.2 -0.4 -0.5 0 -0.1 0.2 -0.2 -0.4 -0.1 -0.4 0 0.2 -0.4 -0.5 -0.501882 0.0996625 0.401261 -0.493879 -0.0940743 0.408784 0.395829 -0.00899751 0.406911 0.509198 0.406811 -0.296786 0.199339 -0.499741 0.400259 -0.3 0.3 0.4 -0.5 0 0.3 -0.1 0.011581 0.011581 0.308078 -0.203448 -0.103448 -0.00236359 -0.101722 -0.499687 0.408961 0.197557 0.394964 0.48446 -0.124505 0.489743 -0.49833 0.220289 -0.478187 0.105107 -0.0120196 0.38946 -0.212925 0 -0.2 -0.1 0.5 -0.4 -0.1 0.4 0.0188358 -0.382794 -0.182794 0.403607 -0.0964847 0.00404097 -0.0834542 -0.390509 -0.0929903 0.097357 -0.513146 0.182433 0.375948 0.484232 -0.18709 -0.379528 0.425349 0.11146 0.0950717 -0.409487 0.0894535 0.102378 0.100084 -0.2 -0.5 -0.4 0.3 0.2 -0.481008 -0.282637 0.0156199 -0.174691 -0.00300432 -0.300226 -0.489777 -0.0916534 0.0913175 0.372263 -0.528298 0.161549 0.0713258 -0.0179943 -0.293433 0.21284 0.520701 -0.113389 -0.104518 -0.115117 -0.512038 0.388633 0.0863386 -0.4 -0.3 0.4 0.1 0.2 0.424988 0.523359 0.0100468 0.121918 -0.298273 -0.211606 0.404328 -0.300405 -0.410677 -0.141201 -0.43009 -0.427555 -0.425709 0.0953674 0.0295205 -0.487843 -0.300424 -0.223922 -0.520274 -0.0136014 0.30051 0.486339 -0.413661 0.3 0.4 0.3 -0.00121704 0.2 0.217522 -0.484108 -0.491341 0.4121 0.115985 0.39644 -0.0112856 0.4872 -0.538517 0.0681986 -0.0280843 0.281748 0.00503997 0.322397 0.0133394 -0.191537 -0.399056 -0.413785 -0.422587 -0.0126884 -0.40116 0.186255 -0.0106117 -0.2 -0.5 0 -0.101217 -0.4 0.0193954 -0.180605 0.217506 -0.288316 0.214442 -0.390835 0.49355 0.390532 0.372157 0.475821 0.47738 -0.206778 0.319976 0.53018 0.417823 -0.40257 -0.000175087 -0.223288 0.179012 0.0911849 0.498451 -0.310612 -0.3 -0.5 -0.3 0.1 0.1 -0.2 0.401874 -0.282776 0.111202 -0.18267 0.0063718 0.214562 0.417618 -0.289905 0.367295 0.47721 -0.301504 0.0109009 0.433188 0.0419671 -0.287104 0.393691 -0.503283 -0.503176 -0.0087129 0.00464579 -0.489577 0.299903 0.3 0.2 0 -0.2 -0.1 0.1 -0.0981263 -0.394302 0.516775 0.312173 -0.0862476 0.514309 0.111629 -0.288427 -0.510798 0.0788195 0.123509 -0.0774896 -0.158728 -0.0724949 -0.27589 0.202302 0.00359386 0.0977107 -0.10308 -0.199674 0.304003 -9.69404e-05 -0.5 -0.2 -0.2 -0.5 -0.4 -0.2 0.00187366 -0.494302 0.416775 -0.0770255 0.321249 0.52126 0.315158 0.303552 -0.192377 -0.401688 -0.280135 0.218646 -0.0864117 0.208141 -0.499056 0.101525 -0.386887 0.121263 0.310325 0.214438 0.307827 -0.100097 0.3 0.5 -0.3 -0.5 0.1 -0.3 0.501874 -0.294302 0.421177 0.430042 0.220865 -0.159791 0.0270538 0.414055 -0.504305 -0.482777 -0.0758853 -0.377637 0.0195449 -0.0811243 0.0922595 0.0136433 0.0287436 0.527356 0.00283413 0.0110287 0.000914551 0.39299 0.399053 0.5 -0.3 -0.2 0.2 -0.5 0.201874 0.405698 0.0208553 -0.3627 0.132598 -0.159286 -0.381898 0.420288 0.0249796 -0.0668459 0.134835 0.0124532 -0.0837281 0.510177 -0.0901915 0.223594 0.0209995 0.111518 -0.283103 -0.483315 0.400915 -0.00700965 -0.00094688 0.3 -0.3 0.1 -0.4 0 0 -0.0943019 0.010972 -0.261791 0.225226 -0.0698869 0.0167191 0.00699047 -0.480602 0.313608 0.0294318 0.228283 0.00962301 0.499218 -0.105826 -0.288933 -0.189213 0.112495 0.00708384 0.113275 0.5174 0.298956 0.5 -0.1 0.5 0 0.3 0 -0.2 -0.399877 0.409098 -0.287669 0.212701 0.509558 0.508367 0.00917393 0.413502 0.00870591 0.297533 -0.00659812 0.386392 0.384996 -0.505689 0.00873482 -0.0937584 -0.295764 -0.183855 -0.18529 0.110559 -0.204061 0.5 0.1 -0.2 -0.5 -0.1 0.3 -0.2 0.39887 -0.204068 0.293865 0.0961667 0.103197 0.296811 0.00339914 -0.206151 -0.114889 -0.303791 0.47518 -0.433229 0.178067 -0.00831162 0.40381 0.00485907 0.406167 0.427391 -0.386084 0.399365 0.195848 -0.3 0.2 0.1 0.5 0 0.2 0.5 -0.0998771 -0.307984 -0.0206953 -0.321396 -0.122052 0.17922 -0.00426351 -0.012301 0.372072 -0.0171778 0.464517 0.165402 -0.51371 -0.2975 -0.288987 0.418895 -0.366748 -0.374358 0.215072 0.0993645 0.195939 0.2 0.2 0 0.1 0.3 -0.2 0 -0.399866 -0.109331 0.18077 -0.315962 0.0812068 -0.420153 -0.334865 0.282458 -0.22059 -0.339577 0.455954 -0.131257 -0.204736 0.208201 0.52326 0.426651 0.330816 -0.372403 -0.171709 -0.498428 -0.00175595 0.3 0 0.5 0.4 -0.4 -0.4 0 0.100134 0.290199 -0.222663 -0.314287 0.170616 -0.334695 0.377813 -0.0272076 0.281245 -0.0325303 -0.512481 0.479638 -0.509618 -0.289001 -0.0612606 -0.174872 0.425976 -0.0728149 0.42667 0.398055 0.0982441 0.2 -0.3 0.4 0.3 0.1 0 0.4 -0.0998659 -0.106423 0.278316 -0.520257 -0.02472 0.285974 0.0842517 -0.00232822 0.000901703 0.181579 -0.310891 0.488108 0.00234177 0.122146 -0.359249 0.428263 -0.473275 -0.17333 0.0169419 -0.103503 0.1 -0.2 0.3 0.5 -0.3 -0.2 0.3 -0.2 -0.514926 -0.0161602 -0.217396 -0.016685 -0.21346 0.214328 -0.49365 -0.28766 -0.419495 0.0806422 -0.387885 0.0135253 -0.497556 0.12011 0.131527 0.22779 0.0170388 0.115278 0.515278 0.496497 0 -0.3 0.1 0.5 0 0.3 -0.5 0 0.385063 0.0850632 -0.0174133 -0.222112 0.282158 0.00157656 -0.10546 -0.310708 0.486133 0.0024697 0.199967 -0.0916357 -0.097487 0.417189 0.428858 0.107634 0.00375184 0.303752 0.303752 -0.403503 0.5 0.1 0.2 0 -0.4 0.3 -0.1 0 -0.3 0.1 -0.20187 0.495435 -0.195444 0.108425 -0.399604 0.388717 -0.211151 -0.0997773 0.403574 0.498623 -0.000336305 0.499524 0.105097 -0.492745 0.307255 0.3 0.5 0.1 0 0.3 0 -0.5 0 -0.1 0.5 -0.3 -0.5 0.499543 0.195685 0.395339 -0.100409 -0.301643 0.0876944 0.491604 0.487915 0.387915 -0.108085 0.391368 0.49949 0.39935 0.49935 -0.5 0.2 -0.3 0.1 -0.5 0.5 0 0.3 0 0.4 -0.4 0.3 0 0 0.199648 -0.202798 -0.202798 0.397555 0 0.4 0 0 -0.2 0.3 0.2 -0.1 0.5 0.3 -0.2 0 0.1 0.4 -0.4 0 0 0.1 -0.4 0.416996 
0.2 -0.4 0 0.5 0 0.3 -0.1 -0.3 0.1 -0.3 -0.2 -0.1 0.2 -0.1 0.1 -0.4 -0.4 0.5 0 0.1 -0.2 0 0.4 -0.4 -0.5 0.3 -0.5 0.1 -0.5 -0.1 0.4 -0.1 0 -0.4 0.3 -0.3 0.1 -0.4 -0.5 0.3 0 0.1 0.2 0.1 0.1 -0.2 0.4 0.5 0.3 -0.1 0 0.4 -0.4 0.5 -0.1 0.5 0 0.5 0 -0.2 0.4 -0.4 0.1 -0.5 0.4 0.2 0 -0.3 0.5 0.5 0.19946 -0.00112805 0.198556 -0.100562 -0.200613 -0.100008 0.000882207 -0.1 0 0.1 0.2 0 0.1 -0.5 0.4 0.1 0.1 -0.5 -0.2 0.4 -0.5 -0.1 0.2 0.3 0.399835 -0.400165 0.499835 0.499301 -0.00142105 0.000167197 0.396652 -0.204073 -0.403945 -0.103469 -0.299118 -0.2 -0.3 -0.1 0 0 0.1 0.1 0.1 0.4 0 -0.3 0.4 -0.2 -0.5 0 0.4 0.299835 -0.0944422 0.504245 -0.0835005 -0.189007 0.1167 -0.0743922 0.52459 -0.469217 -0.376889 0.10878 -0.397305 -0.209424 -0.21013 0.0898696 0 0 -0.3 -0.5 0.2 -0.5 0.2 0.00664008 -0.29336 0.410063 0.410792 -0.0892081 0.312002 -0.0778316 -0.0749429 -0.366694 0.0235239 0.0177366 -0.175322 0.0393819 -0.363142 -0.459258 0.149762 -0.275195 0.29598 -0.232575 0.467657 -0.0243814 0.2 0.5 -0.1 0.2 -0.1 -0.2 -0.4 0.0067294 -0.294588 -0.494588 0.3198 -0.0775942 0.0268834 -0.367173 -0.463455 -0.468211 -0.478811 -0.0819286 0.522882 -0.464809 0.232156 -0.458729 -0.164587 0.214476 -0.114439 -0.0311825 0.362717 -0.138026 -0.213645 -0.399933 -0.4 0.5 -0.1 0.1 0.5 0.214189 0.0128719 -0.0865009 0.522716 -0.269546 -0.363631 -0.267415 -0.175581 0.197466 -0.391104 0.218688 0.0122015 -0.176584 -0.0322679 -0.455381 0.0207403 -0.098368 0.0803541 0.361292 0.0507188 -0.528011 -0.122665 -0.00895302 -0.5 0.4 -0.5 -0.2 -0.4 0.11389 0.312573 0.514107 -0.375951 0.134148 0.0298687 -0.275551 -0.300413 -0.219802 0.198005 -0.500585 -0.481698 0.142389 0.361939 -0.12964 -0.0632955 -0.29015 0.300737 0.396463 -0.43045 -0.226177 0.091047 0.091047 0.5 0.2 -0.5 -0.000342108 0.3 -0.501028 0.397655 -0.193716 -0.188032 -0.174425 -0.166714 0.508754 0.30366 -0.299316 0.506303 0.00527315 0.431881 0.569932 0.0488005 0.049053 -0.272738 -0.398972 0.410039 0.507964 0.102237 -0.323095 -0.50902 0.199985 -0.4 -0.3 -0.5 -0.000342108 0.2 -0.305768 0.494232 -0.00033235 -0.39357 0.319817 0.0204756 0.222325 0.00362419 0.0972043 0.0105923 -0.193851 0.0559701 0.485855 -0.172751 0.32579 0.512245 -0.100011 -0.196375 0.0186755 -0.0667046 -0.105852 -0.500015 0.4 -0.2 -0.1 0.2 -0.5 0.1 -0.40474 -0.306617 -0.193231 0.012133 -0.276624 0.0234318 0.0414248 0.0123839 0.00149941 0.297926 0.295113 -0.386121 0.0117051 0.399916 -0.508089 -0.406434 -0.505506 -0.176552 -0.26218 0.0284061 -0.19675 0.20488 0.1 -0.3 -0.1 -0.3 0.4 -0.3 0.39526 -0.505888 -0.193839 -0.165758 -0.368018 0.438614 0.316368 0.292186 -0.209568 -0.52221 -0.210486 -0.00530313 -0.220867 0.352014 0.510621 -0.12548 -0.400474 0.448071 0.0369042 0.432678 0.116 0.40488 0.3 -0.2 -0.1 -0.5 -0.2 -0.5 0.29526 -0.105888 0.00616106 0.0298235 0.0339425 0.038187 0.109992 0.112495 0.262613 -0.557342 0.483857 -0.324136 -0.0226038 0.0489179 -0.226773 0.297044 -0.0940555 0.261759 -0.151494 -0.26797 -0.185148 0.50488 0 0.4 -0.4 -0.1 -0.2 -0.1 0.29526 0.0941121 -0.0936344 -0.46435 0.514166 -0.387246 0.368767 -0.347339 0.0346599 0.147197 0.0456985 0.261452 -0.148479 -0.0444398 -0.0180842 -0.0905017 -0.460732 -0.0444572 0.44836 0.33009 -0.0836647 -0.293637 0.400023 0 0.3 0 0 -0.1 -0.40474 -0.0058879 0.00837002 0.420287 -0.0907894 -0.394414 -0.123288 -0.0640893 -0.0858669 -0.0544795 0.139536 -0.22764 -0.546554 0.0696362 0.179015 0.528307 0.152102 0.3535 -0.369256 -0.468701 -0.183665 -0.193637 -0.199977 0.1 0.4 0.2 -0.5 -0.4 0.3 0.194112 0.00864851 0.412709 0.0306018 -0.0982813 0.372438 0.029672 0.450961 -0.134496 -0.354442 0.0742929 0.152966 0.473251 -0.519075 -0.360625 0.55186 0.0523641 0.0365581 0.433318 0.113245 0.00490361 -0.2 -0.3 -0.2 0.1 0.4 0.2 -0.2 0.000118543 0.0133887 0.0179367 0.12766 0.21572 -0.00712562 0.387656 -0.117249 0.381673 -0.42439 -0.12866 0.243391 0.16379 -0.208779 0.0304153 -0.0423612 -0.154622 0.135965 0.0342664 0.0217678 0.212279 0.2 0.5 -0.4 -0.3 0 0.1 -0.4 -0.298689 0.405348 -0.277994 -0.17199 0.117585 0.00320225 0.0104605 -0.321502 0.484211 -0.01216 -0.552175 -0.25988 0.26647 -0.412909 0.224065 0.455762 0.0399706 0.135084 0.128044 -0.178627 -0.485116 0.4 0.1 0 -0.3 -0.2 0.2 0.2 -0.499881 0.209102 0.410501 0.525395 0.0223284 0.510343 -0.188367 -0.00318321 -0.494626 -0.51858 -0.325552 -0.0182334 0.292515 0.114198 -0.362966 -0.361249 0.0322498 0.228145 0.431732 -0.478627 0.0122786 0.4 0.1 0.1 -0.5 -0.2 0.5 0.1 0.00174725 0.501734 0.322688 -0.383405 -0.185538 0.4338 0.0559664 -0.266049 0.0510301 -0.367596 -0.101895 -0.00328192 -0.401627 0.533553 0.0275902 0.11867 0.0263708 0.129973 0.216005 -0.281743 0.204282 0 0.3 -0.4 0 0 0.3 -0.5 0.501747 0.495235 0.316266 -0.177494 -0.270976 -0.246914 -0.040156 -0.446938 -0.138957 0.327087 -0.493354 -0.374792 0.523726 -0.157566 0.223739 -0.177968 -0.0658863 0.331474 0.519593 0.0117681 0.104282 0 0.2 -0.5 -0.1 0 -0.5 -0.3 0.00174725 -0.493843 0.198393 -0.477741 -0.447976 0.0756431 0.172164 0.54708 0.535467 -0.280707 0.0144862 0.128059 0.139533 -0.457665 0.42252 0.321004 0.326962 0.419593 -0.481565 0.00342291 -0.5 0.5 0.4 0 0.1 0 0.2 -0.4 -0.398387 -0.107265 -0.114701 0.291548 0.226858 0.157841 0.441784 -0.261625 0.0230361 0.112207 0.53107 0.0257591 0.335813 0.21674 -0.0867818 0.0165207 0.113554 -0.497217 0.00278335 0.403423 0.2 0 0.3 -0.1 -0.2 0.5 0 0.3 -1.59148e-05 0.399984 0.393927 0.383422 0.104884 0.00639761 -0.290784 -0.193681 0.20453 0.204981 -0.178155 0.00840896 0.0151311 0.102504 -0.000985815 0.497408 0.00351223 0.00351223 -0.496488 0.303423 -0.5 0 0 0.5 -0.3 -0.4 -0.5 -0.1 0.1 0.2 -0.194436 0.51012 -0.289684 0.00645567 -0.412264 -0.00642585 0.39783 0.48732 -0.107258 0.400878 0.492936 0.490292 -0.510316 0.300089 0.400089 -0.5 0.5 -0.3 -0.3 0 -0.4 0.3 -0.4 0 -0.2 0.3 0.4 0.504922 0.0125449 0.211829 0.513234 0.305839 -0.308128 0.185784 -0.00173039 0.49827 0.206244 -0.499212 0.300092 -0.00255241 0.497448 -0.2 0 0 0.1 0.1 0.4 0.1 0 -0.1 0.3 -0.1 -0.2 0.2 -0.2 0.507898 -0.285121 -0.0851213 -0.393019 -0.4 0 -0.2 0.5 -0.4 -0.3 -0.2 0.2 -0.4 0.1 0.4 -0.4 -0.1 -0.1 0.5 -0.2 -0.1 0 -0.2 -0.195919 
0.4 -0.4 0 0.1 0.5 0 0 0.2 -0.1 0 0.5 0.1 0 -0.1 0 -0.1 -0.1 -0.3 -0.3 -0.1 0.4 -0.1 0.3 0.2 0.3 0.1 0 0.4 0 0 0.5 -0.5 0.2 -0.5 0 0 0.5 0.2 0.4 0 -0.2 0 0.2 0 0.2 0 -0.4 0.5 -0.5 0.1 -0.2 -0.5 -0.1 -0.5 -0.2 -0.5 0.5 -0.1 -0.1 -0.1 -0.4 0 -0.3 -0.2 0.1 -0.3 0 0 0 -0.3 0.0999366 -7.79759e-05 0.499922 -0.500119 -0.500158 -0.000146037 -0.300041 -0.4 -0.4 0.5 0.5 -0.5 0.1 0.4 -0.5 -0.1 0.2 0 -0.5 -0.2 0.3 -0.4 -0.2 0.2 0.498376 -0.201624 -0.00162409 0.00367305 0.403603 0.3036 -0.204533 -0.403014 0.496962 0.0970322 -4.09732e-05 0.5 -0.5 0 -0.1 0.5 0 0.1 0.2 -0.2 0.2 0.1 0.1 0 0 0 0.3 -0.501624 -0.00239669 0.296322 0.390831 -0.00920968 0.295081 -0.307322 -0.507774 -0.50654 -0.504883 0.288355 0.191399 -0.207211 0.205339 -0.394661 0 0 -0.5 0.5 0.3 -0.4 0.3 -0.499665 0.100335 0.0969656 -0.00508131 0.494919 0.493969 -0.0161854 -0.223417 0.282348 -0.00985896 0.388374 -0.419882 -0.5346 -0.227322 0.470204 -0.105724 0.488029 0.394532 0.0989715 0.210428 0.308265 -0.5 -0.5 0 0.5 0.4 -0.1 0.2 -0.100353 0.101112 0.201112 0.181081 -0.323706 -0.0207359 0.0724865 0.175798 -0.0124988 -0.52113 -0.539252 -0.136841 0.0513667 0.461602 -0.0223262 -0.0177403 0.191697 0.00377196 0.0901291 -0.29778 0.504943 -0.203321 0.00234351 0.2 0.4 0.5 -0.3 0.4 -0.193312 -0.391847 -0.086428 0.300145 -0.298451 -0.498814 0.198061 0.106082 -0.0108929 -0.0256827 0.388791 -0.00874988 0.288087 -0.0999544 0.109644 -0.302028 0.503241 -0.511512 0.288363 0.0929796 0.496088 0.0946743 0.200339 0.2 0.5 0 -0.3 0.1 0.106664 -0.29187 -0.379299 0.311292 0.00446067 0.0962317 -0.000119888 -0.0061095 -0.399626 -0.50638 -0.492919 -0.0890698 0.00944353 0.0156045 -0.180232 0.00577832 -0.00223684 -0.307785 -0.113488 -0.0176734 -0.411256 0.300339 0.200339 -0.5 0 0 -0.399584 -0.1 0.102023 0.00348903 0.523379 0.409528 -0.0949605 -0.189582 0.312753 -0.190136 -0.303581 -0.0961534 0.00683109 0.2205 0.517645 0.319714 -0.00075286 0.405635 -0.204041 0.293305 -0.00921073 -0.219809 -0.413323 -0.202004 -0.00206242 0 -0.1 -0.2 -0.199584 -0.5 -0.293142 0.506858 -0.37658 0.309896 0.00917255 0.308766 -0.183293 0.00964279 0.302732 0.0121976 -0.190152 0.0165198 -0.371265 0.209589 0.0954517 -0.297247 -0.105512 -0.401736 0.0889038 -0.404743 -0.206308 0.397938 0 -0.2 -0.3 0.2 0.5 0.5 -0.395165 0.308702 0.113946 0.505908 -0.489121 -0.0803243 0.118917 -0.392576 -0.51613 0.483244 -0.49147 0.00405411 -0.196151 0.495443 -0.210098 0.402531 -0.407787 -0.101495 0.298442 0.106555 -0.101891 0.098053 0.5 -0.3 0 0.4 -0.4 0 0.504835 -0.0933445 0.206817 -0.492208 0.203812 0.414576 -0.38778 0.00120445 -0.497018 -0.0187423 -0.500878 -0.406362 -0.404579 0.0901492 0.29297 0.0109286 -0.491775 -0.101375 -0.189671 0.510576 0.198653 0.098053 0.1 0.5 -0.2 0 -0.1 0.3 -0.195165 0.106656 0.306817 -0.499948 0.206756 0.513243 0.220686 -0.397551 0.0960179 -0.417705 0.481796 -0.331313 -0.508807 -0.501454 0.101922 0.51325 0.402071 0.00944357 -0.289111 -0.00211269 -0.299526 -0.501947 0 -0.1 0 -0.2 0.2 -0.3 -0.495165 0.106656 0.205735 -0.000769967 0.412462 0.413909 -0.280396 0.1915 0.47003 -0.117385 -0.00652813 0.494877 -0.0874811 -0.295871 0.312501 0.520851 0.103711 -0.381139 -0.487077 0.00695487 0.306172 0.103751 -0.403583 0.1 -0.1 -0.5 0.1 -0.5 -0.195165 0.506656 -0.398263 0.509444 -0.27713 0.514581 -0.496095 -0.500269 0.48544 0.50186 -0.196661 0.00979547 0.208765 0.197598 -0.0949683 -0.181837 -0.0860309 -0.297939 -0.397622 0.102775 -0.193828 0.203751 -0.103583 -0.2 0 -0.5 0 -0.4 0.3 0.00665551 0.501352 0.0155747 0.217206 -0.185085 0.104066 -0.308736 0.0913922 0.30684 0.319573 0.0178414 -0.285774 -0.389274 0.00730607 0.212572 0.112199 0.402608 0.188873 0.102033 0.496947 -0.0055297 -0.4 0.1 -0.4 0.5 0 -0.3 -0.2 -0.399698 0.0965169 0.207637 0.00722843 -0.287991 -0.306736 0.287167 -0.107299 0.0237442 -0.174038 -0.168665 0.124877 -0.495017 -0.386087 0.395323 0.0968215 -0.404609 -0.51672 -0.513478 -0.00920473 0.0901389 0 0.2 -0.4 0 0.5 0.4 -0.5 0.00141745 -0.409816 -0.101536 0.404888 0.0986886 -0.315734 0.286806 -0.106637 0.419732 -0.467349 -0.245866 -0.0613147 0.0114637 -0.385833 0.191162 -0.0078465 0.488048 -0.321267 0.286486 -0.414527 0.485352 0 0.2 -0.3 -0.5 0 0.5 -0.3 0.000301588 -0.0164243 0.274842 0.0947709 0.080373 -0.0226029 -0.0190036 -0.402883 -0.177066 -0.270724 -0.158009 0.205249 -0.201084 0.102686 0.504756 -0.306368 0.193694 -0.411075 -0.416577 -0.514527 -0.209861 0 0.3 0.3 -0.5 0.2 0.1 0.1 -0.404832 -0.325097 0.166084 -0.2269 0.362546 0.161587 0.371232 -0.00480776 0.508907 0.208211 0.203038 0.0165704 0.0933265 0.201233 0.295478 -0.412588 -0.00512739 -0.109274 0.191049 -0.110483 -0.203871 -0.1 0.2 -0.2 0.3 0.2 0.5 0 0.0951675 0.48471 0.0683054 -0.134469 -0.0330558 -0.441224 -0.421658 -0.0207634 0.394784 -0.399213 -0.506136 0.304482 -0.0133828 0.00487583 -0.0125643 0.188195 -0.416257 -0.112232 0.189303 0.389395 0.0961292 0.1 0.4 -0.4 0.1 -0.3 0.3 0 0.395168 -0.115201 0.484861 -0.330364 0.170162 0.173859 0.182139 0.489324 -0.00901011 0.198611 0.393822 0.502532 -0.526745 0.0948133 -0.107441 -0.511296 -0.212409 0.289303 -0.00770648 0.396631 0 0.5 0.4 0 0 0.5 0.1 0.5 0.397971 0.094734 -0.207596 0.191267 0.289955 -0.407431 -0.102545 0.295411 -0.0105156 0.188476 0.182544 0.510271 -0.303876 0.312025 -0.00268968 -0.00225987 0.29424 0.19799 -0.00201041 -0.00336925 -0.2 0.2 -0.3 0.1 -0.4 -0.2 -0.3 -0.2 0.103105 0.00310525 -0.00415016 -0.313109 0.0924442 -0.304484 -0.00231498 -0.11094 0.390958 -0.0938796 -0.487713 0.416859 0.519814 0.124851 -0.296231 -0.099442 -0.00405732 0.0959427 -0.104057 -0.103369 0 0.5 0 0 0 0.5 -0.2 -0.3 0 0.3 -0.499834 0.394449 0.195951 -0.303422 -0.204189 0.292413 0.00453392 -0.489042 0.5108 0.4104 0.0123799 -0.494693 0.498178 -0.00068806 -0.100688 0 0.4 0.2 0.4 -0.2 0.5 -0.3 0.4 -0.2 0.1 -0.5 -0.2 0.500069 -0.0996956 0.000568738 0.100912 0.00147394 -0.299452 -0.200128 0.0148151 0.414815 0.51545 -0.188912 0.206281 -0.000792399 -0.300792 -0.2 0.4 0.5 0 0.5 -0.3 -0.3 0.4 0 -0.5 0.1 0.5 -0.2 0.5 0.300062 -0.199799 0.100201 0.400139 0.3 0.4 0.5 -0.5 0 0.3 0.5 0.4 0.1 -0.1 -0.5 0.4 -0.1 0.5 0.4 -0.1 -0.3 -0.1 0.5 0.325812 
-0.4 0.1 -0.1 -0.1 0.2 0.1 0.3 -0.3 0.3 0.3 -0.1 0.4 0.5 -0.2 0 -0.5 0.2 0.2 -0.3 -0.3 0.4 0 -0.2 -0.5 -0.5 0.1 0.2 -0.2 0.1 0.2 -0.2 0.3 0.2 -0.5 0.5 0.4 -0.2 0 0.3 0 0 0 0.4 0.2 -0.2 -0.4 0.1 0 -0.3 -0.1 0.1 -0.1 0.1 0 0.3 0.2 -0.5 0.3 0 0.1 -0.5 0.5 0.4 0.5 -0.5 -0.4 0 -0.3 0.3 0 0.00499782 -0.490427 -0.287514 0.114238 0.41325 -0.291402 -0.498248 0.5 -0.4 0 0.4 0.3 0 0 -0.1 -0.1 -0.2 0.5 0 0.5 -0.5 0.2 0.3 0.5 -0.499958 0.300042 -0.399958 0.300739 0.411079 0.115763 0.321749 0.528553 0.0158435 0.210705 -0.0982479 0.2 0.2 0.3 -0.4 0.5 -0.2 0.2 -0.5 0.5 -0.2 -0.5 -0.1 -0.2 0.5 0.5 0.4 -0.499958 -0.295556 0.404195 0.0089557 -0.0844375 -0.175815 0.435587 0.0390015 -0.167941 0.220494 0.305719 0.502283 -0.197572 0.0996675 -0.100332 0.4 0.5 0 -0.1 0.3 -0.3 -0.5 -0.200068 -0.100068 0.301117 -0.198807 0.301193 -0.298033 -0.189799 0.010655 -0.193483 0.0952129 -0.391345 -0.0730331 -0.0479629 0.0471812 -0.255541 0.016286 0.00293311 -0.500128 -0.304602 0.481107 0.0796784 0 -0.3 0.4 -0.5 -0.3 -0.4 0 0.201105 -0.0980169 -0.198017 -0.192887 -0.0875492 -0.198452 0.294254 -0.00235196 -0.403136 0.217323 -0.0827695 -0.272452 0.444126 0.144424 -0.373681 -0.488078 0.397775 0.307002 -0.290887 -0.00515831 -0.0221786 0.398143 -0.00116971 -0.3 -0.3 -0.2 0.4 -0.2 -0.492383 -0.191504 -0.498215 -0.0950402 -0.0979783 0.206212 0.293719 0.494664 0.307955 -0.392135 0.026181 -0.377618 0.0279679 0.0340166 -0.188288 -0.3937 7.69779e-05 0.29679 -0.296759 -0.107585 0.087534 -0.00460605 -0.00391871 -0.5 -0.1 -0.2 -0.2 -0.5 0.00650782 0.307386 0.501795 -0.3925 -0.2956 0.507549 0.494754 0.396212 0.104282 -0.0597866 -0.181016 0.0260025 -0.479345 -0.279932 -0.190153 0.0229065 0.423936 -0.173134 -0.472443 -0.293805 0.487082 0.296081 0.396081 0 -0.2 0.3 -0.399751 0 0.398814 -0.300308 0.398824 0.00535762 0.114711 -0.389056 0.185298 -0.202188 -0.28354 -0.061742 -0.275619 -0.376686 -0.0710732 0.0025774 0.309157 -0.187903 -0.183863 -0.373276 0.532543 0.508636 0.293531 -0.002749 0.000447432 0.2 -0.4 -0.2 -0.299751 0.2 -0.00149267 -0.201493 0.00140066 0.40804 0.215504 0.51728 -0.120653 0.502057 0.320107 0.0337464 -0.274216 0.0301283 -0.193483 0.408894 0.0103211 -0.476486 0.227751 0.326314 0.22485 0.0117168 0.403725 -0.299553 -0.5 0.2 0.5 0.3 -0.4 -0.2 0.0996935 -0.101729 0.0109741 -0.187485 0.511711 0.0055596 -0.402982 0.433741 0.232818 0.0246978 -0.186796 0.19987 0.00388656 0.00591132 0.313974 -0.0715566 0.0320809 0.0334678 0.130077 0.00378411 0.503247 0.00597743 -0.4 0.3 0.3 0 -0.1 0.3 -0.100307 -0.401652 0.0109643 -0.481653 0.50497 -0.00259599 -0.011413 0.52434 -0.181167 0.0296258 -0.0959019 0.489468 -0.495346 -0.185406 -0.266291 0.0213149 -0.276623 0.141312 -0.473194 0.402403 -0.390936 0.205977 0.1 -0.2 -0.5 0 0.4 0.3 0.0996935 0.0983478 -0.489036 -0.184755 0.19763 -0.407411 0.0193897 0.427677 0.23745 0.0221943 -0.0190278 0.291487 -0.296784 -0.0943511 -0.0832072 -0.0745392 -0.0746494 0.0305459 0.229505 0.108389 0.307718 -0.294023 -0.5 0.3 0 0.1 0.2 0.3 -0.500307 -0.301652 -0.191713 0.215424 -0.511142 0.0909447 -0.188857 0.124319 -0.261468 0.113327 0.382217 -0.0186831 -0.0108651 -0.298645 -0.0803372 -0.394627 0.237165 -0.262018 0.0317395 -0.492682 -0.492168 0.206091 -0.499928 -0.5 0.1 0.1 0 -0.1 -0.000306506 -0.00165217 -0.293448 0.10097 -0.0119945 -0.0964165 0.0231455 0.116992 0.309902 -0.505062 0.389498 -0.00872934 -0.41675 -0.104805 -0.00786791 0.201033 0.134259 0.338487 0.227056 -0.194083 0.207832 -0.393909 0.200072 0 -0.4 0.1 0 0 -0.5 -0.00165217 0.00658729 0.202408 0.00392677 -0.0903321 0.0200585 -0.274821 0.512605 -0.304892 -0.318692 0.00220565 -0.307538 -0.00886483 0.392595 0.512665 -0.26353 -0.463082 -0.467149 -0.193016 -0.39494 0.106049 -0.5 0.3 0.2 0.1 0 -0.2 -0.4 0.499071 -0.393106 0.401457 0.113031 -0.274184 0.223248 0.521992 -0.185197 -0.199552 -0.107453 -0.205494 -0.401117 -0.19035 0.292632 -0.482977 -0.263387 -0.177584 0.525892 -0.393066 0.00643163 -0.493924 -0.5 0 -0.2 0.5 -0.1 -0.1 -0.2 -0.0983524 -0.397713 -0.287671 0.215268 -0.366524 0.0444783 0.0386422 -0.477096 0.00364499 -0.105255 -0.0248722 -0.205982 0.000305673 -0.184394 -0.0736659 -0.259738 0.421893 -0.475247 -0.0892032 -0.288199 -0.0885866 -0.1 -0.2 -0.3 0 0 0.3 0.4 0.199071 0.108971 -0.0888255 0.116242 0.236778 -0.455493 0.0365589 0.529085 -0.194058 0.085131 0.296942 0.520566 -0.0893142 -0.175289 0.427244 0.439137 0.216779 0.514665 0.0141974 0.211801 0.306076 -0.4 0 -0.3 0.5 0.4 -0.1 -0.4 0.500802 0.211852 -0.176887 -0.0803676 -0.260711 0.548147 0.0366903 0.0282375 0.0289493 0.0272184 0.525191 0.0299902 0.0126817 -0.471521 -0.389517 0.538334 0.0137028 -0.382953 0.0113012 0.0126179 -0.0990852 -0.1 0.4 -0.4 0.1 0.1 0.3 0 -0.199198 0.210667 0.0215551 -0.174892 0.120387 -0.0575091 -0.357861 -0.0552977 0.234532 0.432675 0.533261 0.332381 0.217176 0.412947 -0.484078 0.124599 0.0257297 -0.08392 0.112444 -0.28777 0.400915 0.5 -0.2 0.5 0 -0.5 -0.5 0.1 0.000801863 -0.188815 -0.00346678 -0.0884503 0.317325 0.324634 0.41837 0.21292 0.207116 -0.084333 0.213154 0.314701 0.531046 0.422259 0.00973579 -0.0780196 0.312452 0.512444 -0.490439 -0.498815 0.1 0 -0.2 0 -0.4 -0.1 0 0.4 -0.21092 -0.0106988 0.396826 0.00200895 -0.480119 0.218767 -0.493416 -0.0940461 0.212579 0.215977 0.229945 0.517398 0.508783 -0.205774 -0.303898 -0.0913998 0.503584 0.00228129 -0.197719 -0.198815 0.5 0.1 0.2 0.4 0 0 -0.4 0.1 0.487349 0.0873489 0.291878 0.00756497 0.112656 -0.399416 -8.21936e-05 0.00525458 -0.0910295 -0.0934462 -0.496592 -0.512477 0.388527 -0.118938 0.0951295 0.202926 0.402358 0.102358 -0.197642 -0.198815 0.4 0.4 0.2 0.1 -0.3 0.4 0.4 -0.4 0.5 -0.4 0.00653384 -0.489762 0.307852 0.201358 -0.312043 0.095587 0.00204363 -0.196768 0.107783 0.00394208 0.199855 0.299899 0.399889 -0.198827 -0.498827 -0.3 0 0.5 0 0 0.1 0.4 -0.3 0.2 -0.2 0.3 -0.2 0.106361 0.00861875 0.108559 -0.294774 -0.201499 -0.507347 -0.407897 0.302664 0.202664 0.208985 0.402769 0.198186 0.49823 -0.20177 0.4 0.1 -0.3 -0.1 0.4 0.1 0.5 -0.3 -0.5 0 -0.3 0.1 -0.4 -0.1 -0.393284 -0.391199 0.508801 0.00208491 0.4 -0.3 0.2 0 -0.3 -0.3 0 -0.5 -0.1 0 0.2 -0.5 0.2 -0.5 -0.4 0 0.2 0 0.5 0.212912 
-0.4 -0.1 0.4 -0.3 -0.5 -0.1 0 -0.4 0.4 -0.1 -0.2 -0.5 0 0.5 0.2 -0.5 0.4 0.2 0.1 -0.3 -0.4 0 0 0 0.5 0.3 -0.3 -0.2 0.3 -0.2 0 -0.4 0.1 0.2 -0.2 0 0.4 0.5 0.1 -0.1 0.1 0 -0.1 0.1 0.1 0 -0.2 0.3 0 -0.2 0 0.1 -0.5 0.3 0.1 0.4 -0.1 0 0.2 -0.3 -0.2 -0.4 0.5 -0.5 -0.2 0 -0.2 -0.2 -0.5 -0.3 3.36908e-05 0.100119 -0.199743 -0.10004 0.000391051 0.000179176 0.499702 0 0.2 0.4 0 0.2 0.3 0.4 0.3 0 -0.5 0 0.1 0.5 0.2 -0.2 0.2 0 -0.503436 0.196564 -0.403436 0.0959755 -0.403985 -0.504159 -0.503145 0.100767 0.000730241 -0.39948 -0.100298 -0.5 0.1 0 -0.3 0.4 0.1 0.5 -0.2 0.3 0.4 0.4 -0.4 -0.3 0 0.2 0.1 -0.403436 0.299242 0.201197 0.206561 0.00680618 -0.491492 -0.486657 -0.186228 0.410906 0.011826 0.507862 -0.497232 0.100042 0.00422318 -0.0957768 0.3 -0.2 0.1 0.3 0.1 -0.3 0.3 0.498876 -0.201124 -0.106636 -0.106404 0.193596 0.392813 -0.0093262 -0.500881 -0.110438 0.0932206 -0.000606302 0.408579 -0.38856 -0.484848 0.120456 0.399046 0.298608 -0.0102073 0.00992361 -0.18751 0.00726081 0.1 0.3 0.5 0 0.4 -0.1 0.2 -0.302134 -0.507871 0.492129 0.188607 0.088272 0.390704 -0.20186 0.0997262 0.291333 0.39678 0.50082 -0.304317 -0.186579 -0.385481 -0.0957485 0.00954524 0.198849 0.403082 0.202399 0.00865963 -0.0954584 -0.202719 -0.300436 -0.1 0.1 -0.5 0.2 0 0.0951372 0.4894 0.0835657 -0.0199067 -0.0214596 0.18094 0.191215 0.298263 -0.0966351 -0.198118 0.00442633 -0.0952411 -0.00824735 0.181873 -0.0158801 0.295408 -0.189442 -0.481286 0.315126 -0.380935 -0.0951805 0.295394 -0.00232246 0.3 0.3 0.3 -0.5 0.4 0.0966005 0.490864 -0.427021 0.478958 -0.51722 0.491053 -0.00450699 -0.103428 -0.48467 0.31041 0.0113854 -0.296088 -0.298911 0.375505 0.081852 -0.0195288 0.504377 -0.495805 0.0193176 0.50733 -0.0933186 0.397678 -0.302322 0 0.4 0.3 0.0999776 0 0.301232 0.195495 0.474598 -0.209671 -0.405012 0.287448 0.00182476 0.209782 -0.390998 0.41532 -0.486903 -0.494054 -0.537004 0.183768 0.0847557 0.176128 -0.407635 0.51558 0.320014 0.50618 0.407172 -0.0018864 0.196364 0.2 0.2 0.3 0.299978 0.3 0.00100677 0.00100677 0.291391 0.501151 0.305679 0.393633 0.427561 -0.166143 0.317078 -0.483682 -0.0950564 -0.310965 0.44421 0.36428 -0.431879 -0.512135 0.500572 0.421393 0.0185874 -0.189082 -0.394969 0.196364 0.1 0.3 0.5 0.1 -0.1 0.3 -0.000224968 -0.30047 0.194701 -0.0935616 -0.500149 -0.180705 -0.480311 0.122874 -0.274792 -0.284181 0.504442 0.0955091 -0.0311512 -0.0161959 -0.109347 -0.021063 -0.187552 -0.185904 0.0105379 -0.191879 0.00821357 0.307981 0 0 -0.3 0.4 0.2 -0.5 -0.300225 -0.000238051 0.00528732 0.403673 0.416017 0.317586 0.135005 -0.37161 -0.0782953 -0.480985 -0.103655 -0.1104 0.476589 -0.412337 0.192266 0.491493 -0.0820105 0.00723564 0.204571 0.399983 0.212989 -0.192019 -0.4 0 -0.3 -0.1 0.1 0.4 0.299775 -0.200238 -0.494713 0.0190005 0.52815 0.223269 -0.160243 -0.466242 0.0139791 -0.284525 -0.010348 -0.0137918 -0.12846 -0.419789 0.493534 0.303544 0.106714 -0.488495 0.105746 0.110674 0.412976 -0.292019 -0.2 0.1 -0.1 -0.4 -0.1 0.1 0.199775 -0.500238 -0.296167 0.215874 -0.464944 -0.248407 0.546646 0.235806 0.0284605 -0.105635 0.492222 0.292219 -0.521772 -0.0261632 0.399672 -0.296893 0.186481 0.501357 0.196652 -0.294512 -0.0977228 -0.00271795 0.296014 0 0 -0.1 -0.2 -0.4 -0.400225 -0.400238 0.412387 -0.372989 -0.0705927 0.539635 -0.0557768 0.236841 0.224143 0.487128 -0.515676 -0.442403 -0.530171 0.184633 -0.309731 -0.00653019 -0.419706 -0.00508611 0.105024 0.106321 0.402277 0.097282 0.196014 0.4 -0.2 -0.4 -0.1 -0.4 0.1 -0.100238 0.413803 -0.0737774 0.232079 0.0332536 -0.170733 0.410897 0.385164 -0.23456 -0.133306 -0.0514366 0.171628 0.0893383 -0.508331 0.092833 0.288214 0.00932307 0.00269942 0.305066 0.109223 -0.296005 -0.1 -0.4 0.3 0.3 0.3 -0.4 0.1 0.500014 -0.385972 -0.281977 -0.0778883 0.419255 0.0104004 -0.124448 -0.233003 -0.550779 0.146563 -0.245443 -0.119728 -0.418183 -0.00105938 0.299873 -0.00517988 0.0156206 0.112921 0.303788 0.0095599 0.00431876 0 0.1 -0.5 0.3 -0.3 -0.1 0 -0.399561 0.300683 -0.483512 0.51876 0.025075 -0.0109829 0.169326 0.0577182 0.143949 0.146781 -0.114006 -0.417121 0.102836 -0.28756 0.405457 -0.084315 0.510009 0.504251 0.397533 -0.394483 -0.396016 0.1 0 0.4 0.2 -0.2 0 0.3 -0.299986 0.300361 0.514019 0.212259 0.11917 0.498197 -0.524515 -0.237767 -0.0499739 -0.141425 0.386625 -0.505728 0.414227 0.000823131 -0.285765 -0.18455 0.0103217 -0.0026927 -0.194911 -0.194483 -0.295681 -0.5 0.4 -0.3 0.1 0.1 -0.1 0.1 0.299202 -0.1001 0.302409 0.0164929 -0.478975 -0.0011394 0.187686 0.0795199 -0.334332 0.0769669 0.00887526 0.199394 -0.389751 -0.392225 -0.47612 -0.0860204 0.500232 0.207247 0.204268 -0.0925039 -0.0016829 -0.1 0.2 -0.1 -0.1 0.3 -0.4 0.4 0.499202 0.493232 -0.399561 -0.0929503 -0.500287 0.0890649 -0.315891 0.0867283 -0.114026 0.299048 -0.287511 0.507025 -0.393304 0.196834 0.408917 -0.397221 0.104379 -0.295239 -0.397808 0.00596258 0.398317 -0.3 -0.1 0.2 -0.5 -0.4 0.1 -0.3 -0.200798 0.495219 0.502728 -0.38716 0.0879659 -0.425048 -0.21342 0.296755 0.214503 -0.183889 -0.0705369 0.4157 0.206964 -0.0896626 -0.390138 0.505791 0.2013 0.502192 -0.398923 -0.405512 -0.1 0.4 0 0.3 0.5 0 0.2 0.5 0.50049 0.300855 0.0015247 0.0150804 -0.306309 -0.40314 -0.104082 0.3969 0.0243338 0.327939 0.0225565 0.295653 -0.406213 -0.207774 0.0103775 -0.201064 -0.106903 -0.506754 -0.406754 -0.00551205 -0.3 -0.4 0.5 0.2 0.2 -0.3 -0.4 0.2 0.00130167 0.00130167 0.10128 0.0990981 0.292437 -0.217884 -0.510783 0.185822 0.299241 0.501775 0.00556086 -0.508077 -0.522087 0.186689 -0.000567077 0.294781 0.0934776 -0.206522 0.0934776 0.294488 0.5 0 0.3 0.4 -0.1 0 -0.1 -0.2 0.3 0.5 -0.102001 -0.00241091 0.0950652 0.195504 0.00260239 -0.20145 -0.00203807 0.102874 0.103073 0.0988817 0.0917785 -0.306591 0.403996 -0.00101033 -0.40101 0 -0.3 0.3 0.3 0.4 -0.1 -0.5 0.5 0.2 0.4 0 0.2 -0.00197705 0.397601 -0.501158 0.194961 -0.402746 0.402256 -0.194684 -0.300948 -0.000948158 -0.405761 -0.300108 -0.396619 0.00501127 0.00501127 0.2 0.4 0 0.2 -0.5 0 -0.2 0 -0.1 0.4 0.1 0.3 0.1 -0.1 -0.202224 -0.00262084 0.497379 0.299603 -0.1 -0.4 0 0.1 0.5 -0.5 0.3 -0.2 0.3 0 -0.5 -0.2 -0.2 0.2 -0.5 -0.2 0.1 0.4 -0.1 -0.511618 
