-0.3 0.5 0.5 -0.3 0.1 -0.4 -0.2 0.1 0.1 -0.4 0.3 0.5 -2.37885e-11 0.5 -0.1 0.4 0 0.5 -0.1 -0.5 0.4 0.4 -0.4 -0.5 0 -0.2 -0.3 -0.3 -0.3 0.3 -0.4 -0.4 0.3 -0.1 -0.2 -0.3 -0.3 -0.4 -0.19941 -0.19941 0.5 0.510824 0.510305 0.409546 -0.300759 -0.400766 -0.000835481 0.200464 0.100413 -0.499587 0.199948 0.1 -0.4 0 0 -0.1 -0.3 0 -0.5 0.2 0.3 0.5 -0.4 -0.5 -0.3 0.1 -0.525937 0.0739944 -0.526533 -0.516283 0.210533 0.299175 0.0750447 -0.542893 0.0494119 -0.429091 0.288686 -0.000824976 -0.301289 -0.405822 0.194181 0.1 0 0 0.2 -0.4 0.4 -0.2 -0.5 -0.1 0.399999 -0.299703 -0.00201842 -0.00103473 -0.426981 -0.547901 0.241018 -0.521734 -0.37804 -0.370095 -0.58185 -0.304531 -0.295582 0.0418403 -0.0149077 -0.183929 -0.00530092 -0.405378 0.394417 0.2 -0.1 -0.5 0 -0.2 0.4 -0.3 -0.0993718 -0.199778 0.397794 0.40815 0.517076 0.434373 -0.246633 0.367126 0.387474 0.228516 -0.00757706 -0.796909 0.0952786 -0.270646 -0.0690569 -0.51724 -0.523877 0.0171307 -0.311437 -0.285149 0.457769 -0.394165 0.4 0.4 -0.4 0.1 -0.5 0.501042 -0.502975 -0.0993922 0.0348776 -0.155106 0.336397 -0.207008 -0.102311 0.456095 0.491678 -0.443292 -0.186296 -0.517529 -0.622835 0.113588 0.458918 0.46652 0.532136 0.301008 -0.302982 -0.440407 0.215818 0.100591 -0.199935 0.1 0 0.1 -0.0999968 -0.298061 0.103409 0.177406 0.283378 -0.071407 0.221721 0.365656 -0.0690879 -0.0407437 -0.29877 0.133311 -0.130879 -0.314622 -0.636341 -0.179058 -0.527923 -0.148349 0.553849 -0.3295 0.0331185 0.131307 0.209143 0.297876 -0.182664 -0.290286 -0.499769 0.100233 0.100273 -0.498151 0.0211002 0.60372 -0.481191 0.113828 0.00976512 0.00640388 0.566808 -0.162526 -0.237459 0.0228551 -0.188759 0.0454151 -0.273684 -0.217869 -0.565681 0.10428 0.198793 0.508441 0.265283 0.329943 0.088 0.257761 0.517734 -0.490286 -0.299769 0.300231 0.000253785 0.383716 0.543133 0.541655 0.255427 -0.196726 -0.0242613 0.710722 -0.475761 0.332742 -0.0449896 -0.816251 -0.739636 -0.291159 0.0857288 -0.652331 0.0528213 -0.390686 0.157356 -0.153652 -0.215535 -0.568638 -0.422808 -0.0497397 -0.389442 0.1 0.300231 0.497422 0.332464 0.504103 -0.335157 0.440653 -0.0829266 -0.216003 0.0459161 -0.140067 0.518565 0.367897 0.0562992 -0.496946 0.0603285 -0.262482 -0.605945 0.247906 -0.0121306 -0.396059 -0.199157 0.336727 0.0635622 -0.520066 -0.108341 -0.142122 0.500108 0.1 0.2 -0.00280875 0.232205 -0.181639 0.460197 -0.448186 -0.434228 0.500367 0.520121 -0.375404 -0.242075 -0.112188 -0.8423 -0.137367 0.395961 -0.160127 -0.47041 0.0242631 0.663741 -0.203142 -0.623433 -0.132245 0.170276 0.322833 0.320544 -0.283619 0.100106 0.5 0.5 -0.300001 0.529828 -0.149915 0.0549082 -0.568118 -0.10807 -0.30747 0.0105472 -0.669755 -0.127188 -0.226438 -0.624199 0.528487 0.0303331 -0.366079 -0.311297 0.102853 -0.284576 -0.299644 0.0374322 -0.498498 0.194149 0.0583992 -0.0336785 -0.499464 0.285151 0.1 0 -8.9944e-10 2.95161e-06 0.0349969 0.444419 0.466328 0.240226 -0.0681596 0.127641 -0.671606 0.00854107 0.411581 0.0448778 -0.187052 -0.597898 -0.0636512 -0.228657 0.157206 -0.394051 -0.821698 -0.276394 0.185912 0.538712 0.0247338 0.00635405 0.185219 0.18515 -0.4 0.2 -8.99466e-10 -0.105446 0.410713 0.252953 -0.274207 -0.431835 -0.997137 -0.794016 -0.529099 -0.467101 -0.471848 -0.0132439 0.529071 0.570156 -0.19094 -0.361544 -0.123629 -0.315342 -0.427452 -0.0655512 -0.160566 0.324664 0.328673 -0.498219 -0.196137 0.18515 -0.2 0.5 -0.4 -0.3 0.405037 0.050092 -0.354789 0.0919841 -0.524854 -0.557427 -0.775743 0.056014 -0.623982 -0.0551028 0.471053 -0.29732 0.481951 -0.279929 -0.647013 -0.366515 -0.205564 -0.00498078 0.0167416 -0.0475292 0.52748 -0.0682639 0.0383446 0.495318 0 -3.16181e-15 2.85783e-08 0.3 -0.294793 -0.393062 -0.294743 -0.0104749 -0.466495 -0.756479 -0.894661 -0.0321729 -0.229347 -0.55003 0.431062 0.397916 0.544152 0.472495 0.0860875 -0.430747 -0.197086 0.210004 0.125301 0.544572 -0.501111 -0.161304 -0.179067 -0.504752 0.4 -0.2 0.1 0.22983 -0.400065 -0.37957 -0.602692 0.288804 -0.703365 -1.00889 -1.05183 -0.0882458 -0.311007 0.184208 -0.046652 -0.463193 0.621648 0.171832 -0.299932 0.218892 -0.247698 -0.444487 0.389507 0.320186 -0.346164 0.19865 0.237959 -0.00479326 0.2 -0.4 2.85787e-08 0.19601 0.409162 0.403607 0.273645 -0.225312 -0.648682 -0.280945 -0.499897 -0.522575 -0.71395 -0.334675 -0.00815985 -0.300868 0.431573 -0.665265 -0.345817 -0.133467 -0.250923 0.262546 0.0394413 -0.189653 0.0992252 0.00177673 0.227445 0.399931 -0.300022 -0.5 -0.5 0.125941 0.113966 -0.47262 0.230929 -0.155199 -0.411046 -0.132826 -0.206557 -0.0168205 0.107676 -0.774973 -0.20927 -0.099728 0.0958641 -0.4121 -0.610329 -0.433368 -0.428574 -0.173422 -0.472425 -0.0786389 0.4226 -0.0208993 -0.45861 0.0999755 0.101498 0.2 -0.500001 0.232956 0.321147 -0.184798 -0.575375 -0.0408275 -0.0648493 -0.175743 0.00179219 -0.0769022 -0.577387 -0.425431 0.535253 -0.145244 0.289425 -0.659853 -0.492503 -0.702355 -0.579071 -0.675219 -0.543505 -0.284402 0.33765 0.149594 0.299968 -0.3 0.40152 -0.1 -0.100001 -0.197221 -0.288418 -0.107941 0.108577 0.206721 -0.679983 0.0640531 -0.333581 -0.681943 -0.448604 -0.466957 -0.606134 -0.279608 0.338282 0.201522 0.0888298 -0.761522 -0.195768 -0.344325 -0.62643 0.0333512 0.334497 0.48506 0.185119 0.0851506 -0.2 0 0.1 0.0027843 0.280101 0.322631 0.0389874 -0.151278 0.0581677 -0.566146 0.523773 -0.6935 -0.291092 -0.326068 -0.251586 -0.322837 -0.0603288 -0.612269 0.179349 -0.166883 -0.19254 0.337425 0.402217 -0.354742 -0.565403 -0.530763 0.383819 0.388939 -0.2 0.5 0.4 0.0997797 -0.303306 0.331682 -0.318899 -0.440424 0.5923 -0.0970017 0.31515 0.432238 0.344538 -0.697557 -0.18283 0.172381 -0.298216 -0.0539794 -0.532802 -0.0291274 -0.52303 -0.296206 -0.0460918 -0.55897 -0.153659 -0.320101 0.385148 -0.0148491 -0.4 0.5 -0.1 4.17522e-06 -0.175105 0.0274636 0.210695 -0.342659 0.445748 0.503452 -0.327922 0.248375 0.123793 0.358969 -0.204209 0.312514 0.0119673 -0.0516144 -0.0536934 0.00882991 0.326173 -0.146766 -0.572151 -0.072638 -0.303829 -4.26602e-05 -0.300003 -0.1 0.1 0.4 0.2 -0.5 -0.279118 -0.365819 -0.275562 -0.483891 0.0883435 -0.364075 0.110589 0.0435302 -0.0264117 0.201179 0.302661 0.286145 0.0362966 0.375081 -0.308814 -0.675563 -0.145156 -0.0315325 -0.451524 0.141516 -0.298462 0.399973 0.2 0.4 0 -0.3 0.5 -0.4 0.000800732 -0.47908 -0.397582 -0.238935 -0.0253021 -0.45212 0.0690983 0.281657 -0.352801 -0.580019 0.336885 -0.225014 0.149254 -0.185566 -0.136633 -0.169523 0.425609 -0.367007 0.202219 -0.5005 0.099529 -0.214356 -6.1494e-17 0.2 0.3 0.1 -0.1 0.1 0.499858 -0.201279 -0.534344 0.424287 -0.403633 0.432369 -0.0234502 0.00252997 -0.240343 -0.00721952 -0.0191123 0.401183 -0.0394443 -0.151075 0.00779492 -0.0738074 0.0864214 0.100005 5.2341e-06 0.1 -0.1 0 -0.2 0.2 0.5 0.3 -0.2 -0.1 -0.4 0.3 -0.00978151 -0.441873 -0.141873 0.367908 -0.2 -0.208192 -0.008195 -0.00822136 0.0917476 0.0269861 0.235231 0.535232 -0.313633 -0.0136306 0.286375 -1.29427e-06 -1.27028e-06 0.1 9.31152e-09 0 -0.5 0.2 -0.4 -0.556725 
-0.1 0.1 0 -0.5 0 -0.3 -0.4 -0.5 0 -0.3 0.4 -0.3 -0.3 0.4 -0.1 0.3 0.4 0.2 0.5 -0.3 -0.4 -0.1 0.2 0.4 0.5 -0.3 0.2 0.3 0 0.3 -0.2 0 0.2 6.96508e-19 0.2 -0.3 0.2 0.1 -0.0999902 -0.29999 0.5 -0.00617944 -0.106176 0.262836 -0.431039 0.47966 0.199994 -0.200005 0.499995 0.199995 -0.1 3.00432e-11 0.4 -0.3 -0.2 0.2 -0.5 0.5 0.4 0.5 0.2 0.4 0.5 -0.0151171 -0.415117 -0.215117 0.295115 0.392098 -0.518866 -0.504555 0.488008 -0.526483 0.142339 0.25287 0.05633 0.387813 0.190922 -0.000545776 0.0942333 -0.499834 0.4 -1.45582e-15 -0.2 0 -0.3 -0.5 0.2 -0.3 0.1 -6.89797e-07 0.299546 0.405691 0.505888 -0.468256 -0.296973 -0.288581 0.127453 -0.593478 0.205675 -0.0266717 0.15956 -0.197076 -0.108229 -0.467453 0.312799 -0.391914 0.0125821 0.218531 -0.0880838 0.2 -0.5 -0.5 0.4 0.2 0 0.5 0.00893298 0.383902 0.277818 0.37876 0.310717 0.250786 -0.550015 0.10753 0.310135 0.103798 -0.223365 -0.172963 0.197764 0.90359 0.193607 0.114702 0.0413725 -0.218759 0.388201 -0.0488039 -0.408376 -0.4 -0.5 -0.1 -0.1 -0.4 0.1 0.290852 -0.0222163 0.242736 0.551058 0.583427 -0.516616 0.621342 -0.315883 0.0685453 -0.0126573 0.477112 0.338327 0.638676 -0.282048 0.547954 0.650955 0.546714 0.0908323 0.224255 0.125663 -0.13072 0.306328 -0.0206112 -0.0474472 0.000594788 0.3 -0.1 -0.100071 -0.00454683 -0.0324668 -0.49184 0.0296031 0.645268 -0.213728 -0.398858 -0.441676 0.0872883 0.309367 0.345407 0.177641 -0.149109 -0.0905556 0.331792 -0.0880459 -0.19916 -0.399556 -0.329189 0.628466 0.382641 0.582585 0.488167 -0.238931 -0.489529 0.200927 0.281854 -0.399144 0.40497 0.150946 -0.240291 0.449278 0.424995 0.514005 -0.32085 0.45819 0.517015 0.299837 -0.0456873 0.554026 -0.0855928 0.639717 0.219052 0.274311 0.325212 0.0845495 0.613922 -0.207309 -0.223903 -0.205531 -0.358572 -0.0297341 0.509876 0.100927 -0.399073 0.221677 -0.38378 -0.42552 0.286041 0.139951 -0.272115 0.0716183 -0.010119 0.223949 0.475131 -0.145885 0.278922 0.584695 0.463114 -0.04987 -0.0467339 0.696865 0.403375 0.415455 0.581316 0.117735 0.574799 0.435355 0.480359 -0.081246 2.49607e-10 0.000926983 -0.486595 0.21895 0.421163 -0.223951 -0.108215 0.361653 0.41107 0.325547 0.1916 0.0829484 0.0982357 0.296361 0.364653 -0.251803 0.829695 0.0163446 0.108112 0.321105 0.572704 0.542065 0.880105 -0.0263422 0.349543 0.72322 0.686634 0.120845 0.3 -0.2 -0.287522 -0.481976 -0.473195 -0.0569471 -0.0715734 0.683914 -0.292904 0.312982 -0.190278 0.513454 0.85651 0.277237 0.725447 -0.0485042 0.760064 0.298275 0.074805 0.909444 0.136489 0.577871 0.349952 -0.133082 -0.00671248 0.169469 -0.0623716 0.299268 0.5 -0.2 -1.61582e-06 -0.378962 0.220067 -0.175787 0.351824 0.246035 0.599602 0.608572 0.70159 0.879048 1.18019 0.379285 0.460238 0.197713 -0.192883 0.060063 0.392381 0.85522 0.588559 0.234336 0.67978 0.669119 -0.214669 -0.146939 -0.0356377 0.128802 -0.4 0.3 0.2 0.320751 0.532037 -0.0563489 0.191764 0.689895 0.537183 0.486266 0.291507 0.976086 0.26791 0.601336 -0.136054 -0.28288 0.155542 0.181139 0.500412 0.788858 0.107499 0.270329 0.295431 -0.164239 0.363562 -0.232895 0.303157 -0.271198 -0.5 -0.2 0.2 0.200364 0.197058 -0.0618728 0.27742 0.170258 0.678964 0.647513 0.603491 -0.0702152 0.0147012 -0.0439149 -0.450088 -0.879324 -1.00337 -0.530447 -0.07626 0.565051 0.790157 0.653709 0.436585 0.316095 0.553543 0.472789 0.395963 -0.0711981 -0.2 -0.5 4.73532e-08 -0.3 0.397574 -0.00720476 0.624991 0.713772 0.882767 0.581839 0.0721515 0.770878 0.716628 -0.355846 -0.671355 -0.457645 -0.711691 -0.609653 -0.0230749 0.765996 0.424461 -0.0383689 0.414165 0.220705 0.00389351 0.0292564 -0.574842 -0.306146 0.5 0.3 0.5 -0.5 0.197599 0.447358 -0.0413345 0.389164 0.93254 0.204668 0.0263152 0.184685 0.185216 0.182773 -0.145972 -0.588827 -0.777038 -0.590231 0.386167 0.579445 0.0430161 0.0407362 0.617054 0.316564 0.583585 -0.363225 -0.0793042 0.0327744 -0.064066 1.84951e-22 -0.2 -0.0354618 -0.0158245 0.0221831 0.254041 -0.107933 0.220681 -0.102145 -0.205772 0.608876 -0.358528 0.329022 -0.605689 0.0365917 -0.172977 0.0104272 0.182431 0.297169 -0.252497 -0.0188079 0.725317 -0.340108 0.0173129 -0.12098 0.472806 0.129598 0.435928 -0.3 -0.2 -0.469914 0.3453 -0.203097 0.182137 -0.169095 0.112051 -0.063407 0.643487 -0.598929 -0.179783 0.144383 0.0282086 0.413586 -0.28708 0.297995 0.152719 0.0900076 -0.249976 0.715455 -0.0219134 0.292656 -0.167513 -0.25002 0.439346 -0.263808 0.33593 0.1 -8.43225e-13 0.357557 0.374235 0.0733616 0.605491 -0.0289448 0.933534 0.377125 0.353403 -0.190857 0.120682 0.504642 -0.254755 0.648904 0.28864 -0.0444049 0.125019 -0.0396444 0.44072 0.30573 0.309131 0.0264458 -0.159848 0.222408 0.492977 0.336397 0.235936 0.2 0.4 0.429492 -0.470256 0.310261 -0.148138 0.526994 1.03184 0.95167 -0.101684 0.325394 0.417283 0.116111 0.298288 0.598048 0.0330405 0.371919 0.110458 0.232801 0.254704 -0.0251191 0.594178 0.0642838 -0.463361 0.172129 0.186103 -0.31833 1.69645e-06 0.5 0.2 0.0292421 0.263212 -0.251509 -0.0160239 0.566673 0.215309 1.31273 0.360618 0.235387 0.0739285 0.338633 0.218835 -0.239969 0.463668 -0.0182373 -0.441657 0.260488 0.19903 0.0123332 0.501663 0.201007 0.0214352 -0.0623378 0.309239 0.110032 0.5 0 -2.89136e-12 -0.171031 -0.240395 0.176662 -0.491749 0.0711909 0.634254 0.59354 0.273046 0.0338382 0.336248 0.2765 -0.101066 -0.178424 0.529073 0.253196 0.304472 0.189526 0.0407817 -0.108212 0.450439 -0.389558 -0.448899 0.371642 0.109174 -0.389968 -0.4 -0.5 -0.4 -0.000187364 -0.105632 0.0161576 -0.0684289 0.314902 0.643123 0.0562303 0.724756 0.708105 0.784876 0.814305 0.267625 0.523856 0.447759 0.280175 0.636558 0.255891 0.590919 -0.132486 0.501412 0.191547 -0.0478755 -0.31449 0.0394957 -0.0616047 -0.5 -0.4 0.3 -0.100125 -0.220183 -0.358713 -0.380806 -0.111174 -0.411369 0.651678 -0.0757322 0.833409 -0.0420162 0.686684 -0.321605 0.868605 0.748805 0.511811 0.269067 -0.224798 0.0251038 0.521245 0.525445 0.415972 0.106882 -0.317812 0.209793 0.409579 0 0.4 0 0.1 -0.31951 -0.336803 -0.414375 0.301794 0.316128 -0.441175 -0.397748 -0.236681 -0.37135 -0.663021 0.455209 0.864081 0.0318341 -0.0953903 -0.165394 -0.195716 -0.483727 -0.122009 -0.0449088 0.487624 0.210876 -0.00390935 0.5 0.3 -0.5 0.5 -0.4 0.2 0.296585 -0.0579343 -0.330246 0.510908 -0.0129496 0.47902 -0.0278074 0.177028 -0.350286 -0.223257 0.0407686 0.535166 0.0783123 0.186016 0.206987 0.374461 0.413138 0.206969 0.16426 -0.335446 0.0138098 0.26778 -0.1 -0.2 -0.2 -0.5 0.3 0.3 0.0281243 -0.474466 -0.0531448 -0.283175 -0.219278 -0.0139983 -0.0254532 0.26297 -0.304294 -0.280145 0.0942028 0.235881 -0.307162 0.191347 0.472761 0.148583 0.27123 0.373088 0.0730876 0.100063 -0.1 0.2 0 0.3 0 -0.4 0.3 -0.1 0.1 0 -0.198688 -0.115925 -0.415925 0.282763 -0.00180454 -0.40135 0.0254404 0.0274755 0.330661 -0.453537 -0.211882 0.154494 0.141229 -0.501992 -0.301985 -0.199928 0.500072 0.500061 0.2 -0.3 0.3 0 0 0.912265 
-0.5 -0.4 0.1 -0.1 0 0.5 0.3 0.2 0.2 -0.5 -0.1 0.3 0.2 -0.5 0.5 0.3 -0.1 -0.5 0.2 0.3 -0.2 0.3 0 0 -0.4 -0.2 0 -0.1 0.1 0.4 0.1 -0.3 0.2 -0.1 0.1 0.3 0.4 0.2 -0.3 0.2 -4.55589e-09 0.300001 0.1 -2.86278e-05 0.499971 0.0999718 0.1 0.500239 -0.499408 0.500592 0.000352395 -0.3 0.1 -0.5 -0.5 -0.3 -0.1 0.1 -0.1 -0.3 -0.3 0.5 0.5 0.499625 0.0727084 -0.227292 0.0724608 0.299313 -0.308636 0.393772 -0.397675 -0.355048 0.0671917 0.00433997 -0.135519 0.149662 -0.394264 0.1062 -0.19532 -8.36546e-05 -8.69314e-05 -0.1 0.2 0.5 -0.3 0.4 -0.3 -0.4 -0.3 -0.0991858 0.100676 -0.44056 -0.0459213 -0.511669 0.00661371 -0.622429 -0.152246 0.415259 0.496558 -0.16842 0.225907 0.108219 -0.446964 0.0457952 0.337598 -0.170051 -0.0437124 0.492503 0.100997 1.21238e-11 -0.1 -0.3 -0.4 -0.2 -0.1 0.1 0.210322 0.0897143 0.473336 0.000873793 0.46435 -0.470201 -0.147175 -0.157656 -0.729713 -0.386621 -0.767249 -0.029409 -0.64024 -0.854179 -0.999043 -0.632974 -0.481063 -0.604943 0.521673 0.420522 0.5106 0.299995 7.8103e-08 0.1 -0.5 0.4 0.2 -0.109222 0.200043 -0.533506 -0.345254 -0.425749 -0.286013 0.0348453 -0.372692 0.0134871 -0.156412 -0.467311 -0.593118 -0.572742 -0.260617 0.0149456 -0.520384 -0.416269 0.511174 -0.292804 0.546547 -0.0978397 0.455192 -0.273941 0.0148948 -1.98415e-10 0.3 -0.3 -2.71883e-05 -0.310448 0.176613 0.128052 0.0665708 -0.342214 -0.348985 0.28109 0.327364 -0.801532 -0.747245 -0.559022 -0.535549 -1.344 -0.86423 -0.710597 -0.197634 -0.797085 -0.317833 0.325174 -0.246032 0.480593 -0.22296 0.360959 0.119094 -0.299893 -3.4723e-11 0.39928 0.299948 -0.0294979 0.191494 0.139981 0.281516 -0.0267238 0.0294573 0.162629 -0.65389 -0.0887328 -0.667303 0.120829 -0.131752 -1.01432 -0.216394 -0.45973 -0.928135 -0.68914 -0.33678 0.20476 -0.226031 0.68369 0.35158 0.200044 0.435307 0.000138249 -3.4723e-11 -1.02376e-07 0.299945 0.51523 -0.266168 -0.0647584 0.172721 0.445574 0.262763 -0.232669 0.108374 -0.0361257 -0.338443 0.533407 0.761188 -0.288062 -1.1217 -0.679524 -0.992191 -0.18198 -0.358155 -0.0205934 0.63494 0.349108 0.728285 0.280361 0.0313814 0.400032 -0.2 -0.314409 -0.46085 0.434146 0.231732 -0.520335 0.142163 0.464143 0.611702 0.0199392 -0.294497 0.0127173 0.633975 0.292041 -0.096804 -0.77629 -0.785389 -0.745531 -1.56337 -0.456443 0.149335 -0.0501266 0.0176058 0.269233 0.187853 0.260365 0.30033 4.35456e-05 0.3 -0.114409 -0.361178 0.0516957 -0.0393671 -0.0710396 0.274576 0.0532576 -0.00172002 -0.707889 -0.53689 -0.351861 0.272675 0.120355 0.464624 -0.235615 -0.651442 -0.858077 -0.226184 0.115367 -0.109933 0.463632 -0.24323 -0.229781 0.117819 -0.398578 -0.199676 0.300046 -0.3 -0.5 -0.506892 -0.106374 -0.289798 -0.0136943 0.379815 -0.2149 0.0652028 -0.154428 0.40799 0.65763 0.164934 0.672748 -0.0319682 -0.423814 -0.400815 -0.890024 -0.00961807 -0.704448 0.534869 -0.0760026 0.503749 0.558435 0.50606 0.379735 0.204665 -0.299997 -0.1 -0.203319 0.296553 0.298546 -0.482759 0.157033 0.0444371 0.209984 0.453119 0.442416 -0.000947244 0.498031 0.2846 0.741954 0.442442 0.184935 -0.438009 -0.817537 -0.0480013 0.00436982 0.570853 0.64562 0.44373 0.189775 -0.0394431 -0.17589 0.104675 -0.399999 -0.5 -0.103319 -0.403336 0.359313 0.26805 -0.0276993 0.595818 0.201344 -0.263911 -0.0456829 0.873998 0.591932 0.480318 -0.583649 0.0591499 -0.299574 -0.593528 0.0772436 0.0929209 0.0746333 0.187914 0.026626 0.227137 -0.185202 0.252323 -0.041654 0.00467217 0.3 -0.5 0.5 -1.90402e-06 0.460946 0.372458 -0.464255 0.275051 0.223657 0.235824 -0.20936 0.287858 0.040882 -0.0703748 0.408605 0.123471 -0.363464 0.0301607 -0.702999 -0.741938 -0.492399 0.305659 0.263111 0.252491 -0.0182726 0.0940518 0.147993 0.499995 0.1 -3.11875e-12 0.5 -0.1 0.399693 -0.344346 -0.12167 -0.555929 -0.280922 -0.874677 -0.543167 0.5696 0.351512 0.41496 -0.380305 -0.465246 -0.846462 -0.293458 -0.330944 -0.523098 0.00941432 0.162405 -0.615361 -0.333043 0.244382 0.110817 -0.327112 -0.527267 0.3 -3.11875e-12 -0.1 -0.486136 0.403696 -0.4306 -0.108781 -0.520758 -0.10679 -0.890954 0.420222 0.384221 0.0492284 -0.185828 -0.558301 -0.0830207 -0.570529 -0.388326 -0.263739 -0.171972 -0.166392 -0.605934 -0.797033 -0.0670097 0.0622562 0.19841 0.546028 0.172353 -0.3 0 -0.2 -0.180181 -0.135472 -0.113 -0.787471 -0.701678 0.00115754 0.347635 0.31549 -0.128978 -0.0159604 -0.576576 -1.1972 -0.675993 -0.103825 0.444478 -0.193349 -0.873063 -0.531189 -0.486871 -0.565856 0.234296 -0.305657 0.0810673 -0.305028 0.299143 -0.400025 0.3 -0.1 -0.0833686 -0.161156 -0.165099 -0.372875 -0.879879 -0.203398 0.370645 0.711847 0.174241 -0.396195 -0.233688 -0.947856 -0.921344 -0.553739 -0.51753 -0.500634 -0.349605 -0.142722 -0.585393 -0.153994 -0.362866 -0.583988 -0.417789 -0.618508 0.29924 0.399975 0.5 -0.1 0.0624175 0.295715 0.0188421 0.0812901 -0.418528 -0.200436 -0.543811 -0.234501 -1.04079 -0.225309 -0.624757 -0.899134 -0.138899 -0.909689 -0.284618 -0.343909 -0.109721 -0.407229 -0.627903 -0.490186 -0.507314 -0.256699 -0.342133 -0.478494 -0.500212 0.299989 0 0.5 0.362621 0.345234 -0.671131 -0.265951 -0.371359 -0.502135 -0.66098 -0.712693 -0.537097 -0.668219 -0.881576 -0.34857 -0.0375245 0.473417 -0.110762 0.16947 -0.879954 -0.116933 0.0202123 -0.3134 0.460358 -0.36212 -0.181039 0.054142 0.204777 -0.4 0.4 0.4 -0.16233 -0.0192162 0.281495 -0.2842 -0.598877 -0.909661 -0.291881 -0.894601 -0.684481 -0.642872 -0.686351 -0.6074 0.375057 -0.35943 -0.324962 -0.331095 -0.534007 -0.277161 -0.216474 -0.0693975 0.0702386 0.329143 0.24241 0.502136 0.510012 -0.1 -0.3 0.5 0.374744 0.455593 0.103399 -0.195888 -0.781053 -0.632591 -0.0020837 -0.419553 -0.143284 0.0871601 -0.248437 -0.00143677 -0.228405 0.516376 0.805881 -0.253699 -0.600656 -0.533621 -0.378564 -0.580775 -0.552118 -0.537481 -0.245499 -0.494862 0.504644 -0.4 -0.3 -0.5 -0.0247533 0.0596372 -0.318722 0.0334657 -0.613426 -0.3389 0.057815 -0.50865 -0.774996 -0.263584 -0.360284 -0.667915 0.470807 -0.331805 0.800049 0.0767547 -0.0742525 0.0119266 -0.258323 0.546041 0.594431 0.164717 -0.016013 0.300613 0.29998 -0.3 -0.3 -0.3 3.83149e-23 -0.199784 -0.137575 0.35425 0.423128 0.0725954 -0.029568 -0.281204 -0.22706 0.0429329 -0.124148 0.23191 0.354101 -0.309302 0.242843 -0.304188 -0.0131099 -0.2159 0.166759 -0.0472345 0.56539 0.00883194 0.5 0.300159 -0.5 0.2 0.2 0 0 -3.45247e-06 0.111493 -0.286163 -0.430726 0.0547488 -0.17638 0.152589 0.456138 -0.448749 0.128045 0.152263 -0.332798 -0.349322 0.0175732 0.290429 -0.013897 0.00866366 0.00651386 0.205985 0.401993 0.502718 -0.200022 0.5 -0.3 0.1 -0.2 0.2 0.1 -0.490432 -0.0854231 0.310613 -0.119544 0.270641 0.12908 0.633042 0.499884 0.544927 -0.0185614 0.285035 0.457554 -0.100179 0.0871906 -0.556084 -0.509343 0.00103816 0.301052 0.201144 0.000991344 0.501001 0.3 0.4 0.1 -0.3 0.5 0.4 0.3 0.2 -0.5 -0.400123 0.466631 0.16663 -0.133247 -0.2 0.499999 -0.400201 0.407222 0.407222 -0.497022 0.293243 -0.201106 -0.501212 -0.3001 -1.58356e-05 -0.100012 0.299983 -0.300005 0.199995 -0.3 0.4 -0.5 0.1 -1.28097 
0.4 0.2 -0.3 0.1 0.5 0.2 0.3 -0.2 0 -0.1 0.1 0 -0.4 -0.5 -0.5 0.3 -0.3 -0.1 0.5 0.1 -0.2 -0.1 0 -0.5 0.5 0.2 0.1 0.1 -0.3 0.3 0.1 0.2 0.2 -9.76878e-11 -0.1 -0.4 -0.4 -0.1 0.0999997 0.2 0.299999 -1.31438e-06 0.199999 0.000798554 0.3008 -0.3992 0.5 0.39877 -0.501233 -0.101233 -3.06335e-06 -0.2 -0.1 -0.1 0 0.2 0 0.3 -0.1 -0.1 0.2 -0.1 -6.54174e-09 -0.500019 -0.200029 0.19997 1.2989e-05 0.400809 -0.504838 -0.502042 -0.092025 -0.000146846 0.0970323 0.0917571 0.444361 0.353433 0.304797 0.00124023 -0.100738 -0.5 -0.2 -0.2 0.5 0.1 0.4 0.2 -0.3 0.3 0.4 0.199985 0.199527 0.199178 0.196837 0.497274 -0.502855 0.196153 -0.336534 -0.141014 0.035339 0.263349 0.00582913 -0.246475 -0.302402 0.11626 0.34623 -0.283017 -0.441409 0.500456 0.200002 -0.1 -0.1 -0.5 -0.4 0.3 0.1 0.3 -0.427161 0.167398 -0.305404 0.308044 0.218412 -0.110063 0.0221205 -0.258503 -0.37113 -0.0999691 -0.0629549 0.232761 0.17232 0.591913 -0.248335 0.268725 0.133078 -0.587639 -0.101572 -0.116622 0.0543812 -0.391703 0.4 0.1 0.1 -0.4 -0.3 0.184637 0.0524666 0.0696989 0.0826067 0.373306 -0.403978 0.438785 0.29116 -0.264922 -0.379423 -0.174492 -0.461186 0.147486 -0.720016 -0.739418 -0.220868 -0.332907 -0.104064 -0.5935 0.210238 -0.117775 0.104319 0.255754 0.0921203 0.1 0 0.3 0.199981 0.284569 0.229048 -0.143287 0.274045 0.438396 -0.080193 0.398996 -0.434118 -0.37664 -0.732453 -0.69664 -0.226261 -0.512376 -0.621924 0.149219 0.554176 0.491455 0.319274 -0.0118947 0.217692 -0.286598 0.0930352 -0.0449195 -0.0045718 -0.400018 -0.200261 0.354888 0.49972 -0.117388 0.331219 -0.163987 0.259852 0.209584 -0.0172467 0.0259608 -0.474905 -0.458494 0.0392334 -0.212742 0.235642 0.0462884 0.838611 0.492514 0.91047 0.43333 0.399816 -0.0544288 0.525163 0.365203 0.772106 0.175633 -0.0934405 -1.75607e-05 -0.000261349 0.399739 0.299719 0.439691 0.302419 0.0605902 -0.0850063 -0.180457 0.0676985 0.0407726 -0.22753 -0.0528328 -0.300003 -0.0327084 0.214709 0.660721 0.651599 0.471149 1.24884 0.358463 1.25098 0.260368 0.585957 0.305709 0.453519 0.800203 0.104009 -0.5 0.0997387 0.023382 -0.10061 -0.354862 -0.183687 -0.0702268 -0.226143 0.0497504 0.504914 -0.15998 -0.16567 0.0412945 -0.145329 0.587335 0.541638 0.280149 0.433242 0.298837 0.815111 0.324832 0.707979 -0.206662 0.707514 0.186842 0.628963 0.747546 0.211219 -8.895e-09 -0.3 -0.176357 -0.200348 0.311902 -0.301024 -0.428311 -0.201659 0.205711 0.116332 0.127453 0.697393 0.703213 0.669912 0.118645 0.811151 0.713241 0.903783 0.0152175 0.221851 0.638851 0.0143772 -0.10635 -0.468839 0.431899 0.545482 0.703564 0.199833 -0.5 0.4 -0.200449 -0.500332 -0.433851 -0.259647 -0.368458 -0.322666 0.186807 0.238672 0.453423 0.568827 0.282477 -0.0523437 0.00950582 0.251233 0.169017 0.724365 -0.0174826 0.619765 0.210288 0.0485128 -0.515323 -0.538816 -0.194164 0.0484047 -0.0507307 -1.49736e-06 -4.87333e-07 0.4 0.5 -0.5 -0.326832 0.0733047 -0.501643 0.0382241 0.282145 0.245965 0.537601 0.10412 0.159902 0.215676 0.091281 0.370152 0.625402 0.27559 -0.157375 0.0726863 0.0808254 0.605152 0.282194 0.329208 -0.405082 0.0369521 -0.250381 0.299998 0.0999995 0 -0.1 0.0933721 -0.126951 0.192481 -0.314187 0.529583 0.0294038 0.356327 0.414974 0.410596 0.608225 0.409809 0.761383 0.79708 0.199025 0.196904 0.664128 -0.136368 -0.0876096 -0.308991 -0.231081 0.153694 -0.110963 0.249002 0.183688 0.399998 -0.4 0 0.2 0.100001 -0.131287 -0.300685 -0.284501 0.0818137 0.421728 0.617544 0.759197 0.714577 0.779472 0.457538 0.394492 0.0404492 0.199818 0.174739 0.453123 0.477096 0.0620159 -0.471136 0.308596 -0.540137 0.248353 -0.267133 -0.116463 0.299896 0.1 0.4 -0.5 -0.2 0.371574 0.49018 0.0429807 0.00355261 0.551089 -0.183989 -0.0861336 0.469951 0.255203 0.650607 0.464855 0.124705 0.129289 0.0241516 0.499546 0.0831013 0.413641 -0.0459539 -0.151839 -0.483634 -0.611971 -0.509787 0.485767 0.00927422 0.4 0.3 0.4 0.500101 -0.296746 -0.020653 -0.182703 0.46898 0.00137601 0.670595 0.325445 -0.290305 -0.0877551 0.157726 0.619738 0.308955 0.794687 0.191608 -0.0206587 0.41726 0.285067 -0.271662 -0.232566 -0.422183 0.139783 -0.0494408 0.0968394 0.498571 0.5 -0.2 -0.2 0.176919 0.376004 0.239448 -0.378613 0.446336 0.206719 -0.221854 -0.499281 0.327427 -0.658565 -0.321559 0.56953 0.0146555 0.183463 0.518107 -0.267758 0.636546 -0.0103646 0.321073 -0.23347 -0.127334 0.394128 -0.118622 0.185182 0.399993 -7.15326e-06 0.5 0.5 0.477017 -0.437804 -0.485542 -0.424763 0.39694 -0.159728 0.0186537 -0.0494393 0.249943 -0.352225 -0.171334 0.61519 0.732744 0.0129717 0.600942 -0.36374 0.0211126 -0.331542 -0.225217 0.284939 -0.390745 0.442347 -0.535178 -0.0058216 -0.100008 0.00241149 0 -0.3 -0.303066 -0.369275 0.246454 0.347986 0.39037 -0.1506 0.0278353 0.658337 0.566808 0.827916 0.910405 0.127942 -0.0951966 0.135683 0.102648 -0.129865 -0.166834 0.271947 0.346288 -0.268658 -0.248355 0.0985795 -0.352586 -0.490756 0.100173 0.202419 -0.4 2.26362e-09 -0.203165 0.417811 -0.445047 -0.316475 -0.286669 0.129325 0.14786 0.583543 0.169054 0.452274 0.819185 0.208349 -0.105311 -0.531356 0.406744 -0.113184 -0.415913 -0.109215 -0.416471 0.265304 -0.34298 0.358692 0.0362847 -0.391021 0.000172296 0.2 0 -0.4 0.196834 -0.463099 -0.119345 -0.459079 0.152155 -0.246284 0.440448 0.303686 -0.182608 0.411474 0.736431 0.102579 0.0409069 -0.72821 -0.171103 -0.483186 0.185816 0.328963 0.274981 0.0952688 -0.0303244 -0.0182526 -0.183999 -0.000322318 -0.101249 0.3 -0.5 0 -0.500012 -0.127307 -0.0428003 -0.495857 0.35842 -0.114761 0.396773 0.0157981 0.0079748 0.697154 0.439868 0.0306998 -0.00729807 -0.22558 0.423135 0.170679 0.0467357 -0.0513281 -0.461603 0.432769 0.349984 -0.182883 -0.288842 0.39997 -0.200001 -3.31595e-14 -0.2 0.3 -0.5 -0.525792 -0.499744 -0.405105 0.0457123 -0.451767 0.347114 0.400355 -0.0372889 0.8455 -0.142179 -0.345062 0.0712237 0.534443 0.127587 0.488479 0.423812 -0.297759 -0.332558 0.292938 -0.0297405 -0.0688759 -0.39561 0.200017 0.2 -0.1 0.1 -0.2 -0.2 -6.84097e-05 0.143247 -0.0925968 -0.0555162 0.125646 -0.074623 0.232527 0.0299956 0.214378 0.0450309 -0.00453761 0.0037569 0.0393086 -0.266057 0.459063 -0.525518 -0.494682 0.103889 0.0730841 -0.225877 0.0173797 -0.000605344 0.3 0.2 -0.1 0.2 -0.2 -0.5 0.2 0.0251959 -0.252819 0.124341 0.363291 0.178665 0.502731 0.311962 0.474494 0.282546 0.189714 -0.311388 0.457494 0.10249 0.116662 0.0168064 0.309472 -0.466949 0.421776 0.0217178 0.497582 -0.399999 -0.5 -0.5 0.4 -0.5 0.2 0 0.126232 0.46729 -0.3858 0.12784 0.157886 0.469806 0.422451 0.0889457 0.0321797 -0.099575 -0.114998 -0.463346 -0.069656 0.526278 -0.303137 -0.515608 -0.0262668 -0.176224 -0.376225 0.0237673 -0.0981072 0.1 0.5 0.3 -0.3 0.2 -0.3 0.4 0.2 -0.4 0.500004 -0.160644 -0.560644 -0.260648 -0.40013 0.399874 -0.295453 0.298491 0.398492 -0.20665 -0.300272 0.39966 0.399594 -0.299933 -0.199957 -0.299991 -0.199989 0.400011 -0.299999 0 -0.5 -0.2 0.5 1.02245 
-0.5 -0.2 0.1 0 0.5 -0.1 0.2 0.5 -0.4 0.2 -0.1 0 0.2 0.1 7.77768e-21 7.77768e-21 -0.1 0.3 0.4 0.2 0.3 0 0.5 -0.1 -0.5 -0.4 0.4 0.5 0.3 0.1 -0.2 -0.1 -0.5 0.1 -9.50845e-15 0.2 0.5 1.8996e-15 -0.0959683 -0.195968 -0.1646 -0.258482 -0.0588626 0.317436 0.4117 0.00422543 0.400072 -0.299957 0.500148 -0.399852 0.100105 1.01492e-13 0.2 0.3 -0.5 0 -0.3 0.4 0.2 0.5 -0.5 -0.3 -0.4 -0.5 -0.426771 -0.326771 -0.133343 -0.330613 -0.253148 -0.0457816 0.357538 -0.185096 0.324826 0.244112 0.227504 -0.245308 -0.170683 0.101677 0.500642 0.400491 0.000476195 -4.02041e-21 -0.5 0.1 0.1 0.3 0.1 -0.4 -0.5 0.100009 0.19986 0.526241 0.183334 0.25116 0.47979 -0.285003 0.0390811 0.170586 -0.0523791 -0.0889095 -0.354295 -0.336087 -0.244212 -0.0272874 -0.104727 -0.487284 -0.0528509 -0.187107 -0.257132 -0.3 0.2 -0.3 0.3 0 -0.1 9.3258e-05 -0.296096 -0.199235 -0.392037 0.0501724 -0.437683 0.0394436 0.463781 -0.264738 0.303769 -0.308262 0.109733 0.129735 -0.592604 -0.0750613 0.264447 0.138854 -0.487317 -0.379124 -0.0256234 -0.280297 0.604464 -0.405288 -5.12207e-13 -0.2 0.4 -0.4 -4.76367e-08 -0.526316 0.449609 -0.380891 0.293532 -0.420946 -0.286559 0.371107 -0.730226 0.354053 -0.00420565 -0.088645 0.288303 0.351097 -0.205691 0.245683 0.223402 0.0170828 -0.629747 -0.321609 -0.168714 -0.0385837 -0.179151 -0.0731993 0.00371537 0.400752 0.5 0.2 0.398934 -0.0254308 0.0502816 0.291691 -0.333704 -0.569687 -0.077532 0.322202 0.467382 0.154353 -0.251469 -0.0500319 -0.295154 0.178091 -0.0288478 -0.0678182 -0.339084 0.135061 -0.0839201 -0.138496 -0.298366 -0.267215 0.126769 -0.0629977 -0.308331 -0.400721 -0.100574 0.199417 -0.501787 -0.425188 -0.339494 0.0116525 -0.388573 -0.221063 -0.275916 -0.53433 -0.213224 -0.474122 -1.03762 -0.81964 -0.189446 -0.253872 -0.187697 -0.251714 0.244012 -0.805368 0.133761 0.113046 0.226576 -0.011656 0.372751 0.213863 -0.00972269 0.000409349 -0.200574 -0.100574 -0.301626 -0.399572 0.380994 -0.26904 -0.436205 -0.153735 -0.121225 0.657723 0.256779 0.0506568 -0.328125 -0.740337 -0.69926 -0.156485 0.0291801 -0.43197 -0.572135 -0.246515 0.312201 -0.0749526 0.0415003 0.427142 0.178139 0.43706 0.0108492 -0.0906979 0.399426 0.0905965 0.200283 0.507615 -0.0118471 -0.213633 -0.716501 -0.58003 -0.226052 -0.25561 -0.0236202 -0.875408 -0.154208 -0.884852 -0.368254 -0.362808 -0.951141 -1.4544 -1.29134 -0.335875 -0.843021 0.497455 -0.129821 0.116258 0.277848 -0.216132 -0.393171 -0.490698 8.16763e-08 0.191171 -0.398912 0.0204345 0.0578117 -0.337306 0.237165 0.471993 -0.309029 0.129465 -0.169362 -0.270666 0.241258 -0.0460538 -0.342877 -0.111301 -0.28871 -1.39278 0.109517 -1.14996 -0.161721 0.571385 0.208087 -0.261788 0.235987 0.169446 0.102848 -0.3 0.3 0.199978 0.300247 -0.380389 -0.236223 -0.313709 0.621186 -0.116987 0.113934 -0.203519 0.31266 -0.148685 0.0607273 0.490911 0.38015 0.00262288 -0.160042 -0.601283 -0.462025 -0.522474 -0.0101589 -0.380782 -0.00112581 -0.434179 0.159912 -0.122571 0.000859215 -0.29872 -0.3 -0.000891198 0.300303 0.0338802 -0.0346668 0.533734 0.264556 0.544719 0.388964 0.0624551 0.166556 0.170309 0.692339 0.562546 0.231219 0.305925 0.393149 0.00336461 0.251787 0.344056 -0.160167 -0.322551 0.448779 -0.104464 -0.586136 -0.59338 -0.399258 -0.29872 0.3 -0.500891 0.297728 0.039877 -0.0176461 0.628805 -0.0347346 0.14309 0.0577841 -0.599796 -0.246526 0.40292 0.541231 0.207636 -0.266134 -0.0801268 -0.281302 -0.215985 -0.251644 -0.414972 -0.0382732 0.383529 -0.613626 -0.604645 -0.142545 0.302975 -0.399258 -0.3 0 0.5 -1.59704e-05 -0.462987 0.0949534 0.439268 0.085395 -0.543213 -0.0882237 -0.227409 -0.663834 0.341645 0.42237 0.0613812 -0.419711 -0.493006 -0.240074 -0.0720369 -0.125361 -0.08541 -0.409335 -0.587304 -0.44748 0.0753779 -0.0653685 0.374805 0.499906 0.1 -0.4 2.715e-10 0.2 -0.492992 0.397228 -0.289212 0.218017 -1.02888 -0.407434 -0.314159 -0.630751 -0.0656036 -0.0311538 0.161198 -0.381406 -0.520986 -0.414644 0.243377 -0.0979325 0.0897441 -0.0774986 -0.284858 -0.202794 -0.25207 -0.0839277 0.277857 0.477911 -0.521783 -0.1 0.3 0.10018 -0.493168 0.406466 0.14152 -0.332549 -1.17473 -0.556433 -0.0362591 -0.723585 0.170257 0.291585 0.26438 -0.295662 -0.72224 -0.641988 -0.0386835 -0.501616 -0.179937 -0.337451 -0.0662767 -0.0336387 0.234199 -0.677552 -0.571701 -0.322075 0.278217 0.3 0.2 0.457677 -0.329514 -0.518945 -0.0412634 -0.292819 -0.259798 -0.402918 -0.782532 -0.366764 -0.293573 0.055629 -0.0304195 -0.450243 -0.0269275 -0.765229 0.0823291 -0.425887 -0.587389 -0.676315 -0.848626 -0.290801 -0.252008 -0.886043 -0.366381 -0.344406 -0.244406 -8.65823e-14 -6.03886e-19 0.257262 -0.146524 -0.189843 -0.222031 -0.864047 -0.684631 -0.67271 -0.0396378 -0.272606 0.482186 0.162239 -0.0260296 -0.257736 -0.605225 -0.602622 -0.360141 -0.521431 -0.459559 -0.699897 -0.974615 -0.945383 -0.349965 -0.6064 0.0161586 -0.444406 0.0544596 -0.2 0.2 -0.0113554 0.14977 0.178352 0.0792376 -0.284187 -0.335844 -0.955588 -0.698995 -0.00452462 -0.279678 -0.967934 -0.546576 -1.19165 -0.142841 -0.622129 -0.295611 0.363244 0.385456 0.0825064 -0.616098 -0.949203 -0.411126 -0.615418 -0.567285 0.392923 0.0988712 -0.2 0.4 -0.0403122 0.0780468 0.248811 -0.682149 -0.116094 -0.239299 -0.362833 -0.4324 -0.226972 -0.637156 -0.233949 -0.676685 -0.358929 -0.118592 -0.830195 -0.0893432 0.272221 -0.0350825 -0.378308 -0.841595 -0.29079 -0.23164 0.36226 0.0154589 -0.107615 0.5 0.5 0.2 0.388644 0.0628437 0.0413909 -0.0686174 -0.105333 -0.15578 -0.564183 -0.788601 -0.753234 -0.862504 -1.04273 -0.807566 -0.145667 0.144976 -0.0105981 -0.342519 0.0478795 -0.23538 0.121097 0.0375278 0.293501 0.240764 -0.0842543 -0.458536 -0.407613 0.4 -0.3 0 0.400011 0.469354 0.405872 -0.179214 -0.0199329 0.189162 -0.17643 -0.532236 -0.172083 0.432558 -0.290905 -0.52821 0.234345 0.102317 0.153699 0.0716653 -0.192214 0.713126 -0.315787 -0.0671752 0.315687 -0.125211 -0.188256 -0.402897 -0.500538 0.1 0.1 -0.4 -1.41635e-09 0.0737973 -0.421628 -0.18124 -0.449307 0.56728 0.382147 -0.397127 0.0877858 0.0539059 0.191044 0.410444 -0.313176 0.221155 0.283294 0.812278 0.445683 0.411895 -0.137116 -0.0572302 -0.301139 0.393966 -0.294872 -0.502362 -0.2 0.3 0.2 0.1 0.1 -0.374909 -0.549274 0.463558 -0.466171 0.207087 -0.0213335 0.322615 0.173023 0.0227789 0.457474 -0.265126 0.180382 0.539686 0.840674 0.0645532 0.284466 -0.349977 -0.0329491 0.201672 0.353918 0.0261183 -0.396477 -0.3 -0.2 0 0.3 -0.5 -0.4 -0.498777 -0.405619 0.0771825 0.4469 0.536409 -0.340027 -0.193449 0.364937 0.406132 -0.217051 0.143562 -0.279418 -0.390651 -0.195205 -0.157445 0.180457 -0.435368 0.0362382 0.0279684 0.0303995 -0.414991 0.00599543 -0.2 -0.3 0.1 0 0.3 0.5 -0.500032 -0.200128 -0.408659 0.110777 -0.0113044 0.0236498 0.20409 -0.0317003 -0.479282 -0.272258 -0.225635 0.0333878 -0.623082 0.0860004 0.383871 0.507837 0.399251 -0.298293 0.101723 0.30209 -0.499994 -0.5 0.2 0.1 -0.3 -0.2 -0.1 0.3 0.2 0.4 0.299998 0.000122686 -0.199877 0.100124 -0.200042 0.199799 0.00317583 -0.205833 0.294152 -0.530849 0.177574 -0.522363 0.280045 -5.22341e-05 -0.100055 0.19985 0.499854 0.299854 1.92003e-13 0 0 0.3 0.5 -0.736371 
0.2 -0.2 0.3 0 0.4 0.2 -0.2 0.5 -0.2 0.4 -0.4 0.4 0.4 -0.3 -0.4 -0.5 0.3 0 0.3 -0.4 -0.3 0.2 0.2 -0.3 -0.1 0.4 -0.4 0.1 -0.1 0.2 -0.4 0.1 -0.1 -0.5 0.399972 -0.156237 -0.0562326 -0.467121 0.189215 -0.310785 -0.116273 -0.416261 0.0864485 0.5021 0.199379 -0.100625 0.0994027 0.567322 0.0673449 0.567345 7.99099e-06 -1.41655e-05 0.2 0.4 -0.4 0.2 -0.1 -0.1 -0.5 0.5 -3.26935e-11 -0.113157 -0.213195 -0.290802 -0.491136 -0.191568 0.190268 0.325225 -0.577168 0.330908 -0.234927 -0.366496 0.223848 0.101237 0.0862526 0.066135 0.571875 0.472 -0.396296 0.394445 -0.00839485 0.2 -0.3 0.5 0.4 -0.1 -0.4 -0.1 0.3 0.186711 -0.117597 0.0711571 -0.137313 0.199256 0.182328 -0.325707 -0.48776 -0.0784453 -0.0339437 0.438622 -0.318889 0.0107239 -0.158943 -0.342577 -0.307172 0.484247 -0.472035 -0.203366 0.410127 0.299535 -0.2 0 0 -0.3 0.3 0.102167 0.00261947 -0.213837 -0.339673 -0.843943 -0.278943 -0.667494 -0.784966 -0.121348 -0.827723 -1.07301 -1.09888 -0.486827 -0.510696 0.137618 0.0788966 1.01091 0.896086 0.132447 0.16406 0.0100274 0.258118 0.0393884 0.316606 0.1 0.5 -0.5 -0.400273 0.297603 -0.0274886 -0.473921 0.0401442 -0.390302 -0.687637 0.162601 0.373997 -0.166391 -0.672088 -0.431052 -0.165003 0.169811 1.19433 0.945804 1.00605 1.2966 1.09947 1.29318 1.39498 0.83048 0.457426 0.208408 0.116653 -0.00023804 0.2 0.1 -0.269471 -0.0664932 0.194533 -0.248491 -0.663478 0.361243 0.0281657 -0.606146 -0.408497 0.584173 -0.337586 -0.201011 -0.996592 -0.106748 0.511499 0.0876438 0.53522 0.766907 1.00094 1.59189 1.0897 0.987672 0.266742 0.686587 0.113701 0.39981 0.0148874 -0.185533 0.548643 0.195609 0.279907 -0.47494 0.527352 0.350875 0.475821 -0.0266687 0.137487 -0.337573 -0.159119 -1.69274 -1.73794 -1.47359 0.539857 -0.412219 -0.25076 0.557445 0.32904 0.67516 1.00548 0.562572 0.333478 0.645677 0.227806 0.200048 -0.0851126 0.314888 -0.481633 0.200731 -0.433785 0.600163 0.437095 0.31404 0.435485 0.0179649 0.552842 -0.19585 -0.703474 -0.721639 -1.83493 -0.396524 -1.22805 -0.225645 -0.0239395 -0.782852 0.608913 0.270769 0.0733749 -0.309851 -0.619413 -0.222059 -0.481783 0.500001 0.214887 0.130525 0.216513 -0.511869 0.0424855 0.251359 0.608086 0.866811 0.138325 0.686124 0.468928 -0.00603094 -0.40571 -1.5013 -1.93989 -2.09186 -0.655847 -0.427567 -1.03986 -0.936941 -0.694207 -0.243634 -1.22484 -0.26541 0.0729586 -0.366713 0.0182054 0.400001 7.63016e-05 0.0156373 -0.495923 -0.258855 0.54408 0.720016 0.918687 1.13743 0.435565 0.667895 0.991075 0.249765 0.200333 -0.898275 -0.587157 -0.178062 -0.716048 0.212562 -0.899739 -0.789473 -1.17257 -0.612645 -0.627336 -0.94313 -0.795577 -0.482188 -0.0830775 0.3 0.300076 -0.196756 0.104833 -0.161154 0.765597 0.4421 0.567592 -0.0221354 0.390546 0.460302 1.61278 0.971924 0.239654 0.315947 0.394651 0.351687 0.485737 -0.00371419 -0.140035 -0.233217 -0.737158 -0.304482 -0.661748 -1.18557 0.029834 -0.199627 -0.10102 -0.1 0 0.500046 0.488091 0.589921 0.488795 0.4892 0.669136 0.087026 0.241582 1.02195 0.902316 0.936074 0.745273 0.35611 -0.527732 0.148514 0.797973 0.907648 0.23094 0.45295 -0.105365 -0.123791 0.0933342 -0.7186 0.0953305 0.302734 0.5 -0.5 0.4 0.500047 0.485496 -0.301745 0.669212 0.545927 0.585435 -0.313691 -0.372556 0.497747 1.63763 0.574446 0.262813 -0.646217 -0.811904 -0.760727 -0.172995 0.292216 1.05588 0.482688 -0.384713 -0.336038 0.144774 -0.801544 -0.794091 0.314962 -0.1 -0.5 0 0.4 -0.30002 0.573195 -0.0700476 0.48297 0.381284 -0.445604 -0.0290018 -0.54725 1.0101 0.373667 0.223231 -0.399677 -0.812176 -0.257435 -0.218006 0.0987972 0.43554 1.13298 -0.160343 0.704995 0.361961 -0.464445 -0.708432 0.322072 0.299965 0 -0.0999998 -0.5 -0.199974 0.0427993 -0.0697649 0.657311 0.0135744 -0.768655 0.409463 -0.841162 0.349785 0.620777 -0.432415 -0.402312 -0.185994 -0.968348 -0.00010779 0.137125 1.04769 1.21206 1.07289 -0.0100455 -0.16147 -0.500206 -0.457539 -0.487034 0.500086 -0.3 0.3 0.3 0.496481 0.501734 0.170745 0.6139 0.575497 -0.280049 0.469497 0.0401551 0.0488602 -0.533731 0.113857 -1.01896 0.0511969 -0.881857 -0.0177658 -0.182737 0.179442 0.12444 0.196055 -0.421035 -0.572637 0.543639 -0.74489 -0.139444 -0.432374 0.5 0.3 -0.2 -0.20382 0.0800705 -0.473467 -0.184612 -0.237178 0.110604 -0.427924 -0.345711 -1.34858 -1.08812 -1.73033 -0.322962 -0.940106 -1.20332 -0.141035 -0.220832 0.431245 0.441167 0.0292208 -0.581337 -0.458487 -0.296062 -0.811086 0.268888 -0.232607 0.0999213 -0.5 -0.5 -0.0767524 0.457632 -0.512867 -0.33843 -0.918092 -0.788276 -0.692335 -1.62215 -1.20861 -0.455757 -1.18439 -0.792331 -0.387465 -0.924355 -0.386245 0.258852 0.22931 0.175702 -0.0599165 -0.580129 0.00895083 -0.294612 -0.356464 0.272264 0.299788 0.499715 -0.2 -0.5 0.596268 -0.167462 0.413839 -0.222857 0.00613302 -0.663548 -0.978992 -0.267658 0.208785 -0.820511 -1.05797 -1.55634 -0.517727 0.473934 -0.284926 -1.02181 0.108892 -0.391461 0.942764 0.538593 -0.550304 0.192719 -0.00563628 0.297385 -0.500119 0.399794 0.1 -0.300012 0.616445 -0.294272 0.545676 0.141361 -0.704992 -1.11118 0.0447801 -0.235884 0.505022 0.37365 -1.05394 -1.14087 -0.727976 -0.673446 -0.900883 -0.682238 0.423496 0.707043 0.469362 0.686315 -0.0529978 0.332377 -0.103122 -0.304694 -0.500001 0.3 0.2 -0.100012 0.492275 -0.405358 -0.0664972 0.448487 -0.458623 -0.522118 -0.372489 0.485345 0.445896 -0.0894588 -0.99741 -1.18176 -0.687188 -0.264402 0.622087 1.24005 0.66265 1.20105 0.883785 0.577262 0.268963 0.2682 0.294258 0.510739 3.64145e-06 -0.014541 0.4 -0.1 0.193867 0.332779 -0.361561 -0.284275 -0.375544 -0.381676 -0.522526 0.660277 -0.0943453 -0.315534 -0.170226 0.00861893 0.703761 0.753718 1.57649 0.846702 1.41616 0.846045 0.833603 0.654355 0.551905 -0.368067 0.426168 0.497334 -1.65027e-06 -0.114541 -0.1 -0.5 -0.00596424 -0.213309 -0.345692 -0.370054 -0.587997 -0.539378 0.52552 -0.227942 0.0393289 -0.00552876 -0.148042 0.902967 1.37702 1.19214 1.87467 1.45722 1.46997 0.908431 0.440802 0.679497 -0.0612576 0.15777 0.384734 0.409852 -0.200001 0.2 0.2 0.1 -0.3 -0.197342 -0.0556456 -0.295973 -0.573791 0.617688 0.208381 0.661326 0.357883 0.565041 0.391595 0.621784 1.28556 1.90658 1.76695 0.961866 0.504488 0.345272 0.371204 -0.315894 -0.3393 0.313742 -0.540966 0.000108628 -1.99412e-19 -0.5 -0.2 -0.3 0.3 -5.93427e-06 -0.436733 -0.0352334 -0.506228 -0.28631 0.0481208 -0.0451927 -0.35869 -0.0418714 0.0990089 -0.185619 0.252262 -0.471918 -0.304346 -1.30038 -0.622077 -0.129773 -0.082797 0.128632 0.100051 -0.120763 -0.0011244 -0.4 0.1 -0.4 -0.3 0.1 0.1 -0.100078 -7.56997e-05 -0.23457 -0.0295397 0.0575432 -0.209002 -0.192512 0.0341863 -0.591811 -0.00601135 -0.230909 -0.0471097 -0.0398773 0.217913 -0.32259 -0.679908 0.120947 -0.415337 -0.0296923 -0.145944 0.400748 0.5 0 0.3 0 0.1 -0.1 0 0.2 -0.2 0.400014 -0.295495 -0.395495 0.404491 0.499908 -0.199821 0.00928292 -0.482055 0.419792 -0.266965 0.284557 -0.265516 0.155721 0.0466211 -0.499433 0.47999 -0.519205 0.360242 0.000815699 0 -0.4 0.3 0 0.813935 
0.3 0 0.5 0.3 0.5 -0.1 0.2 0 -0.3 0.3 -0.5 -0.5 -0.0999988 0.100001 -0.2 -0.5 0.4 0.2 -0.2 0 -0.1 -0.4 -0.2 0 0 0 -0.4 -0.4 0.3 -0.1 0.5 0 -0.3 0.2 1.33289e-06 0.400002 1.92564e-06 5.34354e-05 0.402606 0.502606 -0.400217 -0.4001 0.10025 0.00687021 0.0063531 0.00514841 -0.09957 0.400001 0.300001 -0.0999997 -0.500001 -9.18409e-07 0 0.5 0.4 0.3 0.2 0.1 -0.5 -0.5 -0.1 0.3 0.400001 -0.199954 0.000112111 -0.00279246 0.104354 0.298455 -0.419053 -0.12545 -0.521008 -0.443178 -0.0265009 0.484439 0.267682 0.33351 0.00668067 0.200643 0.000272556 0.399796 -0.000203856 0.2 -0.1 0 -0.1 -0.2 0.4 -6.55644e-14 -0.2 0.300001 0.400019 -0.361181 0.338792 0.0950957 -0.20551 -0.0141933 0.482962 0.518168 0.25573 -0.0923706 -0.16322 0.159642 0.159229 0.465383 0.112034 0.367679 -0.265178 -0.121766 -0.300524 0.2 0.5 0.4 -0.3 0.3 -0.1 -0.5 0.187007 -0.194833 0.341157 -0.267708 -0.0835135 0.00398 0.0171201 0.182075 0.206541 0.00726118 0.541367 0.343119 0.0838527 0.436178 0.245643 0.269791 0.162234 0.387385 0.535217 0.363896 -0.0991295 0.399708 -0.2 0.1 -0.2 -0.1 -0.4 0.10003 -0.00190509 -0.19818 0.319351 -0.00950267 -0.470726 -0.300445 -0.234159 -0.352022 0.256806 0.0707461 -0.00392894 -0.217558 0.170959 -0.190274 -0.220175 -0.570587 -0.38891 -0.223066 0.315602 0.0163008 0.0697425 0.0751015 0.374096 -4.35693e-12 0.5 -0.4 9.8385e-07 0.100658 -0.40422 -0.0629205 -0.0604725 0.278054 0.0540786 -0.406877 0.639509 0.460139 0.0202896 -0.238632 -0.102547 0.153442 -0.32667 -0.0257194 0.23306 0.231902 -0.102709 -0.486546 0.315549 -0.37595 -0.49014 -0.41408 0.374221 0.199842 -0.200001 -0.199997 0.100063 0.0403836 -0.334895 0.510038 0.12714 -0.401522 -0.11636 -0.00614163 0.270271 0.0173885 0.24275 -0.373475 0.0463911 -0.35722 0.0923781 -0.287414 -0.835753 0.0670069 0.122361 -0.440734 -0.242019 0.309517 -0.227251 0.246193 -0.246208 0.199842 0.399999 -8.33808e-07 0.300062 -0.136581 0.093469 0.231156 0.151403 0.200109 0.334479 -0.103157 -0.466226 -0.323259 -0.585905 -0.213543 -0.730481 -0.812019 -0.242529 -0.348902 -0.728128 -0.533093 -0.327388 -0.787917 -0.580122 0.284992 0.303242 -0.390157 -0.109497 0.5 -0.400001 -0.00131867 0.466053 0.229533 0.214942 0.446074 -0.0246107 0.171011 -0.0785317 0.213557 -0.407764 -0.756269 -0.0314283 -0.573817 -0.191925 0.189785 -0.247403 -0.235619 -0.489939 -0.116267 -0.685522 -0.422141 0.225856 -0.402141 -0.12988 0.25089 -0.0654595 -0.1 0.3 0.0986821 -0.53401 0.280299 -0.247833 -0.378546 -0.53349 -0.128895 -0.239514 -0.468844 0.0766924 -0.67457 -0.657371 -0.609205 -0.267259 -0.799019 -0.495931 -0.600386 -0.578191 -0.528381 0.294506 -0.398562 -0.307432 0.0958951 -0.156554 -0.189615 0.236567 0.3 -0.5 0.5 -0.147483 -0.357501 -0.588363 -0.191467 -0.518744 -0.343649 -0.607701 -0.839662 -0.635537 -0.539505 0.267698 -0.491763 0.25468 -0.423638 0.265308 0.0653368 -0.301028 -0.136275 0.269287 -0.938637 -0.618662 -0.322697 0.413731 -0.119845 -0.494283 -0.1 0 -1.26995e-07 -5.22759e-06 -0.359336 0.443964 -0.304666 0.246542 -0.350869 -0.421636 0.0228787 0.222661 -0.549824 -0.550697 -0.382999 -0.530749 -0.85086 0.0595707 -0.364575 -0.660449 -0.0934286 -0.400448 -0.0764883 0.258424 -0.254477 0.136123 0.210158 -0.094168 -0.2 -0.2 -0.3 0.199996 0.199917 -0.0087009 0.133126 0.241813 -0.158894 0.26227 0.317165 0.0195463 0.297539 0.188083 -0.724221 -0.543865 -0.261702 0.121138 -0.102018 -0.437585 -0.0723935 0.632925 0.291289 -0.451486 0.244561 0.0367555 0.309573 -0.194168 -0.4 0.4 -0.5 -0.3 0.299938 0.265503 0.0450754 -0.603393 0.200578 0.15783 0.0656372 0.34791 0.437385 -0.328212 0.0798456 -0.584194 -0.00421957 -0.0528773 -0.0502671 -0.464786 0.413637 0.19342 0.166894 -0.162795 -0.0240776 -0.46004 -0.0242069 0.371241 -0.5 0.3 -0.3 0.2 -0.200058 0.16638 -0.250159 -0.30987 -0.494456 0.0838389 -0.3063 0.521519 0.0337968 0.232166 -0.00715004 0.437553 -0.30176 -0.40197 0.0182144 -0.229262 0.0787845 0.342199 0.415624 0.303109 -0.41184 -0.250903 0.0589427 -0.029492 -0.4 0.2 -0.4 -0.0474758 -0.386652 -0.326823 0.0833871 0.156324 -0.0809717 -0.0660833 -0.283179 0.204536 -0.257796 -0.263247 -0.161514 0.0314216 -0.0428315 -0.0657675 -0.21504 -0.325581 0.416414 0.08869 0.160881 -0.0685538 0.000182153 -0.306962 -0.120963 0.102524 0.1 -0.1 -0.1 -0.499995 0.00446748 0.383752 -0.400624 0.650312 0.282531 0.465642 -0.456795 -0.123375 0.0276983 -0.591603 -0.621261 -0.179899 -0.516806 -0.163548 -0.736546 -0.287612 0.0727758 -0.217524 0.282441 0.14588 0.486972 -0.316244 -0.210832 -0.500017 0.500018 0.3 0.1 0.452527 0.259119 -0.241063 0.281776 -0.290343 0.00196643 0.197706 0.0900443 -0.07518 -0.333041 -0.012887 0.4326 -0.678821 -0.245685 -0.826328 -0.432277 0.0220624 -0.213218 -0.0296372 0.172323 -0.177001 0.183067 0.48612 0.487133 -0.100013 -0.100553 0.3 -0.5 -0.343066 -0.0247094 0.53348 -0.281146 0.189637 -0.553932 -0.473876 -0.477648 -0.36689 -0.604496 0.343453 -0.0064637 0.0813677 -0.695265 -0.145681 0.47624 0.402165 -0.20261 0.178947 0.00191319 0.0464789 -0.55821 -0.040607 0.475417 -0.300037 -0.400571 0.1 0.4 -0.0954885 -0.27197 0.425605 -0.204996 0.0932709 0.429495 -0.165046 0.171905 -0.0460002 -0.192457 -0.336901 0.0557149 -0.753876 -0.525359 0.293877 -0.307487 0.229963 0.154054 0.140169 0.263694 0.5162 0.374827 -0.127376 -0.30985 0.105718 0.4 -0.2 1.16948e-09 0.00451247 -0.271256 -0.141223 -0.276897 -0.362411 0.105262 0.012347 -0.350083 -0.471452 -0.0568891 -0.287632 -0.215655 -0.213684 0.18388 -0.00153518 -0.411604 -0.347351 0.0951867 -0.0393649 0.456448 -0.0421637 0.156236 0.0732808 -0.0231716 0.205788 0.4 0.4 0 0.100116 0.20492 0.134704 -0.369866 0.206065 0.349212 -0.263806 -0.797772 0.10543 -0.232387 -0.187437 -0.808683 -0.526462 -0.03655 -0.218759 -0.129164 0.125737 0.0576434 -0.195743 0.667284 0.327174 0.0148717 -0.509306 -0.393155 0.505717 -0.1 0.4 -0.5 -0.199999 0.116838 -0.459961 0.54382 -0.35364 -0.476783 -0.465919 -0.484838 -0.649893 -0.221904 -0.509039 -0.0680718 -0.204562 -0.906086 -0.535523 -0.23667 -0.126537 0.332991 -0.0570859 -0.0545939 0.0296652 0.52 0.512765 -0.298872 0.3 0.2 0 0.4 1.85471e-14 -0.483163 0.0186489 0.21392 0.0415152 0.396624 -0.517759 -0.261037 -0.64915 -0.0128304 -0.12608 -0.585638 -0.110366 -0.0203801 -0.159933 0.305351 0.490127 -0.177365 0.0792398 0.0840165 -0.0689596 0.0317312 0.406381 2.70379e-09 -0.3 0.3 0.3 0 -0.3 0.3 -0.49958 0.000462709 0.211353 -0.507815 0.466954 0.482171 0.0865263 0.0556397 -0.440977 -0.328184 -0.311149 -0.530601 0.094066 0.249335 -0.21494 0.114881 -0.0713297 0.0162991 0.0348968 0.406376 -0.293792 0.4 0.2 0 -0.4 0.4 0 0.500009 0.200437 0.00525012 0.408773 -0.491949 -0.511069 0.183818 -0.0484567 -0.241153 -0.426683 0.223151 -0.236875 0.168574 -0.220972 -0.208428 0.516792 -0.0758817 -0.376644 -0.376641 0.399882 0.300017 0.2 0.4 0.3 0.2 -0.2 0.4 0 0 0.5 0.0999832 -0.0965214 0.103479 0.403495 -8.81768e-09 -0.4 -0.3 0.497557 -0.00265864 -0.414081 0.199646 -0.000361361 0.201529 0.401668 0.501675 -0.300133 0.499869 -0.00013015 -0.499997 -0.5 0 -0.5 -0.5 -0.811118 
0 0 0.5 -0.2 -0.3 0.1 0.1 0 -0.3 0 -0.5 0.5 -0.5 0.4 -0.1 -0.3 -0.3 -0.3 0.4 0.3 0.2 -0.2 0.5 -0.1 -0.3 -0.4 -0.1 -0.4 -0.5 -0.4 0 -0.4 -0.4 -1.20056e-08 -0.199999 -0.299999 0.400001 -0.399999 0.000605842 -0.0993933 0.0999995 -0.300001 -8.92534e-07 -0.0999993 -0.2 -0.2 1.53341e-07 -0.4 -0.5 5.25303e-09 -0.300001 -0.300001 0 0.4 -0.3 -0.1 0.2 0.5 0.1 0.1 -3.58062e-13 0.4 0.100001 0.100003 0.400003 -0.499987 0.401702 0.401705 0.00082101 0.401721 0.502403 -0.396943 -0.0962851 -0.497685 0.00656235 0.405796 -8.23005e-05 -1.76553e-05 -0.300019 0.500001 0.3 0.2 0.5 0.1 -0.4 -0.1 -0.2 1.07653e-14 -0.1 -0.1 -0.3 0.1 0.499993 0.300152 0.4569 0.0584029 -0.0408552 0.0977105 0.413533 0.422797 0.53871 -0.312296 -0.12843 0.0293254 0.0200885 0.409501 0.399936 0.399916 2.55416e-06 -0.0999997 0.4 0.1 0 0 -0.3 0.1 -0.000804488 -0.199983 -0.199991 -0.0334204 -0.334966 -0.457316 -0.111187 -0.215416 -0.173148 -0.0371914 -0.0186858 0.34789 0.335328 -0.493304 -0.0601291 0.1198 0.231821 0.284471 0.479295 0.492745 0.504403 0.1 0.5 -0.5 -0.3 0.4 0.4 -0.216385 0.283651 -0.115532 -0.0212161 -0.528012 -0.597641 0.49147 -0.186127 0.168676 -0.285277 -0.459621 -0.323317 0.200299 -0.301671 -0.0756073 -0.410705 0.293444 0.363559 0.514827 0.515397 0.358763 0.219628 -0.299117 -0.0999988 -0.200001 0.4 0.1 8.47185e-05 -0.00793964 -0.410914 0.215059 -0.187007 -0.14173 0.0950151 0.109763 0.0473749 0.240677 0.15848 0.217982 0.0439106 -0.0242194 -0.18432 0.272978 -0.0211393 -0.135227 0.418476 -0.31421 0.0756181 0.494896 0.0553428 -0.286861 0.500007 0.500005 0.4 0.4 -0.399928 0.00179911 0.511467 -0.0470406 -0.335397 -0.00151434 0.389781 -0.0947103 0.00151207 -0.424499 0.333089 -0.78661 -0.490743 -0.0765702 -0.407124 -0.419942 -0.426696 0.134382 -0.381564 0.391883 -0.444925 -0.47602 0.0832531 0.138126 0.300008 -0.5 -0.3 0.199983 0.39997 -0.391781 0.442797 0.502955 -0.16265 -0.0709093 -0.420119 0.0845627 0.183621 -0.539362 -0.71272 -0.384763 0.0113973 -0.121065 -0.476114 -0.527664 -0.0837745 0.186228 -0.0526541 -0.138744 -0.4153 -0.037496 -0.15968 0.338304 0.200001 -0.5 -0.2 -0.0129897 0.499958 0.0150463 0.529148 0.38519 -0.0573732 -0.119499 -0.161603 0.380886 -0.337907 0.0567956 -0.754062 -0.21076 -0.541474 -0.748935 -0.729518 0.229605 -0.23282 -0.387816 -0.678096 0.237678 -0.460214 -0.51989 -0.0728606 0.311642 4.88012e-08 -0.0999996 -0.499997 -0.21299 0.199968 -0.485081 0.535913 -0.541984 -0.317181 -0.530779 0.38065 -0.381936 -0.0777927 -0.37924 -0.537609 -0.396103 0.0409706 -0.653514 0.158472 0.181421 0.218306 -0.035008 -0.141669 0.0698787 -0.499781 -0.0397208 0.506234 -0.199961 -0.2 0.3 0.100003 -0.200014 0.199255 -0.392029 -0.0957013 0.369288 0.0308408 0.171154 -0.315697 -0.522345 -0.0881989 0.213152 -0.202379 -0.178492 0.227431 -0.344493 -0.557696 0.195505 -0.55879 -0.456748 -0.361601 -0.436714 0.292677 -0.0891766 -0.153387 -0.400053 -0.1 1.01151e-09 -0.5 0.299259 -0.000730159 -0.00149025 0.10792 -0.0038297 0.4049 -0.454844 -0.178942 -0.418247 0.285336 0.198182 -0.467689 -0.0312956 -0.128303 0.154299 -0.289987 -0.0343878 0.229482 0.395931 -0.0600338 0.40322 0.196159 0.241565 -0.553392 -0.300025 -0.3 2.82138e-10 0.2 0.499276 0.399255 0.298593 0.451569 -0.402197 0.392485 0.18519 -0.0521934 0.186749 0.0825181 -0.444159 0.596883 -0.706968 0.193037 -0.521157 -0.0713477 0.163499 -0.464118 -0.127398 -0.358234 0.368638 0.0697139 -0.0581594 -0.5533 0.300017 -0.3 -0.1 0.2 0.1 0.0999968 0.498578 0.143614 -0.596856 0.0885283 -0.65468 -0.26274 0.343705 0.216274 -0.214456 0.345251 0.139469 -0.626189 -0.152623 -0.184865 0.072256 -0.46914 -0.418367 0.195016 -0.274877 -0.265709 -0.55963 -0.16926 0.28401 -0.0147019 0 -0.5 -0.4 8.73478e-07 0.39931 0.000135172 0.256768 -0.448072 -0.0360245 -0.354678 0.146562 0.0508941 0.222628 0.305455 0.102932 0.283251 -0.166972 0.0999003 0.46004 0.245018 0.265605 0.0493579 -0.363609 -0.460097 -0.557428 -0.469407 0.483869 -0.214848 3.60022e-10 0.2 0.1 -0.100018 -0.500069 -0.300754 0.188817 0.289348 -0.124217 -0.234707 -0.024682 -0.338636 -0.294345 0.332819 0.108673 -0.232839 0.337769 -0.0310779 -0.414 -0.430012 -0.35569 -0.490492 0.519774 0.266802 -0.00355335 -0.233691 -0.147298 0.0851441 -3.28035e-05 0 0.2 2.97045e-06 0.191592 -0.309528 -0.0704922 -0.391202 -0.610453 -0.620484 0.0309805 0.0467548 0.366013 0.406566 -0.539159 -0.476748 0.310811 -0.648034 -0.463252 -0.373388 0.39456 0.410259 -0.320722 0.124559 0.273459 -0.134751 -0.0469174 0.200211 0.399954 0.4 0.5 -0.100024 0.0919213 0.13205 0.253365 -0.570342 0.183555 -0.656252 -0.605568 -0.193695 -0.207137 -0.115813 0.133166 -0.614229 0.335644 0.230853 0.162033 0.383126 -0.432782 0.0998392 -0.42207 -0.0273373 0.374196 0.403362 0.0674239 -0.199752 -0.400013 -0.1 0.2 0.299969 -0.00797828 0.292214 0.349816 -0.323998 -0.0869645 -0.634988 0.220814 -0.261804 0.493305 -0.478195 -0.593993 0.228234 -0.83019 0.0427486 -0.173863 -0.0344281 0.375373 -0.377886 -0.00480713 0.137263 -0.417558 0.0350546 0.100002 -0.400001 -2.09724e-08 -0.1 -0.5 -3.19455e-05 -0.00770116 -0.0673932 -0.0870411 -0.101605 0.0695784 -0.676217 -0.0624224 -0.230485 -0.530554 -0.126482 0.0342019 0.0354871 -0.524977 -0.0884927 -0.391777 0.189843 0.108689 0.404186 -0.176454 -0.430771 0.297456 -0.493007 -6.63346e-06 -4.3002e-07 0.1 0.4 1.79923e-07 -0.500022 0.192161 -0.567979 0.216585 -0.395536 0.0129008 -0.247593 -0.199255 0.271615 -0.505501 0.308361 -0.15766 -0.249304 0.191262 0.217165 0.312114 -0.348165 -0.154661 -0.266027 -0.534424 -0.588681 -0.244581 -0.390042 -0.300002 -0.399994 0.2 -0.4 0.1 -0.400014 0.298725 0.32712 -0.413609 0.324466 -0.312715 0.221648 -0.0856925 0.32119 0.28377 -0.186168 -0.671932 -0.606051 -0.0709816 -0.509929 -0.0558405 0.306717 0.252042 0.228251 0.389859 0.455778 0.142465 0.199984 0.199985 7.07864e-08 -0.2 -0.2 -0.2 3.53797e-07 0.500075 0.036067 0.127207 0.0352408 0.172556 0.134228 -0.054437 0.152674 -0.0649392 0.322847 0.26717 -0.455124 -0.304137 0.522907 0.284687 -0.100132 -0.0514545 0.178726 -0.0251867 -0.400706 -0.308358 0.199983 0.199985 0.5 0.2 0 -0.1 0.1 -0.19995 0.344459 0.0395269 -0.553854 -0.377741 -0.29874 0.121557 0.289011 -0.086943 0.0794382 -0.439788 -0.101557 -0.319028 0.42764 0.0131777 -0.0307135 0.116017 0.00392536 -0.490843 0.199976 -0.508307 0.399998 0.1 -0.4 0.3 0.5 0.3 -0.1 0.399998 -0.39996 0.0998183 -0.325214 0.340705 -0.359087 0.0242068 -0.234013 -0.353384 0.233676 -0.340697 -0.544579 -0.348554 0.454616 0.365852 -0.039159 0.104571 0.209757 0.300041 -0.50005 0.300004 0.400002 -7.70574e-13 0.1 0.2 0.1 0.3 0.1 0.199999 0.199997 0.376307 0.43442 -0.0104112 -0.014488 -0.397122 -0.224068 -0.360109 0.145025 -0.255242 -0.115321 -0.0597727 0.0548115 -0.0445691 -0.0497495 -0.00553017 0.0999185 0.29998 0.0999883 -0.299999 -0.5 -0.4 0.5 0.2 -0.1 0 -0.2 0.5 -4.22682e-09 0.0999978 0.558154 0.0581537 0.358156 -0.2 0.5 -0.2 0.499998 0.199998 -1.96065e-06 -0.100184 -0.000187201 -0.300257 0.399928 0.0999293 0.399987 0.399989 -0.500011 0.2 0.2 0.2 -0.2 0.3 -0.560879 
-0.3 0 0.1 0.3 0 -0.5 -0.3 -0.5 -0.5 0.4 -0.4 0.3 -0.3 -0.3 0.4 0.0999999 -0.4 0.1 0 -0.2 -0.2 0 0.4 0.5 -0.2 0 -0.5 0 0.5 -0.4 0.4 0.1 0 -0.500001 -4.44126e-07 -0.500001 0.199999 -7.96156e-07 -0.200007 0.199989 0.0999877 -0.308609 -0.108042 -0.315143 0.0872263 0.186675 -0.000488596 0.499756 0.499756 0.399758 -0.2 0.3 0 0.3 0.4 0.2 -0.3 0 0.3 0.2 -2.92739e-12 -0.100001 0.499999 0.136203 0.220632 0.28015 -0.128921 0.304312 0.55492 -0.266884 0.610509 -0.260391 0.0672023 -0.0266408 0.325761 0.0377458 0.269775 -0.0189178 0.0955732 0.199469 0.0999863 -0.1 0 0 0.3 0.3 0.1 -0.2 0.3 0.299999 0.0987817 0.292267 0.0627519 -0.710626 -0.440068 -0.207651 0.331285 0.0953285 -0.486406 -0.192571 0.268483 0.271031 0.188031 -0.526288 -0.321432 -0.369377 -0.113762 -0.288959 0.405488 0.5 0.2 -0.2 -0.5 0 0.4 -0.1 -0.000896494 0.100828 -0.503907 -0.5518 -0.67064 -0.19679 -0.134927 0.336953 -0.286303 0.448864 0.0631402 -0.0336466 0.123358 -0.0529926 -0.475582 0.31193 -0.393812 -0.0204979 -0.345149 -0.00761466 -0.330437 -0.185287 -0.3 0.1 0.2 0 -0.2 -0.00171434 -0.498887 -0.375348 0.458114 -0.153813 -0.549074 0.0736952 0.153711 0.0432017 0.247621 0.375619 0.230278 0.402168 0.352576 -0.142946 0.160927 0.183988 0.713181 0.709061 0.0789854 0.350847 -0.0256684 -0.109064 -0.202047 -0.500014 0 0 4.40657e-05 0.378317 0.320224 -0.0803274 -0.0451331 -0.419796 -0.0870311 0.500755 0.260016 0.513132 0.517389 0.219935 -0.0584197 -0.546645 -0.357043 0.655889 9.71511e-05 0.218231 0.776236 0.200234 0.175915 0.375433 0.531766 0.34866 0.504284 0.0989687 0.300184 0.296974 0.100228 -0.34357 -0.254411 -0.0801226 -0.723174 0.0421271 0.219937 0.592216 0.753689 1.23086 0.62115 -0.177694 -0.00873313 0.165557 -0.365592 0.844947 0.874974 0.714553 0.583123 0.73018 0.563989 0.726359 0.900287 0.858933 -0.154975 0.402599 0.400184 -0.099816 0.100168 -0.375808 0.109786 -0.464816 -0.672767 0.128027 0.300564 1.1761 0.827621 0.504571 0.154102 -0.369092 0.0313015 0.0117716 0.566694 0.226722 1.30713 0.143241 0.711855 0.809992 1.17708 0.288105 0.0348798 0.287852 -0.355458 0.103626 0.000184048 0.0915481 0.202649 -0.235555 0.266154 -0.153182 -0.10524 0.763148 0.770284 0.607494 0.545713 0.838085 0.109787 -0.362352 -0.84275 -0.104756 -0.932934 -0.325162 0.328306 -0.0788662 0.337408 0.193086 0.143807 0.375868 -0.0773591 0.0583972 -0.0925771 -0.296374 6.60024e-11 -0.408636 0.481034 0.126727 0.279663 -0.261156 -0.32016 -0.252565 0.586441 0.909201 0.449312 0.95631 0.729892 -0.422028 0.217345 0.640034 -0.194509 0.520515 -0.414524 0.104554 -0.487374 -0.506339 0.369347 -0.0649207 -0.0740098 0.0101048 0.300181 1.09454e-07 0.4 -0.401835 0.476314 0.488676 -0.154916 0.183296 -0.452787 -0.199597 0.613767 0.46639 0.436836 0.965712 0.35823 0.416963 0.423795 -0.0457605 0.0981456 0.00762204 -0.521553 -0.800688 -0.18945 -0.198005 0.0743091 0.0213039 0.169567 -0.090941 -0.199876 0.400011 0 2.32966e-08 -0.221447 0.179832 0.156442 -0.0484531 0.27445 0.860223 0.974343 0.189354 1.13274 1.37848 0.980502 0.521173 -0.421164 -0.0357384 -0.181685 -0.488644 0.0226832 -0.720617 -0.0736222 -0.336289 -0.469365 0.245341 0.308064 -0.264857 0.500111 1.12963e-05 -0.4 0.4 0.5 -0.132122 0.135917 0.224917 0.402365 0.202719 0.980714 0.15629 0.227419 1.4082 0.503556 0.730772 -0.199237 0.373086 0.570075 -0.376861 -0.376484 0.133205 -0.448603 0.312381 -0.465174 -0.5515 -0.217338 -0.304528 0.000106957 0.3 0.1 -0.3 -0.1 -0.0354941 -0.533509 0.0631234 -0.396359 -0.0277423 0.324732 0.134898 0.0840434 0.28965 0.298418 0.913455 0.12939 -0.256954 -0.0832616 0.406419 -0.643713 -0.301144 -0.387647 -0.162352 -0.218697 -0.378847 0.0395613 -0.513266 -0.415209 0.1 -1.68941e-20 0.3 -0.3 -0.0127283 -0.199089 -0.345336 0.270803 0.327041 0.725776 -0.023801 0.297525 0.106533 0.753573 0.274124 0.369234 0.00437165 0.81755 0.367786 0.516844 0.631595 -0.09357 -0.0641762 0.45382 -0.483634 0.442775 0.0113355 -0.0138938 0.2 0.5 0.1 -0.514553 0.380806 -0.278164 0.0990406 -0.0483964 0.626636 -0.373924 -0.0558512 -0.184961 0.0440117 0.57992 -0.268241 0.243675 0.387698 0.168901 -0.191127 0.977501 1.0789 0.20268 0.17658 0.241081 -0.37545 0.1266 -0.0261917 0.0842701 -7.32576e-09 -0.3 0.3 -0.555251 -0.262272 0.197066 0.541706 0.59636 0.535641 -0.512043 -0.250992 -0.303877 -0.188959 -0.0931781 -0.276801 -0.375997 0.236961 -0.0914408 0.199002 0.0929517 0.669094 0.582878 0.627096 -0.333002 0.129173 -0.256598 -0.529627 0.198891 0.099785 0.5 -3.97824e-14 -0.0415017 0.276124 0.0803263 0.524906 0.256868 0.670049 0.222441 -0.375429 -0.315075 -0.185038 -0.740452 -0.0849946 -0.606516 0.242603 0.71531 0.731803 0.387916 0.0176296 0.273479 -0.148976 -0.371811 0.45729 -0.263835 -0.337497 0.198894 0.299784 -0.3 -0.5 -0.0711846 -0.55774 0.311963 0.180751 0.238057 0.707707 0.342354 -0.614131 -0.108207 -0.517238 -0.131032 0.318586 0.446938 -0.0471569 0.848189 0.25634 0.381444 -0.0630667 -0.29576 0.392171 -0.336085 0.303184 0.419723 -0.486358 0.399777 -1.2039e-06 0.3 0.5 0.513099 -0.300695 0.0225086 0.143669 0.268638 0.455698 0.603082 -0.137262 0.397274 0.126806 0.676299 -0.0406751 0.00683409 0.869881 -0.0530237 0.334494 0.106164 -0.140103 0.537636 -0.0915032 0.0981838 0.0883166 -0.158662 0.314017 0.000125204 -0.4 0.1 0.1 -0.386496 -0.299217 0.169277 -0.440441 0.744687 0.0610928 0.413932 0.672274 0.297304 0.696297 0.560833 -0.100475 -0.101266 0.43585 0.33386 0.875782 0.938885 0.678814 0.873635 0.440922 -0.17317 -0.14956 -0.16867 -0.391851 0.000147483 0.5 0.3 0.1 -0.315692 0.384734 0.0320481 -0.202719 -0.108204 0.141234 -0.273867 0.76774 -0.0202929 0.557508 0.443663 0.831361 1.00638 0.0786026 0.2789 0.807522 0.756742 0.325192 0.724723 -0.340656 -0.0699719 0.332521 -0.0717139 0.30811 -0.0999184 -0.3 0 0.2 0.499999 -0.454735 0.392003 -0.511046 0.0357887 -0.584884 0.222976 -0.169012 0.287318 0.0532176 -0.176258 1.08636 1.09568 0.440033 1.06363 0.71338 -0.0607892 0.349766 0.045059 0.340667 0.228553 -0.536881 -0.206183 -0.300044 -4.37112e-05 0.5 -0.5 -0.3 3.34523e-18 0.292155 0.0488334 -0.00663707 -0.0339182 0.376852 -0.0642212 -0.227558 -0.290979 -0.357851 0.0801305 -0.286344 0.306122 0.584368 0.402798 0.252112 0.476559 0.213517 0.295251 -0.493793 0.00307051 -0.000824942 0.200583 0.4 0.1 0.3 0 0.5 0.2 0.30163 0.0087842 -0.0848608 0.412808 -0.120551 0.21474 0.0496882 -0.506999 -0.618441 0.51233 -0.489472 0.109738 -0.574594 0.423492 0.117339 0.373403 -0.132022 0.389418 -0.0791635 0.0645848 0.000922517 0.500651 -0.5 -0.2 0.5 -0.4 -0.3 0.3 0.0561058 0.446143 0.445567 0.324275 -0.00583405 -0.211391 -0.0973076 -0.1023 -0.390983 0.0345985 0.334257 -0.305849 0.0482818 -0.390272 0.238297 0.503127 -0.234506 -0.102236 -0.0298262 0.400218 0.0999988 -0.3 0.4 0.1 0 0.2 -0.2 -0.1 -0.2 0.3 -0.299945 0.39177 0.391769 -0.308286 0.499851 -0.000169876 0.499831 0.401069 -0.399342 0.510954 0.400078 0.1001 0.29741 0.298458 0.398338 -0.500115 -0.100116 0.500004 -0.5 -0.5 -0.3 0.1 0 0.791201 
0.4 -0.2 0.1 -0.3 0.5 0.4 -0.5 0.3 0 0.2 -0.3 0.2 5.23215e-05 5.23215e-05 0.2 2.02353e-08 0.3 0.4 0.5 -0.2 0 -0.3 -0.3 0.4 -0.1 0 0.3 -0.3 -0.5 -0.1 -0.3 -0.5 0.3 -0.4 0.1 -0.199999 -0.399999 -0.400003 -0.400003 -0.200003 -0.199351 0.300667 -0.0987895 0.401075 0.00427496 -0.496323 -0.199991 -2.44467e-07 -0.400001 0.299999 -0.3 -0.4 0 0 0.1 0.1 -0.5 -0.2 0.1 0.3 -0.5 0.299942 -0.300057 -0.400055 -0.299994 -0.397573 -0.214622 -0.0151179 -0.0109891 -0.511022 0.280654 -0.50911 0.155548 0.0616548 -0.398583 0.302264 0.200595 0.499926 -0.100091 0.399912 0.5 0.3 0 0.1 -0.1 0.3 0.3 0.5 -0.2 0.110019 0.0101239 0.308422 0.414728 0.0105978 0.00278443 0.0984664 0.291091 0.0342416 -0.454856 0.0364095 0.282288 -0.44689 -0.463206 -0.461085 0.43836 -0.300195 -0.0999101 0.40012 -0.500002 -2.74009e-06 -0.4 0.5 -0.3 -0.3 0 -0.200028 0.300063 0.110392 -0.189475 -0.323857 -0.334994 -0.303658 0.443883 -0.230136 0.100534 0.198641 -0.00323409 -0.568349 -0.402347 -0.000118247 -0.633048 -0.405735 0.153264 0.0573303 0.193479 -0.309365 -0.397714 0.100004 -0.499999 -0.4 0.4 0.4 0.5 -0.00146373 0.098529 -0.190993 0.276736 -0.137081 -0.428221 0.0108431 0.202249 0.216823 -0.377964 0.378188 0.332069 -0.237486 0.155682 -0.528839 0.292376 0.178407 0.021056 -0.145824 -0.174833 0.377202 0.0988223 -0.201445 0.099887 -5.87663e-08 0 -0.5 0.160236 0.171158 -0.28419 0.307446 -0.534458 0.283568 -0.148663 -0.52001 -0.11853 -0.104214 -0.607128 -0.293357 0.036586 -0.520374 0.226486 0.302347 -0.0991081 -0.0406986 -0.314593 -0.224095 0.279225 0.278596 -0.299171 -0.100453 -0.100054 -8.89469e-05 0.4 0.4 -0.139764 -0.127774 0.516217 0.411266 -0.264216 0.319431 -0.416697 0.270272 0.16129 0.117551 0.314747 0.405223 0.0658576 -0.00803747 -0.183545 -0.628753 -0.622368 -0.506598 0.424341 0.414273 -0.0045091 0.316875 0.0151292 0.116745 -0.49984 -0.100123 0.3 0.1 -0.399992 -0.388408 0.0558885 -0.40565 -0.206165 -0.557514 -0.449565 0.488573 -0.482878 0.396349 -0.470287 -0.113002 -0.610026 -0.244616 0.321411 -0.547384 -0.169594 -0.0895781 -0.416117 0.248577 0.364737 -0.28644 -0.0868511 0.316886 0.400156 -0.299993 -0.5 0.000374776 0.199721 0.500257 -0.0549807 -0.249801 0.340165 0.0366155 0.238461 -0.062497 0.0325582 -0.114124 -0.30964 -0.419743 -0.126432 0.356781 0.0041939 -0.0536134 -0.591118 -0.419451 -0.144974 -0.132745 -0.481855 -0.0175657 -0.18661 0.0970731 0.200052 -2.33553e-05 -0.4 -0.199625 -0.000279422 0.109168 0.0447953 -0.0793915 -0.287915 0.418428 -0.0407357 0.393516 -0.29438 -0.168727 0.16653 -0.659987 0.395034 -0.153428 -0.575894 -0.235633 0.0374623 -0.328659 -0.397203 -0.440713 0.387511 -0.135577 -0.105385 0.200479 -0.500001 0.399971 6.28109e-08 -0.5 -4.90044e-06 0.00956923 0.14501 -0.100051 -0.00933969 -0.553152 -0.494342 -0.102718 -0.726335 -0.291614 -0.509611 -0.328294 -0.0522439 0.355783 -0.71386 -0.590209 -0.600943 -0.127156 -0.0779154 -0.5569 -0.11301 -0.232529 0.166034 -0.499682 -0.2 8.9329e-09 0 -0.3 0.3 -0.0904983 0.0106009 0.339678 -0.545414 0.18895 -0.597378 -0.210247 -0.156474 -0.238896 0.296753 0.087918 0.0172769 0.0218066 -0.104479 0.138404 -0.208661 0.118446 -0.0708008 0.315701 -0.193545 -0.0382693 -0.0340452 -0.400164 -0.299838 -0.1 0 -0.1 0.4 -0.190496 -0.0904524 -0.437484 -0.549826 -0.130655 -0.409139 -0.129112 0.168133 -0.150137 -0.596596 0.373704 -0.0819525 -0.171141 -0.260671 0.160577 -0.66379 0.0536325 0.251487 -0.516543 0.196535 0.461086 0.261499 -0.399912 -0.299626 -0.4 -0.5 0.1 -3.20354e-07 0.309504 -0.390387 -0.437056 -0.449124 -0.0496812 -0.408949 -0.338787 -0.451413 -0.662652 0.243401 0.0371602 -0.0164837 -0.0504641 -0.316655 -0.701334 0.303985 -0.587662 -0.55032 -0.0413218 -0.133314 -0.279007 -0.271736 0.166329 -0.199021 0.5 -0.4 -0.3 -0.3 -0.490498 -0.190403 -0.0371371 -0.391364 -0.510956 0.374798 0.182779 -0.553533 -0.0208288 -0.00677088 -0.138719 0.057534 -0.369802 -0.655348 0.0317145 -0.242588 -0.0655691 -0.583786 0.140864 0.283828 0.137064 -0.0630897 -0.037125 -0.00161467 -8.43451e-07 0.3 -0.2 8.59211e-09 -0.499998 0.409684 -0.525125 -0.201614 0.293524 0.189366 -0.151152 -0.0623544 0.165624 0.262435 -0.0135931 -0.315855 -0.0454168 -0.239835 0.0836317 -0.204137 -0.52541 0.0968735 0.503745 0.206116 0.0412659 -0.0347971 0.112574 0.400193 -0.399191 -0.4 -4.10507e-10 0.1 1.69796e-06 -0.0999822 0.396303 -0.700402 -0.529189 0.352049 0.313031 0.472649 0.106893 -0.00510942 0.425844 0.238861 -0.60635 0.175041 0.142356 0.0492162 0.261084 -0.329297 -0.173757 0.279087 -0.156697 -0.00381358 -0.365022 -0.0706716 -0.169291 0.3 -2.36763e-12 -0.2 0.500043 -0.200107 -0.326708 0.192825 -0.195408 0.00988914 0.346701 0.380453 -0.379226 0.411086 0.553283 -0.480559 -0.185882 -0.43799 0.188501 0.178299 -0.458033 0.440062 0.27615 0.577076 0.331231 -0.377638 -0.0827174 0.03398 0.129901 0.4 0.2 0.100001 -0.499954 -0.100152 -0.563189 -0.565331 -0.471108 0.354317 0.0851543 0.00918179 0.0702587 -0.480278 0.0725779 0.387405 -0.426773 -0.680639 -0.160123 0.264524 0.417926 -0.147678 -0.314934 -0.400606 0.356275 -0.242857 -0.381701 -0.269916 3.36159e-06 0 -4.67989e-08 -0.400063 -0.29992 0.300014 0.137638 -0.238464 0.185877 0.155753 0.358832 -0.213104 0.106972 -0.266018 0.22942 0.123778 -0.0536734 0.0851054 -0.320523 -0.00758369 -0.533849 -0.587327 0.247706 0.0334078 0.0854575 -0.371291 -0.168536 0.530672 -0.1 0.1 1.04958e-08 -0.200063 4.05719e-05 -0.0995614 0.277761 -0.235696 -0.613021 -0.086803 0.414605 0.127496 -0.193285 -0.11671 0.0316955 0.0380635 -0.0193435 -0.39292 0.331932 -0.303064 -0.105904 -0.0121946 0.185008 -0.0383659 0.181706 0.23743 -0.169011 0.130695 0.2 0.3 0 0.299936 0.100034 0.199148 0.177291 -0.0842657 -0.499253 -0.483598 0.135829 -0.260775 0.0292637 -0.654066 -0.0204482 0.294066 -0.0233598 -0.572885 -0.0568997 0.212765 -0.560398 -0.111498 -0.0392391 0.509131 -0.0956577 -0.291844 7.75112e-05 0.400023 0.3 -0.4 0.2 0.4 0.200097 -0.504741 0.295976 -0.510458 -0.0487557 -0.419621 -0.0577696 0.199044 0.534299 -0.00450166 -0.5851 -0.647425 -0.610906 -0.420346 -0.496849 0.417251 0.405957 -0.0900231 -0.46638 -0.089059 0.399848 -0.0993913 -0.499979 -0.299977 0.1 -0.2 0 -0.4 -0.299908 0.196422 -0.00284055 0.494891 -0.399238 -0.398547 0.267867 -0.325353 -0.0849912 -0.0354047 0.0415565 0.211855 0.416838 -0.438869 -0.234056 0.0401917 -0.0851045 -0.250978 0.27107 -0.389182 -0.00118518 0.199997 -0.4 6.65151e-12 -0.2 0.5 -0.2 0.4 -0.100169 0.29973 -0.000280642 0.475208 -0.525009 0.439653 -0.363058 -0.371144 0.116217 -0.360615 0.354111 -0.492119 -0.490621 0.214648 0.313884 0.450398 0.348494 0.34858 -0.239467 0.400305 8.1515e-06 -0.3 -0.3 0.3 -0.1 0.5 0.3 0.3 -0.4 -0.100004 -0.200196 0.175488 0.4755 0.0588511 -0.217137 -0.568705 0.42896 0.143732 0.145785 -0.501506 -1.56251e-05 0.200363 -0.399745 -0.399812 0.200129 0.000206814 0.200297 0.499994 -8.28069e-05 0.2 0 0.1 0 -0.5 -0.1 0.1 0 -0.2 -8.55198e-06 -0.0243838 0.175616 0.0756247 0.4 0.1 -0.200001 0.399997 0.399997 -0.100002 0.3 0.499999 0.199997 0.0999975 0.3 -8.52195e-06 -0.200008 -0.200008 -0.3 -0.1 0.1 -0.5 -0.1 -0.61859 
0 -0.5 -0.4 -0.3 0.1 0.1 0 0 0.4 0.5 0.1 -0.2 0.200147 -0.399853 0.00014731 0.400147 0.5 0 0 0 0.4 -0.5 0 -0.2 -0.4 0.3 -0.5 0 -0.4 0.2 0.4 0 -0.5 0.307323 0.207578 0.00944192 0.209275 0.00956505 0.0209962 0.120461 0.0130544 0.187654 -0.311677 0.414139 0.0258229 0.514913 1.88694e-06 0.299999 0.399994 -5.77901e-06 0.0999993 0.200002 -0.1 0 -0.1 -0.4 0 0.3 -0.2 -0.5 0.399999 0.207805 0.212536 -0.224764 -0.442625 0.516831 -0.423094 0.38104 -0.0602155 -0.11726 0.0200343 -0.512367 0.247896 -0.0292321 -0.510073 -0.298553 -0.0990853 -0.398884 0.202399 0.300718 0.100716 0.2 0 -0.5 0 0.2 0.1 -0.3 0.499999 -0.0917459 -0.447934 -0.0675769 -0.186902 0.414516 -0.559293 -0.158165 0.170565 0.25359 -0.331917 0.405289 -0.0827215 -0.374602 -0.0709505 0.181068 0.426722 0.23707 -0.0731879 -0.336269 -0.398482 0.1 -0.5 -0.5 0.5 0.1 0.1 0.1 -0.085255 0.134075 -0.310711 0.289254 0.404246 -0.18086 -0.143866 -0.586416 0.495805 0.0427368 0.29805 0.10072 0.36248 0.0162158 -0.383734 -0.437266 -0.728532 -0.146191 0.259581 0.0364018 -0.19191 -0.0466617 0.199999 0.4 -0.2 -0.4 -0.3 0.0913038 -0.0072473 -0.301968 0.0917905 -0.0190515 -0.272923 -0.0669573 -0.360269 -0.275873 0.654962 0.253026 -0.0389887 -0.915254 -0.640322 -0.19946 -0.131284 -0.343963 0.116568 0.251679 0.220808 0.16408 0.0303772 0.196055 0.484399 0.300007 -0.2 0.1 -0.1 0.291899 0.0393284 -0.59266 -0.224959 -0.304853 -0.513048 0.179083 0.277949 0.65094 1.16044 0.616998 0.459383 0.160201 -0.462578 -0.394867 -0.189762 0.107496 -0.297922 -0.0564918 0.500245 0.195303 0.772854 0.560919 -0.199659 -0.217546 0.2 -0.300013 -0.500072 -0.364708 -0.386355 -0.2724 -0.589674 0.29365 -0.72194 0.0507988 0.650382 0.967619 1.26628 1.26448 0.825085 -0.254609 0.0469536 0.0774335 0.266032 -0.189574 0.781892 -0.160518 0.133294 0.901975 0.173067 0.0485422 -0.216489 -0.317528 -0.5 -0.080132 0.217973 -0.560145 -0.675129 -0.163815 0.355841 -0.159547 -0.0193707 -0.0252769 -0.121547 0.813112 0.869589 0.757281 0.546716 0.553322 0.116178 0.260435 0.324822 0.757404 0.547623 0.289963 0.207764 0.686279 0.957192 0.425005 -0.290803 0.207144 0.1 -0.50565 0.29566 -0.575476 0.221645 -0.40132 0.0984731 -0.218232 -0.322678 0.599106 0.426811 0.823362 1.16607 0.671626 0.488969 0.0306755 0.570744 -0.138672 0.455574 0.0698855 0.789592 -0.0465247 0.280406 -0.113204 0.983825 0.874715 0.285957 0.207121 -0.110022 -0.10565 -0.486069 0.441978 -0.148973 -0.0100247 -0.631504 -0.149871 -0.103312 0.246885 -0.000893777 0.44689 1.13347 0.0148882 0.241303 0.174709 -0.619482 -0.135344 -0.350058 0.0454307 0.214037 0.246911 -0.0415725 -0.205635 -0.275171 0.136111 0.508096 0.2 -0.410022 -0.389788 0.0566846 -0.40749 -0.193972 -0.678196 -0.32783 -0.671311 -0.10979 0.634816 0.162477 0.210006 0.818018 0.336921 -0.402461 -0.253337 -0.121163 -0.529967 -0.86794 -0.747831 -0.885764 -0.239707 -0.0747531 -0.833674 -0.0305181 -0.162754 0.0402789 0.2 0 0.0633755 -0.129934 0.0397557 -0.195512 0.198174 0.372668 0.212182 0.0581979 0.636115 -0.0867734 0.67358 0.567524 1.16144 0.590249 -0.221807 -0.182418 -0.315851 -0.811529 -0.754629 -0.377752 -0.54469 -0.593316 -0.675542 -0.762741 -0.0598034 -0.299997 0.4 -0.4 -0.356723 -0.0383278 0.241398 -0.00355471 -0.137428 -0.119511 -0.494549 -0.564336 -0.00548464 0.64659 0.216385 0.167126 0.36547 -0.308147 0.752779 -0.22766 -0.479976 0.0694532 -0.773964 -0.6964 -0.369821 -0.209255 -0.101241 -0.478963 -0.0861809 -1.46527e-05 0.1 0.2 0.5 -0.400251 0.30733 0.522105 0.0178106 -0.450803 0.0656986 -0.461238 -0.0875224 -0.378566 -0.258351 0.610584 -0.0377634 0.846703 -0.112994 -0.66027 -0.414551 -0.728012 0.299889 -0.266003 -0.4335 -0.140851 -0.668721 -0.288637 -0.40169 -0.100313 0.2 -0.5 -1.74999e-07 0.0998964 0.111071 -0.396322 0.438245 0.323482 -0.505458 0.317227 -0.276187 -0.340278 0.0690651 0.0999803 0.224084 -0.0921031 0.0463671 -0.0351313 -0.823897 0.494991 -0.228711 0.485425 0.531377 -0.600162 -0.322613 -0.125814 -0.102653 0.0998108 -0.5 -0.2 -0.1 0.400141 0.308599 -0.0232476 0.0094304 0.366836 0.232776 0.481129 -0.279219 0.154898 0.0889133 -0.298808 -0.253389 -0.0075001 0.263516 0.0622907 -0.512459 -0.605443 0.539195 0.180859 -0.372552 0.0939065 -0.673291 -0.253635 -0.0218379 0.0997018 -0.0999997 -0.2 -1.74998e-07 -0.01924 -0.438877 -0.208746 0.256476 0.66018 0.253694 -0.319719 -0.0990327 0.275458 -0.0939521 -0.270529 0.568022 0.508998 0.908614 0.681857 -0.269565 -0.161902 0.405147 0.383067 -0.700502 -0.247744 -0.43868 0.337198 0.418277 0.0176351 -0.088678 -0.3 0.2 -0.319068 0.0472586 -0.184077 -0.155476 0.364094 0.293007 0.271185 -0.387411 0.0484336 0.0494399 0.087806 0.443398 1.07968 0.417567 0.706342 -0.0619998 -0.0507561 -0.152973 -0.44944 0.0734346 0.107846 0.659718 0.0842279 -0.245443 -0.0847414 -0.0886741 0.3 -8.89043e-13 0.397709 0.358916 0.100682 -0.288461 0.770502 0.400477 0.520141 0.0118563 0.427774 -0.539547 0.670629 0.78606 1.00291 0.525857 0.158872 -0.0887434 -1.07048 0.144096 0.341049 -0.115209 0.111944 0.231877 0.493679 0.316895 -0.198725 0.200004 0.1 -0.400001 0.195085 0.469543 -0.160364 -0.146332 0.582448 -0.00371918 -0.100283 0.265819 0.260603 -0.216301 -0.251932 0.31472 -0.0297431 0.108647 -0.592841 -0.352296 0.0926036 -0.555718 0.439659 -0.0324918 0.0013141 0.438107 -0.38121 -0.0986424 -0.398465 -1.6543e-21 -0.4 -0.100001 -0.504918 -0.225103 -0.210897 0.338299 0.159493 -0.0702299 0.622904 0.353473 0.070568 -0.142704 0.0050735 -0.173343 0.136821 -0.450483 -0.287032 -0.335827 -0.735711 -0.0191033 -0.384222 -0.267352 0.263656 0.783105 -0.422108 0.501141 -0.198342 -0.2 0.3 -0.3 -0.00379545 -0.089508 0.307843 -0.24457 0.335449 0.31402 0.230897 -0.28052 0.346928 0.692015 0.19339 0.515157 0.443414 0.172882 0.163938 0.214531 0.0477766 -0.148774 -0.290721 0.0430413 0.119304 0.581482 -0.294043 0.300952 0.2 -0.1 -0.3 -0.1 -2.61012e-06 0.312907 0.0520942 0.00446507 -0.0042892 0.502214 0.553417 0.172241 0.455033 -0.0824595 0.980472 0.316278 0.681535 0.2105 0.0841064 0.488678 -0.348901 0.506179 -0.411205 0.409036 0.263291 -0.233834 0.349918 -0.199306 -0.2 0.1 0.3 -0.4 -0.4 -0.400389 0.522759 -0.13791 0.210898 -0.247206 0.671398 0.143713 0.0919485 0.494961 -0.0746492 0.620421 0.469593 0.340207 0.142172 -0.328123 0.212871 -0.379779 -0.0862706 -0.151012 0.226058 0.471108 0.528936 3.24817e-08 0.1 0.1 0.4 0.5 -0.3 -0.000153392 0.176455 -0.0250316 -0.0130364 -0.0937794 0.141329 0.172622 0.163825 0.500238 -0.0232126 0.223018 0.105637 0.0569901 0.492851 0.596938 0.213044 -0.0939676 0.531259 -0.227664 -0.109412 0.512417 0.0658119 0.2 6.05983e-17 0.5 0 0.1 0.1 -0.0160385 0.0865812 0.0831753 0.20385 -0.0975565 -0.106719 0.0999149 -0.429332 -0.499567 -0.192929 -0.509748 0.411452 -0.0811293 -0.211501 0.257825 -0.218698 0.161814 -0.197704 0.00404526 0.198204 0.299916 0 0 0 -0.2 0.5 -0.4 0.2 0.2 0.2 -0.20034 -0.502821 -0.00281802 -0.102478 0.299993 -0.500191 -0.000164523 -0.0985722 0.0015451 0.398399 -0.0302986 -0.438376 0.246595 -0.0180431 -0.114062 -0.100787 4.79339e-05 0.100218 -5.37102e-05 0.3 -0.1 0 0.3 -0.0691575 
-0.1 0.4 -0.1 0.3 -0.5 0 0.5 -0.1 0 0.1 0 0.3 -0.0966749 -0.396675 -0.299407 0.500593 0.4 -0.4 0.2 -0.1 -0.3 -0.3 0.1 0.5 -0.4 -0.3 0.3 0.1 0.2 -0.1 -0.5 0.1 0 -0.0903976 0.540872 0.540881 0.219652 0.310062 -0.287305 0.127906 0.276723 -0.0589074 -0.421621 -0.0170281 -0.39557 0.471262 -0.433269 0.30048 -0.100236 0.299761 0.299522 0.100215 -0.2 0.4 0.4 0.4 0.3 0.1 0.5 0.2 -2.91733e-11 0.309605 -0.159125 0.0412523 0.192432 0.202507 0.329189 0.127022 0.11647 -0.278642 0.0631283 -0.283337 0.44601 -0.202642 0.00811848 0.378856 -0.278233 0.102807 -0.29735 -0.502946 0.096799 0.4 0.5 -0.4 0 -0.5 -0.1 -0.3 0.4 -0.499219 0.0453819 0.29236 -0.368962 0.196407 0.431764 0.513558 0.724955 0.667848 0.603691 0.531911 0.477463 0.493247 0.0801473 -0.0851129 0.390564 -0.374054 0.235066 0.570667 0.313698 0.4 0.2 0.2 0 -0.5 -0.1 0.00158631 -0.117377 0.361629 0.137198 0.349529 0.161863 0.179983 0.708956 0.493542 0.347437 0.208382 1.05595 1.34844 1.33105 0.995479 0.610937 0.761589 0.277362 0.118184 0.671716 -0.236066 0.335626 -0.235692 -0.299511 -0.5 -0.1 -0.1 -0.300195 -0.204351 -0.299231 -0.325394 -0.0119805 0.442774 -0.0359371 0.825023 0.929583 0.602992 0.571988 1.15847 1.43132 1.08895 0.788266 0.876242 1.11048 0.494309 -0.18715 -0.498345 -0.0401916 0.459476 -0.014218 0.275954 0.19598 0.294705 -0.1 -0.5 -0.100142 0.164266 -0.398869 -0.21501 -0.24419 0.516854 0.408228 0.447348 0.647428 -0.107095 0.0464922 0.0808245 0.304054 0.431682 0.820853 0.0511851 0.902211 -0.125925 -0.516973 -0.834787 -0.396958 0.355392 0.238442 0.141731 0.115453 0.212395 6.43595e-07 6.28444e-07 -0.353044 -0.186766 -0.200745 -0.197673 0.347193 -0.76269 -0.000242369 0.313747 -0.0955646 0.238255 -0.0900079 -0.141594 0.153119 -0.183576 -0.339471 -0.311251 -0.450723 0.449115 -0.595454 -0.963558 -0.761574 0.223086 0.472678 0.787128 0.487224 -0.400746 -0.299999 0.5 0.252337 -0.510413 -0.0541778 0.168507 0.0430805 0.0705154 0.495492 -0.202219 0.032567 -0.617548 -0.983629 -0.0669836 -0.296049 0.132288 -0.164278 -0.0739276 -0.145006 0.44945 -0.457799 0.27058 -0.521214 0.123707 0.826632 1.06087 0.186163 -4.38801e-05 0.200001 -0.101055 -0.442694 -0.415597 -0.39275 0.410426 -0.350855 0.578205 -0.178036 0.414936 0.136085 0.13688 0.482706 0.509004 0.00362894 -0.0313652 -0.0873592 0.187126 0.281064 -0.228804 -0.593531 -0.502464 0.15064 -0.404399 0.608403 0.54186 0.186659 -0.0012325 -0.49983 -0.00105518 -0.19372 -0.371034 -0.00316381 0.272954 0.512163 -0.212959 0.759086 0.715893 1.01652 0.0860888 0.766893 1.27701 1.36184 1.28565 0.160758 0.690224 -0.582462 -0.752581 -0.981704 0.283137 0.687565 -0.168481 0.260807 0.704359 -0.262273 -0.301188 -0.19983 0.500984 0.367097 0.197113 0.133826 0.674347 0.98628 0.140088 1.05051 1.44969 1.04679 1.11863 1.06184 1.08083 1.0179 1.25758 0.839259 0.166503 -0.667481 -0.554114 -0.55003 -0.682216 -0.17393 -0.0506753 0.547882 -0.146297 0.314859 0.19991 -0.1 0.449515 0.265666 -0.692863 0.284758 0.263883 -0.493243 0.0939081 0.429505 0.932323 1.49133 1.68872 1.21021 0.858868 -0.508151 0.862102 0.806969 0.0111965 -1.41151 -0.146222 -0.558045 0.475324 0.921231 0.776348 0.547414 -0.459956 0.500798 -9.04317e-05 -0.4 -0.150485 -0.348717 0.00648403 -0.488531 -0.115463 -0.463826 -0.00931258 -0.793646 0.328975 1.44145 0.732796 0.439297 0.431077 0.436987 0.974226 -0.0457338 -0.32101 -1.30183 -0.515329 0.036022 0.563153 1.13591 1.41756 0.746715 0.260054 -0.00788419 -0.5 0.5 -0.00842588 0.291569 -0.0983718 -0.673618 -0.283938 -0.855344 -0.158082 -0.448644 -0.332648 1.32585 0.51281 0.110161 0.156241 0.392892 0.128936 -0.416555 -0.473196 -0.788438 -1.03192 0.213508 1.12398 0.961552 1.25682 0.542746 -0.257756 -0.443146 0 0.3 -0.00842588 -0.507732 -0.0888441 -0.17166 -0.564771 -1.00033 -0.97241 -0.467224 -0.115432 0.29792 0.00451559 0.314881 -0.0399453 -0.980902 -0.751578 -0.102998 -0.293041 0.0874501 -0.873543 0.0589358 0.675229 0.85027 0.695287 0.503574 0.172464 0.00820236 0.5 -4.43948e-14 0.491589 -0.0103715 -0.0480071 0.281935 -0.518079 -0.950228 -0.150874 0.458413 0.659652 0.656064 0.0779964 0.00293167 -0.305116 0.121001 -0.109835 -0.768982 -0.35674 -0.293507 0.59766 1.50094 0.467137 0.89068 0.552109 0.44044 0.308279 0.180281 -0.2 0.2 -0.313498 0.289436 -0.596876 0.131133 -0.031398 0.180114 -0.0621677 0.547092 0.00560445 0.396314 -0.296563 -0.406782 -0.407549 -1.05907 -1.28806 0.042486 0.117662 0.859918 0.270979 0.404288 -0.271895 0.223068 0.207471 -0.491489 0.0262164 -0.596408 0.19999 -0.3 -0.205088 -0.302917 0.26734 0.0857845 0.510703 0.843259 0.326571 0.343966 0.5522 0.827844 0.828495 0.253806 -0.0109018 -0.660433 0.0593259 -0.117966 0.703135 1.63039 1.17158 0.412103 0.660015 -0.00237555 0.504363 -0.214649 -0.388553 0.301187 0.29999 0.2 0.0331671 0.00591463 -0.162004 -0.61384 0.570066 0.760776 0.768837 1.08571 0.374728 0.866922 1.06704 0.865985 1.00852 0.757077 0.0245698 1.43359 1.80256 1.27413 1.01436 1.15063 -0.12116 -0.155825 0.250414 0.401667 0.505043 0.491783 -0.4 0 -0.46748 0.191283 -0.775399 -0.200007 0.468012 -0.0347333 1.03607 0.680832 1.52322 2.53495 2.02849 1.9763 1.04863 0.828763 1.08774 1.91567 1.1436 1.74121 1.03518 0.0521433 -0.00359192 -0.0770935 -0.0193403 0.022745 0.0706777 -0.297481 -0.5 -0.2 -0.000647458 -0.466848 -0.612079 0.279749 0.477497 0.10262 0.975823 1.03522 1.46594 1.25646 2.14884 1.29737 0.953738 1.00142 1.2492 1.56308 1.0851 0.917975 0.343808 0.241084 0.0253121 0.0545702 0.176589 -0.0145106 0.273217 -0.297172 0 0 -0.4 -0.0619902 -0.1384 -0.350957 0.123475 0.625707 -0.169224 0.685301 0.400091 0.767848 0.672384 0.83835 0.625321 0.0871693 1.36167 0.685096 0.442657 1.10496 0.414221 0.324257 0.202826 0.0137665 -0.204144 0.185465 0.366264 0.502002 -0.1 -0.1 0 -0.179962 -0.445169 -0.316387 -0.234931 -0.397799 -0.161447 -0.22253 -0.0609782 0.557942 0.425673 -0.527464 -0.737507 -0.0364766 0.445641 0.218196 0.305216 -0.116659 0.154585 0.162936 0.018397 -0.939525 -0.434445 -0.31471 -0.331339 -0.5 0.2 0 0 0.18053 -0.419516 0.104664 -0.0482247 -0.325115 -0.644075 -1.02847 -0.46654 -0.50955 0.567917 -1.06446 -0.433452 0.145244 0.0501787 0.424575 -0.0501541 -0.0137637 -0.491235 0.349446 -0.218564 -0.0964345 -0.233284 -0.41875 -0.200655 -0.3 0.2 0 0.4 -0.4 -0.199981 -0.535802 -0.0405562 -0.135057 -0.629296 -1.17859 0.224471 -0.112378 -0.378245 -0.492388 -0.842866 -0.310429 -0.607365 0.357621 -0.366896 0.616458 0.296014 0.310712 -0.179596 -0.116972 0.252633 -0.178395 -0.5 0.5 0 0.5 0 -0.1 -0.499816 -0.299852 -0.500564 0.187978 0.123527 -0.00513712 -0.0690531 -0.376432 0.188034 -0.224102 -0.551415 -0.128383 0.187109 -0.638031 -0.469074 0.364025 0.129771 -0.323771 0.380191 -0.258274 -0.399849 -0.1 0 -0.2 0.1 0.1 -0.4 0.4 -0.3 0.4 0.399937 -0.000143528 -0.201154 -0.301275 -0.101194 -0.102615 0.0366428 0.541125 0.241671 0.46485 0.0235943 0.3239 0.194414 -0.303041 -0.534373 -0.39396 0.10604 -0.157807 0.5 -0.3 0.2 0.1 -0.3 0.900034 
-0.2 0.2 0.2 -0.3 0.2 0.1 0.4 -0.4 0.2 0 -0.2 -0.5 -0.4 0.4 -0.5 -0.4 -0.1 0 -0.2 -0.5 0.1 -0.2 0 0.1 0.4 -0.2 0.5 -0.3 -0.4 0 -0.1 0 0.2 0.400002 0.100002 -0.499891 -0.398468 -0.398486 0.00150392 0.496304 0.297483 -0.402486 0.400077 0.104308 0.103945 -0.099351 0.499722 0.0997104 4.86278e-06 -0.399995 2.22226e-05 -0.299978 -0.1 -0.5 -0.5 0.3 -0.1 -0.1 0.5 -0.4 -0.2 0.499864 0.399865 -0.0025728 0.295288 0.403996 0.41352 -0.481121 -0.335593 0.358493 0.448595 -0.155579 0.383143 -0.188353 0.189853 -0.490619 0.287771 0.197701 -0.102227 0.0980632 0.30029 0.4 -0.1 -0.2 0.4 0.3 -0.5 0.5 -0.500056 0.509023 -0.493316 0.211281 0.576128 0.606822 0.634198 0.339094 0.163357 -0.476002 0.0604741 -0.0971182 0.535055 -0.19226 0.092029 -0.33007 0.00684958 -0.25414 0.512395 -0.024389 0.0938699 -0.2 0.1 -0.4 0.2 0 0 0.499999 -0.400167 0.500004 0.128007 -0.572834 0.0220368 0.203835 -0.511008 -0.0172826 -0.0289009 0.715483 -0.21145 0.585746 0.221793 0.0165024 0.521457 -0.254593 -0.263609 0.0146172 0.0508486 -0.22305 0.422914 0.103816 -0.397553 -0.2 0.4 -0.3 -0.3 0.296845 -0.307687 -0.333825 0.465261 0.378706 -0.453508 -0.360088 -0.360063 0.532452 0.616248 0.0872184 0.877475 0.502346 0.859274 0.449829 0.503155 -0.313047 0.179587 0.206736 0.113482 -0.508008 0.310165 0.498377 -0.197813 -0.3 0.4 0 0.300211 -0.502946 -0.27458 -0.187198 0.151066 -0.0569835 -0.0205292 -0.209756 0.138486 -0.188777 -0.159112 0.484726 -0.0194642 0.0179175 -0.152635 0.660038 0.3139 -0.410707 -0.399629 -0.23142 0.685651 0.605565 0.152142 0.204945 0.578642 0.355963 -0.4 -0.400428 0.200202 0.0694111 -0.316362 -0.38683 -0.151605 -0.174765 -0.0929768 0.0747263 -0.381226 0.5844 -0.420112 0.580523 0.18859 0.593566 0.438348 -0.273924 0.0318333 0.249967 0.0959065 0.0512437 0.363932 0.257692 0.0127895 0.235094 -0.013396 0.00571413 0.5 0.2 -0.40118 -0.0274401 -0.108933 0.151552 -0.148089 0.199688 0.0593518 -0.0954113 -0.417562 0.169595 0.406373 0.0475 -0.117957 -0.0981599 0.734351 -0.285007 0.0142515 0.412523 0.350661 0.352321 0.130882 1.01925 0.497023 -0.0221727 -0.253584 -0.0949223 -0.3 0.392969 0.298767 -0.199994 -0.0568165 0.346067 -0.14069 -0.489726 -0.0157939 -0.0754017 0.185572 -0.182536 0.189219 0.0344409 -0.0682599 0.0115924 0.101804 0.237922 0.529502 0.784247 -0.0464359 0.474448 0.00733556 0.672297 0.930826 0.720853 0.144576 -0.4962 1.56751e-05 -0.307032 -0.401227 -0.150291 -0.0416936 -0.408673 -0.0327697 -0.365453 -0.486082 0.30184 -0.177781 0.375561 0.190966 0.166255 0.197307 0.759559 0.672385 -0.196514 -0.00488649 -0.170552 -0.0181437 0.185292 -0.213967 0.0378635 0.22267 0.69982 0.550477 0.000488306 -0.0999843 -0.399987 -0.400036 0.347109 -0.0929559 0.388163 -0.346281 -0.540176 0.240913 0.45066 0.127725 -0.0462917 0.428344 0.347399 0.536492 0.815525 0.654242 0.124221 0.277319 0.173003 -0.328931 -0.0924415 0.0954376 0.466716 0.154253 -0.113492 0.539341 -0.399509 -0.1 -0.2 0.0997129 -0.549511 -0.213786 -0.196139 0.356813 -0.363917 -0.106806 -0.510678 -0.0601034 0.524912 0.403298 0.130272 0.252249 0.315584 0.0429817 0.534573 -0.570568 -0.504613 -0.140995 -0.244306 -0.191617 -0.507731 -0.441428 0.0899377 0.332839 -0.199997 -0.4 0.4 0.299392 0.0185419 -0.419341 0.459451 0.00275014 0.146307 -0.123624 -0.0130367 0.373047 0.673907 0.69265 0.434281 0.456535 0.791417 -0.0141386 0.366123 0.480636 0.280297 0.0798001 0.423334 -0.144063 0.110524 -0.086428 0.584831 0.434681 0.4 0.3 -1.28104e-10 -0.000286858 0.219298 0.434782 0.0297921 0.0128727 0.213138 -0.132526 -0.129945 0.00198921 0.212032 0.789643 0.497396 0.152924 0.413242 0.434899 -0.224189 0.489369 0.181742 -0.350193 -0.0328984 -0.234727 -0.175015 -0.0661545 -0.0192997 0.300116 0 0.3 0.5 0.432237 0.128531 0.00416426 0.527044 0.571902 0.0105805 0.378756 -0.661185 0.205766 0.936378 0.241175 0.814423 -0.188659 -0.118731 0.371732 0.490385 0.221511 0.463691 0.681213 0.157497 -0.33245 -0.645397 -0.385805 0.0996459 -0.195752 -0.200003 -5.86953e-15 -0.500083 -5.93673e-05 0.38941 0.0616664 0.621783 0.367378 0.094921 0.0246175 -0.412238 0.200097 0.438172 0.322659 -0.328947 0.212866 0.102358 0.469363 0.106314 0.356562 0.981847 0.00345646 0.077051 -0.312876 -0.303364 -0.0166422 -0.346087 -0.190685 -0.500003 0.1 -0.262323 -0.500069 -0.473126 0.736391 0.70756 0.997224 0.358544 0.297811 0.0346808 -0.685659 -0.609659 -0.677995 -0.800415 -0.417144 0.242334 0.821166 1.03059 0.41783 0.125946 0.168439 -0.346675 0.258416 -0.312307 -0.207664 0.156581 0.511845 0.201154 0.4 -0.46224 0.49142 -0.346884 0.195318 1.00689 0.588425 1.04004 0.435301 0.338519 -0.0589455 0.102449 -0.0657693 0.0776861 -0.17853 -0.108777 0.556888 0.265296 0.762387 -0.0428 -0.0940222 0.395167 0.741908 -0.324636 -0.0637868 0.0980506 -0.474059 0.00115167 -0.5 -5.92303e-08 0.0950469 -0.348635 0.198633 0.254861 1.25982 1.11515 1.20895 0.379641 0.791303 0.307827 0.0715118 -0.163179 -0.606363 -0.00469211 0.569043 0.533278 -0.0831477 -0.146827 0.53046 0.35106 -0.0589203 -0.0244997 0.584182 -0.145665 0.518131 -0.400001 -0.2 0.00449489 0.00154158 -0.348501 0.0606266 0.838212 0.453158 0.538652 0.979675 0.71264 0.29518 0.374824 0.420437 0.193961 0.324589 -0.152764 0.697367 0.204009 -0.0143451 0.413341 0.256974 0.315691 0.643501 0.10832 0.0894278 -0.247283 0.117891 0.4 -0.5 0.104495 -0.297254 -0.489282 0.487713 0.331411 0.469591 0.0990561 0.653565 0.0959167 0.320864 0.747788 0.540364 0.519049 0.358568 0.385713 -0.0592617 0.054191 0.517385 0.631386 -0.326425 0.103503 0.0862868 -0.0487751 0.021672 -0.296955 0.0999961 0 0.1 0.5 -0.000481562 -0.300818 0.0384045 -0.113392 0.273057 0.0660726 0.168708 0.18718 0.289914 0.268858 -0.181624 0.0798395 -0.0256627 0.392498 0.455004 0.787089 -0.188887 0.377668 0.0717202 -0.357152 -0.365067 -0.444376 0.00147402 0.398471 -0.30002 -0.4 -0.2 -0.4 -0.5 0.304294 0.00889115 0.152193 0.200836 -0.464082 -0.250415 0.124147 0.437394 -0.159829 -0.135627 0.0593866 -0.113046 0.464832 0.182581 0.131645 -0.309903 -0.334513 -0.37888 0.275742 -0.104116 -0.393068 -0.204975 0.498078 -0.0999973 -0.5 -0.3 -0.2 5.24225e-17 0.399998 0.105456 -0.0503294 0.0145221 -0.0237071 0.171419 -0.533707 -0.2709 -0.351546 -0.0458169 0.293931 -0.495169 0.0783348 -0.636812 -0.0601568 -0.551349 0.272462 0.475962 0.25604 0.0625616 -0.424263 -0.402282 3.49945e-05 -0.5 0.4 0 0.3 0.2 -0.5 -0.194514 0.00520696 -0.305944 -0.103967 -0.490885 0.46224 -0.57367 -0.326366 0.360937 0.170541 -0.190576 0.0246107 -0.486082 -0.299809 -0.0954352 -0.0723717 -0.315383 -0.00897203 0.487172 -0.10306 -0.203319 0.2 2.50221e-15 0.3 -0.4 0 0.5 -0.300012 -0.40007 0.200343 0.000330593 -0.00122925 -0.130632 0.343523 -0.463183 -0.0424819 0.160516 0.479948 0.377779 -0.471686 0.520998 0.442574 -0.256837 -0.0128185 -0.212109 0.492829 -0.307867 -0.00787089 -0.2 0.2 0 0.4 0.2 -0.2 0 0 0.3 0.0999081 -0.000128826 -0.00011755 -0.500026 -0.403461 -0.204659 0.395392 0.500663 0.200568 -0.399386 0.299715 0.399479 -0.401554 0.198847 1.88996e-05 -0.000181503 -0.400181 -0.200173 3.55499e-08 0.5 0.1 0.4 -0.2 0.335346 
-0.2 -0.5 -0.3 0 -0.4 -0.1 0.1 0 -0.4 0.4 0.2 -0.2 -0.1 -0.4 -1.09492e-12 -0.3 -0.2 0.4 -0.2 -0.2 0 0 -0.1 0.2 -0.3 0.4 -0.2 0.5 -0.5 -0.1 0.5 0.1 -0.5 -0.5 -0.2 -0.5 0.1 -0.1 0.399975 0.499975 -0.400101 -6.39729e-05 0.399935 -0.387508 -0.487544 -0.0908577 0.407934 0.30032 -0.39968 0.20032 1.84107e-07 -0.1 -0.2 0.3 0 0.3 -0.2 0.5 0.5 -0.1 0.3 -1.99226e-09 -0.5 0.000140688 -0.39928 0.200721 0.486657 -0.312858 -0.495491 0.408243 0.561524 -0.0461345 -0.276249 0.532609 -0.234844 0.481691 -0.314526 0.193445 -0.207113 -2.33043e-07 -1.11105e-07 0.3 -0.3 0.2 -0.5 0.5 0 0.3 -0.2 0.19998 0.398787 0.100921 -0.0264784 -0.506046 0.0727164 -0.413293 -0.366802 0.0463221 0.041608 0.0585032 -0.17397 -0.194386 -0.429785 0.562992 0.232919 -0.426181 0.49589 0.197735 -0.499967 -0.3 -0.3 0.2 -0.1 -0.4 -0.4 -0.195627 0.0548973 -0.0106611 0.18912 0.127457 -0.195068 0.279188 0.043552 0.0343583 0.397705 0.540512 0.0955132 0.0573437 -0.15929 0.596086 0.576486 -0.243061 -0.0166244 -0.471462 0.108939 0.429244 0.201367 0.480199 -0.2 0.1 0 0.1 0.3 -0.494473 0.0584474 0.308236 -0.354133 0.364466 -0.00170369 -0.378659 0.677077 -0.182197 0.810845 0.802463 0.613736 0.905582 0.68239 0.604789 0.0422804 0.69319 -0.00574035 -0.0351976 -0.0130788 0.123192 0.268582 0.040044 -0.231525 -0.5 0.4 0.2 -9.28055e-06 0.106596 0.0374238 -0.123054 0.57386 0.0384184 0.280999 0.762173 0.734205 1.16303 0.652455 1.37449 0.753732 0.857575 0.220575 -0.233867 -0.128221 -0.152561 0.177422 -0.0706772 0.325109 0.458715 0.082128 -0.122539 -0.0823232 0.375397 0.3 -0.0991524 -0.499989 -0.489927 0.0164834 0.114517 0.624098 0.566985 0.213492 0.123457 1.05568 0.479557 0.994361 0.555737 0.0675614 0.243304 -1.0847 -0.396205 -0.554685 -0.88236 -0.102941 0.241191 -0.0113287 -0.0521065 -0.395589 0.306915 0.359558 -0.224542 3.72878e-08 -5.90558e-08 0.199848 -0.480378 -0.0975134 -0.0954802 -0.373682 0.602727 -0.166243 -0.00415112 0.994356 1.06272 0.933207 0.739316 -0.144803 -0.269121 -1.08141 -0.370505 -0.969779 -0.797112 0.163221 -0.256195 -0.323453 0.303683 -0.0461642 -0.177666 -0.140966 0.299976 3.72878e-08 -0.00815973 -0.396034 0.112823 -0.00373589 -0.213435 0.0116906 0.642825 0.0313052 0.348514 0.0167385 0.21606 0.281244 -0.292895 -0.676502 -0.755059 -0.185834 -0.0192414 -0.654577 -0.89105 0.047812 -0.414123 0.202383 -0.0420763 -0.265067 0.0444659 -0.220179 -0.100018 -0.3 -0.20816 -0.496034 -0.272797 0.098981 -0.551932 0.490405 0.582209 0.256296 0.351807 0.34887 -0.205246 0.322967 -0.345559 -0.255256 -0.684296 0.301391 0.378405 0.0927102 -0.413694 0.448913 -0.0752229 -0.145865 -0.424188 0.0346649 0.0225027 0.0566839 -0.3 -0.5 -0.200002 -0.496732 -0.0750664 0.481955 0.0339633 0.0185103 0.452101 0.518087 -0.181424 0.161067 -0.206911 -0.343894 0.0628294 -0.554156 0.525298 0.0650661 0.38948 0.189291 -0.300459 -0.0661008 0.0145749 0.200027 -0.393195 0.109867 0.458945 -0.1029 2.59278e-07 0.5 0.3 0.400182 0.40847 0.165696 0.114068 0.103567 -0.129678 -0.291985 -0.0279313 0.335557 -0.0690085 0.00963658 0.094867 0.161408 -0.55489 -0.414199 0.602676 0.265008 0.334377 0.191513 -0.0864488 -0.433271 -0.261442 -0.204123 -0.195518 0.395509 1.3442e-08 0.4 0.4 0.499983 -0.198732 0.12634 0.00354537 0.131933 0.107856 -0.407105 -0.287643 -0.0635013 0.796131 0.483663 -0.715108 -0.207829 -0.0922092 0.549081 0.511163 0.417221 0.89891 0.518814 0.233934 -0.217526 0.219079 0.528818 -0.404135 -0.231539 -0.1 0 0.1 0.4 -0.365852 -0.289727 0.408024 0.0620445 0.080043 -0.0677083 0.212675 -0.0739392 0.166765 -0.393579 -0.670696 -0.658314 0.224115 0.737237 0.284345 -0.173133 0.870511 0.15658 0.458779 0.737915 -0.181567 0.0323842 -0.425735 0.26532 0.4 0.5 -0.3 0.3 0.0421982 0.0351959 -0.328445 -0.0240329 0.286568 0.231908 -0.179544 -0.298003 -0.142639 -0.554107 -0.157082 0.469104 0.36807 0.43542 0.107423 0.61968 0.410652 0.289286 -0.0194327 0.256951 -0.0302539 -0.0978732 -0.0331072 -0.254833 -0.199202 -0.5 0.3 0.403526 -0.0795241 0.0152877 0.0321713 0.166543 0.360834 0.256285 0.217137 -0.302272 0.136556 0.0891443 0.301228 0.621545 0.00342717 -0.155113 -0.161408 0.212838 -0.052875 0.164289 0.251017 0.0950987 -0.143215 -0.484057 -0.00244584 -0.333886 0.000797656 -0.3 0.4 -0.00615442 0.0349588 -0.441058 -0.610741 -0.140603 0.489235 0.746121 1.02656 0.577434 0.366591 -0.168273 0.320875 -0.25442 0.405002 0.510249 0.216319 -0.0900626 0.238633 0.516911 0.176187 -0.307184 -0.415641 0.350413 0.551481 -0.38957 -0.499156 0.3 -0.5 0.191251 0.472229 0.450455 -0.624474 0.353978 0.425407 0.054788 0.779339 0.127501 -0.329158 0.169037 0.108593 -0.516018 -0.131522 -0.134053 -0.271729 0.278487 0.860898 0.23465 0.322442 0.210164 0.196263 0.467231 -0.448595 0.000815484 0.200843 -0.3 0.3 0.0994988 0.183556 -0.345491 -0.134953 -0.0738845 -0.190921 0.149373 -0.234214 -0.101605 -0.213477 -0.502209 -0.934435 0.243193 0.207912 0.726192 0.619028 0.0313199 0.443291 0.0688166 0.172884 0.355856 0.532308 -0.305286 -0.274848 -0.499571 -0.400001 -0.4 0.2 -0.00328026 0.26535 0.294998 -0.166769 0.403898 -0.0989266 0.0452387 -0.152254 -1.1227 -0.383807 -0.748919 -0.723232 -0.3579 0.525909 0.971304 1.13118 0.960712 0.679889 0.119706 -0.286545 0.196659 -0.275836 -0.266788 -0.201446 0.299234 -0.3 0 0.2 -0.20055 -0.514655 -0.571541 -0.292395 0.0765195 0.0281232 0.426148 -0.397619 -0.330429 0.170202 0.047235 -0.174958 -0.11664 0.95355 0.686652 0.474053 0.792907 0.766098 -0.312237 -0.365813 -0.405304 -0.0425072 0.268292 0.0987535 -0.49276 0.1 0 0.5 -0.199501 0.282017 0.0601585 -0.01201 -0.358864 0.016609 -0.183123 -0.0851453 0.236338 0.0898477 -0.191973 0.298216 0.289605 0.719523 0.548635 0.152531 0.580794 -0.179994 0.422713 -0.330845 0.381407 -0.0340324 0.169825 -0.198652 0.401214 0.2 0 -0.3 0.300003 -0.19483 0.187588 0.269181 -0.189017 -0.0866902 0.0440851 0.0737282 -0.50693 -0.26383 -0.471077 0.230269 0.697946 0.493167 0.234286 0.948547 0.872473 0.0245709 0.0144034 0.0299365 0.308843 -0.339626 -0.219604 0.402544 -0.297591 0 -0.2 -0.1 0.1 0.510439 -0.305825 -0.564795 0.566093 -0.00108415 -0.0751863 0.510875 0.211855 0.306774 -0.324854 -0.148726 0.132092 0.206448 0.0370226 -0.154959 -0.433626 0.0240298 0.209856 0.306796 -0.573662 -0.209775 -0.290613 0.3 -0.1 0.3 -0.1 -0.1 0.2 -0.199468 -0.00812844 -0.131444 -0.247109 -0.438186 -0.0483117 -0.458811 -0.341341 -0.0267152 -0.575612 -0.207587 -0.0233381 0.102517 -0.171059 0.121206 -0.481338 -0.486595 -0.298291 -0.0107655 -0.0108506 0.196079 -0.0919574 -0.4 -0.5 -0.5 -0.4 0.5 0.4 -0.102301 -0.341077 0.438803 0.289967 0.539358 -0.625343 -0.077117 -0.323965 0.0129418 0.305484 -0.138397 -0.106257 0.150422 0.402519 0.195379 0.498705 -0.402227 -0.397745 -0.297741 0.100772 -0.299991 0.5 -0.1 0 0.5 0.3 -0.5 -0.1 0.3 4.83417e-06 0.199988 0.310934 0.510946 -0.089042 0.300016 -0.301607 0.52595 0.429021 0.0255695 0.125879 0.00478529 0.204792 -0.299134 0.396072 0.19629 0.000981946 0.000984719 0.300768 -0.0999991 0 -0.5 -0.3 -0.4 0.0225306 
