0.2 -0.3 -0.1 0.2 -0.5 -0.3 0.2 -0.2 0.4 0.3 -0.3 0 -0.4 -0.1 -0.2 -0.3 -0.4 0.4 -0.2 0.2 -0.4 -0.2 0 0.2 0 -0.2 0 0.4 0.3 0.1 -0.3 0.2 -0.4 0.4 0.3 0.5 -0.3 -0.5 -0.100845 -0.400845 -0.4 0.49937 0.399445 -0.400846 -0.300291 -0.000212822 0.100003 -0.500007 -0.500003 -0.100003 0.100004 -0.1 0.2 0.4 0.3 0.3 0.4 0.2 0 -0.3 -0.4 -0.2 0.2 -0.3 0.3 -0.399795 0.399554 0.505284 0.206724 0.00767938 0.108256 0.00607444 -0.190259 0.11048 0.105895 0.408391 0.503344 0.400162 0.500285 -0.199585 0.200219 0.5 0.4 0.5 -0.3 -0.5 0.5 -0.1 0.1 0 -0.399741 0.109772 -0.184649 -0.0841157 0.427486 -0.165447 -0.157122 -0.450827 0.149949 0.35761 0.0411684 0.43484 -0.0722972 -0.467926 -0.272835 0.407611 -0.202752 -0.49787 -0.401875 0.3 0.2 -0.3 0.3 0 0.3 0.3 -0.0015461 -0.294987 0.318541 0.304945 0.0119515 -0.366866 0.0216035 -0.342103 0.152704 0.0534834 -0.318461 0.35948 -0.454822 0.244437 0.0226619 -0.416579 0.391022 0.00731351 -0.514408 -0.0086958 0.187999 0.500661 0.3 -0.2 0.4 -0.4 0.5 -0.00181376 0.299509 0.409851 -0.288709 0.0265825 -0.446003 0.584579 -0.132454 -0.251762 0.536759 0.514165 0.324743 -0.177066 -0.204184 0.499763 -0.0750804 -0.198599 -0.352399 0.293972 0.357473 -0.444831 0.0573634 -0.109483 -0.000530424 0 -0.4 -0.3 0 -0.39718 -0.191199 0.0145047 0.532602 0.147661 0.482538 0.60221 0.398724 -0.116601 -0.338764 -0.330192 0.553695 0.351756 -0.249405 -0.010903 0.0585275 0.0244765 -0.0751565 -0.359384 -0.532269 -0.345295 -0.341749 0.189943 -0.301509 0.198637 1.51342e-09 0.100045 -0.500145 0.499408 0.205134 0.029841 0.238587 -0.42022 0.178266 -0.410889 0.478111 0.0994272 -0.259056 0.0604765 0.278996 0.501762 0.131135 0.0342625 0.214382 -0.232523 0.18037 -0.446436 0.212764 0.353319 -0.519964 -0.194551 -0.199685 0.398637 -0.2 -0.5 0.299855 -0.501259 0.106828 -0.362619 0.040744 -0.252233 0.254625 0.564186 0.458249 0.0217645 -0.464881 0.427873 -0.17821 0.245824 0.356727 0.00979373 -0.285998 -0.497312 0.00487379 0.274482 0.105956 0.0682912 -0.414908 0.306225 0.298931 -0.3 0.1 -0.49616 0.00291327 -0.0975007 -0.0943572 0.0353445 0.33074 0.0313188 0.0504242 -0.328504 -0.447158 0.0188976 0.338439 -0.335715 -0.269849 0.0968915 0.53449 -0.16376 0.0200996 -0.0643196 -0.0770763 -0.264857 -0.489045 -0.318925 -0.404038 -0.402785 0.299879 0 0.4 0.50384 0.00305819 -0.494891 0.410432 -0.282174 0.119753 0.403915 0.224623 -0.47778 -0.271754 0.338918 -0.384906 -0.328122 -0.24046 -0.528327 0.419694 -0.47862 0.220132 0.247288 0.451801 0.248733 -0.00361318 0.284357 0.382986 -0.220612 -0.0994995 0 -0.2 0.2 0.303349 0.210719 -0.29029 -0.37913 -0.00744909 0.33271 -0.00964438 -0.516285 -0.20837 0.295001 0.281391 -0.592791 -0.0878073 -0.0726869 -0.143109 -0.0880689 -0.260503 0.472333 0.398673 0.35859 -0.300915 0.280235 -0.513776 0.383577 -0.500567 0.3 0.1 0.3 0.0010746 0.520523 -0.48499 0.396275 -0.00282621 0.00627739 0.0839426 -0.507789 0.303392 0.0249729 0.245933 0.117414 0.108817 -0.219045 -0.0510959 0.353298 0.454315 -0.400922 -0.202128 0.352509 0.508154 -0.411723 0.190275 -0.101018 -0.200567 -0.4 0.3 0.4 0.100991 -0.190507 0.0062353 0.491145 0.487477 -0.0219241 0.0882718 -0.214384 0.29677 0.249873 -0.260233 -0.232781 0.12539 -0.270145 0.246258 -0.363047 0.492429 0.11286 0.0466267 -0.449558 -0.206226 -0.3167 -0.00702134 0.0995922 -0.000567359 0.5 0.5 0.5 0.501075 -0.391033 0.206752 0.379702 -0.421113 0.495597 -0.00428897 0.522761 0.519688 0.459179 0.00549481 -0.605142 -0.574587 0.0183873 -0.392754 0.441606 -0.0839865 -0.0221467 0.12519 0.513899 -0.0056326 -0.507766 0.103676 0.509321 -0.397462 -0.5 -0.4 0.4 0.3 -0.0916104 -0.38238 0.100619 0.466426 0.372741 0.387269 0.331259 -0.248096 0.334745 0.381012 -0.00443498 0.257427 0.424329 0.350445 -0.253635 0.197519 -0.0347696 -0.232664 0.112135 0.303725 -0.39442 -0.299267 -0.391495 0.502763 0.5 0 0.3 0.503349 -0.196611 0.42222 0.412173 -0.310361 -0.0188921 -0.00579476 -0.391687 -0.46992 0.196864 0.476635 -0.385429 0.414813 0.235291 0.118607 0.177662 -0.401846 -0.423994 0.112749 -0.487663 0.120696 0.216066 -0.491843 0.209761 0.403638 0.1 -0.1 0.3 0.200538 0.406944 0.334034 -0.168957 0.534627 -0.167373 0.301948 0.308279 -0.060472 -0.331204 -0.217794 -0.496481 0.0181504 -0.348095 -0.386551 -0.0064224 -0.35714 -0.0626794 -0.0868062 -0.292789 0.128191 0.446117 0.0311869 -0.389903 0.300006 -0.5 -0.4 -0.5 -0.396085 -0.377027 -0.0486078 0.0474688 -0.0357147 0.213345 0.311628 -0.399284 0.262152 -0.436431 -0.00651904 0.43936 -0.551028 -0.110806 -0.10313 0.575633 -0.236298 0.0196523 0.127058 -0.0525764 -0.0326789 -0.0504467 0.136691 0.510899 0.100006 -0.00125828 -0.4 -0.1 -0.391003 -0.475398 -0.437758 0.0589749 -0.42862 0.57635 -0.442071 -0.209867 0.150353 -0.310144 -0.103872 -0.0604914 0.363873 0.310455 0.0116985 -0.193401 0.0331637 0.532053 0.230189 -0.231732 -0.233141 0.057898 -0.0714605 0.104581 0.2 0.498742 0 -0.4 0.105691 0.323461 -0.0425487 0.160767 -0.124058 0.172329 0.121145 0.368774 0.457877 0.322658 0.323675 0.0180717 -0.225576 0.488262 0.187039 0.0898139 -0.370619 -0.357645 0.0757678 -0.232361 0.160141 0.558929 0.125816 -0.190249 0.499433 0.2 0.5 -0.3 0.106954 0.224358 0.254274 0.352263 -0.148387 -0.371966 0.396671 -0.0485175 -0.417517 -0.494816 0.00273213 0.174248 0.0746826 0.0807816 -0.316152 0.5307 -0.382444 0.433282 0.0388236 -0.466522 0.148258 0.0376183 -0.273725 -0.087401 -0.201224 0.2 0 -0.1 0.301305 -0.292757 -0.270859 -0.270575 -0.478984 0.0239153 -0.421817 -0.429858 -0.319575 0.0646032 -0.0818553 0.42292 0.402058 -0.057923 -0.21338 0.0806501 -0.10909 -0.501709 -0.37479 0.226433 -0.468312 0.0244283 -0.183783 0.499433 -0.100567 0 0.2 -0.4 0.401263 -0.496961 0.518005 -0.176256 -0.410512 -0.0576221 0.408431 0.0165246 0.427154 -0.343741 -0.394633 0.198286 -0.221162 -0.503583 -0.0347531 0.486342 0.0650904 -0.0339841 -0.103925 0.211632 -0.481021 0.112819 0.405332 0 -0.2 0.2 0.2 -0.3 -0.4 0.100208 0.415361 0.00796436 0.103092 0.306225 0.103585 -0.421121 0.0750093 -0.295267 0.027849 -0.0841767 0.529649 0.0352209 0.220707 -0.272688 0.29205 0.214799 0.123058 0.0241929 0.11147 0.00536972 0.201343 0 0 -0.4 0.5 0 0.5 0.000566512 -0.0965058 0.00647748 0.417831 0.424265 -0.266168 0.535798 0.143147 0.0561387 0.0611155 0.0537998 0.0772522 -0.336488 -0.149015 0.548719 -0.377693 0.509991 -0.490468 -0.0974316 -0.497598 0.00157765 0.201302 0 0.1 0.3 -0.5 0.5 -0.1 -0.398816 -0.0973881 -0.290176 -0.484954 0.0217555 -0.470321 0.0224542 0.320601 -0.279153 0.233405 -0.177045 -0.171613 -0.169577 -0.0833962 0.0129668 0.20794 0.401808 -0.097988 -0.397988 -0.49827 0.4 0 0.4 -0.3 -0.3 0.1 -0.1 -0.3 0.2 0.1 0.503 0.203037 -0.296963 3.6712e-05 0.2 -0.199207 0.500793 0.101208 -0.396452 0.504611 0.00755174 0.507552 0.506213 0.00308579 -0.399438 -0.49827 -0.29827 -0.19827 0 0.5 -0.5 -0.5 0 0.363562 
0.5 -0.3 -0.5 0.1 0.2 -0.3 -0.1 0 0.5 -0.1 -0.3 0.4 -0.4 0.3 0 0 0 -0.1 -0.2 0.5 0.2 0.3 0 0.5 -0.3 -0.3 0.5 -0.5 -0.1 -0.5 0.4 -0.3 -0.5 0 -0.3 0.5 0 0 -0.098967 -0.198967 0.4 -0.201399 0.298278 0.500645 0.102367 -0.400239 -0.199859 -0.00578884 -0.405653 -0.205653 -0.499864 0.4 -0.5 0.2 0.2 -0.2 0.2 0 -0.2 0.4 -0.3 0.1 -0.4 -0.301904 -0.401904 -0.202407 -0.102046 -0.102559 0.300258 -0.398112 -0.194522 0.408575 -0.102803 0.404008 -0.209018 0.478071 -0.320942 0.475152 -0.318634 0.398237 0.300004 -0.3 -0.4 0.1 0 0.5 0.2 -0.3 -0.5 0.5 -4.80328e-05 0.296583 -0.00335053 0.486958 -0.21742 -0.32642 0.192189 -0.314687 0.0880669 -0.0241701 -0.214282 -0.444509 -0.0743756 -0.0922091 -0.175154 -0.535355 0.0885554 -0.0948299 -0.291817 0.3 0.4 0.4 0.3 -0.5 -0.1 0 0.197016 0.494468 0.00163575 -0.499496 -0.0896769 -0.112308 0.398473 -0.405727 -0.104019 -0.303875 -0.308344 -0.223101 -0.219955 -0.0333018 0.131744 0.3263 0.44801 -0.00638559 -0.36705 -0.167678 0.0148289 0.000531945 0.3 0.2 0.1 0 0.5 0.089728 -0.514156 -0.315295 -0.00823405 -0.308513 -0.431215 -0.0548919 -0.466167 0.326863 -0.475708 0.430117 -0.458475 -0.261429 -0.556492 -0.097044 -0.090503 -0.225799 -0.608862 -0.440558 -0.2148 0.00449785 -0.196953 0.187248 -0.00147903 0.3 -0.3 -0.2 -0.2 0.488335 -0.222004 -0.122112 0.174749 -0.552064 -0.0490865 -0.247156 0.10532 0.430937 -0.026275 -0.0323037 0.0751126 0.26151 -0.160537 0.0716977 0.533572 -0.507074 -0.0425102 -0.240307 -0.227277 0.01223 0.126187 -0.389605 -0.10052 0.398626 0.5 -0.500208 -0.0998478 -0.41902 -0.528883 -0.331619 0.161103 0.13978 -0.521261 0.0847928 -0.272846 0.404951 0.207248 0.509163 -0.0153432 0.500293 -0.29863 0.245428 0.559722 -0.279666 0.120687 0.392882 -0.502456 0.0625277 0.356863 0.443584 0.210079 -0.301374 0.5 -0.1 -0.499848 0.281671 0.177516 -0.0387204 -0.153883 0.0714686 -0.0766682 -0.0252189 -0.506212 -0.345927 0.202333 0.457913 0.0661254 0.622155 -0.46168 0.237586 0.0484698 -0.33278 -0.0194328 0.373357 0.0198787 -0.442016 -0.416219 0.460166 -0.0812553 0.5 1.20143e-09 0.29774 0.000555725 -0.506462 -0.115082 -0.15805 0.266342 -0.00266355 0.141071 0.497695 0.380176 0.580301 0.51182 0.352887 -0.118471 -0.330123 -0.233856 -0.20086 0.19759 0.500148 -0.42729 -0.197332 0.233398 0.358182 0.265264 0.1553 -0.287327 0.3 -0.2 -0.30226 0.000403483 -0.0147631 -0.521883 -0.0932848 -0.447121 -0.0741187 0.400767 0.199301 0.125875 0.25633 0.27771 0.381454 0.0581904 -0.585652 -0.637816 0.199838 0.329379 0.0811273 0.25682 -0.138036 0.259631 0.240154 0.134311 -0.188267 -0.091845 -0.2 0.1 -0.1 0.200169 0.0841958 0.375921 0.00413449 0.00474364 0.530658 0.347295 0.526645 -0.343009 0.293186 0.551475 -0.455592 -0.13422 -0.483924 0.272207 -0.381644 -0.212231 -0.410437 0.156897 0.0782937 0.0249444 0.529206 0.0119836 -0.399209 0.00744429 -0.5 0.3 -0.3 0.400747 -0.415163 -0.220038 -0.0842144 -0.298671 0.0445794 -0.168984 0.186228 0.311914 0.183056 -0.0365323 0.218853 -0.0926725 0.403019 0.280834 -0.504541 -0.257403 -0.234456 0.408258 0.32657 0.0814103 -0.466628 0.301567 0.401511 0.407444 0.1 -0.2 -0.5 -0.0948803 0.396707 0.480901 0.0109991 -0.423866 0.0802893 -0.340167 -0.059688 0.312164 -0.14792 -0.233318 -0.240546 -0.315299 0.156102 -0.544051 0.334499 -0.367769 0.245116 0.30002 0.0420551 0.247308 -0.207481 -0.0100789 -0.00693019 0.107444 0.5 -0.3 0 0.300747 -0.102857 -0.324173 0.130243 0.0670889 -0.0543779 -0.150815 0.0153013 0.569574 0.466317 0.392594 0.362142 -0.286204 -0.107307 0.176564 -0.447043 0.277635 0.44901 0.36845 -0.497515 -0.0500134 -0.0184112 -0.316078 0.481908 0.395921 -0.4 0.5 -0.5 -0.5 0.0993887 0.293328 0.0181613 -0.187565 0.358056 0.544783 -0.0617234 -0.0204496 0.434307 -0.00599326 -0.557896 -0.183313 -0.509429 -0.474302 0.4821 -0.331771 0.26751 -0.258441 -0.0754328 0.33105 0.175351 0.499695 -0.113803 -0.302589 0.2 0.3 0 0.000168905 -0.494508 -0.311265 0.212571 -0.340789 0.190222 0.0352413 0.181123 0.399331 -0.0231501 0.420339 0.3913 -0.157202 -0.427872 -0.0931876 -0.378327 0.0319596 -0.493283 -0.342523 0.342162 -0.0466388 0.173394 0.500546 0.392574 -0.403912 -0.1 0.5 0.1 -0.499782 0.392906 -0.11135 0.200599 0.129458 -0.297345 0.292748 0.122388 -0.193473 -0.159764 -0.566606 0.00221912 -0.431501 0.174543 0.0091388 0.305444 0.217717 -0.367848 0.099951 0.156978 0.42645 -0.519378 -0.126614 0.192565 0.0993453 0.3 0.2 0.1 -0.301563 -0.31904 0.479035 0.197776 0.154227 0.282439 -0.1963 0.242199 -0.00842836 -0.0617101 -0.54864 -0.601955 -0.603829 0.239119 -0.274128 -0.374812 0.428584 0.0431674 -0.0992947 0.471708 -0.145709 -0.216917 -0.327625 -0.298872 -0.00065473 0.399446 0 -0.2 -0.500502 -0.107854 0.360475 -0.391921 0.558616 0.101879 0.592322 -0.477277 0.250101 -0.201452 0.399117 -0.196408 -0.200067 -0.54596 -0.387062 -0.476476 0.13254 0.223008 -0.108979 -0.210523 0.296978 0.272854 0.2977 -0.000240868 1.77771e-10 0.0994462 -0.3 0.4 -0.00223115 -0.215374 0.0737771 -0.398941 0.13653 -0.424273 0.10052 -0.0622644 -0.54319 -0.176587 -0.343406 0.178489 0.323405 0.141277 -0.321772 -0.126635 -0.264363 0.328725 0.452372 0.205133 0.4908 -0.207446 -0.504501 0.000122957 0.107444 0.5 0.3 -0.2 -0.50499 0.480677 0.281452 -0.0936276 0.527828 -0.317905 0.34926 0.413655 0.369026 0.418505 -0.433006 -0.607468 -0.445927 -0.0304555 0.0112645 0.0493501 0.00777235 -0.405272 -0.18673 0.032186 -0.186157 0.497048 -0.293011 -0.495955 0.00745271 0 0.2 -0.1 -0.00431727 -0.516778 0.483182 -0.417309 -0.0903923 0.00358731 -0.470222 0.476937 0.241165 0.396188 0.306813 -0.370785 0.557693 -0.301704 0.0248093 -0.247197 0.0402801 0.531902 -0.37031 -0.177391 -0.0841923 0.0146197 -0.0795329 -0.0925557 0.00744429 0 0.1 -0.4 -0.402759 -0.0162268 -0.520991 0.207414 0.385518 -0.305152 0.0432583 0.232704 0.0236892 0.0240621 0.465743 0.488694 -0.34428 -0.409587 0.216342 -0.444104 -0.193416 0.25829 -0.17904 0.11756 0.416338 0.111572 -0.186314 0.3 -0.4 -0.4 0.3 -0.1 0 -0.106984 -0.20299 0.510852 0.389178 -0.595101 0.302438 0.370044 0.0517864 0.208449 -0.0493628 -0.0038538 -0.218423 0.164559 -0.220926 0.545121 0.564687 0.318307 0.325861 0.417102 -0.184819 0.0127096 0.107331 0 -0.1 -0.4 -0.1 -0.4 -0.5 -0.200272 -0.0119825 -0.498681 -0.207434 0.47497 -0.165112 -0.474583 -0.481996 0.0932438 -0.458242 -0.0213836 0.323008 -0.273338 0.122115 0.090496 0.0998651 0.538773 0.0308325 0.318991 0.215554 -0.485887 -0.393912 -0.4 -0.4 0 -0.4 0 0.3 0.205334 -0.198564 0.499952 0.283408 -0.0202301 -0.449491 0.232356 -0.147433 -0.0316179 -0.284453 0.0262677 -0.170407 -0.0362826 0.045377 -0.246803 -0.460121 -0.283796 0.000105069 0.200105 -0.299952 0.2 0 -0.4 -0.3 -0.3 0 -0.4 0.2 -0.5 0 -0.204581 -0.0222683 -0.422268 0.382313 0.0999999 -0.300053 -0.200053 -0.400632 -0.100497 -0.20079 -0.00525382 0.294746 0.0110944 0.312326 0.116256 -0.0999525 4.7537e-05 -0.499952 0.2 -0.5 0 0.3 0.5 -0.135461 
0.1 0 -0.3 0.1 0.4 0.2 -0.5 0 -0.4 -0.1 0 0.2 0.2 -0.1 0.4 0 -0.4 -0.2 -0.5 -0.1 -0.3 -0.4 0.4 0.3 -0.2 -0.1 0.1 -0.5 0.4 0 0 0.4 0.5 -0.2 0 -0.3 0.3 -0.2 -0.400055 0.199945 0.3 0.397032 0.0968681 -0.00319806 0.0999339 0.499933 0.499999 -0.398928 0.00107086 0.501071 -1.50444e-06 0.3 -0.2 -0.2 0.3 -0.4 0.1 0.3 0.2 -0.4 -0.2 -0.5 -0.5 0.498538 -0.00146221 0.39845 0.49835 -0.101689 -0.300243 0.49622 0.296365 -0.30596 0.0928247 0.192286 -0.504895 -0.101534 -0.200091 0.20099 -7.9104e-05 0.300013 1.33716e-05 -0.5 -0.5 -0.4 0.5 -0.4 0.4 -0.2 0.3 0.1 -0.1 -0.00141453 0.498606 -0.501481 -0.502062 -0.0185712 -0.0192737 0.0798211 -0.11331 -0.110213 0.493893 -0.40278 -0.301676 0.0987376 0.00128363 -0.0992445 0.101001 0.200093 0.500011 0 0 0.5 0.2 0.1 -0.2 0.5 -0.501152 -0.199974 0.0987799 0.09851 0.298519 -0.00761662 0.382117 0.267753 -0.528293 -0.331191 -0.306483 -0.290895 0.503192 0.113291 -0.178696 -0.37583 0.0115443 -0.200486 0.299818 -0.00364204 -0.00557651 3.38292e-05 0.2 -0.4 0 -0.5 0 0.204246 0.104257 -0.300153 -0.00462437 0.497298 -0.294715 0.509654 0.519751 0.00474864 -0.115064 -0.014825 0.0103662 0.228554 0.133512 -0.150155 0.443137 0.0459604 0.0383521 -0.176437 0.523423 0.314583 0.00791532 0.212878 -0.500249 0.1 0.5 -0.5 -0.3 0.10625 0.306116 0.405373 -0.000160699 0.398378 0.0192707 -0.273107 -0.250628 0.232901 -0.309383 0.0150339 0.315512 -0.264021 0.443041 0.367314 -0.134788 0.274331 0.0593728 0.540764 -0.262865 0.117067 -0.0985827 0.413053 0.306597 0.105892 0.3 -0.39976 0.499774 0.00647709 -0.390564 -0.0887531 0.504795 -0.185008 0.123287 0.143162 0.250682 0.550969 -0.274426 0.123334 0.415007 0.447533 -0.236237 0.390594 0.284439 -0.128492 0.248482 0.0231836 0.019167 -0.0287963 -0.124032 -0.416014 -0.494893 0.00589199 0.5 -1.27648e-09 0.299774 0.107356 0.309339 -0.0935008 0.00569821 -0.089877 -0.386627 -0.269834 0.255888 -0.0295434 -0.154988 -0.376469 -0.518925 -0.0256147 0.108969 0.442507 0.117062 0.116947 0.528288 0.11245 -0.312939 -0.0155663 -0.144347 -0.143874 0.39953 0.5 0.4 0.398002 -0.000285371 0.30407 0.00518675 0.206255 0.00462443 -0.0881162 -0.287139 0.0332922 0.274978 -0.0298901 0.0222681 0.401517 -0.136771 -0.354995 -0.303474 -0.370839 0.0967354 -0.195035 0.132761 0.525491 -0.391717 -0.428628 -0.149342 -0.446737 0.194868 -0.4 0 0.098002 -0.100059 0.00248448 5.15358e-05 0.105729 0.302346 0.00106166 -0.296154 -0.143183 -0.148835 -0.0667674 0.193811 -0.242985 -0.0655338 0.333712 0.386783 0.139596 -0.486283 -0.378402 -0.469687 -0.467524 -0.376217 -0.192497 0.0928965 0.483911 -0.10146 0.3 -0.1 -0.3 0.299966 0.39857 -0.196442 0.500224 -0.108975 -0.396223 -0.483593 0.432466 -0.435544 0.163971 0.00922797 -0.0328476 0.431948 -0.145245 -0.476444 -0.422143 0.368536 0.0654485 -0.0160581 -0.150943 -0.370439 0.423838 0.0132552 0.28854 0.400072 0.4 0.3 0.4 -0.400265 -0.00675945 -0.103779 -0.292789 -0.0278093 -0.47867 0.225227 -0.452767 -0.42907 0.0432699 0.277068 -0.239746 -0.0130856 0.328876 -0.0336564 0.302829 -0.323854 0.274931 -0.423302 -0.073778 0.344168 0.217134 -0.477439 -0.197749 0.200072 -0.4 -0.4 0.2 0.503576 -0.406778 0.10227 0.511301 -0.0885825 -0.166988 0.445547 0.0580089 -0.44587 0.155016 0.131737 -0.308869 -0.190238 0.0171512 0.0631723 0.186928 -0.310936 -0.213489 -0.350606 0.33097 -0.270764 -0.483095 -0.083084 0.501828 7.15971e-05 0.1 0.5 0.5 0.299735 0.0952167 0.000409398 0.419107 0.0325554 -0.154701 0.552552 -0.471566 0.22321 0.054212 -0.364512 -0.0100139 -0.0883808 -0.48484 0.390408 0.126629 0.307714 -0.120716 -0.128908 0.320581 0.0160448 -0.394736 -0.184589 -0.398122 -0.500697 0 0.5 0.1 0.5 -0.00477863 0.202117 -0.0727887 0.0465638 -0.321307 0.177337 -0.168281 -0.25122 0.165574 -0.0650501 -0.0100318 -0.495716 -0.266273 0.381879 0.318725 0.10303 0.368743 0.54164 0.507747 0.504664 0.00650018 -0.292629 -0.203118 0.09994 -0.3 -0.4 0.2 -0.300034 -0.501161 0.101977 -0.0604643 0.064799 -0.0206405 -0.0277123 -0.2286 -0.153629 0.454903 -0.269028 0.299857 0.00155797 -0.267487 0.180865 -0.110394 0.286279 -0.143296 -0.479399 -0.00158052 -0.0868519 0.211446 0.510918 0.0985015 -0.200695 -0.3 -0.2 0.5 0.101783 -0.398641 0.00926131 0.436585 -0.353898 -0.146261 -0.263172 0.0281401 0.112824 0.40826 0.220818 0.264639 0.0938527 0.497436 -0.0405898 -0.0241847 0.0436916 0.341854 0.419317 -0.502825 0.00190507 0.105208 -0.0889801 -0.496665 0.199998 0.2 0.2 -0.5 -0.198251 0.303971 -0.0876466 0.325141 0.0375244 0.0196362 0.0254985 -0.319559 0.281935 -0.0136275 0.00069509 -0.23587 0.0717313 0.285692 -0.177954 0.152383 0.433734 0.332204 0.392989 0.505843 -0.308265 -0.208129 -0.293843 -0.498723 0.199998 -0.300169 -0.3 -0.1 0.202517 0.203899 0.0193477 -0.383427 -0.271703 -0.30642 -0.50615 0.350111 -0.0563429 0.0375366 -0.237863 -0.555344 0.367259 0.509567 -0.370285 0.0373189 0.528497 0.000683657 0.301843 0.096402 0.297311 0.500435 0.208675 0.500115 0.2 0.0998311 0.5 -0.1 0.502608 0.506512 -0.466715 -0.477491 -0.0834407 -0.111093 0.0877978 0.165141 0.167612 0.0970217 0.366619 0.474351 0.41075 0.121891 0.335684 0.429699 0.0184234 -0.413636 0.100316 0.0951468 0.102208 0.301308 0.000612542 -0.299951 0.300072 0.2 -0.2 -0.2 -0.397392 -0.0934855 -0.270484 -0.190588 -0.390307 -0.103918 -0.330167 -0.0241372 0.0112356 -0.277545 0.0364444 0.0710141 0.112182 -0.0897678 0.233033 -0.0763549 0.394481 -0.00262701 -0.307074 0.0974908 -0.0838217 0.50717 0.100426 -0.0998576 3.30159e-05 0.2 0.3 0.2 -0.0999397 0.50319 0.516492 0.02378 0.0198029 0.1306 -0.0855627 0.0283821 0.352126 -0.0643865 0.242839 0.338221 0.220281 -0.0676457 0.207133 -0.287928 -0.300323 0.299308 0.00938053 0.320564 0.0120066 0.500229 -0.49968 -0.399928 0.100072 -0.2 -0.1 -0.4 -0.299999 -0.296899 -0.392561 0.00830342 0.409719 0.106886 0.401908 0.053177 0.457452 -0.351013 -0.050923 0.162028 0.120096 -0.272014 0.101472 -0.466589 0.417144 -0.0918568 -0.288335 -0.0872697 0.105631 0.400134 -0.199757 0 0.2 0.2 -0.2 -0.3 -0.5 -0.296863 0.0046466 0.201013 -0.49217 -0.395625 0.0228618 -0.270862 0.336071 -0.264518 -0.380762 -0.262526 -0.277454 -0.168853 -0.474993 0.422409 0.497501 0.015523 0.0104846 0.20498 -0.299299 -0.000294671 -0.299982 -0.1 0.1 -0.3 -0.4 -0.4 0.4 -0.299938 -0.500231 0.297002 0.498085 -0.103643 -0.285768 0.32424 0.222423 0.0128643 0.303696 -0.393039 0.202514 0.0829002 -0.115681 0.491031 -0.509533 0.499451 0.00662006 0.40298 0.399912 -0.3002 -0.10006 0.4 0.2 0 -0.1 0.5 0.4 0.100053 -0.399685 0.100887 -0.40266 0.101412 0.0132613 -0.285343 0.303747 0.196888 0.491695 0.395003 -0.0152064 0.187062 -0.109175 -0.109803 -0.308264 0.094816 0.0031895 0.10319 0.00312595 0 0 -0.5 -0.5 0 0.3 0.3 -0.1 0 0.2 0.298575 0.396457 0.396457 -0.202118 -2.33768e-09 -7.21433e-07 0.499999 -0.499915 0.199487 0.299441 0.0985116 0.498512 0.0954826 -0.00351793 -0.00362524 0.103126 -0.396874 0.403126 0.1 0.4 -0.1 0.3 0.1 0.229515 
0.4 -0.4 -0.3 -0.2 0.3 0.1 -0.4 -0.3 -0.1 -0.1 0.5 -0.1 0.2 0.4 -0.4 0.5 0.3 0.2 0.1 0 0 0.4 0.3 -0.3 0 0 0.2 -0.4 0.3 0 -0.5 -0.1 -0.1 -0.1 -0.1 0 -0.2 0.4 -0.399995 -0.299995 0.4 3.48911e-06 2.74759e-05 -0.0999663 -0.399994 -0.399994 -0.5 -0.40001 0.499992 0.0999916 0.200001 0 0.2 0.1 0.1 0 0.3 -0.3 -0.2 0 0.4 0.1 -0.3 0.1 9.75127e-08 -0.0999999 4.21992e-06 -0.20455 0.294738 -0.00538448 0.495022 -0.00683939 0.396701 -0.303991 -0.00319157 -0.400355 0.100107 -0.300188 0.299818 0.299975 -0.300003 0.5 0.3 0 0.4 0 -0.4 -0.3 0.2 0 0.0997832 0.395966 0.494726 -0.308698 -0.401884 0.177376 -0.219224 0.278414 -0.319258 0.262495 0.0721242 -0.117346 -0.222532 -0.319653 -0.308674 -0.504523 -0.304091 0.500319 0.101243 0.3 0 0.3 0.2 0.5 -0.2 0.1 -0.405386 -0.200677 -0.00450841 -0.104292 -0.201721 -0.00510646 -0.526016 -0.0807712 0.339448 -0.277937 -0.172758 -0.54541 -0.271439 -0.237698 0.499464 0.304992 -0.107503 0.00375634 -0.0964063 -0.305662 0.193002 -0.104223 -0.5 -0.4 0.1 0.1 0.1 -0.00113668 0.494702 -0.00446007 -0.512887 -0.0273341 -0.225708 -0.0903619 -0.330313 -0.578835 0.215614 -0.253631 0.353723 -0.052831 -0.402174 -0.396466 0.0150885 0.118736 -0.113121 0.362959 0.358175 -0.508654 0.0688277 0.0634244 -0.499775 0 0 0.3 0 -0.202125 0.0903118 0.486141 -0.24323 -0.0315136 -0.412719 -0.185007 -0.141804 -0.106663 -0.319162 0.130373 0.557571 -0.0739306 -0.0294897 0.54515 -0.427698 -0.231033 0.519428 0.497194 -0.431938 0.180569 -0.125333 0.267289 -0.0971737 0.399786 0.4 -0.000239086 -0.400351 0.00247524 -0.309549 -0.0279076 -0.548428 -0.513881 0.0771457 -0.530349 0.401696 0.0470564 0.0133067 0.566186 0.0847587 0.0127685 0.553596 0.541229 -0.0220598 -0.178692 -0.0121663 0.0672971 0.306198 0.0253144 0.211672 0.0181095 -0.0912794 -0.500214 -0.4 0.5 0.199649 0.103891 -0.405211 0.37964 0.177877 -0.32218 -0.160129 -0.543744 0.396158 -0.332162 0.0701485 0.0774413 -0.0733633 0.509452 0.467097 -0.050152 0.517204 0.213188 0.52305 0.0605082 0.343058 -0.436529 0.451517 0.451351 -0.187067 -0.2 0.4 0.110769 0.408612 -0.286915 -0.279773 0.291082 -0.384584 -0.293189 0.110215 0.128812 0.563277 0.566247 0.328771 -0.238908 -0.0809725 -0.422218 0.549127 0.339824 0.198168 0.218091 0.117315 0.570267 0.55752 -0.34457 0.363637 -0.0456489 0.212706 0.4 -0.5 -0.189231 0.408964 -0.377889 0.336654 -0.387494 0.331246 -0.0219395 -0.448428 0.396266 -0.17079 0.206718 0.53892 0.184489 -0.408024 -0.366472 0.536832 0.400907 -0.277822 0.231955 0.0943882 -0.231287 -0.148674 0.341383 0.41821 0.319888 0.207971 0 0.5 -0.5 -0.488565 0.122262 0.433009 -0.266934 0.443895 -0.0969111 0.279776 -0.407659 -0.415286 0.351203 0.302436 0.288214 -0.147251 0.315171 -0.234871 -0.31064 -0.0297015 0.394395 0.0846895 0.566567 0.344087 0.214859 0.283564 -0.0897582 -0.201323 0.3 -0.2 -0.2 0.500959 0.231541 -0.26149 -0.197778 0.552958 -0.0420258 -0.29692 -0.0324576 -0.124169 -0.524565 0.095019 0.368536 -0.134336 -0.0222613 0.257421 0.306342 -0.330792 -0.116808 -0.12695 -0.205736 0.014143 -0.502398 0.371784 0.390719 -0.00132316 -0.1 0 -0.2 0.300636 0.311766 -0.18461 -0.0100209 -0.0923797 0.0309359 -0.204986 0.195426 0.0361836 -0.510337 -0.430627 0.219862 0.211864 -0.298887 -0.0384014 -0.00599716 0.576776 -0.246967 -0.43309 -0.443484 0.248575 -0.13254 -0.519197 0.0947736 0.498677 -0.1 0 -0.5 0.400959 0.0117138 -0.082147 0.489302 0.372204 0.371515 -0.292196 -0.0200799 0.394691 -0.38466 0.40936 0.165451 -0.160185 -0.166459 0.376522 -0.0276534 -0.126417 0.451557 0.137754 -0.0760562 0.0326698 -0.0445284 0.471958 -0.0116584 0.499441 0.1 -0.4 -0.2 0.3 0.0103766 -0.165945 0.1751 -0.30826 0.401565 -0.568815 -0.374159 0.0688734 -0.332499 -0.22673 -0.361762 -0.359587 0.415921 -0.357354 0.0151218 -0.139923 0.0207632 -0.363945 -0.280086 -0.559701 -0.0314297 -0.211134 0.295798 0.496242 0.1 -0.5 -0.4 0.511435 0.499899 0.0264443 -0.213071 0.134555 -0.427574 -0.506418 -0.110781 -0.523217 -0.166479 -0.424928 0.0560213 0.156843 -0.444261 0.0410282 -0.0987565 -0.252744 0.341535 -0.445207 -0.289298 0.108259 -0.181444 0.240647 -0.220757 -0.000828213 0.4 -0.4 0.4 0.100852 -0.295127 -0.280023 -0.0211474 0.0462826 -0.0952573 -0.58649 0.410085 -0.627924 0.285432 0.382725 -0.0232318 -0.015083 0.111085 -0.204513 -0.464839 -0.262068 -0.358677 0.256579 -0.518025 0.296695 0.395511 -0.506221 0.258959 -4.28257e-05 -0.2 0.5 0.2 -0.0877352 0.0167957 -0.48759 0.114711 0.0959877 -0.0113113 -0.0864664 0.381389 -0.208598 0.0904734 -0.372859 -0.558625 -0.362011 0.0965338 -0.370489 -0.0609408 -0.460603 -0.480293 0.49789 0.0953409 -0.0108661 0.405952 -0.0806363 0.469556 -0.400043 -0.298741 -0.5 0.3 -0.186946 0.113474 -0.195872 -7.05655e-05 -0.080464 -0.0315201 -0.290388 -0.306836 -0.451934 0.251459 -0.46757 0.307727 -0.316514 -0.0451714 0.365192 -0.407677 -0.202148 -0.194369 0.452827 -0.00846824 -0.0898029 0.413626 -0.579408 -0.416158 0.5 -0.498741 0.3 0.3 0.00125464 -0.492334 -0.491502 -0.167773 0.0359593 0.170354 -0.346237 0.0791561 0.232222 -0.438585 0.00412169 0.300182 0.164114 -0.0189137 -0.344642 -0.048867 -0.240393 0.317345 -0.182177 -0.0912049 -0.0645273 -0.156763 -0.530425 -0.105683 -0.301323 -0.2 0 -0.1 0.402441 -0.293534 -0.196325 0.0366239 -0.136136 -0.314181 0.0179613 -0.446371 0.234242 -0.468186 0.427769 0.0369797 -0.215387 0.322204 0.473511 -0.0873103 -0.425315 -0.0607945 0.455666 -0.134299 -0.453258 0.256628 -0.13002 0.492882 -0.501324 0.3 0.3 -0.1 -0.100187 0.50739 0.493234 0.0198851 0.0704175 0.577515 0.225719 -0.229266 -0.434816 0.163573 0.50593 0.14459 0.365331 -0.335881 0.12076 0.00967967 -0.0268971 0.494509 -0.111118 -0.409537 -0.418859 0.0996531 -0.103249 -0.101323 0.298677 0.4 0.4 -0.5 0.00118632 -0.295415 0.512349 0.122906 0.043361 -0.209021 -0.267763 0.572629 0.265114 0.477863 -0.182852 0.00207143 -0.368581 -0.442735 0.00881592 0.271122 0.0118345 0.0740619 -0.133908 -0.308611 -0.00149019 -0.102576 0.501038 0.5 -0.4 0 0 -0.1 -0.2 0.00114591 0.313434 -0.272309 0.0297097 -0.320834 -0.324151 0.0678029 0.363113 0.0479533 0.600548 -0.411254 0.504446 -0.132916 0.421221 -0.1333 0.480004 -0.0203774 0.476056 0.0881898 -0.496772 0.40136 -0.398956 -0.5 -0.4 -0.1 0.1 0.2 -0.3 0.399983 -0.49066 -0.477932 0.147034 -0.436289 -0.0360702 0.461697 0.477525 -0.405839 0.110716 0.40702 0.112762 0.46575 0.0708296 0.449196 -0.370433 0.210737 -0.400743 -0.397592 -0.498241 0.00129737 0.103196 -0.3 0 0 0.3 0.2 -0.4 -0.39773 -0.49586 0.210892 0.325643 -0.0708372 -0.164378 -0.175985 0.0171725 -0.378479 0.431216 0.0342711 0.5481 0.233808 0.225589 0.516095 -0.0840968 -0.38853 -0.198368 0.501632 -0.499609 0 0.4 0.5 0.3 -0.4 0 0.5 0.3 -0.2 -0.2 0.207137 -0.0881922 0.411808 -0.0953285 -0.2 0.000161373 0.000161208 0.500158 0.402906 0.503025 -0.38852 0.51148 -0.387381 0.108658 0.403885 -0.399609 0.000391113 0.300391 -0.3 0.4 0 0.2 0 -0.314141 
-0.2 0.4 0 -0.5 0.2 0.1 0.5 -0.2 0.5 -0.3 -0.5 -0.1 0 -0.3 0.1 0.5 0 -0.1 -0.3 0.1 -0.5 0.1 0.4 -0.4 -0.5 0 0.1 0 -0.3 -0.3 0.3 -0.5 0.4 0.1 -0.4 0.4 -0.3 -0.2 -0.100015 0.399985 0.4 -0.199686 -0.199814 -0.400162 -0.400347 -0.500323 -1.56928e-05 0.200451 -0.199998 -0.199998 -0.30045 -0.2 0.4 0.5 -0.5 0.1 -0.5 0 -0.3 0.5 -0.5 0.5 0.1 -0.100208 -0.000207768 -0.200234 -0.000298326 -0.000189328 -0.498614 0.000489999 0.200508 0.299309 -0.204676 -0.20543 -0.302255 -0.403734 -0.400971 0.502957 -0.297912 8.0326e-05 0.100026 0 0.4 0.5 -0.4 -0.4 0.3 -0.5 -0.3 0.2 0.500001 -0.495535 -0.292982 0.00647123 0.206996 -0.178433 0.010269 0.227403 0.108649 -0.488505 -0.192412 -0.402561 0.30519 -0.280261 0.318101 0.221143 -0.486928 0.400688 0.400638 -0.2 -0.2 -0.3 0.5 -0.4 0.2 -0.4 0.100417 0.202431 0.306857 0.00762033 -0.18501 0.21878 -0.187993 0.333626 -0.0811153 -0.0169069 -0.0521568 -0.169013 0.341124 -0.25606 0.260987 0.195656 0.0348262 0.0369571 0.126719 0.31767 -0.392559 -0.399856 -0.1 -0.4 -0.2 0.2 -0.3 0.299673 -0.494231 -0.491057 0.411036 0.00951363 0.399192 0.416917 -0.195021 0.012669 -0.235493 0.319542 0.192763 -0.0165128 0.273694 -0.416083 -0.522129 0.0133819 -0.235875 -0.434867 -0.348448 0.212869 -0.186923 0.403136 -0.400062 -0.2 0.1 0.4 -0.2 -0.101234 0.114141 0.518688 -0.0024875 -0.110832 -0.2201 -0.282684 0.496253 -0.516049 -0.353411 -0.0874173 -0.226044 -0.171552 -0.139428 0.17017 0.153539 0.378303 -0.395439 -0.47651 -0.00621148 0.00399722 0.408055 -0.496166 -0.00234123 -0.000244633 -0.4 -0.302454 -0.0923832 -0.404441 0.103117 0.024025 -0.390731 -0.194687 0.371651 0.465134 -0.497818 -0.561771 -0.260696 0.291429 0.367026 0.184688 -0.20398 -0.0131654 -0.62719 -0.185497 -0.0765612 -0.0245744 0.192807 -0.510135 -0.0871125 0.406855 0.0986769 -0.100245 -0.4 -0.0999999 -0.292383 0.399682 -0.500146 -0.378205 0.397576 -0.30104 0.0109027 0.48752 -0.547983 0.159109 -0.0406351 0.120773 -0.347332 -0.0637471 -0.4812 -0.326603 -0.309967 -0.291674 -0.495002 0.44176 -0.139622 -0.431183 0.295243 -0.298145 0.200469 -0.4 0.1 -0.000424376 0.109659 0.209519 0.0146205 0.222969 0.306619 -0.470496 0.339527 0.332584 -0.284916 -0.0861121 0.183554 0.357621 0.443409 0.175643 0.257279 -0.337687 -0.223026 -0.0913992 -0.198043 -0.377094 -0.0555427 0.171335 -0.498332 -0.00367549 0.398815 -0.5 -0.1 -0.300425 0.202043 0.412743 0.110032 -0.18081 -0.0741647 0.0478205 0.156189 0.322337 -0.353856 -0.234734 -0.284636 -0.429023 -0.357447 -0.0663673 0.101033 0.179434 0.301923 -0.182299 0.296805 -0.517587 0.0514666 -0.0287627 -0.103725 -0.195418 0.0996187 -0.1 0.3 -0.3 0.399915 0.412494 -0.18433 -0.0804807 0.511316 0.443646 -0.0528705 -0.0459049 -0.0503771 0.207603 0.0539438 0.265456 0.271076 0.310902 -0.15553 0.0569673 0.141642 -0.323718 0.464651 0.196765 0.270823 -0.539026 0.187901 -0.299142 -0.500831 -0.2 0.2 0.1 0.199967 -0.091735 0.110272 0.0130472 -0.478766 -0.501287 0.31395 0.435418 0.526585 0.247335 -0.34146 0.406439 0.153189 -0.0341011 0.294959 -0.0313081 0.08424 -0.195946 0.473901 0.430842 0.0687255 -0.518419 0.0965845 -0.294054 0.299169 0.2 0 -0.4 0.399861 -0.391009 -0.193341 0.519146 -0.066308 -0.39849 0.522276 0.0785423 0.0730402 0.0650297 -0.540541 0.0686102 -0.0127775 -0.0916744 0.434446 0.112343 0.320093 0.0165925 -0.0189928 -0.483227 -0.320536 -0.409923 0.0952509 -0.29572 0.299169 0.3 0.4 -0.5 0.199967 0.00854946 -0.485924 -0.479715 0.522285 -0.277213 -0.0954442 0.0239421 0.124852 0.199193 0.31704 -0.475494 0.516666 0.123411 -0.305158 0.494613 0.267936 0.299756 0.482542 0.388863 0.396318 0.300757 -0.195416 0.507472 0.200404 -0.4 0.3 -0.2 0.2 -0.391375 0.0233819 -0.0799195 -0.0807207 0.0254242 -0.287316 0.0909629 -0.403194 0.0544895 -0.213396 -0.0488836 -0.173201 -0.502539 -0.0770318 -0.0238237 -0.162732 0.36156 -0.509853 0.10159 0.00486013 -0.391206 -0.507417 0.000938613 0.400407 0.1 -0.3 0.3 0.0999151 0.297217 0.207375 -0.0896458 0.49123 0.077973 -0.00464041 0.198302 0.116808 0.307693 -0.212402 0.421565 0.608855 0.108948 0.357891 0.381521 -0.361515 0.365711 -0.104883 -0.519556 -0.48277 -0.166954 -0.0950489 0.204643 0.000404669 0.2 -0.2 -0.5 -0.499864 0.00815089 -0.105617 0.0265186 0.423853 0.190849 0.163373 -0.314202 -0.368188 -0.405438 0.611382 0.0193516 0.0145078 0.0380178 -0.247735 0.0441945 -0.357198 -0.23089 0.280469 0.502209 0.519761 -0.374286 -0.382018 -0.193486 -0.199996 -0.1 -0.4 0.2 -0.101029 0.51117 -0.412233 0.390645 -0.496872 0.138375 -0.0580272 0.00920322 -0.370447 0.440098 0.177084 -0.191314 -0.136598 0.406799 -0.260814 0.152924 -0.134775 -0.425243 -0.498586 0.499307 0.429972 -0.468756 0.0141871 -0.196229 3.56921e-06 -0.399849 -0.4 0.5 0.394695 -0.293757 -0.449261 0.200172 -0.525218 -0.250286 -0.132021 -0.0885992 0.174685 0.124667 0.224436 -0.396483 -0.00441693 -0.350643 0.230364 0.269825 -0.44026 0.369112 0.399246 -0.273269 0.0151042 -0.0816382 -0.487371 0.300386 -0.5 0.000151014 0 0.3 0.287693 0.292818 0.0570523 0.367726 -0.254299 0.240935 -0.154448 0.0606937 -0.131043 0.4584 -0.0819605 -0.0489889 -0.567189 0.144642 -0.0559591 -0.114743 0.400894 0.216213 0.0136867 0.0275014 -0.0874138 -0.188494 0.307818 0.00138898 0.0991689 -0.5 -0.3 -0.5 0.48884 -0.306391 -0.351389 -0.558273 -0.16912 -0.0657252 0.347168 0.0314702 -0.367736 -0.0785527 0.322703 0.322694 -0.334421 -0.490666 0.145113 -0.0900194 -0.453156 0.510215 0.115693 0.312261 -0.403347 -0.102505 -0.0950014 -0.000350821 0.29929 0.2 -0.2 0.2 -0.209698 0.195412 0.355632 -0.499434 -0.394959 -0.380965 -0.601094 0.320148 0.0182325 -0.399953 0.220506 -0.287432 0.325034 0.241303 0.420879 -0.166825 0.540546 0.112049 -0.306331 -0.0107118 0.40373 -0.292273 -0.500335 -0.100831 0.199169 0.4 -0.2 0.3 0.401147 0.390707 -0.143653 0.223027 -0.0925125 0.290425 -0.629636 -0.515408 -0.345811 -0.631234 -0.027865 -0.0880716 -0.146991 -0.103541 -0.490297 0.340657 0.300647 -0.108366 0.189517 0.493982 0.102079 0.212311 0.302709 0.2 -0.5 -0.1 0.3 0 0.5 -0.119591 0.459919 0.154949 -0.0600542 -0.57097 -0.0402368 0.158959 -0.451345 0.464959 -0.22701 -0.483032 0.432529 0.210103 0.406934 0.0328418 -0.297504 0.200934 -0.197976 0.0944019 -0.00740419 0.198126 0.300053 -0.5 -0.5 0.5 0.2 0 0.2 0.19322 -0.318858 -0.0188665 0.475613 0.473783 -0.126072 -0.231217 -0.506149 0.499944 0.316416 0.0326948 -0.385061 -0.279356 0.502262 -0.502418 -0.10497 -0.400961 0.397915 -0.300059 -0.102191 0.299935 0.101489 -0.5 -0.5 0.1 -0.2 -0.4 0 -0.299832 -0.200971 0.298966 -0.39744 0.00296702 0.401225 -6.25862e-05 0.292832 -0.401338 0.0124341 0.41172 -0.188426 -0.38706 -0.093758 0.400165 -0.101768 -0.500538 -0.00138087 0.498619 0.0999453 -0.4 0 0.2 -0.5 0.4 0 0.5 -0.4 0 0 0.399994 -0.102044 -0.302043 -0.302038 0.1 -0.299955 0.100045 -0.200227 -0.400311 0.0994028 -0.300601 0.299399 0.10085 -0.398889 -0.398871 0.0999453 -0.100055 0.399945 0.4 0.2 -0.3 -0.1 0.4 0.494752 
-0.2 0.2 -0.2 -0.4 -0.3 0.2 -0.2 0 -0.2 0 0.3 0.1 0.4 0 0.3 -0.1 -0.1 -0.4 0.5 0.5 0 0.1 0.5 0 -0.3 0.3 0.4 0 0.4 0.1 -0.1 0.2 0.2 0.2 -0.1 0.3 0 0.4 0.000345776 0.500346 0 0.501658 0.50176 -0.29497 -0.0967295 0.20291 0.199903 0.100367 0.300233 -0.499767 0.299866 0.3 -0.1 -0.1 -0.1 0.3 -0.4 0.2 0.4 -0.3 -0.5 0.4 0 -0.399852 0.00014843 -0.500307 0.20042 -0.495488 -0.200087 0.207023 0.0204347 -0.0673794 0.0349538 -0.0681333 0.417017 0.510409 0.00847434 -0.495644 0.00279175 0.00175576 -0.199984 0.5 0.1 0.5 -0.5 0.3 -0.5 -0.2 -0.4 -0.1 -0.400014 -0.196978 0.200427 -0.502303 -0.202258 0.205014 -0.000469477 -0.48755 -0.0636036 0.0558805 0.537747 0.229612 0.116003 0.213474 -0.391692 0.0123776 0.00889037 -0.199875 -8.944e-05 0.2 0 0.4 0.3 -0.3 0 -0.5 -0.102318 -0.204012 0.297569 0.393421 -0.313557 0.0839068 0.282489 0.276322 0.165673 -0.335663 0.0709327 -0.0264595 0.177715 -0.217952 -0.037597 -0.431015 -0.0156105 0.394028 0.202289 0.496753 0.499374 -0.2028 0.1 -0.4 -0.2 -0.3 -0.4 -0.299765 -0.00509368 -0.0134999 0.480577 0.171829 -0.324625 -0.119178 -0.328124 -0.345649 0.331911 -0.3902 -0.275567 -0.491457 0.386287 -0.599148 -0.460681 -0.0780604 0.351189 -0.0213944 -0.5063 0.00309062 0.201688 0.298074 -0.504397 -0.4 -0.4 0 -0.4 0.0963908 -0.308895 -0.327064 -0.530691 -0.11038 -0.434834 -0.412269 -0.0128454 -0.133796 0.242981 -0.0297849 0.246625 0.401162 0.232303 -0.588602 -0.550118 0.234681 0.193602 2.90087e-06 -0.148861 0.170992 -0.51232 -0.401154 0.186444 -0.206481 -0.2 0.499193 -0.399335 0.295878 -0.312968 0.471332 0.465781 -0.00327233 0.416978 -0.463912 -0.448317 0.304102 0.141649 -0.406676 -0.475845 -0.348771 -0.0558553 -0.384171 0.316162 0.0757913 -0.0741843 -0.0975672 -0.465253 0.332191 0.464425 -0.0235608 0.28464 -0.206481 0.2 -0.1 -0.399335 -0.0117119 -0.416996 -0.102451 -0.273788 -0.463782 -0.0887464 -0.441428 0.121649 0.0561466 0.266028 0.23501 0.120135 0.00453966 0.00798947 0.308116 0.306638 0.262189 0.457727 -0.194434 0.312804 -0.368278 -0.0437959 0.465363 0.485203 0 0.2 0.00896848 0.201496 0.393052 0.388493 0.0148376 0.326292 -0.129273 0.243173 -0.160965 0.452853 0.111382 -0.142665 -0.476534 0.290132 -0.43361 0.422476 0.230254 0.0151883 0.0131436 -0.517765 0.435602 -0.464784 -0.19184 -0.0405204 0.474837 -0.00223376 -0.4 0.2 -0.191032 0.400831 0.00151667 -0.394242 0.528424 0.0532077 0.102802 0.0335408 -0.37237 0.445752 0.607807 0.263342 0.0637447 0.43569 -0.0459741 -0.37304 -0.450369 -0.451339 -0.138759 0.128854 -0.123064 -0.338857 -0.549047 0.386074 -0.205372 0.0998929 -0.2 -0.5 0.3 0.500031 0.207888 0.313202 -0.452191 0.18255 -0.0826842 0.122506 -0.0920111 0.261576 -0.0981108 0.0223578 -0.0781005 0.0966642 -0.370589 -0.484188 -0.348184 0.208688 0.260093 0.341496 -0.197406 0.388807 -0.526078 0.00837004 -0.303709 -0.403444 -0.1 0.5 0.4 -0.299344 0.114137 0.123711 -0.372096 0.209094 -0.0887778 0.461919 0.605324 0.0352776 0.114423 0.0807079 -0.382575 -0.416696 0.0822164 -0.351902 0.198844 0.079028 0.184162 -0.231874 0.537969 0.495978 -0.185475 -0.0974715 -0.396914 -0.303444 0.5 0.3 0.1 -0.400259 -0.0875727 -0.0750689 0.431673 -0.103736 0.29689 -0.343508 -0.393115 -0.319796 -0.159218 -0.142054 -0.31057 0.0466458 -0.531122 -0.449056 0.30136 0.182264 -0.393761 0.367284 -0.459563 -0.486275 -0.185807 -0.395278 -0.397841 0.496556 0 0 0 -0.399344 -0.194544 0.0414053 -0.262137 -0.110757 0.268364 0.437463 -0.25035 -0.414343 0.50857 -0.153107 -0.303139 0.109281 0.397882 0.481271 0.131563 0.498299 0.290573 0.136904 -0.159467 0.0284098 0.0189969 0.108023 -0.295498 0.49911 0.4 -0.4 0.1 0.4 0.503051 0.322503 -0.278173 -0.257654 -0.148169 0.0479887 0.517656 0.0127941 -0.00789046 -0.0456723 0.296053 0.177589 0.506223 0.0949237 0.41424 0.317327 0.287646 -0.0290462 -0.0691373 0.016305 -0.0879852 -0.298158 0.511596 -0.296185 0 0.4 0.2 0.200031 -0.499444 0.306177 -0.00438429 0.398514 -0.501671 -0.159718 0.309374 -0.120427 -0.204445 0.266084 -0.346116 -0.289806 0.336609 -0.0511893 0.0439261 -0.138688 -0.227024 -0.252757 0.115747 -0.487082 0.014775 -0.499825 0.00488766 -0.40013 0.5 0.2 -0.1 -0.299544 0.310372 -0.505006 -0.234885 -0.42227 0.373324 0.00730808 0.0106689 -0.295846 0.445723 0.531916 -0.288568 0.120708 0.0514595 0.0540229 -0.244062 -0.248425 0.0488451 0.473894 -0.0930849 -0.514829 -0.0198615 -0.113237 0.394022 0.400235 0.3 -0.5 0.1 -0.0995305 0.012021 -0.0207155 -0.0499143 -0.547052 -0.362492 0.179353 0.273309 0.0142744 -0.38834 -0.0250902 0.242892 -0.143147 -0.233048 0.106151 0.157332 -0.361733 0.0122558 0.086292 -0.405754 -0.00483002 -0.504919 0.198867 0.488561 0.200235 -0.104839 -0.3 -0.3 -0.399996 0.0986032 0.158656 0.0281074 -0.108821 -0.596126 -0.269942 -0.540076 -0.0390537 0.0154974 0.545569 -0.0148772 -0.0025874 0.144863 -0.147608 -0.282928 0.0785203 0.385252 0.0826804 -0.00335053 -0.411895 -0.212437 -0.0149006 -0.505098 2.13845e-09 0.495161 -0.1 0.2 0.399897 0.291422 -0.249691 0.0175821 -0.196367 -0.598999 -0.0698016 0.0104806 -0.365976 -0.167609 -0.0209899 -0.134717 0.257658 0.251113 -0.0371754 -0.496624 0.158739 -0.0262397 0.0846099 -0.524808 0.304371 -0.206703 -0.102769 -0.00329897 0.396556 0.4 0 -0.1 -9.0955e-05 -0.0046372 -0.0407877 -0.364714 0.110544 -0.502942 -0.26219 -0.360174 -0.434474 -0.473275 -0.00621185 -0.207149 0.324791 0.354334 -0.0278473 -0.548317 0.32973 -0.0614696 0.478359 -0.418031 -0.387108 -0.0104022 -0.102905 -0.203423 0.396379 -0.5 0.3 -0.4 -0.400141 -0.305082 0.376353 0.147499 -0.0424111 0.356565 0.326057 0.0493689 -0.0336517 0.0478168 0.260173 -0.053154 -0.0205204 -0.426777 0.21249 -0.152276 -0.44496 0.0608754 0.280231 -0.502142 -0.288797 -0.295986 -0.391 -0.203444 0.496556 -0.4 0.3 0.4 1.19864e-05 -0.305333 -0.410879 -0.0104176 0.48864 -0.392179 -0.0153554 -0.186572 -0.334424 -0.158976 -0.267013 -0.229756 -0.319289 0.146409 0.153538 0.0812435 0.448916 0.059899 -0.100595 -0.485923 -0.383238 0.109235 0.309567 -0.2 0.5 -0.3 -0.4 -0.5 0.3 -0.40682 -0.094925 0.0165098 0.00908094 -0.374305 -0.448023 0.0135375 -0.373514 0.424856 -0.0940237 0.383084 0.0968909 -0.194381 -0.370666 -0.25088 -0.391873 0.477459 -0.303732 -0.377234 -0.181745 -0.284135 -0.289332 -0.3 -0.1 0 -0.5 0.1 0.4 -0.500243 0.00909796 0.217844 0.0348679 -0.150852 0.237784 0.531056 0.17391 0.460633 0.263872 -0.241806 0.0467166 0.476387 0.0694162 0.358483 0.524001 0.294158 0.197441 -0.186369 -0.181569 0.516265 0.111026 0.4 0.1 0.5 -0.5 0.2 -0.4 -0.19034 -0.280542 -0.275522 0.537888 0.0413967 0.146114 -0.0652228 -0.0720465 0.310533 0.42976 0.329617 -0.17234 0.453184 0.243632 -0.466527 0.0173619 0.203458 -0.498344 -0.298344 -0.203012 0.1 -0.1 0.3 0.2 0.3 0.2 0.2 -0.4 0.3 0.5 0.300157 -0.199734 -0.199734 0.100109 0.1 -0.399904 0.400096 0.00746012 -0.492077 0.00799222 0.401718 0.00171779 0.302795 0.103003 0.301431 0.0969878 0.396988 -0.203012 0.5 -0.2 0.4 0.4 0.3 0.0210146 
0 0.3 0 0.3 0.4 0 -0.3 0 -0.5 0.3 0.3 0.1 -0.2 -0.5 0.4 -0.3 0.3 0.1 0 -0.4 -0.1 0.4 0 0.1 -0.2 -0.3 -0.1 0.4 0 0.1 0.1 0.4 -0.1 0.1 -0.3 0 0.3 -0.5 -0.499059 0.400941 0.3 0.499483 0.399431 -0.000580054 -1.12569e-05 -0.200032 -0.199999 -0.399828 -0.49968 -0.39968 0.000148195 -0.4 0 -0.5 -0.2 0.5 -0.4 0 0.5 0.1 -0.3 -0.2 -0.4 -0.201222 -0.00122227 -0.302139 -0.000751874 0.101535 0.295813 0.0973978 0.000719941 -0.500947 0.200939 -0.292782 -0.294894 0.407899 0.101962 0.39491 0.0942447 0.099059 0.100001 -0.1 -0.5 0.5 0 -0.2 0 -0.3 0.2 0.1 -0.200652 -0.100138 0.0998866 0.00623115 -0.188383 -0.496186 -0.196972 0.285178 -0.0111677 -0.016731 0.0909726 0.0847449 -0.312336 -0.124581 -0.11612 -0.0155582 0.488485 -0.00136603 -0.500042 0.2 -0.5 0 0.3 -0.5 -0.4 -0.3 -0.303856 -0.502787 0.393981 0.300766 -0.497108 -0.280704 0.323155 -0.0965052 0.518379 -0.490974 0.00136883 -0.293374 -0.283696 0.0234276 0.00932198 0.403917 -0.318403 -0.207681 -0.0184415 -0.417677 -0.101998 0.0969978 0.1 -0.4 -0.4 -0.4 0 -0.00213535 -0.102613 -0.00469549 -0.501145 -0.100755 0.414599 -0.0880092 0.405458 -0.0628906 -0.463716 -0.0706023 -0.160563 -0.387554 0.0352972 0.301948 -0.481197 0.1663 0.443493 -0.451554 0.368759 -0.424459 0.183947 -0.517538 0.199237 0.4 0.5 -0.5 -0.3 0.00310371 -0.301002 -0.402438 0.0958787 0.0170321 0.0385011 0.432591 0.332859 0.432501 -0.259221 0.0479244 0.0628198 0.425514 -0.0522873 -0.237764 0.210972 -0.192971 -0.23296 0.46114 0.0726736 -0.241095 -0.0322404 -0.123318 -0.498367 0.303183 -0.3 -0.0997868 -0.300198 -0.494028 0.40528 0.0973693 0.0916583 -0.10116 -0.271623 0.320576 -0.276929 0.243961 -0.423928 0.331131 0.452154 0.136963 -0.448847 0.149012 0.329679 0.225458 -0.393203 -0.308078 -0.214121 0.361153 0.175203 0.0732764 0.194378 -0.496817 -0.1 0.3 -0.400198 -0.492967 -0.29369 0.0855072 -0.425228 0.375568 0.259883 0.540825 0.482337 -0.136701 -0.27558 -0.512013 -0.00313867 0.220383 0.0988282 0.322558 -0.264388 0.127757 0.0435683 0.0930839 0.209793 0.181803 -0.0213301 -0.424567 0.0890176 0.5 0.3 0.200547 -0.299748 0.298715 0.197214 -0.125208 -0.12191 -0.0194821 0.11006 -0.137966 -0.412804 -0.0887096 -0.447444 -0.248929 -0.102902 -0.208335 0.211031 0.241107 -0.360307 -0.43719 -0.140328 0.0538555 0.121185 0.379843 -0.0255596 0.278802 -0.304899 -0.3 0.4 -0.299453 0.40045 -0.20266 0.494069 0.0852234 -0.0063789 0.315389 0.517831 -0.287492 0.484874 0.18509 0.449904 -0.139499 0.151985 -0.0387868 -0.0896416 0.489853 0.527499 -0.12984 -0.100898 0.555012 0.247473 0.414847 -0.313633 -0.119274 -0.102943 -0.1 0.5 -0.5 -0.299965 -0.400536 -0.501486 -0.302496 -0.0673866 -0.35303 -0.391915 -0.383634 0.373587 -0.0829424 0.187982 0.0102841 0.184139 -0.229328 -0.243632 -0.332299 0.512345 -0.244541 0.381255 0.579654 0.164061 -0.0615963 -0.398327 0.291864 -0.497996 0.2 0.5 0.2 0.300024 0.302029 0.406888 0.42114 -0.154084 -0.410023 -0.381407 -0.00435816 0.428592 0.105373 -0.239659 0.395993 -0.505899 0.451129 0.340776 -0.0282687 0.396772 0.44494 0.283133 0.366179 0.167532 0.544256 0.303087 0.195851 0.202004 0.3 0.4 -0.4 -0.39992 -0.396621 0.505477 0.216247 0.0606546 0.391168 0.106301 0.375473 0.0240717 -0.320593 0.261195 0.383134 0.157136 -0.51277 -0.0898676 0.136571 0.365702 0.518169 -0.120289 -0.145255 -0.142718 -0.160598 0.310329 -0.204466 -0.397996 -0.3 0.5 0 -0.399976 0.00372392 -0.49365 0.137756 -0.349891 0.264695 0.263538 0.336708 0.0647573 -0.253825 0.219756 0.210329 -0.114394 -0.596074 -0.48449 -0.355477 -0.033961 -0.0266774 -0.0468895 0.0640742 0.0661656 0.528553 0.0210841 -0.0105846 -0.201218 0.1 -0.3 0.1 -0.3 -0.000192877 0.198197 -0.28791 0.420387 -0.0569593 -0.200881 -0.00328099 0.0489044 -0.094324 -0.419461 0.0715132 -0.243677 -0.171504 0.397268 0.441714 -0.431486 -0.103903 0.317099 0.262963 -0.455488 -0.466089 0.0153344 -0.00504217 -0.501203 0.2 0.3 0.4 0.500035 -0.400694 -0.296658 0.0207947 -0.164395 0.0313124 -0.090489 0.0588263 0.115894 0.185947 0.168592 -0.548497 -0.163095 0.0360634 -0.36887 -0.572546 -0.0340027 -0.488104 -0.00215981 -0.051781 0.238248 0.00322332 -0.486282 -0.505317 -0.300632 0 0.2 0.5 0.200108 -0.297116 -0.39622 0.0313362 -0.283125 -0.183034 -0.0968897 -0.187238 -0.203673 0.247853 0.417925 -0.00303207 -0.034532 -0.122329 0.421127 -0.0262746 0.436573 0.5154 -0.367599 -0.176969 0.102737 -0.514928 0.175304 -0.113861 -0.500163 0.5 0.1 0.4 0.200138 -0.395057 -0.0815716 -0.471412 0.506417 -0.276545 -0.196202 0.0422556 -0.540532 -0.205817 -0.520284 -0.102159 0.194089 -0.0821043 0.366726 -0.530864 0.372919 -0.285538 0.0256877 -0.0706969 0.00085889 0.0852115 0.183795 -0.011584 -0.500163 -0.50459 0.2 0 0.302014 0.00705381 -0.0726565 -0.278579 -0.0843913 0.188443 -0.50619 -0.530167 -0.0518401 0.0915137 0.329735 0.134132 0.0240708 -0.426738 0.190429 -0.0133717 -0.00894662 0.206562 0.435263 -0.475969 -0.186397 0.198671 -0.102188 -0.305061 -0.5 -0.40459 0.1 0.4 0.301988 0.408162 -0.179486 0.340512 0.32265 -0.232173 -0.339225 0.18215 -0.0316326 0.33013 -0.441366 -0.117847 -0.407597 -0.28614 -0.0702031 -0.370129 0.498334 0.500885 -0.26553 0.225589 0.0341683 0.306632 -0.194196 0.00203859 0.502004 0 -0.2 -0.3 0.202102 0.199477 -0.385713 0.313194 0.0376483 0.0720575 -0.302364 -0.110213 -0.508955 0.186776 0.317857 -0.00446868 -0.186657 0.48566 0.544083 -0.306596 -0.0266112 0.0241934 0.32944 -0.265225 -0.166016 0.510471 -0.505374 0.400048 -0.498077 0.1 0.4 -0.5 0.000731123 0.0987633 -0.284921 0.32882 -0.467158 -0.115316 0.284671 -0.298735 -0.0916255 0.231494 -0.464576 0.0510564 0.240284 0.0646588 -0.0223373 0.386582 0.0132245 0.010398 -0.0791873 -0.258511 0.213124 -0.00471288 -0.100918 0.00200416 -0.397996 0 -0.4 0.1 0.500114 0.403966 -0.385098 -0.177076 0.0140241 0.137261 0.326929 0.429981 -0.0502075 -0.0521716 0.344943 -0.263427 -0.348661 -0.25572 0.526198 0.116393 0.224925 -0.187577 0.0246547 0.408898 -0.39463 0.49491 0.00107242 -0.4 -0.2 0 -0.5 -0.3 -0.3 0.103478 0.209541 0.312163 -0.412853 -0.518817 0.489772 0.0894747 -0.00619484 0.215 0.425908 0.411558 0.22434 0.233883 -0.454646 -0.171521 0.316236 -0.294463 -0.198878 0.204859 0.310304 0.206981 0.00164656 0.3 0.4 -0.4 0.5 0.3 -0.4 0.000218394 -0.00306813 0.39769 -0.196737 -0.00124987 0.504398 -0.19424 0.50924 0.0237704 0.0242634 -0.468406 -0.345002 -0.264526 0.0291346 0.318654 0.323951 0.408492 -0.389555 -0.392276 0.00754366 0.0052603 0.400982 0.4 -0.5 -0.2 0 -0.2 -0.4 0.100216 0.398453 0.0987617 0.00459056 -0.0930279 0.00460777 0.101199 -0.105379 0.29868 -0.198605 -0.00771229 -0.398474 0.517987 -0.282984 -0.39095 -0.488994 -0.395513 0.103963 0.00396265 0.00146347 -0.3 -0.5 0 0.4 -0.3 -0.2 0 -0.5 0 0.3 0.19998 0.0997488 0.199749 0.0997691 -6.61402e-11 -1.96909e-05 -1.96926e-05 -4.04694e-05 0.199943 0.499255 -0.301184 0.298816 0.301441 0.301481 -0.298049 0.501463 -0.0985365 0.101463 -0.4 0.2 -0.1 0 0.3 0.164882 
-0.3 0.1 0 0.4 0 0.4 -0.2 0 -0.3 -0.3 -0.1 -0.2 -0.5 -0.5 0.1 0 0.1 -0.5 -0.5 0 -0.3 0.1 0.3 -0.5 0.5 0 0.1 0.5 0.1 0.1 -0.4 -0.1 0 0.3 -0.2 0 -0.4 -0.1 -0.500103 -0.000103311 0.3 0.399976 -0.200023 0.0997684 -0.00020882 0.499933 0.0999276 0.200064 -0.499945 -0.399945 -0.400009 -0.4 0.4 0 -0.1 0.5 0 0.5 0 -0.4 0.3 -0.1 -0.2 -0.4 -0.4 -0.400013 -0.000144141 0.0998521 -0.000124199 -0.000346959 -0.300297 -0.198586 -0.0955669 -0.295395 -0.197118 0.399492 0.0998735 -0.0989382 0.00110616 1.77149e-05 0.399993 0.2 0.5 -0.5 -0.4 -0.1 -0.2 0 0.2 0.3 -0.2 -0.49669 -0.196398 0.500611 0.503033 -0.195802 0.203675 -0.383188 -0.380843 0.0125948 0.0057006 -0.197519 -0.19943 -0.0999612 -0.298647 -0.00171477 0.00755464 0.000829369 0.0998386 -0.3 0.1 -0.2 -0.2 0 -0.2 0 -0.201853 0.396756 0.0990661 -0.501325 0.49934 -0.100682 -0.009371 0.400467 -0.289594 -0.361644 0.218137 0.515961 -0.296922 -0.190841 0.412935 0.107656 -0.00303267 -0.00926778 0.210348 0.219677 -0.100845 0.0948875 0.2 -0.5 -0.4 -0.4 0 -0.100199 -0.0965845 -0.499426 -0.0936202 0.296963 0.100832 -0.212164 -0.126524 0.0775347 -0.416739 0.292631 0.50165 0.0155844 0.00901433 0.483699 0.47308 -0.508182 0.227652 -0.266271 0.130326 0.410001 -0.198514 0.398651 1.11245e-05 -0.2 -0.5 -0.3 0.4 -0.300648 0.504267 0.0113958 -0.404122 -0.109784 -0.029575 0.000966743 0.276333 0.0723159 -0.00917588 -0.308336 -0.300858 -0.422561 0.262222 -0.349226 -0.335609 0.0745629 0.0997732 -0.273253 -0.17254 -0.187112 0.0031012 0.0990896 -0.499774 0.300042 -0.1 0.397121 0.500365 0.294599 -0.00415553 0.518101 -0.199448 0.0848764 0.273083 -0.117519 -0.0225846 -0.103186 0.400123 0.498476 -0.474805 -0.071193 -0.0738891 -0.0703863 0.249165 -0.450732 -0.516299 0.428512 -0.376681 0.306932 0.0965089 -0.0186326 -0.405632 -0.299958 0.1 0.3 -0.0996352 -0.00761115 -0.504122 0.315092 0.477561 0.365709 -0.0208961 0.180445 0.392469 -0.185563 -0.0249524 0.383553 -0.159296 -0.367453 -0.0739306 -0.173875 -0.168658 0.336039 -0.0171603 0.0376139 0.43273 0.441314 0.493327 0.373058 -0.00894346 -0.1 0.3 -0.100465 -0.30011 -0.102569 -0.396739 0.0157654 -0.324147 0.480949 -0.0156472 -0.505676 0.22441 0.0296563 -0.00873114 -0.0225931 0.309044 -0.613206 -0.397876 0.130836 0.444777 0.258543 -0.499416 -0.183283 0.338927 -0.251768 0.294247 -0.423576 -0.305264 0 0 0.199535 0.399525 -0.304301 -0.496787 0.0918883 -0.0167922 -0.0181164 -0.514506 -0.46475 0.431177 0.202205 -0.130718 -0.268253 0.125941 -0.109953 0.440403 0.358911 -0.137293 -0.0232156 0.502607 -0.265796 -0.246048 0.258523 0.302979 -0.0103995 -0.201645 -0.1 -0.4 3.05391e-08 0.399557 -0.00241185 0.00520842 0.188899 -0.510145 0.47746 -0.107674 -0.179925 0.30184 -0.197167 0.171115 0.399211 0.376292 0.312933 -0.243985 0.107158 0.16365 -0.306251 0.535892 -0.0329822 -0.417206 0.239719 0.314277 -0.00251249 0.300089 0.4 0.4 0.2 -0.000120532 0.495964 0.199677 -0.19664 0.187158 -0.392342 0.403138 -0.494405 -0.214365 -0.144744 -0.161319 -0.503031 -0.633407 0.241106 -0.019175 0.034347 -0.369672 -0.480461 0.0449084 0.35265 -0.227628 -0.275142 0.316565 0.301005 -0.0999112 0 0.2 0.3 0.0999112 0.196919 -0.389187 0.411139 0.496377 -0.00189038 0.203227 -0.083188 -0.121192 0.439974 0.346518 -0.583894 -0.480376 -0.176694 -0.0168438 -0.363116 -0.471527 0.454139 0.0705568 -0.254462 0.560988 0.433777 -0.279552 -0.396928 0.500089 0 -0.5 -0.4 -0.100121 -0.10122 -0.194226 0.402762 0.42338 0.139893 -0.27019 -0.273351 0.518492 -0.493859 0.3731 0.43609 -0.0593077 -0.446239 -0.0824897 0.431236 0.308674 -0.263809 0.163547 -0.15142 0.545397 -0.0579964 0.0265788 0.112582 -0.499357 0 -0.3 -0.4 -0.2 0.198723 -0.399235 0.115523 -0.449384 0.165598 -0.0430634 -0.254737 -0.451484 0.0384337 -0.00108807 -0.325909 -0.0420112 -0.445358 -0.00776929 0.206239 -0.00376819 0.227255 0.22463 -0.0678994 0.445172 -0.463252 0.0199645 0.210884 -0.399479 0.1 0.4 0.5 0.299557 -0.0012139 -0.296971 0.302362 -0.0685503 -0.435228 -0.0390173 0.173257 -0.0243687 0.0423397 0.0133301 -0.300689 0.459543 0.362469 -0.017991 0.0300343 -0.382027 0.418653 0.0169832 0.406363 -0.473572 -0.053134 0.0239107 0.501375 -0.0991805 0.1 -0.3 -0.2 0.0998937 0.188314 0.194064 0.501997 0.0150761 0.267929 0.459493 0.0576787 -0.348378 -0.369593 0.503857 -0.335382 0.0885617 -0.39094 0.0245482 0.343527 -0.196354 -0.314276 0.489021 -0.295381 -0.285901 -0.0781026 -0.0807369 -0.398122 -0.39997 0.5 0.4 0 -0.000838015 0.187004 -0.00903439 -0.519104 -0.189039 -0.462064 -0.368878 0.454836 -0.449577 -0.349833 -0.474262 0.19693 -0.317904 0.309807 -0.295738 0.433271 -0.407956 0.48258 -0.327199 0.388919 -0.104556 0.0222186 -0.389347 0.201235 3.0061e-05 -0.000525298 -0.1 0 0.104005 0.289935 0.392833 -0.50698 -0.00612362 0.0904201 -0.18422 -0.261935 0.123176 -0.505768 -0.248715 0.367293 0.379704 -0.0979617 -0.390061 -0.0679114 -0.516169 0.244146 -0.427652 0.180109 0.194003 -0.0834973 0.114168 0.400742 0.2 0.299475 0.2 -0.4 0.20397 -0.0138775 0.186528 -0.492188 0.388916 0.296059 0.394551 0.00653806 0.0919765 -0.331983 -0.0253803 -0.0299121 0.284161 -0.413128 -0.00949485 -0.00995009 -0.322683 0.0574968 -0.331013 -0.527883 -0.309888 -0.289292 0.403436 0.00139384 -0.0999112 -0.5 -0.3 -0.5 0.403686 -0.40063 -0.108517 0.00498529 -0.0151946 -0.288583 -0.401902 -0.52088 0.211487 -0.0108434 -0.0361702 0.394662 -0.404785 -0.457169 -0.141566 -0.514838 -0.433967 -0.239551 -0.536495 0.260831 -0.0127482 0.103052 0.502669 0.206115 -0.19989 0.4 0.3 0.1 -0.301454 -0.405629 0.193897 -0.18796 0.496115 0.524657 0.304843 0.189142 -0.127631 -0.517213 0.479807 0.376242 -0.0249269 0.149217 -0.213741 0.00685337 -0.324757 0.164157 -0.414063 0.372989 -0.409796 -0.51027 -0.414173 -0.399911 8.87942e-05 0.5 0 -0.3 0.0997165 -0.206144 -0.0200351 0.101892 -0.292845 -0.0988366 -0.0903452 -0.405099 -0.0249375 -0.117296 0.0587818 -0.485548 -0.338696 -0.343195 -0.407865 0.406886 0.0842719 0.0991968 -0.414944 0.279694 -0.515387 0.388476 0.0887716 0 -0.2 -0.2 0 0 0.2 -0.504192 -0.518123 -0.522598 0.50179 0.392844 0.482018 -0.530297 0.236009 0.254457 0.390386 -0.133165 -0.0255581 -0.525763 0.310484 0.206338 -0.0961959 0.201357 -0.0989188 -0.118278 -0.416955 -0.513377 -0.00996343 0.5 0 0.3 -0.3 -0.1 0 -9.72283e-05 -0.500406 0.498782 0.181909 -0.114937 0.0698075 -0.129754 -0.240331 -0.0313987 -0.207205 -0.208694 -0.408253 -0.00484341 -0.0956141 -0.497519 -0.00154762 -0.302826 -0.103462 0.196087 0.0864748 -0.410241 -0.0103966 -0.3 -0.5 -0.4 -0.3 0.2 -0.2 0.399999 -0.200048 -0.310127 -0.0144001 0.373565 0.372391 0.186836 -0.307528 0.408991 0.291428 -0.502676 0.0905893 -0.505425 0.30166 0.301597 0.197047 -0.105644 0.0950675 0.295067 -0.00119214 -0.5 0.5 -0.2 0.3 0.2 0.3 0 0 0 0 -0.00257334 0.0974738 -0.302526 0.200047 0.5 0.300087 -0.499913 0.398564 -0.00187195 0.498245 -0.00047929 0.199521 -0.50169 -0.501724 -0.10153 -0.101192 -0.101192 -0.00119214 0.2 0.2 -0.3 -0.4 0.5 -0.138236 
0.1 0.3 -0.4 0 -0.2 -0.1 -0.4 0.4 0.4 -0.2 0.3 -0.5 0 0.4 0.3 0 0.1 -0.3 0.2 0.1 -0.1 0 0.4 -0.4 0 0.4 -0.5 0.4 0.4 0 -0.4 0.1 -0.5 0.3 -0.4 -0.2 0.5 -0.4 0.403374 0.203374 0.2 -0.301467 0.09646 -0.202775 0.00076527 0.400554 0.399982 -0.101551 -0.501495 -0.00149509 5.6179e-05 0 -0.4 0.5 0.2 0.4 0.1 -0.4 0.5 0.5 0 -0.1 0.4 0.499959 -0.300041 0.0982071 -0.0984367 -0.299234 -0.320635 0.47436 -0.220053 0.00682404 -0.383131 0.119462 -0.297668 -0.00149606 -0.101185 -0.00107173 1.82284e-05 -0.299197 -0.0999949 0.3 0.4 0.3 0 0.1 -0.5 -0.4 0.3 0.5 0.39885 0.00318041 0.50301 0.493764 -0.111841 0.0580285 -0.561106 0.0121508 -0.245859 -0.0594021 0.290709 -0.309963 -0.0344887 0.465126 0.375457 0.011406 0.201099 0.401445 0.201734 0.5 0.4 0.3 0 0 0.5 -0.3 -0.00186566 0.396202 -0.403967 -0.104243 0.484473 -0.276821 0.431527 -0.216132 0.264329 -0.0654164 0.335509 -0.560399 0.337158 0.479884 -0.552779 0.347018 -0.0428084 0.199983 -0.0787061 -0.508015 -0.498825 0.497913 0 -0.5 -0.4 0.1 0.1 -0.491308 -0.494329 0.103189 0.22261 -0.074165 0.0408626 0.338889 -0.06694 -0.361438 0.109877 -0.115436 -0.264312 -0.406036 -0.401237 0.413543 0.0412352 0.145951 0.34193 -0.260196 0.0241529 0.522361 0.399013 0.396119 -0.103276 0.4 -0.2 -0.2 0.2 -0.0799355 0.00260777 -0.160044 -0.0630521 0.0485997 0.570492 0.207343 -0.315084 -0.330469 0.451241 0.0158401 0.0107297 0.373066 0.505928 -0.226494 0.240409 0.312377 0.106385 -0.0149503 -0.0901125 0.496553 -0.00888843 -0.203108 -0.30825 0.296537 -0.4 -0.39802 0.497237 -0.273995 -0.177215 0.557733 0.0505486 0.339407 0.0789646 -0.206893 -0.0276439 0.220316 -0.455525 0.0432937 0.336725 0.206758 0.212495 0.102354 -0.0576124 -0.181532 -0.0841945 -0.545373 0.0904192 0.151117 -0.343517 -0.326071 0.487703 -0.00346314 0.1 0.3 -0.402763 0.536183 0.054262 -0.0598652 -0.480338 -0.191703 0.166311 0.0623002 -0.115903 0.150045 0.213721 0.0652854 0.528024 0.514008 0.549953 0.376759 -0.354646 0.32358 -0.216855 0.335771 0.065981 -0.357792 -0.54894 -0.536013 -0.414092 0.3 -5.2357e-09 0.201795 -0.196891 -0.47607 -0.0747469 0.107255 -0.210952 -0.0233713 -0.0829231 -0.0112149 -0.0130662 -0.332588 -0.108812 -0.374105 0.542334 0.260624 -0.322283 0.432619 0.172518 -0.36573 0.535335 -0.336839 -0.532814 0.314028 0.440892 0.0748919 -0.302233 -0.2 0.2 0.401795 0.00587238 0.215611 0.203636 0.288244 -0.137947 -0.349201 0.335259 -0.519407 -0.256335 -0.208133 0.430509 -0.265524 -0.186773 -0.078374 0.130209 0.357057 0.463672 0.0606982 -0.0583668 -0.247633 -0.0384042 -0.0552883 0.478327 -0.400452 0.397913 0.4 0.5 -0.2 -0.201175 -0.494956 -0.509591 0.475436 0.495908 0.110385 0.315097 0.0959042 0.418193 0.471189 0.187752 0.131215 -0.00666232 -0.0362058 -0.270594 0.0290215 -0.0414354 -0.219063 -0.197336 0.271368 0.356431 0.391627 0.114226 0.398628 0.00110227 0.3 -0.3 0.1 -0.00136737 -0.0954384 0.504479 -0.301383 0.312103 0.118973 0.529829 0.207633 0.165316 0.0374561 0.262026 -0.0979827 0.43306 0.165364 -0.413017 0.0289288 0.0839037 -0.0169875 -0.456475 0.299022 0.0964731 0.0141737 0.498555 -0.293716 0.301102 -0.2 -0.4 -0.3 0.299849 -0.493086 0.401644 0.299637 0.32908 0.151026 0.484582 -0.0085858 0.106634 0.0674055 0.0399772 -0.135677 -0.0822396 -0.504574 0.340119 0.459125 0.420496 0.157507 0.0780196 -0.0142711 0.500909 0.0169175 -0.299474 -0.0992269 0.00110227 0.4 0.3 0 -0.301367 0.407226 0.207811 0.0198885 0.310696 0.181116 0.118358 0.0777519 0.459826 0.290286 -0.36723 -0.107364 -0.65254 -0.313746 0.242086 0.243523 0.335666 0.496024 -0.408486 0.320201 0.209731 -0.20381 -0.102536 0.0825165 0.490869 -0.5 0.1 0.4 0.1 0.105181 -0.00120772 -0.234727 0.0573744 -0.49458 0.283264 -0.0644017 0.212127 -0.551908 -0.461105 -0.672489 0.235283 0.229284 -0.396131 -0.298389 -0.0378145 -0.209592 0.0184877 0.281928 -0.321487 -0.523565 0.292367 -0.217616 -0.00562336 0.4 0.1 -0.4 -0.101175 0.00343808 0.185803 0.250248 -0.141467 -0.0218903 -0.313102 0.277538 0.110969 -0.613586 0.0760579 -0.699069 -0.260947 -0.577883 0.257302 0.309399 0.140854 -0.159367 -0.0101061 -0.284031 -0.0206895 0.466438 -0.418219 -0.11766 -0.108215 0.5 0.1 -0.3 0.402363 0.0167142 -0.291077 -0.351633 0.151642 -0.0659781 0.352934 -0.115126 -0.130353 -0.371891 0.0503721 0.0765006 -0.568776 0.414146 -0.326039 -0.267551 0.363119 -0.0850931 -0.00256262 0.24559 0.41486 0.0156272 -0.0631517 -0.220527 0.199185 0 0.3 -0.4 -0.298784 -0.190264 -0.411428 -0.31622 0.144468 0.438249 0.148561 -0.138655 -0.648592 -0.335879 -0.559365 -0.441471 0.0898759 -0.55757 0.0186205 -0.208895 -0.0429765 0.1874 -0.497968 -0.0941713 -0.525557 -0.562419 -0.241629 -0.0121315 -0.300815 -0.402252 -0.4 -0.2 0.204238 -0.0989763 0.409306 -0.124799 0.237378 0.233146 -0.0234795 -0.618914 -0.548034 -0.174086 0.00449422 -0.552099 0.13782 -0.226186 0.185726 0.304294 0.455498 -0.367775 0.0269167 -0.27217 -0.0864322 -0.128758 -0.00404229 0.197868 0.2 0.197748 -0.1 -0.4 -0.192998 0.110976 0.413613 0.0200224 -0.0387881 0.329197 0.0214431 -0.598178 -0.130256 0.259518 -0.0510006 0.133182 -0.00396217 0.23561 0.289473 0.25464 -0.395439 -0.0904012 0.0228197 -0.255922 -0.463573 -0.329474 -0.391728 0.00115724 -0.298898 0.3 0.2 0 0.00699983 0.194543 0.0311412 0.135307 0.0984845 -0.00590466 -0.42189 -0.0138606 0.340313 0.481782 -0.537791 -0.00969112 0.117312 -0.0911775 -0.256213 -0.122942 0.248136 0.0316159 0.228015 -0.122633 -0.146703 -0.206852 -0.00962123 -0.498774 -0.501306 0 0.1 0.4 0.306011 -0.0983216 -0.148397 0.53921 -0.328153 -0.274054 0.425304 0.163079 -0.263055 0.46263 -0.4281 0.0562008 0.165633 0.113066 0.228667 -0.0298756 0.288569 -0.454226 -0.067658 0.563909 0.504503 0.385212 -0.197701 0.00110227 -0.198898 0.5 -0.5 -0.3 -2.53337e-06 -0.386002 0.526167 0.445743 -0.191431 0.117972 -0.36446 -0.314806 0.524699 0.0884108 0.186979 0.256964 -0.0252124 -0.130366 0.0143984 -0.280142 0.258906 -0.0482612 0.467636 -0.266663 -0.0866695 -0.405766 0.5007 -0.3 -0.3 -0.3 0.5 -0.4 0.2 0.516499 0.0346683 0.158647 0.173814 0.493011 0.106825 0.021269 -0.376373 -0.386143 0.569004 0.350319 0.127052 0.0175383 -0.38089 0.317302 0.312284 0.134756 0.0238949 -0.484191 0.312836 0.10221 -0.49786 0.2 0 0 0 -0.1 0.4 -0.498443 0.0146994 0.0298267 -0.440943 0.283326 -0.210693 -0.201647 0.591811 0.076205 -0.260995 0.149707 0.040231 0.406959 -0.315608 -0.0987332 -0.471324 0.121195 -0.374173 0.406916 -0.185977 0.102478 -0.29797 0.5 -0.5 0 -0.4 -0.4 0.5 -0.0976691 0.0115198 0.0174815 0.0215201 0.226941 -0.166038 0.0149909 0.198061 -0.512883 0.19625 0.0965595 -0.20544 -0.198336 0.409186 0.00754655 0.21127 0.309764 0.210083 -0.389917 -0.501461 0.4 -0.1 0.3 -0.2 0.1 0.1 0.3 -0.5 0.1 0.5 -0.000670757 -0.299776 -0.299776 0.000894942 -0.5 0.399999 -0.300001 -0.494642 0.00484016 -0.0952479 0.299309 0.199309 -0.299805 0.50031 0.400312 0.398539 0.0985388 -0.501461 0.5 -0.4 0.3 0.5 -0.5 -0.0159344 
-0.2 -0.5 0.2 0.5 0 0 0 0 -0.3 -0.3 -0.2 -0.3 0.1 -0.3 0.4 -0.2 0.2 -0.2 0.5 0 -0.3 0.1 -0.2 -0.2 -0.4 0.2 -0.5 0.5 -0.1 0.3 -0.3 -0.5 -0.5 0.4 0.1 0.2 0 0 0.100008 -0.299992 -0.5 0.196639 0.39652 -0.303537 -0.500057 -0.40011 1.11729e-07 -0.401887 -0.500804 0.199196 -0.398916 0.2 0.3 0.4 0.1 -0.4 0.3 0.3 0 0.2 -0.1 0 0.4 0.499957 -0.200043 -4.43676e-05 0.298641 -0.00112523 -0.101091 0.492512 0.491209 -0.514087 -0.409618 0.190053 0.192867 -0.107098 0.292727 -0.40541 -0.503209 -0.101044 -0.299999 -0.3 0 -0.3 -0.3 -0.5 -0.4 0 0.4 0.2 -0.500151 0.0996358 -0.100851 -0.201186 -0.0152621 -0.024155 -0.118068 0.168024 -0.530124 -0.429835 -0.408922 -0.403473 -0.414458 0.272474 0.177855 0.482555 0.189719 0.0984342 -0.499714 -0.2 0.3 -0.1 0.5 -0.3 0.1 -0.3 0.0044997 -0.000963853 0.0983499 0.300259 -0.0151137 -0.0258228 0.0744756 -0.341555 0.170757 0.192099 -0.112505 0.0667901 0.079176 -0.0329523 0.287873 -0.00718035 0.109412 0.010197 -0.180942 -0.0839853 0.401927 -0.192783 -0.2 0.3 0.2 0.2 -0.4 -0.494781 0.00638837 -0.39338 -0.491165 0.498492 -0.0139466 0.392377 -0.112853 -0.131149 -0.00454156 0.403376 -0.0181828 0.146983 -0.0482735 0.420536 0.308452 0.475739 0.469229 -0.515061 -0.101722 -0.194737 0.290119 0.0977639 0.49438 0.2 -0.2 0.3 0.4 0.0123432 0.00653718 0.028289 0.131547 0.211307 -0.469368 -0.20716 -0.399769 0.0839028 -0.188589 -0.00671044 -0.215522 0.218596 -0.401489 -0.50531 -0.042221 0.0908175 0.113393 0.405052 -0.0107905 -0.0271887 -0.403594 0.206247 0.197474 -0.398883 0.3 0.101912 0.198233 -0.289289 0.421869 0.135489 0.232356 -0.275117 0.350381 -0.274049 -0.0122727 -0.201702 0.0867658 -0.391557 -0.183155 0.508497 0.256351 0.236908 0.504144 -0.252478 -0.297823 0.281708 0.476216 0.201661 0.0060606 -0.0842662 -0.000792335 0.00111743 -0.1 0.2 -0.101767 -0.0762931 -0.0607627 0.0325151 0.0360953 -0.47087 0.502051 0.187234 -0.497015 0.460555 -0.152165 -0.293926 -0.109796 -0.335576 0.581354 0.384686 0.382714 -0.117716 0.0193713 0.201693 -0.285537 -0.0882222 0.546476 -0.462143 0.307055 -0.1 -4.29408e-09 0.0949938 -0.303406 -0.0877317 -0.492531 0.0971624 0.116304 -0.390666 0.297149 0.247312 0.42122 0.17728 0.237651 0.463404 0.304585 0.297288 -0.238096 -0.102695 0.036383 -0.49522 -0.0283753 -0.507818 -0.192577 -0.474006 0.130237 0.0304162 0.408784 0 -0.4 -0.505006 -0.401639 -0.299672 -0.00893988 -0.312463 0.480948 -0.306586 -0.414944 0.33218 -0.00167214 0.0474592 0.317834 -0.0225613 0.0562447 -0.12487 0.434194 0.383109 0.276241 -0.158568 -0.0546556 -0.0679188 -0.0189306 0.213224 0.218378 0.0037445 0.306043 -0.4 -0.4 -0.2 0.200214 -0.513539 0.0756806 -0.527522 0.398612 0.402971 0.274781 -0.27724 -0.606004 0.181663 -0.36575 0.123653 0.401522 0.469609 -0.11432 0.0239388 -0.186307 0.407151 0.384916 0.415567 -0.335531 -0.179061 0.411794 0.398035 0.000530165 -0.1 0.1 5.39981e-08 1.17088e-05 0.283029 -0.322477 -0.00307476 0.1115 0.506926 -0.00712605 0.143729 -0.19507 0.313897 0.350325 0.50496 -0.117768 0.467955 -0.176427 -0.203659 -0.0951827 -0.371976 -0.489584 -0.402506 -0.516842 0.214271 0.20558 -0.506834 0.50053 -0.2 0.3 -0.5 0.000917152 0.188762 -0.524045 -0.200603 -0.193277 0.031238 0.0876133 0.39675 0.37306 0.378187 -0.34415 0.118294 -0.29808 -0.322373 -0.0846661 0.243765 0.104032 0.0259131 -0.551698 0.24142 0.276229 -0.212074 0.292853 0.284624 0.50053 -0.3 0.5 0.1 -0.299988 0.195332 -0.419244 0.415441 0.39592 -0.184645 -0.264555 -0.496158 -0.224833 0.0462027 0.374305 0.197231 -0.248866 -0.266929 -0.617644 -0.152731 0.314133 0.0484439 -0.00242905 -0.520522 0.281245 -0.0118138 0.190192 -0.114864 0.299944 0 0.3 0.5 -0.5 -0.304687 0.089674 -0.389306 -0.39372 0.527452 0.119385 0.496499 0.0580923 -0.184303 -0.0389725 0.361315 0.227231 0.144448 -0.433311 -0.522513 0.0520148 -0.523613 0.270528 -0.499683 -0.490678 0.306531 -0.484806 0.295735 0.301889 0 0.5 0 0.400214 0.300405 -0.102469 0.231496 0.1456 0.0518496 0.253528 -0.343246 -0.0820391 -0.213138 -0.620261 0.20419 -0.178633 -0.584831 0.18687 -0.0958206 0.252504 0.472406 0.381029 -0.277631 0.0209836 0.00706583 -0.0788352 -0.101537 -0.00035216 0.2 0.2 -0.5 -0.50204 0.494591 0.502876 0.0253596 0.251519 0.0445759 0.47506 -0.172532 0.362027 -0.685487 0.128448 0.207192 -0.323085 -0.562846 -0.0889321 0.359867 -0.00949231 -0.382289 -0.0404576 0.123736 -0.173873 0.518169 0.110386 -0.406505 0.399399 -0.2 -0.5 -0.1 -0.00115041 0.0944186 -0.292153 -0.169852 -0.0426335 0.151921 0.306187 0.109663 -0.522498 -0.660586 0.270924 -0.326007 -0.491818 -0.27769 -0.450149 -0.0209253 -0.19226 0.23879 -0.456543 0.0398793 0.332061 -0.294139 0.408873 -0.504618 0.399399 0.000273302 0 -0.4 -0.401676 0.194039 0.415114 -0.470105 0.131938 -0.0248475 0.429464 -0.344061 -0.546492 0.439481 -0.15612 0.240162 -0.537895 -0.0184186 0.486107 0.0592382 -0.27268 -0.261877 -0.381464 -0.260072 0.0354668 0.402706 0.310957 -0.103721 0.3 0.100273 0.1 -0.1 0.0994741 0.398167 0.23 -0.268704 -0.081496 0.262929 -0.0520367 -0.0748041 0.122202 -0.265823 -0.21999 0.0426827 -0.0684485 -0.1144 -0.0148177 -0.0198957 0.00741559 0.0998399 -0.1953 0.451505 -0.189027 -0.403677 0.391982 -0.205289 0.20053 0.1 0 0.1 -0.303381 -0.00174415 -0.273241 0.0194586 -0.242853 -0.336155 -0.267876 -0.377378 0.219738 0.168801 0.346722 0.144218 -0.0697314 -0.0858459 -0.392475 0.409899 -0.314002 0.114179 0.325227 -0.0437886 0.135556 0.307346 0.49686 -0.4005 -0.499493 0.5 -0.2 0 -0.101022 0.00148874 -0.0780437 0.340444 0.435163 0.42035 -0.266916 0.51923 0.179145 0.276677 -0.52704 -0.0316727 -0.396797 -0.399597 0.324169 0.488031 -0.107588 -0.189633 -0.47045 -0.456115 0.115267 0.296209 -0.200444 -0.29947 0.10053 0.3 -0.2 -0.2 -0.00285489 0.199723 0.517995 0.12991 0.330553 -0.0830865 -0.463801 -0.483979 0.314599 0.281274 -0.318524 -0.509602 -0.0512795 0.0477616 -0.261281 0.0919208 -0.369994 0.527395 -0.168363 0.221924 -0.19034 0.00191447 -0.201448 -0.5 -0.2 0 0 -0.4 -0.5 0.506228 0.412821 0.417267 0.0164249 -0.208853 0.17884 -0.00944138 0.389307 0.310346 -0.0025025 0.234432 0.314198 0.117151 -0.38317 0.254169 -0.214401 0.413805 -0.390547 0.0032264 -0.289346 0.303397 -0.100422 -0.1 -0.2 0.1 0.5 -0.4 0 -0.199882 0.299235 -0.108634 0.484623 -0.305808 -0.489842 0.0227667 -0.503491 0.00515996 0.295899 0.075929 -0.00910039 -0.515716 -0.215821 -0.417905 0.113121 0.41947 0.326793 0.00520246 0.103269 -0.300615 -0.000582797 0 0.2 0.2 0 0.5 -0.5 0.194894 -0.407107 -0.00349887 -0.211481 0.493325 -0.208893 0.292058 0.297663 -0.306478 0.493245 -0.0101776 -0.104012 0.386014 0.389911 -0.50785 -0.202706 -0.0956919 0.207972 -0.0920279 0.503834 0 0 -0.2 0.4 0 -0.4 0.2 -0.4 -0.3 0 0.399994 -0.00181214 -0.00181233 -0.00180622 -0.4 0.398949 0.398949 0.398678 0.198539 0.298786 0.397527 -0.202473 0.196984 -0.502469 0.399879 0.00383374 0.00383374 0.00383374 0 0 -0.2 0.1 0.1 -0.183806 
-0.2 0 0.2 0.4 -0.3 0.3 0 0 0.2 0.5 0.4 0.1 0 -0.3 0 0.5 0.1 0 0.1 -0.5 -0.5 0.4 -0.3 0.1 -0.2 -0.2 -0.3 0 -0.2 -0.5 -0.5 0.1 -0.3 0.5 0.3 0.1 0 0.3 -0.00719351 0.0928065 -0.3 -0.00139506 -0.00167382 0.397463 -0.500863 -0.200796 -0.100001 -0.000312529 0.0994929 -0.000507086 0.0998054 0.2 -0.2 0 0.2 -0.1 0 -0.2 -0.5 0.2 -0.3 0.4 0.5 0.399282 -0.100718 0.296261 0.187946 0.497203 0.521424 -0.291985 -0.48753 0.293911 -0.402251 -0.00599025 -0.315189 0.379562 0.383227 0.197855 0.398328 0.299024 6.15238e-06 0.5 0 0.5 0.2 0.3 -0.5 0.4 -0.3 -0.4 0.300269 -0.00737006 0.290957 0.380489 0.168972 -0.531402 -0.495303 -0.413431 0.451779 -0.250133 -0.223113 -0.0173771 -0.0224582 -0.223176 -0.00724658 0.195332 -0.50057 0.305425 -0.0999818 -0.1 -0.4 0.4 0.5 0 -0.4 0 0.105876 -0.493091 -0.197986 -0.095665 0.299334 -0.523187 -0.303023 -0.212161 0.243041 -0.381368 -0.288018 0.325578 -0.318984 -0.219344 -0.335315 0.460216 0.469558 0.170513 -0.32065 -0.101342 0.394638 -0.499256 -0.2 -0.2 0 0.1 0.4 0.500211 -0.494756 0.0116729 0.511056 -0.286384 -0.0936328 -0.172537 0.421948 0.121593 0.345844 0.564178 -0.136147 -0.485197 0.293474 -0.237218 0.0670758 -0.111816 -0.171581 0.15545 0.123301 0.519233 -0.0860853 -0.282852 -0.300121 0.5 0.5 -0.5 -0.2 -0.0995624 0.211475 0.00874801 -0.468782 -0.15653 0.32691 0.0457908 -0.35602 -0.145719 0.244951 -0.0520614 0.0222876 -0.0429788 -0.484891 0.144911 0.092189 -0.366139 -0.484803 0.471797 -0.316292 -0.0407194 -0.0689705 -0.176284 -0.188922 0.302775 0.2 -0.400497 0.199998 -0.10157 0.305862 -0.176703 0.453574 -0.429408 0.323266 -0.450254 -0.167318 0.544309 -0.274582 -0.283007 -0.46262 0.415081 0.427145 0.336092 -0.115514 -0.454308 0.252461 0.456995 0.15696 0.00427423 0.00243397 -0.210386 -0.297429 -0.397225 4.78293e-09 -0.3 0.399998 0.00571012 -0.487407 0.538263 0.156366 0.0576802 -0.368095 0.0300397 -0.50138 0.398283 -0.35474 0.369958 -0.364421 -0.266554 -0.222955 -0.444437 0.440164 0.227893 -0.0348625 -0.446528 0.120576 -0.207377 0.467695 0.0730735 -0.0112531 -0.2 0.1 -0.000406257 0.101211 0.00599364 0.311955 0.260096 0.0393542 0.343895 -0.0912147 -0.199766 -0.409636 0.521484 0.421752 0.18545 0.163275 0.0470844 -0.0726984 -0.116818 0.363136 0.455385 0.503144 0.0320505 0.110504 0.387055 -0.337386 0.173224 -0.0055088 -0.5 0.3 0.399594 -0.198787 -0.0880313 -0.181456 -0.172882 -0.0914469 0.428172 -0.278674 0.0848508 -0.435158 -0.403244 -0.117673 0.0399909 -0.542819 0.165884 0.0843045 0.124713 -0.212297 -0.0584011 0.462163 0.3269 -0.290713 -0.0156385 0.178826 -0.301855 0.296777 0 0.5 -0.2 0.501255 -0.482646 0.322839 -0.492005 -0.0273498 -0.274604 0.393103 0.455812 -0.0669953 -0.368801 0.33504 -0.0850583 -0.427242 0.273055 0.433978 0.141325 0.0394108 -0.381609 0.0759484 0.257605 0.0830364 -0.214341 -0.327769 -0.203852 -0.400561 0.3 -0.5 1.9823e-08 -0.399982 0.510923 0.417721 0.298266 0.28801 0.0958674 0.157897 -0.0818486 -0.0784643 -0.572918 -0.0996096 -0.55183 -0.536865 0.461421 0.100969 0.0908824 -0.354229 -0.394712 -0.247189 0.519366 -0.00985039 0.0641351 0.472154 -0.111531 -0.000560871 0.1 0 0.2 -0.202559 0.204921 -0.378679 0.0123556 -0.481282 -0.306299 -0.335769 0.0776887 -0.412303 -0.620446 -0.0890936 0.326536 -0.283388 -0.336962 -0.0305721 0.474373 0.10281 0.281772 0.0309213 0.224038 0.289455 -0.115747 0.288705 -0.493597 -0.000560871 0.5 0.3 -0.5 1.82339e-05 -0.100704 -0.0861239 0.0307978 -0.36144 0.0176962 0.258978 -0.117818 -0.591463 -0.602376 0.402652 -0.465135 0.157099 0.376671 0.524217 0.0572058 -0.143771 -0.0916895 -0.230043 0.112303 -0.311562 -0.131832 -0.30506 0.00945787 0.102224 0 0.4 -0.2 0.5 -0.00160011 0.0110845 -0.467421 0.0399218 -0.239542 -0.1826 0.155797 -0.518062 0.411264 0.4917 0.0997025 -0.237769 -0.0125495 0.0560754 0.462058 0.386114 0.0857344 -0.375802 0.305781 0.488926 -0.0203339 -0.307806 0.495266 -0.3977 -0.5 0.4 0 0.301255 -0.402518 -0.288033 -0.454306 -0.356735 0.251904 0.387646 0.412665 -0.0284923 0.419304 0.443574 0.446433 0.088805 -0.0829508 -0.0237738 0.397652 0.166587 0.357721 -0.267313 -0.401533 -0.0645837 0.112798 0.000157869 -0.00167278 0.000861234 -0.4 -0.1 -0.2 -0.000370375 0.00607972 -0.181061 0.161583 0.215835 -0.0840248 -0.397565 -0.438704 -0.458305 0.0593694 0.083115 0.595929 0.533878 0.0232657 -0.189822 0.0499376 0.00179159 -0.283534 -0.0828197 0.283808 -0.45046 0.0449378 -0.46881 0.200977 0.499868 0.2 -0.3 0.4 -0.500274 0.0207331 0.149782 -0.153788 0.00306656 -0.144727 -0.591978 -0.0535014 -0.00339137 0.189595 0.0755243 -0.382564 -0.41589 0.271735 0.40395 0.248881 -0.247917 0.17891 -0.308461 0.131313 -0.0792518 0.035809 0.418096 0.106812 0.399868 0.500146 0.1 -0.1 0.49853 -0.0770701 0.0654008 0.250121 0.412887 0.238473 -0.479379 -0.0626829 -0.558801 -0.0132317 0.267178 -0.353174 0.356917 0.241436 0.495927 -0.337114 0.205319 0.230755 -0.397499 -0.298682 0.00106696 0.0147946 0.30692 -0.399915 -0.3 0.300146 0.3 -0.4 -0.102594 -0.275288 0.261761 0.240608 -0.183655 -0.0494871 -0.19116 -0.259889 -0.221643 0.113055 -0.11785 -0.385732 -0.110405 -0.258966 -0.101043 -0.249575 -0.0752081 -0.34948 -0.19962 -0.201525 0.0937106 -0.29002 0.418173 -0.100862 -0.000560871 0.2 -0.4 0.4 -0.00258685 -0.377287 -0.0453733 0.326959 -0.359778 0.156388 0.121765 -0.236693 0.0302882 0.0964692 0.209626 0.277428 -0.0357705 -0.0993587 0.489401 -0.403692 -0.316937 0.382662 0.0812889 0.0938748 -0.408595 0.309563 0.118624 -0.501572 -0.300557 0.5 -0.4 0 -0.499765 -0.292526 -0.485245 0.0355475 0.214467 -0.424751 -0.343496 -0.0228367 -0.081085 -0.405412 -0.0447056 -0.140217 -0.0499883 -0.0804286 0.109811 -0.468589 -0.11264 -0.220877 0.203291 -0.0108896 0.502557 0.508863 0.503054 -0.400561 -0.400561 0.1 -0.1 -0.5 -0.199993 0.402585 -0.485816 0.0119907 0.390147 -0.0177196 -0.515984 0.308512 0.0143896 -0.470405 0.415994 -0.0812956 -0.0838743 0.495347 0.375696 -0.0998873 -0.0923705 0.515235 0.0895374 -0.502698 0.00852515 -0.489321 -0.197681 0.5 0.3 0 0.3 -0.3 0.2 -0.298858 -0.197712 -0.492832 -0.302263 0.329653 0.123693 0.0189056 -0.358024 -0.366284 0.232334 0.450394 -0.355574 -0.0431444 0.458059 0.248479 0.10993 -0.00765886 -0.40445 -0.00564336 -0.312373 0.193483 0.394928 0.4 0.2 0.4 0.2 -0.1 0 -0.0985001 0.103374 -0.0942039 -0.279537 -0.38822 0.00340889 -0.282351 -0.0873856 -0.295226 -0.476727 0.0230734 0.0140104 0.0927057 0.502103 -0.110996 -0.0274223 -0.0256254 -0.222682 -0.404092 -0.408554 -0.207492 0.394127 -0.3 -0.2 0.2 0.4 0.5 0.5 -0.403456 0.396138 0.0018886 0.413863 0.509232 0.10631 0.107385 -0.0958447 0.100115 -0.0943471 0.198339 0.201334 0.186489 0.483367 -0.217898 0.190362 -0.00479223 0.29848 0.19848 2.34074e-06 0.4 -0.2 -0.4 -0.1 0 -0.3 0.5 0.2 -0.2 -0.4 -0.491608 0.0175766 0.517577 -0.190815 1.61947e-07 -0.199902 9.7782e-05 0.400209 -0.0997284 -0.399565 -0.397492 0.502508 -0.201746 -0.00396847 0.0959627 -0.299998 0.400002 -0.399998 -0.2 -0.3 -0.4 -0.5 0.3 -0.233848 
0.5 0.3 0 0.5 0.2 0 -0.2 0.1 0.3 0 0.1 -0.1 -0.5 0.3 0.2 -0.1 -0.1 0.2 -0.5 -0.1 -0.5 -0.2 -0.1 -0.2 -0.5 0.3 0.3 0.5 0.2 -0.5 0 0.3 -0.2 0.4 -0.5 -0.4 0.2 0 0.00302684 0.103027 -0.2 -1.54111e-05 -0.000925154 -0.000966104 0.399959 -0.300044 0.499951 0.299806 -0.400237 -0.500237 0.399956 -0.2 0 0.3 0.2 0.5 0 -0.2 0.1 0.4 -0.1 -0.4 0.2 -0.301212 0.098788 0.392775 -0.405242 -0.401586 0.294054 -0.209943 0.495349 -0.205602 -0.310718 0.0888765 0.190727 0.0873039 -0.110033 -0.502066 -0.503265 -1.94012e-05 0.299983 0.3 -0.5 0.1 -0.3 -0.1 -0.1 -0.4 0 0.4 -3.12006e-06 -0.00154167 -0.301566 -0.108482 0.196602 -0.00629277 0.280724 -0.528952 -0.328583 -0.0355378 -0.22898 -0.0301667 -0.042899 0.240873 -0.0426964 -0.519531 0.498865 -0.407729 0.199986 -0.4 -0.2 0.3 -0.5 0.2 -0.1 0 0.10104 0.293739 -0.00670802 -0.00347105 -0.403425 -0.306103 -0.00459063 -0.538968 -0.455697 -0.0780249 0.0289589 -0.244475 -0.140889 -0.0544636 -0.165266 0.0694257 0.17398 0.364149 0.0862054 -0.109876 -0.00435167 -0.10516 -0.4 -0.2 -0.4 0.5 0.3 -0.0931419 0.00304728 -0.304037 -0.303822 0.0874864 -0.112591 0.488553 0.515125 0.0082692 -0.422868 0.391473 0.109959 0.126172 0.0765333 -0.447498 -0.368647 0.419587 0.0925025 -0.114584 0.236388 -0.0567023 -0.479998 -0.0909443 0.00238324 0.1 0 0.2 -0.4 0.202877 -0.11024 0.194126 -0.225166 -0.021651 0.376772 -0.21643 0.195432 0.288589 -0.369573 -0.0139813 -0.510914 -0.374084 0.0360931 -0.331302 -0.460889 0.442998 0.216093 -0.383471 0.549234 0.271669 -0.267992 -0.491497 0.105903 0.301858 0.5 -0.101531 0.00113146 0.00881262 -0.112208 -0.210757 -0.496903 -0.488309 -0.0195458 -0.00195951 -0.290236 0.439196 -0.598676 0.11372 0.0548359 0.237039 0.427275 -0.168192 -0.089498 -0.161855 -0.31312 -0.152521 0.219749 -0.140368 0.533216 0.303288 0.203385 0.501858 0.3 6.9075e-08 0.301131 0.00465455 0.198798 -0.385442 0.101673 0.336349 0.0978062 -0.179732 -0.227957 0.0662229 -0.531663 -0.377308 -0.664359 -0.181085 0.394469 -0.00702609 -0.381495 0.291459 0.0158548 -0.0491231 -0.37207 0.17214 -0.067987 -0.101622 0.00187199 0.3 0.5 -0.498418 -0.398526 0.107412 0.0221552 0.515775 0.00515443 -0.493958 0.257923 0.13237 0.431969 0.185743 -0.463101 -0.220762 0.00183641 -0.0703213 -0.0381759 0.0388787 -0.154732 0.00730608 0.0879235 -0.272467 0.0320004 0.249699 -0.0751749 0.497716 -0.400034 -0.1 0 0.401582 0.200343 -0.288825 -0.0737644 -0.00844773 -0.000684858 0.426454 0.455176 0.0945115 0.57374 0.34194 0.441336 -0.175745 0.0124811 -0.464867 0.0122706 0.168764 -0.43764 0.371931 0.247458 0.312756 -0.0838969 -0.0655534 -0.186839 -0.487721 0.198423 -0.4 0 0.3 0.0990999 -0.487639 0.128845 0.303025 -0.00115684 0.0412975 -0.300193 -0.36162 -0.387166 0.0568346 0.0488308 -0.00778361 0.280409 0.0538959 0.510469 0.185837 0.164565 -0.0547342 0.248499 0.178246 -0.274321 0.306197 -0.102498 0.210054 0.400612 0 0.2 -0.2 0.499971 -0.486758 0.322892 0.222445 0.413606 0.0400364 -0.331977 0.388561 0.0816826 0.604458 -0.299524 0.476418 0.0402456 0.540496 0.400046 -0.408587 -0.118003 0.45077 -0.212407 -0.143698 0.528598 -0.00506486 0.493727 -0.198839 -0.499388 -0.3 -0.5 -0.3 0.10033 0.410185 0.0245149 -0.482603 0.318917 -0.0129052 -0.0500363 0.0602285 -0.269452 0.142514 0.175824 -0.347413 -0.00715911 -0.106369 0.491513 0.2461 -0.273713 0.264728 0.00811225 -0.348797 -0.0904351 -0.304532 -0.504654 -0.197271 0.100612 -0.2 0.2 0.4 0.499971 -0.391284 -0.284623 0.0461069 0.296762 0.0791845 -0.293679 -0.216377 0.372136 -0.482201 -0.411621 -0.271417 -0.00197288 0.303435 0.421006 -0.112052 -0.0114673 -0.142204 0.389474 0.179883 -0.383322 -0.00901088 -0.512659 0.102435 0.00192368 -0.3 0.4 0 -0.2 -0.296871 -0.0973898 0.498087 -0.390208 0.131807 0.183943 0.445086 0.351836 -0.0925133 -0.275384 -0.00166481 0.0164668 0.0392009 -0.000830974 0.440038 0.446262 -0.518029 0.396667 0.368634 -0.509463 -0.101363 -0.507156 0.205466 -0.0982832 -0.2 -0.2 0 0.1991 0.284084 0.183664 0.0586418 0.315295 0.0395996 -0.477396 0.224626 0.0354538 0.126878 -0.171209 -0.0432487 0.544589 -0.0827317 -0.20054 0.0499817 -0.437768 -0.17558 0.219442 -0.0553207 -0.33045 -0.000664052 0.0825823 0.399201 -0.400218 -0.1 -0.1 0.1 0.0975952 0.272296 0.46736 -0.366855 -0.430575 0.236631 0.135872 0.310425 0.159105 -0.366218 -0.0832834 0.201679 0.521414 -0.470853 0.14537 0.206668 -0.444137 0.247594 -0.13834 0.45352 0.336667 -0.428534 -0.529964 -0.10166 -0.200182 -0.2 -0.1 0.1 -0.0047937 0.460965 -0.454716 0.0986317 -0.0500635 -0.416928 -0.46876 -0.277514 0.0650497 -0.0611037 0.035975 -0.372345 0.0522752 0.224586 0.286595 -0.469411 -0.248183 -0.0471446 0.137128 -0.536403 -0.0609456 -0.0313573 0.183445 -0.00362303 0.099818 -0.499368 0 0.4 -0.00415531 0.460161 -0.191452 0.0755209 -0.500489 -0.478717 -0.245994 -0.0971396 0.210108 -0.397357 0.0754869 0.222048 0.217951 -0.503565 0.0635547 -0.545053 0.0963849 0.272112 -0.431631 0.187442 -0.543721 0.374074 -0.520721 -0.100083 -0.3 0.300632 0.2 -0.2 0.294824 -0.339682 0.399104 -0.112195 0.181197 -0.0106207 -0.059148 0.407788 -0.00506561 0.396188 0.377243 -0.47495 -0.28783 -0.115957 0.382697 -0.0366919 -0.38872 -0.426544 -0.404604 -0.00563843 -0.0142317 -0.0254224 0.0821631 -0.299752 0.500612 0 -0.5 -0.2 0.394006 -0.0297184 -0.491455 -0.301624 -0.293167 0.102249 0.048226 0.472905 -0.0253924 0.397967 -0.287352 -0.0886359 0.0765112 -0.456891 0.287059 0.0459224 -0.0126953 -0.198299 0.404768 -0.506103 0.0754391 0.276158 -0.0174716 -0.00598865 0.400762 0 -0.3 0 0.495897 0.187283 -0.0547406 -0.170329 0.323959 0.222632 0.248861 0.394851 0.00311817 -0.212324 -0.135276 -0.423451 0.107897 -0.413237 0.354253 0.15028 0.412807 0.0313695 0.00455699 -0.117018 0.478205 0.171681 0.187577 -0.299388 0.000612021 0.2 0.1 -0.5 0.299182 -0.210548 0.27023 -0.23167 -0.325843 0.279148 -0.26762 0.0718451 -0.32443 0.233116 -0.00909599 0.313967 0.0568592 0.0535329 -0.470551 -0.45126 0.425364 0.460093 -0.305605 -0.0178747 0.365572 0.17097 0.390535 0.3 -0.2 0 0.5 0.4 0 0.0912459 -0.218151 -0.021321 -0.0183663 -0.0287228 0.0982558 0.427549 0.0693618 0.406492 0.106711 0.478459 -0.0417686 0.563253 0.0559491 -0.446518 0.551985 0.28824 -0.330018 -0.0382429 -0.429725 0.0795244 -0.20616 0 -0.2 0.4 -0.2 0.2 -0.2 -0.101486 0.197932 -0.00494309 -0.307399 -0.11367 0.489951 -0.41881 -0.316151 -0.430507 -0.534716 0.370641 -0.0537266 0.0526812 -0.243902 -0.23815 0.140208 0.166159 0.0700005 0.282245 0.180687 0.487222 -0.106925 0 0.4 0 0.4 0.4 -0.1 -0.404634 -0.00658293 0.390426 -0.00552001 0.388997 -0.502991 0.00230163 -0.199526 0.00103767 -0.418632 -0.00476304 -0.00903616 -0.0211379 0.18795 0.0865867 -0.517002 -0.311043 -0.00346798 -0.503468 0.0986607 0 0.1 0.5 -0.1 0 -0.1 0.5 -0.2 0.4 0 0.000636495 0.509348 -0.0906517 -0.391288 -0.5 0.000426876 -0.399573 -0.100731 0.197671 0.100341 -0.296007 -0.496007 -0.00423394 0.0938023 0.0912185 -0.00133929 -0.301339 -0.501339 -0.4 -0.2 -0.3 0.5 0.2 0.0574712 
0.3 -0.5 0.4 -0.1 -0.1 0.1 0 -0.3 -0.2 0.4 0 0 -0.1 -0.3 -0.5 -0.1 0.5 -0.3 -0.4 0.2 -0.5 0.3 -0.5 0.4 0.3 0 -0.1 0.4 0.1 0.5 -0.1 -0.3 0.4 0.4 0.3 0.3 0.4 0.3 0.401621 0.00162071 -0.2 0.000229334 0.49992 -0.199972 0.300108 0.500088 0.500105 -0.100049 -0.499981 -0.0999808 0.100068 0 0.2 -0.4 0.1 0.4 -0.2 0.3 -0.3 0.4 0 -0.1 -0.2 0.199065 0.499065 -0.000890225 0.499904 -0.403249 -0.00771418 0.29244 -0.208249 -0.30182 -0.203231 -0.00207561 -0.40754 0.398852 0.397916 -0.50284 0.497371 -0.00121805 0.200008 0 -0.4 -0.4 0.3 0 0.5 -0.5 -0.1 -0.5 -4.24295e-06 0.0112049 0.4092 0.210998 -0.48944 -0.31252 -0.0176665 -0.53641 0.351359 0.129893 0.342408 0.337995 -0.168238 -0.344001 -0.0341327 0.0887092 0.484252 -0.203689 -0.499984 -0.2 0 -0.1 0 0.2 -0.2 0.5 0.100007 -0.192892 0.202035 -0.482663 0.319736 0.137821 0.447079 -0.309022 0.0043436 -0.2258 0.368361 -0.212436 0.189874 0.0887889 0.246506 0.238403 0.42242 -0.0644864 -0.259021 0.170099 -0.201183 -0.500209 0.2 0 -0.1 0.5 -0.4 0.4983 0.20848 -0.379217 -0.0695962 -0.0680093 -0.345317 0.429657 0.388861 0.304497 0.505844 0.323364 0.0241659 -0.310338 -0.316027 0.118904 -0.0524717 0.441673 -0.335344 -0.0388094 0.06727 0.0856479 0.201533 0.397112 0.400696 0.4 0 -0.2 -0.2 0.0183928 0.317875 -0.256404 0.132497 -0.0305059 0.342621 -0.406901 0.105037 0.164881 -0.369824 -0.259348 0.146239 0.219505 -0.100425 0.0260992 0.0631894 -0.440504 -0.239425 -0.27673 0.0169506 0.288722 -0.128725 -0.417352 -0.0937124 0.203793 -0.1 0.000855458 0.391054 0.221857 -0.0579809 0.562838 0.318785 -0.488654 -0.0727101 0.404461 -0.0292859 -0.0983668 0.338408 -0.467663 0.564014 -0.14057 -0.51173 0.105412 -0.217034 -0.297882 0.0175024 0.228311 -0.183943 -0.491154 -0.0386393 -0.227466 0.499788 -0.396207 0.2 -0.4 0.491054 0.127241 0.445024 0.0126599 -0.41547 -0.0863997 0.0255289 0.491606 -0.184499 0.436084 0.263423 -0.215488 -0.15402 -0.465736 -0.152702 -0.255873 -0.02614 0.169813 0.236444 0.117927 0.328895 0.426925 0.171109 0.376984 -0.0091738 0.2 0.1 -0.50246 0.388555 0.103003 0.0116262 0.202789 0.401975 -0.0630773 0.35345 0.0381112 -0.245931 -0.126691 0.0831439 -0.487724 0.0697034 0.0848983 -0.124769 0.587933 0.250268 0.314075 0.0622595 -0.14466 0.166089 -0.283153 -0.319423 0.190059 -0.105598 -0.5 -0.5 0.49754 -0.402499 -0.39472 0.304224 0.292102 -0.0335874 0.330605 -0.382233 -0.311124 0.167191 -0.0179698 -0.253523 0.0424931 0.173913 -0.221727 -0.0767465 0.140076 0.597411 -0.172839 -0.0611873 -0.0709206 -0.459146 0.00672882 0.190347 0.392951 0.196544 -0.5 -0.4 -0.1 -0.29967 -0.00584058 -0.406515 -0.131211 -0.263846 -0.474344 -0.146245 -0.0545333 0.0474353 -0.539416 -0.317406 -0.320772 -0.171327 -0.0439681 0.054925 0.111675 0.569099 -0.477529 -0.353501 0.337605 0.484383 -0.0817019 0.484682 -0.500199 9.00516e-07 0.5 -0.1 -0.5 0.0997179 -0.00434704 0.296473 0.178914 0.225793 -0.268945 -0.503869 -0.122138 0.300001 0.233696 -0.254265 0.559853 0.384235 -0.0473466 0.113024 -0.120296 -0.122404 0.490323 -0.430413 -0.448472 0.00535963 0.302523 -0.308385 -0.211156 -0.299999 -0.1 -0.5 0.4 -0.100468 0.203632 0.501762 0.492867 -0.245221 -0.345791 -0.412899 -0.154837 -0.534882 0.147989 0.539584 0.609486 -0.405043 0.498203 0.375539 0.327929 0.0180904 0.369867 -0.278479 0.44879 -0.106021 0.418172 -0.10655 -0.206592 0.100001 -0.4 -0.3 0 -0.400282 0.10396 -0.0953722 -0.306251 -0.146335 0.24436 -0.455834 -0.0777652 -0.101214 0.118194 -0.52328 -0.277439 -0.335791 -0.295215 -0.370557 0.381436 0.14919 0.0192064 -0.129969 -0.112723 0.544004 0.306996 -0.19721 0.393629 0.199862 0.5 0.1 0.1 -0.3 -0.501329 -0.301278 -0.0120207 -0.160988 -0.521861 0.102105 -0.073667 -0.285475 -0.0756974 0.172748 0.437149 0.351019 0.102528 0.27824 -0.248184 0.314483 -0.388203 -0.247199 -0.469435 0.303458 0.201815 -0.203941 -0.50724 0.298642 0 -0.2 0.3 -0.49967 0.0962354 0.128154 -0.385487 0.37274 -0.327347 -0.383444 0.0130112 0.0893507 -0.545942 0.378596 -0.00224944 -0.41459 0.452226 -0.0732082 0.190261 -0.128618 0.0239081 -0.237481 -0.26692 0.310637 -0.321047 0.0960797 -0.00634925 -0.000284102 0 0.4 -0.2 0.302917 0.403793 0.438405 -0.290481 0.235493 -0.425235 -0.207303 -0.0621898 -0.0118705 -0.354804 0.363607 -0.412026 0.112783 0.343118 -0.378733 0.000698574 -0.637033 -0.134337 -0.386402 0.395513 -0.104831 0.0691863 0.475385 -0.111993 -0.000712625 0 0 0 0.00426407 -0.386662 0.324822 -0.114607 0.138881 -0.0445907 0.330844 0.125973 -0.0485639 -0.235761 -0.471191 -0.298115 0.402901 -0.130745 -0.361138 -0.121826 0.0707221 -0.0103342 0.0339142 -0.386746 -0.121093 0.478013 -0.433114 -0.312423 0.199287 -0.200212 0.5 -0.1 -0.498654 0.0105575 0.535194 -0.21121 0.163198 -0.0453074 0.408639 0.0345216 0.463033 -0.325687 -0.0681893 -0.394117 -0.0718133 0.53201 0.0706731 -0.0507671 -0.103634 0.458487 0.141147 -0.0341962 0.00108757 0.0690759 -0.0179417 -0.207056 -0.2 0.299788 0.1 -0.1 0.501032 -0.392179 0.536733 0.292302 -0.0305511 0.1305 -0.385372 -0.0105488 -0.0556997 -0.620208 0.10535 -0.205009 0.340365 -0.0751683 0.193993 0.204421 -0.563634 -0.327285 -0.500194 0.0678468 -0.21426 -0.226825 0.495082 0.488702 -0.199999 0.1 0.3 -0.5 0.201361 0.298901 0.439354 0.27191 0.492785 -0.540356 -0.315953 -0.00781595 0.244872 -0.294366 0.429534 -0.334474 -0.0154819 0.23484 -0.219719 -0.250431 0.242676 -0.289969 -0.347988 0.0826706 0.324624 0.308492 -0.404252 0.299289 -0.101022 -0.5 0.4 0.4 0.300814 0.407951 -0.45108 0.122207 0.302482 0.263692 0.13143 -0.362863 0.313932 0.116002 0.408656 0.141424 -0.441326 -0.0353935 0.0609385 -0.423981 0.457 0.464494 -0.0399559 0.0116573 -0.293801 0.100602 0.298207 0.100001 0.400001 0 0.3 0.5 0.100329 0.239194 0.0596857 -0.464105 -0.0905784 0.465357 0.396733 0.558818 0.0943444 -0.0222424 -0.225834 0.0870913 -0.029743 0.334826 0.00646242 0.201385 -0.00293733 -0.232366 0.397561 0.00441677 -0.0870817 0.504194 -0.000625502 -0.2 -0.2 -0.2 -0.2 0.4 -0.1 -0.465981 -0.467351 -0.0585697 -0.36406 0.0341064 0.0300684 0.472173 -0.146518 -0.175085 -0.00494949 0.517352 0.020193 0.324436 -0.0115021 -0.148155 -0.43953 0.115978 -0.279799 0.507382 0.114612 0.00665045 -0.298688 0 0 -0.3 0.5 -0.1 -0.1 0.308479 -0.398444 0.306189 0.219029 0.411239 0.0280898 -0.36499 -9.68881e-05 0.393322 -0.526106 0.414829 -0.47938 -0.319274 -0.00530798 0.396821 -0.0728387 0.332121 -0.168944 0.308043 -0.388531 -0.100429 0.000165977 -0.1 0.5 -0.1 0.1 -0.3 -0.3 -0.207066 -0.309738 0.494883 0.39101 0.297911 -0.197081 -0.192945 0.00356919 -0.197542 -0.416789 -0.510528 -0.216995 -0.210634 -0.208399 -0.0047318 -0.192413 0.110823 0.511019 0.0110188 -0.199916 0 0.1 0.4 -0.3 0.4 -0.1 0.3 -0.1 -0.2 -0.4 -0.499286 -0.30122 0.49878 -0.00193402 1.67939e-08 0.498537 0.398537 0.0954127 -0.0063436 0.39318 0.195994 -0.0040057 -0.402578 -0.00211625 0.0998625 0.100084 0.300084 -0.199916 0.3 0.4 -0.2 -0.2 0.2 -0.429621 
0.3 0.4 -0.5 -0.2 -0.2 0.1 -0.1 -0.1 0.4 -0.3 -0.3 -0.3 -0.2 -0.1 0 -0.2 -0.5 -0.1 0.2 -0.3 0 0 0 -0.5 0.5 0.3 0.3 0 0.1 0 -0.5 -0.3 0.2 0.5 0.5 0.4 -0.5 0 0.00252008 0.10252 -0.2 -0.292454 0.107616 -0.189145 -0.296761 0.00291081 0.499855 -0.39996 -0.299993 -0.499993 -0.400033 0.2 -0.2 -0.1 0.1 0.1 -0.3 -0.3 -0.2 -0.4 0 0.3 0 0.300186 -0.299814 0.199631 -0.39662 -0.295385 -0.00164533 0.508139 -0.377597 0.0460588 0.451916 0.54952 0.127055 -0.193014 -0.496419 -0.497723 -0.498399 0.299555 -0.000646055 0 -0.2 -0.4 0.1 -0.5 0 0 0 -0.3 -0.400325 -0.0941843 -0.196792 0.294038 0.199881 0.517421 0.319231 -0.479106 0.148886 -0.342429 0.141705 0.0399547 0.0168136 0.201147 0.0921034 -0.498583 0.00476091 0.498076 -0.000681756 0 0 -0.3 -0.5 0.1 0.2 0 -0.201696 -0.201328 0.301355 -0.0116791 -0.107541 0.00226816 -0.218371 -0.221792 0.456666 0.0344155 -0.0555348 0.0821324 -0.198232 0.136165 -0.0249041 -0.513355 0.372821 0.175356 0.155203 0.255188 -0.015696 -0.311267 0.3 0 0 0 0.1 -0.0932527 0.103014 0.394931 0.0878835 0.166464 0.184021 -0.436908 0.445031 -0.0314544 -0.461825 0.163053 -0.173815 0.0187145 -0.0632283 0.372588 -0.488107 0.208594 0.139645 -0.0692147 0.269204 -0.0319005 -0.0293209 0.192356 -0.295044 0.5 -0.4 0.3 0.4 -0.291784 0.505492 -0.492762 0.0641702 -0.00438799 0.0907493 -0.171275 -0.201611 -0.0093209 0.419675 0.0783479 -0.492333 0.0314693 -0.448549 -0.113196 -0.397005 -0.557947 -0.518028 0.214012 -0.429919 0.260302 0.252547 -0.116331 -0.293176 -0.0992126 1.32944e-08 -5.54764e-06 -0.499356 0.0133653 0.00115369 0.318394 -0.518615 0.0294577 -0.0803184 0.23792 0.103417 0.503028 -0.0625885 -0.0276674 -0.42296 -0.315357 0.457547 -0.589751 0.137777 0.307649 0.306668 0.433368 -0.342235 0.316185 -0.0603856 -0.0511862 0.196899 0.500787 0.1 -0.5 0.200644 -0.386714 -0.39873 0.0351645 0.0346039 0.130496 0.43041 0.595612 0.118899 -0.0425695 0.167345 0.153856 0.473202 -0.451909 -0.0539435 -0.271519 0.0768692 -0.172049 -0.167927 0.4217 -0.452321 0.0601739 -0.354727 -0.0498081 -0.103056 0 0.5 0.202591 0.391563 -0.00678667 0.120095 -0.047398 0.050806 -0.236624 -0.432435 0.527891 -0.360537 -0.0424373 0.293269 -0.153559 0.214698 -0.301221 -0.00996588 -0.261228 0.0288207 -0.27948 -0.413409 -0.511633 -0.0191173 0.283218 -0.0333782 -0.519889 -0.201594 -0.3 0 -0.497409 0.190919 0.00696039 0.439554 0.0498435 0.452159 -0.00417286 0.267499 0.560505 -0.0223405 -0.273734 0.190022 -0.479148 -0.0672029 -0.201537 -0.319466 0.4876 -0.357009 0.0689853 0.0731342 0.410413 -0.0441421 -0.0669165 -0.504026 -0.206788 0.000452149 -0.1 0.2 -5.79777e-09 -0.504513 -0.482821 -0.248593 0.261535 0.256152 0.531316 -0.0526159 0.375935 -0.321376 -0.280523 0.413482 -0.355773 0.0672497 -0.493817 0.207417 0.203777 -0.085222 -0.313569 0.309366 -0.0409082 0.386025 -0.282217 0.00774591 0.186749 -0.505748 -0.2 0 -0.4 0.1997 0.0195036 -0.447658 0.458771 -0.215706 -0.0265096 -0.210361 0.617513 0.535112 0.479144 0.404164 0.214219 0.463832 -0.416216 -0.228109 0.327632 -0.280843 0.164674 -0.00214419 0.0769081 0.472168 -0.048444 0.00189244 0.00354781 0.394252 0 -0.2 -0.5 0.497512 -0.0751643 0.149578 -0.258898 -0.0172476 0.424465 -0.0188293 0.183746 -0.0474623 0.505531 -0.0258398 -0.219868 -0.564804 -0.0134589 -0.0220137 -0.211244 0.457566 -0.35369 -0.158027 -0.16225 -0.046553 0.0538013 0.00438639 0.208204 -0.00574791 -0.5 -0.2 -0.2 -0.4003 0.422224 -0.454033 0.332636 -0.447897 -0.413853 -0.525155 -0.217837 0.270799 0.30106 0.0798515 -0.310351 -0.445425 -0.178664 0.481437 0.628294 -0.369122 -0.375838 -0.279476 0.04183 0.171888 0.157482 0.308156 -0.0966767 -0.408512 0.1 0.1 -0.1 -0.2 -0.278149 -0.259096 0.357138 -0.114126 -0.0105294 -0.419699 0.258736 0.293048 -0.371821 -0.0554025 -0.380328 0.460857 0.293285 0.431948 0.420921 0.442368 0.118612 -0.0125056 -0.0765793 0.145573 -0.265501 -0.0159911 -0.00131687 -0.308626 0.5 0 -0.4 -0.104513 -0.406858 -0.202716 -0.39784 -0.0957849 0.457389 0.0402559 0.419327 0.420635 -0.361756 -0.00939132 0.289317 -0.139329 0.115177 0.0155884 0.287285 -0.233906 -0.00894007 -0.00721574 -0.302888 0.511261 -0.398807 0.459225 -0.0157904 -0.201806 -0.5 0.1 0 0.100658 -0.31191 0.456856 0.158687 -0.550263 -0.288963 0.383849 0.223769 -0.452711 -0.394034 0.246117 0.111205 0.208257 -0.1332 0.235971 -0.0803604 -0.0217724 0.299594 0.35987 -0.305128 -0.0274116 -0.388885 -0.576643 0.372179 0.499944 0.3 -0.2 -0.5 -0.204486 0.486525 0.422568 0.146043 0.106617 -0.515623 -0.459787 -0.00862716 0.242619 0.206663 0.387376 0.364392 -0.0530709 -0.0249562 0.165713 -0.299447 -0.225928 0.0853444 -0.485591 -0.512439 0.381598 -0.14942 0.132829 0.371786 -5.56267e-05 0.287365 0.2 -0.3 0.0942983 -0.0178114 -0.481848 -0.168124 -0.0907514 -0.179542 0.161591 -0.251113 -0.27197 0.308676 -0.471671 -0.508229 0.187737 -0.480192 -0.186455 -0.318195 -0.0169678 -0.0963847 0.428935 0.28312 0.385704 -0.431964 -0.248816 -0.211479 -0.1 -0.512635 -0.4 -0.5 0.299125 -0.314094 0.127352 -0.316212 -0.161711 -0.59645 -0.232291 -0.188382 -0.318657 -0.0394348 -0.512339 -0.0919117 -0.506035 -0.0791163 0.0412322 -0.145463 0.444922 -0.150962 0.204707 -0.029745 -0.278047 -0.409094 -0.2025 0.000297617 -0.205748 -0.2 -0.3 0.2 -0.400832 -0.313477 -0.466477 -0.377695 -0.150679 -0.248697 -0.216841 0.0879533 0.181715 0.0717514 -0.513762 0.222477 -0.067128 -0.0325619 0.319454 -0.28044 -0.178704 0.062865 0.136951 -0.112454 -0.00144688 -0.312914 -0.508669 -0.105647 0.293653 -0.3 0.1 0.5 0.000165561 0.201374 -0.54059 0.114835 -0.0723074 0.436846 0.157729 -0.291858 -0.0352745 -0.400176 0.0431266 0.365033 -0.479337 0.294838 0.363258 0.396656 -0.373899 0.0626733 -0.201749 -0.221165 -0.305158 0.284128 -0.103339 -0.00574791 -0.00574791 -0.2 0.3 -0.1 0.300044 0.406588 0.198981 0.0702502 -0.417121 -0.186678 -0.155692 0.0454962 0.500779 -0.0600586 0.49599 0.0304325 0.404779 -0.22867 -0.0793521 -0.0754252 -0.481185 -0.487946 -0.291155 -0.0184936 0.378028 -0.522026 -0.000459671 -0.4 0 -0.1 0.5 0 -0.5 0.300616 -0.306097 -0.020505 0.398517 0.528816 0.0550702 0.147387 0.531277 0.127596 -0.178229 -0.137035 -0.229377 -0.247662 0.526065 -0.029303 0.141085 0.318651 0.299699 -0.217055 -0.509201 0.190117 0.000248601 0 0 -0.2 0.5 0.1 0.5 -0.000128694 0.400694 -0.182888 0.220402 0.0341098 0.0344301 0.0343865 0.353945 0.0498677 0.0693358 0.0773869 -0.333657 0.140147 -0.162584 0.129321 -0.48768 -0.0906249 0.00118242 -0.00237135 0.401429 0.499933 0.300228 0 0.4 0.5 0.5 -0.3 -0.3 0.200461 -0.498082 -0.396722 0.00626807 0.00576442 0.404876 0.501875 0.512577 0.515666 0.228041 -0.473163 0.415331 0.215283 -0.187053 0.208457 -0.192532 0.50108 -0.303959 -0.403959 -0.504902 0.1 -0.3 0.4 0.5 0 -0.4 -0.3 0.4 -0.1 0.1 -0.498058 0.303371 0.303371 0.401429 -0.1 -0.399953 -0.399953 -0.0995778 0.499408 0.299028 -0.101448 0.298552 0.199917 -0.199486 0.500261 -0.304902 0.295098 -0.304902 -0.5 0 -0.2 0.2 0.5 -0.212847 
