-0.2 -0.4 -0.2 0.3 -0.5 0.5 0.1 0.1 0.4 0.1 -0.3 0 -0.401861 0.298139 0.299999 -0.400001 0.5 0.1 -0.3 0.5 0.5 0.5 0.2 0 -0.4 -0.4 -0.2 0.3 0 0.2 0.1 0.2 0.1 6.0645e-05 0.495585 -0.204043 0.298369 -0.50126 9.9496e-05 -0.199354 0.296852 -0.408749 -0.506184 -0.10837 0.495077 -0.204474 0.200165 0.500672 -0.306819 -0.306877 0.192603 -0.500012 -0.3 0 -0.5 -0.3 0.2 -0.3 -1.72794e-05 0.500727 0.000731525 -0.399869 0.0950363 -0.10675 0.387956 0.482381 0.480018 0.0839318 0.385033 -0.118918 -0.224727 -0.232575 -0.0424173 -0.23467 -0.219184 -0.224944 0.476599 -0.0273719 0.474403 -0.105454 -0.304488 0.30043 0 0.1 0.2 0.5 0.0999803 -0.499339 0.498323 -0.496203 0.00722118 -0.508007 -0.41078 -0.211871 -0.0124419 -0.0646299 -0.0946285 0.0948716 -0.498056 0.273511 -0.531632 0.0811043 0.168399 0.313558 -0.586351 -0.464829 0.0443028 -0.139957 -0.223209 -0.014949 0.398672 -0.1 -0.4 0.2 -0.500005 0.00416149 0.00581249 -0.00485754 0.398578 -0.507855 -0.427691 -0.487807 -0.300539 0.0225037 -0.00444584 -0.370932 -0.0140941 -0.408661 0.481227 -0.306206 -0.0593782 -0.478021 0.000907197 -0.106722 -0.258054 -0.0220755 0.370385 0.19238 0.102336 -0.00024263 -0.1 0.2 0.500023 -0.390964 0.0177451 0.553728 0.170164 0.545706 0.124566 -0.407311 0.0263353 0.573479 -0.0880923 0.063658 -0.0177323 0.180976 -0.44265 -0.0885976 0.36586 0.464487 0.327472 -0.254545 -0.504912 0.00563208 0.311283 -0.280314 0.102153 0.498973 -0.2 -0.197926 0.199792 -0.077491 0.0683315 -0.402895 0.645707 0.0895488 0.0368872 0.0622322 0.0591377 0.59682 0.0669246 0.272759 -0.386641 0.183508 0.105218 -0.223237 0.442539 0.329909 0.400124 -0.0586815 0.0795425 0.165225 -0.49314 -0.179661 -0.189278 -0.201692 0.3 -0.0967139 0.304052 0.232703 -0.112247 -0.164007 0.460037 0.382539 0.303016 0.0425509 0.0776844 -0.325351 -0.238397 0.282993 0.0127365 0.489327 -0.245972 0.274935 0.517862 0.269046 0.302449 -0.557421 -0.060524 0.0491354 -0.260481 0.325044 -0.288518 -0.202633 -0.399982 0.00401643 0.00346873 0.348456 -0.114561 0.114119 0.0233926 0.542987 0.0321188 0.0447696 -0.321599 0.00627099 0.337841 -0.0248339 -0.0579324 0.220967 -0.308672 0.542531 -0.424714 -0.159115 0.00634023 0.337792 -0.0666937 0.334282 0.0401366 -0.268574 -0.0940047 0.498635 3.91232e-08 0.202109 -0.184692 0.349893 -0.244495 0.309875 0.621867 0.485742 -0.292203 0.470492 -0.0647504 -0.457495 0.0115234 -0.52456 -0.283263 0.187278 -0.222298 0.112101 -0.121046 -0.390507 -0.0124867 0.479716 -0.127555 -0.0662373 0.537168 -0.0576655 -0.0898049 -0.00370948 -2.08572e-08 -0.498309 0.0254321 -0.358176 -0.145593 0.304573 -0.13226 -0.178983 0.487982 -0.255283 0.462873 0.166621 -0.0535757 0.472709 -0.102986 -0.286305 0.00948463 -0.0982007 -0.0552546 0.145857 -0.208603 0.397621 0.256942 -0.188248 -0.392441 0.525264 0.012239 -0.000754881 0.2 0.30167 -0.286701 0.241834 0.147421 0.137284 0.224149 -0.281656 -0.0554767 -0.0799275 0.036627 -0.442945 0.146857 0.337687 0.268264 -0.189393 0.473631 0.537508 0.0840868 -0.445275 -0.207408 -0.309148 -0.340536 -0.128619 0.0818004 0.0186531 -0.388618 0.400393 -0.4 -0.0974193 0.212706 0.455975 0.429396 -0.296243 -0.0207767 -0.0223871 -0.593734 -0.200307 0.547672 0.225227 0.246786 0.374633 0.412023 -0.0403197 0.141963 -0.0433684 -0.0410611 0.448644 -0.507954 0.334464 -0.106362 -0.268252 -0.0590205 -0.0165421 0.00150781 0.0992545 -0.1 -0.0986172 0.407143 -0.257181 -0.482135 -0.414904 0.0821826 -0.236962 0.154336 0.0340415 -0.11267 0.570622 -0.076773 -0.329708 -0.375575 0.1145 -0.134058 0.218187 -0.413595 -0.0372346 0.143306 0.39663 0.375952 -0.112005 -0.0537523 0.164139 -0.303469 -0.199928 0.3 0.303456 -0.191037 0.430382 -0.172017 -0.12894 -0.222215 -0.203004 -0.534598 -0.586013 -0.0109045 -0.378475 0.328683 -0.0762216 -0.525073 -0.455232 -0.0890109 0.292 0.264676 -0.0891946 0.51743 -0.176531 0.416488 0.0430186 0.486537 -0.448198 -0.41053 0.299699 0.400012 -0.0967745 -0.191126 0.42957 0.316481 -0.157928 -0.251893 -0.100675 -0.117719 0.2975 0.11516 -0.387093 -0.535301 -0.472835 -0.14082 -0.260972 -0.567119 0.387155 -0.290176 0.266295 0.284622 0.569809 -0.435331 0.0210646 -0.487055 -0.0385529 -0.105886 -0.201219 -0.399988 0.303225 -0.383476 0.251046 0.554419 0.249891 0.363916 -0.111862 -0.58993 -0.18621 -0.193946 -0.0355432 -0.0395097 -0.186669 -0.720851 -0.211864 -0.680078 0.34098 0.0639735 0.426048 -0.103828 -0.122839 0.284141 -0.0873235 -0.474608 -0.0420431 0.0919891 -0.195454 0.3 0.504851 -0.0845659 0.04724 0.258906 -0.518673 0.159887 0.0562435 0.388721 -0.138088 -0.252689 -0.591807 -0.208285 -0.736081 -0.0254479 0.199846 -0.0424728 -0.311367 0.0930655 -0.248656 0.177369 0.17269 0.180292 0.197067 -0.521856 -0.0650494 0.200238 -0.394087 -0.299526 0.301626 -0.278846 -0.466985 0.0351213 0.44809 0.0637153 0.179348 0.148986 -0.327847 -0.0548471 -0.732062 -0.626849 0.276765 0.269629 0.398927 -0.0937571 0.197281 -0.490123 -0.0170432 0.00411163 -0.240202 0.57343 -0.196313 0.242711 -0.547935 -0.00309893 0.295574 -9.75657e-12 0.00398965 0.328204 0.425829 0.0458012 0.531443 -0.104681 0.138342 0.155675 -0.130425 -0.60609 -0.0167101 0.00878273 -0.749284 -0.49143 0.392436 -0.0158904 -0.0467606 -0.0217126 0.418194 0.428148 -0.215711 -0.471706 0.264802 -0.283474 -0.123147 0.0904776 -0.205151 -0.2 0.00645526 0.00849066 0.512609 -0.363014 -0.14542 0.353145 -0.0202851 -0.517245 -0.5516 0.176472 -0.522499 0.065166 -0.117751 -0.0354198 -0.0451014 -0.0190134 -0.2527 0.279564 -0.205747 -0.0940743 -0.401923 0.440888 -0.39215 0.152337 -0.316267 -0.00175296 -0.4 0.4 0.202791 0.201981 0.396797 0.548149 -0.368226 0.416835 0.0586059 -0.476735 0.530381 -0.276339 -0.243039 -0.0392363 0.233366 -0.230194 0.316047 0.0521133 -0.379892 -0.383935 -0.288074 -0.661933 0.0611732 -0.325543 -0.257648 -0.436355 0.402693 0.0980161 0.4 -0.4 -0.2 0.300484 0.290379 0.356024 -0.259808 -0.103232 0.483705 0.00543888 -0.447984 0.116091 0.123117 0.222851 0.224372 0.394769 -0.37649 -0.137673 0.276513 -0.202505 0.25451 0.354231 -0.0274246 0.374625 0.44378 -0.521421 0.3921 0.396472 0.2 0 -0.4 -0.0025651 0.213254 0.250499 -0.431441 0.053496 -0.333575 0.0291606 0.677349 0.335052 0.413665 0.314566 0.496876 0.112888 0.109584 0.102643 0.441263 0.271438 -0.321693 -0.129047 -0.258086 0.3147 -0.130992 0.294935 -0.00444412 0.193154 0.3 -0.4 -0.4 0.201164 -0.280575 0.14636 0.266342 0.481964 0.620833 0.320313 0.0665529 0.276032 0.133271 -0.368203 -0.120758 0.206419 -0.378539 0.187514 0.183167 -0.486326 -0.567919 0.318717 0.136824 -0.0554924 -0.0174443 0.403575 -0.500675 0.399957 -0.4 0.4 0 0.299844 -0.397872 -0.487375 0.0157016 0.234649 0.357479 0.491035 0.0771161 0.571676 0.546465 -0.228203 0.036135 0.593782 0.275632 0.244537 0.464623 -0.290448 -0.016 -0.414298 -0.527061 0.0863236 0.395936 0.00383903 0.0996388 -0.100131 0.4 0 0 0.4 0.398601 -0.000375637 0.298563 0.00453939 0.507248 0.112223 0.304284 0.101717 -0.501478 -0.178768 0.193932 -0.465607 0.144738 -0.437746 0.352108 0.0408144 -0.379392 -0.0936958 -0.301622 -0.299372 0.399835 1.70015e-05 -0.2 -0.4 -0.2 0 0.5 -0.1 0 0.1 0.29992 -0.496207 0.00390617 -0.0940206 -0.398389 0.303446 0.300589 0.500553 -0.09603 0.502784 0.201382 -0.394245 0.00980686 -0.0953329 0.30193 0.401392 -0.104119 0.396658 0.100209 -0.3 -0.4 -0.4 -0.3 -0.359861 
0.5 -0.4 0 0 0 -0.5 0.1 -0.1 0.3 -0.2 0.5 0.4 -0.100471 0.399529 0.29946 0.19946 -0.4 -0.1 0.2 -0.1 0 0.2 -0.3 -0.1 -0.3 0.1 0.4 -0.5 -0.5 -0.3 -0.1 0 -2.74859e-12 -5.33238e-06 -2.09796e-05 -0.499881 0.100055 -0.499598 0.101415 0.299209 0.00074435 0.00148588 0.00238454 -0.501174 0.397763 0.299079 -0.200983 -0.100088 0.20094 -0.499059 0.200413 0.400203 -0.3 -0.5 0.5 0 0.2 0.2 0.099732 0.399943 -0.199913 -0.0991523 0.200837 0.101784 0.499548 0.19881 -0.194678 0.197446 -0.504119 -0.207083 0.00802665 0.312459 0.503346 -0.501811 0.300137 -0.394592 0.104065 -0.398111 -0.297059 -0.198884 0.300068 0.499738 -0.1 -0.1 0 -0.3 -0.100273 0.299633 0.200318 0.101648 -0.00254755 -0.0974839 -0.406956 -0.00809105 -0.315456 0.279097 -0.544168 0.382336 0.124921 -0.374805 -0.384992 -0.00321774 0.392719 -0.00146232 -0.00618001 -0.202005 -0.00439696 -0.298791 0.101017 0.0994444 -0.400428 0.4 0 0.5 -0.400326 0.0974683 0.192273 -0.209961 0.0753784 -0.13271 -0.00867194 -0.388685 -0.214957 0.298692 0.374863 -0.0656203 0.189255 -0.0965381 0.368323 -0.0314243 -0.0886932 0.196731 0.0325265 0.178179 -0.298998 -0.293925 0.418938 0.315879 0.199809 0.00133936 0.3 0 -0.200467 0.494978 0.19002 0.276339 -0.337098 -0.511817 -0.00150568 0.0184856 -0.0340496 0.250835 0.343156 -0.0470835 0.320175 -0.355721 -0.0233588 0.122643 -0.237166 0.491783 -0.254799 0.414331 0.220082 -0.0726071 0.0351173 -0.0931737 0.0985414 0.00161079 -0.1 -0.1 0.00144947 -0.310298 -0.00704189 0.0980031 -0.34532 0.377854 0.267777 0.471228 -0.369352 -0.51461 0.218984 0.263498 0.223034 -0.550174 -0.488794 -0.144168 0.225083 0.269677 0.29775 0.318462 0.107321 -0.177797 0.43999 0.113314 0.300845 0.400657 -0.4 -0.100233 0.500565 -0.307578 -0.404254 0.397405 0.246619 -0.302214 0.0908087 0.277963 0.0603351 0.198985 0.153993 -0.32057 -0.452977 0.0611862 -0.165803 -0.0505505 -0.175739 -0.439863 -0.094608 0.297913 0.459681 0.0109803 -0.230263 0.520393 -0.195817 0.10027 0.299994 -0.100823 -0.103563 0.0975874 -0.198165 0.0331873 -0.415104 0.0248527 -0.240065 0.0797221 0.0516649 0.249628 -0.548046 -0.365621 -0.269759 -0.30621 -0.115099 -0.485217 -0.20532 -0.192745 -0.276033 -0.493576 0.155426 0.107454 0.473334 -0.466628 0.405218 -0.500226 -0.4 -0.00277126 0.389821 0.0811159 0.227423 -0.0564007 0.0100812 0.533777 0.0672064 -0.340743 0.0268179 -0.353528 0.276141 -0.117552 -0.520244 -0.0543843 -0.123929 0.345186 -0.00530881 0.216048 -0.445198 -0.516926 -0.439456 -0.0544894 0.585335 -0.353232 0.0187194 -0.102607 -6.74911e-08 -0.00298253 -0.0178574 0.391088 0.523919 0.00704968 0.317818 0.170657 0.578167 -0.0239381 -0.46265 0.479336 0.407315 0.213881 -0.209478 0.39328 -0.305632 -0.251208 -0.421515 0.21862 -0.541885 -0.191134 0.285135 0.0589401 0.391278 -0.354086 0.117818 -0.402296 0.1 -0.203546 0.0831639 -0.0163105 0.222212 0.334545 0.37814 0.192393 0.250968 0.387931 0.461226 -0.461882 0.069232 -0.0807689 0.33514 -0.579293 0.402612 -0.208844 -0.0581529 0.192914 0.472611 0.0884996 0.213929 0.452901 0.155209 -0.376399 -0.0829303 -0.500483 0.2 0.196664 -0.309488 -0.317373 0.013507 -0.0405594 0.469738 0.243053 0.135017 0.637756 0.132549 -0.306197 -0.414036 -0.322698 0.415512 0.200015 -0.329042 0.412792 -0.320819 -0.206442 0.229528 0.378096 0.451022 0.149535 0.0169328 0.505953 0.406182 -0.401333 -0.2 -0.303043 -0.304894 -0.399879 0.501366 0.143755 -0.436016 0.108468 -0.173181 -0.325867 0.0434426 -0.285327 -0.320138 -0.516406 0.111085 -0.305237 0.0419584 0.230051 0.235142 0.514859 0.44822 0.0727277 0.0344666 0.000431879 -0.503528 0.189403 0.398828 0.498561 0.5 0.200396 -0.00122181 -0.0999595 0.104319 0.0251594 0.179072 0.0966636 0.0651178 0.509298 0.341441 0.601214 -0.226639 -0.282458 0.023081 0.521134 -0.0396519 -0.0396843 -0.118289 0.375141 -0.253689 0.490669 0.374168 -0.509592 0.162049 -0.223415 0.197888 -0.201216 -0.10037 -0.399444 0.00121894 -0.198531 -0.216216 0.392706 0.416714 -0.435063 0.18641 0.443215 0.553807 0.30264 -0.0570638 -0.142274 -0.21063 0.403799 -0.446759 0.214145 -0.0196323 -0.0515543 -0.398995 0.283938 -0.0267526 0.266628 -0.461913 0.461836 0.393631 0.099826 -0.50037 -0.299458 -0.303946 -0.309384 -0.0545879 -0.434445 -0.0128844 -0.0569871 -0.0551344 0.427149 -0.466426 0.540532 0.0306855 0.353042 0.378804 0.0457074 -0.212674 -0.0809957 0.361872 0.556941 0.135255 0.0123048 0.202885 -0.300796 0.0819657 0.0827122 0.294743 -0.000563231 -0.3 0.000541951 -0.201435 0.089081 -0.560212 0.442792 -0.00479674 0.0226045 -0.50981 0.48146 0.134565 -0.344601 0.577353 -0.438073 0.199039 -0.186103 -0.00214425 0.190253 -0.155677 -0.342384 -0.251269 0.0699992 -0.416724 0.0851844 -0.0170222 0.360454 -0.107065 -0.00171205 -0.400036 -0.500014 0.19257 -0.110293 0.229044 -0.520019 -0.320281 -0.402411 0.430597 0.042096 -0.243175 -0.319718 0.348343 0.162648 -0.117289 -0.282486 -0.300728 -0.539499 0.22189 0.150032 0.169583 0.482362 0.439123 0.305766 0.485572 -0.24305 -0.0114484 0.499422 -8.9611e-14 -0.000673477 -0.412117 0.184925 -0.0598364 -0.516903 -0.56602 0.084161 0.002354 -0.53276 0.164578 0.0977153 -0.244713 -0.399268 -0.131999 -0.561662 -0.31453 -0.163396 0.197003 -0.305202 0.130364 -0.269697 0.560835 0.518601 0.395772 -0.427004 0.29054 -0.500208 -0.4 -8.83767e-05 -0.305864 -0.505918 -0.520592 0.277821 -0.545526 0.237866 0.053761 0.0372777 -0.466694 0.0565405 0.279637 -0.443652 -0.172625 0.320763 -0.113197 0.456244 -0.0200533 0.166015 -0.188924 0.0772199 -0.139252 -0.180289 0.085128 -0.325952 -0.507562 0.2 -0.1 2.33271e-07 0.400669 0.190221 -0.0173475 -0.414515 0.0219891 -0.563675 -0.544429 -0.242444 0.359792 0.186494 -0.121032 -0.19126 -0.209935 -0.0467638 0.275236 0.0662091 0.174754 -0.166971 0.0480756 0.165058 -0.0406791 0.019089 -0.212056 0.286505 0.295076 -0.4 -1.79461e-08 -0.3 -0.400081 -0.504163 -0.113569 0.478533 -0.165978 0.115163 -0.464076 -0.455692 0.212749 0.261087 -0.564169 0.327347 0.252767 0.186445 -0.268079 0.249827 -0.457817 0.0879654 0.0845886 0.0931574 -0.123901 0.0994995 0.485896 -0.210867 -0.20066 -1.0315e-07 -0.3 0.1 0.199956 -0.303596 -0.512409 -0.434423 -0.547604 -0.486641 -0.560635 0.30749 -0.272669 -0.390878 0.210772 0.0237558 -0.285288 0.463703 -0.318087 -0.404371 -0.357091 -0.297495 0.499917 7.92774e-05 -0.345722 -0.388952 -0.498402 -0.202175 0.400888 -0.1 -0.3 0.2 -0.200057 0.397149 -0.504982 -0.0125446 0.169969 -0.072551 -0.388282 -0.0981884 -0.526956 -0.356396 -0.139002 0.236851 0.103174 -0.444604 -0.269779 -0.0349233 0.457705 0.378197 0.475121 0.0839845 0.349612 0.522633 -0.296063 0.199138 -0.301553 -0.1 -0.1 -0.1 0.000120693 -0.298942 -0.399527 -0.500374 -0.415334 0.261005 0.41293 -0.087199 -0.0926528 0.100435 0.118612 0.0106937 -0.552885 -0.0202089 -0.32578 -0.0470009 -0.288537 -0.455111 -0.265253 0.0335555 -0.475863 -0.0863885 0.300387 -0.50116 0.0993105 -0.2 -0.2 0 -0.4 2.09496e-06 -0.400414 -0.298375 -0.406773 0.387069 -0.218112 -0.0181875 -0.311695 -0.420738 -0.541791 -0.520327 0.0950713 -0.201506 -0.212236 -0.0251072 0.470556 -0.415929 -0.406208 0.0046758 0.301397 0.000573505 1.15028e-06 0.3 0 -0.4 -0.4 -0.3 -0.2 -0.4 -0.4 -0.100848 -0.405751 -0.207413 -0.00944582 0.393034 -0.408912 0.488022 0.484334 0.0828658 -0.510412 0.193662 -0.110611 -0.511628 0.293342 -0.502692 -0.399133 0.2026 0.000700088 -1.12367e-05 0.4 -0.2 0.3 -0.4 0.214454 
-0.5 0.3 -0.1 -0.3 0.5 0 0.1 0 -0.1 0.5 -0.5 -0.2 -0.300922 0.199078 -8.91641e-06 -0.400009 0.5 0.1 0.5 0.5 0.4 -0.4 -0.1 0.4 0.1 0 0.4 0.1 0 0 0 -0.3 -0.1 0.297413 0.0963653 -0.00489115 -0.308949 0.0918502 -0.404691 -0.302822 -0.105193 -0.104866 -0.401555 0.497705 0.297898 -0.0992888 -0.199941 1.11544e-05 -0.500515 0.499487 0.199373 -0.300143 0.5 0.3 0.4 0.1 -0.2 0 0.300003 1.22523e-08 -0.300005 0.397415 -0.404224 -0.508586 -0.110772 0.0829697 -0.0177298 -0.123495 -0.316896 0.481257 -0.113416 -0.205167 -0.207234 -0.50451 -0.000496263 -0.00488526 -0.503984 -0.101057 0.198587 0.299885 -4.03592e-05 -0.399999 0.4 0.2 0 -0.5 -5.17741e-06 -5.3319e-06 0.000301183 -0.0017142 -0.103086 0.187715 0.479435 -0.0339445 -0.526859 -0.0324283 0.268115 -0.234745 -0.132624 0.188938 -0.0317189 -0.50442 0.497735 -0.504967 -0.112712 -0.416418 0.0882366 -0.40956 0.000627817 -0.400207 0.0998238 -0.4 0.2 0.5 -0.300009 -0.401444 -0.104479 -0.509848 0.500514 0.298176 0.48733 0.377288 -0.318281 -0.0389352 -0.329626 0.0436693 0.0495264 -0.442248 -0.231654 -0.189212 -0.293911 -0.414743 0.185705 -0.233233 -0.412033 -0.113372 -0.0997285 -0.193658 0.400272 0.400325 -0.3 -0.2 0.0999823 0.392476 -0.0049137 0.393618 -0.49098 0.499695 0.129232 -0.273853 -0.384009 -0.31736 0.132467 -0.0906001 0.310224 -0.0688507 -0.069388 0.279283 -0.370643 -0.0286845 -0.0266787 0.0677307 -0.216812 0.0901619 -0.495661 -0.293743 0.400478 0.200397 0.1 0.500008 -0.499042 -0.410542 -0.285184 0.211678 -0.0810921 0.433391 -0.127468 -0.256761 0.452739 0.483809 -0.181211 0.393025 -0.501091 -0.253559 0.353537 -0.260609 0.0695447 0.438977 -0.202835 0.16204 -0.432323 0.0876787 0.194912 0.211602 0.00064666 -0.101835 0.2 -0.300119 0.0023805 -0.40364 0.210615 0.329122 0.215352 -0.269598 0.282454 0.47112 -0.241352 0.366157 0.0364059 -0.427175 -0.262972 0.016083 -0.118451 0.159735 0.0192452 0.393554 0.382184 -0.319615 0.513367 0.174171 0.227625 -0.185847 0.00419404 -0.102499 0.099994 0.297493 0.398191 0.295399 -0.482468 0.432344 0.00483253 0.293661 -0.0378414 0.147281 -0.387066 0.383339 -0.595533 -0.238782 -0.0847961 0.366077 0.43214 0.255505 0.4089 -0.487444 -0.310196 -0.376913 0.00460053 0.373624 0.0270679 -0.26986 -0.295779 0.0996205 -1.30114e-08 -0.103704 -0.103754 0.489662 0.0128341 -0.506951 -0.021151 0.385408 -0.1798 0.277532 0.334694 0.280597 -0.69184 -0.421024 0.360552 -0.0248287 -0.108575 -0.185628 0.0996253 -0.244041 -0.405481 -0.398837 -0.0202418 0.000778177 0.236121 0.0412022 -0.288237 0.400328 0.3 0.295729 0.393447 -0.00647438 -0.198767 0.102135 -0.0240645 -0.333449 0.173503 -0.0613769 -0.490682 -0.598361 -0.112771 -0.661918 0.143607 -0.441132 0.283304 -0.435531 -0.129093 -0.0908198 -0.313686 0.458923 -0.117076 0.0809778 0.01145 0.525901 -0.4877 0.101621 0.3 0.195919 0.282986 0.182615 -0.221465 -0.00948141 0.27862 -0.307214 0.37629 0.174199 0.162156 -0.500193 -0.0856164 -0.120809 -0.223195 0.219041 0.316847 -0.235201 -0.0548874 -0.180207 -0.0428145 -0.467612 0.33922 -0.0383316 -0.0272484 0.406439 -0.294691 -0.401022 0.3 0.0944032 0.388863 0.0839319 -0.514706 0.312611 -0.0903345 0.0452522 0.14508 0.471041 0.28057 0.574757 0.445201 -0.359758 -0.271299 -0.0773415 0.212779 -0.337455 0.0614146 -0.320683 -0.526808 -0.0303875 -0.452096 -0.134836 -0.136341 -0.304458 -0.304274 -0.102664 -2.62348e-08 0.496351 -0.309572 -0.112121 -0.507145 -0.485468 -0.0868963 0.237227 0.403976 -0.0461159 0.0830803 0.545761 -0.224227 -0.0812246 -0.0605714 0.0471567 0.443961 0.236532 0.395304 0.522059 -0.392211 0.395019 -0.443331 0.0495116 0.259968 -0.0214902 -0.307036 0.299635 -0.5 0.40003 -0.403946 -0.508542 -0.299363 0.0117653 -0.277188 -0.155188 -0.193172 0.415945 0.129339 0.321197 0.58845 0.0625139 0.331799 -0.325419 0.286945 -0.521991 -0.334263 -0.46569 0.185047 -0.500431 -0.2489 0.265429 -0.0416566 -0.525714 -0.103035 -0.000364966 0.0999531 0.300038 -0.299229 0.503303 -0.00352271 -0.484324 -0.00186616 0.180659 0.0766031 0.233976 0.319634 0.388454 0.0955958 -0.314202 -0.223062 0.0128444 -0.387144 0.0327845 -0.0370873 -0.0386231 -0.226052 0.198456 0.0918087 -0.0306196 0.350831 0.357354 0.192036 -0.300729 0.199953 -2.28217e-06 0.0994917 0.0995925 -0.488441 -0.400187 0.35519 -0.429442 -0.410029 0.10195 -0.151249 0.210959 -0.344951 -0.261412 0.221736 0.278457 -0.364004 -0.313779 0.498394 0.467371 0.0324595 -0.0196555 -0.0234205 0.35749 -0.0378715 0.351009 -0.212026 -0.401824 0.1 -0.199537 -0.397062 -0.392524 0.00675741 -0.0257508 -0.16344 -0.613773 0.306481 -0.215857 -0.180091 0.397387 -0.17024 0.0150869 0.0578946 0.0855557 -0.0213106 -0.272764 -0.248559 0.0369508 -0.0669611 -0.402713 -0.22581 -0.0374609 -0.233149 0.257103 -0.00912698 0.0970852 -0.200521 -0.499575 0.303516 0.40816 -0.292882 0.212273 -0.504171 -0.457922 -0.30348 -0.149043 -0.64322 0.102006 -0.420489 -0.471763 -0.139345 -0.165376 -0.167137 -0.518824 0.245042 -0.342737 0.468918 -0.351935 0.516298 0.487172 -0.105609 0.371817 -0.00713136 -0.30038 -0.4 -0.200003 0.201411 0.30663 0.316333 -0.353336 0.0335523 -0.105414 0.274896 -0.297909 0.258244 -0.0355497 -0.198172 0.366598 0.172887 -0.454839 -0.424146 -0.492883 0.261221 -0.302291 -0.416931 -0.143907 -0.0885275 -0.0859091 0.487963 -0.415777 -0.101828 -9.83082e-05 -0.1 0.200463 0.400039 -0.391354 0.105278 0.513235 0.529913 0.515086 -0.125717 -0.493195 -1.33512e-05 -0.4563 0.301926 0.207338 0.0898584 -0.556975 -0.554293 0.080321 0.248092 0.407739 0.427535 -0.0457201 -0.25516 0.429898 -0.409831 -0.51359 -0.201951 0.5 -4.33094e-09 0.200444 0.297995 0.400506 0.00741057 0.0820559 -0.193035 0.397545 0.238329 -0.368548 -0.169837 -0.401889 -0.0340053 -0.118718 -0.426499 -0.172553 0.363614 0.315179 -0.238419 0.245746 0.425582 0.0536406 0.436124 0.021898 -0.107319 -0.204267 0.0957229 -1.8547e-09 -0.4 -5.90101e-09 -0.401873 -0.0940473 -0.103223 0.368991 0.373792 -0.246867 -0.166929 0.0522952 -0.0168329 -0.00661525 -0.119106 -0.0846346 0.383951 0.258813 -0.270926 0.235859 0.273811 0.258712 0.0425977 0.164983 -0.442022 0.00426059 -0.00821344 -0.301119 0.09908 0.2 -0.5 0.1 0.402366 -0.392479 0.00482075 -0.507083 -0.116568 -0.419582 0.301064 -0.506123 -0.0704767 -0.458795 -0.166766 -0.0866869 0.476545 -0.308281 0.128539 0.233373 0.0147308 0.472449 0.522126 -0.0436449 -0.384285 0.496367 -0.303535 -0.00167682 0.499965 0.5 -0.5 -0.1 0.00252833 0.407191 0.303749 0.506604 -0.100912 -0.118988 -0.00269045 0.293828 0.0322694 0.434977 0.244174 0.212868 -0.0295855 0.537611 -0.432714 0.141505 -0.102522 -0.448322 0.400618 -0.491547 -0.393408 0.104498 -0.00155484 -0.300167 -0.300005 -0.1 0.4 -0.5 0.302488 0.202304 0.0987418 -0.198052 0.10162 -0.403371 -0.204311 -0.185711 -0.275664 -0.366171 -0.164799 0.024456 0.520103 -0.412948 -0.522806 -0.34994 0.369594 -0.299596 -0.103447 -0.508647 0.200742 -0.493348 -0.000788352 -0.200433 -1.06756e-05 0.2 -0.1 -0.1 0.2 -0.499982 -0.399921 -0.199387 -0.00339694 -0.301643 -0.00486403 0.486678 0.485648 0.263622 -0.152868 -0.251804 0.0451947 -0.146327 -0.0338002 0.0561853 0.258049 -0.226831 -0.220446 -0.0080643 0.494378 -0.399329 -0.401617 -0.5 0 -0.3 0 -0.5 0.2 0.3 -9.65623e-13 0.299954 -0.300143 -0.300164 -0.300268 -0.200295 0.198475 0.295679 0.29336 -0.00901121 -0.309136 -0.505855 -0.00530682 0.391177 -0.30734 -0.303618 -0.30159 0.498936 -0.500581 0.2 0.1 0 -0.4 -0.2 0.247574 
0.5 -0.1 0.3 -0.1 0 0 0.3 0 0.3 0.2 -0.4 -0.4 -0.299773 0.400227 -8.82584e-06 0.299991 0 0.2 -0.1 -0.3 0.3 -0.2 -0.1 0.1 0.4 0.2 -0.3 0.2 0.4 0.1 -0.1 0.3 -0.4 -0.200005 0.499984 -0.400027 0.0996669 0.0977789 0.398246 -0.300532 -0.299567 -0.199692 0.303665 0.298991 -0.201604 0.196888 -0.100353 0.000514306 -0.0984846 -0.0987762 0.400852 0.000461046 -0.3 0.2 0.1 -0.1 0.2 0 -0.300008 -0.2 -9.70705e-05 -0.500015 -4.69647e-05 -0.399898 -0.201583 0.495049 -0.308005 0.193274 -0.205312 0.494131 -0.0837938 0.505531 -0.10509 -0.229644 0.481376 -0.103244 0.0064651 0.2062 0.205377 0.00428886 0.201678 -0.099614 0.5 0.3 -0.4 0.2 0.200033 -0.499962 -0.299969 0.502151 0.302647 0.301666 -0.314125 -0.116666 -0.140242 -0.543099 0.255545 -0.231533 0.291765 -0.215612 -0.106675 0.446597 -0.429668 -0.407895 -0.304922 -0.480984 0.519936 0.512597 0.502501 0.299751 0.400014 -0.2 -0.4 0.5 -0.299635 -0.40013 0.406032 0.308497 0.504659 -0.49084 -0.0153461 0.395436 0.186006 -0.388288 -0.505728 0.465499 -0.454344 0.0087821 0.0242735 -0.0467859 0.250554 0.180968 -0.365117 0.514339 -0.271136 0.112257 0.409223 0.000605279 0.401278 0.499703 0.4 -0.5 -0.0998369 0.200891 -0.190715 0.513263 -0.296166 0.504456 -0.0281948 0.0587328 -0.520066 0.516514 0.0205871 -0.37964 0.0229945 -0.408501 -0.0240848 -0.0305147 0.02735 0.509557 0.179511 0.548316 0.0415541 0.316347 0.523901 0.205672 0.50303 -0.499416 -0.3 -0.501791 -0.501219 0.295463 0.00693153 -0.506275 0.18257 -0.0301223 -0.279924 -0.568491 -0.449843 0.510736 -0.350809 -0.367113 -0.020629 0.375443 0.282228 0.0704201 0.000571295 0.356187 0.408929 -0.182552 0.501259 0.512183 0.240552 0.10561 0.00356303 0.500579 -0.2 0.296092 -0.202343 0.0957109 0.296242 0.281043 -0.435837 -0.10143 0.166744 0.322265 -0.199425 -0.150324 -0.114767 0.0614754 -0.0784311 0.235417 0.382694 -0.0591645 0.129055 0.254258 0.366818 0.195882 -0.000356234 0.112929 0.0405079 0.32556 -0.291976 0.200325 -1.67797e-05 -0.504729 0.0963589 0.0908014 -0.308021 0.365477 -0.378571 -0.202864 -0.396323 -0.107495 0.038077 -0.0316587 0.361177 -0.118921 -0.566954 0.40445 -0.434905 -0.0717399 -0.381012 0.17951 -0.186595 0.168093 0.2938 0.27806 -0.46077 0.332585 -0.187833 -0.496569 -4.11526e-09 0.299261 -0.208826 0.182337 0.0840606 -0.168983 -0.492065 -0.365315 -0.233523 -0.186791 -0.150457 0.205093 -0.392774 -0.339212 0.210155 -0.00012552 0.0991478 0.0249533 0.137645 -0.40357 -0.363209 -0.152232 0.00905603 0.199706 0.539462 -0.36694 -0.288029 0.403542 0.2 0.398477 0.0871993 -0.526942 0.461758 0.316736 -0.484583 0.385239 -0.324409 -0.431641 0.135193 0.297032 -0.0137048 0.106994 0.33688 0.464983 -0.206082 -0.578286 -0.45974 0.254867 -0.592382 0.315069 -0.0212607 0.160306 0.397847 0.0272416 -0.184452 0.203585 -0.0999999 0.493941 0.185163 0.456663 0.238657 0.432955 -0.358455 -0.236641 0.0967922 0.31307 -0.342321 -0.172915 0.224619 -0.264616 -0.272099 0.431633 -0.129833 -0.552837 -0.558554 -0.08753 0.280012 -0.587727 -0.0232733 -0.137126 -0.496319 0.113841 0.507518 0.403076 1.04066e-07 0.493623 0.0908755 -0.1397 0.251257 0.461419 0.157485 -0.111976 0.312446 0.027398 -0.177218 -0.234676 0.0174877 0.443713 -0.168464 0.518505 0.240946 -0.0518793 -0.370265 -0.381542 0.447478 -0.0386114 -0.442153 -0.431987 -0.216979 0.298202 0.297076 0.098884 -0.4 -0.502179 0.490659 -0.522731 -0.236698 -0.13018 -0.321456 0.113469 0.296791 0.370404 0.0875946 0.490548 -0.203546 0.307505 -0.0294877 -0.331134 0.061876 0.0387823 -0.35184 -0.0964679 -0.117026 -0.152859 0.134065 0.240622 -0.24124 -0.31906 0.0890763 -0.101074 -0.1 -0.200638 -0.00235777 -0.22679 0.0496952 -0.186619 0.0425582 -0.0112294 -0.127451 -0.520983 -0.1454 0.045564 0.653724 0.383131 0.511604 0.0255189 0.00553252 0.384581 0.20846 -0.313863 -0.341803 -0.180109 0.176692 -0.58867 -0.0718685 0.481237 0.289669 -0.00100736 0.299912 0.099883 0.296995 0.27966 0.353424 -0.0622021 -0.0872668 -0.159996 -0.0578967 0.00413807 -0.113563 0.309487 0.322609 0.560301 -0.210125 0.106642 -0.16342 -0.0384756 0.25449 -0.41974 0.0308516 -0.137695 -0.229768 -0.50935 0.430249 -0.317417 -0.112403 -0.401356 -0.100088 0.0998895 -0.108206 -0.118781 -0.450436 -0.375199 -0.31379 -0.596128 0.111528 -0.219601 -0.0643373 -0.3557 0.375347 -0.0141823 0.128117 -0.0095753 -0.290017 0.433368 -0.535604 -0.0596816 -0.497612 -0.141793 -0.409716 0.406131 -0.555815 -0.536048 0.180814 0.198898 -0.5 -0.4001 -0.10754 -0.516802 -0.13639 0.130951 0.0706984 0.138312 -0.150274 0.0445773 0.282558 -0.546769 -0.224545 0.201612 -0.138853 -0.209575 0.212613 0.31207 0.235921 -0.667574 -0.64923 -0.303643 -0.169165 -0.461859 0.45346 0.173536 -0.114191 -0.501426 0.399929 0.100017 -0.211373 -0.520466 -0.350284 -0.398161 -0.488988 0.425114 -0.160031 -0.308929 0.0965986 -0.0558659 -0.041066 0.153832 0.502205 0.539284 0.617983 -0.490241 -0.109834 0.265812 -0.0818163 -0.358171 0.0536512 0.146056 0.0538235 -0.0275972 -0.108345 -0.297025 -0.3 -0.0969237 -0.297769 -0.508312 -0.0528159 0.207899 0.435513 -0.0841139 -0.456261 -0.431075 -0.198475 -0.147367 -0.0425423 0.281151 -0.429396 0.132974 0.471695 0.0367731 -0.514056 -0.222975 -0.00564144 -0.0409159 -0.151552 0.166865 -0.522227 -0.499123 0.497434 0.203288 -0.4 0.404152 -0.494188 0.397826 -0.0289391 -0.0415084 0.493325 -0.0296036 -0.435378 -0.0318025 -0.484499 0.273611 0.323822 -0.498255 -0.19718 0.071245 0.402941 0.26708 0.0797293 0.15664 0.0141726 0.108978 -0.220257 -0.509232 0.104646 -0.101936 0.397979 0.3 0.1 0.300133 -0.300007 -0.0119764 -0.329393 0.0768457 -0.0273652 -0.377741 0.317412 -0.0594882 -0.0279695 0.190322 0.334002 -0.441538 0.110551 -0.115638 -0.169254 -0.0800845 -0.307708 0.104262 -0.179576 -0.370822 -0.0016994 0.000991707 -0.210671 0.0988097 -0.00103419 -0.5 0.4 -0.4 0.498253 0.487132 0.0838051 -0.104528 -0.0110784 0.0147103 0.507901 -0.236783 -0.206847 -0.490999 0.434934 0.245584 0.344341 0.144201 -0.0981352 -0.213672 -0.187866 0.376458 -0.34938 0.0279557 0.188497 -0.40424 -0.405899 -0.106456 0.501338 0.2 0 0.2 -0.402488 -0.411628 -0.0328274 0.0675508 -0.0179696 -0.377166 0.0117844 -0.393339 0.202198 -0.386375 -0.0471633 -0.440888 -0.398111 0.288802 -0.13575 0.452749 -0.226908 0.149116 -0.169741 -0.279916 0.00102279 -0.302169 0.195259 0.400499 0.30246 0 -0.1 0.5 0.299525 -0.105412 -0.116138 -0.402362 -0.00234783 -0.00263642 0.0781982 -0.297308 -0.309765 -0.342119 -0.190929 -0.0574459 0.156244 0.456188 -0.28622 0.000589148 0.111184 -0.279601 -0.478363 0.0179087 0.0105999 0.497629 -0.205227 -0.399167 -0.000397758 0 -0.4 0.3 0.30015 0.400708 0.2981 0.390127 0.305979 -0.287938 0.477775 -0.532903 -0.0668456 -0.27311 -0.103008 0.212737 0.192389 -0.555347 -0.039254 0.372612 -0.00532753 0.104556 -0.39319 -0.193642 0.00432457 -0.199359 0.0982358 0.299611 -0.500398 0.1 -0.4 0.1 0.3 0.20103 -0.398109 0.407511 0.123975 -0.17574 -0.378386 0.308011 -0.299478 0.260905 0.347763 0.0538231 -0.400447 0.409779 -0.192077 -0.0917123 0.0920499 -0.101345 -0.100644 0.299196 0.0983251 -0.400105 0.3 -0.1 -0.5 0.5 -0.2 -0.2 -0.1 0 0.1 -0.200126 0.199463 -0.300686 -0.302649 -0.202423 -0.401789 0.49598 0.494007 0.290708 -0.406624 0.3992 0.298186 -0.103435 -0.50154 -0.500278 -0.000300892 -0.100064 0.400003 -0.2 0.2 0.3 0.2 0.4 0.0750073 
-0.2 0.2 0 0 0.4 -0.1 0 0.4 0 -0.3 0.3 -0.4 0.0952348 0.395235 0.4 0.3 0 -0.5 0.5 0 -0.3 0.1 -0.2 -0.1 0 0.1 -0.1 -0.5 0 -0.5 0.5 0.2 -0.4 0.399882 -0.303114 0.396693 0.395461 -0.207798 0.0936542 -0.310152 -0.0199317 0.0812655 -0.50896 -0.00438298 -0.203357 -0.10487 -0.406527 0.292574 0.193023 -0.104904 -0.30223 -0.201605 0.5 0.2 0.5 -0.5 -0.3 0.3 -0.5 -5.69121e-06 -0.501835 0.397897 -0.406575 -0.11007 -0.00690142 0.0812683 0.275407 -0.0495689 0.237365 -0.0626907 -0.254681 -0.0613381 -0.448011 -0.435961 -0.337972 -0.0322868 0.0749448 -0.315282 -0.409395 0.0944974 -0.402098 0.299749 -0.4 0 -0.3 0.2 -0.399999 -0.0999948 -0.201949 -0.205666 -0.209466 -0.517427 -0.417091 -0.0256408 -0.0128908 -0.140318 0.136196 0.114854 0.204793 0.194768 -0.126713 0.283782 -0.60017 -0.491 -0.357503 0.236819 -0.552995 0.0683217 -0.310866 -0.000944999 -0.100008 -0.4 -0.4 0.3 0.00101326 0.000731275 0.398569 -0.290579 -0.19047 -0.0909256 -0.39923 0.315566 -0.170575 0.102393 -0.306195 -0.362045 -0.0899318 -0.415769 0.184633 0.312004 -0.53311 0.0332786 -0.537975 -0.528934 0.132892 0.243402 0.348654 -0.0132455 0.198933 -0.200035 0.2 0 0.200501 0.298923 -0.204668 -0.183483 -0.0871412 -0.292423 -0.385979 0.502658 -0.207854 0.0968343 0.121771 -0.375111 -0.00410629 0.512595 0.562297 0.145113 -0.133441 0.0615371 0.0664224 0.160275 0.362259 -0.153686 0.233997 0.0833434 -0.102949 -0.300004 0 -0.100178 -0.396661 -0.4892 -0.479133 0.328907 0.0258978 -0.313977 -0.435108 -0.241441 0.177889 0.0152925 -0.188716 0.240352 -0.278838 -0.0769836 -0.484132 0.163765 -0.481133 0.258641 0.215003 -0.502474 -0.335995 -0.0364211 -0.479734 0.0690248 -0.205614 -0.400074 0.3 -0.299786 0.00602516 0.214332 -0.170538 0.0163211 0.0150748 -0.031828 -0.0632673 -0.0719883 -0.368887 0.157151 -0.503239 -0.247611 -0.362001 -0.410346 -0.08159 0.426115 -0.0346497 -0.35324 0.518503 0.0593189 0.302796 -0.528274 0.217299 -0.559953 0.486764 0.498284 0.500056 0.302528 0.104716 0.121185 -0.170619 0.501107 0.106774 -0.553081 0.293013 -0.522189 -0.455493 -0.278421 0.00912143 -0.345739 0.43335 -0.104796 0.194591 0.248774 0.157318 0.523415 -0.329438 0.222114 -0.340712 0.253795 -0.106677 0.0161999 0.0803536 -0.20359 1.71998e-09 0.00262283 -0.394444 0.516845 -0.185445 0.501899 -0.209378 -0.0901621 0.0474116 -0.124243 -0.200671 -0.451402 0.336152 0.172563 0.237561 0.344264 -0.448366 0.300193 0.242837 0.256594 -0.0790499 -0.0772016 -0.347244 0.0353302 -0.329502 -0.490704 -0.0239331 -0.204162 -0.1 0.30188 -0.293699 0.411104 -0.166563 -0.062157 -0.25485 -0.101377 -0.10921 -0.0231914 -0.161923 0.507062 0.184642 0.154848 -0.322445 -0.0893401 0.268078 -0.240903 -0.152955 0.0781531 0.640051 0.633564 0.119089 0.440543 0.260547 0.00699278 0.36605 -0.000943997 -0.5 0.401287 0.404798 0.124245 0.534527 0.080533 -0.377246 0.34372 0.0618475 0.518927 0.564099 -0.308639 -0.0805906 0.445055 -0.411967 -0.374158 -0.426476 0.36723 -0.161227 0.595823 -0.254882 0.13842 -0.336099 -0.093552 0.13248 0.150853 -0.129633 -1.93534e-05 0.3 -0.298751 0.00261572 -0.0818957 -0.462063 -0.139696 -0.217276 -0.0459547 0.36105 -0.336242 -0.039605 0.0213927 -0.129148 -0.076454 -0.285607 -0.12621 -0.0699404 -0.259172 -0.288532 0.346242 0.306972 0.248477 0.182644 0.297915 0.21013 -0.288629 -0.4048 -0.397598 -0.1 0.0012866 0.00250424 0.211281 -0.449848 0.0802965 -0.294531 0.432854 -0.125183 0.0559332 -0.481765 -0.257604 -0.336238 -0.169565 0.00388695 0.15095 -0.485721 0.437441 0.432425 -0.145841 -0.301465 -0.277176 0.212308 0.0726811 -0.432567 0.545255 0.513831 0.00244295 -0.4 0.500209 -0.298597 0.401089 -0.352943 0.469468 0.551609 0.000266478 -0.0398908 0.397996 0.327995 0.263293 -0.537453 -0.30616 -0.175005 -0.302943 0.0111674 -0.0924399 -0.0253776 0.262857 0.332301 0.26864 0.11339 0.167526 0.0808837 -0.055825 0.316519 -0.297558 -0.399987 0.199785 -0.00126889 0.491178 0.505806 0.551035 0.29687 -0.0911166 0.0691974 -0.00335121 0.0229442 -0.704432 -0.477702 0.0403389 -0.294928 0.0986494 0.254076 0.419759 0.290783 0.456823 0.0524697 -0.00562123 -0.18422 0.380124 -0.431261 -0.476804 0.219362 0.302464 0.200013 0.299791 0.19733 -0.32052 0.295489 0.333785 -0.322069 0.0364724 0.108883 0.209958 0.200939 -0.506052 -0.417742 -0.0164983 0.000635453 0.545411 0.176068 -0.108385 0.0242194 0.240503 0.449535 -0.468644 0.360736 0.449703 0.0557571 0.0352831 0.121741 -0.499212 -0.3 -0.000480808 -0.00268853 0.0793093 0.0891039 0.406129 -0.181528 0.337783 0.453936 -0.0116992 -0.219041 -0.620149 -0.613915 -0.311507 0.435252 0.244938 -0.162076 0.368238 0.440867 -0.0589083 -0.0687058 0.365744 0.242329 0.338499 0.129823 -0.454233 0.415826 0.502907 -0.500104 0.299734 -0.404199 -0.218251 0.490936 0.115198 -0.00548291 0.398496 0.392024 0.165337 -0.0905885 -0.608973 -0.376374 0.317923 -0.336912 0.278243 0.586784 0.0967894 0.148442 0.0824243 0.38867 0.42987 0.0147022 -0.492069 0.393837 -0.0528686 0.316511 0.204507 2.35213e-14 -0.503381 -0.409435 0.202446 0.0896363 0.406358 0.163117 -0.515599 -0.446457 0.319663 0.0981067 -0.636568 -0.0487294 -0.0820057 0.162028 0.0804285 0.517643 -0.377115 0.142298 0.00822938 -0.0971084 -0.379944 0.459323 -0.0125716 -0.50042 0.522998 0.00957823 0.301876 0 -0.104779 0.194977 -0.482682 0.384575 -0.283963 0.0320176 0.399223 -0.285353 -0.592637 -0.19615 -0.475384 0.235086 -0.403509 0.32824 0.300916 0.196705 0.260108 0.38433 0.0767333 -0.628117 -0.084277 0.350602 -0.531215 0.196128 0.116091 0.204786 -0.2 0.5 0.198996 -0.200347 -0.471528 0.0942452 0.367781 0.185386 0.435447 -0.265956 -0.386868 -0.183393 -0.000760076 -0.368609 -0.569247 -0.406348 0.228555 -0.436469 -0.306979 -0.0734634 0.201231 -0.111982 -0.568056 -0.246938 -0.0279176 0.211953 0.305461 -0.199873 -0.2 -7.2538e-10 -9.16487e-10 -0.000520726 -0.378757 0.397819 0.206116 0.00980349 -0.259256 -0.473923 -0.0315645 -0.517657 0.0805684 -0.171734 0.00143506 -0.184408 0.337296 -0.0364606 -0.277146 0.374232 0.110995 -0.338941 -0.36355 -0.223172 0.00101805 -0.0974386 0.406588 0.498559 0.5 -0.5 -0.2 -0.401769 -0.497792 0.420733 -0.243276 0.0377289 -0.25659 -0.163145 -0.0996586 0.0784097 -0.162452 -0.247249 0.0269722 0.116412 -0.199397 0.0841778 0.250218 -0.331243 0.091218 -0.115628 0.363257 -0.018021 -0.0146097 0.405858 -0.499206 0.398215 0.2 -0.1 0.2 0.297463 0.391292 0.399365 -0.0930787 0.499874 -0.258598 0.142165 -0.195115 -0.316589 0.193234 -0.321766 -0.187306 -0.510181 0.0926617 0.348092 0.0140869 -0.0897103 0.387353 -0.495497 -0.119242 0.39638 -0.092229 0.00260451 -0.496547 -0.299989 -0.5 -0.1 -0.4 0.297159 -0.107826 -0.401669 -0.00768065 -0.00247825 0.289793 -0.0320526 -0.0521255 0.471203 -0.239345 -0.0218649 0.26873 -0.109591 -0.00450081 0.442262 -0.322799 0.158253 0.462677 -0.120338 0.396545 -0.203846 -0.300017 0.195679 -0.499323 -0.39999 -0.5 0.5 -0.3 -0.5 0.302457 -0.497363 0.299931 -0.181654 -0.385313 0.31196 -0.0847295 -0.0128628 0.0179717 0.31847 -0.179771 -0.217846 -0.337457 -0.0472295 -0.338227 0.0791836 0.0879125 0.496467 0.0961141 -0.103603 0.0959254 0.0992511 -0.4 -0.3 0.2 -0.5 0 -0.3 0.1 0.1 0.000152103 0.306384 -0.193446 0.306733 -0.097219 -0.494741 -0.292854 0.414205 -0.388964 -0.294853 0.398468 0.398034 -9.28429e-05 -0.499592 -0.0997728 0.199575 -0.200103 -0.400042 0.500246 0.3 0.3 -0.5 0.1 -0.185198 
-0.1 -0.5 -0.2 0 0.5 -0.1 0.3 -0.4 0 0.1 -0.2 0 -0.200626 -0.000625694 -0.500467 0.0995326 0.1 0.1 -0.4 0.3 -0.5 -0.5 -0.4 0 -0.4 0 0.5 0 -0.4 0 -0.4 -0.3 -0.4 0.497612 0.397769 0.0972709 0.29304 0.294685 0.392573 -0.510439 0.486999 -0.0110657 0.19415 0.09826 0.200343 0.501723 0.0980008 0.19774 -0.401444 -0.301259 -0.100386 0.299797 -0.5 0.5 -0.1 0.1 -0.5 -0.1 -0.399987 -0.300003 0.499953 0.297708 0.195391 -0.21044 -0.406868 -0.00545909 -0.213349 -0.225173 -0.530806 -0.435832 0.253324 -0.344521 -0.240827 -0.424322 -0.0171381 0.286273 -0.209691 0.0949219 -0.103559 -0.00385231 -0.102425 0.1976 -0.3 0 0 0.4 0.499982 0.499219 -0.49966 -0.400657 -0.098229 0.00950558 0.320844 -0.276345 0.320796 -0.07494 0.0771873 -0.546803 0.310679 -0.307269 -0.594851 0.424323 -0.0528819 0.286631 -0.502769 -0.195417 -0.399379 0.0856396 -0.20211 0.0992757 -0.0991737 0.1 0.2 0.2 0.100022 0.300224 0.41058 0.405035 -0.379333 -0.142218 0.158026 -0.217368 -0.438009 0.469656 -0.231426 0.342062 -0.590636 -0.215085 -0.199859 -0.580295 0.477643 0.00867962 -0.0703825 0.414109 0.235307 -0.189762 -0.38963 -0.00636626 -0.501232 -0.100949 -0.2 0 -0.100788 0.00167796 0.0198666 -0.062973 0.0451195 -0.318286 0.282653 0.10845 0.26224 0.429438 0.415082 -0.311765 0.277049 0.137498 -0.453153 -0.477716 -0.411442 0.328615 0.0660659 0.105511 0.198487 -0.208433 0.397519 -0.0217431 0.193492 -5.05413e-05 -0.4 0.101331 -0.391535 0.216361 0.121252 0.556162 0.0978882 -0.0620397 0.305469 -0.0223799 -0.109437 0.311935 0.258564 -0.0295562 0.24364 -0.295811 -0.520496 0.122929 -0.412852 -0.333779 -0.0260488 -0.21351 0.384845 -0.0452149 0.0596368 0.462309 -0.00230492 -0.000674713 0.4 0.00150396 -0.39139 -0.192628 -0.265295 0.23453 -0.100367 0.28391 -0.360604 0.168092 0.330291 -0.384163 0.179973 0.388452 -0.44421 -0.507326 -0.651728 -0.227905 -0.125229 0.0616881 -0.108258 -0.142537 0.346925 0.217334 0.35371 0.206934 -0.476308 -0.50062 0.501903 -0.0980536 0.00715289 0.513084 0.354552 0.170946 -0.101143 -0.698646 -0.729176 -0.30125 -0.229797 -0.221447 0.0343013 -0.29456 -0.571868 -0.21269 -0.392418 -0.6545 0.319757 -0.181673 -0.192538 -0.0112556 -0.0763342 -0.392233 -0.0669116 -0.111026 0.420563 0.098487 0.1 0.402418 0.104127 0.514174 -0.283823 -0.369542 -0.356951 -0.0422825 -0.764959 -0.399181 -0.657632 -0.51917 -0.628565 0.0378277 -0.315698 -0.50345 -0.13118 -0.49158 0.606494 -0.15116 -0.0747759 0.103947 0.237303 -0.620035 -0.193454 -0.222591 -0.507194 -0.00157645 -0.5 0.203065 -0.0944182 0.317738 -0.29802 0.174619 -0.745764 -0.578965 -0.701325 -0.385074 -0.738987 -0.165996 -0.266809 -0.0468699 0.00613856 0.133146 0.585939 0.118118 -0.144237 0.104241 0.358571 -0.082831 -0.0878668 -0.173587 0.078121 0.363729 0.376596 -0.102225 -1.18873e-08 0.301211 -0.299551 0.00977061 0.450325 -0.0349879 -0.143458 -0.228864 0.106971 0.0433806 -0.243977 0.35744 -0.274739 0.177364 0.588694 -0.337632 -0.405845 0.369057 0.494444 -0.386238 -0.308013 0.0389234 0.14016 0.267345 0.314214 -0.0201622 -0.0180823 0.497467 0.4 0.400976 -0.496389 -0.18597 0.343457 -0.486032 0.0858922 -0.078001 -0.291607 -0.258359 0.423288 0.537519 0.0644457 -0.107456 0.258049 0.213893 -0.0300637 -0.0345909 0.141975 0.0494405 0.374826 -0.258361 0.279692 -0.0850309 -0.0422738 -0.0957944 -0.10626 0.300047 -0.5 0.100386 0.202485 -0.475233 0.184065 -0.373081 0.401503 -0.225773 0.413104 0.493582 0.361041 0.271681 0.0275648 0.209627 -0.417278 -0.341938 0.25537 0.149144 -0.29225 0.00840992 0.281263 0.0120191 0.0749885 0.399407 -0.166511 0.104314 -0.50386 0.000133636 -0.1 -0.399986 -0.000322615 -0.383406 0.208099 0.0290566 0.0854856 -0.100776 0.43886 0.567604 0.00724209 0.676081 0.437518 -0.0351055 -0.219481 -0.109152 0.0370612 -0.42684 0.205794 0.384671 0.0693386 -0.105312 0.3392 0.246135 -0.342082 0.0152699 0.399007 -0.299869 0.399944 -0.39999 -0.090508 0.516645 -0.0901627 -0.158714 0.590505 0.164358 -0.0158736 -0.0950722 -0.050825 -0.363737 0.173774 0.0500884 -0.129719 0.0113749 0.235514 0.522603 0.052269 0.641226 0.548217 0.284669 -0.413371 0.254548 -0.0267535 0.496621 -0.0930489 -0.295099 -5.57303e-05 -0.399929 -0.487741 0.111079 -0.183299 -0.180958 0.0341087 0.144615 -0.362533 -0.197352 -0.393279 0.203927 -0.32168 0.335829 0.31586 -0.202758 0.471608 -0.0564334 0.0370485 0.433383 0.534986 0.145489 -0.2642 0.407027 -0.47704 0.279371 -0.194761 0.00466288 -0.4 0.301101 -0.285243 0.137401 -0.475839 0.389711 -0.229204 0.345703 -0.0058646 -0.340081 -0.325427 -0.137399 -0.320629 0.00418386 0.437368 0.156468 0.0535304 0.180908 -0.0368684 -0.19027 -0.0843708 0.500673 -0.000644372 -0.3416 -0.0341402 0.371482 0.00505757 0.00581125 -0.500034 0.501091 -0.279893 0.354983 0.037025 0.304076 0.314019 0.195341 0.0738461 -0.10226 0.247186 0.25244 0.271634 0.393647 -0.239177 -0.102507 0.505347 0.13014 0.490555 0.0155852 -0.160206 -0.405766 0.442963 -0.191172 -0.256876 -0.32207 0.106376 -0.293969 0.2 0.29831 -0.489166 0.451969 0.447106 -0.324499 0.166459 -0.262515 0.0839905 -0.31362 -0.0626566 -0.041873 -0.250906 -0.462448 0.0334624 0.0724624 0.362884 -0.33954 -0.40661 -0.0819042 -0.627736 -0.359358 -0.12831 -0.128188 0.145431 0.0901044 -0.497218 0.000753875 -0.4 -0.401642 0.00430006 0.361395 0.242664 -0.0120574 -0.548226 0.0810094 0.138913 -0.111914 -0.248867 0.36942 -0.144795 0.173571 -0.307294 -0.0115151 -0.521326 -0.062262 -0.265942 0.0876151 -0.194178 0.356627 -0.130076 0.0107426 -0.515953 -0.40413 -0.497485 5.2543e-09 0.3 0.500047 0.413223 0.333421 0.121937 0.0375806 0.47065 -0.412749 0.253323 -0.0874339 -0.401929 0.0406852 0.393681 0.173939 0.272013 -0.187212 0.012799 0.22016 -0.184534 -0.116053 -0.0237498 0.411305 -0.29013 -0.148905 -0.0249547 0.285656 -0.396778 -0.5 -0.4 -0.2 -0.0925343 0.416893 0.00439925 0.149728 0.178911 -0.178963 0.109244 -0.456173 0.405482 0.446189 -0.233784 -0.0226033 -0.510713 0.0948878 0.265801 -0.133695 0.430851 -0.101844 0.403578 0.360035 0.0715784 -0.0162798 -0.317146 -0.298362 -0.498914 4.0635e-10 0.5 -0.2 -0.0971931 -0.298808 0.239168 0.0356671 -0.216329 -0.135329 0.0613006 0.198564 -0.0939578 0.39513 -0.185981 -0.133987 -0.399332 -0.363455 0.329614 -0.206157 -0.0719227 -0.22221 0.216502 -0.388306 -0.00397613 -0.532398 0.0891123 0.108899 -0.198659 0 0.3 -0.5 0.402909 0.110946 0.431221 -0.460102 -0.0272162 0.0318205 -0.131407 -0.50643 -0.205819 -0.227593 0.227328 0.329814 -0.0783652 0.0103295 -0.480903 -0.143052 -0.303135 -0.127783 -0.447364 0.363775 0.392339 -0.29938 -0.00337284 -0.188091 0.300623 0.2 0.2 0.2 0.399987 -0.000597323 -0.498573 0.198663 -0.341926 -0.048141 -0.548883 0.4222 -0.514922 -0.413623 -0.248098 0.277501 -0.455634 0.137451 -0.437968 0.0340743 0.433556 -0.357978 0.437564 -0.342814 0.368697 0.284495 -0.0113951 -0.199577 0.400441 0.1 0.5 -0.2 -0.4 0.199956 0.00395643 0.282216 -0.135056 0.150331 -0.452468 -0.183892 0.0252958 -0.312274 -0.170775 0.207815 0.11857 -0.339034 0.202745 0.206158 -0.0540251 0.0663449 -0.040976 0.17247 -0.310318 -0.00692087 -0.00613786 0.5 -0.3 -0.5 -0.2 -0.1 -0.1 -0.3 0.4 0.0988117 0.399936 0.298786 0.501693 0.401774 0.00148496 0.0865444 0.381618 -0.0301388 -0.442351 -0.215431 0.497417 -0.104936 0.295595 -0.00518844 -0.206279 -0.307373 -0.104908 -0.0988443 0.3 0 -0.2 -0.4 0.419647 
0 0.5 0 0.4 0 -0.1 0 -0.3 0 -0.2 0.3 -0.5 0.0984373 -0.301563 -0.000217206 -0.500217 0.1 0.2 -0.5 0.4 -0.3 0 -0.1 -0.1 0 -0.1 0.5 0 0 -0.3 0.1 0 0.2 -0.200642 -0.501471 0.0974822 -0.404127 -0.00418404 -0.210326 -0.212485 -0.114297 0.287665 0.288575 -0.410833 -0.00746211 -0.405508 -0.302177 0.195975 -0.305906 0.294863 -0.00264767 0.399177 0.3 0.5 -0.2 0.4 -0.4 -0.5 5.14236e-08 -0.201239 -0.401018 -0.000393546 -0.301961 -0.00340465 0.399011 -0.500678 -0.108605 -0.121248 -0.0232078 -0.240403 0.459286 0.453815 -0.0352922 0.194223 0.492991 0.478871 -0.518685 0.383847 -0.0123173 0.394186 -0.203304 0.198555 -0.5 -0.4 0 0.1 -0.399997 0.198491 0.198641 0.299658 -0.0932771 0.407224 0.419282 0.415873 -0.492405 0.000224303 -0.19565 0.371147 0.256004 0.471828 -0.0176941 -0.291469 -0.470992 0.087054 -0.0234682 0.278008 -0.110473 0.489185 -0.014122 -0.00601165 -0.201106 0.2 0.2 -1.3875e-14 0.0993787 0.200213 0.30569 -0.483346 0.110577 0.421327 0.532846 0.513165 -0.00696065 -0.305094 0.000810663 0.363838 0.358674 0.489204 -0.471428 -0.467231 -0.46853 -0.0916382 0.174795 0.0694145 -0.0179544 -0.0149991 -0.303793 -0.301085 -0.401877 -0.200298 -0.5 0.3 -0.400437 0.201404 0.411364 -0.0958062 -0.403175 0.399979 -0.210295 -0.137401 -0.0605188 -0.0735943 0.29874 -0.351608 -0.450436 -0.402469 -0.0817683 -0.482874 0.0679627 0.0462113 0.28037 -0.317069 -0.535911 -0.411678 -0.205046 -0.308415 -0.403149 -0.299251 -0.5 0.199489 -0.196234 0.302176 -0.294461 0.0855866 -0.321504 -0.316792 -0.0487237 -0.292442 -0.528494 -0.135028 -0.326812 -0.0941267 0.0584027 -0.526294 0.447802 -0.0279294 -0.0672163 -0.565744 -0.168409 0.355129 -0.0271008 0.485644 0.48947 -0.392823 -0.29363 0.00219852 -0.4 0.395715 0.502696 -0.402307 -0.494206 0.381625 0.238985 -0.182226 -0.128297 -0.0443705 0.206373 0.218983 -0.417485 -0.0218812 0.478883 -0.207336 -0.304504 0.113167 -0.0916636 0.346018 0.329941 0.0327423 0.166699 -0.00601198 0.409287 -0.00109854 0.313122 0.102651 0.0991831 0.29223 0.0988477 -0.107612 0.309538 -0.321725 0.214587 -0.19061 -0.275624 0.136312 -0.0779204 0.108971 -0.140559 0.282146 -0.390232 -0.25144 -0.463497 0.363921 0.336895 -0.0130442 0.123333 0.238917 -0.293993 0.0202545 -0.16895 0.521508 0.422556 -0.495488 -0.1 -0.00923297 -0.00885987 0.0862263 -0.170649 -0.127093 -0.074119 -0.478253 0.201934 -0.183429 -0.17983 -0.436293 -0.542142 0.345618 -0.317797 -0.463149 -0.400866 -0.442391 0.183595 0.568124 0.337712 -0.0470512 0.0460659 0.340505 0.0573743 0.237425 -0.178675 -0.297664 -0.1 -0.307135 -0.0117571 0.494014 -0.255855 0.0623738 -0.331603 -0.544491 0.451497 -0.255665 -0.342126 -0.525642 -0.228793 -0.348488 -0.0571778 0.280149 -0.515771 0.229657 -0.38176 -0.166241 0.412318 0.479763 -0.0535592 0.552954 0.568588 -0.146473 0.122517 -0.401431 -2.09902e-08 -0.305493 -0.50679 0.387775 0.331643 0.123762 -0.0359823 0.405375 0.164371 0.0828244 -0.242587 0.0802511 -0.0680861 -0.121801 -0.141637 -0.0807818 -0.381655 -0.0844412 0.0300965 0.31522 0.294006 -0.0441198 -0.462829 -0.448103 0.0345271 0.256481 0.419536 3.81658e-05 0.3 0.296048 0.194707 -0.520997 0.0291229 -0.463083 0.45624 -0.226621 -0.0213826 0.240397 -0.0425579 0.418514 0.325401 0.345776 -0.492075 0.0590118 -0.0526028 -0.422855 -0.115264 0.413053 -0.313428 0.429942 -0.0888032 -0.0961001 0.221813 0.0491072 0.121635 -0.19874 0.5 0.298482 -0.105145 0.0869078 -0.482497 0.222758 0.286761 -0.0880491 0.416511 0.450788 -0.504037 -0.320995 0.0452082 -0.250884 -0.464193 -0.035581 0.378148 0.116123 -0.549123 -0.224632 0.215207 0.153558 0.177678 -0.497438 0.500837 0.127121 -0.0851053 -0.19883 -0.2 0.0999312 -0.498506 0.187455 -0.296711 0.212192 0.491177 -0.161322 0.121282 -0.0643475 0.0931897 0.543336 0.325852 -0.119943 0.309522 -0.0288638 0.511531 0.385625 -0.303176 0.0969032 -0.117643 -0.4782 -0.301075 0.266474 -0.506879 0.318463 0.211389 0.401163 -0.500002 -0.500002 0.00215546 0.184656 0.109482 0.113856 0.209923 0.0559759 0.0450603 0.53865 0.5272 0.402417 0.75146 -0.0235821 -0.366373 0.517233 -0.406241 -0.183178 -0.271315 -0.017323 -0.0359366 0.417315 0.26777 -0.245415 0.0648302 -0.303567 -0.181639 -0.498724 -0.200002 -5.56359e-05 -0.302007 -0.423727 -0.0131324 -0.202053 0.149054 -0.00953182 0.469592 0.44667 0.159699 0.12429 0.525571 0.175382 0.110583 -0.131397 0.652859 0.264496 0.107229 0.440313 -0.387219 -0.114687 -0.0843299 -0.15154 0.389364 0.0148377 -0.180356 -0.206467 -0.2 0.299596 -0.505839 -0.314711 0.507572 -0.47719 0.27183 0.2034 -0.0614936 -0.0996008 -0.361827 -0.0548742 -0.3722 0.118698 -0.3284 0.58382 0.0934467 0.106262 0.0577192 0.120992 -0.120458 -0.351993 0.00448933 -0.536752 0.0912278 0.0221403 0.112934 0.095819 0.399558 -0.400402 -0.00759555 0.39452 0.0311684 -0.151844 -0.0259006 -0.431901 -0.0973866 -0.00257489 0.163446 -0.0976257 0.595386 0.136312 0.116897 -0.402591 -0.377134 -0.349123 0.362758 -0.216236 0.294551 -0.600591 -0.0588852 -0.505209 -0.387904 0.321345 -0.289208 -0.497897 -1.58146e-13 -0.507157 0.184405 0.293428 -0.29039 0.333392 0.388264 0.0632417 0.0416581 0.515591 0.253228 0.481938 -0.166899 0.329183 0.201553 0.199755 -0.0766223 -0.468536 -0.00895288 -0.0168938 0.278684 -0.343068 0.0741175 -0.106403 -0.497575 0.405051 0.405689 0.000331308 -0.4 -0.10643 0.0863123 -0.408715 -0.298693 0.00949568 0.218005 -0.463825 -0.405794 0.0655552 0.0299107 -0.0139509 -0.397867 -0.15425 -0.392256 -0.480339 -0.14982 -0.635459 -0.0164945 -0.564803 0.249129 -0.371554 0.534115 -0.462105 -0.262457 0.304969 0.00405147 1.06562e-10 -0.4 -0.100918 -0.1055 -0.404245 -0.298368 -0.091114 0.19807 -0.41881 0.368073 0.316818 -0.503374 -0.370006 -0.225751 0.27317 -0.626846 0.0203549 0.315694 0.035931 -0.548503 0.198279 0.121323 0.270106 0.181894 0.275659 -0.45512 0.10933 -0.0965709 0.2 0.4 -0.5 0.496306 0.400202 -0.235846 -0.437867 0.23661 -0.242148 -0.156201 -0.175528 0.0101647 -0.159109 0.204526 0.0171215 0.320878 0.185793 -0.340726 -0.324773 0.226823 -0.135606 0.297885 0.479144 0.405426 -0.23243 0.0249853 0.412837 -0.500288 -1.01255e-08 0.4 -0.2 -0.0994872 0.187482 0.260315 -0.588571 -0.315019 -0.084216 0.245859 0.090757 -0.223501 -0.194614 -0.595648 0.0578545 0.170709 -0.159119 0.450556 0.123452 0.468131 -0.10533 0.486447 -0.242729 0.258066 -0.261958 0.40508 -0.29678 -0.499522 0.5 0.2 0.1 0.299296 -0.312508 -0.242413 0.0217466 -0.0973461 0.319786 0.0528355 0.23652 0.0677538 0.178989 -0.48953 -0.267311 0.51634 0.110063 0.453485 0.227781 -0.0537789 -0.121481 -0.162308 0.0146397 0.00530736 0.207079 -0.20599 -0.299142 0.100281 -0.5 0 0.1 0.000950144 -0.00538828 0.184018 0.0694989 -0.037371 0.257251 -0.0692961 -0.0926043 -0.0821122 0.44041 0.383568 0.0107942 -0.398395 0.215662 -0.388357 0.28755 0.0439804 -0.45936 -0.0878885 -0.286517 -0.0956302 0.498229 -0.204451 -0.499668 0.400315 0.4 0.3 -0.5 0.1 0.300075 -0.400108 0.199879 0.0899536 0.0847859 0.27531 -0.0338088 0.0859115 -0.29709 -0.0924933 0.11146 -0.185681 -0.50486 -0.0180694 0.380054 -0.213005 -0.502486 0.50133 -0.0973198 0.298076 0.394683 0.500178 -1.09099e-11 0 -0.5 -0.1 0.2 0.1 0 0.5 0.499516 0.297295 0.396687 0.395362 -0.403756 -0.00590982 -0.00434948 -0.501615 0.0962884 -0.2036 0.199526 -0.204293 0.493083 -0.104534 -0.101279 0.101206 -0.00195352 0.298077 -0.402586 -0.2 0.1 0.3 -0.1 0.26179 
0.3 -0.4 -0.1 0.5 0.2 0.2 -0.4 0 -0.2 0.2 0.3 0.5 0.29857 0.09857 -0.000294036 -0.300294 -0.2 0 0 0 0.3 0.1 -0.5 0.2 -0.4 0.2 -0.5 -0.2 0.1 0 -0.2 -0.2 -0.1 -0.000838884 -0.30438 0.493522 -0.00510481 0.293234 -0.00674776 0.0932822 0.393372 -0.405169 -0.203908 0.0974132 -0.300908 0.198701 0.0979838 0.297555 0.196985 -0.102368 -0.00202023 0.299685 0.3 -0.2 -0.1 0 -0.5 0.1 2.65665e-06 0.299995 -8.71287e-05 0.49914 -0.00525715 0.190123 -0.21216 0.181881 -0.0257489 -0.026345 -0.113515 -0.506368 0.500432 -0.498309 0.3013 0.198614 -0.503873 0.192259 -0.206583 0.49531 0.192037 0.294318 -0.00525959 0.400041 0 0 -0.4 -0.1 2.96573e-06 0.300099 -0.101762 0.397372 0.197131 0.290976 0.184377 -0.227181 -0.52805 0.272782 -0.213442 0.301218 0.306884 -0.289379 0.00239819 0.19554 0.401502 -0.101131 -0.127348 -0.129863 -0.421829 -0.520961 0.192319 0.0953902 -0.3999 -0.4 0.5 -0.2 0.299912 -0.100118 -0.504665 -0.0111371 -0.41702 -0.322052 0.271871 0.260115 -0.538971 -0.526799 -0.0905339 0.0034816 -0.412696 0.486856 -0.0256577 -0.356946 -0.0607918 0.140625 -0.584737 0.320373 -0.260059 -0.137961 -0.425936 -0.00198089 0.00336568 -0.302791 -0.4 0 0.199492 -0.301658 0.192019 0.0830231 -0.0118398 -0.518834 -0.39326 -0.48166 0.507972 0.291405 -0.493029 -0.408379 -0.388684 -0.42823 -0.328329 0.204085 -0.584191 -0.142621 -0.350121 0.444376 0.262253 0.500265 0.0121578 0.501095 -0.493222 0.397912 0.3 -3.95164e-05 -0.00467856 0.28893 -0.511271 0.410063 0.315969 0.0122122 -0.475126 -0.103844 0.166462 0.12904 0.199158 -0.618063 0.0871116 -0.54607 -0.163164 0.235077 -0.526603 0.167793 0.26099 0.3731 0.0807093 0.119122 0.425469 0.127012 0.111569 -0.00290798 0.2 -0.399725 0.396992 0.196719 -0.112449 -0.508515 0.234437 -0.197031 -0.403278 0.450441 -0.298611 -0.476558 -0.25158 -0.460816 -0.137626 -0.312336 0.372262 0.126574 0.339059 -0.454443 0.231111 0.422217 0.240269 0.535649 0.438893 -0.061902 -0.378348 -0.00302863 -0.200006 -0.399891 0.4032 0.294815 0.277439 0.181862 0.279184 0.376737 -0.00850854 -0.0116746 0.36354 -0.45386 0.0619138 0.0701845 0.0226609 0.365698 0.402553 0.40719 0.0358264 -0.251749 -0.0307809 -0.262176 0.147502 0.0430592 0.542879 0.258242 -0.287686 -0.198859 0.5 0.400457 0.40007 -0.00846004 0.148531 -0.150834 -0.204139 -0.00833228 0.303473 0.0474737 -0.0969012 0.0892629 -0.0662659 -0.473118 0.166135 0.235622 -0.316143 0.435739 -0.463621 0.530651 -0.034733 0.0234149 -0.0345663 -0.00617755 0.131189 0.358344 0.127534 0.301 -0.5 0.30025 0.198648 -0.0879892 -0.232202 -0.0170963 -0.186712 -0.395067 -0.339611 -0.25244 0.442945 0.0203695 -0.175086 -0.404952 -0.523242 -0.154048 -0.0748118 0.559319 -0.121824 -0.0640526 -0.232402 -0.0061054 0.129879 -0.15768 0.222191 -0.142286 0.428147 -0.0987328 0.4 0.297782 0.301038 0.524224 0.197328 0.0193147 -0.380284 0.291411 0.606472 0.0879756 0.127433 0.559223 0.0676588 -0.0661553 -0.067002 -0.00616148 -0.381813 -0.354623 -0.404828 0.0322369 -0.301164 0.416085 -0.0629507 0.432856 -0.116802 -0.180396 0.31346 -0.199616 0.3 -0.199182 0.00159705 0.416724 0.509906 -0.168268 -0.0599064 0.0444611 0.140928 -0.226655 0.378072 -0.166465 -0.394416 0.445072 0.137817 -0.160444 0.0269506 0.350692 -0.287532 -0.439271 0.0799013 -0.391428 0.040271 -0.585309 -0.563307 -0.424051 0.205294 0.501715 3.06368e-10 0.100721 0.403453 -0.281832 0.0146008 0.361351 0.57442 -0.115809 -0.0506802 0.0849998 0.179021 -0.107639 0.012431 -0.0884631 -0.341709 0.170412 0.232306 -0.222251 0.158437 0.128522 0.114031 0.11567 -0.11921 -0.222296 0.070721 0.379802 0.103768 0.00171778 -0.3 0.200041 0.402301 0.021919 -0.279587 -0.230581 0.156236 0.519212 -0.132888 -0.3035 0.364569 -0.0295214 0.144921 0.346027 -0.0361589 0.25164 -0.194987 -0.0739632 -0.0108321 0.299624 -0.148549 -0.482925 -0.00388824 0.514698 -0.294114 -0.510328 0.301572 0.201718 -0.000238599 0.0998265 0.198155 0.291965 0.000342448 -0.126521 0.158041 0.371782 0.395163 -0.329325 -0.485997 -0.249649 -0.0675232 0.393739 -0.0749885 -0.498067 0.452864 -0.443981 0.105816 0.248694 -0.0871462 -0.278783 0.483 0.0127325 -0.180412 0.392791 -0.0958857 -0.499958 -0.100239 0.0998289 -0.00290863 0.486103 0.297175 0.259509 -0.0207347 0.452862 0.184167 0.351987 -0.121464 -0.281481 -0.354217 -0.170336 -0.547261 -0.254463 0.102783 0.347572 0.0223954 -0.158985 0.347514 0.0986653 0.205379 -0.124181 0.288095 0.292632 0.504584 -0.500284 -0.3 -0.300209 -0.103648 0.490901 0.0092747 -0.270942 0.4343 0.00777078 -0.0809737 -0.38773 0.0638637 -0.0798453 0.378526 -0.14966 0.0644294 0.00354686 -0.0992616 -0.118689 -0.0129837 0.0418238 -0.270578 -0.28394 -0.0110482 -0.0118429 -0.494441 0.293733 0.0995925 -0.300204 0.199998 0.299964 0.197067 -0.211037 0.182668 0.0856344 -0.393102 -0.0343756 -0.227653 0.00851083 0.277596 -0.210152 -0.370618 -0.532505 -0.526323 0.10555 -0.278836 0.0778181 -0.206241 0.504777 -0.179672 -0.022776 -0.419004 0.384812 -0.185033 -0.497647 0.00183083 -0.399893 -0.5 0.399987 0.392656 0.0962069 -0.232547 -0.245644 0.425251 -0.169889 0.368105 0.473823 -0.241641 -0.0110474 0.127008 -0.0668019 0.430269 0.200186 0.435385 0.264929 -0.342825 -0.147682 -0.302855 0.0754751 0.261561 -0.0170503 0.422289 -0.106744 -0.29857 -0.0999797 -0.2 -0.400032 -0.203677 0.0896642 0.363831 -0.568417 -0.606312 -0.0829959 0.205449 -0.117811 -0.399513 -0.583602 -0.130405 0.397731 -0.528197 0.510161 -0.31266 -0.00805233 0.154908 0.42096 -0.432085 0.339692 -0.325109 0.30975 -0.277729 -0.00635847 -0.399253 -0.3 -0.5 0.399981 0.396331 -0.106826 -0.0329728 0.35849 -0.367636 -0.552005 -0.370414 -0.278156 -0.0949055 -0.217453 -0.295099 -0.487149 -0.402869 -0.339637 -0.00385677 0.163807 0.452317 -0.366488 0.444265 -0.456292 0.219655 -0.471876 -0.394697 -0.507697 0.000515864 -0.4 -0.4 0.2 -0.203505 -0.00353509 -0.409427 0.266454 0.261104 0.461626 0.0399526 -0.17821 -0.486397 0.129134 -0.0768244 -0.342046 0.408715 -0.0862488 -0.376015 0.0484282 -0.498649 0.491561 -0.0101713 0.393854 -0.172791 -0.192598 -0.389512 -0.39953 0.100991 0.1 0 0 0.0977686 -0.504092 0.272967 -0.225089 0.355708 -0.455247 0.462887 -0.451309 0.281741 0.0163311 -0.199447 0.0611395 -0.0179602 0.228811 0.475263 0.330847 -0.105564 0.0107084 0.4197 0.323612 0.491581 -0.208332 0.00732863 0.403841 -0.199363 0.4 0 -0.4 -0.00101366 0.490891 0.379785 -0.00956929 -0.0458787 0.137114 0.334883 -0.506087 -0.490193 -0.581072 -0.380353 -0.0567229 0.18746 0.186696 0.219973 -0.333659 -0.432273 -0.135109 -0.474911 0.0785294 0.392102 -0.403155 0.405586 -0.296884 0.401468 0.3 -0.4 -0.3 0.499506 -0.199099 -0.00760187 -0.409325 0.393117 0.05703 -0.0593185 0.30911 0.0401418 0.356229 -0.596993 -0.0706365 -0.22279 -0.0922227 0.531234 0.347155 0.133849 -0.498543 0.165462 0.364826 -0.212433 -0.498058 0.00521491 -0.498604 -0.0985305 0.1 -0.3 -0.2 -0.2 -0.399016 0.00222307 -0.00144635 -0.205489 -0.510478 -0.117213 -0.427264 0.0848996 -0.311442 -0.438445 0.157454 -0.257323 -0.24787 -0.0179361 -0.52258 -0.3945 -0.000724275 -0.0120578 0.183049 -0.207443 0.00310636 -0.10104 0.3 0.5 0.1 -0.5 -0.4 -0.3 -0.1 -0.2 -0.199779 0.000618647 -0.100229 -0.499688 0.00043536 0.0010571 0.294298 -0.20969 0.283049 -0.315438 0.191866 0.406975 0.312454 -0.292097 0.000211065 -0.202461 -0.00196423 0.40083 -0.498558 -0.2 -0.1 0.3 0.4 0.0389602 
-0.2 -0.2 0.5 0.1 -0.5 0 -0.4 0 0.2 0.5 0.4 -0.5 -0.100097 -0.100097 -0.40014 -0.30014 -0.5 -0.1 0.5 0.5 0.3 -0.5 -0.5 0.5 0.2 0.4 0.3 -0.3 0.4 0 -0.2 0 -0.2 -0.300001 -0.200003 -0.100047 -0.40008 -0.00137152 0.398244 -0.00063104 -0.101034 0.502652 0.502469 -0.4015 0.0975127 0.0999589 -0.500504 -0.201793 0.00116769 0.201333 0.50224 -0.100035 0 -0.5 0.4 -0.3 -0.1 -0.3 1.48561e-07 0.499587 -0.20096 0.499999 0.0999832 -0.499977 -0.299761 0.19852 0.301713 -0.200458 -0.304502 -0.000242429 -0.29797 -0.101584 0.398994 0.103149 0.404292 0.396131 -0.00499364 -0.104964 -0.00247368 0.499184 -0.000800067 -0.200765 0.2 0.5 -0.2 -0.3 -0.0997466 0.10165 0.000334427 -0.00206174 -0.102146 0.396958 0.499254 -0.299246 -0.285288 0.485156 0.0861733 -0.017924 0.184241 -0.120644 0.0942341 0.0916532 0.389786 -0.312491 -0.221258 -0.0241313 -0.510428 0.496953 0.0986877 -0.000555252 0.299619 -0.4 -0.5 0.1 0.000565726 0.00383787 -0.102027 0.512449 -0.0835284 0.0170436 -0.170932 0.0364915 -0.167322 0.261172 -0.444614 0.408641 0.478483 0.472392 -0.526503 0.0478616 -0.148333 -0.194117 0.49878 -0.276966 0.500611 0.316899 -0.20094 0.497598 -0.00142674 -8.1749e-05 -0.1 0.5 0.300525 -0.48989 0.301709 0.314817 0.419879 -0.333562 -0.0973377 0.10704 -0.235547 0.035907 0.58745 0.381715 -0.41663 0.228593 0.395018 0.359704 -0.557979 0.0669318 -0.0992219 0.472392 0.131472 0.038157 -0.295324 0.298722 -0.102802 8.57489e-05 0 -0.400019 -0.29738 -0.0921151 0.507497 -0.436332 0.544677 0.0577377 0.427342 -0.096858 -0.395273 -0.00820624 -0.0632012 0.00863539 0.250102 -0.0211706 -0.607247 -0.127881 -0.288707 -0.561472 -0.54583 0.211209 0.314158 0.0487097 -0.468374 -0.388616 0.298696 0.299977 0.4 -0.203597 -0.495059 -0.297012 0.421695 -0.301137 -0.0771344 0.0667834 0.552519 -0.0296978 0.330166 -0.145112 -0.274451 -0.430929 -0.208398 -0.583943 0.305804 -0.658631 -0.127126 0.441766 -0.249575 -0.487118 -0.0995782 0.0877663 0.416277 -0.0907197 0.00455734 0.200284 0.200668 -0.000225505 0.108064 -0.00431601 -0.2941 -0.0192116 -0.419754 -0.0198817 0.147466 0.214487 -0.0506154 0.170065 -0.0956041 0.0925985 0.0794163 0.204093 0.138353 -0.0957656 -0.497301 -0.0713638 -0.159789 -0.100427 -0.158189 -0.360452 0.28385 0.00155002 -0.00242111 -8.65538e-05 0.4 0.200793 0.390814 0.177044 0.474164 0.484858 -0.050864 -0.221882 -0.164515 0.398807 0.0296762 0.246193 -0.0096864 0.574977 -0.0319013 -0.550107 -0.513425 -0.284363 -0.617175 -0.27776 -0.608539 0.227675 -0.402141 0.311024 -0.0473531 -0.306149 0.395449 -0.498004 -0.4 0.00140496 -0.410131 0.401431 -0.486824 -0.0862001 -0.188087 0.235474 -0.121627 0.372216 0.228835 0.631602 -0.0308716 0.150502 0.304729 -0.00410771 -0.0816216 -0.184645 0.27685 -0.160701 -0.249943 -0.356841 -0.430568 -0.0779817 0.456502 0.493339 0.29874 0.102344 -0.2 0.099831 -0.00369672 0.102456 0.530274 -0.0509922 -0.390564 -0.00982952 -0.387885 0.126277 -0.216517 -0.353595 -0.143559 -0.367001 -0.393545 0.11201 -0.0492774 -0.419482 -0.0993506 -0.361524 0.405473 -0.3971 -0.251215 -0.437161 -0.0566565 -0.407616 -0.300268 0.399829 -0.1 -0.199854 0.296151 0.0860677 -0.473516 -0.442079 0.354768 0.373928 0.32629 0.595656 0.532035 -0.150202 -0.0617059 -0.0233759 -0.149929 -0.167571 -0.468897 -0.28863 0.375363 0.0999065 0.119203 -0.428331 -0.0911947 0.282706 -0.0198329 0.309977 0.306233 -0.498821 0.4 0.399827 0.400422 -0.410942 -0.3866 -0.052853 0.0377332 -0.0894895 0.34041 -0.410894 -0.00789511 0.0796139 0.0321757 0.259901 -0.150805 0.362365 0.041925 -0.0130269 0.360736 0.227802 0.0187814 0.024443 0.256035 0.0510503 -0.491199 0.0269235 -0.291364 -0.0978483 -0.2 0.397672 0.197417 0.39587 0.291635 0.290059 -0.115292 0.49076 -0.461189 -0.315431 0.476186 -0.329901 0.124995 -0.423795 -0.250348 -0.0763243 -0.372235 0.100916 0.501589 -0.313422 0.565418 0.525128 0.05574 0.346486 0.0319323 0.423848 -0.490917 -0.497767 -0.100001 0.39761 -0.00151022 0.0799023 -0.51957 0.455448 0.45434 0.124476 -0.00688652 -0.336635 -0.132759 0.304775 -0.609123 -0.623592 -0.159908 -0.220333 -0.27366 0.139956 0.0378302 0.320061 0.467441 0.481272 -0.0495296 0.41161 -0.270573 0.0212542 0.506958 -0.398625 0.399999 0.297645 -0.411503 -0.437028 -0.136303 0.441598 -0.0406815 0.354092 -0.339208 0.145904 -0.108966 0.191933 -0.685383 0.170789 -0.212876 0.268794 0.188927 0.106629 0.0541239 -0.339608 -0.0707004 -0.0739196 0.409536 0.103729 0.0204043 -0.083568 -0.190772 0.402568 -0.2 0.196278 0.388559 -0.0470755 -0.428405 -0.346607 0.217395 -0.108747 0.292666 0.167266 -0.13212 -0.51993 -0.526114 -0.288724 0.305392 -0.0379038 0.265033 -0.0508888 -0.181854 0.419 -0.28267 0.310397 -0.104939 0.129743 0.428826 -0.262981 -0.391596 0.00216576 -0.400177 0.0986678 0.185122 -0.442693 -0.434304 0.04598 0.00589797 -0.109021 -0.531507 0.346262 -0.472248 0.0725536 -0.541193 -0.327705 0.281549 0.572094 -0.310617 0.0142978 0.0389066 -0.176125 0.525282 -0.428779 0.0189038 0.429067 0.0438 0.320396 -0.39811 0.00130367 0.3 -0.0049076 0.374483 -0.546725 0.0463682 -0.0563817 -0.0977244 0.0456273 0.0538887 0.230199 0.151876 0.0462077 0.579437 0.0301831 0.618501 0.11919 -0.393352 0.485107 -0.259583 0.32458 0.0880525 0.259022 0.0639587 -0.447612 0.558678 0.223044 -0.49691 0.200982 0.1 -0.404502 0.480242 0.0542849 0.149531 -0.0456959 -0.220979 -0.423514 0.2355 0.0321643 0.0584932 0.425738 0.00106576 0.472706 -0.330515 0.502473 0.136104 0.28828 -0.377397 -0.118262 -0.221182 -0.0333484 0.577277 -0.319983 0.372866 0.424661 0.00195612 0.1 1.04762e-10 -0.00019307 0.381658 0.0753174 0.454491 -0.31379 0.00128806 -0.456191 0.0267468 0.279288 -0.350759 -0.00428295 0.255613 0.364893 0.543142 0.400635 0.0209843 0.238807 0.146636 -0.0203295 -0.296002 -0.411327 0.513614 -0.337443 0.576007 -0.190813 -0.0958849 0.1 -0.4 0.2 -0.119176 -0.111502 -0.138196 -0.19505 0.0195579 0.193657 -0.229225 -0.453297 -0.463852 -0.337782 -0.159492 -0.255011 0.511192 0.462618 0.129876 0.561322 0.0948779 0.257141 -0.227423 -0.470221 0.577088 0.563186 0.333884 0.507829 -0.399304 -0.1 0 -0.3 0.292051 -0.0282138 0.247964 -0.132037 -0.233534 -0.0455312 -0.0134906 -0.475442 -0.191174 0.274271 -0.292808 -0.305657 -0.473378 -0.0155345 -0.241878 -0.295262 0.403682 -0.15833 0.431121 0.115438 0.03525 -0.169541 0.408736 -0.393126 0.400506 0.5 -0.5 0 0.2924 0.0629963 0.0425234 0.357022 0.234952 -0.581566 -0.562061 -0.0993736 -0.153129 0.218748 0.306214 -0.142401 -0.296498 -0.405796 -0.447423 0.0798611 -0.0172511 0.387657 0.18153 -0.0266433 -0.32725 -0.298473 -0.000909785 0.00145804 0.100291 0 0.4 0 0.199535 0.29754 -0.512193 -0.506279 -0.519884 -0.155024 -0.0694067 0.168971 -0.23971 0.0291953 -0.278378 0.162736 0.117869 0.0539727 0.0429657 -0.50083 -0.395153 -0.171962 -0.0871131 0.353048 -0.0296249 -0.403903 0.497395 -0.499613 -0.199659 -0.4 -0.1 0 -0.2 -0.099999 4.2277e-05 -0.199929 -0.495464 -0.210988 -0.219896 0.256625 0.054627 -0.0368548 -0.157684 -0.445314 -0.140921 0.343176 -0.0494514 0.346891 0.0694564 -0.319611 -0.322491 0.280025 0.284931 -0.501425 -0.100809 -0.5 0.2 -0.1 -0.3 -0.4 0 -0.2 0.3 0.300485 -0.198904 0.400985 -0.200246 -0.102073 0.201348 0.093406 -0.509759 -0.215865 0.380998 -0.106183 -0.0985822 0.10246 -0.500435 0.498101 -0.00355163 0.498725 0.499624 0.499973 -0.5 0.5 0.3 -0.1 0.0421261 
-0.2 0.5 0.2 0 -0.3 -0.3 0.1 0.1 -0.4 0.5 0.5 0 -0.40005 -0.20005 0.400002 0.100002 0.2 0 0.4 0 -0.5 -0.2 -0.3 -0.2 0.1 -0.2 0.5 0.5 0 -0.2 0.5 0 0.2 -0.399887 0.0959309 0.395946 -0.401156 0.398516 -0.109925 0.489872 0.0923169 -0.204515 0.393366 0.190015 0.0925068 0.393166 -0.000920803 0.0938883 0.292629 -0.00686391 -0.203344 0.399809 0 0.3 0 -0.5 -0.4 0.3 -0.000129177 0.199996 -0.400015 -7.68241e-06 0.0956454 -0.411436 0.484594 -0.114961 -0.524984 -0.127802 0.476011 0.472857 -0.521925 -0.220267 0.0744747 0.187661 -0.412849 -0.0150507 0.0745501 -0.320684 0.384806 -0.103278 -0.202164 -0.00105142 0 -0.2 -0.4 -0.1 4.86174e-05 -0.500271 -0.499805 0.198641 -0.505167 -0.205681 -0.00914492 -0.299289 0.415373 0.0147134 -0.342546 0.147625 0.0272248 -0.0309936 0.328277 -0.539852 -0.027684 -0.42347 0.474553 -0.542995 -0.0442786 -0.0304916 0.387464 -0.401414 -0.300405 0 0.1 -0.2 0.000178515 0.101496 0.105939 0.10833 0.105636 0.418476 0.503328 -0.183445 -0.0572698 -0.295676 -0.192211 -0.347392 0.226138 0.406891 -0.107185 0.442358 -0.100927 -0.414491 0.294514 -0.43446 -0.347877 0.252728 0.176031 0.493507 -0.501113 -0.0006844 0 -0.5 0.100284 -0.495131 -0.395397 0.0169807 -0.180248 0.313614 -0.21954 -0.017452 -0.1931 0.420747 0.183099 -0.338687 -0.0775883 0.267861 0.592651 0.125955 0.611212 -0.406452 -0.248901 0.147584 0.140857 0.240454 0.358239 0.18851 0.395205 0.29959 0.1 0.300023 -0.00177511 -0.0945822 -0.103138 -0.199631 -0.370617 -0.433988 0.237143 -0.0518025 0.524117 0.276448 -0.264935 0.184192 0.128522 0.34583 0.467598 0.0809168 -0.278307 -0.340204 0.211773 -0.305776 -0.473283 -0.394868 -0.113085 -0.0381832 -0.413312 -0.00692982 0.1 0.201769 -0.00120845 0.490346 -0.108708 -0.510373 -0.221205 0.382328 0.0103658 0.0651955 -0.0243004 -0.405395 0.18393 -0.292709 -0.242306 0.6256 0.187867 -0.110588 0.120402 0.321098 0.222967 -0.201263 -0.116783 -0.416889 -0.0820782 -0.0769688 -0.0283488 -0.207624 -0.300531 0.40152 -0.400473 -0.409795 -0.21939 -0.0560334 -0.250382 0.182156 -0.124166 0.310749 -0.459072 0.247817 -0.255011 -0.0696831 -0.122678 0.237349 0.465992 0.33227 0.0836659 -0.0765947 -0.276136 0.472002 -0.0772527 -0.333563 -0.130748 -0.106635 -0.431337 0.396587 -0.2 0.198048 -0.100257 0.389974 -0.2242 -0.0366788 -0.205603 0.182547 -0.565389 0.17047 -0.496533 -0.33247 -0.401075 -0.258864 -0.108044 0.211034 -0.00258431 0.585585 0.129496 -0.130944 -0.0648414 -0.475824 -0.363535 -0.187541 0.15089 0.20339 -0.512485 -0.197776 4.83157e-08 0.197902 0.398755 0.090614 -0.396929 0.353657 -0.620154 -0.267281 -0.027559 0.160467 -0.155179 -0.0417154 -0.649596 -0.685903 -0.462673 -0.405488 0.184307 0.257343 0.260132 0.593796 -0.344555 0.0760573 -0.0872412 0.2101 0.204696 -0.382544 -0.118602 -0.49506 -1.68404e-08 0.098601 0.299316 0.00148935 -0.29955 -0.245236 0.207444 -0.629126 -0.429267 0.0191344 -0.151783 -0.631895 -0.0795228 -0.434092 -0.129264 -0.272321 0.445234 -0.283205 0.290642 0.466851 0.39984 0.338647 0.310643 -0.320528 -0.150066 -0.44913 0.277448 -0.0993688 0.4 -0.200786 -0.0010605 0.00506238 -0.302997 0.423475 0.411619 -0.254871 0.0523 0.452672 -0.022726 -0.214345 -0.203431 0.0279313 -0.533781 -0.492756 0.418639 0.0797631 0.067585 -0.367177 0.215364 -0.291696 -0.155079 -0.607442 0.190169 0.0592996 -0.304166 -0.49967 -0.5 0.3 0.49753 0.206956 0.00884514 -0.0602681 -0.0209594 0.165865 -0.111312 0.0346181 0.0225039 -0.548936 -0.139195 0.253272 0.487884 -0.112508 0.302691 0.159698 0.59936 -0.269832 -0.175053 -0.482933 -0.0313954 -0.288854 0.00900443 0.463001 -0.499845 -0.0996252 0.3 0.00167962 -0.00272529 -0.485112 -0.362983 0.293594 0.00666749 0.0275865 0.398713 0.0200133 0.0984451 -0.418831 -0.230189 -0.591255 0.344564 0.181753 0.321476 0.421271 0.0682312 0.450643 -0.550393 -0.135744 -0.142606 -0.422544 -0.288091 0.467167 0.298604 -0.199997 3.41522e-06 0.00175065 -0.4935 0.117215 0.0591415 0.417834 0.183498 -0.427156 -0.370895 0.521746 -0.220172 0.382523 -0.239985 -0.25428 0.119828 -0.0819138 0.287637 0.218094 0.275513 0.438092 0.0818054 -0.317664 -0.134723 -0.534225 -0.411113 -0.250646 0.302943 0.50061 -0.0999966 -0.298067 -0.193905 0.419003 -0.213531 -0.480792 0.33824 0.188925 0.327378 0.115499 0.18058 0.0809619 -0.375957 0.272925 0.307149 -0.324613 0.535585 -0.255616 -0.046016 -0.270858 -0.103624 -0.564991 -0.443308 -0.235805 -0.0322513 -0.0329169 -0.0995741 0.500892 0 0.00193298 0.00675745 0.0164548 0.0940994 0.43888 -0.184879 0.410587 0.453883 0.0759576 0.0143469 -0.501263 0.0714531 -0.519671 -0.156352 -0.450219 -0.0633862 -0.357787 0.00508706 -0.00637014 -0.555945 -0.36132 -0.420673 0.0703503 -0.102446 -0.211857 -0.398789 -0.298521 0.400297 -0.0998177 0.00721026 0.0406679 0.412702 -0.0823651 0.255356 0.140596 -0.134859 -0.376084 -0.481717 -0.338182 -0.136201 0.0805784 -0.0819093 0.590789 -0.220548 0.152704 0.549975 -0.099228 -0.547064 -0.6897 -0.296945 0.411424 0.246939 0.108433 -0.492353 -0.199354 -0.4 -0.201561 -0.307177 0.132971 0.61998 -0.391727 0.335025 -0.643518 -0.166797 -0.0384052 0.0174777 0.0221393 -0.162493 0.445009 -0.350322 -0.0929782 -0.287097 -0.334576 -0.253021 0.25489 0.214686 0.372465 -0.176839 0.0447372 0.519454 -0.377886 -0.48542 -0.100442 0.1 0.497408 -0.00510281 0.430835 0.497031 0.0150501 -0.164361 0.10497 -0.0662561 -0.510823 0.142243 -0.266923 0.250592 0.0773253 0.0869783 0.0587763 0.245128 -0.321787 0.430374 -0.463795 0.367915 0.0597337 -0.0448735 -0.50313 0.0293837 -0.259146 0.514697 -0.4 -0.1 0.099479 -0.201285 -0.26929 0.400869 0.408456 -0.328462 0.0820131 -0.481562 0.207387 -0.234877 -0.00869245 0.018853 -0.420147 0.0860318 0.0404242 0.126338 -0.0204275 -0.491436 0.394747 0.466239 -0.318077 0.189461 0.0343412 -0.352312 0.22688 0.0181561 -0.1 0.4 -8.14154e-09 0.00302003 0.318409 0.261775 0.352388 0.0675708 -0.206927 -0.150746 0.438203 -0.0015691 0.276757 0.422184 0.117986 -0.466721 0.490556 -0.496822 -0.398761 -0.0636985 -0.469113 0.280995 -0.295329 0.218545 0.552865 0.0323387 -0.0710785 0.515479 -0.2 0.1 -0.5 0.303618 0.0974111 -0.437803 0.558647 -0.427609 -0.344655 -0.305111 0.594849 -0.269459 0.151746 0.198612 -0.222468 -0.44766 -0.154799 -0.320547 0.150164 -0.0519155 -0.530384 0.110359 0.288278 0.107493 -0.269072 -0.0706778 0.0191622 0.514707 0 -0.4 -0.4 0.200686 0.00399378 0.242153 0.0590447 -0.325475 0.0475144 0.00776109 0.0444842 0.495439 -0.218273 -0.224293 0.481289 -0.499021 -0.0558392 -0.102492 0.264957 0.184083 -0.298984 -0.464582 -0.00821358 -0.491136 -0.0934939 0.30983 -0.491307 -0.000871176 0 0.3 -0.3 -0.000396396 -0.300735 0.0172238 -0.0703408 0.257538 0.398023 0.0688313 -0.26416 -0.171799 0.324859 0.347036 0.344826 -0.0966129 -0.429279 -0.0616552 -0.496469 0.334691 -0.070098 -0.163803 -0.276515 0.510278 -0.403288 -0.206049 0.000143313 -0.100878 0.5 0.4 0.5 0.5 -0.294769 -0.293176 0.314037 0.327012 -0.259183 0.0588271 0.264653 -0.238495 0.150552 0.165087 -0.0136343 0.369217 0.05206 0.244661 -0.346808 -0.0682283 -0.379759 0.124448 -0.184818 -0.397347 -0.00210375 0.100076 -8.659e-12 -0.4 -0.3 0 0.5 0.4 -0.4 0.1 0.499678 0.102101 -0.397061 0.00407699 0.30411 -0.0941546 0.512936 0.413559 -0.478271 -0.178787 0.408127 -0.400305 0.502983 0.105201 -0.392301 0.304773 0.00381229 0.00202141 0.400012 0 0.4 -0.4 -0.2 0.451365 
-0.1 0 0 0 -0.3 -0.4 0 -0.5 0.3 -0.1 0 0 0.0991705 -0.00082955 -0.200268 -0.00026795 0.2 0 -0.1 0 0.5 -0.1 -0.2 0.2 0.4 -0.4 0.4 0.1 -0.4 -0.4 0.2 -0.2 0.1 0.499999 -0.000787984 0.399078 0.0972735 0.296778 -0.201984 -0.103394 -0.00803834 -0.511443 -0.508434 -0.00487952 -0.302905 -0.203638 -0.201551 0.098418 -0.300574 -0.400339 -0.300592 0.0995974 0.4 -0.1 0 -0.1 0 0.4 -6.67622e-07 0.5 -0.500163 1.42379e-05 -0.200841 0.296376 -0.500673 -0.00156536 0.497754 -0.0123434 0.478263 -0.526133 -0.216033 0.387967 -0.310459 0.494122 -0.310738 0.489406 0.197896 -0.20526 0.0963379 -0.102586 -0.00192155 0.00025355 -0.1 0.3 0 0.2 0.299997 0.0999254 0.49984 0.500178 0.303133 0.00498689 0.0138351 0.522412 -0.254311 0.064633 -0.248062 0.132783 -0.273727 0.122091 -0.125719 -0.104771 0.384164 -0.238992 -0.519216 -0.147453 0.174224 -0.517086 -0.00873675 0.500052 -0.000461506 -0.3 0.2 0.1 -0.398233 0.400585 0.0119598 -0.0906335 0.418446 -0.450593 0.150393 0.440639 -0.263459 0.316974 -0.378397 0.29457 -0.392518 0.275095 0.163555 0.0427658 0.14933 -0.458129 -0.0151743 -0.432812 -0.151051 -0.136344 0.479999 -0.30055 -0.502485 0.199615 0.4 -0.1 0.500489 0.204513 -0.3832 0.0295309 0.446828 0.523748 -0.298528 -0.240783 0.224767 -0.251753 0.325216 -0.144976 0.0743286 0.0150123 0.072322 -0.427469 -0.186623 -0.0677853 -0.0354252 0.0252467 -0.439665 -0.0724376 -0.0380559 0.191263 -0.107475 -0.500477 -0.2 -0.0989375 0.300597 -0.192293 0.0174056 0.137025 -0.267767 0.411539 -0.055326 0.452614 -0.241775 -0.370484 0.166016 -0.244024 0.0870559 -0.25962 -0.248246 -0.348199 -0.382597 -0.430779 -0.578686 -0.297564 -0.537876 -0.37205 -0.537481 0.170494 -0.506273 -0.00305999 0.1 -0.198487 -0.396382 -0.382374 0.442918 -0.218886 0.0453514 -0.00307812 0.175404 0.133791 -0.192707 0.220827 0.224975 -0.510336 -0.136204 -0.0788796 -0.500219 -0.332905 0.213005 -0.501924 -0.356187 0.335124 -0.557323 0.0577045 -0.424107 -0.00852082 0.396771 -0.00248874 0.100006 0.101082 0.204805 0.123266 0.145841 0.279387 0.0805015 0.554967 0.0635368 -0.356077 -0.18224 0.264236 -0.311645 0.348908 -0.141873 0.405852 0.328269 -0.0378754 -0.392975 0.612103 -0.140476 -0.498735 0.293969 0.327043 0.141765 0.513252 0.399259 0.0995601 -1.35097e-08 -0.499054 -0.496865 -0.372898 -0.154491 0.085598 -0.31121 -0.301361 -0.107168 -0.240088 0.371439 -0.11881 0.384915 -0.142201 -0.363326 0.625385 0.286381 0.0648774 0.277481 -0.254308 0.325475 0.593096 0.174088 0.200259 0.398321 0.0240696 -0.196092 0.499709 -0.5 0.200978 -0.197964 -0.277221 -0.166362 0.142769 0.276354 0.273579 0.249502 -0.0160188 0.12817 -0.0282873 -0.301524 0.205372 0.267268 0.47216 -0.119626 0.739461 0.483393 0.28426 0.477287 0.525056 0.554563 -0.0360184 -0.406191 0.319692 -0.199831 -0.200051 -0.5 0.000606329 -0.500079 0.216458 -0.178374 -0.0609122 0.45652 0.14308 0.264526 0.472702 0.302751 0.110773 0.188684 0.713608 -0.027748 0.627088 0.521376 -0.0895465 0.626332 0.563343 0.613152 0.341533 0.155531 0.52461 0.388822 0.214447 0.50078 0.500094 0.4 0.100071 0.401624 0.0115724 -0.374921 0.343387 0.263383 0.110217 -0.125089 0.0381331 0.118161 0.250316 0.418535 0.0533637 0.60601 0.288058 -0.281946 -0.394563 -0.123395 0.246435 -0.00300942 0.0874697 0.300821 0.612351 -0.0322392 -0.483544 0.00040345 0.499996 -0.5 0.299514 0.000158955 -0.0904925 -0.371724 -0.342051 0.354307 0.480185 -0.109969 0.235071 -0.269314 0.24526 0.411794 0.0677049 -0.155609 -0.0604315 0.594634 0.0185602 -0.0964412 0.074099 -0.544346 -0.254604 0.139475 0.58067 0.255026 0.109157 -0.00115629 -0.400344 -0.4 -0.0931784 0.207259 -0.385178 0.515309 0.0532925 -0.464499 -0.162544 0.207096 0.437323 -0.101635 -0.369735 0.626398 0.271284 -0.0123138 0.242714 0.152239 -0.401285 0.400769 0.108268 0.433534 0.444814 0.33169 0.439886 -0.150967 0.411117 0.0987102 -0.000344927 0.200013 0.30694 0.407299 0.221239 0.124729 0.451924 0.0454272 0.430242 0.00607134 0.27305 -0.141781 0.0705555 0.215927 0.118105 -0.243632 0.468177 -0.12551 -0.192118 -0.609195 -0.0933112 0.0281519 -0.336171 -0.272598 -0.0775199 -0.267093 0.406843 -0.102638 0.0999594 0.500013 -0.093074 0.00842888 0.0267075 -0.163034 -0.175447 -0.352879 0.539852 -0.512469 0.459209 -0.210045 0.230838 0.0172377 0.069971 0.0457266 0.271837 0.189222 -0.0549468 0.292859 0.232887 -0.0301068 -0.290456 0.509109 0.0151476 -0.279991 -0.405402 -0.104106 0.0999024 0.5 0.106967 -0.189154 -0.280973 0.51432 -0.215443 0.0190236 0.00852621 0.248028 -0.234788 0.074208 0.282358 0.280968 -0.387233 0.0749267 0.588599 -0.177442 0.388234 -0.173306 0.113803 -0.118624 0.221966 -0.08668 0.483062 0.401122 0.0959246 0.197046 0.400648 0.199997 0.300027 0.20701 0.512312 0.00641296 -0.0276973 -0.0369943 -0.0854949 -0.0617558 0.50235 -0.304019 0.0435061 0.383613 0.329973 -0.266407 -0.251773 -0.040957 0.521256 0.106954 0.570294 0.192668 -0.400485 -0.0299842 0.203313 -0.030633 -0.501992 -0.302722 0.300139 0.1 0.499943 -0.00178234 0.117959 -0.0335786 0.0209173 -0.0361844 0.251345 -0.0706264 -0.460437 0.442396 -0.237392 -0.112536 -0.142387 0.411876 -0.412302 0.328521 -0.185686 -0.193083 -0.256444 -0.131443 0.466219 0.225058 -0.531528 0.25356 0.193218 -0.404558 0.499264 0.1 -0.000163633 -0.40703 0.495895 -0.576807 0.187902 0.0293972 0.090458 -0.0122423 0.463846 -0.352561 0.310096 -0.136728 -0.135787 -0.0304682 -0.565609 0.0565657 -0.117897 -0.0395139 -0.446179 -0.396269 -0.47708 0.18767 -0.185446 -0.245471 0.484252 -0.00225704 -0.3 -0.5 -0.100109 0.404705 0.0948861 -0.276081 0.207532 0.209018 -0.359331 0.267182 -0.544832 -0.290949 0.22617 -0.405431 -0.0429247 -0.197505 -0.166883 0.316005 0.419667 -0.490658 0.049922 0.0987913 0.266765 0.151718 -0.10001 0.461509 -0.310323 0.197255 0.5 -0.4 0.2 -0.393008 -0.411065 -0.356745 -0.56491 -0.365586 -0.283233 -0.431231 0.329663 -0.113962 0.238984 0.021967 -0.0851763 -0.320333 0.0727889 -0.149151 -0.560431 -0.0687299 -0.0846518 -0.110429 -0.514567 -0.586221 -0.0626143 0.477629 0.0912907 -0.00128227 0.3 -0.1 0.1 0.201014 -0.104564 0.36732 0.273428 0.513723 0.25423 -0.195692 0.306273 -0.101274 -0.532272 -0.498977 0.318731 -0.251822 0.382051 -0.0455487 -0.424933 0.192679 -0.366341 -0.265039 0.335216 -0.247126 -0.339396 0.0858056 -0.00654139 -0.00140195 -0.1 -0.2 0.2 -0.299707 -0.491732 -0.202603 -0.405435 -0.407226 -0.492276 0.235146 -0.0258576 0.179234 -0.00692074 -0.0451465 0.174709 -0.00840603 -0.378677 -0.0283672 -0.480874 0.0159658 0.190458 0.0546453 -0.0230317 -0.30873 -0.209385 -0.00416553 0.298728 0.0996923 -0.2 -0.5 0.4 0.000271514 -0.101488 0.200233 0.503919 0.386261 -0.020194 -0.429235 0.0854267 -0.11981 -0.408806 -0.08832 -0.195092 0.20695 0.495431 0.0917025 0.479274 -0.324887 -0.308743 -0.0956058 0.302264 0.499479 -0.297864 -0.401107 0.299615 -0.500385 -0.1 0.3 0 -0.3 0.499978 0.200149 -0.300007 -0.200024 0.199763 -0.398963 -0.100759 0.194893 -0.108363 0.0941047 -0.00801811 -0.402062 -0.500228 0.00134486 0.195477 -0.404117 0.397812 0.297507 -0.0999527 -0.399893 -0.000298159 0.199999 4.03164e-13 0.5 0.5 0.2 -0.5 0.2 -0.5 0.1 0.299998 -0.200033 -0.100041 -0.500039 -2.79538e-05 -0.500028 0.500041 -0.401016 0.498999 -0.399875 0.200279 0.499539 -0.100319 -0.200308 0.299889 -0.399983 -0.399758 0.200235 -0.0999999 -0.3 -0.4 0.4 0.1 0.0765613 
-0.4 0.5 0.4 -0.3 0 0.2 0.5 0.5 0.3 -0.1 0.3 -0.2 -0.0996605 0.100339 1.76869e-06 1.76869e-06 0.5 -0.2 0.2 0.5 -0.4 -0.5 -0.4 0.5 -0.3 -0.1 0 0 -0.3 -0.2 0.1 0 0.4 -0.397244 0.10499 0.106474 -0.492679 0.404967 -0.197997 4.66283e-05 0.101547 0.401253 -0.497694 -0.00117484 -0.201392 -0.501539 -0.0998615 -0.299269 0.00162567 0.401586 -0.39907 -0.199944 -0.4 -0.5 0.1 -0.2 0.1 -0.5 -0.100001 -0.199973 -0.399947 -0.197206 0.405858 0.109715 0.00535094 -0.395755 0.303046 -0.494463 0.00389072 0.504798 -0.191916 0.107123 -0.495044 0.000617809 0.30226 0.204158 0.507438 0.40567 0.00234508 -0.0995518 0.500073 -0.199895 0.4 0.1 0.2 0.5 0.400002 0.200026 -0.399962 0.202901 0.10344 0.0108933 0.407657 0.211939 -0.0916792 -0.099633 0.0943367 0.00547993 -0.20107 -0.402468 0.195422 -0.503544 0.00171875 -0.194628 0.104819 0.20073 -0.000465123 0.100657 0.399422 -0.299821 0.500042 -0.4 0.5 -0.3 -3.56427e-05 -0.0998806 0.0991873 0.301666 -0.302219 -0.101242 -0.105981 0.498329 -0.400794 0.486538 -0.424042 -0.535481 -0.468802 -0.582825 -0.498863 -0.109021 -0.0811918 -0.175386 -0.454282 0.368087 -0.51899 -0.00649467 0.0999931 0.303851 0.401126 -0.300174 0.2 0.1 0.300192 0.097985 0.0966755 -0.0970585 -0.200017 -0.00353158 0.268093 -0.0295781 0.450003 0.0362519 -0.292201 0.126263 -0.676855 0.299379 -0.15311 -0.24667 -0.48665 0.115361 -0.0197372 0.181556 0.216009 -0.0373455 0.487011 0.0100661 -0.498914 -0.399959 0 -0.400008 -0.300022 0.505623 -0.500219 0.221751 0.507971 0.498006 0.00652889 0.165934 -0.487911 -0.541242 -0.384793 0.213345 0.0874522 0.400138 -0.436269 0.138135 -0.0990171 0.325509 -0.325875 0.126475 -0.0993763 -0.310636 0.0103149 -0.0157353 -0.10166 -0.0982578 -0.3 -0.0994566 0.0016801 -0.191424 -0.385172 -0.171448 0.159347 -0.169401 0.112985 0.483372 -0.287175 -0.405488 0.377309 0.195102 -0.00981576 -0.205395 -0.221594 0.350531 0.178701 -0.0382529 -0.419649 -0.0201548 -0.508937 0.0379253 -0.495931 -0.43287 -0.016001 0.0992145 0.198564 -0.396706 0.201836 0.518082 -0.389216 -0.237636 0.163665 -0.411789 -0.506236 -0.300341 -0.293015 0.393218 -0.220899 0.547397 0.745452 0.498893 -0.276455 0.238804 0.560816 0.471129 -0.240036 0.490423 -0.0172493 -0.0137827 -0.0618311 -0.435266 0.380881 0.299111 -0.5 0.503581 0.198627 0.317128 0.0105164 -0.430356 -0.050171 0.552559 -0.26379 0.247393 -0.0338818 0.307025 0.325958 -0.207699 0.486577 -0.0755194 0.520346 0.152172 -0.227204 0.521511 -0.414126 0.557599 0.088484 0.28824 -0.0575762 -0.519679 0.386278 -0.000529918 -1.55533e-09 0.201566 0.10141 -0.389695 0.00990169 -0.322899 -0.439133 -0.264779 0.0136202 0.409164 -0.363088 0.207677 0.607249 0.5669 0.0700296 0.649468 0.0944576 -0.0993299 0.539819 0.133521 -0.0770495 -0.063902 0.461828 0.351244 -0.453212 -0.217578 0.288755 -0.405118 0.1 -0.200146 0.307958 -0.380657 0.128891 0.428406 0.385864 -0.247 0.0789256 0.504918 0.0501004 -0.135836 0.263535 0.286203 -0.45566 -0.311171 0.0819798 0.60655 -0.405852 -0.449253 0.220341 0.00265695 -0.0628505 0.296222 -0.0143857 0.406316 -0.00435772 -0.104678 0.1 0.40175 -0.293059 0.316423 0.0488565 0.410622 0.0513818 0.0381174 0.580351 0.522465 -0.00501394 0.428555 -0.585436 -0.511775 0.0355244 -0.453632 0.197991 -0.424848 0.30315 0.272217 -0.332984 0.0854654 -0.248135 -0.0902627 -0.341018 0.0872613 0.394034 0.100572 -0.2 0.00148223 0.19972 0.0134601 0.334812 -0.403155 0.024594 0.240742 -0.214865 0.0407439 -0.102107 -0.524227 -0.022118 -0.147313 -0.052159 -0.198753 -0.290606 -0.232295 0.244977 0.074941 -0.0917513 -0.278589 0.278759 0.261778 -0.433757 -0.310428 0.205461 -0.000491796 -0.1 -1.05092e-06 -0.299108 -0.197939 -0.274772 0.396171 0.274357 0.096083 -0.12576 -0.423239 0.0533553 0.0746866 0.0384877 -0.170266 -0.546931 -0.282536 0.144687 0.0620665 -0.256767 0.056319 -0.14043 0.251387 -0.484995 -0.422276 0.167312 -0.105044 0.0998059 -0.000495148 0.100009 -0.3 0.39556 -0.409847 0.0235875 0.183998 0.193047 -0.445993 0.150341 0.436256 0.0355657 0.00236962 0.0664412 -0.0449742 -0.19207 0.0612687 -0.302876 -0.444726 0.531834 0.304701 -0.30435 0.499817 0.121848 0.173545 0.163105 0.288558 0.30022 -0.000252982 -0.199991 0.400001 0.0948104 0.388658 -0.379672 -0.507018 -0.489973 0.103962 -0.0634696 -0.0425703 0.541173 0.341486 -0.383051 -0.273074 -0.262023 -0.361767 -0.323061 0.134823 -0.496146 0.397229 -0.371035 0.413154 -0.309697 0.15001 0.0631768 -0.0205151 0.191389 -0.00268226 0.4 4.16314e-06 0.297729 0.496654 -0.292771 -0.378031 -0.475196 -0.268709 -0.275003 -0.343785 -0.0907317 0.353238 0.00815592 0.0908689 0.12813 -0.250842 0.371 0.103065 0.423917 -0.282402 -0.104478 -0.380786 0.326452 0.0595617 -0.350312 -0.0187394 -0.40008 0.397047 0.100591 -0.0999958 0.0961896 -0.0163599 0.281541 -0.0318544 0.422454 -0.221166 -0.184688 -0.13221 -0.0657424 -0.501885 -0.0829206 -0.429445 0.0979276 0.300728 0.149601 0.404502 -0.123844 -0.059114 -0.114866 -0.0863989 0.228258 -0.106567 0.172481 0.192048 0.298456 0.399051 0.3 0.20034 -0.501027 -0.113497 -0.327334 0.322812 -0.0823977 -0.429401 0.300011 -0.174634 -0.103071 -0.423267 -0.243384 0.295437 -0.330169 0.0746081 0.364562 -0.523932 -0.498363 -0.421687 0.384736 0.198975 -0.486364 0.285095 -0.206543 -0.499923 -0.000229511 0.499327 0.4 -0.299748 -0.300358 0.19772 -0.520612 -0.56207 0.322272 -0.578813 0.0541337 -0.311865 -0.601164 -0.351632 0.258762 0.0313507 0.0241839 0.479192 -0.54767 0.376745 -0.0382024 -0.024745 -0.181927 -0.00132873 0.00998345 -0.410121 0.00426729 0.204148 -0.302289 -0.1 -0.5 2.16617e-08 0.496867 -0.301709 -0.511293 -0.348388 -0.267037 -0.590783 -0.127077 -0.561637 -0.229533 -0.28556 0.0234337 -0.541327 0.0589111 -0.304503 0.262332 -0.0521682 -0.524447 -0.482816 -0.454175 0.386933 0.27712 -0.41358 0.00930686 -0.292017 0.197345 3.47241e-10 -0.4 0.5 0.297565 0.198185 -0.194135 0.182541 0.070206 -0.124611 0.0495527 -0.481584 -0.0160378 -0.472367 -0.37029 -0.201166 0.173067 0.0742968 -0.0521949 -0.0732832 -0.396931 -0.0827257 -0.354707 -0.1094 -0.223676 0.0836983 -0.494127 -0.0960013 -0.0025262 0.4 0.3 0.2 -0.00248507 -0.297196 -0.484653 0.0103301 0.49665 -0.29162 0.171751 0.231532 0.14311 -0.000141637 -0.37844 0.0134414 -0.00943304 0.0662659 0.144339 -0.147904 0.0862861 -0.561493 0.441243 0.174133 0.483477 -0.39192 -0.0906801 0.101236 -0.400015 0.3 0.2 -0.5 -0.297164 0.505673 -0.267714 0.532054 0.327986 -0.27105 0.283001 -0.459133 0.274836 -0.12763 0.377789 0.440897 -0.193206 -0.249102 -0.0172316 -0.441926 -0.0999648 -0.0673453 0.068552 -0.0982983 0.210338 0.508364 -0.496748 -0.501124 0.398462 0.1 -0.4 -0.1 0.199736 -0.0965567 0.0209439 0.528182 -0.06071 -0.255248 0.211476 0.409987 -0.33013 -0.107407 0.419776 0.31653 -0.0827125 -0.368531 0.0634686 0.623862 0.173102 0.220027 -0.459934 -0.143903 0.227643 0.00631523 -0.196079 -0.000753372 0.398237 0.2 0 0 0 -0.197858 -0.294521 -0.288288 0.0255006 0.526185 -0.255453 -0.236925 0.369441 -0.029728 -0.380598 0.00750202 -0.375978 0.348895 0.185958 -0.419821 0.0557284 -0.18029 0.445493 0.236488 0.420531 0.106798 -0.29988 0.3 0.3 0.1 -0.1 -0.2 -0.3 -0.3 -7.47483e-09 0.10012 0.105563 0.405924 -0.192728 -0.197015 0.306913 -0.286981 0.425133 -0.264979 -0.269909 0.0196342 -0.288852 -0.386594 0.210275 -0.191596 0.106723 0.00919404 0.407048 -0.294302 0 -0.2 -0.5 -0.1 -0.171817 
0.2 0.3 -0.3 0.4 -0.5 0.4 -0.4 -0.5 0.3 -0.5 0.5 -0.4 0.000378281 -0.299622 0.399245 -0.200755 0.3 -0.5 0.4 -0.3 -0.5 -0.4 -0.4 0 -0.1 -0.4 -0.3 0 -0.1 -0.3 -0.1 0.1 0.1 -0.10002 -0.195296 0.404707 0.202045 -0.297944 0.504411 -0.400286 0.504729 0.303636 0.00591646 0.298943 -0.300947 -0.403055 0.300269 -0.497623 0.208674 0.00807181 0.00681314 0.300114 0.5 0.5 0 -0.1 -0.1 0.5 8.403e-05 0.4 0.500469 0.400459 0.304612 -0.291896 0.508512 -0.29046 0.50679 0.204643 -0.20483 -0.50283 -0.000893525 0.499509 -0.304383 0.205902 -0.287909 0.328081 0.0443268 0.125185 0.122685 0.209291 -0.293998 -0.299999 0.1 -0.3 -0.3 -0.4 -0.0998156 -0.0994073 0.000859796 -0.401816 -0.206417 -0.0999121 0.492025 0.397133 -0.421727 0.333727 -0.41464 -0.306697 0.104928 -0.119816 -0.0610487 0.0564069 0.509752 0.0460251 -0.0123545 0.46083 -0.174468 0.405702 -0.00163493 0.399826 -0.0997361 0.2 0.1 0.1 0.200098 -0.502672 0.294683 0.389934 0.376059 -0.0300296 0.0675509 0.0633636 -0.257991 -0.369214 -0.117643 -0.544227 -0.324005 -0.0514336 -0.431641 0.161729 -0.517752 -0.0542479 0.186002 0.37121 0.520691 -0.369954 0.503788 -0.419601 0.297644 -0.0982925 -0.4 0 0.50006 -0.00632226 0.193122 -0.325893 -0.441355 -0.239251 0.450857 -0.271406 -0.100093 0.111207 -0.425994 0.106347 -0.121012 0.24311 0.111131 -0.500198 -0.562816 0.145888 -0.323619 -0.128799 0.0402859 0.417018 -0.0915832 0.492242 -0.392467 -0.497491 0.4 0.193876 -0.105959 0.284649 0.480346 0.246128 0.113397 -0.368435 0.306111 -0.00729027 -0.0812682 -0.64765 0.142476 -0.00845105 -0.195139 0.14658 -0.362358 -0.116254 0.019155 -0.00167161 0.202218 0.13776 -0.484568 0.498283 -0.22311 0.287374 -0.401878 0.302231 0.2 -0.0119442 -0.506313 -0.315321 0.353672 0.326293 -0.500603 0.0132036 -0.495194 -0.0913656 -0.262479 -0.346049 -0.486803 -0.306938 0.258667 -0.215871 -0.0936301 0.520192 -0.570563 0.437628 -0.427809 0.0217294 0.540205 0.328852 0.397014 -0.281725 -0.492292 0.50486 -0.100005 -0.308775 -0.303324 -0.232625 -0.551076 -0.291265 -0.208583 -0.294208 -0.309912 -0.163198 -0.649255 -0.187255 -0.148285 -0.426856 0.161727 0.239208 0.215892 0.300898 0.438418 0.342956 0.23795 -0.267751 -0.161304 0.01944 0.494896 0.433918 0.0186006 -0.293775 -0.2 0.299153 -0.00768005 0.16707 0.321841 -0.520901 -0.24583 0.3588 -0.409382 -0.546814 0.404907 -0.0253208 0.152199 0.153044 -0.0695487 -0.225745 0.047993 -0.474741 0.138963 0.0494346 -0.196415 -0.21672 -0.114979 -0.231499 0.176261 0.0233711 -0.189541 -0.0976621 -0.3 -0.200534 -0.507965 0.35956 -0.57595 0.392905 0.219786 -0.00369576 -0.378216 -0.319098 0.0596122 0.450607 -0.00648967 0.0579786 -0.252378 0.0774797 -0.00745676 -0.257008 -0.672447 -0.516699 -0.41042 -0.583615 -0.224301 -0.331371 0.345964 -0.392113 -0.103366 -0.104168 -4.59928e-08 0.498675 0.392313 -0.140425 -0.0760535 0.000602875 0.34698 -0.201344 0.472861 0.11337 0.454965 0.339598 0.754259 -0.276078 0.23346 0.0162325 0.209406 -0.423196 -0.626984 0.147012 -0.48354 -0.623164 -0.122999 0.265822 -0.555712 0.188939 -0.0134811 -0.00427543 -0.2 0.299307 -0.00399619 0.263593 -0.153973 0.13622 0.291991 -0.0661867 0.330931 -0.212904 -0.135734 0.260498 -0.22089 0.531999 -0.189073 0.220963 0.225679 -0.116224 0.383613 0.242222 -0.258323 -0.400504 0.166957 -0.590451 -0.178058 -0.432826 -0.423694 -0.401855 -0.5 -0.000931496 -0.102044 0.0737029 -0.426939 0.365533 -0.0234597 0.0841991 -0.253286 0.810359 0.728345 0.410334 0.321676 0.405501 0.528548 0.177471 0.399114 0.243922 0.16448 0.159093 -0.172365 -0.00767218 -0.577641 -0.49037 0.224901 -0.440056 0.179906 0.49783 0.2 -0.0006704 0.000706074 0.0777506 -0.51827 -0.135663 0.112593 -0.126256 0.345562 0.0506472 0.27028 -0.122314 -0.0812895 0.28226 0.278335 -0.0390032 0.561559 -0.25346 -0.357726 0.247146 0.357404 0.248734 -0.547922 -0.550129 -0.342367 0.390357 -0.103936 -0.30181 -0.100002 -0.400003 -0.204881 0.482222 -0.123045 0.0801979 -0.484515 -0.208652 0.630754 0.709137 0.165729 0.480698 0.532371 0.536053 -0.424587 -0.0318114 0.119246 -0.0609592 0.397125 0.123427 0.0665183 0.197036 -0.225492 -0.0625385 -0.14542 -0.410441 -0.00457445 0.300589 0.399998 -0.199843 0.391119 -0.318499 0.374343 -0.4134 -0.130768 0.0109137 0.0179156 0.16575 0.611758 0.185862 -0.172238 0.121317 -0.0203483 0.510506 -0.258972 -0.0765262 0.0309811 0.457672 0.0278205 -0.22529 -0.377497 0.0418033 -0.354207 -0.224971 -0.00917481 0.401565 -0.4 -0.199918 -0.506655 0.274937 0.0778328 0.186942 0.474383 -0.264 -0.289545 0.186025 -0.386193 0.525075 0.454038 0.559559 -0.309314 -0.451236 -0.337342 0.0394493 -0.067458 -0.341951 -0.418575 0.0676129 -0.399451 -0.470387 -0.0536686 0.183969 -0.401027 -0.298746 -0.50034 0.300085 0.0896674 0.273467 0.0736863 -0.140262 -0.330312 -0.518147 -0.426636 -0.297617 -0.188637 0.506662 -0.0141896 -0.382863 0.0217642 0.205671 0.415889 0.014963 0.445054 -0.450871 -0.437349 -0.288266 -0.2082 -0.0748727 -0.547115 0.181055 0.00100624 0.00449525 -0.1 0.00152658 -0.201194 0.475509 -0.0380886 -0.0691533 -0.276282 -0.0111235 -0.332926 0.203041 -0.499966 -0.213478 -0.427074 0.518646 0.441 -0.251849 -0.0810708 -0.459803 0.218425 0.194617 -0.142725 -0.225092 0.24879 -0.178 -0.0268072 -0.103479 0.201408 -0.397688 0.5 -0.398456 -0.397411 -0.0287448 0.172193 -0.580169 -0.558186 0.0974674 0.0512284 -0.209612 -0.415195 -0.153068 -0.26513 0.3281 -0.357864 0.340723 -0.0530051 -0.456521 -0.0301528 -0.175843 -0.089204 0.0506868 -0.150317 -0.358844 0.285891 0.0967205 0.298842 3.04231e-11 0.1 0.4 -0.204821 -0.221771 -0.532282 -0.064962 -0.379736 -0.10151 -0.0965245 -0.0890898 0.148936 -0.0204119 -0.00937767 0.100842 -0.170063 0.153119 0.136949 0.406654 0.0998188 -0.479266 -0.0992191 -0.504998 -0.60506 0.257715 -0.408142 -0.101052 -0.497469 0.3 -0.2 -0.1 -0.403736 -0.304494 0.289448 -0.141384 0.128168 0.428545 0.323451 -0.225022 -0.539568 -0.410244 -0.0197791 -0.338728 0.105253 -0.286277 0.0292516 0.0222178 0.543817 0.168545 0.189957 0.0331937 -0.064205 -0.0259822 0.494074 0.502189 0.307407 -0.5 -0.5 -0.1 0.193361 -0.210118 0.0828215 0.473338 -0.0400996 0.0865266 -0.43988 0.0536342 0.20419 -0.311346 -0.573209 -0.0376353 0.0324715 0.0889515 -0.441187 -0.29487 -0.352501 -0.174813 -0.202501 -0.199367 0.0764662 0.394487 -0.00183644 -0.0973659 -0.390952 0 -0.3 0.5 -0.00414042 0.393267 0.498862 -0.280531 -0.496625 -0.466606 -0.21859 -0.280183 -0.102317 -0.395627 0.338826 0.19654 -0.0778617 -0.524839 -0.507151 0.418892 0.335668 0.204158 0.400113 -0.376348 -0.280531 -0.200016 -0.204543 -0.500261 0.298819 0 -0.5 0 0.4 -0.0973993 0.403034 0.0133222 -0.169318 0.14382 0.111491 -0.49988 0.182071 0.00571197 -0.526206 -0.153716 0.186259 -0.497348 0.177343 -0.240375 0.505479 0.00248234 -0.0965692 0.0209011 0.218803 -0.395954 0.0973045 0.399311 -0.300716 0.4 0.3 0 0 0.201007 0.497003 0.499088 0.312036 -0.0865808 -0.366275 -0.268698 0.310315 -0.00153072 0.294773 -0.279713 -0.459806 0.140415 -0.486928 0.294386 0.00904378 -0.392615 -0.489555 0.0153689 0.101203 -0.299209 -0.100006 0.3 0 0.4 -0.1 -0.4 0.1 0.1 -5.75578e-10 0.499908 0.300255 -0.299752 0.298897 -0.100685 0.0989481 0.499038 0.290094 0.19071 -0.202402 0.401593 -0.502873 -0.00616947 -0.105785 -0.000807685 -0.00321756 -0.301782 -0.401949 0.2 0 -0.5 -0.1 0.5 0.604646 
