-0.1 -0.5 -0.1 -0.5 0 0 0 0.3 -0.1 0.3 0.3 0.1 0 -0.1 0.3 0.5 0.1 0 0.2 -0.1 0.1 -0.3 -0.2 0.4 -0.4 -0.4 -0.5 -0.2 -0.1 -0.2 0.5 -0.5 0.4 -0.2 -0.2 -0.1 -0.5 0 -0.2 0 -0.1 0.00178885 0.201789 -0.395668 -0.197457 0.502543 0.3 0.2 0.1 -0.5 -0.2 0.4 -0.1 0.4 0 -0.2 -0.1 -0.4 -0.4 0.4 0.2 0 -0.2 -0.5 0 0.5 0.1 4.2255e-05 0.400193 0.502049 -0.486046 0.222519 -0.273444 0.218946 -0.39707 -0.106099 0.296515 0 -0.5 -0.5 -0.4 -0.3 -0.5 -0.5 0 0.4 -0.2 -0.2 -0.3 -0.2 0.395568 0.195908 -0.404092 0.194769 -0.203956 0.394577 0.295428 -0.293442 0.326987 0.135652 -0.17258 0.426875 -0.0954443 -0.195359 0.396528 -0.403237 0.499837 -0.5 -0.3 -0.2 -0.5 0.3 0.5 0 0.4 0.3 -0.4 0.393258 -0.506402 0.09325 -0.307424 0.0963531 0.286683 0.0671454 0.0737562 -0.405099 -0.0979062 -0.102598 -0.399723 0.0826344 0.177189 -0.518373 0.27767 -0.302595 0.404461 0.31048 -0.199633 0 0 0 -0.3 0 0.1 0.300505 -0.199495 -0.40839 -0.00448443 -0.201601 -0.102685 -0.300487 -0.11077 0.166213 0.198861 0.479767 -0.0279828 -0.540529 -0.142532 0.43857 -0.467559 -0.436792 0.368264 -0.0066515 0.0168107 0.525589 -0.494432 0.204484 0 0.4 0.3 0.4 -0.1 -0.19891 -0.493821 -0.201387 -0.00812039 0.487754 0.297331 0.00723372 -0.0958755 -0.020822 0.498085 0.0974116 -0.218131 -0.313262 -0.104405 -0.450176 -0.346878 0.35483 -0.0363211 0.18506 0.013526 -0.27502 -0.0985903 -0.194328 0.1 0.5 0 0.2 -0.1 -0.406924 -0.303894 -0.398864 0.0868329 -0.0104623 -0.00105423 0.204 0.425424 0.000494415 -0.0111329 0.271944 -0.517596 0.407431 -0.437701 0.381131 0.467463 -0.519762 0.167536 -0.0189257 -0.488679 -0.493435 -0.0995442 -0.101397 0 0 0 0 -0.2 0.196892 -0.403975 -0.102301 -0.00564214 -0.0104707 0.287217 0.518771 0.522173 0.316555 -0.510176 0.182638 -0.0382022 -0.25258 0.216337 0.246925 -0.233647 -0.0366429 0.343654 -0.339456 0.489614 0.0094067 0.200963 0.198603 -0.4 0 0.4 -0.506355 0.201749 0.00691442 -0.495593 -0.405046 -0.0115645 -0.491476 -0.393893 -0.266059 0.204881 0.416397 0.193457 -0.433128 0.314814 -0.077266 0.24142 -0.0343432 -0.331146 0.358943 -0.158492 -0.0537082 0.356025 0.093144 0.49486 0.396733 -0.4 -0.4 0 0.293645 0.00174865 -0.0875174 0.506512 -0.294291 -0.00849449 0.383633 -0.285385 0.123638 -0.198486 0.130143 -0.272024 0.0635787 -0.331773 -0.0670981 -0.117562 -0.289553 -0.423257 0.081344 0.34571 -0.546084 0.248309 -0.31578 0.483735 -0.3 0.5 0.5 0 0 -0.1 0.20711 0.512016 0.192296 -0.212712 -0.520395 0.432802 0.0166191 -0.452751 0.556805 -0.0523104 0.113957 0.462513 0.248285 -0.10385 -0.451476 0.135644 -0.285963 0.468207 -0.144175 0.356034 -0.410774 -0.314532 0 -0.1 0.2 0 -0.4 -0.3 -0.0968237 0.208763 0.293931 -0.320157 0.115731 -0.0557119 -0.0275895 0.0802595 -0.342871 0.0497965 -0.198276 -0.307722 0.096211 -0.466581 0.548828 -0.230094 0.561322 0.173751 0.079677 -0.432287 -0.0268541 -0.215322 -0.3 0.3 -0.3 0 0.5 -0.2 0.503448 0.00807721 0.286721 -0.0162884 0.21757 0.146806 -0.416236 0.0699047 0.563573 0.5524 0.182248 0.305321 0.422502 0.266431 -0.210749 0.581394 0.466367 0.213374 0.0087209 0.00437127 0.179018 -0.115111 -1.43743e-05 0 0 -0.5 -0.4 -0.5 0.303448 -0.294567 0.095722 0.472709 0.439191 -0.439048 0.516732 -0.28426 0.496709 0.234331 -0.376376 0.0127364 0.456013 0.394121 0.612605 0.308719 0.600749 -0.359613 -0.468017 -0.482568 0.491782 -0.00788981 -0.198378 -0.100312 0.1 0.1 0 0.1 0.00380123 -0.191849 -0.311498 0.498213 -0.0604398 -0.309845 -0.386301 0.0281809 0.579605 -0.265417 -0.379082 0.415402 -0.36107 -0.0999904 0.0225606 0.197496 -0.437468 0.447577 0.051022 -0.47874 0.496206 -0.308242 0.401636 -0.000312207 0.3 -0.1 0.5 -0.3 0.100353 0.123137 0.194148 0.194192 -0.186881 0.166856 0.0887265 -0.0161502 0.0432659 0.511355 0.0258129 -0.284259 0.0490125 0.161809 0.0912716 -0.446848 -0.24743 0.127155 -0.473181 -0.208616 0.00202482 -0.224349 0.394539 -0.300312 -0.5 0.4 -0.5 -0.1 -0.298429 0.0124075 -0.309309 0.184521 0.0105863 0.111424 -0.469896 -0.275476 -0.290179 -0.49109 -0.483391 0.191576 0.212064 0.262928 -0.454209 -0.347548 -0.0863506 -0.399063 -0.0879331 -0.32369 -0.312933 -0.52931 -0.00832349 0 -0.5 -0.5 0.4 -0.1 0.401397 0.0033848 -0.420697 0.372838 -0.515116 -0.202971 0.0226628 -0.0238707 -0.309931 -0.322678 -0.520175 -0.112087 0.540153 0.51011 -0.253578 0.135442 -0.294729 -0.295779 -0.194226 -0.0236928 -0.013547 -0.0186604 0.0935851 0.1 0.3 -0.1 0.2 0.200454 -0.397173 -0.199704 0.474538 0.0651772 0.472253 0.27191 -0.0212845 0.0590145 0.280312 -0.52598 0.0655312 0.177217 0.290554 -0.20842 0.211843 0.292118 0.403112 0.194089 -0.416306 0.374411 -0.416907 -0.321226 0.0971375 0.3 0.5 0.2 0.2 0.000389807 0.400053 0.201292 0.366275 -0.446041 0.0751317 -0.454998 -0.156847 0.0420847 -0.520926 -0.0418273 -0.0425943 -0.124106 -0.124834 0.3008 -0.174628 -0.0977546 0.314861 -0.413472 -0.124044 -0.00738849 0.189142 -0.00440879 -0.19966 0 -0.1 0 -0.1 0.40039 -0.00198532 -0.199066 -0.0192077 -0.144961 -0.54231 -0.0746077 0.115399 0.340226 0.362953 0.47628 0.0786674 0.386844 0.161473 0.0814529 -0.0063589 -0.19149 0.402 0.0986203 0.383313 0.498641 -0.111677 0.496832 0.200286 -0.400724 0 0.3 0 0.000389807 0.197974 -0.395737 0.287544 -0.321104 -0.140949 0.312078 -0.478602 -0.0644278 -0.137198 -0.112291 0.0534268 0.05961 -0.252741 0.368484 0.385794 0.214952 0.228058 -0.184887 -0.401023 -0.413852 -0.506174 0.0980294 -0.4 -0.3 -0.3 0.1 0 0.1 0.497764 -0.202175 -0.400788 -0.308168 0.393887 -0.141584 0.243069 -0.34418 -0.0404585 -0.0434683 0.157839 -0.353873 -0.350797 -0.515928 0.304979 0.414464 0.121861 -0.277373 -0.394814 0.0955462 0.397244 -0.00231067 -0.2 -0.1 0 -0.4 0 -0.3 -0.00223565 0.397832 -0.00179654 0.392368 -0.118808 0.476673 -0.000586818 0.487255 0.0808278 -0.314517 -0.137813 -0.144171 -0.22194 -0.501562 -0.382184 0.334913 -0.168279 -0.478288 0.0993389 -0.099861 -0.100446 0.2 0.5 0.4 0.3 0.1 0.3 0.3 -0.5 0.4 -0.20145 -0.406577 -0.0146721 -0.392592 0.320778 0.529449 0.409178 -0.411232 -0.509779 -0.504966 -0.283367 0.52044 0.401825 -0.0880743 -0.0882199 0.310971 0.5 0 0.3 -0.2 0.3 -0.4 -0.2 -0.1 0.4 0.3 -0.3 0.3 -0.105651 0.493101 -0.206781 0.511193 0.115616 -0.196088 0.00212782 -0.0186305 -0.512611 -0.309627 -0.390414 0.107378 0.200718 0.497962 -0.29919 0.5 0.2 0.3 -0.4 0.5 -0.4 -0.4 0.1 0.4 0.1 -0.5 -0.1 -0.5 -0.304475 0.0950274 0.195027 0.0995027 -0.2 0 0.3 -0.5 -0.4 -0.1 -0.206914 -0.306914 -0.405143 0.50177 -0.0982298 0.5 -0.5 0.1 -0.2 0 0.3 0 0.5 -0.496263 
-0.1 0.4 -0.4 -0.2 0 -0.4 -0.4 -0.2 -0.1 0.4 -0.2 -0.3 -0.3 -0.3 -0.4 0.2 -0.1 0 -0.4 -0.3 0.2 -0.4 0 0.3 0 0 -0.5 0 0.4 0.3 -0.4 0 -0.5 0 0 0 0.1 0.3 0 0.1 0 0.197841 -0.302159 -0.00339354 0.198766 -0.101234 -0.5 -0.2 0 -0.4 0.3 0.5 0.4 0.2 0 0.3 -0.2 -0.4 -0.4 0.3 0.2 0.3 -0.4 0.2 0.5 0.1 0.4 0.2001 -0.000219016 -0.404051 0.091869 0.490617 -0.107319 -9.34964e-05 -0.19277 0.209319 0.00467488 -0.4 0.5 0.5 0 0.4 0.4 -0.4 0.4 0.2 0 0 0.4 0.3 0.00402632 -0.295685 -0.495685 -0.0958055 0.304194 0.30428 0.00611439 -0.502334 0.387286 -0.0124541 0.294877 -0.304115 0.308188 -0.19228 0.00574075 -0.298961 0.099949 0.5 0.5 -0.2 0.1 -0.1 0.3 0.2 -0.3 0 -0.4 -0.0959731 -0.295684 -0.391417 -0.392953 -0.29299 0.00857186 -0.102678 -0.216199 0.378791 -0.113416 -0.0995509 0.410425 -0.00386996 -0.0998481 0.412363 -0.486226 -0.188334 0.409277 0.508174 -0.495301 -0.2 -0.4 0.1 0.4 -0.1 -0.2 -0.00366853 0.0963315 0.208169 0.413329 0.111418 -0.188211 -0.38782 0.120923 -0.302266 0.375044 0.401363 0.21066 0.0372442 0.246567 0.329906 0.312085 -0.484601 0.513432 0.019 -0.506995 -0.307428 -0.205563 -0.410756 -0.2 -0.1 -0.5 -0.1 -0.2 0.496554 0.18744 -0.499231 -0.17624 0.123893 0.513187 -0.0878492 0.00447718 0.177706 0.483612 0.107617 0.304139 0.334825 -0.356614 0.219671 0.412757 0.129202 0.123478 0.511543 -0.410545 0.303316 -0.300758 -0.109587 -0.1 -0.1 -0.5 0.1 -0.1 0.395663 -0.0123394 0.299239 0.0215144 0.326691 -0.175992 -0.291917 0.495792 0.515319 -0.0796597 0.023397 0.0244457 0.424841 0.0309787 -0.494506 -0.0643458 -0.357647 -0.0402395 0.250729 0.413856 0.522387 -0.481189 0.318938 0.5 -0.3 0 0.1 0.4 -0.399356 -0.0029479 -0.402081 -0.387956 0.522082 0.233392 -0.195418 -0.283846 -0.399154 0.224526 -0.454499 -0.153575 0.549667 0.457097 -0.0849947 0.243359 -0.435646 -0.429439 -0.140047 -0.276844 -0.275693 0.314826 -0.281062 0.1 -0.1 0 0.200169 -0.000204141 -0.298903 -0.402214 0.305044 0.0238258 0.213864 -0.27221 0.407447 0.0277851 0.308304 -0.446661 0.154804 0.556254 0.529095 0.0455402 0.0435389 -0.456723 0.254787 0.0473316 0.048488 0.0310622 0.133102 -0.0755253 0.00988215 0 -0.2 -0.1 -0.199831 0.399796 -0.408097 0.10534 0.499186 0.213297 -0.497362 -0.291311 0.501074 -0.364249 -0.357805 -0.470966 -0.339468 0.0370615 0.21019 0.222464 0.0170054 0.423296 0.0311744 -0.0624676 0.351241 -0.288924 0.216644 0.417424 0.3 -0.1 0 0.1 -0.3 -0.1 -0.106028 -0.00703962 0.495484 0.197034 0.309622 -0.414846 0.279145 -0.381438 -0.164978 -0.0401965 -0.317586 0.135143 0.428243 0.51067 -0.178095 -0.0928818 -0.201223 -0.483903 0.321417 -0.00322519 0.107753 0.206597 0.3 0.4 -0.5 -0.5 0 0.4 0.492279 -0.214462 -0.225941 -0.00187475 -0.214875 0.476154 -0.4204 -0.304369 -0.455122 0.0518207 0.144862 0.417082 -0.102358 -0.194043 -0.288811 0.186106 0.176474 0.119234 0.498034 0.497864 -0.194003 0.407363 0.5 -0.3 0 -0.3 -0.3 -0.4 -0.00941355 -0.413951 -0.317671 0.380812 -0.0244743 -0.0171011 -0.125891 -0.202287 -0.362517 0.334546 -0.2878 -0.00799893 -0.0351713 -0.318058 0.170909 -0.116146 -0.0254961 -0.100356 0.194336 -0.103697 0.100707 -0.393761 0.300762 0 -0.5 -0.2 0 0 -0.109414 -0.11562 -0.231799 0.469039 -0.341283 -0.534515 -0.446636 0.354713 -0.392133 0.188649 -0.0405903 -0.0389039 -0.137743 0.1479 0.0521065 0.460724 0.282331 0.193794 0.00748044 -0.0104571 -0.207603 -0.101755 -0.396988 -0.197722 0.5 0.1 -0.2 -0.3 0.491684 -0.208713 0.480862 -0.145846 0.0571558 -0.567972 -0.260242 0.169861 -0.311864 -0.211765 -0.0342409 0.0599096 -0.138515 0.264667 -0.149494 0.257644 -0.314259 -0.485664 -0.000364287 -0.00117997 -0.505569 -0.400632 0.102249 -0.297722 -0.4 -0.2 -0.5 0.2 0.401097 -0.407175 0.0841809 -0.334923 0.0572688 0.154856 -0.53331 0.502487 0.392748 -0.20011 -0.415374 -0.0149787 -0.433986 -0.422927 0.448112 0.384764 -0.00383766 0.516578 -0.384141 0.2088 -0.103173 0.210047 0.302265 0.00227815 -0.1 -0.4 -0.2 -0.4 0.00114042 0.107764 -0.496556 -0.400188 -0.022188 0.387961 0.197737 0.489301 -0.0909136 -0.487975 0.486017 0.277709 0.274634 -0.32311 -0.234545 0.39999 0.00410939 -0.468963 -0.0764529 0.40388 0.00773937 -0.494463 0.102308 0.2 0.3 0 0.5 0 0.100632 0.00726423 -0.175564 0.426825 0.0189864 0.0102003 -0.303264 0.214795 -0.47079 -0.152502 -0.102824 0.0646918 0.465835 0.28809 -0.0981898 -0.273517 0.317687 -0.159807 -0.390729 0.406108 0.301901 0.298985 -0.399971 -0.2 0 0.1 -0.2 0.3 0.000360608 0.303839 0.0286797 0.0461143 0.0520041 0.573809 0.463294 0.0701114 0.375806 -0.0572158 -0.397863 -0.127524 -0.0222912 0.304738 0.126749 0.234698 -0.0650337 -0.0647772 -0.190865 0.207363 0.00243282 -0.397658 4.29837e-05 0.3 -0.3 0.1 -0.5 0.0999827 -0.0980644 0.00678099 0.0283409 0.145072 -0.339961 0.101139 0.202042 -0.303814 0.078759 0.25218 -0.180154 -0.425893 -0.512141 0.0211334 -0.379849 -0.16818 -0.0768604 0.337795 -0.0862434 0.502741 -0.495085 -0.095657 0.400289 0 -0.3 0 -0.4 0.399983 0.00176767 0.00288533 0.304845 -0.462148 0.150465 0.172085 0.482692 0.584516 0.483672 0.231998 0.298532 0.489155 0.287847 -0.479115 -0.177588 -0.171358 0.52438 -0.371254 0.416618 -0.199902 -0.0942376 0.0044667 -0.399563 -0.10005 0 0.3 -0.4 -1.72815e-05 -0.398328 0.00486902 0.102786 -0.389256 0.433742 0.164032 0.569662 -0.230291 0.559125 -0.268962 0.312923 -0.202776 -0.50314 -0.179339 -0.188652 0.114978 0.411386 -0.189155 0.0102938 0.300678 0.400604 0.00028963 -0.4 0.1 -0.5 0.5 0.5 0.1 0.301472 0.407907 -0.192231 -0.29286 0.226788 -0.0636326 -0.251214 -0.242442 -0.453906 0.25302 0.0198861 -0.49077 -0.0272936 0.0088025 -0.216072 -0.209964 0.294607 0.0976842 0.305956 -0.203573 -0.200131 0.400001 0.1 0.3 0.4 0.2 0.1 -0.3 -0.0985282 -0.499593 0.4977 -0.390612 0.327425 -0.384356 0.207536 -0.265521 -0.0818093 0.127567 0.199269 0.405621 0.00274177 0.1993 0.278294 -0.10412 -0.101056 0.301637 0.306476 -0.399909 0.399868 -0.4 -0.4 0.2 0 -0.3 0.3 0 0.4 0.4 -0.498964 -0.197259 0.215495 -0.182413 -0.385348 -0.38601 -0.399658 0.0016165 0.19045 0.490427 0.0900248 0.192593 0.101417 0.00632305 -0.0027644 0.494959 0 -0.2 0.3 -0.1 -0.2 0 0 0 0.4 -0.1 -0.5 -0.2 0.198007 0.208785 0.508764 -0.386686 -0.379675 -0.491813 -0.392364 0.507584 0.199126 -0.394258 0.198508 0.192124 0.495889 -0.394481 0.502276 0 0 0.5 -0.1 0 0.5 -0.5 -0.4 0.1 0 0 0.5 0 0.200451 0.00725133 0.00725133 0.4068 -0.1 -0.2 0.1 -0.4 0 0.5 0.00432797 0.00432797 0.501913 -0.00241451 0.497585 0 -0.5 0 0.5 0.3 0.1 -0.4 0 -0.307258 
-0.5 -0.1 -0.5 0.2 0 0.1 -0.5 0 0 0.3 -0.4 0.3 0.3 0.3 0.3 0.1 0.1 0.3 -0.2 -0.2 -0.4 -0.2 -0.3 -0.4 0.1 -0.1 0.5 0 -0.3 -0.3 0.3 0.4 -0.4 -0.2 -0.3 0.2 -0.3 0.4 -0.3 -0.3 0 0.500073 0.100073 -0.499914 1.24487e-05 0.200012 0 0.2 0.4 0.1 -0.4 -0.2 0.4 0.3 -0.5 0 0.2 -0.4 0.2 0 0.5 -0.2 -0.3 0.3 -0.1 -0.4 0 0.0993616 0.497468 0.19821 -0.00411033 0.194031 -0.0039744 0.495222 0.0930939 -0.102162 0.199381 -0.5 0.5 -0.3 0 0.2 0 -0.1 -0.2 0 0.3 0.3 -0.1 0.2 0.199162 -0.102354 0.397646 -0.00224756 -0.107609 0.391203 -0.01281 0.388103 0.090072 -0.212478 -0.011819 0.393177 -0.210201 -0.307665 -0.00449312 -0.000582575 0.201445 -0.4 0.3 -0.5 -0.3 -0.2 -0.1 0.5 -0.3 -0.2 -0.1 0.298792 -0.00272385 0.496956 0.496223 -0.208568 -0.206985 0.300707 0.303717 0.495274 0.393248 -0.111516 -0.407544 0.00343407 -0.400631 -0.0990445 0.101021 -0.0045052 -0.00242262 -0.501668 -0.100783 -0.2 -0.4 -0.5 -0.5 0 -0.4 -0.101152 0.398848 -0.10335 -0.203745 0.495158 0.195602 -0.118952 0.185343 -0.506021 -0.414981 -0.515387 0.393127 0.195219 0.504595 0.491097 -0.481322 0.116692 -0.00323902 0.288678 0.0956825 0.197111 -0.300721 0.400608 -0.3 -0.1 -0.3 0.2 0 0.298862 -0.404539 -0.205574 -0.310592 -0.117625 -0.216567 -0.0282548 -0.226958 0.176436 -0.239437 0.268254 -0.0228041 0.478826 -0.0163538 -0.0164852 0.100501 0.207272 -0.508841 0.383024 -0.015169 0.189311 0.192807 0.297508 0 -0.2 -0.4 0 0.1 -0.501224 -0.20462 -0.00914282 -0.113382 -0.0211502 0.383163 -0.52608 0.261041 -0.442457 -0.544298 -0.0283319 -0.111125 -0.201809 -0.207996 -0.122197 -0.0116236 0.292521 -0.324396 -0.0237821 -0.321107 -0.111452 0.189776 0.193552 -0.5 0 0 -0.4 -0.4 0.40076 0.0974114 -0.0079421 0.289901 0.081967 -0.323585 -0.228443 -0.443102 -0.537302 0.157303 -0.520009 0.00774221 0.0196189 -0.508539 0.386058 -0.00822093 -0.518981 -0.0348284 -0.0233623 -0.016249 -0.30642 -0.00573962 -0.00644835 0 -0.5 0.5 -0.20019 -0.099998 0.2008 0.19746 -0.108394 0.190277 -0.015844 -0.020723 0.369085 0.454933 -0.028476 -0.0211368 0.500374 0.0217803 0.130496 -0.294843 -0.0160163 0.0881442 -0.233411 -0.234326 -0.224633 -0.00949546 0.397221 0.0967494 -0.498569 0.4 0 -0.5 -0.40019 -0.399998 -0.00154682 -0.502129 -0.0028533 0.195232 -0.00882142 0.184329 -0.0155823 -0.032957 -0.0307146 -0.31956 0.0197082 0.224208 0.127508 0.205212 -0.112983 -0.0185864 0.472433 -0.12953 -0.0322582 -0.398799 0.500753 0.40035 0 0.1 0 -0.4 0.1 0.2 0.198275 0.296815 -0.00521795 -0.405067 0.288026 -0.312823 -0.407338 -0.132503 -0.529442 -0.0144836 -0.283127 -0.367775 -0.37552 0.504015 -0.218819 0.271483 -0.22635 0.0821905 -0.418224 -0.298649 -0.39902 0.200279 0.4 -0.3 -0.2 -0.1 -0.2 -0.3 -0.302721 0.397284 -0.203362 0.191759 -0.403782 -0.00416053 0.18975 -0.111538 0.481453 -0.211867 0.0237987 -0.462332 0.0290646 0.200192 -0.317805 -0.233765 0.478787 0.28063 0.390402 0.306005 -0.49912 -0.299708 0.4 -0.2 0 -0.5 0 0.5 -0.202376 -0.00287628 -0.403168 0.100659 0.399036 0.194871 -0.21069 -0.40541 -0.021557 -0.403604 0.441543 0.531565 -0.482747 0.390157 -0.0271154 -0.317412 0.0745706 -0.511578 -0.50419 0.302958 -0.299215 -0.399645 1.06965e-05 0.5 0.2 0 0.4 0.3 -0.0023759 -0.102524 -0.0997915 0.101771 0.296335 -0.100929 0.0771264 -0.423263 0.163181 -0.00106589 -0.077839 -0.479426 -0.487118 0.0767523 -0.234938 -0.417999 0.377508 0.487742 -0.406308 -0.296908 0.400485 -0.200357 -0.401275 0.19999 0.5 0.5 0.5 -0.5 0.297625 0.297395 -0.0999296 0.500064 0.189308 -0.111921 0.370511 -0.431756 0.162773 -0.493634 0.323269 -0.192597 0.489646 0.354927 -0.138308 -0.319969 -0.0209212 -0.112132 -0.106113 0.505733 -0.499773 -0.500415 -0.401285 0.0999902 0.1 -0.4 0.2 0.1 4.52454e-07 -0.502854 -0.104146 0.0979063 -0.114307 -0.0242835 0.270228 0.0587108 0.475515 0.00470012 -0.0818883 -0.286036 0.39475 -0.241982 -0.540797 -0.323537 0.0873304 0.290809 -0.00340037 -0.497716 0.100302 -0.00175866 0.0998883 0.0999902 0.3 -0.3 0 0.4 -0.299995 -0.000315297 -0.202238 -0.508951 -0.113837 0.0792697 -0.533593 0.47738 -0.118003 0.101645 -0.161459 0.117244 -0.114655 -0.550423 0.066569 -0.512419 -0.508062 -0.0131697 -0.40459 -0.00502115 -0.301763 -0.202375 -0.301604 0.2 0 0 0.2 -0.1 -0.399869 0.0997033 0.0919526 0.276357 0.282458 -0.424351 -0.429123 0.174998 -0.209648 -0.185485 -0.260837 0.0204457 -0.0278302 0.463131 -0.0403739 0.0702153 0.38094 -0.221483 -0.119529 -0.111777 -0.406912 -0.206698 0.398526 -0.2 0 0.1 -0.3 0.000131189 3.02841e-05 -0.101024 0.286948 0.279437 -0.316873 -0.41961 -0.328538 -0.228301 -0.114431 0.215905 -0.0641567 0.301108 -0.225421 -0.035319 -0.435324 0.184089 -0.523209 -0.314766 0.379857 0.0869454 -0.207769 -0.00314421 -0.301493 0.2 0.5 0.3 0 0.000144951 -0.200122 0.398984 -0.111577 -0.412671 0.177619 -0.527249 0.371635 -0.0239074 0.378883 0.299326 -0.0977994 -0.118709 0.174566 0.364472 0.168221 0.0724184 0.467554 0.074622 0.473348 -0.220836 -0.316183 -0.408177 -0.401516 0.5 0 0.3 -0.3 0.500145 -1.07237e-05 -0.000860098 0.391941 -0.215907 -0.514292 0.48544 0.0792976 0.182191 0.484068 0.104635 0.00320172 0.472097 0.367199 -0.0243279 -0.0259922 -0.333886 0.465831 -0.421953 0.285142 -0.515674 0.285409 -0.308137 0.298402 -0.49931 0.1 0.2 -0.3 -0.499855 -0.199845 -0.500625 0.298072 -0.505047 0.386964 -0.213295 -0.202203 0.395405 -0.303772 -0.1932 0.207099 -0.00948389 -0.31209 0.187733 0.179394 -0.429572 0.474929 -0.219085 0.386317 -0.0101849 -0.303009 -0.401886 -0.3 0.3 0.5 -0.4 0 0.2 -0.499999 -0.00142685 -0.401465 0.0959701 -0.505358 -0.30625 0.307844 -0.0864405 0.418222 -0.0950872 -0.404889 0.295916 -0.493308 -0.108385 -0.0100988 -0.515038 -0.0127496 -0.209839 0.297251 -0.102509 0.398648 -0.000369954 -0.5 -0.3 0.3 -0.1 -0.5 -0.4 6.8999e-07 -0.00147789 0.0985178 -0.101594 -0.204575 -0.301424 -0.392671 0.00535225 -0.396633 -0.0130374 -0.411367 0.287673 -0.515916 -0.406291 0.19417 0.492912 -0.0079836 0.295636 -0.100858 0.199032 -0.000982525 -0.1 0.1 -0.5 -0.4 0 0.2 0.5 -0.5 -0.1 -0.100058 -0.501036 -0.301222 0.196098 0.0947726 -0.00993206 -0.510708 0.287407 0.087462 -0.312886 -0.108607 0.49618 -0.404145 -0.0042505 -0.503836 2.50986e-05 0 0 0 -0.4 -0.3 0.4 -0.2 -0.3 0 -0.1 -0.5 0 -0.100268 0.198784 0.000509596 -0.00260541 0.49586 0.395333 -0.103856 0.394785 -0.403321 -0.00327888 -0.00152315 -0.0997006 -0.000121309 0.396811 -0.503861 0.4 -0.3 0 0 0.3 0.4 -0.1 0.1 0.1 0.4 -0.3 0.2 0.1 -0.000197216 -0.400518 0.0994825 -0.50032 0.5 -0.3 0.3 -0.2 0 -0.1 0.0998717 -0.000128292 0.0995897 -0.200282 0.099718 -0.1 0 -0.3 0.4 0.4 0.5 0.4 0.5 0.397447 
-0.1 -0.5 0 -0.1 -0.4 -0.1 -0.3 0.1 0 0.5 0.3 0.2 0.2 0.1 -0.2 -0.4 0.2 0.3 0.3 0.2 0.3 -0.3 0.2 0.2 0.1 -0.4 0.1 -0.4 -0.3 -0.4 0 0 -0.1 -0.1 0.5 0 0.3 0.5 -0.2 -0.5 0 -0.503807 0.196193 0.49565 0.499457 0.199457 0.3 0.5 0.3 0 0.2 0 -0.3 -0.2 0 -0.5 -0.4 0.3 -0.4 0.3 0.2 0 -0.5 -0.5 0.1 0 -0.5 -0.00131944 -0.00285046 0.293537 0.0865715 0.481818 0.0832444 0.28119 -0.312293 0.0907127 -0.103739 -0.1 0 0.4 0.4 0.5 -0.4 0.1 0.4 -0.3 0.1 0.4 0.3 -0.2 0.29999 -0.500001 0.499999 -1.03129e-06 -0.300587 0.0987641 -0.0063969 -0.109497 0.28098 0.465792 -0.32479 0.471819 -0.00742961 -0.108182 -0.00213078 -0.300894 -0.0998435 -0.3 0.3 -0.3 0.5 -0.4 0 0 -0.5 0 -0.1 0.198004 -0.501987 -0.101828 0.0981076 0.0931633 0.0989828 -0.403427 0.0104988 -0.107249 0.191598 -0.126126 0.365553 -0.144811 -0.0204379 0.489229 0.0034391 -0.0963255 -0.000783793 0.299281 -0.000577684 -0.5 0 -0.3 0.1 0.2 -0.2 0.201193 0.501193 -0.200307 0.295978 -0.104521 -0.403378 0.492966 -0.400273 0.195421 -0.309162 0.301026 -0.0875186 0.00239907 0.00181391 0.211268 0.202216 0.106608 0.318203 0.00668243 -0.0949936 -0.398966 -0.196273 -0.198006 0 -0.1 -0.3 0.5 0 -0.298842 -0.499118 -0.103324 0.492295 0.00935544 0.401078 0.301717 -0.514708 0.197845 -0.51066 -0.00726788 -0.425839 -0.509463 -0.22791 0.268865 0.514714 0.520315 0.113466 -0.191534 0.103362 0.500824 -0.392068 0.00271091 0.2 -0.5 0 -0.1 0.1 0.300411 -0.00223722 0.0957934 -0.29246 0.0211263 0.407515 0.308345 -0.08128 0.117335 -0.0219405 -0.145646 -0.0641613 -0.582321 0.137568 0.146327 -0.302546 -0.373209 0.0451579 0.141665 -0.0935289 -0.490996 -0.48788 0.202749 0 -0.4 -0.5 0 -0.2 -0.398786 -0.295649 0.407585 0.217571 -0.185018 0.534425 -0.290394 0.00589629 0.282755 -0.334263 -0.428285 -0.325327 0.180307 0.280126 0.10524 0.526104 -0.0500593 -0.3381 -0.241336 0.415706 0.0104108 -0.387486 -0.0972506 0.5 0.2 0 0.404782 -0.197672 0.302024 -0.0945889 0.107717 0.0277719 0.318472 0.426455 -0.195239 0.221351 0.39189 -0.304802 -0.309058 -0.00583193 -0.30646 0.305902 -0.48124 -0.283809 0.152068 0.47376 0.366005 0.339125 0.0154406 -0.288486 0.301113 0 -0.5 -0.5 0.404782 0.00232834 -0.0981753 -0.391387 0.526078 -0.167926 0.441005 -0.00744224 -0.0712487 -0.259317 -0.198616 -0.0248259 0.275502 0.302126 0.0355634 -0.00488524 0.274325 0.320326 0.0318733 -0.159134 0.0791742 0.354631 0.513731 -0.293695 0.5 -0.5 0 -0.3 -0.4 -0.1 0.10319 0.00304435 0.0315096 -0.470218 0.0500039 0.106492 0.0217519 0.280012 -0.529408 0.449751 0.48145 -0.197453 -0.21547 -0.459927 0.150668 -0.00988735 0.293668 0.544007 -0.461834 0.55554 -0.173601 0.419472 -0.2 0 -0.5 0.2 -0.3 0.2 -0.298364 -0.199064 0.227006 0.269429 -0.477745 0.0263182 0.285178 -0.256646 0.464964 0.448162 -0.522697 -0.56521 0.156233 -0.231804 0.00858087 -0.0397912 0.0767293 0.228805 -0.15767 0.342654 -0.256563 -0.375296 -0.1 0.3 0.2 0 -0.5 -0.1 -0.400188 -0.498965 -0.268047 -0.443548 0.527829 0.519102 0.179519 0.470019 0.358693 -0.575517 -0.601265 0.151635 -0.355819 -0.536703 -0.113704 0.142297 0.281781 0.524901 0.523622 -0.174876 -0.0538505 -0.273563 -0.199934 0.3 0.2 0.3 -0.2 0.5 0.199812 0.00459355 0.123189 0.345291 0.211907 0.00080132 0.0328764 0.198671 0.0786997 -0.126628 0.247244 -0.346662 0.0644673 -0.52329 0.198129 -0.570593 -0.22304 -0.396531 0.326738 0.0239067 0.140984 -0.378755 -0.299893 -0.499967 -0.5 -0.1 -0.5 0 -0.0022545 0.504238 0.345212 0.541424 -0.0866035 -0.121036 -0.445999 0.217401 0.205764 -0.205627 -0.137142 0.110266 -0.102711 -0.309897 -0.353828 0.146402 -0.407631 -0.279379 -0.393284 -0.465962 -0.362132 0.221207 4.04801e-05 -0.499967 -0.2 0 0.2 0.1 0.497933 0.498033 0.44029 -0.151463 -0.428952 -0.178657 -0.435807 -0.0657543 -0.47159 -0.286877 0.306294 -0.484137 -0.386748 0.243733 -0.0619158 -0.034276 -0.50154 0.0198459 -0.100787 0.423186 0.313615 -0.0908899 0.19391 -0.499967 0 -0.3 -0.4 0 -0.101576 -0.394996 -0.160953 0.447984 -0.33848 0.321091 -0.21299 -0.145087 0.372126 0.19327 -0.556093 -0.562597 -0.0533247 0.0242636 0.444272 -0.529482 -0.00558589 -0.505924 -0.197433 0.218192 0.0165145 -0.093765 -0.306079 0.1 -0.2 0 -0.2 0.3 0.000320783 0.0128532 0.127115 -0.151833 0.253913 0.125491 0.382351 -0.218808 0.0698841 -0.499782 0.25297 0.218047 -0.577172 0.20863 -0.231903 0.0756173 0.291775 -0.408631 0.19771 -0.186662 -0.485371 -0.487915 -0.505784 0.5 0.1 0 -0.1 -0.200191 -0.499855 0.00368631 -0.378352 0.0352197 -0.0675757 0.117852 0.0878355 0.485893 0.29787 0.277216 0.140962 -0.450779 0.318135 0.240486 -0.0423618 -0.429492 -0.0980677 -0.272457 -0.474586 -0.172854 0.514106 0.0140035 -0.0999892 -0.5 0 -0.5 0.2 -0.00453244 -0.00665054 -0.107558 0.518863 0.21709 0.129676 -0.263535 0.00876921 0.00997236 -0.197446 -0.219546 0.155947 0.249055 0.233458 0.245922 -0.231915 -0.104133 -0.282313 0.520917 0.427884 0.0199208 -0.187829 -0.101732 0.200009 0.4 0.1 0.2 -0.2 -0.404532 -0.206514 -0.407441 0.202865 -0.475166 0.021527 -0.460518 0.429051 0.0290782 -0.397062 -0.120718 0.0771386 -0.32997 0.376221 -0.0222004 0.11678 0.0280247 -0.259134 0.128113 -0.17483 -0.286036 0.411454 0.198245 0.20001 0.09998 0.2 -0.5 -0.4 -0.00453244 0.293668 0.0951656 0.000339313 -0.490721 -0.270826 0.0507446 -0.331026 -0.449969 0.0438709 0.012279 0.200022 0.200042 0.110538 0.00948624 -0.467008 0.0444954 -0.178908 -0.480299 0.0188324 -0.0899095 -0.201293 -0.101977 0.3 0 -0.4 0.5 0 -0.1 -0.101756 -0.508573 0.298434 -0.0985412 -0.375884 -0.261174 0.450387 0.342159 0.418497 0.402237 -0.0723627 0.0321953 0.0165653 -0.2061 -0.381084 0.0306833 -0.272288 -0.197228 -0.199117 -0.40013 -0.00121008 0.198014 0.4 0 0.2 0.1 -0.4 -0.1 -0.401756 -0.203571 -0.504414 0.413134 -0.368807 0.232992 0.00159763 0.124065 -0.0113411 -0.108213 -0.0655894 -0.469087 0.418225 -0.312017 0.00524299 0.309122 0.00382686 -0.000657146 -7.08407e-05 0.000740301 0.100776 0.2 -0.1 -0.5 -0.3 0.2 0 0.4 0.1 0.4 -0.398908 0.412886 0.52366 0.212882 -0.50182 0.496558 0.464879 0.49116 0.108034 0.302414 0.0809852 0.0784746 0.00210726 -0.301072 -0.298035 -6.39585e-05 0.5 -0.4 -0.1 0.4 0.1 0.2 0.2 -0.2 -0.2 0 -0.1 -0.2 -0.19809 -0.375494 0.22022 -0.387221 0.204516 0.0793904 -0.518289 -0.399638 0.104132 0.410202 -0.213608 0.48923 0.501952 -0.501149 -0.197971 -0.2 0.4 0 0.4 0.4 0.3 -0.3 0.3 0 0 0.4 0.4 -0.2 0.00139724 0.0149511 0.0149511 -0.186446 0.2 0 0.3 0 0.2 -0.4 -0.0942069 0.205793 -0.394303 0.0999037 0.499904 -0.2 -0.2 0.3 0.1 -0.2 0 0.5 0.3 -0.444093 
0.1 -0.1 0.3 -0.1 0.5 0 0.1 0.1 -0.1 0.1 0.4 -0.4 0.5 0 -0.3 -0.5 0 0 0 -0.3 -0.5 0.2 0.2 -0.3 0 0.2 0.3 0.4 0.3 -0.1 0.2 0.4 0.3 0.1 -0.3 -0.4 0.5 0.2 0 -0.1 0.1 -0.4 0.1 0.100007 0.500007 0.500007 -0.5 -0.3 0 -0.1 0 0 -0.2 0.2 0 -0.4 -0.2 0.2 -0.2 -0.4 0.3 -0.3 0.2 -0.2 0.4 0 0.1 0.499957 -0.200043 -0.498761 0.501251 -0.198414 -0.299421 0.100554 -0.299575 -0.299895 0.400003 -0.3 0.2 -0.5 0.1 -0.2 0.3 -0.5 0 0 -0.3 0.5 0 0.3 -0.500065 -0.300085 -0.200085 0.499914 0.199914 0.199892 -0.100974 0.300471 0.301232 0.0012875 -0.198963 0.498622 -0.402113 0.29755 0.396611 0.0994267 -0.100555 0.4 -0.1 -0.5 0 -0.4 -0.1 -0.2 0.5 0.2 0 -0.400065 0.0999146 -0.400106 -0.300132 -0.199788 -0.49989 0.0122865 0.120529 0.522612 -0.283687 -0.288071 0.0147003 -0.488441 -0.489457 -0.400217 -0.00273167 0.294179 -0.310093 -0.407585 -0.401524 0 -0.2 0.4 0 -0.1 0.5 0.492184 -0.107816 0.291398 0.399741 -0.501338 0.394711 0.393503 -0.109672 0.201012 -0.498268 0.506061 -0.493146 -0.0953127 -0.385973 -0.499129 -0.295232 0.49535 -0.1178 0.46837 -0.530172 -0.119148 -0.105979 -0.302462 -0.4 0 0 0 -0.4 -0.0076226 -0.111978 0.186638 0.397387 -0.504826 -0.109 -0.214643 -0.417803 -0.00779555 -0.0998527 -0.396756 -0.290805 0.00638673 -0.368423 -0.194343 -0.0985385 0.383859 -0.0312223 0.356147 -0.0441007 -0.0298879 -0.310929 -0.401401 -0.5 -0.2 0.2 -0.4 -0.2 0.391765 0.286666 0.0863097 0.0879645 -0.40536 -0.399425 -0.209018 0.484176 -0.117892 0.0078921 0.527811 -0.454452 -0.250795 -0.333506 -0.256793 0.42947 -0.498628 -0.423172 0.158358 -0.232944 0.195407 0.50029 0.00905764 0 -0.2 0.5 -0.1 0.5 0.192263 -0.416166 -0.216091 0.18478 -0.31445 0.29714 -0.515761 -0.212135 0.308479 -0.490837 -0.387855 -0.277208 0.366341 0.434603 0.535435 -0.368063 -0.386339 0.355941 -0.0377491 0.28081 0.29607 -0.0908693 0.409058 -0.2 0.3 -0.1 -0.200276 0.300193 -0.507614 -0.515903 0.174834 0.281824 -0.409158 -0.502642 -0.306469 -0.508451 0.209505 0.499423 0.209626 -0.38126 -0.0396607 0.42281 -0.380109 -0.0835301 -0.115384 0.247549 -0.239704 0.186262 -0.302796 0.211218 -0.0970217 -0.3 -0.1 0.5 -0.400276 0.000192837 -0.411968 0.383515 0.376425 -0.214158 -0.211597 -0.00397397 0.188123 -0.124874 -0.295273 -0.38994 0.406172 0.535458 0.450875 0.515504 0.209681 0.0958423 -0.0191414 0.451308 0.0611781 -0.51498 -0.406069 0.00235269 0.1 -0.2 0.3 0 -0.4 -0.3 -0.305046 -0.113887 0.480789 -0.207094 -0.114867 -0.41231 -0.0200332 -0.411692 -0.10003 0.107702 0.0923565 -0.3702 0.24151 0.415058 0.302461 -0.120388 -0.0293167 -0.353581 -0.227642 -0.506702 -0.503269 -0.3 -0.4 -0.2 0.1 0 -0.5 -0.3 -0.105064 -0.405091 -0.515358 -0.21081 -0.413626 -0.111783 0.184068 0.487727 -0.112961 -0.486278 0.0243588 -0.442392 0.552364 0.11978 -0.307122 0.165142 0.175463 0.0670223 -0.411381 -0.401388 -8.97048e-05 -0.5 -0.1 0 0.5 -0.2 0.5 -0.4 0.295615 -0.505167 0.481408 0.0722528 -0.207954 -0.00500465 0.184846 -0.101195 -0.00985608 0.11926 0.470704 0.472586 0.342683 0.00192578 0.194156 0.484893 -0.52305 -0.0306129 0.394642 -0.20322 -0.499748 0.500257 -0.5 0.2 0.4 0 -0.3 0.3 -0.504385 -0.104488 -0.511461 0.177257 0.289074 -0.0123241 -0.108674 0.198316 -0.304989 0.0421381 0.0577577 0.451007 0.0283987 0.393091 -0.513857 -0.2165 0.186599 0.278577 -0.201324 -0.302735 -0.00097413 -0.500995 -0.400023 -0.400023 -0.5 -0.5 0.1 0.3 -0.404254 -0.104128 -0.0110588 -0.526606 0.471605 0.0761957 -0.0113406 0.284673 0.0878906 0.330441 -0.16039 0.218288 -0.0954618 0.477627 -0.0445329 0.171848 0.462932 -0.0229897 -0.212392 -0.31233 0.39632 -0.00125189 0.199977 -2.29846e-05 0.4 -0.3 0.1 0.3 0.200131 -0.103651 0.0925037 -0.430831 -0.238091 0.171 -0.0300229 0.364455 0.198753 0.232294 0.0501878 0.328084 0.109901 -0.024345 -0.248985 -0.343424 0.369498 0.379216 0.48944 -0.309755 -0.50804 -0.402081 -0.500022 0.299977 0.5 -0.3 -0.5 0.3 -0.199884 -0.399311 -0.199477 -0.51884 -0.422151 0.267885 -0.530583 0.484899 0.496894 0.0118524 -0.236517 -0.460502 0.10294 0.26036 0.350574 0.0647925 0.0713743 -0.525415 0.290311 -0.107089 -0.105675 0.397437 0.199925 -0.2 -0.4 0.4 0.2 0 -0.300196 0.301142 -0.197858 -0.204583 -0.0146334 -0.426246 -0.423974 -0.0109145 -0.289422 -0.266891 -0.340627 0.224778 -0.393112 -0.332999 0.166605 -0.32004 0.486687 -0.312452 0.191247 -0.401648 0.0975809 0.199523 -0.500053 0.3 0.3 0.3 0.4 -0.30027 -0.200223 0.100585 -0.297544 -0.291886 -0.199132 0.290181 0.399182 -0.188376 -0.483917 0.0373849 0.353615 -0.38808 -0.00652392 -0.412352 0.187395 -0.306142 -0.51325 -0.204792 -0.209418 -0.201453 0.0975053 -0.0024951 -0.400053 0.4 -0.3 -0.5 0.4 -0.000383769 0.199016 -0.0998444 0.399076 0.499707 0.0980434 -0.509135 -0.188318 -0.48559 0.409773 -0.267192 0.232377 0.103061 -0.497428 0.0790373 -0.502106 -0.00647345 -0.00666848 -0.107837 -0.109779 -0.109843 -0.202021 0.398032 -0.500021 0.5 -0.5 0.1 -0.4 0.199616 -0.0010621 -0.501294 -0.304773 -0.403271 -0.208813 -0.00747139 0.00256003 -0.403581 -0.479435 -0.372807 0.313072 -0.501299 0.29129 -0.0103725 0.00118606 0.0954248 0.00101166 0.0963876 -0.508837 -0.409598 -0.301968 -0.301971 -0.201974 0.000333164 0.2 0.4 -0.3 0.399616 -0.000983816 0.498583 -0.00410303 0.289083 0.0893752 -0.107487 -0.00896654 0.00925265 -0.0888648 -0.0889116 -0.18958 -0.301332 -0.404502 0.00336673 0.00851678 0.402477 0.205503 -0.49668 -0.00473093 -0.508158 -0.400021 -0.300021 0.5 -0.4 0.4 -0.5 0 0 0.499402 0.198064 -0.302925 0.290659 -0.00808616 -0.407837 0.197722 0.305427 0.310036 0.00355963 0.190818 0.191482 0.0912204 -0.0835421 0.00606822 -0.186186 0.00461064 0.203036 -0.10522 0.39186 -0.5 -0.3 -0.3 0.1 0.2 -0.2 0.4 0.5 -0.300598 0.499319 0.199376 0.0972444 0.179291 0.284123 -0.00347002 -0.205672 -0.393002 -0.198904 -0.114395 -0.313611 0.182635 -0.398214 0.296302 -0.39291 -0.393822 -0.29279 0.299298 0.400193 0.4 -0.1 0.2 0.1 -0.5 0 -0.2 0.1 -0.5 -0.3 -0.0994633 -0.200015 -0.106967 -0.499076 0.499799 0.00712922 0.224454 0.00727387 -0.00421739 0.290328 -0.0944397 0.211831 0.402378 -0.0896446 -0.492529 0.404233 0.2 0.1 -0.5 0.3 -0.1 0.1 -0.2 -0.3 0.5 -0.5 -0.1 0.5 -0.0986032 0.394852 0.197509 -0.39555 0.504929 -0.282364 -0.0847569 -0.196765 0.105678 -0.498905 -0.391849 -0.294956 0.0046952 0.302151 -0.396762 0.2 0 0 0.1 -0.3 -0.2 0.2 0.5 0.2 0.1 0.1 -0.3 0.3 -0.100968 -0.00617013 -0.00617013 0.294798 0 0.5 0.1 0.3 0 -0.3 0.0966694 0.396669 -7.76498e-05 0.503253 0.00325298 -0.2 -0.5 0.5 0.2 0.4 0.4 0 -0.3 -0.0748407 
0 0.4 -0.2 0.5 0 -0.3 -0.4 0 -0.1 -0.3 0 0.2 0.1 0.2 -0.2 -0.1 0.5 0 0.3 -0.2 0.2 0.3 0.3 -0.4 -0.5 -0.4 -0.3 0.1 -0.1 -0.2 -0.4 -0.3 0.4 -0.4 -0.1 0.1 0 0.2 0.4 0.1 -0.3 0.00043846 -0.399562 -0.399455 -0.499894 0.000106395 -0.5 -0.5 -0.3 0 0.4 0.5 0.4 -0.4 0.5 -0.5 -0.3 -0.2 -0.5 0.4 0.2 0.3 -0.1 -0.2 0.4 0 0.4 0.300334 -0.0994186 -0.298721 -0.09623 0.00345028 0.406985 0.106948 0.00269962 -0.298269 0.497252 -0.1 0.2 -0.3 0.3 -0.1 0.3 0.1 -0.5 0 0.3 0.4 0 -0.3 0.200374 -0.397891 -0.397891 -0.396559 0.403745 -0.395606 -0.197009 -0.499309 0.105673 0.111311 -0.0882562 -0.0876473 0.504765 0.404466 -0.300593 0.501294 0.500396 -0.1 0 -0.1 0.4 -0.1 -0.1 -0.5 0.5 0.5 0.3 -0.299574 0.30216 -0.298498 0.106935 0.207879 0.306059 0.100707 -0.106346 0.310787 0.413552 0.498521 -0.321222 0.483371 -0.0144115 -0.491886 -0.00414149 0.111357 0.00182869 0.0992719 -0.196232 0.4 -0.4 -0.2 -0.4 -0.3 0.5 0.506265 -0.393735 0.203693 0.499479 -0.293058 0.00886731 0.20446 0.406477 0.515194 0.216734 -0.0539504 0.141282 -0.260916 -0.388506 -0.490368 0.102828 0.325598 0.210165 0.0169376 0.203198 0.504425 0.00615468 -7.18272e-05 -0.2 0.3 0.1 -0.2 0.4 -0.293726 0.0114377 0.309591 0.00297677 0.408354 -0.293449 0.110531 -0.179222 0.413097 -0.368581 0.02802 0.222317 -0.210157 -0.029085 -0.0160323 -0.222221 0.00599103 0.402854 0.0117855 -0.089336 0.401765 0.294848 -0.507106 -0.1 0 0 0.2 0.4 -0.193885 0.511389 -0.0874488 -0.490624 -0.197156 -0.200957 0.0220517 -0.485256 0.318966 0.492508 -0.51479 -0.419577 0.260738 0.138879 -0.544123 -0.0217589 -0.104025 0.206233 0.10403 -0.0115071 -0.525362 0.182249 -0.217871 -0.2 -0.1 0 0.4 0 -0.0946538 -0.288852 0.113338 -0.190019 0.100412 0.0846097 -0.395221 -0.200365 -0.512131 -0.0135518 -0.122875 0.47749 -0.0881755 -0.392572 -0.0856777 -0.258471 0.352635 -0.00956784 0.385523 -0.00622584 0.492815 -0.123374 -0.0178709 -0.4 0.4 0.5 -0.305463 0.199994 0.00480528 -0.287529 0.0140271 -0.388381 0.00536588 -0.497815 -0.289272 -0.525236 0.500634 0.0763291 -0.520611 -0.358612 -0.0843503 -0.577927 -0.538338 -0.205105 -0.4029 0.000247276 0.279992 0.291646 -0.498691 -0.0139133 -0.408334 -0.3 -0.3 -0.4 -0.00546277 0.199994 0.109759 -0.290077 0.411742 0.0172729 0.305914 0.51639 -0.0196701 0.481119 0.0818058 0.0528286 -0.322734 0.375541 -0.577695 -0.0292878 0.0145759 0.0136764 0.0192591 0.395539 0.0892663 0.476537 0.207575 -0.00130617 0.4 0 -0.2 -0.2 -0.2 0.2 -0.496066 0.111631 -0.0894138 0.305498 -0.00295395 -0.310833 -0.317327 0.403829 -0.208908 0.49117 0.016847 -0.0269365 0.47597 -0.407369 -0.468159 0.543457 0.115077 0.421012 0.201474 -0.113158 0.410944 0.197215 -0.1 0.4 0 0 -0.1 -0.5 0.00252558 0.00847504 -0.190864 -0.00917108 -0.0247633 0.0836842 0.49173 0.100139 -0.19503 -0.198568 -0.0951948 0.498335 -0.0829587 0.0238033 -0.16412 0.247607 0.105395 -0.00483256 0.00677854 -0.0193074 0.395616 -0.397241 -0.1 -0.4 0 0.5 -0.2 0.1 0.00273879 -0.191978 0.510739 0.29834 -0.530988 -0.441541 -0.312962 -0.108671 -0.00394602 0.0274555 0.310338 0.208928 0.0205516 -0.249268 0.441062 0.110253 0.30497 0.39992 -0.00574189 -0.405714 -0.403197 0.00359664 -0.0941288 -0.4 0.5 0.4 0 0.5 0.502739 0.00820012 -0.392123 0.493389 0.380203 0.092329 0.505345 0.0173335 0.53158 0.124656 0.0260057 0.518417 -0.345034 -0.428595 -0.0657342 0.307155 0.298722 0.385456 -0.405699 -0.114166 0.496782 0.203795 -0.294153 0.299927 -0.1 0.2 -0.2 -0.2 -0.201566 -0.199607 -0.10519 -0.0976109 0.114602 -0.363097 -0.475081 -0.243053 0.467872 0.564761 -0.138456 0.262858 -0.441584 0.0569249 -0.241032 0.425317 -0.302605 0.387157 -0.398059 0.0895424 -0.306535 -0.0970924 0.299976 0.499927 -0.4 0.4 -0.5 0 0.495695 -0.104833 -0.316435 0.202345 -0.404491 -0.170991 0.155298 -0.310313 0.55721 -0.441739 0.370754 0.563469 0.465272 -0.246178 -0.332186 -0.270277 0.375736 -0.114217 0.0909979 -0.515986 -0.39725 -0.40123 0.00110745 -7.33282e-05 -0.5 -0.5 0.5 0.4 -0.00590239 -0.317874 0.469875 0.159878 -0.116293 -0.067905 0.565746 0.484709 -0.0116114 0.593223 0.0614785 -0.441887 -0.344164 -0.0497497 -0.45016 0.229974 -0.514993 -0.415085 0.184905 0.39208 -0.204632 0.000152365 -0.197811 0 -0.2 -0.3 0 -0.3 0.394699 0.276395 -0.22754 0.454005 0.0787816 -0.361293 -0.434731 0.163845 0.0656252 -0.327355 0.331246 -0.0541413 -0.13993 -0.254327 -0.361113 0.314742 -0.0242226 -0.321983 -0.322903 0.29649 0.490635 -0.206713 -0.197935 -0.4 0.2 -0.4 -0.2 -0.200145 -0.00270271 -0.51509 0.263376 -0.435484 -0.237287 0.397468 -0.375698 -0.473995 0.526007 -0.0755711 -0.19728 -0.479362 0.0254511 -0.0764024 0.424657 -0.316462 -0.234581 0.473195 -0.311959 0.496879 -0.20875 -0.00468319 0.301082 0.2 0.5 -0.5 0.1 0.399604 -0.302928 -0.0206372 -0.126059 -0.237789 0.246831 0.465436 -0.0289114 0.377576 -0.0258623 -0.436407 -0.117542 -0.086657 0.204636 0.421611 -0.187088 -0.113023 -0.506443 -0.406947 0.202635 0.00247377 -0.107662 0.397375 0.00173468 -0.5 0.4 -0.5 -0.2 0.299604 -0.200396 0.183009 0.0856403 -0.53586 -0.0458529 0.149504 0.261675 -0.0317557 0.043726 0.235627 -0.510727 0.392873 -0.0958517 0.0109667 -0.0158879 0.489514 0.399728 -0.305354 -0.096907 0.100539 -0.404906 0.00227741 0.00182153 0.100026 0 0.5 0.2 -0.500396 0.39957 0.384156 0.185566 -0.105836 -0.0251716 0.0606133 -0.471379 0.418459 -0.379256 -0.0520586 0.0683046 0.0883873 -0.189572 0.304098 -0.501906 -0.51103 0.302034 -0.18919 -0.387777 -0.0932471 0.502078 0.201786 0.2 -0.3 -0.4 -0.5 -0.1 -0.4 0.300164 0.499657 -0.310563 0.290802 0.287371 -0.123336 -0.360966 0.231082 0.344312 -0.438131 0.403938 -0.29541 0.33172 -0.298618 2.1253e-05 0.00321137 0.0131387 -0.395961 -0.289882 -0.0926477 0.100044 0.500052 0.2 -0.2 0 -0.2 -0.2 -0.3 -0.399836 0.00142299 0.495125 0.189297 -0.199349 0.00160921 -0.0101135 -0.405839 -0.112095 -0.105703 -0.400366 -0.0978108 -0.193469 -0.402374 -0.392482 0.00262106 -0.396481 0.101433 -0.296443 9.77963e-07 -7.68891e-06 0 0.5 0.3 0 0.5 0.3 0.5 0.1 -0.1 0.0948291 -0.311962 -0.41086 0.0801932 -0.417851 -0.416238 0.365393 0.179844 -0.508455 -0.405093 -0.500237 -0.508621 0.192282 -0.408195 -0.402958 -0.500178 -0.3 0.5 -0.3 0 -0.1 0.3 -0.4 -0.3 -0.2 -0.4 -0.2 0.3 0.0899394 0.387442 -0.513288 -0.313594 0.391586 0.0892912 -0.210826 -0.00575541 -0.105556 -0.50534 -0.00329023 0.098481 0.497631 0.297167 -0.20278 0.4 -0.2 0.4 0.3 -0.2 -0.1 0.4 -0.1 0.5 -0.3 0.1 -0.4 0.1 -0.40389 0.194301 0.494301 0.0981909 -0.4 0.5 0.1 0.5 -0.2 0.2 -0.40004 -0.40004 0.299049 -0.100911 -0.400911 -0.2 0.1 -0.3 0.1 0.2 0 0 0.5 -0.105679 
-0.5 -0.1 0.5 -0.2 0.3 -0.2 -0.4 0.1 0.5 0.2 -0.5 0.1 -0.4 -0.5 -0.2 0.1 0.2 0 -0.5 0.1 0.3 -0.5 0.4 0 -0.3 0.2 0.3 0 -0.4 0 -0.4 -0.5 0.3 -0.5 -0.5 0.5 0 -0.2 0.4 0.3 -0.5 6.30123e-06 0.300006 0.500005 0.299998 -0.100002 -0.1 0.1 0.3 0.3 0.5 0 -0.4 -0.5 0.5 0.3 0.2 -0.4 0.1 -0.2 -0.1 -0.4 0.1 0.2 0.2 0.2 -0.5 0.196329 -0.103728 -0.103043 -0.00309898 0.299311 0.00537559 0.00504767 -0.297226 0.199729 0.300046 -0.2 0.3 -0.4 -0.1 0.3 0.5 -0.1 0.5 0.1 -0.4 -0.3 0.5 0.4 0.399478 0.297892 0.497892 -0.201786 0.197837 -0.404327 -0.309122 -0.106395 0.394807 0.29836 0.00494315 0.408754 -0.0958113 0.0973699 0.198434 -0.500788 0.40006 0.2 -0.5 0 0.2 0.1 -0.3 -0.4 -0.1 -0.5 0.1 -0.500497 -0.502082 0.498223 -0.403828 0.194493 -0.00672448 0.0919124 0.0920795 -0.409316 -0.296475 -0.279443 0.0255235 -0.182996 0.414151 -0.000502363 -0.403952 -0.406207 0.0935511 0.294161 -1.88231e-06 -0.3 -0.2 -0.3 -0.2 -0.3 0.2 0.39693 -0.30307 0.0860906 -0.316034 -0.21896 0.375884 -0.0393036 -0.122661 -0.324171 -0.113504 -0.00713767 -0.260347 -0.148884 0.0584968 -0.360047 -0.0676652 0.412162 0.0878734 -0.115494 -0.0131707 -0.0130724 0.099015 0.298992 0 0.3 -0.5 0.4 0.5 0.396304 0.392815 0.0765825 -0.13399 -0.0365635 0.149062 -0.254823 0.250421 -0.240996 0.493461 0.0117175 -0.354902 0.0518834 -0.349136 0.153175 -0.471365 0.508727 -0.221546 0.373273 -0.118538 0.0870383 -0.00262826 0.0976939 -0.3 0 0.1 0.4 -0.4 0.193301 0.0848556 -0.431088 0.456373 -0.55524 -0.0506109 -0.352433 -0.0548794 -0.324917 0.51299 0.53443 0.445418 -0.146854 0.0476753 0.0248426 0.120444 0.108098 0.282279 -0.234851 -0.0230621 -0.11354 -0.00820805 -0.0061713 0.5 -0.4 0.1 0.4 -0.1 -0.206883 -0.32357 0.371098 -0.0424185 -0.254044 0.157875 0.250232 0.29739 0.530365 0.0299967 -0.158932 0.443802 -0.168154 -0.294245 -0.305337 -0.00317687 -0.190612 -0.420306 0.171588 0.477651 0.392089 -0.107995 -0.306171 0.3 0.4 0.5 -0.202479 8.01223e-05 0.496654 -0.318609 0.261226 -0.336629 -0.126515 -0.325599 -0.198422 0.321836 0.529696 0.420562 -0.263787 -0.302475 -0.0962328 -0.432445 -0.227994 0.00936337 -0.281782 -0.51226 -0.518781 -0.219277 -0.00262265 0.49449 -0.000484099 0.5 0.1 -0.1 -0.00247854 0.10008 0.496067 0.278654 0.379889 -0.309806 0.295446 -0.489198 0.406592 -0.382231 0.518295 -0.464865 0.530399 0.423916 0.311422 0.00217869 -0.0928581 0.310729 -0.382197 -0.500204 -0.0140351 -0.00114129 -0.291448 -0.292219 -0.5 -0.4 0 -0.2 0.5 0.4 0.295247 -0.312396 -0.318319 -0.394389 0.000762254 -0.48021 0.31226 0.220148 -0.268967 -0.364812 0.311299 0.520773 -0.287432 -0.0780414 0.384033 0.0132152 -0.27388 0.0016147 0.0980617 0.505195 -0.489027 0.307056 -0.4 -0.4 0.1 0.2 0.3 -0.5 0.295331 -0.306182 -0.491534 -0.199035 0.335793 -0.153581 0.552505 -0.45705 -0.0813594 -0.175046 0.0356819 0.0549097 -0.131788 0.12307 -0.414973 0.00437601 -0.192717 -0.198713 -0.393802 0.107297 0.307165 0.00763267 0 0.4 -0.1 0.5 0 -0.5 0.199333 0.192549 0.505659 0.495829 -0.461576 0.0351325 -0.0567143 -0.446664 0.00911809 0.0113685 0.468066 0.0717278 -0.345388 -0.187165 0.0760884 -0.0147802 -0.00216045 0.110501 -0.38215 0.516547 -0.489462 -0.0915977 0.300232 0.3 -0.4 -0.2 0.5 0.5 -0.300667 0.297412 0.104852 0.302811 -0.358325 0.552392 -0.133438 0.260803 -0.266331 0.0482064 0.265233 -0.128972 0.123656 0.302312 0.171854 -0.0189722 -0.204822 0.015505 0.520653 -0.0747394 0.0103755 0.309285 0.399939 -0.400308 0.1 0.2 -0.5 0.1 0.39718 0.293715 0.302783 -0.396129 -0.382651 0.536031 0.571803 -0.34473 -0.278235 -0.173649 0.454731 0.402577 -0.191849 0.37342 -0.147294 0.369462 -0.232042 -0.397169 -0.379935 0.315349 0.00692003 0.209286 -0.500293 0.299692 -0.3 -0.3 0.3 -0.3 -0.302154 0.194666 0.0028822 0.211054 0.513808 0.430038 -0.157313 -0.176439 0.530137 0.342394 -0.0531603 0.00825713 0.298174 -0.233882 0.143916 0.0742291 -0.416915 0.213753 0.219602 0.207805 0.20873 0.309235 0.4998 -0.200308 0 0 -0.4 0.3 -0.103519 -0.00652014 -0.398253 -0.400946 0.314778 0.240454 0.224536 0.445551 0.122068 -0.363944 0.54824 0.134023 -0.00103641 -0.435325 0.475219 -0.311639 0.483474 -0.492118 -0.281305 0.0993974 0.200796 -0.200528 -0.401601 0.5 0 0.3 -0.4 0 0.397678 -0.00700192 0.2965 -0.00298679 -0.484565 0.220893 0.218981 0.115504 0.317728 -0.481223 0.0298267 -0.359375 0.522645 0.105477 -0.316667 -0.021737 -0.299753 0.303734 0.207805 0.499769 0.198841 0.198323 0.198728 -0.4 -0.5 0.3 -0.1 -0.300265 0.297872 0.489684 0.294687 -0.202584 0.203834 -0.373613 0.109091 0.398612 -0.221924 -0.470515 0.245751 0.137932 0.0418017 0.216578 -0.00867407 -0.310169 -0.11515 0.396242 0.190757 0.198107 0.0967549 -0.401314 -0.101401 -0.2 -0.2 0.5 0.2 0.197398 0.0903363 0.480649 -0.223112 0.175268 -0.0128336 0.409363 0.405313 0.374335 0.0680091 -0.478128 0.424014 -0.048459 0.142736 -0.00516646 -0.315269 0.282215 0.282663 0.0783293 -0.218897 -0.411345 -0.210014 0.292892 0.298414 0.2 0.3 -0.3 -0.1 0.297398 0.290848 -0.224867 0.175667 -0.0178488 -0.0132954 -0.195812 0.186279 0.0696721 0.507892 -0.0599823 0.543282 -0.365157 0.0926463 -0.522418 0.367743 -0.0295705 -0.32503 0.0621603 -0.427391 -0.212638 0.392267 0.192574 0.49833 0.300688 0.1 0.4 0.3 -0.00260222 0.193748 -0.422546 0.474941 -0.107795 0.488952 -0.00775379 -0.129686 0.270086 -0.113179 0.327315 0.245138 0.0232486 -0.00805987 0.284991 0.384721 -0.211651 -0.0190242 -0.219085 -0.421452 -0.513246 -0.303798 -0.30156 0 0.3 -0.2 -0.1 0.5 -0.1 0.2963 0.183541 -0.122432 0.378218 -0.310038 0.379178 -0.0295089 0.0956616 -0.0819045 0.0424761 -0.342818 -0.379193 -0.0049642 -0.515132 0.382913 -0.406193 -0.517638 0.487252 -0.208686 -0.00507556 0.297864 -0.499974 -0.1 0.3 0.4 0 -0.2 0.2 -0.00370026 -0.106581 0.189927 -0.211736 0.274577 -0.134863 -0.214911 -0.310539 -0.178699 -0.479279 -0.290823 0.204066 0.298273 0.0849442 -0.208299 -0.393881 0.397732 -0.3004 -0.00928394 -0.102788 -0.402162 0.5 0.5 0.1 0.5 0.3 0 -0.1 -0.5 0.3 0.49981 -0.403295 -0.515965 -0.42159 -0.215057 -0.30902 0.112764 0.00880764 -0.011021 0.483202 0.403595 0.101988 -0.00569723 0.404345 -0.389541 -0.293606 -0.3 0.4 0.5 -0.1 0.4 0 0 -0.3 -0.1 0.5 -0.4 0.2 0.200265 -0.0138598 0.189893 -0.109796 -0.111345 -0.291338 0.00653962 -0.30594 -0.299395 -0.309063 0.00480253 0.100748 -0.000841874 0.500025 0.00406494 -0.5 0 0 0 0 0 0.1 -0.1 0.4 0.3 -0.2 0.3 -0.3 -0.301276 0.48725 -0.0127499 0.488526 0.1 -0.1 0.4 0 -0.2 -0.2 -0.304363 0.0956374 0.300022 0.204384 0.504384 0.3 0 0.4 0.5 0.5 0.5 0 0 0.126939 
0.5 -0.1 0.1 -0.1 0.1 -0.2 0.3 -0.5 0.5 0 0 -0.3 0 -0.1 0 0.1 -0.1 0.2 0.3 -0.4 0.4 0.1 0.1 0.2 -0.4 0.1 0 0 0.4 -0.2 0.2 -0.1 -0.2 -0.2 -0.2 0.2 -0.5 -0.1 0.1 -0.5 0.1 -0.00512634 -0.105126 0.489806 -0.00506801 0.494932 0.3 -0.1 0 -0.3 -0.2 -0.2 -0.4 -0.3 -0.4 -0.1 0 0.5 -0.4 0.3 0.4 0.2 0.5 0.3 0.3 0.5 -0.5 -0.193774 -0.192376 0.499758 0.487499 0.0837349 -0.427014 -0.0245628 -0.306917 -0.303425 -0.203647 0.1 -0.2 -0.3 -0.5 0.3 -0.1 -0.2 -0.1 -0.5 0 -0.1 0.1 0.3 0.101998 -0.396724 -0.0967243 -0.096393 0.00446453 0.40573 0.314434 -0.488819 0.489451 -0.411911 0.478643 -0.323456 -0.40206 0.510779 0.210072 -0.18378 0.401831 0.5 -0.4 0.4 0.1 0.2 0.2 0 -0.5 0.3 0 0.503151 0.104429 0.00507036 -0.0910652 -0.288088 -0.0777621 0.027366 -0.0629841 0.0366536 0.126305 0.412936 -0.190223 0.0175282 -0.474999 -0.0789194 -0.174712 0.0331211 -0.18287 0.197376 0.101174 0.1 -0.5 0 0.4 0.1 -0.1 -0.399232 0.000768077 0.0061073 0.00240621 -0.294689 0.31441 -0.0585787 -0.359022 -0.257074 -0.45462 0.0446932 0.332103 -0.245262 -0.243495 0.567683 0.559221 -0.0516072 0.0375396 -0.3654 0.420705 0.00321441 -0.298915 -0.0993354 -0.2 0.2 0.5 -0.4 0 2.97303e-06 -0.0918848 -0.193126 0.0103882 -0.487558 0.332129 -0.35222 -0.160961 0.138601 -0.482338 0.428419 0.226533 0.0345076 0.225607 0.0662164 0.255525 0.151894 -0.262107 -0.35803 0.309091 -0.00771579 -0.00807627 -0.307532 -0.1 0 -0.4 -0.5 0 -0.502618 0.503589 -0.188856 -0.178616 -0.468893 -0.0817575 -0.259247 0.526449 0.249286 -0.0934812 -0.39278 0.207606 -0.0885578 0.424754 0.335286 0.36012 0.459554 -0.121277 0.440756 0.492562 -0.536886 0.460581 -0.431482 0.5 0.1 0.4 0.2 0.5 0.398924 -0.192093 0.516558 0.0371631 -0.054741 0.146308 -0.169183 0.119655 0.492528 0.316543 -0.171555 0.0250808 0.0304632 0.157953 0.241258 0.43761 0.140559 -0.334687 0.543447 -0.104763 0.0745814 0.263527 0.468518 0.4 0.2 -0.1 0.0939517 -0.000455315 -0.299678 -0.0909792 0.0271414 0.247504 -0.464626 0.0271892 0.513996 0.019406 -0.400526 -0.489858 -0.361275 -0.0454906 0.223762 0.153644 -0.146838 -0.149679 0.0592662 -0.0304305 0.151689 0.0123717 0.479488 -0.0294013 -0.120255 0.4 0 0 0.393952 -0.400455 0.201457 -0.489122 0.222914 -0.0592265 -0.162253 0.0980635 0.096213 -0.19753 -0.126484 -0.452582 -0.108995 0.219902 -0.272109 -0.0579117 0.0592868 0.356037 0.359402 0.262288 0.159346 0.133243 -0.191623 0.498818 0 0.5 -0.3 -0.2 0.3 -0.2 0.405245 -0.489917 0.520514 0.325787 0.0186118 -0.529643 -0.138187 0.150104 0.335755 -0.0531964 0.185833 -0.200408 -0.373585 0.520023 -0.043383 -0.446446 -0.0343872 0.0799327 0.261687 -0.457561 0.411698 0.105729 0 0 -0.1 0.1 -0.1 0 0.00360107 0.404003 -0.488649 -0.276237 0.295063 -0.329667 -0.283196 0.419467 0.22851 0.138564 -0.52848 -0.0236037 -0.405234 0.173362 -0.0620268 0.0441613 -0.263849 0.563046 0.531106 0.125913 0.314229 0.107855 -0.2 0.5 -0.2 0.5 0 -0.5 -0.298577 0.00410421 -0.381454 -0.172009 -0.501747 -0.0267966 -0.180408 -0.603178 0.0265516 -0.343348 -0.125489 -0.551453 0.269189 0.195547 -0.510897 -0.0144692 0.0119966 -0.357868 0.0162621 0.202151 0.0148427 0.00789317 -0.297901 0.2 0.3 -0.4 0 0 -0.498577 0.501926 0.505222 -0.266174 0.203195 -0.296596 -0.0591236 -0.275905 0.115239 0.44716 -0.449795 -0.0390162 -0.126555 0.377135 -0.138312 0.0617807 0.0940132 0.00412357 0.0913627 -0.0113354 0.318791 -0.187559 -0.291174 0.100513 -0.5 -0.2 -0.2 0.3 -0.00301415 -0.300659 -0.479983 0.144975 0.239885 0.104476 -0.236217 -0.55969 -0.348399 0.0622867 -0.0419319 0.278681 -0.113136 -0.121346 0.381982 0.497761 0.0917748 0.212747 0.00259306 -0.491989 0.11901 0.412454 -0.493273 -0.499487 0.5 0.4 0 -0.5 0.295563 0.195713 -0.16731 -0.237816 -0.336707 -0.174711 0.513026 -0.284125 0.510955 -0.418508 0.3571 -0.298064 0.0759106 -0.422693 -0.497886 -0.485508 0.192582 -0.0911638 0.117331 0.429559 0.0338371 0.532543 -0.497997 0.500513 0.1 0 0.4 -0.4 -0.296435 0.301595 0.133073 0.250427 0.0315465 0.0291771 -0.262392 0.235255 -0.155786 -0.400836 -0.00259773 0.311135 -0.0683496 -0.304082 0.517408 -0.276301 0.310289 0.0172224 -0.479591 0.0348659 -0.456804 0.434437 0.00579574 0.4 0.5 0.1 -0.4 0.5 0.00568722 0.204288 -0.359084 -0.0458456 -0.365221 -0.364258 -0.271854 0.0473472 0.113444 0.24288 0.217413 0.198729 -0.484582 0.528526 0.0101946 0.52223 -0.00114403 -0.499723 0.316491 0.432364 -0.264411 0.228301 0.304756 0.2 -0.4 -0.5 0.1 -0.300917 0.307603 0.0202898 0.243671 0.0396402 -0.261803 0.524977 0.426751 -0.457623 0.231482 0.0217717 -0.0827322 -0.169128 -0.358922 -0.458274 -0.0930439 0.386183 0.28599 0.406754 -0.0582404 0.0386417 0.134762 0.232163 -0.496207 -0.3 0 0.5 -0.5 -0.00154617 -0.0910998 0.0156351 0.23899 0.43303 0.0339829 0.0258642 0.405983 -0.157494 -0.474619 -0.166114 0.0396911 0.452008 -0.171253 -0.357692 -0.204943 0.00639084 -0.193388 0.336111 0.158516 0.533871 -0.0663723 0.518589 -0.498722 0 0.1 0 -0.4 0.198454 0.508449 -0.480279 0.436941 -0.268826 0.250563 -0.0582064 -0.441078 0.265852 0.426847 0.515965 -0.158886 -0.47985 -0.460583 0.433959 0.0272558 -0.367433 0.027576 0.420639 0.530607 0.0305771 -0.37577 0.0159014 0.00415056 -0.299812 0.3 0.2 -0.1 -0.401546 -0.29899 0.502598 0.13096 -0.168852 -0.241954 0.147932 -0.436435 0.471652 0.352132 -0.0481559 0.0352304 0.00882415 -0.469906 0.00809864 -0.497208 0.00701626 -0.206325 -0.498946 0.413792 -0.276605 0.507331 -0.0975688 0.1 -0.2 0.2 0.2 0.1 0.3 -3.34679e-05 -0.502607 -0.298215 -0.401928 0.406065 -0.166203 0.0341461 -0.267872 -0.178233 0.0458706 -0.466981 0.231128 0.430984 0.20553 -0.388524 0.401775 0.499833 -0.505898 -0.301529 0.108676 -0.294479 0.00115348 0.4 -0.1 -0.3 0 -0.2 0.1 0.399967 -0.201271 0.0987195 0.402213 -0.289517 0.225149 0.41795 0.0264675 0.0133928 0.322305 0.218625 -0.275977 -0.186868 0.389112 0.200251 -0.115266 -0.119895 -0.117967 0.10283 0.103602 0.00436752 -0.3 0.2 -0.1 0.1 -0.5 -0.4 0.5 0.2 -0.1 -0.0994863 0.403297 0.108262 -0.382876 0.310636 0.408118 -0.504421 -0.493874 0.199892 -0.194708 -0.00651339 -0.315347 0.406717 0.190405 0.390679 -0.311975 -0.1 -0.5 0.1 -0.2 0.5 0 -0.2 -0.5 0 -0.1 0.3 0.4 -0.0992173 -0.0960194 -0.19518 -0.193438 0.407642 -0.39403 -0.00261148 0.0118141 0.208427 0.305159 0.0962619 0.0965503 0.105642 0.207188 0.102654 -0.3 0.4 -0.3 0.2 0 0.2 -0.2 0.4 0 0 -0.2 -0.5 0.3 -0.399784 0.0996399 -0.30036 -0.500576 -0.2 0.5 0.5 0 -0.3 0.2 0.0046372 0.504637 0.00315066 -0.00148654 -0.301487 -0.2 0.1 0.5 0.1 -0.3 -0.5 -0.3 -0.5 -0.195646 
0.2 0.1 0.5 0.1 -0.5 0 -0.2 -0.1 0.3 0.4 0.3 0.3 -0.1 0 0.1 0.4 -0.5 -0.2 0.1 -0.1 0.2 -0.5 0 0.2 -0.5 -0.3 0.5 0.3 0 -0.2 0.4 0.1 -0.5 -0.5 0.4 0.2 0.3 0.5 0.4 -0.3 0 -0.398995 -0.0989952 -0.101192 0.297803 -0.00219688 -0.3 -0.2 0.1 0 -0.3 -0.2 0.1 0 0 0.5 -0.5 0 0.2 0.4 -0.1 0 -0.2 0.5 -0.1 0 0.5 0.302621 0.504523 -0.099187 0.49915 0.101417 0.101128 -0.297418 0.104332 -0.0974316 -0.199505 0.4 0.2 -0.5 0.5 0 0.4 0 -0.3 0.5 0 0.5 0 0.4 -0.50124 -0.00116978 -0.50117 0.0995397 0.401783 0.202871 -0.195973 0.400008 0.199373 0.502161 -0.196552 -0.495162 -0.0982795 0.102161 0.000827411 -0.500737 0.199237 -0.3 0 -0.2 0.1 0.3 -0.4 -0.1 0 -0.1 0.2 -0.101229 -0.101159 0.298704 0.500901 0.40261 0.4991 -0.217494 -0.432557 0.457076 0.362561 -0.125432 -0.000116045 -0.0960787 -0.000858132 0.47388 0.47286 0.277999 -0.512637 0.0898238 -0.000376197 -0.2 0.4 0.1 -0.4 -0.1 0 0.49923 0.0992301 0.297967 -0.201042 0.0986152 0.406928 -0.286938 -0.313346 -0.032086 0.034591 0.110092 -0.202863 -0.490488 -0.0676094 -0.294522 0.310965 -0.398163 -0.161955 0.44806 -0.43568 0.482055 0.497721 -0.00122419 -0.2 0.5 -0.2 -0.3 -0.4 -0.49627 -0.501176 -0.0996066 -0.190691 0.411039 0.0293679 -0.370675 0.41009 0.285479 -0.0106409 -0.0252539 -0.520898 -0.212023 -0.205404 -0.144285 -0.585119 0.0821229 0.207008 -0.375451 -0.444008 -0.0322806 0.288919 0.500041 -0.2 0 -0.3 -0.4 0.4 0.105685 -0.192974 0.408271 -0.391008 0.118601 -0.476162 0.222912 -0.30078 -0.00488494 0.301296 -0.461284 -0.456456 0.0632501 0.569296 0.254485 -0.113085 -0.0841981 -0.289053 -0.0950877 -0.0377019 -0.414174 0.28755 0.0999931 0.1 -0.5 0.4 0.5 0 0.309187 0.0107613 -0.491611 -0.290749 -0.391482 -0.390479 0.1201 0.307891 0.0321263 0.431326 0.331888 -0.0855477 0.555178 0.262041 0.168578 0.00145222 -0.0369422 -0.472012 -0.266039 -0.138979 -0.425233 -0.296838 0.0999931 -0.3 0.3 -0.2 0.401567 -0.400082 -0.498393 -0.400889 0.00116916 0.00553868 0.520806 0.409855 0.411401 -0.294519 0.00418914 0.00464267 -0.302538 0.491778 -0.450472 -0.249061 0.152935 0.282514 0.469962 -0.333808 -0.223696 -0.329413 -0.0184473 -0.102904 0.19908 0.4 0.1 0 0.301567 -0.100082 0.498486 -0.203756 0.0901152 0.39652 0.318585 0.11082 -0.289172 0.291376 -0.218124 0.291233 0.0566193 0.275384 0.496509 -0.39131 0.212119 0.390329 -0.510214 -0.494383 0.278341 0.386458 0.380957 -0.00277329 -0.1 -0.5 -0.5 0.4 0 0 -0.20093 -0.303628 0.487101 0.404741 0.535976 -0.358302 0.504683 0.179455 -0.512195 0.0892057 0.225395 0.145982 -0.454533 0.0999644 -0.488343 0.198455 -0.28671 0.28244 0.187616 -0.41485 -0.305936 0.495728 0.2 -0.2 0 -0.5 -0.5 -0.2 -0.503345 0.196112 0.186004 -0.281768 -0.456055 -0.27372 -0.392438 -0.0143341 -0.322918 -0.243163 -0.265145 0.37348 0.487193 -0.175754 0.323907 0.523506 0.0412317 0.479899 0.281819 0.299734 0.0929621 0.0952891 0.1 -0.5 0.4 -0.5 0.3 -0.5 0.497776 -0.00330566 0.285991 0.203664 0.438399 -0.144594 -0.163765 0.502483 -0.395659 0.0485056 0.447388 -0.428523 -0.00154792 0.495386 0.351547 0.0403824 0.315468 -0.0169353 -0.133039 -0.507062 -0.207933 -0.404619 0.299572 0 0.1 -0.4 0.2 0.1 -0.202224 0.296809 0.480204 -0.408337 0.234572 -0.459254 0.0330786 0.420673 0.398264 0.471521 -0.338246 -0.53248 0.384679 -0.190668 -0.112511 0.0518605 0.42745 -0.21826 -0.427935 -0.515449 -0.0105086 -0.0062568 0.502559 -0.399848 -0.5 -0.1 0 0.3 -0.202306 0.195166 0.0797957 -0.0150464 -0.302893 -0.387916 -0.182885 0.19073 0.0742744 -0.251236 0.130962 0.157238 -0.236345 -0.171389 0.126067 0.357717 -0.365615 -0.318124 -0.528656 0.276198 0.287037 -0.406246 -0.297013 0.300152 0.3 -0.3 -0.3 -0.3 -8.19251e-05 -0.00504011 -0.317271 -0.327809 -0.107308 0.470582 0.185753 0.45955 -0.346831 -0.0604739 -0.163602 -0.351234 -0.0507185 0.222905 0.33338 -0.0746016 -0.262299 -0.314416 0.282355 0.384057 0.183498 -3.89245e-05 -0.499285 0.000151592 0.4 -0.5 0.2 -0.3 -0.499872 -0.501389 -0.106074 0.379771 0.367932 -0.0456308 -0.144051 0.0111553 0.0159019 -0.198103 0.246445 -0.562302 -0.0305774 0.112725 -0.28419 0.396737 -0.191702 -0.402463 -0.127605 0.487795 -0.0088181 -0.400254 -0.400242 -0.3 -0.3 0.2 0.2 -0.1 0.100237 -0.302559 -0.503421 -0.00930756 -0.24244 0.130071 0.103447 -0.598918 0.396668 -0.10463 -0.553422 -0.449268 0.382451 -0.0226257 0.0663255 0.184074 -0.0864121 0.010425 0.499522 0.0015812 0.00391286 0.202067 -0.00124026 -0.3 -0.1 -0.4 -0.4 0.50005 0.30036 0.205448 0.399196 -0.318777 -0.325469 -0.368601 0.389701 -0.10374 -0.0690304 -0.0499295 -0.0314349 -0.109859 -0.203929 -0.217147 0.49523 0.50521 0.406166 -0.110967 0.192729 0.303675 -0.395472 0.40527 -0.000957048 0.5 0.1 -0.4 0 -0.397299 0.00663524 0.0172275 -0.484171 -0.388697 -0.10548 -0.168588 -0.182181 0.0231516 -0.463315 -0.114192 0.307512 0.168165 0.262657 0.476488 -0.505866 0.0960075 -0.113234 -0.10859 0.0973121 -0.0931589 0.203553 0.304853 6.98472e-05 0.5 0.5 0.5 -0.2 -0.0972991 -0.393338 -0.180858 -0.481752 -0.0861565 -0.00365857 0.360225 -0.550022 -0.166677 -0.135089 -0.0141123 -0.510676 -0.541057 -0.115543 -0.0341059 -0.19494 -0.409619 0.373966 0.0963318 -0.298956 0.10921 0.00696072 -0.0973028 -0.396408 -0.200089 -0.4 0 0 0.00270086 0.205102 0.117701 0.0112222 0.213166 -0.0128743 0.368725 0.159072 -0.427016 -0.330355 -0.0124611 -0.237742 -0.149151 0.36362 -0.26178 0.482093 0.188427 0.0678691 -0.00380054 -0.193094 -0.497055 0.499869 -0.399919 -0.5 0.2 0.2 -0.5 0.4 0.3 0.00228026 -0.186325 -0.491741 -0.0993588 0.0966162 0.287767 -0.318245 -0.12934 0.369012 0.25451 -0.473968 0.229544 0.0329679 -0.323836 -0.510535 0.494844 -0.31779 -0.0849236 0.410726 0.103128 -0.000203887 0.400011 -0.3 0.5 0.4 -0.3 0.5 -0.5 0.40228 0.103837 -0.392712 0.506042 -0.498206 0.118738 0.0165654 0.490296 -0.08847 0.189454 -0.0220386 0.373641 0.0880486 0.225346 0.510699 -0.385799 -0.49301 -0.179768 -0.294913 -0.195715 0.499785 0.2 0.2 0.5 -0.2 0 0.1 0.4 0.4 0 0.00291812 0.217286 -0.0911871 -0.472041 0.436528 -0.266336 0.347883 -0.347889 0.542537 -0.453543 0.0393195 -0.0525283 0.432539 -0.161665 0.0137052 -0.191146 0.5 0.5 -0.5 0.5 0.4 0.2 0 0.3 -0.3 -0.3 0 0.3 0.413226 0.319216 0.131425 -0.363586 0.530309 -0.072935 0.0162107 -0.0807725 0.111623 -0.292385 -0.282687 -0.28618 0.00678534 0.11237 0.204851 -0.3 0.1 0.4 0.1 0.4 0.4 0.3 0.5 0 0.1 0 0 -0.2 0.500718 0.502613 -0.097387 0.401895 0.4 0.2 -0.1 0.5 -0.2 -0.5 -0.100111 -0.000110898 -0.3997 0.500411 -0.0995894 0.3 0 0.5 0 -0.5 0.2 -0.3 -0.3 -0.423613 
0 -0.3 0 -0.2 0.3 0.1 0.4 -0.2 0.3 0.1 0.3 0.2 -0.5 0.2 0.5 0.4 -0.5 0.4 -0.3 -0.2 -0.1 -0.3 -0.4 0.5 0.2 0.4 -0.2 0.5 -0.2 -0.5 0 0.2 -0.4 -0.3 -0.4 0 -0.4 0 -0.2 -0.1 0.1 -0.499999 -0.299999 0.20002 0.400019 -0.299981 0.3 0.1 -0.5 0.5 -0.5 0 0.1 0.3 -0.3 0.5 0.1 -0.5 0.1 0 0 0.5 0.2 -0.1 -0.5 0 -0.4 0.499938 -0.200066 0.299936 -0.400043 0.499958 -0.499796 0.100185 -0.299829 -9.01879e-07 -0.4 0.3 0.3 -0.1 0.1 -0.5 -0.3 0.3 -0.4 0.2 0 -0.3 0.3 -0.3 0.49995 -0.500046 -0.100046 -0.300049 0.19995 0.499908 -0.101507 0.0984894 0.49854 0.298094 -0.200384 -0.200285 0.400276 -0.399953 -0.399863 -0.300062 -0.100003 0 0.5 -0.3 -0.5 0.3 0.2 0.4 -0.2 -0.3 0.2 -0.400108 0.399896 -0.100627 -0.000462737 -0.00104274 -0.101044 -0.202201 0.395739 -0.00572719 0.293154 -0.00563173 -0.10517 -0.107354 -0.20492 0.495372 -0.102541 -0.500545 0.00413583 -0.395851 -0.0999815 0 0 0.3 0.3 -0.2 0.4 -0.399952 4.82504e-05 -0.400094 0.499094 -0.102186 0.201057 -0.100935 -0.402034 0.198498 -0.303566 0.195259 -0.508418 -0.113278 0.385634 0.0860505 0.0843291 -0.509863 -0.00642251 -0.49693 -0.392784 -0.0952277 0.40012 0.100091 0 -0.1 -0.2 -0.2 -0.4 0.100048 0.202546 0.202101 -0.101052 -0.00213902 -0.201062 -0.19893 0.202288 -0.297896 0.202516 -0.00162106 0.195633 0.391533 0.282715 0.280748 0.383789 0.186433 0.298491 -0.499297 0.407635 -0.194829 -0.500623 0.100057 -0.4 0.4 0.5 0 0 0.300085 0.502583 0.402074 -0.000684141 -0.00328373 -0.302472 -0.400742 0.100728 0.503533 0.201725 0.497463 0.288273 -0.416641 -0.022797 -0.122734 0.0821251 0.190924 0.203872 0.00760455 0.10987 0.200917 0.10164 0.401474 0.4 -0.2 0 0.3 -0.1 -0.299938 -0.197741 0.00237402 0.400374 -0.00180025 0.299594 0.401312 0.201127 0.402954 0.40189 0.00544846 0.197669 -0.517896 0.474575 0.280813 0.288389 -0.00326761 0.00856174 0.00752319 0.20623 0.201678 -0.297806 -0.298526 -0.5 0.1 0.1 0.400223 -0.499999 -0.199971 0.102341 -0.397633 -0.199769 0.299458 0.202061 -0.495664 -0.0952124 0.000551497 0.0047931 0.203772 0.192805 -0.22226 -0.119888 -0.0139157 -0.0129382 0.400669 -0.390111 -0.188192 0.302527 -0.398201 0.402279 -0.101413 0.3 -0.2 -0.1 0.100223 -0.399999 -0.397473 0.0022299 -0.397236 0.500848 0.302204 -0.0982439 0.506102 -0.0938588 0.500747 0.502982 0.397613 0.49549 0.38332 -0.116846 -0.211586 -0.302246 -0.191284 -0.189506 0.512785 -0.100683 0.0992646 0.39883 0.1 0.4 0.2 0 0.4 0.2 0.302502 -0.19743 0.00315585 -0.198777 0.00343466 0.105367 -0.392129 0.506848 -0.094903 0.301975 -0.00608057 0.0840069 0.381008 -0.41628 0.297163 0.299857 0.203151 -0.191669 0.209531 0.100523 0.100231 -0.0997464 -0.3 0.2 0 -0.5 0.5 0.4 -0.497494 0.00253345 -0.0968138 -0.496313 -0.396474 -0.0959258 0.00718491 0.00757033 -0.392281 -0.397981 -0.515742 0.372959 0.27219 -0.419051 -0.50623 -0.390243 0.309647 0.305034 0.10357 -0.299824 -0.199736 -0.299749 0.4 -0.1 0.2 -0.1 0.1 0 -0.397498 0.402541 -0.297047 0.0032872 -0.29641 -0.295089 0.411085 -0.188301 0.00377651 -0.106444 0.0717212 -0.228128 -0.220685 -0.110515 0.0987638 -0.485396 -0.188618 -0.0951956 -0.0997558 1.80256e-06 0.00027526 0.100254 -0.500003 -0.4 0 -0.5 -0.4 -0.5 -0.197498 0.302538 0.00253241 0.501684 0.508737 0.110035 0.310853 0.310981 0.0105682 -0.0124628 -0.517925 0.178955 -0.412119 -0.108305 0.00747095 0.513522 0.0042217 0.403697 0.000379318 -4.83889e-05 -0.499633 0.400177 -9.0915e-05 -0.300007 0.3 0.3 0.2 -0.1 0.202008 0.301282 0.00212218 0.202561 -0.489234 0.312297 -0.0884837 0.111237 0.208799 -0.00703475 0.387733 0.386255 -0.00970783 -0.297282 0.211384 0.301398 0.503977 0.400512 -0.199146 0.200591 -0.29932 0.300176 -8.75667e-05 0.299993 0.5 0 -0.3 0.4 -0.300494 -0.198783 -0.298959 -0.491603 0.310908 -0.18468 -0.0849905 0.51059 -0.000372074 0.0911421 -0.0156693 0.185361 -0.108431 0.00281899 -0.388397 0.407844 -0.294069 0.201176 0.300537 -0.299397 0.200552 -0.399968 0.499978 -0.400007 0.5 -0.2 -0.3 -0.4 -0.500675 0.398529 -0.000977637 0.107691 -0.089133 0.510756 0.305297 0.493279 0.290475 -0.00602074 -0.212487 0.289957 0.000243817 -0.396583 0.0103058 0.203165 0.199477 0.000952779 0.500556 -0.499441 0.100137 0.40012 -0.300024 -0.1 0.2 -0.3 0.1 0.1 -0.000123609 -0.301462 0.298345 -0.393917 -0.193111 0.101982 -0.202858 0.0898324 -0.115339 -0.00954183 0.0860745 -0.207891 -0.39532 0.00299796 0.206764 -0.498062 0.498479 0.0992461 0.000206282 -0.199884 0.000198793 -0.499771 0.199991 0.5 -0.3 0.3 0.3 7.76797e-05 0.099917 -0.00141063 0.298411 -0.200213 0.198367 -0.100532 0.496599 -0.210053 -0.209664 -0.514364 0.487614 0.296037 0.398626 0.497357 0.399217 -0.203353 -0.102105 0.0994247 0.498296 0.500296 -0.299823 0.100182 0.499999 -0.3 0 0.4 -0.3 -0.000213121 -0.200425 -0.100836 0.199244 -0.305347 -0.302243 -0.501539 -0.110543 0.187977 -0.00982806 0.0861067 -0.314589 0.30053 0.496106 -0.103278 -0.00187131 -0.501039 0.400023 -0.000760038 0.197791 0.500182 0.100026 -0.500229 0.500004 0 0.1 -0.1 -0.2 0.0997869 -0.300453 0.299365 0.19869 0.395094 0.294621 -0.510368 0.484816 0.186092 0.48773 -0.0155509 -0.412408 0.295846 0.192156 0.293872 0.0978573 0.0999546 0.200654 -0.00030614 -0.00180414 -0.299928 -5.46941e-05 0.399791 3.6668e-06 0.0998921 0.3 -0.5 -0.3 0.299787 -0.200232 0.0994503 -0.000694509 0.399268 -0.40302 0.491001 -0.11268 0.288843 -0.412521 -0.210409 -0.510137 -0.508809 -0.00683586 0.094679 -0.00161975 -0.0995472 0.302137 -0.200391 0.0988789 0.50001 0.399945 0.0999454 0.3 0.3 -0.3 0.4 0.5 -0.2 0.3 -0.400125 -0.400223 -0.000386251 0.400817 0.194897 -0.0117539 -0.406948 0.089318 -0.00584099 0.0933489 0.194037 0.194996 0.397473 -0.399234 0.503328 -0.497928 -0.301128 0.500247 -0.400011 -0.300058 0.299942 -0.5 -0.3 0.4 0.1 0 -0.3 0.3 -0.49982 -0.299822 -0.499794 0.0034379 0.0962929 -0.30518 -0.109265 0.2886 0.502697 0.400036 0.400116 0.399493 -0.199789 0.00453618 -0.395707 0.504141 0.100853 0.100031 0.3 -0.4 0.5 -0.5 0.3 0.2 0 0.1 -0.1 -0.2 -0.2 2.13518e-05 0.499443 0.000139687 0.00034721 -0.300756 -0.101708 -0.00123423 0.0999898 -0.398811 0.401319 0.100219 0.499997 0.0999625 0.500032 0.500004 -0.0999876 -0.4 0.3 0.4 -0.4 -0.4 -0.1 0.1 0.2 0 0.3 -0.2 0.3 0.398115 -0.19986 -0.202154 -0.500093 0.301365 0.298793 -0.099502 -0.099664 -0.399738 0.200517 6.72469e-05 0.199961 -6.67636e-05 -7.55292e-06 0.399991 -0.4 0.4 0.2 -0.1 -0.5 0.5 0.2 0.1 -0.3 -0.1 -0.4 -0.3 0.3 -0.199981 -0.199097 0.500903 0.000883713 -0.5 0 0.5 0.1 0 -0.2 0.400001 0.500001 -0.500008 0.199991 -9.16463e-06 -0.4 0.3 0 0.5 -0.1 0.1 0.2 0 -0.310661 
0.4 0.4 0.2 0.3 0 -0.2 0.3 -0.5 0.3 -0.4 0 -0.4 0.1 -0.5 -0.2 0.4 0 0.5 0 -0.2 0 0.1 -0.1 0.1 -0.5 -0.5 0.5 0.4 0.5 -0.4 -0.3 0.4 0.4 0.4 -0.5 0.5 -0.1 0.1 0 0.5 0 -0.200309 -0.300309 0.0983071 0.498617 -0.301383 0.5 0.4 0.4 -0.3 -0.3 0 0.3 -0.5 -0.2 0.5 0.5 -0.3 0.3 0 0 0.1 -0.4 -0.5 0.4 0.5 0.5 -0.399903 0.300099 -0.100212 -0.401646 -0.299992 -0.399844 0.401527 0.201866 -1.56782e-05 0.39998 0 0.5 -0.4 0 -0.3 -0.5 0.3 0.1 0.3 -0.1 0.5 0.2 0 0.100001 0.500001 1.3037e-06 -0.199991 -0.19999 -0.399865 -0.000177266 0.300268 0.00010818 0.299971 -0.0995879 0.301697 0.201985 3.94129e-05 0.500107 0.300123 0.300119 0.4 -0.5 -0.4 0 0.4 0.2 -0.4 0.4 -0.2 0 -0.499999 0.100002 0.499995 0.200407 0.400421 0.000628065 0.00209632 0.000188033 0.00208566 0.501207 0.200805 -0.00100339 0.400925 0.401259 0.502689 0.102313 0.200381 0.000352796 3.02961e-06 -0.10001 0 -0.3 -0.2 -0.1 -0.5 0.1 0.200002 2.44229e-06 0.100046 0.200039 0.400073 -0.299834 -0.0996762 0.00350849 -0.395283 0.105438 -0.0951172 -0.195247 0.40455 -0.495211 0.207881 0.408884 0.00918616 0.00561122 -0.297617 0.000849736 -0.100109 -0.000125726 0.4 -0.3 -0.1 0.2 0.5 0.2 0.500014 -0.399905 0.000138918 0.300083 0.201654 -0.296267 -0.294223 -0.492802 0.404488 -0.3932 -0.39239 0.0072911 -0.193487 0.406773 -0.188763 0.311564 -0.387204 -0.491048 0.105159 0.200832 0.399942 -0.0999461 -0.299803 0.2 -0.4 0 0 0 0.399969 0.10005 -0.000515012 -0.396953 0.40363 -0.196994 0.30547 0.207525 -0.188073 -0.29131 0.00615426 -0.194653 0.104073 0.00450506 -0.090663 0.511909 0.0113716 0.00673822 -0.39353 0.303185 0.299518 -0.000350297 -0.200202 0.2 0.2 -0.1 0 0.4 0.49997 0.300053 0.0996122 0.00361583 -0.195446 0.00424074 0.106249 0.409896 -0.190206 -0.191764 0.307078 0.104749 0.0060429 0.505715 0.21112 -0.188446 0.00999573 0.206467 -0.0939473 0.00330297 -0.498474 -0.0982668 -0.100202 -0.2 -0.2 0.5 0.399989 0.299999 0.5 -0.299933 -3.99179e-05 -0.496239 0.302637 -0.494912 0.30535 0.107593 -0.0908191 0.207688 0.407377 0.10185 0.00134133 0.404093 0.308156 0.108661 0.508206 0.102067 -0.0963263 0.203008 -0.0969784 -0.298456 -0.300186 -0.4 0.3 0.2 -1.05099e-05 -7.18841e-07 0.20008 0.199897 0.00130161 -0.495639 -0.49328 0.30459 -0.293433 -0.390112 0.410619 -0.492824 0.201548 -0.195867 0.303506 -0.29557 0.00943675 -0.0925318 0.205611 0.501385 0.301604 0.00364081 -0.0964996 -0.398075 0.4 0 0.5 0.4 0.5 -0.2 -0.19992 -0.400196 0.301914 0.304054 0.00490589 0.501845 -0.494526 -0.190311 0.207689 0.206339 0.403003 0.503349 0.404155 -0.194281 0.00816256 0.307374 0.306088 -0.0981059 0.500262 0.303577 -0.396385 -0.097753 -0.4 -0.5 0 -0.5 0 0 0.400079 0.399988 0.40159 -0.496928 0.1011 0.402764 0.206632 0.208415 0.107062 0.00667478 -0.196162 -0.197529 0.303151 0.505077 -0.192013 -0.292056 0.403284 0.301072 0.499972 0.00355211 0.00337455 -0.297758 0.5 0 0 0.3 0.4 0.1 7.93797e-05 -1.20045e-05 0.103645 -0.298271 -0.100118 0.40365 0.00704851 0.509029 0.310869 0.00600706 0.303306 0.00168141 -0.494639 0.206484 -0.391462 0.00239091 0.103754 0.399324 0.500498 -0.196522 -0.296687 0.00364657 -0.400005 -0.5 0.2 0 -0.4 -0.1 -0.499921 -0.400012 -0.395609 0.100808 0.00067928 -0.293412 -0.291067 -0.189031 0.309066 0.406844 0.407434 0.00760673 0.106276 0.306871 -0.0933254 0.205455 0.102071 0.499861 -0.3983 0.200962 0.403515 0.502436 -0.0985556 0.100656 0 -0.1 0.5 -0.2 0.500079 0.299989 -0.395355 -0.297998 0.103744 -0.094152 -0.491589 0.11053 0.0105207 0.00730685 -0.390887 0.00763191 -0.293407 -0.0946325 0.407011 0.00486291 0.202807 -0.0960367 0.00329115 0.203116 -0.295754 0.402404 0.00144985 -0.399344 0 -0.5 0.3 0.1 0.3 -0.500015 0.503872 -0.194025 -0.0941226 -0.493237 -0.491274 0.110241 -0.189404 0.00663912 0.506154 0.410496 -0.0920756 -0.0925008 0.507944 -0.296477 -0.394424 0.30508 -0.493433 -0.194241 0.00548137 0.00569268 -0.298791 0.000656274 -0.2 0.3 -0.1 -0.4 0.100006 0.500004 0.105094 0.307367 0.00634821 0.00457703 -0.0928988 0.408318 -0.492165 0.301858 -0.0938867 0.00877252 0.00928237 0.309874 -0.292438 -0.0900766 0.306602 0.506513 0.00662084 0.10363 0.505312 -0.19614 0.501235 0 0 0 -0.4 0.2 0.200007 -0.29999 0.3051 -0.193177 0.506513 -0.294221 0.00597524 0.00357002 0.00257322 0.301572 -0.395215 0.00814753 0.40968 0.110617 -0.288367 0.307645 -0.294425 -0.0949723 0.00489285 0.504379 -0.49522 0.50258 -0.199447 0.2 0 0 -0.5 0.5 0.300009 -0.0999878 0.503839 0.306718 0.504738 -0.0974796 -0.299596 0.103604 0.0030623 0.00217476 0.204543 0.308452 -0.186769 -0.387279 0.507174 -0.19421 0.00390248 -0.197863 -0.495507 0.00403821 -0.496275 0.00228695 0.500025 -0.2 -0.4 0.1 0.1 0.0999994 -0.29999 -0.299987 -0.0960963 -0.492932 0.00752445 0.307242 0.20295 -0.096682 0.00224983 -0.0939175 -0.0911959 -0.38735 -0.387009 -0.288359 0.00630054 -0.194911 -0.195044 0.402264 -0.296623 0.501743 0.201892 0.000192298 0.1 -0.3 0 0 -0.5 0.199999 -0.0999934 0.400005 -0.0996474 -0.296217 -0.493148 -0.293089 0.307286 0.207268 0.00725173 0.508186 -0.487372 0.213651 0.414038 0.31141 0.406711 0.300705 -0.198317 0.500444 -0.09841 0.201788 0.100253 -0.399823 -0.299826 1.08041e-06 -0.3 0.4 -0.2 0.499999 -3.40625e-07 0.0999872 0.400313 0.203201 0.203946 -0.494976 -0.0938926 0.506326 0.506173 0.50807 -0.289899 0.209992 0.408007 -0.0962941 0.501862 0.301487 0.501167 0.200342 -0.298997 0.000135825 -0.29999 -0.0999994 0.5 0.3 -0.4 0.4 -0.4 0.4 0.3 -0.100065 -0.200078 0.100234 -0.499325 -0.398392 0.401674 0.103686 0.00230538 0.202833 -0.0920004 0.00735945 -0.293152 0.101607 0.102154 -0.198795 0.200967 -0.299211 0.400777 0.100016 -0.4 0.5 0.2 0.1 0.5 0 0.4 0.5 0.3 -5.03745e-05 0.499951 0.400101 0.199471 0.199391 0.199181 0.299205 0.401091 0.200648 0.403358 0.302023 -0.498261 -0.300598 0.100021 -0.398863 0.100063 0.19932 -0.199962 -0.499989 0.499999 -0.2 -0.5 -0.2 -0.3 0.2 0 -0.1 0.4 -0.2 7.16529e-07 0.4 -2.32631e-06 0.400008 0.300019 -0.30007 0.299966 -0.399314 0.300491 0.198757 -0.00208358 0.396827 -0.303064 0.497108 -0.100077 -0.200016 -0.3 0.4 -0.3 -0.1 0.4 0.3 -0.2 0 -0.1 0.1 -0.2 0.4 -0.399999 -0.2 9.22818e-08 -1.17408e-05 -0.100013 0.399994 0.499995 0.20067 0.000524725 -0.0994715 0.197988 -0.501952 -0.101872 -0.101775 -0.500061 -0.4 -0.1 0.2 -0.1 0.3 0 -0.2 0.3 0 0.2 -0.4 0.3 0.4 0.1 -0.4 0.2 0.5 -0.5 -0.3 0.3 0.4 -0.3 0.5 1.16113e-06 -0.0999988 0.499998 -0.100003 0.299997 -0.2 0.2 0 0.3 0 0.4 -0.4 -0.1 0.514044 
0.4 0.1 0.2 0.3 -0.2 0.1 -0.1 -0.2 0 0.5 -0.4 -0.3 0 0 -0.5 -0.2 -0.1 -0.3 -0.2 0.2 0 -0.3 -0.3 -0.2 -0.4 0.4 0.3 -0.2 0 0.3 -0.3 0 -0.1 0 0 -0.1 0.4 0 0 0.2 0.4 0.399934 0.499934 0.398188 -0.501746 -0.201746 0.5 0.1 0 0.5 0.3 0.2 0 0.5 0.5 -0.2 -0.4 0.5 -0.3 -0.5 0.3 -0.2 0.4 0.4 0.2 -0.2 -0.1 0.201551 -0.295894 0.00384805 0.500181 0.498477 -0.106447 -0.207175 -0.00417765 -0.401457 -0.499574 0.1 0 -0.1 0.4 -0.5 -0.3 0.5 0.3 -0.2 0.3 0.1 0.5 0.4 -0.301806 0.495364 0.495364 0.497365 -0.197958 0.00475761 0.504888 -0.391235 -0.0933898 -0.0900519 -0.39756 0.495397 -0.403677 -0.40376 -0.3009 0.198904 0.297937 -0.5 0.4 0.5 0.1 -0.2 0.3 0.5 0.1 -0.1 -0.1 -0.500023 -0.00285365 -0.402043 -0.102379 0.29701 0.39581 0.396017 0.505368 0.19362 0.495983 0.00907098 0.326803 0.517777 0.311788 0.187327 0.294684 -0.100188 -0.00530466 -0.205086 -0.099991 0.4 0 0.1 0 -0.1 0 0.000438063 0.000438063 -0.509546 -0.214035 -0.518412 -0.421878 0.0681635 0.065969 -0.219222 0.472446 0.385408 0.401819 -0.103056 -0.478567 -0.305225 -0.120986 -0.040868 -0.112603 -0.417882 -0.320674 -0.0136632 -0.103462 -0.00253447 0.3 0.2 0 0.4 0.2 0.499743 -0.300017 0.387062 -0.0193904 0.479515 -0.535097 -0.220122 0.362062 -0.0277293 -0.205697 0.49407 0.0098458 -0.285424 0.225739 -0.0156532 0.17349 0.0465704 -0.464031 -0.53918 0.0633519 0.0738807 0.283241 -0.103281 -0.2 -0.4 0.5 -0.5 -0.4 0.096554 -0.0045456 -0.00212392 0.288893 -0.326828 -0.0161237 0.202573 -0.224413 0.385576 -0.295692 -0.336318 -0.329586 0.194765 -0.00329276 0.449319 0.515338 -0.414189 -0.232853 -0.440782 -0.0319858 -0.428573 -0.223337 0.194107 0.2 0.2 0.3 0.3 -0.1 -0.00734328 0.086848 -0.00512389 0.487534 -0.409273 -0.00422344 0.408503 0.115941 0.338991 0.0386386 0.461524 -0.343508 0.592008 0.268517 0.142337 -0.286599 0.41142 -0.233634 0.0750563 0.468423 -0.0254084 -0.308043 0.394107 -0.4 -0.4 0.3 0.296843 0.40022 0.195947 -0.108652 -0.201565 0.301469 0.325059 0.114329 -0.381638 0.234241 0.433593 0.0387267 0.152751 0.535772 -0.304349 -0.367878 0.327078 0.0313992 -0.473183 -0.0101545 0.192157 0.176229 -0.0179041 -0.406925 0.195439 -0.4 0.3 0.4 -0.00315688 -0.49978 0.395955 -0.401969 -0.194942 -0.388871 -0.386507 -0.267414 0.531086 0.402263 -0.100377 0.502428 -0.276737 -0.446545 0.571507 0.0406591 -0.461412 0.54713 -0.0588182 0.115024 -0.0838415 -0.300154 -0.00620359 0.198825 -0.4 0.2 0.4 -0.1 0.4 0 -0.202973 0.000926675 -0.487901 0.137963 0.242052 0.454116 -0.490689 -0.231381 0.288063 0.278241 -0.0221195 0.417909 -0.269982 -0.4595 0.219897 -0.246909 -0.157653 0.210973 0.0113656 -0.00231422 0.301169 0.496946 -0.1 -0.5 0.4 0 0.4 0.1 0.203848 0.198734 0.207626 -0.4589 0.544605 0.430775 -0.277394 0.260685 -0.0514412 0.150893 -0.199321 -0.463379 0.149247 0.0397825 0.415151 0.0419384 0.449494 0.097677 0.308119 0.0988612 -0.000709061 -0.40262 0.5 0.3 -0.2 0 0.4 0 -0.29602 -0.101183 0.499622 -0.402853 -0.0526092 -0.352655 -0.387143 -0.0153269 -0.0472214 0.374542 -0.381248 -0.363433 0.0382413 0.139651 0.330781 0.227561 -0.483739 -0.127303 0.281014 -0.304864 0.299037 -0.50045 -0.399614 -0.5 0.2 0.3 0.5 -0.3 0.50398 -0.401221 -0.321081 -0.021294 0.0526708 -0.151264 -0.373784 -0.487352 -0.31443 -0.184876 -0.164926 0.0344616 0.450878 -0.06389 -0.478074 0.316396 0.506071 0.277953 0.37763 -0.0109528 0.194761 0.501973 -0.194968 -0.197276 -0.2 -0.2 0.5 0.5 -0.00308793 0.387044 -0.0234536 0.0788013 0.403312 -0.399707 0.0392957 -0.482598 -0.0980971 0.0282608 -0.478928 0.0200152 -0.465706 -0.380734 0.0893667 -0.486195 -0.523048 0.377373 -0.232345 0.0848737 0.0955492 0.402083 -0.0953537 0.00272441 0.4 0.4 -0.1 0.3 0.0929322 -0.315145 -0.22472 0.19187 -0.405617 -0.415617 0.106248 0.211599 0.433939 -0.4527 0.034976 0.321012 0.414672 0.00308524 -0.00172725 -0.200577 -0.201722 -0.226576 0.0653258 -0.119346 0.387549 -0.198069 -0.100283 -0.297276 -0.2 0 0 0.3 -0.506542 -0.413317 -0.418677 0.483282 0.477988 -0.0188345 -0.410759 -0.294721 0.215944 -0.282322 0.0349265 0.522394 0.103802 0.084971 -0.0029688 0.176589 -0.537171 -0.329899 -0.140751 0.483608 -0.300853 -0.401689 0.199718 -0.4 0.4 0.4 0 0.3 -0.200196 0.487978 -0.0208646 -0.501648 -0.41575 0.372166 0.355846 -0.320241 0.000768655 -0.147357 0.244049 0.323654 0.0286593 -0.303686 -0.317405 -0.428323 -0.314097 -0.533691 0.0675863 -0.507253 -0.301886 0.097138 0.0968762 0.4 0.3 0.4 -0.2 -0.40068 -0.501673 -0.0107603 0.378026 -0.0167238 -0.00252947 -0.211202 -0.22655 -0.211548 0.299965 0.234038 -0.165566 0.102909 0.0226932 -0.278695 0.489064 -0.323923 0.478226 -0.0153192 -0.0158807 0.497541 0.399978 -0.301069 0.500002 -0.4 0.3 0.3 0 0.198473 0.394467 -0.113016 -0.308835 0.0746156 -0.00982296 -0.141246 0.175998 -0.427279 -0.0110872 -0.16887 -0.171273 -0.00230407 0.31058 -0.199075 -0.00448258 0.390456 0.0837864 -0.50783 0.192016 0.198579 0.105503 0.00149219 -0.302831 0.1 -0.1 0.5 -0.3 -0.501527 -0.00476151 -0.412395 0.292989 -0.210852 -0.401914 -0.511263 0.276732 -0.0149403 0.0152313 0.0380204 0.00386206 0.179067 -0.411716 -0.12843 -0.401521 0.495592 -0.20764 0.0835967 -0.313299 0.000319341 -0.0963348 0.198857 -0.205155 4.96181e-05 0.5 0.5 -0.4 -0.301527 0.0988012 0.488141 -0.412041 -0.00973097 0.0858034 0.191406 0.182989 0.330072 -0.371266 -0.37445 0.393807 0.390815 -0.101528 -0.0363361 -0.300484 0.00584043 0.490064 -0.513148 0.200459 0.00255544 -0.400326 0.298952 0.1 -0.1 -0.2 0.2 0.2 0.1 -0.000217547 0.0961963 -0.107595 -0.325425 -0.420534 0.291908 -0.400168 -0.378666 0.227197 0.22025 -0.129724 0.363437 -0.226918 0.204086 0.505871 -0.384934 -0.50131 0.00646769 -0.390757 0.00171948 0.30202 -0.498217 0.4 0.2 0.4 -0.5 -0.1 0.4 -0.200218 0.297493 -0.407248 -0.20614 -0.22173 0.185452 0.317424 0.507245 -0.277364 0.511186 0.00330483 -0.393435 0.0149033 0.51944 -0.372927 0.0149252 0.412783 0.209171 0.0937104 -0.000457845 0.500237 0 0.3 -0.5 0.2 0 0.4 -0.3 0.5 0.2 -0.197568 0.305956 -0.200292 -0.0773975 0.22618 -0.369054 0.0414359 0.134267 -0.368386 -0.0652148 0.338578 0.0467804 -0.269361 -0.377468 0.211233 0.101493 0.4 0.1 -0.2 -0.1 0.4 -0.5 0.3 0.5 -0.5 -0.3 -0.5 0.2 0.305522 0.0059668 -0.19029 0.0288059 -0.265825 -0.368105 0.033016 -0.282226 -0.175972 0.127788 -0.0650451 -0.275487 0.422472 0.109503 0.00974007 0.1 0 -0.1 0 0 -0.5 0.3 -0.1 0.2 -0.5 0.4 0.1 -0.4 -0.399973 0.199925 -7.54518e-05 -0.200102 0 0.1 0.3 -0.3 0.3 0 0.497769 0.297769 0.00449326 0.206724 -0.493276 0.2 -0.2 0 0.3 0.1 -0.2 0.1 0.2 0.0340435 
-0.3 0 0.3 -0.2 -0.1 0.3 -0.1 -0.2 -0.4 0.2 -0.1 -0.1 -0.3 0.1 -0.1 0.1 -0.2 -0.3 -0.2 0.1 0.2 0.3 -0.3 -0.3 -0.4 -0.5 0 0 -0.2 0.5 0 0.5 0.1 0.4 0 -0.5 -0.5 0.2 0.4 -0.2 0.2 -0.299615 0.500385 0.00011301 -0.100272 -0.300272 -0.3 0 0.5 0.3 -0.1 -0.4 0.1 0 -0.4 0.5 -0.5 0.5 0.2 -0.4 -0.2 -0.3 -0.4 -0.5 -0.5 -0.4 0.2 -0.400115 -0.198693 0.0965568 0.0965211 0.493266 0.484625 -0.115749 -0.0165442 -0.205655 -0.00193511 -0.4 0.4 0.5 -0.3 0.1 -0.5 -0.2 -0.4 -0.5 -0.2 -0.3 0 0.4 0.0999987 0.294837 0.194837 0.394749 0.194363 -0.011243 -0.416158 -0.420524 -0.124552 0.171684 -0.220706 -0.424077 0.17358 -0.112776 0.198075 -0.497175 -0.29705 0.1 0 0.2 0 0.5 0.5 -0.3 0 -0.5 0.2 -0.00155236 -0.506714 -0.506678 -0.205088 0.000143653 -0.305493 0.0858252 -0.215882 -0.415527 0.275103 -0.224644 0.27199 -0.122366 -0.0130868 0.096804 0.00801737 -0.492583 -0.390783 -0.194817 0.500245 0.3 0.4 0.4 0.5 0.4 0.3 0.300109 0.300109 0.495348 -0.402913 0.400543 0.500088 -0.504164 0.00172039 -0.0991623 0.404289 -0.00479889 0.081257 0.0889742 -0.414574 -0.105588 0.2351 0.0326228 -0.362816 0.541158 -0.36733 -0.480756 0.197956 -0.10216 -0.4 -0.1 0.4 -0.3 -0.4 0.405951 0.307219 0.211623 -0.00178215 -0.302942 -0.492955 0.00770019 -0.0897278 -0.299352 -0.0164256 -0.431249 -0.0250783 -0.520909 0.26944 0.101159 0.0118803 0.137454 0.263762 0.354425 0.560671 0.128791 0.200198 -0.502334 -0.1 -0.5 -0.4 -0.4 0.3 0.00459443 0.00854684 -0.492802 -0.518442 0.48135 -0.40749 0.405718 -0.314721 -0.13391 -0.137105 -0.171941 -0.0559938 0.0573965 0.238008 0.155833 -0.0375902 0.0138051 0.125853 -0.471997 -0.347901 0.418648 0.301249 0.199913 0.2 -0.3 -0.2 0.5 0.4 0.405935 0.208107 0.00098824 0.179106 -0.530507 0.349056 0.0795688 0.456102 -0.347366 0.336443 -0.481682 0.327334 -0.371272 -0.105756 0.234484 0.374685 0.384595 -0.198124 -0.506027 -0.381591 0.307707 0.101381 0.299913 0.5 0.4 -0.5 0.0971565 -0.499711 0.402382 -0.196072 0.175748 -0.239606 0.345729 0.2236 -0.36298 -0.0874875 0.133171 -0.469088 -0.562701 0.0248049 -0.593508 0.220943 -0.552503 0.289973 0.37666 0.371775 0.271604 0.376806 -0.198981 -0.00028564 0.100148 0 -0.5 0 0.0971565 -0.299711 0.508888 0.493656 -0.524095 -0.139525 -0.147004 -0.15369 0.23385 -0.580232 -0.379662 -0.137815 -0.428144 0.168466 -0.545009 -0.0264715 0.189398 -0.4154 -0.00124459 0.263546 -0.537801 -0.0344133 0.0942508 -0.00426723 0 -0.1 0.2 -0.3 0.3 -0.2 0.406086 -0.00484766 -0.137111 0.452164 -0.0728772 0.326932 -0.42118 0.265531 -0.535814 -0.0952913 0.424338 0.218093 -0.0906195 -0.281589 -0.0157302 -0.206208 -0.31199 0.361611 -0.538506 -0.4259 -0.308911 -0.311192 -0.1 0.4 0 -0.3 0.3 -0.3 -0.195369 -0.294232 0.390745 0.0497876 0.362994 -0.506439 0.0114168 -0.481733 0.0193782 0.228307 0.0496144 0.563326 0.364164 0.328022 -0.114512 0.19762 -0.516719 -0.56556 0.246669 -0.0215254 0.381767 -0.111757 -0.4 0.4 0 -0.5 -0.3 0.3 0.00636568 0.0050757 -0.107453 0.392541 0.283294 -0.200203 -0.198092 0.51034 -0.2743 0.242552 0.565574 0.570777 -0.250637 0.0128212 0.00579302 -0.0122436 0.363409 0.251537 -0.437034 -0.213803 -0.22032 -0.0105074 -0.0986407 -0.2 0.4 0.4 0 -0.2 0.506366 -0.0954466 -0.481378 -0.0932593 -0.301397 0.511571 -0.068177 0.0509605 0.550372 -0.420131 0.484768 -0.0337097 0.136112 -0.0933387 -0.508379 0.0781425 0.467034 -0.0279321 0.0625703 -0.303553 0.200001 0.294193 -0.104833 0.0940107 -0.1 0.1 -0.3 0.4 0.406637 -0.190718 -0.0817048 -0.473018 0.216863 0.0206521 -0.287687 0.430496 -0.338663 -0.121071 0.184118 0.333007 0.203377 0.404296 0.518355 -0.00492198 -0.528832 0.346657 -0.209641 -0.31007 0.494992 0.292669 -0.00619269 -0.105989 0.5 -0.2 0.1 -0.5 0.200271 -0.183034 -0.281172 0.226173 0.102447 0.512364 -0.498477 -0.479292 0.351826 0.257924 -0.136517 -0.106541 -0.496416 0.497193 0.525045 0.231111 -0.504424 -0.0480312 0.285028 0.495314 0.195633 0.479115 0.295548 0.194011 0.2 -0.1 0 -0.1 -0.298586 -0.387335 0.312541 0.21646 -0.506819 0.478056 0.0549346 0.388026 -0.103793 -0.293263 0.295466 0.267781 -0.314036 -0.00173462 -0.466005 -0.478106 -0.00496889 -0.348189 0.476685 -0.134212 0.473579 0.373772 0.49001 0.2 0.1 -0.2 0.5 0 0.000937176 0.211435 -0.493967 -0.405928 0.187821 -0.0330092 -0.418566 -0.0249973 -0.507406 0.161116 0.265004 -0.0318741 0.074395 -0.500826 -0.390007 -0.0724539 0.286042 -0.0263966 0.191513 0.375716 0.277861 -0.0174762 -0.104117 0.2 -0.2 0.1 -0.4 0.00121745 0.302455 -0.0859395 -0.196923 -0.00250195 -0.221537 0.0652878 0.16351 0.438538 -0.266148 -0.260141 0.285754 0.0650487 -0.517689 0.0705592 -0.389039 -0.279002 -0.409011 0.272621 0.077117 -0.323848 -0.120638 0.281889 -0.0055381 0.4 -0.3 0.3 0.2 0.201753 0.00604378 -0.281115 0.00283537 0.00281477 0.48866 -0.0385131 -0.0478917 -0.171988 -0.571796 -0.0720681 0.438253 0.457403 0.348441 0.0629826 -0.00359433 0.0138704 0.1638 -0.526397 0.361805 -0.0263371 -0.329858 0.286575 0.094838 0.1 0 0.4 -0.4 0.00175278 -0.293926 -0.18512 0.00877183 0.00253648 0.00442139 -0.0171274 0.260513 0.429307 -0.0691382 0.042643 -0.251504 0.45468 -0.0594557 0.377292 -0.311391 -0.0168821 -0.124039 0.15942 -0.424978 0.476683 0.380422 -0.413314 -0.307133 8.82731e-05 -0.3 -0.2 -0.4 -0.398247 0.501924 0.111171 0.00877536 -0.385249 -0.294499 -0.0202576 0.47313 -0.243615 -0.225559 -0.20179 -0.222133 -0.0211867 0.359271 0.0820954 0.282742 -0.517628 -0.314278 -0.0251425 -0.225511 0.18187 -0.0120153 0.293287 -0.3 0.4 -0.3 -0.2 -0.4 0.3 0.00027144 -0.294271 0.209441 0.516041 0.405719 -0.120205 0.473242 -0.0072274 -0.182709 -0.284999 0.500972 -0.104796 0.395991 9.10328e-06 0.222569 -0.0887521 0.00307429 0.297627 -0.396816 0.499122 0.493325 0.298449 0.2 -0.1 -0.2 0.1 0.2 0.4 0.400271 0.503381 0.00385386 -0.00466215 0.183612 -0.520953 0.282372 0.183796 0.30271 -0.410488 -0.420149 -0.0382313 -0.222831 -0.295472 0.202963 0.00705248 0.201519 -0.298923 0.304395 -0.399281 -0.205123 0.3 -0.4 0.5 -0.3 -0.5 0.1 -0.1 -0.5 0.3 -0.103429 -0.316754 -0.123672 -0.135564 0.171363 -0.0267839 -0.0173074 -0.229036 0.473314 0.1681 -0.522955 -0.315229 0.176658 0.486325 -0.0032296 0.407712 -0.4 0.3 -0.1 0.5 0 -0.4 0.3 -0.5 0.3 -0.3 0 0.1 -0.00773783 -0.0239921 0.0766557 0.371183 -0.423609 -0.217353 -0.116679 -0.331183 0.0714162 -0.228545 0.383364 -0.408282 -0.216656 0.383453 0.389058 -0.1 -0.3 -0.1 0.3 -0.1 0.2 -0.3 0.5 0.2 0 0.2 0.4 0.4 -0.00420393 0.484425 -0.515575 -0.0113707 0.5 -0.3 0.5 0.2 0 0.3 -0.205381 -0.305381 -0.00715416 -0.501773 0.098227 -0.2 0.1 -0.5 0.5 -0.4 0.4 -0.5 -0.4 -0.32979 
0.3 0.5 0.2 0 0.3 -0.2 0.4 0.4 -0.2 -0.3 -0.4 0.4 -0.5 -0.4 0 -0.3 0.4 0.2 0.4 0.4 -0.4 0.4 0.2 0 0 -0.4 0.1 0.5 -0.1 0 -0.1 0.1 -0.2 -0.1 -0.2 -0.4 0.1 0 0.1 0 -0.2 0.298261 -0.201739 -0.202303 -0.300564 -0.100564 0.3 0 -0.4 -0.2 0.3 -0.4 0.1 0 0.5 -0.5 -0.3 0 0.4 -0.1 -0.2 0.1 -0.3 -0.2 -0.3 -0.3 0.4 -0.00109579 -0.502073 -0.401602 -0.00823856 -0.110212 -0.407887 0.0911446 0.0972491 -0.300955 -0.10154 -0.2 0.2 0.1 -0.1 0.3 -0.3 0.3 -0.3 -0.3 0 -0.4 -0.5 0.3 0.499679 -0.105215 0.394785 -0.10489 0.493692 0.393765 -0.315312 -0.217838 0.0903957 -0.120003 -0.0148966 -0.511884 -0.208489 0.390619 -0.00728529 -0.50149 -3.62248e-05 0.5 0.1 0.3 0.5 -0.1 0.2 0.4 0.5 0.2 0.1 0.4983 -0.206594 -0.00674268 0.193877 -0.308958 -0.107864 0.105725 0.102261 0.392908 0.490329 0.381269 0.178228 -0.0127845 -0.399159 0.477233 -0.0231564 0.378799 0.489311 -0.00743194 0.0955988 -0.5 0.2 0.2 -0.5 -0.3 0.5 -0.00242333 -0.502423 -0.0140921 0.482557 0.480527 -0.00683159 0.378954 0.196121 0.211649 0.383721 -0.41349 0.291325 -0.546843 -0.0520288 0.454788 -0.127473 -0.452205 -0.0479932 -0.0575507 -0.432735 -0.0199641 -0.20792 0.301438 0.5 0 -0.2 -0.3 -0.2 0.397563 -0.0100069 -0.320015 -0.423885 -0.327097 0.475559 0.0847427 0.184455 0.101206 0.20204 0.000180995 -0.498063 -0.422684 -0.236293 -0.24651 0.474197 0.142849 -0.591495 -0.490225 0.125931 0.351396 -0.424673 0.298076 0.4 0.2 0 0.2 -0.3 0.199158 -0.408462 -0.519848 -0.121917 -0.325087 -0.413911 -0.0920789 0.102456 0.0162976 -0.0576646 -0.231613 0.0840478 -0.126141 0.282152 0.0452578 -0.164374 0.275849 0.228936 0.300477 -0.272008 -0.234226 0.370236 -0.307887 0.4 -0.3 0.2 -0.3 0 -0.300252 0.0904652 -0.00903485 0.290397 -0.40526 -0.303115 0.414929 -0.475774 0.0565976 0.567865 0.0768816 -0.124153 -0.391578 0.0648498 -0.0390111 -0.360165 0.524168 0.436893 -0.468829 0.341324 0.0730406 0.0936219 -0.307887 0.1 0 0.2 9.58851e-05 0.200711 -0.501958 0.388329 0.291834 -0.399487 -0.0933135 -0.385895 -0.248583 -0.244014 -0.00593637 0.249352 0.138722 0.0525871 -0.112798 0.440494 0.545161 0.0314022 0.211415 0.165844 0.454179 0.0724432 0.492174 -0.103062 -0.00403072 -0.1 -0.5 0.4 9.58851e-05 0.400711 0.193121 0.29213 -0.403899 -0.0957472 0.318022 -0.369445 -0.441721 -0.250341 0.56927 -0.466104 -0.184417 0.3356 0.0542693 0.0280979 0.149117 0.166877 -0.179517 0.0917219 0.0688896 0.402425 0.3936 -0.0999438 0 0 -0.4 -0.1 0.3 0.5 0.295631 -0.210324 0.099107 -0.477307 -0.0700207 0.542582 0.1628 0.517829 -0.457308 0.202958 -0.321227 0.107593 -0.47976 0.344611 0.0376792 -0.242638 -0.171996 -0.515747 0.471943 0.298667 0.0999659 -0.294032 0.5 0.3 0.4 -0.5 0 0.5 -0.00493318 -0.409288 0.397649 -0.472286 0.340672 0.0347995 0.546987 0.237071 0.501724 -0.00520007 0.295919 -0.188949 0.42058 -0.35631 0.0418507 0.0638701 0.429645 0.285379 -0.013764 0.104376 -0.294956 -0.493684 0.1 0 0.3 0 0.5 0.4 -0.204867 0.390714 0.399869 0.0138807 0.244866 -0.050495 0.230379 0.537123 -0.50321 0.486973 -0.388468 -0.490798 -0.265044 0.530338 0.0519839 0.169577 0.429715 -0.21379 0.483508 -0.510149 0.203353 0.406474 0.399449 0.5 0 0.2 0.1 0.3 0.395133 -0.20915 0.493817 0.498857 -0.461017 -0.155332 0.00744165 -0.0928366 -0.534819 -0.51583 -0.51129 -0.398037 0.117118 0.0370782 -0.235591 0.162648 -0.493015 0.0796441 0.386816 0.290265 -0.0004275 0.00577943 0.200378 -0.0989538 -0.1 0 0.2 -0.2 -0.209428 -0.215157 -0.31065 0.38238 0.408099 -0.188413 0.422916 -0.32105 0.457535 0.183259 -0.110483 0.500735 0.130229 -0.0731651 -0.176006 -0.352256 0.212404 -0.305256 -0.112927 -0.504149 -0.498255 -0.094222 -0.29907 0.501046 0.4 -0.1 0.1 0.2 0.395439 -0.12037 0.0767705 0.278051 -0.292612 0.103895 0.398652 0.0507442 -0.421297 0.381022 -0.20202 -0.289919 0.0271035 0.133427 0.123186 -0.393178 -0.484675 0.098781 -0.00541895 0.0896841 -0.314161 0.300039 -0.504218 0.201046 -0.4 0.4 0.5 -0.5 -0.50665 0.0858383 -0.0205061 0.0826823 -0.00603406 -0.308776 0.468628 0.464484 0.262345 0.460716 0.432254 -0.244249 0.532885 -0.390172 0.233003 -0.0211 -0.0170237 -0.0118138 0.482587 -0.520511 -0.21054 0.0968852 0.494448 0.2 0.4 0.2 0.1 -0.2 -0.203535 -0.115481 0.261787 -0.330853 -0.527701 -0.442021 0.242142 -0.0665216 -0.473541 -0.528977 -0.366438 0.356323 0.436249 -0.294545 -0.219284 -0.251158 0.172462 -0.0299205 -0.126539 -0.121005 0.491173 -0.507514 0.196362 -0.5 0.4 -0.1 0.1 0.298561 -0.104445 -0.0150147 -0.140277 -0.348613 0.256476 -0.567037 0.414384 0.404498 0.421749 0.389819 0.136121 -0.150101 0.037883 0.42516 -0.0212071 -0.0272457 0.0602046 -0.121927 -0.0223138 -0.212002 -0.00970404 0.298499 -0.401334 0.5 0.2 -0.4 -0.5 0.497698 -0.0082167 -0.314274 -0.426177 -0.147416 -0.261286 0.204137 0.200679 0.0129947 -0.0587136 -0.496271 0.339404 -0.345744 0.0310105 0.487248 -0.132166 0.0653198 -0.343886 -0.0293362 -0.530039 -0.421938 -0.0166276 0.190405 -0.00489355 0.3 0.1 -0.4 0 -0.0023023 0.492584 0.185164 0.376702 -0.436902 0.235762 0.43158 0.322867 0.128899 0.18457 -0.254503 0.156315 -0.371352 0.22197 0.192949 0.305255 -0.220368 -0.339347 0.475807 -0.329473 -0.322872 -0.0132965 -0.110446 0.494967 -0.400012 0 -0.1 -0.4 -0.302302 0.29674 0.386716 -0.115928 -0.42728 0.0546213 -0.54915 -0.528303 -0.306486 -0.378159 0.547186 -0.350425 -0.163091 0.0414709 -0.196603 -0.195197 -0.113396 -0.330113 0.17353 0.275817 0.186672 0.19031 0.0937276 -0.3 -0.2 -0.3 -0.2 -0.2 0.4 0.299967 0.295528 -0.108773 -0.0288274 -0.529049 -0.510523 0.100941 0.429218 -0.159601 0.456137 -0.480402 0.429979 0.538963 0.237049 0.0103333 -0.000563411 -0.421061 -0.409865 -0.209379 -0.00530297 -0.504012 0.0986211 0 0.4 0.2 -0.5 -0.1 -0.5 -0.500033 -0.000817035 -0.101277 -0.00221854 -0.400442 0.514845 0.0350645 -0.157834 0.366973 -0.463574 -0.466444 -0.0626294 -0.372036 0.425296 0.313888 0.486743 0.282669 -0.506151 -0.20952 -0.402647 0.0973673 -0.4 0.3 0 0 -0.4 -0.4 -0.5 -0.2 -0.1 -0.299983 0.0189558 -0.28894 -0.382567 -0.267257 0.335528 0.448309 0.448057 0.0528585 0.144954 0.543163 -0.362601 0.321307 -0.493217 -0.399481 0.000332887 0 0.3 -0.4 -0.1 -0.5 0.3 0 0 -0.2 0.5 0.5 0 0.415297 -0.481588 -0.275154 0.326497 -0.379977 0.228577 0.32228 -0.0733497 0.229621 0.0249764 0.331505 0.518642 -0.384302 -0.497934 0.400186 0 0 0.4 -0.2 -0.2 0.5 -0.5 0 0 0.1 0.1 0.3 0.2 -0.496829 -0.498112 0.301888 0.498717 -0.2 -0.5 0 -0.4 -0.4 -0.3 -0.00072525 -0.300725 -0.00065365 0.200072 -0.0999284 0.2 0.1 0.2 0 0 0.4 0 0.4 0.150074 
-0.4 0.4 0.4 -0.1 0.2 -0.5 -0.3 -0.1 -0.1 0.1 -0.1 -0.3 0 -0.4 -0.4 0.4 0 0.4 0.5 0 -0.1 -0.2 0.5 0.1 0 -0.4 -0.4 -0.5 -0.3 0.4 0 0.3 0 -0.3 -0.4 -0.3 -0.1 -0.2 0.5 -0.2 -0.4 0.500077 7.68545e-05 0.400768 -0.399309 0.400691 0.2 -0.3 0 0.3 0.1 0 0.2 0.2 -0.3 -0.5 0.3 0.3 -0.4 0 -0.3 0.5 -0.1 0.3 0 0.2 0.5 -6.73373e-05 -6.75941e-05 0.00237961 0.00242867 -0.292536 -0.489795 0.514664 0.113987 -0.493948 0.00365922 0.5 -0.5 0.5 -0.1 -0.5 0.5 0.3 -0.3 0 -0.5 0.4 0.4 -0.4 0.10005 5.00071e-05 5.00071e-05 0.400043 -2.41688e-05 -0.199369 0.00507323 0.510341 -0.181995 0.0241553 -0.371734 -0.371778 -0.0790342 0.316081 -0.389615 0.103738 -0.29999 0.2 0 0.4 0 -0.2 0.3 0 -0.4 0 0.3 0.100364 0.400364 0.202868 0.402862 -0.297045 0.303406 -0.0800512 -0.166754 0.248017 0.150689 0.444784 0.343324 0.537623 -0.279581 -0.278499 0.321646 0.305178 -0.310867 -0.0135932 -0.406757 -0.1 0.5 -0.1 -0.1 -0.1 0.3 -0.399755 -0.399755 -0.188323 0.013984 0.315574 -0.39264 0.00640911 -0.0931297 0.102804 0.221213 0.407192 -0.285204 0.0119791 0.110298 -0.387575 0.416958 0.0991845 0.0949877 0.469132 -0.42364 -0.0253072 0.0875629 -0.00376506 -0.5 -0.5 -0.3 0 -0.2 0.300271 -0.499657 0.0120449 0.423617 -0.181706 0.318764 0.505687 -0.510645 0.395792 0.476253 0.492649 0.0938069 0.175063 0.0621394 0.296313 0.476733 -0.292738 0.310367 -0.410147 -0.133075 -0.521239 0.302008 -0.202813 0.1 0.2 0.2 0 -0.4 0.49277 0.093273 -0.00197845 0.00100612 -0.00599969 -0.312082 -0.22637 0.351352 -0.0540599 -0.371661 0.262263 -0.0528071 -0.274203 0.392486 0.193405 0.035303 -0.231048 -0.0179638 0.400932 0.0766032 0.477552 0.100048 -0.199065 -0.1 0 0.3 -0.2 0.5 0.393034 0.294209 0.177045 0.0875203 0.193959 -0.215935 0.254992 0.339811 -0.067758 0.244091 -0.518922 -0.421654 0.038364 -0.589794 0.0337824 0.359121 0.0600201 -0.430504 -0.508225 -0.408424 -0.215081 0.103859 0.000935469 0.1 0 0 -0.100622 0.498433 -0.499518 -0.304988 -0.118079 -0.505428 0.471952 -0.241145 0.316005 -0.0885757 -0.0749091 -0.330884 -0.289293 0.417528 -0.0267849 0.424375 0.305243 0.0235202 -0.190898 0.125061 -0.338883 -0.115336 0.197001 -0.499252 0.500251 -0.4 0.2 -0.3 0.299378 -0.501567 0.100487 0.00118265 -0.107086 -0.000278473 0.290184 -0.54298 0.118779 -0.57379 -0.0840349 0.0413401 0.50241 0.210244 -0.311131 -0.183417 -0.336202 -0.22285 -0.201277 -0.0693993 -0.0372015 0.0923369 -0.0902711 0.309869 0.3 0.1 0.2 0 -0.4 0.3 0.300189 0.299977 -0.299989 0.385709 -0.128728 0.433538 -0.263237 -0.0860229 0.409813 -0.454157 0.384945 -0.188 0.296683 0.30234 -0.125629 -0.530395 -0.390371 -0.458048 -0.49846 0.00212176 0.0167614 -0.489223 -0.4 -0.1 0 -0.1 0.4 0.1 -0.399962 -0.100387 -0.186873 -0.0266294 -0.0485566 -0.455972 -0.600937 0.215531 0.118484 0.244765 0.482163 0.267873 0.0744303 0.102644 -0.523032 -0.53663 -0.48772 -0.00718519 0.0982426 0.209737 0.116021 0.31029 -0.3 -0.3 -0.3 0.1 -0.4 0.3 -9.897e-06 -0.000416138 -0.480367 -0.0025722 -0.437733 -0.0676988 0.116056 0.329863 -0.0332316 -0.106528 -0.183765 0.00771815 0.39136 -0.196571 0.393164 -0.00940725 0.230954 -0.299555 0.122495 -0.186073 0.115232 0.212233 -0.20063 0.3 0.5 0 0 0.4 -9.897e-06 0.0032541 -0.481014 -0.290778 -0.0494379 0.236503 0.252965 -0.433074 0.433922 -0.00497173 -0.379914 -0.278572 -0.424623 -0.399245 -0.103098 -0.578337 0.356969 -0.298629 -0.0826413 -0.390442 -0.49024 -0.497495 -0.400572 -0.300032 -0.1 -0.2 -0.1 -0.3 -0.49883 0.100451 -0.375056 0.516512 0.370307 0.340175 -0.569454 0.144825 -0.544863 0.366022 -0.0876048 -0.401371 -0.533104 0.10148 0.210837 -0.567415 -0.0458721 0.518423 0.317395 0.41763 -0.292641 0.202506 5.86275e-05 0.499968 -0.2 0 0.5 0.5 0.20118 -0.399582 0.123854 -0.3844 -0.53977 0.43468 -0.0624204 -0.169081 -0.239285 -0.425438 0.370974 -0.211996 0.457697 -0.102105 0.216793 -0.0340973 -0.520185 0.129897 0.332424 0.124163 0.227299 0.126356 0.506503 0.399968 -0.4 0.2 0.3 0.4 0.204726 -0.397658 -0.378171 0.0913699 -0.417392 0.464338 -0.0519966 0.152163 0.142583 -0.145305 0.287887 -0.528831 -0.54265 -0.576719 0.226698 0.13218 0.118082 -0.0804862 0.0479405 0.331685 0.121758 0.42051 -0.0934966 0 -0.1 -0.1 0.4 -0.2 0.00362278 -0.0961822 0.125785 0.000413007 0.401421 -0.225632 -0.0160881 -0.0191653 -0.106155 0.00649118 0.190062 0.370539 -0.560578 -0.433888 -0.0262153 0.0308799 -0.284745 0.310615 -0.165254 -0.081103 0.0181683 -0.190634 0.206284 -0.5 0.1 0.2 0.2 0.30021 0.00443412 -0.0865157 0.521828 0.321204 -0.184321 0.388443 0.508495 -0.0806541 0.330658 -0.164702 -0.160982 0.308405 0.165742 0.359603 0.0084066 -0.372203 0.302713 0.0990211 0.415532 0.304308 0.30711 0.00515613 0.5 -0.2 0.1 -0.3 -0.1 -0.498975 -0.491231 -0.488673 -0.480666 0.0239101 0.0158915 0.0264312 0.323032 0.227828 0.323151 0.328543 0.239285 -0.20005 -0.216405 0.389883 -0.302284 0.397346 0.487349 0.081939 0.00867181 -0.198404 0.00488901 -0.197594 0.5 0 0.4 -0.3 0.1 -0.298975 -0.0926319 0.31579 0.426373 -0.189536 -0.290614 0.00488786 -0.0981625 0.521016 0.307733 -0.381537 0.306025 0.291828 0.381523 -0.0190525 -0.117877 0.369576 -0.22012 -0.50105 0.515434 0.10262 0.202657 -0.197616 -0.197978 -0.299626 -0.5 -0.4 0 0.00102471 0.103369 -0.0892163 0.315975 -0.490558 -0.290884 -0.294644 0.290858 0.185444 -0.0413206 0.371446 0.164943 0.06448 -0.532758 -0.127235 -0.206737 0.27631 -0.120094 -0.0142723 0.393131 -0.101458 -0.399618 0.100314 0 -0.2 0 -0.2 0.1 0.1 0.100153 0.00605737 0.00342416 -0.490039 -0.204882 -0.108201 0.471364 0.463134 -0.254997 0.227036 -0.139825 -0.520723 -0.235263 0.460694 -0.0258097 0.168069 -0.318759 0.083996 -0.507096 -0.301612 -0.199655 0.300314 -0.3 0.3 0 0 0.5 0.3 0.200153 -0.299665 0.500643 -0.497403 0.0859512 -0.421237 -0.437698 -0.242398 0.0514776 0.333374 -0.0490023 -0.467023 -0.38546 0.243657 0.356467 0.15724 0.0741249 0.174727 -0.489098 0.500056 -0.0999696 -0.2 0 0.1 0.2 0 -0.4 0 -0.1 0 -0.299007 -0.0123151 -0.211462 -0.0241736 0.171098 -0.528295 -0.515134 -0.428128 -0.147388 0.437178 0.438756 0.443869 0.168913 -0.135716 -0.217428 -0.508459 0 -0.4 0.5 0 0 -0.1 -0.2 0.2 0 0.2 0 -0.5 0.393214 -0.212974 0.380895 -0.124854 0.182533 0.485752 -0.206949 -0.516365 0.282306 -0.116454 -0.140792 0.064879 -0.419523 -0.0223289 -0.00896948 0.4 0.5 0.2 -0.3 0 -0.2 -0.3 0.2 0.5 -0.3 0.1 0 0.5 0.199182 0.398496 0.398496 -0.500686 -0.5 -0.4 -0.1 0.4 -0.1 -0.4 0.400524 -0.499476 -0.501632 -0.00215577 0.497844 0 -0.3 -0.5 0 0.2 -0.2 -0.4 -0.3 -0.14597 
