0 -0.2 0.4 0.4 0 -0.5 0.3 0.3 -0.2 0.3 0.4 0.4 -0.2 -0.4 -0.3 -0.5 -0.2 -0.1 0.1 0.3 -0.1 -0.1 0.1 -0.2 -0.5 -0.1 -0.4 -0.3 0 -0.3 0.2 0.1 0.5 -0.2 -0.5 -0.4 0 0.2 -0.3 0.2 0.2 -0.5 0.1 0.2 -0.3 0.1 -0.4 -0.3 0.4 -0.1 -0.3 -0.1 -0.5 -0.3 0.4 -0.2 0.1 0.4 0 0.1 0.4 -0.3 0 -0.1 0.2 0.3 -0.5 0.1 -0.3 0.5 -0.499975 0.500082 0.199183 -0.00054022 0.200011 0.400742 0.300277 0.3 -0.3 0.3 -0.4 0.3 0.2 0.1 -0.4 0.3 0 0.2 0.4 0.1 0.2 0 -0.3 0 -3.06263e-06 -0.400003 -0.100003 -0.300278 -0.100027 0.499576 -0.200163 0.400304 0.000297447 0.300671 0.100277 0 -0.2 -0.3 -0.3 -0.4 -0.5 0.2 0.1 0 0.5 -0.5 0.3 -0.1 -0.2 0.4 -0.5 -3.06263e-06 -0.0991832 -0.399186 0.300822 3.92531e-05 0.201111 0.00316959 -0.396333 0.301134 -0.299729 0.0994096 0.400902 0.19992 0.4994 0.0994002 0.2 -0.3 0.1 0 0 0.4 0.1 0.397052 -0.102948 -0.401784 0.201165 0.101165 0.401145 -0.198146 -0.097174 -0.294574 -0.195451 0.305514 -0.393076 0.308325 0.204205 -0.398716 -0.000609012 0.39728 -0.204774 -0.303694 0.495424 0.198878 -0.3 0.3 0.5 0.2 -0.5 -0.1 -0.1 0.497032 0.194658 -0.305342 0.401061 0.101078 0.1018 0.203358 0.503061 0.505436 0.00553312 0.306208 -0.0939958 -0.392932 0.407387 -0.097149 0.00183091 0.399457 0.295707 -0.211357 -0.511261 -0.507888 0.293234 -0.200059 0.1 0.3 -0.2 0.4 -0.3 -0.102413 -0.00478683 0.293221 0.196705 -0.400153 0.500667 0.301325 0.500221 -0.303655 -0.400218 -0.0995793 0.506209 0.105372 0.202809 0.0952833 -0.103587 -0.506443 -0.105624 0.391406 0.388151 -0.00553674 -0.505357 -0.49865 0 0.3 0 -0.5 -0.1 0.297122 0.394748 -0.507282 -0.403111 0.297758 -0.096101 -0.0994813 -0.0980284 -0.201939 0.50095 -0.105132 -0.207025 0.206526 0.500156 -0.104159 -0.403782 -0.100042 -0.000442623 0.399254 0.295108 -0.110423 0.00134979 -0.29865 0 -0.4 -0.4 -0.298274 0.5 -0.00341448 -0.505789 0.387032 -0.302975 -0.0989367 -0.498216 -0.49708 0.395928 0.400483 0.0956069 -0.404543 0.194323 0.507787 -0.504652 0.29755 0.197959 0.0976951 -0.200306 -0.000426217 -0.19984 -0.0100339 0.101409 0.00211562 -0.3 -0.2 -0.2 0.501726 -0.2 -0.00695234 -0.106952 -0.113953 -0.503323 0.00200387 0.00221985 0.398999 -0.500405 0.0961234 0.09624 -0.203399 0.00289621 0.198068 -0.202554 -0.402948 0.499921 0.096101 0.0998405 0.499611 -0.297177 -0.403001 0.102116 -0.1 -0.3 0.1 -0.5 -0.2 0.5 0.0964621 -0.306559 -0.106163 0.298162 0.102003 0.29607 0.496475 0.193589 -0.00154976 -0.303415 -0.00600009 0.497941 0.295394 -0.306514 -0.30758 -0.505925 -0.00300398 0.0980947 0.497239 0.200429 0.39485 -0.39926 0.2 0 0.2 0 0.3 -0.4 -0.403538 0.196391 -0.105659 0.302179 -0.402802 0.297938 -0.00646072 0.0934011 -0.105027 0.0986202 -0.402776 -0.403591 0.391144 0.0918023 -0.110792 -0.410851 0.291229 -0.301094 0.0967191 -0.39475 -0.295081 -0.0992604 0.3 0.5 -0.2 0.2 -0.5 0.3 -0.203538 -0.00360939 0.194341 -0.00265349 -0.400915 -0.00396283 -0.207211 0.193264 0.293723 -0.0100103 -0.00381177 -0.406539 0.289488 0.0881599 0.289779 -0.310467 -0.10904 -0.510765 -0.405546 -0.300351 0.104848 -0.49926 -0.5 0.5 0.3 -0.5 0 -0.4 -0.00353786 -0.103609 -0.00845269 -0.00272285 0.397823 0.495096 0.0868963 0.286228 0.287053 0.386776 0.384897 -0.311268 0.485486 0.0818903 -0.217455 -0.517477 0.486105 0.287468 -0.101575 -0.303138 -0.496776 -0.500884 -0.300164 0.1 -0.3 -0.1 -0.1 0.5 0.0964621 -0.103609 -0.00850245 0.493297 -0.30643 0.291491 0.0915475 0.4807 -0.519546 -0.0224555 -0.319373 -0.017732 0.48213 -0.518458 0.179741 -0.419209 -0.0170371 -0.406269 0.397394 -0.00324259 -0.0967765 -0.300884 0.499836 0.1 -0.4 0 -0.5 0.5 0.3 -0.203609 -0.00830688 -0.00754033 0.0925279 -0.0106079 -0.309984 0.385467 0.484303 -0.509449 -0.116025 0.186358 0.384581 0.489748 -0.41605 -0.51246 -0.206343 -0.501392 0.304466 -0.197262 -0.0012058 0.200576 -0.3 0 0 -0.5 -0.1 -0.1 -0.3 -0.399842 -0.404769 -0.505829 -0.00563923 0.194679 -0.506722 0.390694 -0.210594 0.487563 -0.408869 -0.0100429 -0.00584175 -0.01046 -0.113543 -0.506274 0.39752 -0.395648 0.305625 -0.19597 -0.500671 0.301039 0.4 -0.4 -0.5 -0.2 0 0.2 0.4 0.500225 -0.300471 0.102011 0.00218197 -0.19852 0.00144358 -0.395828 -0.499253 -0.00299253 -0.00954675 0.0893877 -0.507876 -0.311068 -0.207888 -0.108492 0.0970394 0.102994 0.301564 0.00384629 -0.395762 -0.398943 0 0 -0.2 0.1 0 0 -0.2 0.000158361 0.399618 0.00527725 -0.095585 -0.0936101 0.106577 0.307744 -0.299228 -0.00716709 -0.00817279 0.39289 0.394767 -0.00405019 -0.00941698 0.493715 0.096043 -0.398949 -0.398851 0.00451909 -0.295762 0.00103906 -0.2 0 -0.3 0.2 -0.4 0.3 0.4 -0.199839 -0.200349 -0.29459 -0.194329 0.507893 0.409771 -0.389467 0.497652 0.0982675 -0.101786 -0.202186 0.40111 0.49437 0.29153 0.0931091 -0.203275 -0.399662 0.501138 0.300362 -0.196129 0.199933 0 0.2 -0.4 -0.5 -0.1 0 -0.2 -0.299839 -0.000410681 0.402169 0.206695 -0.39054 -0.289512 -0.194287 -0.399106 0.100138 0.201999 0.500708 0.50191 0.199565 0.191899 0.496735 0.0981501 -0.0973357 -0.29763 -0.0984714 0.000690017 -6.72814e-05 -0.5 0 -0.5 0.3 0.4 0 -0.5 0.400161 0.000556671 -0.299233 0.00239505 0.511518 0.106348 -0.097757 0.397695 0.298034 -0.295477 0.408089 0.205521 -0.194727 0.198459 -0.503539 -0.101914 -0.19847 0.101529 -0.197952 -0.0988362 -0.1 0.4 -0.2 -0.3 0.2 0.2 0 0 -0.19998 0.200209 -0.100028 -0.298535 -0.0955987 0.397523 -0.101858 -0.102884 0.00338651 -0.191479 0.00726611 0.00475215 -0.0955535 0.196748 -0.401047 -0.00258948 0.101308 -0.00180615 0.198194 -0.198836 -0.1 0.5 0.4 0.3 0.3 -0.2 0.2 -0.3 -0.299983 -0.0999826 0.300275 0.000647911 0.00197007 0.289396 0.290174 -0.309713 0.504932 0.304403 0.00498943 0.302254 0.202028 0.39554 0.297356 -0.400285 0.201143 0.0011432 -0.198857 0.00116375 0.5 -0.2 0 0.1 0 0.5 -0.1 0.5 0 -0.3 0.00054002 0.000575917 0.195233 0.489401 -0.310268 -0.503866 -0.399113 0.399694 -0.000624086 -0.399487 0.199199 -0.101358 -0.300854 0.199979 0.499979 -0.5 -0.5 -0.5 -0.4 -0.4 0 0.2 -0.2 0.5 0.2 -0.2 0.4 0.300455 0.20061 -0.199332 0.396036 -0.504618 -0.498327 -0.0989999 0.000866999 0.000866999 0.500311 -0.099466 -0.499206 -0.299762 -0.199762 0.3 -0.2 0.5 0.5 -0.2 0 0.1 -0.3 0.4 -0.4 -0.1 -0.4 -0.5 -0.2 0.30016 0.20023 0.10023 0.50007 0.5 0.3 -0.2 0.5 0.1 0.4 0.1 0.5 -0.2 -0.4 -0.4 0.1 -0.4 0.2 0.4 -0.2 -0.3 0.1 0.2 0.187565 
-0.5 0.3 0.5 0.1 -0.5 -0.4 0.1 -0.5 0.1 -0.2 0.4 0.5 0 0 0.3 0.4 0.4 0 -0.2 0 -0.3 0.3 0 -0.1 0 -0.3 -0.3 -0.5 0.1 -0.4 0.3 0.2 -0.2 -0.5 0.1 -0.3 0 -0.5 0.2 0.5 0.5 -0.5 -0.4 0.5 -0.1 -0.4 0.4 0.2 0.5 0 0.4 -0.1 0.2 0.2 0.3 0.3 0.1 0.3 -0.5 0.4 0.2 0.3 0.1 -0.2 0.2 0.1 0.1 0.1 0 -0.2 -0.494767 -0.193842 0.0177507 -0.0822415 -0.394129 0.299367 7.78843e-06 0.4 -0.1 0.2 -0.2 -0.4 -0.1 -0.3 -0.4 0.5 0.3 0 -0.4 0 0.4 0.2 0.2 0.2 -0.00569278 0.294307 0.0943072 -0.409687 0.395158 -0.493821 -0.286515 0.318538 -0.291415 -0.198245 0.100008 -0.4 -0.5 0 -0.1 0.3 0.4 -0.2 -0.4 0.5 -0.4 0 -0.5 0 0.2 -0.4 0.4 -0.105693 -0.00522691 -0.205568 -0.110776 0.100066 -0.292303 0.212107 0.0106466 -0.388566 0.00582454 0.400138 -0.299725 0.100023 0.500205 0.400205 -0.5 -0.4 -0.5 0 0.3 0.4 0.4 0.0999354 0.199935 0.100227 0.199937 -0.100063 0.499556 0.392249 -0.412601 0.382777 -0.307958 -0.00207044 0.0131261 -0.491194 -0.089702 -0.0906993 -0.300988 0.104564 0.00877519 0.106118 -0.499781 0.5003 -0.5 -0.2 -0.1 0.5 0.5 -0.3 -0.2 -0.00019473 -0.100822 -0.400822 -0.00262972 0.197362 -0.00409618 -0.509452 0.181306 0.0822317 -0.503641 -0.196581 0.506885 -0.292583 -0.286182 0.401811 0.00656964 -0.0911685 -0.18543 -0.288395 0.305177 -0.0938734 0.105826 0.00444684 -0.3 -0.2 0.2 0.5 -0.4 -0.00405913 -0.00468613 -0.401951 -0.00313068 -0.505987 0.290368 0.279865 -0.0169839 0.193826 -0.202883 0.202993 -0.0990268 0.202121 -0.403097 -0.300732 0.310107 -0.484524 -0.179606 0.120959 0.511328 0.313259 0.0137723 0.512393 0 -0.5 0.2 -0.4 -0.1 0.29581 0.495183 -0.00291133 0.498359 0.0952807 -0.005394 0.181555 -0.0086025 -0.40596 0.511017 -0.482972 0.0168745 -0.000188157 0.195728 0.400546 0.0142952 -0.085521 -0.485195 0.318173 0.412813 0.414916 0.412393 -0.487607 0.2 0 0.4 -0.498595 -0.2 -0.499841 0.0995322 -0.502308 -0.00163657 -0.199654 -0.100708 -0.00809724 -0.0983582 0.106667 -0.0752791 0.521438 0.21032 0.200572 0.310623 -0.0926796 -0.0841857 -0.0874933 0.0105875 0.00934576 0.011257 0.210704 0.00794581 0.400741 -0.5 -0.3 0.1 0.00140523 0 0.19924 0.39924 -0.501624 -0.000729716 -0.0953083 0.00336426 -0.388199 0.225373 0.533649 0.530912 -0.0751245 0.215442 0.00330041 -0.495007 -0.490908 -0.279954 -0.479258 0.0154372 0.0073067 -0.398072 0.00492991 0.100741 0.2 -0.2 -0.1 0 -0.1 0.3 0.299081 0.0996308 0.398892 0.0994403 0.00345126 0.408524 0.31452 0.234952 -0.367192 0.530938 0.30712 -0.292082 -0.0914814 -0.38487 0.330284 -0.179819 0.0223494 -0.0846295 0.410002 -0.297485 0.504165 0.400495 0.2 -0.1 -0.1 0.3 0.5 -0.1 -0.000918982 -0.500659 0.299852 -0.295719 -0.497686 0.509584 -0.466007 0.536887 0.234722 -0.164688 0.00543888 -0.200055 -0.090367 -0.18047 -0.378964 -0.0798732 -0.476081 0.123908 0.423373 0.50789 -0.396603 0.400495 0.2 -0.4 -0.2 0 -0.2 0 0.499081 0.499341 0.399852 0.506284 -0.0931585 0.512728 0.0447298 0.436839 0.436391 0.0232224 0.29552 -0.490007 -0.395031 0.0117179 0.517974 -0.380518 -0.0783013 -0.474258 -0.373336 0.0181397 -0.196343 0.000495499 0.5 0.2 -0.2 -0.4 -0.4 -0.2 0.499081 -0.400659 -0.00015045 -0.0924092 -0.388381 0.328047 0.24542 -0.468278 0.126326 -0.397214 0.30455 -0.196996 0.00476279 0.410699 0.509174 -0.379545 0.424101 0.127765 0.32357 0.116803 0.102612 0.199451 -0.000266347 0 -0.1 0.3 -0.1 -0.4 -0.300919 -0.500659 -0.396621 -0.495404 0.407964 0.428933 -0.262437 -0.0587907 0.234249 0.313637 0.221538 -0.281132 0.0156025 0.195252 -0.400673 -0.292466 0.0150647 0.0252258 0.423494 0.412609 0.402612 0.0994511 -0.500266 -0.1 -0.5 -0.5 0 0.2 0.1 -0.400659 -0.39588 0.00478305 0.507798 -0.364595 -0.264629 0.125771 -0.17438 -0.484732 -0.37217 0.528461 -0.0762579 -0.0106912 0.0963341 0.399246 0.499929 0.316925 -0.0917454 -0.0972034 -0.192941 -0.199771 -0.5 0.5 -0.5 0.5 -0.2 0 0 0.40091 -0.394961 0.512694 0.321435 0.131163 0.437847 -0.287178 0.019935 0.0162751 0.0274742 -0.075918 -0.0933705 0.393406 -0.210172 0.305889 0.00632347 0.01092 0.00993942 0.398292 0.00524985 0.498679 0.1 -0.5 -0.1 -0.3 0 -0.4 -0.3 0.403884 0.204072 0.510559 0.522058 -0.168728 -0.274 -0.386832 0.316401 0.0202248 0.123032 -0.0700069 0.0149153 -0.490787 0.209689 -0.0911445 -0.293377 0.114484 -0.00229405 0.297091 -0.400186 -0.101329 -0.4 -0.1 -0.1 0.1 0.5 -0.4 0.4 -0.19909 0.403804 0.110792 -0.178337 -0.37499 0.530781 -0.271246 -0.470576 0.520267 0.0257432 0.12202 0.0108786 0.0131752 0.109616 0.00604564 0.0074999 0.0965693 0.196997 -0.00538661 -0.000185636 0.398679 -0.2 0.5 -0.4 0 0.2 -0.2 -0.2 0.500337 -0.396766 -0.502167 0.515932 0.328245 0.330989 -0.376155 -0.273036 -0.0776666 -0.282247 0.214999 0.00886524 -0.184146 0.404965 0.101201 0.399522 0.392383 0.298617 -0.103943 -0.298539 0.0998308 -0.5 -0.2 0 -0.2 -0.5 0.1 -0.1 -0.399663 0.499148 0.001136 -0.397444 0.315995 -0.483765 0.0222696 0.018908 -0.18337 -0.284284 0.213511 -0.395262 0.302011 -0.202507 0.498208 0.299574 0.00454749 0.002535 0.102042 0.300318 0.399831 0.1 0.1 -0.2 -0.3 0 -0.4 0.1 -0.299663 -0.102314 0.299394 0.299708 -0.19676 0.398539 -0.00322722 -0.00206434 0.0991282 -0.507079 -0.401526 -0.406929 -0.207215 0.196021 0.400136 0.00229338 0.301687 0.00204204 0.401922 0.000291989 0.4 0.2 0.3 0.5 0.5 0.3 -0.1 0.1 -0.200382 -0.499468 -0.0959237 -0.490127 0.107914 -0.192876 -0.0941158 0.302655 -0.20691 -0.198909 -0.298525 0.00356913 0.302193 -0.400058 0.105965 -0.297652 0.201426 0.100452 0.000451824 0.300292 -0.3 0.2 -0.2 -0.2 -0.1 0 0.3 0.5 0.200191 0.000190752 0.00350541 -0.500068 0.400766 0.000591304 0.000289443 -0.103772 0.498885 -0.101138 -3.45473e-05 -0.302441 -0.399442 -0.393952 -0.194836 0.0018444 0.400162 0.500162 0.000161837 -0.199708 0.3 0 0.4 -0.4 -0.2 -0.5 0.4 0.2 0.4 0.2 0.299899 -0.000253478 -0.197187 -0.0981023 0.201283 -0.00580193 -0.00501424 -0.00379684 0.296151 0.298026 -0.499666 -0.199614 -0.298654 0.19987 -0.20013 0.3 0 -0.2 0.1 -0.5 -0.4 -0.5 0 -0.4 -0.3 0.3 0.3 -0.200417 0.499948 0.396539 -0.398431 0.00187333 0.297909 0.40096 0.0978029 -0.302197 -0.302268 -0.201843 -0.200033 1.80495e-05 1.80495e-05 0 -0.4 0.2 -0.2 0 0.5 0 0 -0.2 0 0.1 -0.1 -0.4 -0.1 -0.100275 0.399775 0.299775 4.94396e-05 -0.2 -0.1 -0.1 -0.1 0.5 0.5 0.1 -0.2 0.5 -0.1 -0.2 -0.4 0.3 -0.2 0.4 0.2 0.3 -0.1 -0.2 -0.273694 
0.1 0.2 0.1 0.5 0.1 0.2 -0.5 0.3 0.1 -0.5 0 -0.2 -0.4 -0.2 -0.2 -0.1 -0.3 0 -0.3 -0.3 0.3 -0.3 0 -0.1 -0.4 0.5 0.1 -0.4 0 0.3 -0.2 0.2 -0.3 0 0.5 0 -0.3 -0.2 -0.2 -0.5 -0.2 0.1 -0.5 -0.1 -0.2 0 0.4 -0.5 -0.1 0.3 -0.2 -0.2 -0.3 0.3 -0.5 0 0 0.5 -0.3 0.2 -0.5 -0.5 0 -0.3 -0.5 0 -0.4 0.4 -0.4 -0.2 0.299999 -0.29763 -0.297047 0.00331934 0.303357 -0.399611 0.200367 -0.5 0 0.5 -0.3 0.4 0 0 0 0.5 0.3 0.3 0.1 0.3 0.3 0 0 -0.3 -0.199991 9.1317e-06 9.1317e-06 0.00197921 -0.397894 0.204204 0.00800782 -0.391979 0.507001 0.403792 0.400367 -0.2 0 0.2 -0.4 -0.2 0.5 0.5 0.1 -0.3 -0.3 0 -0.2 0.1 -0.2 0.4 0.5 0.500009 0.101628 -0.301369 -0.197715 -0.494707 0.309818 0.418382 -0.283374 0.0181475 0.417134 0.510351 0.10292 -0.100529 -0.300004 -0.200004 0.4 0 -0.5 -0.4 0 -0.5 0.1 -0.500502 0.399498 -0.000454025 0.39943 -0.20057 -0.000544347 0.00331368 -0.0992449 -0.000132854 -0.191247 0.418545 0.026861 0.429106 0.330733 0.432707 0.124969 -0.381762 0.51391 0.209877 -0.000872788 -0.402264 0.1 0.4 0.5 0.4 0 0.4 0.1 0.301888 0.00189426 -0.0981057 0.304729 -0.392566 0.207728 0.109375 0.308458 0.0109675 0.121817 0.330637 0.430348 -0.464296 -0.470944 -0.474835 0.422325 0.32127 0.217543 0.214078 -0.494223 0.296968 -0.500768 0.10005 0.3 0.3 0.2 0.3 -0.3 0.00340026 0.203406 -0.501302 0.00139706 0.201122 0.203338 -0.297847 -0.297394 0.314249 0.423695 0.123761 0.0129927 0.11245 0.0112341 0.00554195 -0.496908 0.109375 -0.0907068 0.514911 0.00574402 -0.0999835 0.400122 0.40094 0.4 0 0.5 -0.5 0.1 -0.0966627 -0.296657 -0.00459754 0.296855 0.500441 0.40698 0.40383 -0.387823 -0.48768 0.411717 0.00441203 0.39905 -0.501728 0.395511 0.392706 0.0843793 -0.504425 -0.206278 0.300432 -0.19109 -0.098843 0.50094 -0.29906 -0.5 -0.2 0 0.495013 -0.5 0.300053 0.500059 -0.206372 0.19507 -0.300514 0.100742 -0.101089 -0.398798 0.196474 -0.00404886 -0.303131 -0.207653 -0.204741 -0.108449 -0.205246 -0.411932 -0.106936 -0.206518 -0.101484 0.00728659 -0.399239 0.200889 -0.299221 0.5 -0.1 -0.1 -0.00498701 -0.3 1.13305e-05 -0.199989 0.395824 0.0973942 -0.10143 -0.00295974 0.292508 0.497122 -0.406911 -0.401059 0.292819 0.299137 -0.0980018 0.487669 0.185347 -0.210161 0.192956 0.49106 0.198476 0.305736 0.00256665 0.000779293 -0.3 -0.3 0.3 0 0.3 -0.3 -0.200042 -0.300168 0.395795 -0.00165998 0.191332 -0.206457 0.396379 -0.198917 0.398857 0.500417 -0.310921 0.502838 -0.00255121 -0.496943 -0.114893 0.385671 -0.307449 -0.109931 -0.495892 -0.492388 -0.498319 -0.49823 -0.4 -0.3 0.5 0 -0.1 -0.1 -0.300042 0.199716 0.29909 -0.306424 -0.00507102 0.200898 -0.298797 -0.396165 0.0942702 0.298693 -0.303528 -0.0142572 -0.106088 0.386201 0.0945514 -0.115892 0.390176 -0.404937 0.00719792 -0.494278 -0.0955086 -0.19823 -0.3 -0.5 0.3 -0.3 0.1 -0.1 0.499958 -0.000284301 -0.10091 -0.104285 -0.496814 0.401117 -0.294684 0.00297485 -0.49684 -0.196741 0.207946 -0.395954 -0.210826 -0.119691 0.0850514 -0.00607756 0.397525 -0.293912 -0.38785 -0.190015 -0.0957512 0.50177 0 -0.1 -0.2 -0.3 0.3 -0.5 -4.1718e-05 -0.500284 -0.201014 0.403274 0.509473 -0.386419 -0.185088 0.522549 -0.279468 0.000649874 -0.301245 -0.40551 0.280633 -0.416197 0.386337 0.295181 0.30633 -0.181608 -0.0920196 0.109769 0.30408 -0.0983982 0.20225 0.5 0 -0.4 0.5 0 0.499958 0.399716 0.00716909 -0.489633 -0.185466 -0.381998 -0.475629 0.117185 -0.480997 -0.504474 -0.503991 0.185438 0.17824 0.174568 -0.0163619 0.499852 -0.37678 -0.376188 0.0152691 0.407895 -0.29592 -0.398398 -0.29775 0.2 0.5 -0.2 0.3 0.4 -0.3 0.199716 0.00816477 -0.489392 0.0237392 0.0219913 -0.477412 0.214723 -0.0780644 0.197422 0.194298 0.283265 -0.322739 -0.433214 0.0864979 0.2164 0.126522 0.426775 -0.387338 -0.38961 0.406409 0.30402 0.5 -0.3 0.4 -0.1 0.5 0.4 0.1 0.40101 0.408206 0.312294 -0.273441 -0.477143 0.0232143 -0.480156 0.40985 -0.401009 -0.0161244 -0.522572 -0.0325283 0.0755181 -0.206116 -0.274212 -0.0668981 0.219307 0.0128082 -0.0895259 -0.194992 0.202376 0.3 0.2 -0.3 0 -0.4 0.4 -0.4 -0.196087 -0.19421 0.0218361 0.0273406 0.423091 0.323693 -0.182514 -0.493714 0.285258 -0.417428 -0.0318936 -0.529881 -0.105343 -0.487367 0.0317039 -0.163958 -0.178029 0.314416 -0.490598 -0.294801 -0.494919 -0.5 -0.2 0.4 0.1 0.4 0 -0.5 -0.19899 0.408737 -0.479516 0.0253583 0.221514 -0.28491 -0.189345 -0.00914223 -0.318916 -0.126215 -0.0253698 -0.200503 -0.0912522 0.122939 -0.0721438 0.433675 -0.187803 0.411563 0.00826815 0.205199 0.102376 -0.5 -0.5 0.3 -0.1 0.1 -0.5 -0.1 0.100879 0.408029 0.521967 0.126928 -0.48049 0.12191 0.0119088 -0.399145 0.398689 -0.302789 0.103655 0.506596 0.0220404 0.224411 -0.470171 -0.175053 0.207209 0.211856 -0.192931 0.00485909 -0.499734 0.3 0.3 0 0.2 -0.2 0.2 -0.5 0.300879 -0.394949 0.521899 0.425027 0.0198213 0.0154553 0.108239 0.00789854 0.0108154 -0.499773 0.216531 -0.17683 0.422477 0.023374 0.319505 -0.494633 0.310982 -0.191917 0.307107 0.104741 -0.399734 -0.1 -0.3 -0.2 0.2 -0.4 0.4 0.5 -0.199121 -0.493695 -0.0942042 0.124687 0.521339 -0.395423 0.102894 -0.093703 -0.192472 0.00952243 -0.184951 -0.0832674 -0.174947 -0.27647 -0.292688 0.00245418 0.00648952 0.00710736 -0.195292 -0.0999522 0 -0.2 0 -0.2 0.4 -0.3 -0.2 -0.2 0.199245 -0.100322 0.203582 -0.486053 0.504971 0.497755 -0.306255 -0.00124274 0.101133 0.31379 -0.381156 0.514349 0.512597 0.0963573 -0.500915 -0.296867 0.302938 -0.397446 -0.197446 -0.0999522 -0.1 0.4 -0.2 -0.3 -0.5 0 -0.2 0 -0.100624 -0.200624 -0.297419 0.489741 0.0890016 -0.111206 -0.410804 0.295971 0.400968 -0.097482 0.407293 0.105364 -0.000366124 -0.104581 -0.398664 -0.398462 -0.497562 -0.197562 0.302438 -0.399952 0.2 -0.3 -0.5 0.3 0 0.1 0.4 0.2 0.5 0.1 -0.509276 0.387543 0.08154 -0.220084 -0.0179076 0.395426 -0.301616 -0.000724714 -0.000875427 -0.101914 0.296891 0.197872 0.00116778 -0.29761 -0.49761 -0.4 0.1 -0.1 0 -0.4 0.2 0.5 -0.5 0 -0.4 -0.5 0 0.390875 0.287105 -0.0142919 0.481107 0.388727 0.292491 -0.402095 -0.504712 -0.00471209 -0.00461694 -0.404304 -0.101227 0.499754 -0.200246 0.3 0.2 -0.4 -0.1 0.5 0.5 0.2 0.5 0.2 0 0.3 0.3 0.4 0.4 -0.202512 0.293869 -0.406131 -0.00361914 -0.1 0.3 0 0.1 -0.3 0.3 -0.3 0.5 0.2 0 0.5 -0.1 -0.1 0 0.5 0.1 0.4 0.3 -0.5 0.400427 
0.3 -0.3 0.1 0.2 0 -0.2 -0.4 0.4 -0.3 0.5 0.1 0 -0.1 0 0.4 0.2 -0.4 -0.3 -0.3 0.1 -0.5 0.5 -0.4 -0.2 0 0.5 -0.4 -0.2 -0.5 -0.1 0.5 -0.3 0 -0.1 -0.5 0.5 0.2 0.5 0.5 -0.3 -0.1 0.4 0 -0.1 0 -0.1 -0.4 -0.1 0 0 0 -0.5 -0.1 0.5 -0.5 -0.4 -0.3 -0.1 0 0.5 0.3 0.5 0.3 0.5 -0.2 -0.4 -0.3 -0.2 0.1 -0.1 0.00492865 0.205793 0.51188 -0.286649 -0.497305 0.50147 -0.49853 0.1 0.5 0.4 -0.5 0.2 0.4 0.3 -0.2 0 0.2 0.4 -0.3 0.4 0 -0.2 -0.2 0 -0.101435 -0.00143467 0.198565 -0.500894 0.304398 0.0135229 -0.385862 0.0155729 -0.09549 0.401763 0.20147 -0.3 -0.4 -0.4 0 0.5 -0.2 0 -0.1 -0.5 0.3 0 -0.2 0.4 0 -0.3 0 -0.201435 0.398618 0.297927 -0.10153 0.400075 0.00768018 0.414931 -0.286075 0.209811 0.100573 0.000370369 -0.400368 0.401704 0.101374 0.501374 -0.1 -0.2 0 -0.2 -0.3 -0.2 0.1 -0.10004 -0.30004 -0.501256 0.0986037 -0.00139625 -0.201346 0.195357 -0.407602 -0.109179 -0.313112 -0.306944 -0.393871 -0.191845 -0.391998 0.305491 0.0980075 -0.302305 0.00239512 0.299595 0.397005 -0.502007 0.5 -0.5 0.1 0.1 0.1 0.3 -0.2 -0.500106 0.298494 0.398494 -0.0983026 -0.297956 -0.0013125 0.190868 0.0914162 -0.0129399 -0.105967 -0.297559 0.406521 0.0115722 -0.494759 -0.299553 -0.403991 0.0972606 -0.193251 0.010141 0.299172 0.398902 0.000908677 0.30022 0.5 -0.5 0.3 0.4 -0.2 0.400712 -0.500687 0.00173292 -0.495505 0.303071 0.400797 -0.406054 -0.10477 0.300449 0.397361 0.213826 -0.391734 0.00660268 -0.499098 0.397941 -0.504387 0.497983 0.403535 -0.386606 -0.299248 -0.0995076 0.00150159 -0.0991872 0.3 0.2 -0.2 0.3 0.1 -0.298278 0.300323 -0.0982662 0.00367043 0.503279 0.199817 -0.305994 -0.205292 -0.497956 0.213655 0.0210528 0.221912 0.509129 0.20374 0.100724 -0.0989032 0.500738 -0.191683 -0.492224 0.503297 0.204978 -0.499187 -0.0991872 -0.4 0.4 -0.4 0.502841 0.5 0.20115 -0.300249 -0.09802 0.00387057 0.103922 0.102059 -0.20864 -0.496983 0.208847 -0.0755675 -0.173642 0.524877 0.312913 -0.295891 0.296759 0.199056 0.498312 -0.093752 0.407217 -0.0953357 -0.094905 0.400593 -0.0993563 0.3 0.5 -0.3 -0.0971588 0 0.000967173 -0.199033 0.304288 0.00424021 0.401832 -0.097874 0.0998487 0.313987 0.215716 0.220014 0.422879 -0.389814 -0.192036 -0.190184 -0.189802 0.313062 -0.286519 -0.0877557 0.40568 -0.0966538 0.40444 0.000643657 -0.2 -0.4 0.3 0.4 -0.5 0 -0.000183148 -0.100038 0.100877 -0.0997936 -0.193358 0.308527 0.50606 0.0203487 0.218367 0.515688 0.0133054 -0.288673 -0.083354 -0.287138 -0.184423 -0.482662 0.213646 0.213032 0.115728 0.501083 0.200982 0.200925 0.1 -0.4 -0.5 -0.4 -0.3 -0.1 -0.000183148 0.0998221 0.300876 0.00625472 0.303868 0.00468257 0.107426 0.0211661 -0.281075 -0.283237 0.207767 0.00211878 -0.093053 0.514214 0.314134 0.0150888 0.0119487 0.216777 -0.386195 0.303072 -0.0995135 -0.199075 0.4 0.4 0.3 0 -0.5 0.5 0.199817 -0.000177892 0.000876114 0.505377 0.00392933 -0.295198 -0.0782265 -0.176145 0.0189045 0.506385 -0.312089 -0.49922 0.112462 -0.385444 0.215685 -0.187147 0.314606 0.0119351 0.0103775 -0.494079 -0.399508 0.200925 -0.1 0.2 0.5 0.5 0.5 0 0.499817 0.199822 -0.300117 0.198973 0.00309363 0.506089 -0.488302 0.015988 -0.48285 -0.000412258 0.196551 -0.39247 -0.48698 -0.0882545 0.313402 0.506735 -0.194056 0.0156417 0.0154355 0.208294 0.00164774 0.302081 -0.401234 0 -0.1 0 0.2 0.1 -0.200183 -0.500178 -0.100114 0.197769 -0.00230439 -0.291618 0.112152 0.0204303 0.211406 0.110778 0.317728 0.0219739 -0.483461 0.501706 0.00123953 0.397858 0.106972 -0.386143 0.015263 0.207307 0.101648 -0.197919 -0.301234 0.3 -0.2 0.4 0.2 0.3 -0.2 -0.000177892 0.200595 0.0999759 0.000247766 -0.187526 0.312277 0.412431 -0.190241 0.012087 -0.380585 -0.281775 -0.478213 -0.502537 0.0944635 0.302727 -0.192602 0.114743 0.00989855 0.401456 0.0993145 -0.40031 -0.3 0.2 -0.4 0.1 -0.5 0.2 0.1 -0.400143 0.100779 0.300657 -0.190024 0.517496 0.113888 0.104254 0.312199 -0.480686 0.0215629 -0.378321 0.114735 -0.302467 0.0962681 -0.0928688 0.406921 -0.186807 -0.0912575 -0.402516 -0.300861 0.19952 0.4 -0.3 -0.4 0.5 0 -0.5 -0.4 0.399853 -0.00148696 -0.299787 0.21062 0.0152459 0.415368 0.509418 0.212515 -0.181609 0.0185454 -0.477442 -0.382097 -0.0929941 0.409524 0.311809 -0.0902091 -0.38638 0.00166599 0.0979776 -0.10043 -0.300133 0.2 0.2 0.2 0.3 0 0.1 0.3 -0.00014293 0.498855 -0.100582 0.310329 -0.485883 -0.483296 -0.182175 -0.37912 -0.0790244 0.0155286 -0.0808731 0.316807 0.207906 -0.187765 0.110288 0.31285 -0.398117 0.298382 -0.101094 -0.000429598 0.0995203 0.3 0.3 0.1 0.2 -0.3 -0.1 0.3 0.201534 0.00355295 -0.398064 -0.100324 0.318005 0.314218 0.215751 -0.0825169 -0.481444 0.315906 0.21253 -0.181857 0.00913708 0.0155408 0.205957 0.402775 0.400344 0.300219 0.500357 0.400703 -0.000271476 -0.5 0.2 0.2 0 0 -0.4 0 -0.398466 0.303919 0.402453 -0.199914 0.108704 0.408153 0.415961 0.414201 -0.0877492 -0.290987 0.509962 -0.193235 0.503655 0.101943 -0.303107 -0.19797 0.502433 0.000397411 0.200576 -0.399 -0.100271 -0.5 -0.3 0 -0.3 0.1 -0.1 -0.5 0.501534 0.403856 -0.498321 0.0989533 0.406639 -0.19805 4.65521e-05 -0.0077542 -0.0089795 -0.311198 -0.503249 -0.201048 -0.10102 -0.401205 -0.403415 -0.296531 0.100396 -0.299424 -0.000786337 0.198784 0.1 0 0 0.5 0.2 0.1 0 0 -0.49894 0.203939 0.303062 0.406406 0.108901 0.00305463 -0.103384 -0.112242 0.186153 0.197746 0.396367 -0.00484416 -0.00117452 -0.00441549 0.0963485 0.200727 -0.301711 0.0988572 0.198857 -0.301216 0.4 -0.1 -0.2 -0.5 0.3 0.4 0 0 -0.000616692 0.0993833 -0.196065 -0.393934 -0.293852 -0.202269 0.196873 -0.00744768 0.392775 -0.105553 -0.20142 -0.103546 -0.101166 0.496865 -0.00128493 -0.0990891 0.098717 -0.00128303 -0.101283 0.498784 -0.2 -0.3 0.4 -0.1 0.2 0.5 -0.1 -0.2 0.5 -0.3 -0.199119 -0.395975 -0.29646 0.499954 -0.404894 0.197331 0.302414 -0.0945427 -0.194774 0.500759 0.201884 -0.0982252 0.401774 0.399933 -0.500067 0 0.5 0.3 0.4 0.5 -0.4 -0.1 0 0 0.2 0.3 -0.3 0.497096 -0.396601 0.00166184 0.301471 0.00332116 0.0963593 -0.101949 -0.197435 0.402565 0.00316691 0.400826 -0.000723488 0.499167 -0.000833175 0.2 -0.4 -0.4 -0.2 0.5 0.3 0 0.4 -0.3 0 0.1 0 -0.2 0.5 -0.300011 0.502507 -0.297493 0.402518 0.3 0 0.1 -0.3 -0.1 -0.5 -0.4 -0.5 -0.5 -0.2 -0.1 -0.5 -0.3 0.2 -0.4 -0.3 0 -0.1 -0.1 0.215753 
0.2 -0.5 0.2 0.3 -0.1 -0.5 -0.2 0.4 0 0.5 -0.3 0.2 -0.1 0 0.4 -0.1 0 0.4 -0.5 0 0.2 -0.5 -0.1 -0.3 0 0.3 0 -0.3 -0.1 0 0.2 0 -0.1 -0.2 0.2 0.3 -0.2 0.2 -0.4 -0.3 0.3 0.5 -0.4 0 -0.2 0.3 0.3 0.3 -0.5 -0.1 0 0.4 0.5 0.1 -0.5 -0.1 0.1 0.3 -0.5 0.1 -0.4 0.5 0.4 -0.3 -0.4 0.1 0.1 -0.2 0.2 0.1 -0.300589 0.199231 0.399475 0.00230234 -0.497185 0.00314492 0.102827 0.4 0.5 -0.5 -0.3 0 0.4 0 0.2 -0.3 -0.1 -0.2 0.3 0.1 0.3 0.2 0.4 0.2 -0.299996 4.40786e-06 -0.399996 0.100269 0.49696 0.402598 -0.29854 0.301774 -0.0970306 -0.297548 0.302827 0.3 0.2 -0.2 0 -0.1 -0.3 0.2 -0.4 0.2 0 0.1 -0.2 0 0.1 -0.4 0.4 4.40786e-06 0.10018 0.498818 -0.494964 0.405727 0.401481 -0.389451 -0.494562 0.206213 -0.394827 -0.39091 -0.295682 -0.101154 0.39729 -0.20271 0.3 0.1 0.3 0.5 0.4 -0.3 -0.2 -0.201774 -0.301774 -0.000382262 -0.199967 3.29737e-05 3.82193e-05 -0.00292313 0.498666 0.107306 0.320377 0.225004 0.442585 0.0404778 0.0419959 -0.0654852 -0.156192 0.0327875 -0.388932 -0.0966996 0.19853 -0.299069 0.1 0 0.4 -0.2 -0.5 0.5 -0.3 -0.400955 -0.10508 -0.40508 -0.0974787 -0.0980361 -0.0018147 0.290141 0.290414 0.405183 0.213922 0.0378927 0.0402912 0.341731 -0.362307 0.143972 -0.458408 -0.258185 0.0109888 0.00933534 -0.203717 -0.399751 0.499318 -0.200376 0 0.3 0.1 -0.4 -0.4 -0.401592 0.494284 -0.00577705 -0.000152848 -0.1025 -0.00342185 -0.412067 -0.00365399 -0.0895507 0.0272822 0.338042 0.243124 0.439894 -0.167166 0.222726 0.530921 -0.169527 0.408735 0.108506 -0.302114 0.00253047 0.103922 0.304228 -0.3 0 0 0 0 -0.201632 0.294244 -0.405577 -0.00118659 0.496436 0.102442 0.297253 0.401898 -0.387035 0.0293108 0.033396 -0.365342 0.329936 0.232109 0.316636 0.124885 0.0244714 0.510911 0.513818 -0.194631 -0.293662 -0.0957721 -0.395772 0 0.1 0.2 -0.000913707 0.2 -0.000455214 0.49542 -0.00570672 0.199336 0.298931 -0.197628 -0.0023415 -0.500411 0.0160529 0.0247472 0.327049 -0.473683 0.341162 -0.370009 -0.279461 -0.472742 -0.0854878 0.298765 0.307691 0.00672724 0.207401 -0.195396 0.00446727 0.2 0.3 0.3 0.499086 0.2 -0.105972 -0.405972 -0.00788121 -0.50158 -0.397831 -0.49686 -0.00485601 0.0976681 -0.296819 -0.08518 -0.471686 -0.478003 0.245711 0.233697 0.0278249 -0.175078 -0.394773 -0.299148 0.00200646 -0.290653 0.206456 -0.495533 0.3 0.1 0.4 -0.5 -0.2 0 0.294483 0.193032 -0.307073 0.298754 -0.100023 0.298409 0.496785 -0.401431 -0.39749 0.210057 0.0305964 -0.0615447 0.443988 0.0317091 0.0179345 0.313616 -0.399184 -0.500984 0.194895 0.503707 -0.000254143 -0.300012 0.2 0.3 0.2 -0.1 0.1 0.3 -0.405517 -0.206553 0.092727 -0.00504522 -0.105394 -0.0999643 -0.0883645 -0.297463 0.00326228 0.315459 0.43508 -0.358339 0.446235 -0.263173 -0.478706 0.0985495 -0.108394 -0.502586 0.101581 -0.0974615 -0.397978 -0.200012 -0.2 -0.3 0.2 0.2 0.3 0.3 0.294483 0.293447 0.192727 0.291804 -0.00604859 0.100038 0.000201188 3.80986e-05 0.302593 0.0221611 0.0554055 -0.44679 0.34075 -0.0738997 -0.302516 0.0932236 -0.00540228 -0.00460791 0.109156 -0.093852 -0.399015 0.399988 0.2 0 0 0.1 0.5 -0.5 -0.405517 0.193447 -0.00908833 -0.00225442 0.292484 -0.409592 0.188413 -0.308756 0.513992 0.0347212 -0.256985 -0.256298 -0.265291 -0.479823 -0.215022 -0.0204206 0.189772 0.00449413 0.108166 -0.396425 -0.000195547 0.0988072 0.299211 0.5 0.2 0 -0.2 0 0.394483 0.293447 0.19172 -0.308138 -0.310768 -0.515571 0.187652 -0.00687894 0.212112 -0.267149 0.445057 0.0387895 0.330686 0.19613 -0.0212277 -0.0163726 -0.00832344 -0.0929703 -0.39415 -0.000456961 -0.100196 -0.301193 0.499211 -0.4 0.3 0 -0.5 0.3 -0.1 -0.506553 -0.00483691 -0.310286 0.390197 0.48672 -0.00790109 -0.496393 0.119056 0.244006 0.342775 0.0444749 0.0370992 0.495764 -0.119555 -0.0191854 -0.00483183 -0.0938699 0.00324084 0.300211 0.499954 0.399199 -0.4 -0.3 -0.3 -0.3 -0.4 0.5 0.4 -0.0981184 -0.19932 0.496728 0.299848 0.100718 0.308972 0.0243951 0.430288 -0.455347 0.0431531 -0.458501 0.0237594 -0.291168 0.303246 -0.00607797 -0.0974919 0.506704 0.00410421 0.200485 -0.298673 -0.500464 0.5 0.2 -0.3 -0.2 -0.2 -0.1 -0.2 0.101957 -0.499415 0.502666 0.404985 0.00891487 0.0198066 0.330929 -0.0572693 -0.0536312 0.542795 -0.467391 0.329068 -0.483893 -0.0900709 0.0021548 -0.0973147 0.107134 0.40088 0.497606 -0.00103996 -0.201021 0.3 0 0.4 -0.4 -0.3 -0.5 0.1 -0.0981184 0.201064 0.308655 0.00749085 0.215303 0.0260143 -0.368713 0.233346 0.343341 -0.258668 -0.271763 0.233852 -0.475315 -0.191742 -0.494182 0.0028528 -0.296793 0.498072 -0.102481 -0.30104 -0.100464 0 -0.2 0.1 -0.3 0.4 0.4 -0.1 0.203365 0.504078 0.312736 -0.485529 -0.286319 0.034597 0.53424 0.0315457 0.334655 0.135161 0.129573 0.133393 0.022537 0.504764 -0.49554 0.497702 -0.0033745 0.499351 0.0987446 0.299412 8.61656e-09 -0.4 0 0.3 0.3 0.4 0.4 0 -0.296635 0.00382393 0.212378 -0.383627 0.127689 -0.169339 0.0316047 -0.176431 0.429055 0.232187 -0.271281 -0.474108 0.219593 -0.194991 -0.00159665 0.0902527 -0.00221717 -0.00105633 0.000132236 -0.000569139 8.61656e-09 -0.1 0 -0.2 -0.2 0 -0.4 -0.3 0.403365 -0.195852 0.510965 0.412612 -0.27075 -0.267886 0.526451 0.326767 -0.475439 -0.276259 -0.375602 0.226883 0.413767 0.299699 0.0926583 0.190173 -0.501227 -0.199868 -0.498234 0.00139208 0.5 0.4 -0.4 0.2 -0.3 0.2 -0.4 -0.4 0.101669 -0.494919 -0.190761 -0.190053 -0.378153 0.0229372 -0.476967 -0.371879 0.127674 0.327782 0.0321711 0.227096 -0.189878 0.0968643 0.293432 -0.405583 -0.398222 0.00179621 0.101796 0.401392 -0.3 0.5 0.3 -0.4 0.3 0.1 0.4 -0.5 0.400186 0.400186 -0.294843 0.408353 0.216709 0.0175688 -0.270643 0.0320133 0.127962 -0.374827 0.019846 0.108249 0.201883 0.187373 0.394322 -0.402052 0.00221144 0.502211 -0.0977886 0.301392 -0.4 0.4 -0.4 0.5 0 0 0.4 -0.2 0.5 0.3 -0.402798 -0.503938 0.390478 -0.310223 -0.508279 -0.00271128 -0.501048 0.299023 -0.201511 0.499416 0.00146316 -0.098271 0.00152916 0.00081936 0.00081936 -0.5 0.1 0.4 -0.1 -0.2 0.2 0 0 -0.3 0.5 0.3 -0.1 0.0989774 -0.304625 0.194652 -0.306868 -0.305867 0.19795 -0.501073 -0.30191 -0.00190966 -0.501881 0.0985968 -0.500828 -0.000562124 0.199438 -0.2 -0.3 -0.2 0.3 0 -0.4 -0.5 0.1 -0.1 0.4 -0.1 0.5 0.1 0.4 -0.500293 -0.00211998 -0.10212 -0.201827 -0.4 0 0.3 0.5 0.2 0.1 0 0.3 0.2 0.2 -0.3 -0.1 0.5 -0.3 -0.1 0 -0.1 0.1 0.2 0.137466 
0.1 0 -0.4 -0.1 0.3 0 0.3 0 0.4 -0.5 -0.1 0.2 0.4 -0.5 0 0.5 -0.4 0 0 0.3 0.2 -0.2 0 -0.3 -0.4 -0.2 -0.1 -0.4 -0.4 0 0.5 0.3 -0.1 0.2 0.4 0.4 0.1 0.3 0.1 0.5 0.1 -0.1 0.2 -0.2 0 0.3 -0.2 -0.1 0.3 -0.4 -0.1 0.3 0 0.3 0.4 0.4 0.1 0 0.5 0.1 -0.5 0.3 -0.1 0.3 0.5 -0.5 -0.1 0.2 0.4 0 -0.499198 0.502917 0.105962 0.00878731 0.407453 -0.19762 -0.197175 -0.2 -0.1 0.2 0.5 -0.3 -0.2 -0.5 0.4 -0.5 -0.1 0.2 0.2 0.1 0 -0.1 0 -0.1 -0.501041 -0.301041 -0.301041 -0.398884 -0.3998 -0.093092 0.00841666 -0.190988 -0.289991 0.10393 -0.297175 0.3 -0.3 0.3 -0.2 0 -0.2 0 -0.1 0 -0.5 0 0 -0.2 0.3 0.1 0.2 -0.101041 0.298693 0.500695 -0.300112 0.105741 0.00321267 -0.396267 -0.19854 0.400008 -0.299336 -0.304091 0.398228 -0.402673 -0.100949 -0.000949439 0 0 0 -0.3 -0.1 0.2 -0.2 0.400878 0.200878 -0.299092 -0.199991 0.100009 0.400006 -0.300776 -0.302018 -0.504619 -0.502626 -0.100891 -0.313565 -0.215378 0.485656 0.188195 -0.0114584 0.289834 0.293216 -0.507218 -0.302809 -0.29879 -0.4 -0.1 -0.2 0.3 -0.4 0 -0.5 0.0983581 -0.20166 -0.40166 -0.00917776 0.190823 -0.506983 0.095105 0.0939217 -0.012591 -0.312856 -0.314413 0.485583 0.280768 -0.00627184 -0.00727113 0.398337 0.0998143 -0.296318 -0.0922805 -0.291188 0.514079 0.412869 0.108691 -0.2 0 0.4 -0.2 -0.5 -0.306065 0.293917 -0.20476 0.290192 -0.110385 -0.210665 -0.00742429 0.389925 -0.414996 0.0833962 -0.320581 -0.0246717 0.375096 0.28347 0.399478 -0.492348 -0.0948335 -0.197451 -0.293255 0.00999772 0.32117 0.417786 0.0136092 -0.5 -0.3 0 0 -0.1 0.293803 0.193785 -0.104864 -0.00309105 0.0927714 -0.509102 0.489918 -0.417052 0.186664 0.282498 0.279925 0.279926 -0.510802 0.392865 -0.30326 0.00715638 0.0979761 0.393382 -0.201457 0.119035 -0.281441 -0.286391 0.0136092 -0.4 0 0.1 -8.38417e-05 0 -0.399233 0.300749 -0.501732 -0.400616 -0.500622 0.196929 0.398765 -0.501285 0.193603 -0.206005 -0.00991974 -0.510128 0.488766 0.196526 -0.10301 0.50046 -0.505854 0.488312 0.283305 -0.293398 0.308869 0.00491788 -0.0963376 0.1 -0.1 0.2 -0.300084 0 0.400719 0.100719 -0.398872 0.501989 0.000527413 0.403677 -0.50058 -0.194458 0.510778 0.104833 -0.00236357 -0.313525 -0.509304 0.487368 0.385961 -0.410225 0.0877147 -0.21573 -0.211941 -0.501389 0.106663 -0.196338 0 0 0 -0.1 -0.2 -0.4 -0.300048 -0.0985968 -0.199317 -0.29816 -0.100149 -0.494042 -0.203958 0.313775 -0.488163 -0.286598 -0.310633 -0.319161 0.0836477 0.487581 -0.495774 -0.30855 0.493184 0.0825333 -0.0131755 -0.304796 0.0016824 0.199571 -0.4 0 -0.3 0.4 0.1 -0.4 0.199952 -0.399496 -0.0992122 -0.200072 0.295901 -0.501285 -0.386392 0.217964 0.0143567 0.406713 0.183388 0.0882524 -0.205336 0.0998239 0.499202 -0.00478302 -0.0973152 0.492795 0.298834 -0.406189 -0.00321954 -0.000429179 -0.2 -0.4 -0.5 0.3 -0.2 -0.4 -0.300048 0.300504 0.400788 0.00199949 -0.00172193 0.00262092 -0.380609 0.222871 0.0250072 -0.0986191 -0.416091 -0.206984 -0.50805 -0.297216 0.00636804 -0.0964021 -0.496879 0.398818 -0.299881 0.498361 -0.102667 -0.500429 -0.5 -0.1 0 -0.5 0.4 -0.4 -4.80164e-05 -0.399496 -0.397915 -0.201242 0.500228 0.305744 0.0328537 0.244669 -0.478959 -0.397173 -0.190531 0.302636 -0.499966 0.104217 -0.289037 -0.490408 -0.194079 -0.19815 -0.399894 -0.301991 -0.10299 0.199248 0.099879 0.1 0.1 0.3 -0.2 0.2 -0.200048 0.000504315 -0.0991779 0.298607 0.100795 -0.492375 0.229335 0.144054 0.0290756 -0.390038 -0.290001 0.00610807 0.509014 0.00667449 -0.000925099 0.409886 0.404871 -0.000629946 0.298724 -0.206945 0.39701 -0.200752 -0.100121 0.3 -0.3 -0.3 0 -0.3 0.2 -0.299496 0.196433 0.0964496 0.49737 -0.190734 0.0129657 0.419088 0.30816 -0.287568 0.122276 0.412928 0.310896 -0.0918218 0.000666444 -0.2071 0.389727 -0.302629 0.493874 0.288337 0.499323 -0.40055 0 -0.1 -0.4 -0.4 -0.3 0.5 -0.1 -0.302784 -0.403519 -0.104032 0.196587 0.0987527 0.213507 0.400167 -0.0921305 -0.392104 0.0201228 0.123563 0.307601 -0.0861239 0.0916418 0.489977 0.490106 0.494616 -0.305358 0.392571 0.298864 -0.400457 -0.3 0.3 0.5 0 -0.3 -0.1 0 0.4976 -0.497671 0.295918 0.499658 0.397024 0.400123 0.39286 -0.093556 0.507002 0.120743 0.229738 0.520999 0.215245 -0.305671 -0.103358 -0.407549 0.400858 -0.501127 -0.302811 0.0997996 -0.200456 0.1 -0.5 0.5 0 0.2 -0.3 0.3 -0.302784 0.00177719 0.402876 0.4997 -0.304773 0.394874 -0.396368 0.220405 0.4188 0.32632 -0.176756 -0.393382 -0.493962 0.397264 0.399544 -0.307099 -0.403564 0.393418 -0.403624 -0.000200441 0.499543 0.3 0 -0.3 0.1 -0.4 0 0.3 -0.402787 -0.196918 -0.403193 -0.194237 -0.490775 0.406008 0.10245 0.202192 0.406759 -0.289462 -0.0112676 -0.50278 0.00388523 -0.401475 0.50245 -0.289706 0.398091 -0.302447 0.29762 -0.500138 0.400034 -0.2 -0.5 0.2 0.5 -0.5 0 0 0.397213 0.403292 -0.0947576 0.495515 -0.50616 0.0963932 0.00387867 -0.0916512 0.00253553 -0.501199 0.393037 -0.0128608 -0.107801 -0.494066 -0.494378 -0.390192 -0.502929 0.298408 0.198691 0.299606 0.100034 0 -0.2 -0.1 0.1 0.4 0 0.4 -0.502787 0.397255 -0.100493 0.186494 -0.316892 -0.316679 -0.0109976 -0.510467 -0.214344 0.378216 0.28471 -0.226318 0.282334 -0.498962 -0.290383 0.210465 -0.00132945 -0.401309 -0.10173 0.40003 0.4 0.4 0.1 -0.1 -0.1 -0.3 -0.2 -0.5 -0.199635 -0.101111 0.304684 -0.508909 -0.416146 -0.0169406 0.082409 -0.218401 -0.534329 0.0685642 0.16767 0.279658 -0.495694 0.21407 -0.0879406 0.307708 0.0986993 0.198409 0.0984091 -0.29997 0.2 -0.2 -0.4 0.3 -0.1 0.3 -0.5 0 0.400368 -0.199632 0.499273 -0.210611 0.0875586 -0.00847984 0.287997 -0.421606 -0.224513 0.171348 -0.126112 -0.416129 0.000655982 0.315387 0.010678 -0.493817 -0.40249 -0.30249 -0.20249 -0.0999698 -0.3 -0.4 0 0.3 -0.5 0 0.1 0 -0.4 -0.2 -0.200893 -0.404466 -0.501715 -0.199387 -0.397677 0.493884 -0.110409 -0.512509 0.28814 0.29536 0.304247 0.00704801 0.507152 0.09748 0.49748 -0.1 0.3 -0.5 0.4 -0.3 0.1 0.1 -0.1 0.3 -0.4 0.5 -0.1 0.199295 0.397985 -0.201734 0.0998217 -0.198876 0.00088123 -0.398158 0.397601 -0.202399 0.397042 -0.50212 -0.301594 0.401207 -0.198793 0.5 -0.2 -0.5 0.4 0 -0.3 0.5 0.5 -0.2 0.1 0 -0.4 -0.4 0.1 -0.500186 -0.301308 0.398692 -0.301122 -0.3 0.1 0.3 -0.4 -0.5 0.2 -0.4 -0.2 0 -0.3 -0.5 0.4 0.5 -0.1 -0.4 0.2 -0.4 0.3 0.5 0.108436 
0 -0.1 0.5 0.4 -0.1 -0.2 0.5 0.2 0.3 -0.3 0 -0.3 0.5 0.4 0.4 0 0.1 0 0.4 0.5 -0.5 0.1 0.2 -0.2 0.3 -0.1 -0.1 0.5 0.3 0.3 -0.5 -0.2 0.3 0 -0.5 0.2 0.2 -0.3 0.3 0 0.3 0.1 0.4 0.2 -0.4 -0.5 0.5 -0.2 0.1 -0.2 0.5 0.5 0 0.5 -0.5 0.1 0.4 0.4 0.4 0 0 -0.5 -0.4 -0.2 -0.2 0 -0.4 -0.2 0.5 0.3 1.61102e-05 0.500057 0.200061 -0.200449 -0.400489 -0.000532316 -0.50051 -0.2 -0.4 0.5 -0.4 -0.4 -0.2 -0.3 -0.3 -0.1 -0.3 0.5 0.4 -0.1 0.2 -0.5 -0.4 0.1 0.399711 0.0997114 -0.100289 0.399705 -0.500358 -0.400848 -0.000546935 -0.100281 0.399766 -0.000279256 0.29949 0 0 0.3 0.4 0.4 0.2 0.1 -0.2 -0.2 -0.5 0.1 -0.3 0.5 -0.4 -0.5 -0.4 0.299711 0.399749 0.400005 0.400151 -0.199786 0.500393 0.499711 -0.500365 -0.00171798 0.298632 -0.201834 0.497788 -3.10979e-05 -0.499971 2.90023e-05 -0.3 -0.4 -0.1 0.1 -0.1 0.5 0.4 0.500167 -0.0998329 0.000196138 0.399925 0.299925 -0.100075 -0.000184326 -0.00134845 -0.000520773 -0.000103182 0.299645 0.000341161 -0.0996944 0.501093 -0.000484223 -0.299294 0.401879 -0.101425 0.0990872 0.399161 0.499882 0.5 0 0.5 0.2 0 -0.3 0 -0.101267 -0.402152 -0.202152 -0.101581 -0.201584 -0.101411 0.100293 0.000407595 0.199296 0.198413 0.399259 -0.100395 0.301133 -0.099369 0.202356 0.102285 -0.0977926 -0.100323 0.299087 0.298304 -0.301061 0.0990568 0.200185 0.3 0 -0.5 0.5 0.2 0.0974666 -0.403418 0.0967934 0.497668 -0.30266 0.497361 0.499121 0.399057 0.396267 -0.501572 -0.503673 0.296018 -0.305714 0.0962764 0.195887 -0.00454925 0.495108 -0.40527 0.297409 -0.101656 -0.00090851 0.099249 0.000377116 -0.5 0 0.4 0.4 -0.1 0.397634 -0.00325111 0.39659 -0.00230104 -0.200917 0.199902 -0.000921894 -0.100827 -0.00368709 0.294196 0.287645 0.282684 0.485504 -0.216585 -0.514707 -0.515148 -0.0169557 0.48465 -0.512447 -0.000342737 -0.200893 0.400377 0.200377 0 0.4 -0.2 -0.202514 0.5 -0.299562 -0.400447 0.296905 0.0991688 -0.400135 -0.00320653 -0.101567 -0.210195 -0.116349 0.382394 -0.118089 0.281263 -0.417387 0.0850958 0.186568 0.285247 -0.417909 -0.415451 -0.312792 -0.200168 -0.000976806 0.000192126 -0.199956 0.1 -0.4 -0.3 0.497486 0.3 -0.400476 0.499524 0.098317 0.400216 -0.0012786 0.392734 -0.514648 0.283917 0.0820891 -0.317589 -0.418331 0.283543 0.0828583 -0.0160666 -0.414439 -0.0162727 -0.416151 0.0838932 -0.212817 -0.00453628 0.30022 0.400044 -0.5 -0.5 0.4 0.2 0.5 -0.3 0.299086 -0.100422 -0.504964 0.195934 0.387963 0.0864839 0.484963 0.0840692 -0.0178686 -0.215836 -0.0178997 -0.215409 0.0844552 0.291091 0.48621 0.083163 0.0833265 0.483604 -0.00964962 0.299882 0.200111 0.100014 -0.4 0.2 -0.5 0.4 -0.3 0.3 -0.000913789 0.499307 -0.404761 0.0882521 0.487338 -0.511486 -0.512862 0.186248 -0.216111 -0.0121723 -0.314907 -0.21399 0.493359 0.287343 -0.317976 0.181571 -0.515986 -0.316242 -0.00772363 0.501025 -0.0990548 0.200014 0.2 0.5 -0.3 0.2 0.1 0.4 -0.000913789 -0.300693 -0.404761 -0.312466 -0.511233 0.189797 -0.212227 0.187179 0.389492 0.191258 -0.500648 0.199291 -0.0120513 0.0843791 -0.0179864 -0.11843 0.282948 -0.210367 -0.204606 0.000907483 -0.498834 0.400014 -0.2 0.3 -0.1 0.4 0.4 0 0.199086 -0.100693 0.293746 -0.00565409 0.496396 0.301342 0.500583 -0.296552 0.299739 0.19685 0.399572 -0.106859 -0.514695 -0.316999 -0.119823 0.483061 -0.11248 0.0938899 0.101061 0.00108732 0.00137515 -0.199777 -0.399775 0 0.4 0.2 0.1 -0.4 -0.000913789 -0.400693 -0.101613 -0.000282462 -0.199333 -0.297521 -0.397024 0.402647 0.500519 0.198745 0.196877 -0.013521 0.185764 0.0825171 -0.519379 -0.211977 -0.207691 -0.200218 0.299678 0.501711 -0.498625 0.100223 -0.399775 -0.2 0.1 0.4 0.4 0.4 0.4 -0.500693 -0.00138091 0.399431 -0.10067 0.503253 0.403034 0.500662 -6.78806e-05 0.398226 -0.305202 0.483376 -0.216517 -0.116396 0.48871 -0.406541 -0.106324 0.199813 -0.000325487 0.40018 0.00148754 -0.0997607 0.3 0.3 0.5 -0.1 0 0.3 0.1 0.300232 0.199533 -0.299185 -0.499633 -0.398999 -0.0961289 -0.198879 -0.402767 -0.106157 0.386406 0.381488 -0.317004 -0.114135 -0.107863 -8.4758e-05 0.297858 -0.400129 -0.400512 -0.400302 0.400959 -0.500068 -0.4 0.2 0.3 -0.2 -0.5 0 0.1 0.000415154 0.500766 0.201875 0.301634 0.202193 -0.297455 0.497528 -0.502151 -0.211044 -0.317761 0.382147 0.48495 0.391941 0.494558 0.0999189 0.19904 -0.0999418 -0.500343 -0.400642 0.000590261 0.499929 -0.2 -0.1 0.2 -0.5 -0.4 -0.3 -0.2 -0.399768 -0.199458 -0.298503 0.401753 0.00166747 -0.402936 0.294842 0.188001 0.480926 0.0812856 -0.0180355 -0.00919846 -0.00449426 0.49981 0.500077 -0.100228 -0.400157 -0.000203058 0.399189 0.20059 0.299932 0 0.4 0.3 0.4 0 -0.4 0.5 0.400192 0.000566617 0.201305 0.301775 0.0991061 0.396863 -0.410818 -0.117801 0.0823692 -0.0134417 0.090545 -0.00753814 0.401271 0.100942 0.100895 0.20077 -0.200213 -0.300292 0.0995762 -0.29936 0.0999671 0 -0.2 -0.3 0.5 0 0.3 0.2 -0.399808 -0.499629 -0.0991713 0.101682 0.297106 -0.0058315 0.284084 -0.416543 0.284982 -0.0169765 -0.20512 -0.501833 -0.299124 -0.298909 -0.297986 0.000219126 0.0998915 0.299828 -0.000106135 0.499979 -0.100033 -0.3 0.1 -0.5 0 -0.1 0.4 -0.5 0.400192 0.100264 0.200308 0.000832006 0.294489 -0.51596 -0.0160219 0.186719 -0.515604 -0.112013 0.300283 0.198613 -0.0982686 0.302146 0.101582 0.400325 -0.20021 -0.500106 -0.200492 -0.0999709 0.1 0.5 0 0.4 -0.1 -0.4 0.2 0.5 -0.400082 0.500215 0.000473827 -0.301989 -0.0094471 -0.0149062 -0.016202 -0.512015 -0.312553 0.398461 -0.202479 0.398507 0.499725 -0.000528668 -0.300304 0.298544 -0.200506 0.0988658 -0.401134 0.400029 0.2 0.3 0.1 0.5 0.5 -0.3 -0.3 -0.1 -4.20943e-05 0.399958 -0.399602 -0.410863 0.18718 -0.11197 0.48748 -0.00863606 0.0962912 0.196441 0.196772 0.397977 -0.302141 -0.500409 -0.100103 0.398399 -0.0014052 0.198595 -0.0014052 0.500029 0.4 0.4 -0.4 0.3 0 0 0 0 -0.2 -0.2 -0.407695 -0.0112399 0.487667 0.0863825 -0.00652541 0.496015 0.196992 -0.00448625 0.0958291 -0.203899 0.097562 0.0987347 -0.00106158 -0.501434 0.298566 -0.1 0 -0.1 -0.1 0.2 0.4 -0.4 -0.4 0.3 0 -0.3 -0.3 0.295178 0.188772 0.388337 -0.51235 0.392348 -0.301341 0.00121367 -0.403057 0.296943 0.296942 -0.302465 -0.400857 -0.299684 0.200316 0.1 0.5 0.2 -0.2 0.4 0.2 0.3 0.1 0.1 -0.4 0 0.1 -0.5 -0.2 0.495647 -0.107886 -0.107886 0.296467 -0.5 0.5 -0.4 0.5 -0.4 0.1 -0.4 0.1 0 0.3 0 0 -0.1 -0.2 0.5 0.3 0.4 0.3 0.2 0.481212 
0.4 -0.3 0.5 0.4 -0.5 0 -0.4 0.4 -0.5 -0.1 0.5 0.4 -0.2 -0.1 -0.5 0.3 0.5 -0.4 0.3 -0.5 0.1 0.1 0 0.4 0.5 0 0.3 -0.5 -0.4 0.4 0.4 0 0.1 0 0.3 0.3 0 0.3 0.2 -0.2 -0.2 -0.3 0 0.3 0.4 0 -0.5 0.5 0.1 -0.3 0.1 0.3 0 0.4 -0.4 0.2 0.5 0.4 0 -0.4 -0.4 0 0.1 -0.2 0.4 -0.4 0.1 -0.5 0.4 -0.3 0.400452 0.000516761 -0.501657 0.299324 0.0967943 -0.101233 0.10098 -0.4 0 0.2 0.2 -0.2 0 0.3 0.1 0.4 0 -0.3 -0.1 0.5 -0.3 0.1 0.3 -0.1 -0.0999867 1.32883e-05 1.32883e-05 0.500056 -0.000976423 0.0984384 0.0995528 0.497327 -0.501453 0.19986 0.40098 0.1 -0.4 0.4 0.5 -0.1 -0.4 -0.2 0 -0.4 0.4 0 -0.3 0.4 0.4 0.1 -0.4 1.32883e-05 -0.0999522 0.300432 0.100757 0.498234 0.197281 0.300019 0.0988823 -0.00351472 -0.203957 0.000806678 0.499641 0.200098 -0.0999784 -0.199978 0 -0.4 -0.3 -0.5 -0.2 -0.1 0.3 0.399984 0.299984 6.32303e-05 -0.299922 0.300078 0.100133 0.401788 0.500707 0.297077 -0.106924 0.393183 -0.505242 -0.00431071 -0.30637 -0.106989 0.488845 -0.00693263 0.196502 0.298938 -0.500062 1.47769e-05 0.5 0 0.2 0 0.1 0.5 -0.4 -0.400014 9.61543e-05 0.500096 -0.298745 0.10171 -0.198235 0.102062 -0.297547 -0.501125 0.295878 -0.30079 -0.303062 -0.500381 0.297627 0.296501 0.295178 0.0948386 -0.200245 -0.398892 -0.299307 -0.499692 -0.199707 0.300278 -0.3 0.4 0.2 -0.3 -0.4 -0.299992 -0.499881 -0.0986866 -0.0987377 -0.397866 0.00217761 -0.398008 -0.398358 -0.396336 0.0996297 -0.403074 -0.00456785 0.194979 0.295625 0.0969409 -0.103278 0.194978 0.100401 0.101289 0.500761 0.300437 -0.299517 0.000467117 -0.1 0.2 -0.4 0.3 0.4 0.400009 -0.199881 -0.198683 -0.49839 0.502098 0.00181141 -0.0983438 -0.298208 -0.400131 0.297143 0.495548 0.0910599 -0.305062 -0.305777 -0.503997 -0.502896 -0.00472283 -0.401402 0.199374 -0.299126 -6.42689e-05 0.000467117 0.500467 -0.1 -0.5 0.4 -0.399988 -0.4 -1.4752e-05 0.100096 -0.0986916 0.201562 0.302003 0.000645035 -0.498672 -0.198096 0.301 -0.203793 0.195555 -0.308022 0.48823 -0.50544 -0.406947 -0.107259 0.294665 0.300049 -0.399386 -0.499084 -0.300343 0.000189226 -0.0999263 -0.3 0.2 0 1.21442e-05 -0.2 -0.299983 -0.399983 -0.0996062 0.200274 0.0002261 -0.299128 -0.501284 0.00126467 0.000609212 -0.1037 -0.208533 0.289106 0.0877223 -0.408022 -0.206775 -0.403297 -0.402183 -0.499354 -0.0993385 -0.400133 -5.37127e-05 -0.199926 -0.2 -0.4 0.2 -0.5 0.2 0 -0.299969 0.30002 -0.0996037 -0.299783 0.2001 0.498683 -0.101562 -0.100823 -0.0991858 -0.302206 -0.407485 -0.511771 0.188787 -0.00786548 -0.00689021 -0.00416245 -0.102645 0.000551899 0.200363 -0.00018253 -0.300082 0.00035003 0.5 -0.2 0.3 -0.3 0 0.4 3.14505e-05 0.500035 0.300393 -0.499456 0.399907 0.398282 0.498754 -0.299389 -0.299283 0.295788 0.0896093 -0.514821 -0.0157224 0.188938 0.492769 0.0969752 -0.00232909 0.197305 -0.101723 -0.500616 -0.499669 0.50035 -0.1 -0.4 0.3 -0.4 0.3 -0.1 -0.399969 -0.199965 -0.499607 -0.399403 -0.0991389 0.098883 0.19554 0.500515 -0.198608 0.192945 -0.315424 0.0840943 -0.0147474 0.489133 -0.104531 0.399779 -0.50176 -0.00362831 0.496161 -0.10211 0.500334 0.40035 -0.3 -0.3 0 -0.1 -0.4 0.2 3.14505e-05 -0.299965 0.300372 -0.499711 0.398429 0.398795 -0.303867 0.000828395 0.00224309 0.390876 -0.0153767 -0.414315 -0.01467 -0.110537 -0.00203587 -0.00260779 0.197022 -0.403164 -0.103761 0.497839 0.000361798 -0.399622 -0.1 0.1 -0.3 0 0 0.1 -0.199969 0.100035 0.400272 0.400057 0.0983677 -0.203456 0.297778 -0.498081 -0.101318 0.189363 -0.0141285 -0.111269 -0.512038 -0.403715 -0.303463 -0.200845 -0.403123 0.495312 0.396266 0.199172 -0.299638 0.000377998 0.4 -0.5 -0.1 -0.5 0 0.3 -0.3 0.300035 0.300295 -0.399933 -0.100762 -0.503018 -0.302397 0.302641 0.398318 -0.407509 -0.00887856 -0.313698 0.189486 0.197442 -0.403157 -0.202024 -0.304258 -0.404305 -0.502911 -0.000258045 0.499901 0.40035 -0.4 -0.3 0.2 0.5 0.3 0.2 0.1 0.0999955 0.000263985 -0.299781 -0.100821 -0.402956 0.300075 -0.405812 0.495514 0.491996 -0.511465 -0.512153 -0.102774 0.19883 0.497912 -0.00443717 0.49551 -0.102227 -0.300726 -6.57864e-05 0.0999114 -0.199637 0 0.3 -0.5 0.4 0.1 -0.2 0 0.299995 -0.400042 -0.299234 -0.30074 0.397364 0.49738 -0.406325 0.19432 0.0898585 0.188282 0.289377 -0.405664 -0.202514 0.398341 0.398846 0.395441 -0.0991409 0.099881 0.20047 0.500824 0.400818 0.1 0 0 -0.1 0.3 0.2 0.3 0.399996 0.40041 0.401119 0.398663 0.198486 -0.203552 0.291422 -0.107205 -0.111711 0.485994 0.192779 -0.305066 -0.502101 -0.400505 -0.29927 -0.49985 -0.300218 -0.501086 0.500821 0.000823518 0.000363292 0.2 0 0 -0.2 -0.3 0.2 -0.3 0.199996 -0.299628 -0.2994 -0.400975 0.000988556 -0.403383 0.292343 0.389294 -0.313768 0.0904139 -0.206702 -0.00415321 0.300169 0.00267291 -0.496166 -0.0967319 -0.29995 -0.398094 0.20198 0.201977 0.101166 -0.4 0.1 0.2 0.1 -0.3 0 0.3 -0.400004 -0.500006 -0.399127 0.200597 -0.503827 0.292477 -0.00834203 -0.00947162 -0.312358 0.191586 0.294337 0.0950267 0.504429 0.304796 -0.396514 0.103782 0.100539 0.302025 0.00204538 -0.298028 0.301166 0.5 -0.4 -0.1 0 -0.4 -0.5 -0.3 0.299996 0.0999706 0.199995 0.000446692 -0.202884 0.394199 -0.105647 -0.104643 -0.40404 0.396299 0.397559 -0.202248 0.400723 0.503968 -0.0976966 0.303769 0.402045 -0.397955 0.501587 -0.0999211 0.1 -0.3 0.1 0.3 -0.2 0.1 0.3 0 0.500008 -0.100035 0.500227 -0.499886 -0.202244 -0.107076 -0.0084495 0.0914268 -0.403985 0.198532 -0.00302782 -0.202094 -0.496202 -0.496601 -0.296412 0.104821 0.301237 0.300065 -0.299935 0.400079 -0.1 0.5 0.4 0.3 0.1 -0.5 -0.3 -0.4 0.300008 0.100008 0.199965 0.000196258 -0.101638 -0.405737 0.0923976 -0.207563 -0.102791 -0.302825 -0.303511 0.396543 0.402382 -0.196723 -0.0967356 0.503348 0.20008 8.0342e-05 0.50008 7.88685e-05 0.2 0.1 -0.5 -0.4 0 -0.2 0 0.2 0.1 0.1 0.000114254 0.400279 -0.500158 0.29986 -0.299972 -0.0996676 -0.39985 9.45509e-05 -0.299872 -0.399995 -0.19673 0.103248 0.403244 -0.199999 -0.299999 -0.4 -0.2 0.4 -0.5 0.4 0.5 0.3 0 -0.3 0.4 -0.3 -0.5 0.500005 -0.299721 0.400251 0.0998391 0.199883 -0.0999798 0.1 0.200166 -0.399834 0.100187 -0.0999961 3.46105e-05 0.400012 -0.0999879 -0.2 0.2 -0.5 -0.5 0.4 -0.2 0 -0.4 -0.1 -0.3 -0.1 0.4 0 -0.5 0.200023 0.200188 0.500188 0.100165 0.3 0 -0.4 -0.5 0.4 0.2 0.3 -0.3 0.3 0.4 0.3 -0.4 -0.2 0.5 -0.4 0.3 0.3 0.5 -0.3 -0.211036 
-0.1 0.5 0.3 0 0.1 0 0 -0.5 0.3 0.1 0 0 0.2 -0.3 -0.2 -0.1 -0.1 0.3 0.1 -0.1 0.2 -0.4 0.2 0 0.3 -0.4 0.1 0.2 0.1 -0.1 0.3 0.1 0.5 -0.1 0.2 0.5 0.5 -0.2 0.3 0.4 0.5 0.4 0 0.3 -0.2 0.5 -0.1 -0.5 0.4 0.2 0.4 -0.1 0.1 -0.4 0.2 0.2 -0.4 0 0.1 -0.5 -0.4 0 -0.4 0.3 0.4 0 -0.5 -0.5 0.1 -0.2 -0.297272 0.203587 -0.10451 -0.503929 -0.401895 0.398867 0.10058 -0.3 -0.1 0.1 -0.4 0 -0.5 -0.3 0.4 -0.1 -0.5 0.4 -0.5 -0.2 0 0 -0.3 -0.1 0.20004 0.20004 0.40004 0.298657 0.400179 0.191923 0.0952937 -0.0064601 -0.000506032 0.499997 -0.39942 -0.2 0 0.3 0 0.4 0.1 0 -0.4 -0.1 0.5 0.1 0 -0.4 0.5 0.1 -0.3 -0.29996 0.000280553 -0.299002 0.502957 -0.398852 0.496049 0.403322 -0.496356 -0.204314 0.0994675 -0.399667 -0.403905 0.499186 -0.402196 0.297804 0.2 0.3 0.3 0.4 -0.5 0.1 0.4 -0.399094 -0.299094 0.101383 0.502844 -0.397156 -0.296701 -0.192873 0.00891626 -0.195856 0.39631 -0.0113479 -0.418193 0.183936 -0.423398 -0.0190809 0.0637449 0.463744 0.175819 0.487322 -0.512059 -0.404855 0.2 0.2 0.4 0 0.4 0.5 0.4 0.303488 0.0016741 -0.198326 -0.488419 -0.187377 -0.286201 -0.186924 0.211872 0.3123 0.502911 -0.308099 -0.411736 -0.115894 0.37888 -0.0249164 -0.0276366 -0.133602 0.472123 -0.42435 0.0893737 -0.00458572 0.100269 0.502858 -0.1 0.3 0.5 0.5 -0.4 0.103743 0.401929 0.00509799 -0.289166 -0.0819116 0.118772 0.0117674 0.304861 0.398292 0.0936143 -0.309734 0.0959547 -0.00710713 -0.0975931 -0.202887 -0.111097 0.271304 -0.521141 -0.022749 0.0903862 0.00398627 0.503882 -0.193529 -0.5 -0.5 0 -0.2 0.2 0.104484 -0.297329 -0.494902 0.511107 0.0138315 -0.188696 0.30251 0.197607 0.191088 0.0953641 -0.312047 0.389249 0.110052 0.302729 0.00318611 -0.00196996 -0.115596 -0.312184 0.390295 0.396297 0.293076 -0.193529 -0.0935293 -0.1 -0.3 0.2 -0.00175435 0 -0.300719 0.497467 -0.502432 -0.0937206 0.407428 0.206653 0.19736 -0.208428 0.403237 -0.306604 -0.21355 0.189473 0.000753316 -0.293649 0.103402 -0.419411 0.279335 -0.405523 -0.410492 -0.500257 0.290534 0.103612 -0.0969674 -0.1 0 0.2 0.198246 0.5 0.49699 0.0969902 -0.401942 -0.497799 -0.194598 -0.194301 0.393919 0.392034 -0.195744 -0.301262 -0.513577 0.400323 -0.51102 0.189608 -0.220932 -0.024685 0.176904 -0.512647 0.198138 0.50062 -0.00428668 0.203033 0.2 0.2 0.4 -0.3 -0.1 0 0.497709 0.19625 0.00231039 0.103302 0.304086 0.398741 -0.105369 -0.106211 -0.0889637 -0.0984266 -0.11198 -0.312794 -0.0183474 0.386175 0.478649 -0.222864 0.279401 0.384697 -0.0131302 -0.105295 -0.200226 -0.39639 -0.1 -0.2 0.4 -0.2 0.3 -0.5 -0.00229064 0.497711 -0.0976897 0.206596 -0.00105624 0.396972 -0.307809 -0.407542 -0.295403 0.00209384 0.387001 0.174826 -0.224829 0.480626 -0.422108 0.378025 -0.0170334 0.486257 -0.417273 -0.205707 0.503717 0.10361 -0.1 0.2 0.1 0 -0.1 0 -0.302291 -0.00228912 -0.19769 -0.0943014 0.4996 -0.00781133 -0.0104253 0.493886 0.408347 -0.306264 -0.524379 -0.230399 0.373789 0.0735895 0.0896857 0.094894 -0.307172 0.390005 -0.112305 0.389433 0.503718 0.10361 -0.4 0.3 0.3 0.5 0 0 0.197709 0.197711 -0.199016 0.00390704 -0.205591 -0.118078 -0.310567 -0.109143 0.095263 0.487681 -0.0285153 -0.336775 0.0626639 0.369202 0.00107723 -0.397657 0.309906 0.0978881 -0.408068 -0.0109965 0.503766 -0.096342 0.400011 0.2 -0.2 0 -0.4 -0.5 -0.00229064 -0.302289 0.398654 -0.403351 -0.21145 -0.221646 0.484555 -0.51704 0.182422 0.168105 -0.546531 -0.0310291 -0.0328859 -0.00393328 0.402275 0.00708539 0.508091 0.198809 -0.105993 0.291752 -0.196234 -0.196342 1.10852e-05 -0.2 -0.3 0.4 0.3 0 -0.1 0.497711 0.398859 0.193769 -0.00459897 -0.42723 -0.124383 -0.128331 -0.322541 -0.133647 -0.238445 -0.430449 -0.525681 0.401971 0.500728 0.104404 0.209821 -0.399618 0.294775 -0.495354 -0.400107 0.00362135 -0.1 -0.1 0.4 0 0.1 0.2 0.3 0.5 0.00114996 0.395097 0.285292 -0.122459 0.379313 0.473137 -0.035025 0.463017 0.467498 0.1742 0.184897 0.00385864 -0.509936 0.190518 0.401285 0.00265186 0.296441 0.505973 -0.100104 0.103626 -0.2 -0.3 -0.3 -0.5 0.3 -0.4 0.2 -0.300111 -0.09957 -0.0982935 0.190905 -0.217401 0.280484 -0.123551 -0.333076 -0.0335673 0.0742175 0.277649 0.481279 0.482723 0.080158 -0.212259 -0.402227 0.204328 0.105333 -0.393215 0.00498928 0.00466839 0.2 -0.5 -0.1 -0.5 -0.1 0.3 0 0.5 0.201471 -0.300659 0.289772 0.189163 -0.322347 0.270357 0.0740196 -0.42754 -0.0304674 -0.414802 -0.0104144 0.17946 0.387176 0.392364 -0.398231 -0.499511 0.303118 0.110506 0.404989 -0.0963738 0 0.4 -0.5 0.2 -0.3 0.5 0 -0.299688 -0.305192 -0.00540574 0.297865 -0.407638 0.291624 -0.509573 0.0805495 0.184392 -0.302728 -0.00423662 -0.0137494 0.387486 -0.404994 -0.39849 -0.19852 0.00399525 0.0104244 0.00938235 -0.292522 0.202505 0.2 0 -0.5 0.4 0 0.5 0.2 -0.0996878 -0.00635088 0.297132 -0.00490569 -0.022814 0.492414 0.0796854 0.0852826 -0.508837 -0.20383 -0.208828 0.409975 0.4022 0.00407561 -0.0963982 0.00642026 0.210965 0.0119712 0.509819 0.507157 -0.197495 -0.2 0.5 -0.3 0 0.2 0.2 0 0.000312183 0.393356 -0.208747 0.191595 0.081677 -0.0193708 0.487594 0.288978 -0.106453 -0.493228 0.403162 -0.0911111 0.507069 -0.393983 -0.501379 0.106491 -0.387814 -0.490181 0.408034 -0.0995231 -0.1 -0.3 0.3 0.2 0 -0.1 0.2 0.5 -0.0990019 -0.00597729 0.193555 0.290164 0.28773 0.476413 -0.123113 0.180065 -0.301187 -0.499127 -0.188022 -0.0862205 0.515216 0.200196 -0.398517 -0.0918353 -0.495576 -0.298402 -0.498402 -0.499523 -0.1 0 0 -0.4 0 -0.1 0.1 0 0.500686 -0.499314 -0.406088 0.292653 -0.405644 0.183042 -0.522539 0.183027 -0.206669 -0.197639 -0.395874 0.304094 0.304863 0.298837 0.396102 -0.198734 0.00305857 0.503059 0.00305857 0.400477 0 -0.4 0.1 0.3 -0.1 -0.2 -0.5 -0.2 0.1 -0.5 0.00607717 -0.0929008 -0.0922844 0.209711 0.00653537 0.210448 -0.489768 0.110317 0.512059 0.205452 0.503584 0.403443 0.203443 0.402582 -0.297418 -0.1 -0.5 -0.2 0.5 0.4 0.3 -0.3 0.5 0.1 0 -0.5 -0.5 -0.094501 -0.4926 -0.487911 0.107203 0.304778 0.505656 0.199784 0.00569256 -0.294307 0.00674973 0.20287 -0.199175 -0.399316 0.400684 -0.5 -0.4 0.3 -0.1 0.3 0.4 0.4 0 -0.1 -0.4 0 0.4 0.5 0.3 0.00244976 -0.396227 -0.0962273 0.301323 0.3 0 0.3 0.3 -0.4 -0.4 0 0.1 -0.2 -0.5 0.1 -0.3 0 0.4 -0.2 -0.5 0.2 -0.2 0 -0.420936 
0.1 -0.2 -0.1 -0.4 0.5 0.4 0.3 0 -0.5 0.5 0.4 0.2 0.4 0.3 0.2 0 -0.4 0 0.2 -0.2 -0.5 0.1 0.1 -0.5 -0.4 0.5 0.3 0 -0.3 -0.1 0 0 0 -0.3 0.2 -0.1 -0.1 0.5 0 0.5 0.1 0.4 0.1 0.1 -0.3 0.2 -0.3 0 0 -0.3 0 0.5 -0.3 0 -0.2 -0.5 0 -0.5 -0.3 0 0.2 -0.1 0.4 0.3 0.1 -0.2 0.1 -0.5 0.5 -0.5 -0.0969753 0.504352 -0.497314 0.202284 0.500596 -0.400762 -0.400402 0.1 0.4 -0.2 0 0.5 -0.1 -0.4 0 -0.5 0 0 -0.5 -0.2 0.2 0.3 0.4 -0.2 0.00159197 0.00159197 0.00159197 -0.497091 0.00613179 -0.495689 -0.292181 0.405867 -0.0955194 -0.197264 0.399598 0 0.3 0 0 0.2 0 0.2 0.3 0.5 0.1 0.3 0 -0.3 -0.4 0.3 0.2 -0.198408 -0.500612 0.499677 -0.201146 -0.200107 0.501056 0.407268 0.206119 -0.39918 0.300079 -0.403311 0.0945488 0.0999463 0.000516746 -0.399483 0.4 0 -0.1 -0.5 -0.2 -0.4 -0.3 0.0993186 0.199319 -0.00106419 -0.500293 0.499707 -0.000252148 -0.393382 0.209422 0.510746 0.413418 -0.196708 -0.00373762 -0.502557 -0.0149377 -0.11574 -0.526094 0.473327 -0.0238415 -0.313901 0.390826 0.402067 0.5 0.1 0 0.4 -0.1 0.4 -0.3 -0.493961 0.00538289 0.205383 0.213121 0.113837 -0.282177 0.530349 -0.263735 -0.169404 0.425656 0.00745541 0.50877 0.291237 0.387928 0.076782 -0.13483 -0.0324518 0.178386 -0.0241405 -0.0126153 -0.303417 0.194516 0.299993 0 -0.5 0 -0.2 -0.3 0.109932 -0.190724 0.00494424 0.0110219 0.319077 0.52261 -0.463502 -0.272819 0.120097 -0.289998 -0.200934 -0.204649 -0.301841 -0.109884 -0.0160119 0.467132 -0.0383427 -0.224109 0.274722 -0.313816 0.0930906 -0.0112897 0.0941877 -0.5 -0.4 0 0.3 0.3 0.310327 0.50967 0.104657 -0.192727 0.00934087 0.315294 -0.274427 0.0195017 -0.186608 0.301897 0.0941888 0.283024 -0.209076 -0.120235 -0.112569 0.0653096 -0.539215 -0.129275 0.375918 -0.512665 0.292834 0.394188 -0.505812 0.4 -0.4 -0.1 -0.000285728 0 0.299623 -0.00103298 -0.301962 -0.397588 0.401954 0.0063248 0.407642 -0.502924 -0.401942 -0.00946224 -0.509566 0.1836 -0.208912 0.389978 -0.0160473 0.160706 0.267162 0.077416 -0.0186499 -0.111466 -0.00761271 -0.505806 0.298742 0.1 -0.3 0.2 0.199714 0.1 -0.000650216 -0.20065 -0.498932 -0.0989885 0.496716 0.397973 -0.309494 -0.0146087 -0.307821 -0.310786 0.479132 0.0850398 0.185562 -0.416397 -0.324401 -0.131358 -0.0257423 0.0801597 -0.113832 0.0909075 -0.00678363 -0.00125808 -0.1 0.2 0.1 -0.4 0.1 -0.4 0.399726 0.100928 -0.500633 0.29836 -0.204891 -0.0068952 -0.21476 -0.405583 0.202846 0.100178 -0.409517 -0.110954 -0.420214 -0.304231 -0.019514 -0.0200368 0.48281 -0.214071 0.294508 -0.110088 -0.000815494 -0.500181 0.2 -0.1 0.1 0.2 -0.2 0 0.0997264 -0.398301 -0.400346 0.397406 -0.306302 0.095196 -0.120735 0.303849 -0.294453 0.195451 -0.4109 -0.414087 -0.116767 0.494067 -0.099615 -0.210066 0.485218 -0.0135377 -0.114595 0.492914 -0.00300986 0.299819 -0.5 0.3 0.1 0 -0.2 0 -0.000273646 -0.298301 -0.100346 -0.00193335 0.096962 0.492872 -0.00958275 0.50594 0.505569 0.489698 0.481462 0.184051 0.294204 0.101453 -0.393898 -0.095105 0.297589 0.193733 0.488758 -0.010235 0.398962 -0.500181 0.4 0.2 -0.2 -0.3 0 -0.3 -0.000273646 0.101699 0.39977 0.489864 -0.00218559 -0.308166 -0.503931 -0.0980023 -0.00637395 0.278294 0.183794 -0.51018 -0.206696 0.204972 0.417518 0.417331 0.412171 -0.00263546 0.290537 -0.506492 -0.197677 0.00317959 -0.296662 0 0.2 0 0.4 0.5 -0.400274 0.101699 0.192352 -0.407743 0.193488 -0.507886 -0.207155 -0.013305 -0.514592 0.372467 -0.0261862 -0.216609 -0.00933782 0.0165278 -0.472161 0.429028 -0.185091 -0.400513 0.502549 -0.00682373 -0.497677 -0.29682 0.00333771 -0.3 -0.2 -0.1 0.4 0.4 -0.5 0.201699 0.391543 0.49273 0.290728 -0.41512 0.195964 -0.0158664 -0.0137339 -0.524951 0.379514 0.0810763 -0.0136983 -0.380119 0.522344 0.538319 0.524383 0.000821575 -0.300647 0.0022288 -0.498334 0.503157 -0.1 0 0 0 -0.4 0.3 0.1 0.0983453 -0.00818317 0.18733 -0.215043 0.482329 -0.310208 -0.207919 0.0881071 0.0734319 -0.524979 0.0798903 0.385239 -0.487439 0.521619 0.520362 0.420167 0.399167 -0.203647 -0.00208901 0.394837 -0.00169907 0.2 0.2 0.4 0.3 0.2 0.4 0.1 -0.205781 -0.113402 -0.513284 0.283508 0.280288 0.188193 -0.0114574 -0.11325 0.0726478 -0.32753 -0.327449 -0.321965 0.103498 0.0108897 -0.488356 0.409322 0.0978858 0.500465 0.204667 8.8074e-05 -0.500983 -0.4 -0.4 -0.4 -0.5 -0.4 0.4 0.5 0.0983453 -0.114658 -0.320458 0.274749 0.176602 0.0750422 0.0810022 -0.520643 0.167175 -0.425982 0.47631 0.0767172 0.103272 0.213819 0.00731372 -0.291112 -0.303062 -0.1977 0.108612 -0.499912 -0.00169907 0.3 -0.3 0 0.1 0.2 0.4 0.2 -0.200258 -0.0173098 0.187888 0.279228 -0.521179 0.182209 0.488714 -0.120846 -0.522109 0.281353 0.379502 -0.00603808 -0.494708 0.010694 -0.485582 -0.000243584 -0.292763 0.505137 0.0115574 0.301649 4.27616e-05 -0.5 0.4 0.1 -0.2 0.2 0.5 0.4 0.299742 0.49115 0.186811 -0.120375 0.174496 -0.0131783 0.48433 -0.209068 -0.5069 -0.310015 -0.408825 -0.29303 0.306025 -0.491494 -0.485923 -0.503873 -0.495104 -0.292573 -0.390417 -0.499422 0.100043 -0.1 0.5 -0.4 0.4 -0.3 0 0.1 0.0997423 0.294841 -0.505155 0.183627 0.0782826 -0.113062 -0.0152051 -0.407014 0.400733 -0.00380754 -0.410579 0.498227 -0.394541 -0.287675 0.501214 0.398662 -0.390328 0.00958264 -0.393501 0.499617 -0.3 -0.3 0 0.2 0.3 0 0.3 -0.1 -0.398331 0.295965 0.495471 0.485091 -0.319614 -0.514689 -0.315366 0.291363 0.288514 0.38567 -0.404688 0.00340661 0.111875 0.0104869 0.303218 -0.295306 0.30668 0.405567 0.205567 -0.400383 0.4 -0.3 -0.5 0.3 -0.3 0.4 0 0.5 -0.199728 -0.299728 0.391839 -0.0139062 0.0858956 -0.00866271 -0.516079 0.488585 -0.0992756 -0.201176 -0.0991083 -0.18949 0.310123 0.403996 0.104775 -0.293748 -0.093662 -0.093662 -0.293662 -0.300383 0.1 0.4 0 -0.5 0 -0.1 0.1 -0.4 0.5 0 0.399035 0.197199 -0.10009 -0.399093 0.502004 0.307266 0.404653 -0.290292 0.410521 0.407531 0.00469589 -0.294405 -0.394119 -0.293279 0.00672073 0 0.4 0.5 0 -0.5 -0.3 0.3 -0.1 0.2 0.5 0.3 -0.4 -0.00103763 0.499176 -0.200125 -0.498545 -0.0970927 -0.0974421 0.399972 0.000985602 0.400986 -0.198244 0.10081 -0.000855167 -0.399957 -0.0999565 -0.2 -0.3 0.4 0.2 0 -0.5 -0.1 -0.2 0 0.5 -0.3 0.5 0.4 -0.3 0.0989074 -0.500951 -0.200951 0.200142 0.2 0.3 0.1 0.4 0.1 0.4 0.2 -0.3 -0.3 0.4 -0.3 -0.5 0.4 0.4 -0.4 0.1 0 0.3 -0.1 -0.413215 
0.1 0 -0.1 -0.3 -0.3 -0.2 0 0.3 -0.4 0 -0.5 -0.4 0 -0.3 -0.1 -0.5 0.1 0.2 0.1 -0.5 -0.4 0 0.2 -0.5 0.3 -0.5 0.5 -0.4 -0.5 -0.2 0 -0.4 -0.3 0.5 -0.1 -0.2 -0.5 0.2 -0.1 -0.5 0.3 -0.5 0 -0.1 -0.2 -0.1 0 0.3 0.4 0.5 0.5 -0.3 0.5 -0.1 0.1 -0.3 0.2 0.2 0.1 0 -0.4 -0.1 0.5 0.4 0.4 -0.2 0.4 0 -0.1 0 0.499851 -0.198187 -0.0980667 0.301859 0.502413 -0.0995794 -0.300074 0.1 0.4 0.4 0.5 0.4 0 -0.5 -0.3 -0.5 0 -0.1 -0.3 0.1 0 0.1 -0.2 0.3 -0.000834132 0.499166 0.399166 -0.00199243 0.00085662 -0.0989042 -0.0910479 0.310281 -0.0929277 0.505156 0.0999261 0.4 -0.5 -0.2 0 -0.4 0.3 0 0 0.2 -0.2 0.2 -0.4 0.2 0.2 -0.2 -0.4 -0.200834 -0.199405 0.199141 -0.00785338 0.49426 -0.297148 -0.288066 0.206149 0.118244 0.416529 -0.492686 0.0977485 -0.404848 0.499966 -0.300034 -0.4 0.4 0 0.1 0.5 0.4 0.1 -0.199806 -0.499806 -0.500114 -0.500114 -0.000114428 0.200027 -0.0088808 -0.100623 0.407009 0.00804688 0.212805 0.0230197 -0.0719453 -0.475555 -0.371148 0.440273 0.425512 0.408461 -0.301982 -0.403271 -0.505247 0 0.3 0 -0.3 0.1 0 0 -0.299759 -0.200057 -0.300057 -0.0965164 -0.500022 -0.0978121 0.411146 -0.395044 0.309661 0.0102447 0.122855 0.326168 0.0327863 0.127588 0.127788 -0.171858 0.431267 0.521929 0.513355 -0.102648 -0.00628628 0.498961 -0.500301 -0.1 0.5 -0.4 0.5 -0.3 -0.298973 0.500729 -0.00582776 -0.0922892 0.198462 -0.399987 -0.395951 0.403887 0.406833 -0.0836349 0.418472 0.208781 -0.487018 -0.0906369 0.0064513 0.500247 0.117111 -0.490115 -0.386898 0.0992024 0.487366 -0.00987384 -0.00913554 0.2 0.5 -0.4 -0.2 -0.4 0.00495482 -0.395343 -0.0106836 -0.401263 -0.000296 -0.398278 -0.196648 -0.301316 -0.0833381 -0.289489 -0.285952 -0.385575 0.408535 0.310808 0.512779 -0.206801 -0.300504 0.19497 -0.0899447 -0.00549242 0.193158 0.0908645 0.0908645 0.3 -0.4 0 -0.298347 0.2 0.303929 0.0036312 0.488989 -0.00167137 -0.0010021 0.496858 0.399554 -0.206428 0.494493 -0.197148 0.307027 0.509305 -0.378031 0.114058 0.205259 -0.00719619 -0.00135656 -0.00712549 -0.497894 0.0949694 -0.403552 0.291166 0.295009 -0.1 0 -0.5 0.101653 0.1 0.203939 0.203939 -0.102159 0.00359209 0.399156 0.290495 -0.210795 -0.507532 0.287914 0.0924091 0.000767888 0.501605 0.515133 0.406839 -0.304417 0.0872893 -0.412888 -0.00413743 0.10047 0.00691748 -0.504363 -0.504991 0.4 0 0.4 -0.5 0.3 0.1 -0.0999899 -0.399994 0.294272 -0.501729 -0.00936475 -0.00758848 -0.498241 0.400005 0.299592 -0.387541 0.505855 -0.18303 0.408111 -0.387728 0.287793 -0.514563 0.289398 0.00996995 0.00994592 0.408046 0.400985 0.500953 -0.4 -0.5 0.5 0.2 0.5 0 -0.0999899 -0.499994 0.199128 0.0954057 -0.501671 -0.195889 -0.30093 0.513655 -0.092572 0.208348 0.0160912 0.309631 -0.397956 -0.0981099 -0.301915 0.187054 0.495527 0.512882 -0.387284 0.307627 0.306607 -0.299047 -0.1 -0.4 0.3 -0.4 -0.1 -0.2 -0.29999 0.400006 0.199128 0.0993827 0.00753229 0.405374 -0.190366 -0.0775298 -0.393606 0.209195 0.31689 -0.38707 0.00311809 0.396545 0.00594377 -0.398618 -0.291239 0.518136 -0.187904 0.215063 -0.393397 0.400953 0.4 -0.2 0.1 0 -0.1 -0.2 -0.49999 0.200006 -0.49834 0.406507 0.213887 0.121487 -0.188995 -0.182546 0.0103105 0.302055 0.505646 -0.390038 -0.00435378 -0.299595 -0.000986047 -0.29035 -0.38324 -0.076166 -0.381398 0.013087 0.304319 -0.50133 0.29982 -0.3 -0.1 0.5 0.4 -0.5 0.40001 0.300006 0.00598399 0.0135399 0.217805 -0.276281 0.0199479 0.00563207 0.512374 -0.00744909 0.500317 -0.113902 -0.491483 0.299162 -0.102135 0.311817 0.32595 0.0253313 -0.279782 0.315119 -0.495681 0.0986695 -0.000180199 0 -0.2 0.3 -0.3 0.4 0.4 0.200006 -0.395157 -0.0859722 -0.385162 0.0135001 0.0196193 -0.502172 0.00502967 -0.413332 0.0823504 0.293457 -0.401421 -0.00442006 -0.202206 -0.269187 0.136622 -0.0725175 -0.274971 -0.0849568 -0.0935456 -0.499227 -0.1 -0.3 -0.2 -0.5 -0.1 0.4 -0.4 0.00147935 0.104833 0.00637311 0.111184 -0.185503 0.00605354 -0.198591 0.00362835 -0.120209 -0.21732 -0.0172495 0.385253 -0.510351 -0.287233 -0.2649 -0.361954 -0.0739248 -0.273182 -0.188866 -0.493704 0.30061 -0.3 -0.5 -0.5 0.3 -0.2 -0.4 0.5 -0.198241 0.103371 -0.200885 -0.19372 0.0163122 0.105378 0.110398 0.202848 0.0851602 -0.21135 0.0753045 -0.429175 -0.005403 -0.482676 0.130331 0.240142 -0.0848053 -0.382775 0.00393604 -0.200009 0.497105 -0.3 0.3 -0.2 -0.3 0.3 0.3 0 0.301479 -0.20013 0.40321 0.0120452 -0.491083 0.401352 -0.492876 -0.015325 -0.0228687 -0.216129 -0.223081 0.00314586 -0.486427 0.530045 0.0355724 -0.460673 -0.286311 -0.491317 -0.395391 -0.200009 -0.19939 0.5 -0.4 -0.2 0.2 0.4 0.5 0.4 0.00734139 0.00925913 0.115828 -0.0800977 0.416614 -0.284445 0.406344 -0.201528 0.296102 -0.00849014 -0.00896897 0.00626984 0.219622 0.227512 0.24246 0.525113 -0.198751 -0.501877 -0.403906 -0.507044 0.392622 0.5 0.3 -0.5 0 -0.1 0.5 -0.4 -0.292659 0.111556 0.51264 0.52472 -0.474383 0.0156536 -0.0862335 0.00998167 -0.292119 -0.40005 0.0162758 0.0180352 0.0227237 -0.373668 -0.0712745 0.205939 0.00724154 0.198101 -0.40338 -0.0099303 0.192622 0.3 -0.3 -0.5 0 0 0.4 0.4 0.00734139 0.51181 0.0141737 -0.0761846 -0.272488 0.0214255 0.303488 -0.191102 -0.0967063 -0.0980216 -0.483061 0.515142 -0.0768827 0.232139 -0.182643 0.306494 0.0968132 0.49662 -0.103798 -0.400307 -0.3 -0.3 0 -0.2 0 0 -0.1 0.1 0.00250102 -0.0924926 0.309231 0.322201 0.418661 0.2249 -0.480203 0.217377 0.295578 -0.489431 -0.182646 -0.086246 -0.195575 0.00121236 -0.296298 -0.102608 -0.404751 0.39974 0.39974 -0.000307425 0.3 0.5 -0.5 0.3 0.3 0.2 0.1 -0.1 -0.00336102 -0.403361 0.507787 -0.497996 -0.0962266 -0.495821 0.00270959 0.306125 0.405285 -0.487286 -0.0879829 0.409971 0.0991253 -0.00384899 0.504958 -0.398758 -0.50026 0.0997396 0.19974 -0.300307 0 -0.1 -0.1 0.3 -0.5 0.1 0.2 -0.1 -0.1 -0.4 0.095775 0.492719 -0.0130422 -0.0172729 0.379031 -0.0143612 0.193927 -0.305776 -0.503555 0.0914012 -0.206944 0.293274 -0.30187 4.69916e-05 0.400047 0.2 -0.4 -0.1 -0.4 -0.1 0 -0.5 0 0.2 0.1 -0.1 -0.1 -0.00362082 0.0931154 -0.00985899 -0.31264 0.186367 -0.0131436 -0.507401 0.188788 0.488788 0.39153 0.0913542 0.399259 -0.000522359 -0.300522 -0.1 -0.4 -0.1 -0.4 0.2 0 0.2 0.3 -0.3 -0.3 0.3 -0.4 -0.2 0.5 -0.00183089 0.195509 -0.504491 -0.00265963 -0.1 -0.3 -0.3 -0.3 -0.2 0.2 -0.1 -0.5 0.5 -0.5 -0.5 0.5 -0.5 -0.4 0.3 -0.5 0 0.3 -0.4 0.00797993 
0.2 0.1 -0.5 0 0.1 -0.3 0.2 -0.2 -0.2 0.1 0.1 -0.2 -0.1 0.2 -0.4 0.3 -0.2 0.4 0.2 0.4 -0.2 0.2 0.1 0.3 -0.2 0.1 0.3 0.3 0 0.4 0.4 0.3 -0.4 0.1 -0.2 -0.2 0.3 0.2 0 -0.4 -0.2 -0.3 -0.5 0.2 -0.2 -0.2 -0.5 0 -0.3 0 0 -0.2 0.5 -0.4 0.2 0.5 0.4 0 0 0.5 -0.5 0 0.2 0 0.3 0.2 -0.1 0.3 -0.1 0.3 0.200085 0.0013145 0.00131077 0.00131003 0.101474 -0.49977 0.399999 -0.3 0.3 -0.2 0.5 0.2 -0.1 -0.4 0.5 -0.4 0.5 -0.4 -0.3 0.3 0.1 -0.1 -0.2 0.2 0.500176 0.400176 0.100176 0.100979 0.401469 -0.198706 -0.200368 -0.300314 -0.40062 0.398141 -0.400001 0.2 0.3 -0.3 -0.5 -0.3 0.2 0.4 -0.2 0.1 0.1 -0.2 0.2 -0.1 0.3 0.4 0 0.00017593 -0.101402 0.000412695 0.104154 0.205677 0.00573811 0.394237 0.195752 -0.51103 0.392019 -0.207381 -0.196208 -0.295169 0.104144 -0.395856 -0.3 0 0.5 -0.2 0.5 0.1 -0.1 -0.296083 0.0039171 0.103223 -0.496695 0.00330451 0.503337 -0.185122 0.116183 0.410441 0.204876 0.0935091 -0.522795 -0.0268442 0.162754 -0.534165 -0.348852 -0.0375317 -0.113015 0.399962 -0.298996 0.500922 0.4 -0.1 -0.5 -0.1 -0.1 0 0 0.305127 0.405157 -0.294843 -0.186412 0.0160133 -0.289853 0.0094388 -0.483662 -0.29234 -0.390805 0.184064 -0.121907 -0.0287615 -0.229658 -0.237025 0.255107 -0.254485 -0.428049 -0.423374 0.0904674 -0.00859155 -0.00951356 0.295327 -0.2 -0.3 0.1 0 -0.5 0.407762 0.307793 0.217388 -0.0839517 -0.181487 0.017004 0.019591 -0.189103 0.208404 0.296931 -0.513876 -0.407512 0.0918489 0.387301 -0.111142 -0.420593 -0.137941 -0.131849 0.365839 0.489145 -0.210417 -0.411586 -0.506746 0.5 0 0.4 -0.3 -0.4 -0.0903417 0.209689 0.117905 0.313769 -0.384389 0.501013 0.407436 0.104392 -0.500252 -0.20002 0.295229 -0.106631 -0.215377 0.28763 -0.11145 -0.206354 0.474314 -0.220473 0.270565 -0.109975 -0.107832 -0.00674564 -0.406746 -0.2 0.5 0 0.198361 0.2 0.00181493 -0.0981544 -0.38962 0.108957 -0.0965054 -0.504166 -0.000550913 -0.00184918 -0.303104 0.194112 0.491627 -0.416508 0.482097 0.480809 -0.410728 -0.311691 0.180821 -0.319934 0.0768572 0.0844717 0.497632 -0.00207247 -0.300073 0.2 -0.4 -0.5 -0.00163905 -0.2 -0.497461 -0.497461 0.20437 -0.000670469 0.284517 0.193466 -0.0185359 -0.217479 0.186753 -0.112396 -0.512177 0.187547 0.475716 -0.19859 -0.190937 -0.00505018 -0.00983551 -0.217493 0.375454 0.470517 -0.198803 -0.400073 -0.5 0.5 -0.3 0.2 -0.2 -0.5 -0.399275 -0.399171 -0.496333 -0.102243 -0.211006 -0.00937527 0.0760454 -0.0103436 0.00123398 0.293139 -0.0113678 -0.00491473 -0.0121145 -0.0877231 -0.373183 0.203871 0.098215 -0.121172 0.373564 0.367515 0.102821 0.299925 -0.1 -0.3 -0.3 0.3 -0.4 -0.1 0.200725 0.10091 0.40315 0.291901 -0.312781 0.375084 -0.532629 0.292019 0.19536 0.496568 -0.511517 -0.000745647 0.414054 0.0257597 0.122223 -0.0925455 -0.00987874 0.371474 0.162903 -0.0285596 -0.112969 0.199925 0.2 0.3 0.2 0.3 0.3 -0.4 -0.299275 0.40091 0.20315 -0.50743 0.0816016 -0.42627 -0.0197705 0.0838682 0.403802 0.407218 -0.0166073 -0.207213 0.220608 -0.367484 -0.0780988 0.0130609 0.0925202 0.375481 -0.536349 -0.32694 -0.312783 0.299925 -0.2 0.1 -0.4 0.1 0.3 0.5 -0.499275 -0.39909 -0.00289012 -0.0172188 0.475647 0.27119 -0.419205 -0.407723 -0.492843 -0.195526 -0.10427 0.399039 0.0210817 0.0304182 0.0270593 -0.0939104 -0.507415 -0.422058 -0.223182 0.480669 0.0941313 -0.49316 0.0033941 -0.4 0 0 -0.2 -0.3 0.300725 0.20091 -0.512527 -0.224953 -0.0308254 0.169738 -0.334368 -0.306616 0.19595 0.50541 0.102615 -0.285301 -0.0791294 0.0415327 0.132312 0.207943 0.387787 0.0877509 -0.512217 -0.00782442 -0.00586869 0.50684 -0.0966059 0.1 0.2 0.2 -0.1 0.2 0 0.40091 -0.41373 -0.324147 0.0727539 0.167644 -0.318761 0.303834 -0.207438 0.189904 -0.399145 -0.0871851 0.517402 0.529833 0.0197016 -0.0996067 0.291908 -0.315362 0.193296 -0.00949207 0.193507 0.303319 -0.2 0.1 0.2 -0.4 0.3 0 0.1 -0.105006 -0.414454 0.0823993 -0.525865 0.470509 0.181822 0.39365 0.390285 -0.410927 -0.0946276 -0.29034 -0.190115 -0.27499 -0.499616 -0.00745097 -0.0223393 -0.224952 0.486151 -0.112132 0.190464 -0.399538 0.3 0.1 -0.1 0 0 0.1 0.1 -0.0118472 0.287517 0.283871 -0.32362 -0.53024 0.188045 -0.217588 -0.0142418 -0.504506 -0.0931702 0.202746 -0.301108 -0.0990064 -0.508186 -0.313006 0.275139 -0.513736 -0.506392 0.1957 0.296611 0.00288725 -0.1 -0.4 -0.2 -0.2 -0.3 0.2 0.5 0.0949936 0.489756 0.277057 0.373153 0.0793547 -0.413601 0.184461 -0.407387 -0.0083186 -0.308298 0.395195 -0.111452 0.488052 -0.0108683 -0.0258917 0.284853 -0.0105579 -0.00914873 -0.297535 0.496611 0.500462 -0.4 0 0 -0.3 -0.5 -0.5 -0.3 0.495276 0.290173 0.180182 -0.328393 0.0737635 -0.419994 0.282046 -0.317599 -0.514042 -0.00304372 -0.00373916 0.391537 -0.21195 0.0898116 -0.118958 0.289639 0.00272016 0.400726 0.505345 0.101959 -0.0941144 -0.1 -0.4 0 -0.4 0.5 0.5 -0.3 -0.504724 -0.0101455 0.281785 -0.528659 -0.337101 -0.0235979 -0.317582 -0.00871739 -0.406751 0.00448978 0.377743 0.389307 0.189997 -0.212283 -0.403319 -0.00199057 0.400709 0.206863 -0.0955249 -0.391764 -0.294114 0.4 0.5 0.1 -0.3 -0.4 -0.3 0.1 0.495276 -0.309187 -0.121583 0.273455 -0.0392231 0.165052 0.28313 0.288568 0.490004 -0.511956 0.271171 0.386297 0.197016 -0.00956606 -0.40586 -0.0953256 -0.0915265 -0.395525 0.499968 0.499306 0 -0.3 -0.5 0.2 0.3 -0.1 0.3 -0.3 -0.504867 -0.309739 -0.0183927 0.376472 -0.1257 0.466405 0.376673 0.178593 0.293146 -0.0207444 -0.21315 0.496483 -0.0946267 0.40014 0.298761 -0.19916 4.35083e-05 -0.0995655 0.100435 -0.400694 -0.2 -0.3 0 -0.3 -0.3 -0.4 -0.3 0.2 0.194851 0.394851 0.28342 -0.0081078 -0.30424 -0.003182 -0.510903 0.195477 -0.508982 -0.0176423 -0.316744 -0.109032 0.202281 -0.103264 -0.310052 -0.505096 0.000515795 -0.399484 -0.199484 0.499306 -0.2 0 0.1 0.3 0 0 -0.2 -0.5 0.4 0.5 0.505347 0.405854 0.0143123 0.31563 0.213287 0.314429 -0.492381 0.107164 0.412317 0.411288 0.00593291 0.105004 0.104488 0.30121 0.20121 0.4 0.5 0.1 -0.2 0.5 0.2 0.1 -0.4 0.3 -0.5 0.1 -0.4 -0.296568 0.107419 0.00959188 0.115216 0.0143231 0.205625 -0.299823 0.205182 0.405182 0.206997 0.210078 0.00426617 0.00333763 -0.0966624 0 0.4 0.4 0.2 0.2 -0.4 0.1 0.1 0 -0.4 0.4 -0.2 0.4 -0.1 0.00239634 -0.495532 -0.495532 0.302072 0 -0.5 0.5 -0.2 0.5 -0.3 -0.1 -0.3 -0.4 0.1 0.1 0 -0.1 0.2 0.4 -0.3 0.1 0.4 0.1 0.189018 
0.3 -0.5 0.3 -0.1 -0.5 0.4 0.1 0.5 0.4 0.3 0.3 0 0.5 0 0 -0.5 0.2 0.4 -0.3 0.5 0.4 0 -0.3 0 0 -0.4 -0.5 0 0.5 0.3 0.1 0.4 0.2 0.5 0 0 -0.5 -0.2 -0.5 0.1 -0.3 0 0 0.1 0.3 0 0.2 0 0 0.3 -0.2 -0.4 0.2 0.1 -0.1 0 0.3 -0.1 0.3 -0.4 0.3 0.5 0 -0.3 0.1 0.5 0.1 -0.2 0.2 -0.5 -0.500765 0.500236 0.298637 -0.201362 0.201325 0.500327 -0.4 0.3 0.3 0.1 -0.2 0.5 0 0 0 -0.1 -0.1 0.5 0.1 0.1 -0.2 0.1 -0.2 0.1 -0.0975225 0.202477 -0.0975225 -0.496097 0.00635732 -0.09517 0.306772 0.104621 0.203703 -0.297307 0.1 0.3 -0.2 0 0.5 0.5 0.2 0.5 -0.5 -0.2 0 -0.2 -0.1 0.4 0.1 -0.4 0.1 -0.0975225 -0.197864 0.30901 -0.390331 0.310878 0.0127879 0.0137603 0.310443 0.217522 0.21324 0.498795 -0.402926 -0.307958 -0.402713 -0.302713 -0.5 0 -0.3 0 -0.2 -0.5 0.5 -0.401252 -0.401252 0.498809 0.0988768 0.498877 -0.201415 -0.101063 0.0145009 0.416685 -0.490715 0.406356 0.194809 0.485303 0.0877321 -0.205573 -0.197186 -0.222086 0.482166 -0.222019 0.485604 0.198192 -0.3 -0.4 -0.3 0.1 -0.2 -0.1 0.4 -0.00193486 -0.402636 -0.00263596 0.194847 0.294538 -0.508642 -0.40076 -0.4917 0.406867 0.498763 0.391943 0.189225 -0.328972 -0.414425 -0.511368 0.384965 0.178667 0.0659155 -0.0373443 -0.119691 -0.205348 0.0964597 0.299321 0.4 0.1 0 -0.4 -0.4 -0.40401 0.195289 -0.309091 0.086964 -0.0164985 0.485116 -0.298482 0.193276 0.272311 -0.215256 -0.0118718 -0.405609 -0.0114224 -0.0155064 -0.00906105 0.191072 0.377212 0.273923 -0.532566 -0.414156 -0.302027 0.391388 -0.00575095 -0.5 0 -0.2 0.4 0.3 -0.305157 -0.105858 -0.509134 -0.311508 0.184068 -0.312786 -0.206793 0.381157 -0.21448 -0.412867 -0.011586 -0.212307 0.0957248 0.287461 -0.00995845 0.193681 0.185171 0.265281 -0.126925 -0.314364 -0.403602 -0.205751 0.494249 -0.3 -0.4 0.5 0.099932 0 0.0987855 -0.00191556 0.192737 -0.00489157 0.39495 -0.30676 0.39504 -0.11923 -0.00101205 0.392328 -0.0994761 0.204741 0.00998505 -0.497945 -0.513171 -0.0122219 0.083539 0.170084 -0.0309981 0.292881 -0.20283 0.294928 0.495272 0.1 0 -0.2 -0.300068 0 -0.201976 -0.101976 -0.307224 -0.301377 0.496238 0.300076 0.000322299 0.189506 0.399217 -0.108261 0.196375 0.10726 0.507181 0.395474 -0.406722 0.188865 0.17014 -0.51977 -0.414718 -0.102906 -0.110594 0.0952716 0 -0.2 0.5 0 -0.3 0.3 0.399238 -0.100984 0.196766 0.100401 0.0986195 0.101255 0.296473 0.0796624 0.189838 0.190612 0.190403 0.200647 -0.507521 -0.395315 0.293609 -0.421245 -0.122515 0.490581 -0.209701 0.495926 -0.102219 0.0977756 0.4 -0.3 0.1 -0.4 -0.1 0 0.0992381 0.399084 0.39681 0.100284 0.00250331 0.000487837 0.496122 -0.0205573 0.0852376 -0.115418 -0.406278 0.312045 0.10569 -0.0921423 0.489638 -0.0148058 -0.404127 0.290591 0.390608 -0.499802 -0.401658 -0.102224 -0.4 0 -0.3 -0.2 -0.1 -0.1 0.199238 -0.200916 0.49681 0.100353 -0.393767 0.400853 0.490784 -0.301978 -0.315436 -0.315032 -0.197858 -0.496775 0.0157774 -0.484224 -0.50064 0.0810664 -0.310953 -0.101213 0.296039 0.398408 -0.301813 0.497776 0.1 -0.2 0.4 -0.4 0 -0.2 -0.000761908 -0.500916 -0.505004 0.296108 -0.0960303 0.302044 0.498277 -0.107389 0.0713712 0.17693 -0.505523 0.504523 -0.283276 -0.179374 0.00512723 0.502596 -0.0934483 0.394377 0.192737 -0.504016 -0.00417558 -0.304587 -0.399533 0.5 0.3 -0.1 0 0.4 -0.400762 0.0990837 -0.00521742 0.29694 -0.298265 0.497411 -0.296593 -0.515432 -0.0221761 0.372431 0.493306 -0.0085798 0.307843 -0.18806 -0.200785 0.205513 0.197216 -0.202649 0.197149 0.493676 -0.204176 -0.00458732 0.000466923 -0.5 0 -0.2 -0.5 -0.5 0.2 -0.100916 0.397084 -0.205853 0.291243 -0.31229 -0.104844 0.170071 -0.332278 0.367832 -0.0111025 -0.103569 0.497585 0.305376 0.493676 0.00241192 -0.503119 -0.20254 -0.396146 -0.00541747 -0.50134 -0.401757 0.3 0.1 -0.5 0.2 -0.1 0.3 0 0.400416 -0.00215392 0.193749 -0.111871 0.0819166 0.487763 -0.514602 0.180632 0.478822 -0.397222 0.00760338 -0.213853 -0.00238631 0.481861 -0.404479 -0.0979614 0.00604925 -0.29411 0.298427 -0.302905 0.296523 0.1 0 -0.2 -0.2 0 -0.4 0.2 -0.399383 -0.00212423 -0.41153 0.383396 0.281182 -0.430049 0.378607 -0.417418 -0.118794 -0.185466 0.00854587 0.291523 -0.514488 -0.216893 0.386293 0.498177 0.305749 -0.293631 -0.101901 -0.503586 -0.503786 -0.1 -0.1 0.3 0.3 -0.2 0.1 0.1 -0.0995841 -0.102278 -0.50786 -0.0189677 0.264667 -0.134597 -0.115098 0.181323 0.305467 -0.0846533 0.506855 0.0854004 -0.115424 -0.311534 -0.0993862 0.196247 -0.292124 -0.198274 0.0956738 -0.0035862 0.196523 -0.5 -0.3 -0.5 0.1 0.5 0.3 0.1 0.101545 0.0936798 -0.406062 -0.421398 -0.435852 0.0706393 -0.512145 -0.0101596 0.0182751 0.0124378 -0.301573 -0.0212826 0.278415 -0.210546 0.106641 0.502634 0.0064166 0.296593 -0.00243335 -0.402859 0.399475 0.4 -0.5 0.2 0.5 0.5 0.3 -0.4 0.201545 -0.105738 -0.306941 0.177327 -0.228781 -0.029185 0.28057 -0.0932675 -0.274509 -0.184399 0.0925384 -0.00830743 -0.0180226 0.0997041 -0.0970204 -0.301635 0.398467 0.293917 -0.00485002 -0.103058 -0.300525 -0.5 0.4 0.3 -0.3 -0.2 0.5 0.3 -0.198455 0.1952 0.493392 -0.0165438 -0.0273061 -0.125081 0.492775 0.507528 0.0171779 -0.385402 0.299075 -0.409767 -0.414261 0.292727 -0.19591 0.195687 -0.406034 0.09515 0.49676 -0.399939 0 -0.4 -0.4 -0.5 0.2 0 0.2 0.5 0.401418 0.0966625 -0.305157 -0.0215732 -0.119094 -0.314432 -0.400073 -0.397562 0.499124 0.181974 -0.0164472 -0.508699 0.0941194 -0.00316502 0.00135131 -0.210749 0.398984 -0.50069 -0.10069 -0.199939 0.2 0.1 0.5 0.3 0.2 -0.1 0.2 0.3 -0.199712 -0.499712 0.0968636 -0.417076 -0.00758533 0.40114 -0.503568 0.189035 -0.0121079 -0.411877 0.0945898 -0.00713056 -0.0139561 0.397843 -0.00654948 -0.0047796 0.299378 -0.200622 0.399378 -0.499939 -0.3 -0.2 0.3 0.4 0.4 -0.2 -0.4 0.5 0 0.2 -0.098843 0.0988326 0.406414 0.412047 0.316389 -0.287705 0.00386249 0.398192 0.397707 0.00271273 -0.00619448 0.395758 -0.00419819 -0.100683 -0.500683 -0.2 -0.2 -0.3 0.3 0 0.1 0.4 0 -0.4 0 0.5 0.2 -0.198755 0.400761 0.307339 0.108472 -0.291782 -0.490738 0.102717 0.00510492 0.105105 0.20454 0.00339581 0.198127 0.20008 0.40008 0 0 0 -0.1 0.5 0.1 0.2 0 -0.1 -0.1 0.3 -0.3 -0.5 0.3 1.81669e-05 -0.500378 -0.300378 0.199604 -0.1 -0.5 0.1 -0.4 -0.5 0.3 0.1 0.4 0.2 0.5 -0.4 0.1 0.5 -0.1 0.5 -0.2 0.2 0 0.2 0.498561 
0 0.4 0.1 -0.4 -0.1 0.4 -0.2 0.5 0.5 -0.4 0 0 -0.2 0.5 0.2 0 0.3 -0.2 0 -0.1 -0.3 0 -0.3 -0.3 0.2 0.4 0 0.4 0 -0.3 0.5 -0.3 0 -0.2 0.4 -0.3 -0.1 -0.3 0.5 0.5 0 -0.2 -0.2 0.1 0.5 0.3 -0.4 0.3 0.3 0.3 0.1 0.1 0 0.3 -0.5 0.4 -0.5 -0.4 -0.1 0.2 0 -0.2 0.1 -0.1 0.3 0.4 -0.4 0.3 0.4 0.5 -0.201673 0.498684 0.0983186 -0.299155 0.305141 -0.0943253 0.00252613 0 -0.1 -0.4 0.5 0.5 0.2 0 -0.3 0.4 0.2 -0.2 -0.1 -0.3 0.1 0 0 -0.1 -0.399861 -0.199861 0.500139 0.00345739 0.00269644 0.305894 0.402763 -0.394227 0.305035 0.505505 0.102526 0 0.4 0 0 -0.2 0.4 0.4 -0.3 0.5 0.1 0 -0.2 0.2 0 -0.5 -0.4 0.00013869 0.399552 0.296951 0.499401 -0.50115 -0.100331 -0.198326 0.403421 0.398963 -0.401821 0.194082 0.400849 0.0957604 -0.00522514 0.194775 0 0.5 0 0.1 -0.5 0 0.5 0.194645 -0.205355 -0.205412 -0.299699 -0.299699 0.500135 -0.20245 -0.306141 0.394596 -0.409226 -0.407473 0.289534 -0.106658 0.29874 -0.011379 -0.002042 -0.0156092 0.485248 0.285955 -0.30954 -0.106876 -0.4 0 -0.4 0.1 0.5 -0.3 0.2 -0.00537569 -0.00692829 0.493072 0.500455 -0.399576 0.39448 0.28292 -0.116318 -0.0137208 -0.215537 -0.218463 0.286456 -0.0116307 -0.0130013 -0.121156 0.374565 0.475021 -0.0323449 -0.221164 -0.0108637 -0.00917696 0.1977 -0.200389 -0.4 0 0.1 0 -0.4 -0.0052772 -0.00682979 -0.505459 0.294705 -0.204102 0.19517 0.0860811 0.18187 -0.322772 -0.316744 -0.401206 -0.299118 -0.301609 -0.407081 -0.429023 0.467533 0.26476 -0.340769 -0.128565 -0.213569 -0.305329 0.294661 0.196572 0.4 -0.1 -0.4 -0.4 0.4 -0.505287 0.19316 -0.102157 -0.505911 0.489786 0.0903005 0.0814414 -0.217823 0.282506 -0.111603 0.089653 -0.108995 0.200795 0.386616 -0.0267268 0.472855 -0.134009 -0.036396 0.376487 -0.0109932 -0.505485 0.196572 -0.103428 0.3 -0.5 0.5 -0.298621 0.5 -0.405722 -0.307275 0.19752 0.0937574 -0.308329 -0.313269 0.386688 -0.318422 0.0895233 -0.112294 -0.309828 0.199966 -0.295229 -0.0204337 0.4696 -0.427026 0.461917 -0.435366 -0.0182086 0.195748 -0.305493 -0.303039 0.399693 -0.2 0 -0.3 0.101379 -0.3 0.392782 -0.307218 -0.00854562 -0.307801 -0.407219 0.397305 0.387956 0.383281 -0.113325 -0.115075 0.388516 -0.200217 0.00809493 -0.118107 0.180776 0.170684 0.46544 -0.527501 -0.21655 -0.103856 -0.30559 -0.300307 -0.2 0 -0.1 0.3 -0.1 0 -0.00149611 -0.00933712 0.292356 -0.00594557 -0.00303092 0.396635 0.0898527 -0.321446 0.173843 -0.330791 0.381572 -0.212215 -0.104293 -0.5197 -0.130112 -0.133855 -0.532897 -0.421209 0.288994 0.0952444 -0.00512219 -0.402789 -0.2 -0.3 0.4 0.3 0 -0.4 -0.00149611 -0.203625 -0.110947 -0.108907 0.192928 -0.00690577 0.484132 -0.529168 0.169588 -0.331256 0.269959 -0.311387 -0.105674 -0.0111625 -0.123787 -0.127596 -0.421709 -0.510448 -0.502795 0.298707 -0.304893 0.497211 0.5 -0.4 0 0 -0.3 -0.5 0.498504 -0.403625 0.389053 -0.414865 -0.0085707 -0.00775594 -0.117776 0.283375 0.366886 0.366726 -0.313346 -0.112136 0.497445 0.282743 0.268314 -0.0179794 -0.420814 0.486313 0.0973414 -0.3053 0.192978 0.0972114 -0.4 0.5 0.5 0.1 0.3 -0.2 0.298504 0.196375 -0.00557637 0.487019 0.284261 -0.525127 0.367603 0.169021 -0.228139 0.370078 -0.0208155 -0.0119726 -0.408918 -0.0164675 -0.125506 0.0794249 -0.0171867 -0.0124093 -0.101333 0.0915248 0.289746 0.0939795 -0.503506 -0.2 -0.3 -0.2 0.5 0.3 -0.00149611 -0.203625 -0.205911 -0.315875 0.180209 0.473002 -0.428094 -0.0333661 -0.5342 -0.0213251 -0.00827362 -0.414192 0.376384 0.173707 -0.434206 -0.0200745 -0.316356 0.386863 -0.106198 0.49146 -0.0102542 -0.406021 0.396494 0.1 -0.1 -0.2 0.4 0 0.4 0.296375 0.294394 -0.119405 0.0760415 0.265523 0.168388 -0.132854 0.368894 -0.0178994 -0.0158 -0.514046 0.175939 -0.422246 -0.532691 0.0769276 -0.216789 -0.0112532 -0.404439 -0.206753 0.487138 -0.00629466 -0.4 0.3 0.4 -0.4 0 0.4 -0.1 0.39995 -0.20411 -0.423656 0.173411 -0.0283103 -0.424454 0.48275 -0.517451 -0.114496 0.288791 -0.00654383 -0.0137816 -0.420831 0.476257 0.279079 0.289056 -0.108318 -0.504356 -0.00299551 -0.207298 -0.00285988 0.2 0 -0.1 -0.5 0.3 0.4 -0.1 0.19991 -0.00372258 -0.425415 -0.326909 0.474034 0.378841 -0.51659 0.496155 0.292306 -0.107433 -0.407774 -0.008373 0.477433 -0.222442 -0.319643 -0.308628 -0.108843 -0.407585 -0.303861 -0.304525 0.497109 -0.1 -0.4 0.5 -0.3 0 -0.1 0.1 0.49995 -0.501625 0.387358 0.0820851 -0.119427 0.287873 0.495039 -0.012556 0.000965301 -0.00229157 0.0962281 -0.10125 0.286057 -0.417968 0.0902318 -0.0112786 0.0934373 -0.507737 -0.50661 0.0954745 -0.40286 0.5 0.2 0.5 0.1 -0.2 -0.4 -0.5 -2.7466e-05 -0.400762 -0.506086 -0.0171447 0.176334 -0.516193 -0.108701 0.187993 0.191501 -0.00429926 -0.202401 -0.100485 -0.219821 0.187175 0.483331 0.489134 0.0912955 -0.310165 0.388964 -0.00330244 0.401152 0.1 0 0 0 0.2 0.3 -0.3 -0.500027 0.298431 -0.0048409 0.0880646 -0.216069 0.380225 -0.0191135 0.380153 0.188494 -0.0108752 -0.506596 0.197617 -0.411633 0.488841 -0.519355 -0.217473 -0.110399 -0.211294 -0.411231 -0.201668 0.501152 0.4 -0.1 0.2 -0.5 0.4 -0.1 0 -2.7466e-05 0.500748 0.499217 -0.307503 0.487459 -0.310977 -0.219936 -0.12489 -0.219354 -0.510694 -0.307469 -0.00703365 0.490226 -0.315218 0.278594 0.382428 -0.0108735 -0.0112307 -0.00906035 -0.300056 -0.2 0 0.1 -0.3 0 0 -0.5 -0.4 -0.201556 -0.100766 -0.301227 -0.506143 -0.406447 -0.0101135 -0.0181297 -0.220347 0.484908 -0.415328 -0.00954111 0.195087 -0.212066 -0.213753 0.38364 0.485572 -0.00627173 0.0942107 -0.205789 -0.500056 0.4 -0.5 -0.5 0.3 0.3 0.3 -0.2 0.2 0.498421 -0.401579 -0.500805 -0.102299 -0.00344305 0.490928 0.0919655 0.192654 0.499347 0.0996507 0.198002 0.0927805 -0.407095 -0.00986156 -0.0104782 -0.305493 -7.7162e-05 -0.400077 -0.300077 -0.100056 0 0.3 -0.2 -0.5 -0.5 0.2 -0.3 -0.4 -0.5 -0.4 0.0003926 -0.29941 0.196497 0.0931977 -0.50593 0.398718 0.00306962 -0.295381 0.502623 0.00287924 0.499355 0.199302 0.295999 0.499979 0.299979 -0.2 -0.2 0.5 0 0 -0.1 -0.1 0.4 0 -0.2 0.4 0 0.101253 -0.399802 -0.399373 0.198064 0.0970273 -0.399283 0.00052124 0.407206 0.407206 -0.0930958 -0.4971 0.498358 0.498305 -0.201695 -0.1 -0.1 0.2 0.5 0.4 0.5 -0.5 -0.2 -0.4 0.3 0 -0.5 -0.3 0.1 0.101179 0.400985 0.300985 -0.300194 -0.3 0 -0.2 -0.5 0 -0.2 0 0.4 0.1 -0.5 0.3 -0.2 -0.3 0.5 0.4 0.5 -0.1 -0.5 -0.2 0.469903 
-0.1 -0.5 -0.1 0.3 0.3 -0.2 -0.2 -0.4 -0.3 -0.3 0 0.5 -0.4 0 0 -0.5 -0.3 -0.1 0.1 0.5 0.5 -0.3 -0.2 -0.2 0.5 -0.3 -0.4 0.2 0.4 0.4 0.4 0.2 -0.1 -0.1 0.3 0.2 -0.4 0 0.3 -0.4 0.4 0.3 0.2 0 -0.4 -0.1 0.5 -0.3 0.4 0.4 0.3 0.1 -0.4 -0.5 0 0.4 -0.4 0.3 0.5 0.1 -0.5 -0.5 0.4 0 -0.5 0.1 0.2 0.1 -0.5 0.3 -5.00362e-05 -0.100092 0.0998119 0.0998056 -0.400272 0.3998 -0.300006 0.3 0.4 -0.3 -0.5 0.3 0.4 0.3 -0.1 0.5 -0.5 0.2 -0.1 0 -0.1 0.5 0 0.5 -0.399991 0.200009 8.84225e-06 0.0999783 0.400051 0.299957 -0.400116 -0.300319 0.099662 -0.300262 0.399994 -0.4 -0.5 -0.4 0.3 -0.5 -0.3 -0.3 -0.1 0.3 0.3 -0.3 -0.2 0.1 -0.1 0.2 -0.1 0.500009 -0.499993 -0.500021 0.500115 0.200037 0.500093 -0.399843 -0.500006 -0.50039 -0.000315754 -0.000252346 0.500078 -0.400009 0.399988 -1.20896e-05 -0.2 -0.2 -0.4 -0.1 -0.5 -0.4 -0.2 0.399594 0.0995944 -0.200406 0.3 2.00331e-07 1.46574e-05 0.0992984 0.40013 -0.499725 0.200328 0.500351 0.500219 -0.200027 0.000207954 0.199884 -9.22131e-05 0.299171 -0.301626 -0.300425 0.199469 0.0998826 0.4 0.2 -0.5 -0.3 -0.1 -0.3 0 -0.200405 0.499142 0.499142 -0.39897 0.301078 -0.199763 0.500396 0.200384 0.400403 -0.398568 0.401269 -0.498997 -0.398781 4.87816e-05 0.399712 0.0991876 0.0990144 -0.20481 0.195926 0.496108 -0.103629 -0.403512 0.499986 0.3 -0.5 -0.5 -0.5 0.1 -0.100387 -0.30084 -0.400809 -0.0993257 -0.199645 -0.299641 0.300421 0.000381032 0.0997817 0.10093 0.401074 0.501581 0.501604 0.501716 0.0983663 -0.00360508 0.3956 -0.00554101 0.394589 -0.504462 0.29586 0.0958671 0.299365 -0.1 0.5 0.3 -0.2 0.5 -0.100397 -0.40085 0.0991922 0.198956 -0.300068 0.100339 0.000422537 0.400289 -0.100004 -0.49902 0.00104249 -0.00165779 -0.400918 -0.10164 -0.0013849 0.397065 -0.10474 0.0948235 -0.204775 -0.00478211 -0.40118 0.499365 0.399365 0.3 -0.5 0.5 0.500002 0.3 -0.300416 0.399131 -0.101219 0.19896 -0.00100807 -0.10109 0.099365 0.499914 0.000254763 -0.0997074 0.50016 -0.00265778 0.39912 -0.202073 -0.501957 0.496844 -0.204934 -0.401838 -0.301699 -0.201633 -0.201114 -0.300621 -0.100041 0 -0.3 -0.2 0.300002 0.3 0.499131 -0.100869 -0.501927 0.39894 0.498979 0.0991646 0.0990624 -0.300259 0.499874 0.500129 0.497136 -0.00294962 0.298444 0.29761 -0.199072 0.499361 -0.301983 0.198026 -0.301659 0.0992156 0.499934 0.299959 0 0.2 -0.3 0.1 0.4 -0.2 -0.100453 -0.40162 -0.301297 -0.300843 -0.000802891 -0.201213 -0.400325 -0.300319 -0.300163 0.0969431 -0.302912 0.398255 0.198263 0.000617999 0.49979 0.499262 -0.00144819 0.398637 -0.301221 -0.201009 -0.49994 6.62327e-05 -0.3 0 -0.2 -0.2 -0.3 -0.3 -0.300453 -0.301214 -0.00129765 -0.10083 0.298773 0.0988574 0.499469 0.399464 0.399086 0.496514 0.397529 -0.102141 -0.102239 -0.402598 -0.000237452 0.199113 -0.301622 -0.401829 -0.00127163 -0.300645 -0.299949 -0.199934 -0.1 0.3 -0.4 -0.5 0 0 -0.000452725 0.398786 0.198702 0.398742 0.298758 0.0995914 0.49936 -0.100367 -0.00378096 -0.0027679 -0.502317 -0.202589 0.197699 0.296297 -0.403764 -0.201082 0.0988424 0.298215 -0.00105685 -0.200677 0.49929 -0.399934 0.4 -0.3 0.5 -0.3 0.5 0.4 -0.400453 -0.201214 -0.00130114 -0.501202 0.499323 0.399287 0.0955199 0.195763 0.496495 0.19673 0.0968993 0.000470739 0.0965791 0.295862 -0.00452712 -0.00177224 0.498162 0.198055 -0.300896 -0.300633 -0.500666 -0.299889 0.299998 -0.4 -0.1 -0.3 0.3 -0.1 0.299547 0.298786 -0.501488 -0.301917 0.298113 -0.0021329 -0.505231 -0.205392 -0.504855 -0.30151 0.198791 0.0990276 -0.503444 0.296786 0.396484 0.39849 -0.201726 -0.101174 0.399071 0.399263 0.199334 0.500111 0.399998 -0.3 -0.4 0.1 0.4 -0.5 -0.3 0.0987864 -0.301488 0.498075 -0.501683 0.0972241 -0.00273226 0.194763 -0.00152011 -0.100836 -0.000647959 0.29971 0.196665 -0.202701 -0.00348154 -0.400691 -0.500261 0.0988577 0.399164 -0.000664061 -0.200718 -0.299936 0.3 -0.3 0.4 0.4 0 0 -0.1 0.400001 -0.301035 -0.00196726 -0.00196269 -0.302304 0.497492 -0.401768 -0.101615 -0.401992 0.498644 -0.00299978 -0.402723 -0.40244 0.499285 0.299401 0.0993917 -0.301274 0.399314 -0.100665 0.500086 -0.299892 0.4 -0.4 0 0.2 -0.3 0.5 -0.3 -0.400004 0.496304 -0.00154003 0.0984071 -0.301826 -0.501404 0.498673 0.099319 0.398683 0.0959587 0.295893 0.395895 -0.303965 0.399639 0.100137 -0.499791 -0.00115877 -0.300963 0.299308 0.000156508 0.100156 -0.3 0.5 0.5 0 0 0.4 0.5 0.400001 -0.402887 0.0965833 0.0966572 -0.500584 0.499297 -0.000756525 -0.103766 -0.203742 0.196271 -0.403248 -0.102658 -0.299965 -0.499887 0.3001 0.199493 0.199048 -0.000961998 -0.000621029 -0.199843 -0.399892 0 0.1 -0.2 -0.1 0.3 -0.5 0.4 0.300006 -0.202865 0.197131 0.196649 0.296474 0.296196 -0.00361501 -0.303574 -0.00353304 -0.0033289 -0.000137183 0.500501 0.000698942 0.000117303 -0.399692 -0.400699 -0.20102 0.498939 0.298948 0.400115 3.16248e-07 -0.1 0 0.2 -0.3 -0.2 -0.3 0 0.100006 -0.302982 -0.00288352 -0.202836 -0.00300872 0.296896 -0.202835 -0.102884 0.300265 0.500324 -0.299995 0.00137434 0.00141276 0.00041661 0.20033 0.199253 0.499045 -0.101077 -0.501061 0.400115 -0.4 0 0 -0.2 -0.3 -0.3 0.5 -0.3 -0.399994 -0.299935 -0.100023 -0.299846 -0.299845 0.200158 0.400469 0.500436 0.300492 -0.199465 0.000635461 -0.49823 -0.398374 0.20082 -0.400751 -0.500751 0.198939 0.498939 -0.400339 -1.28684e-07 -0.3 -0.1 -0.3 0.2 -0.1 0.3 -0.1 0.2 0.0999218 0.49994 -0.300085 0.299849 -0.299588 -0.299604 -0.299589 0.000396311 0.200373 0.000275322 0.30175 0.501551 0.201327 0.0995205 0.399478 -0.000868214 -0.000405122 -0.00040545 -0.400405 0.3 -0.3 0 0.5 0.5 0.3 0 0.3 0 -0.300083 -0.100083 -6.4992e-05 -0.299861 0.300483 -0.399926 -0.29987 0.00102962 0.501056 0.501112 0.00137844 0.201281 -0.498766 0.499475 0.299448 -0.10053 4.76201e-07 4.76201e-07 4.76201e-07 -0.3 -0.4 0 0.2 0 -0.2 -0.5 0.5 0.3 0.2 0.4 0.100267 0.400244 -0.499515 0.200077 -0.50017 -0.499153 0.401086 0.00107082 0.401064 0.300017 0.199932 0.099919 -0.200082 0.200001 -0.0999994 0.5 0.2 -0.4 0 0.1 -0.1 0.5 -0.3 -0.3 -0.4 0.4 0.4 -0.0997306 -0.299716 0.000545968 0.000541059 -0.499712 0.000282213 1.78696e-05 0.100117 -0.399883 0.500114 -0.499984 0.500009 0.399996 -4.16614e-06 0.5 0.3 0.3 0 -0.1 0 0 -0.3 0.3 0.3 -0.2 0.1 -0.1 0.1 -0.499744 -0.299727 0.100273 1.75034e-05 -0.2 0 -0.4 -0.3 -0.2 0.5 -0.4 -0.5 0.3 0.5 0.4 0.5 -0.5 0.1 -0.4 0 0 0.2 0.1 0.296208 
0 -0.3 -0.4 0.3 0 0 0.3 -0.3 -0.4 0.2 0.3 0.1 -0.4 0.2 0.4 -0.1 0 0.1 0.4 -0.2 0.2 0.4 -0.5 -0.4 -0.3 0.4 0 0 -0.5 0.1 0 0 0.5 -0.1 -0.4 -0.4 0.3 0.2 0.2 0.4 -0.5 0.4 -0.3 -0.2 -0.5 -0.4 -0.4 0.4 -0.4 -0.2 0.2 0.5 -0.1 -0.5 -0.5 0 0.3 -0.4 -0.2 0 -0.2 0.5 0.5 -0.5 -0.2 -0.1 0.4 0.1 -0.1 0 -0.200003 0.299994 -0.100008 -0.200008 -0.399996 0.100007 0.5 0.2 0.3 -0.3 -0.4 0.1 0.3 0.5 0 -0.1 0.2 -0.4 -0.4 0.3 0.5 0 0.2 0.4 -0.5 -0.2 0.1 4.51671e-05 0.500042 0.10004 -0.100008 0.399999 -0.0999971 0.300006 0.2 0 -0.2 -0.1 0.5 -0.1 0 -0.1 0.4 0 -0.3 -0.4 -0.2 0 -0.4 -0.5 -0.1 8.66855e-08 -0.501193 0.098817 0.106173 0.106185 0.306181 0.201233 -0.00116344 -0.00117532 1.67818e-05 -3.17386e-06 0.3 -0.300001 0.199997 -0.300003 0.1 -0.1 0.5 0 -0.3 0.1 0 -0.399649 0.300351 -0.199745 -0.199745 0.500255 -0.0997315 -0.500186 0.199663 0.206332 -0.186282 -0.286334 -0.381225 0.00644999 0.104049 -0.101206 0.200028 -0.200149 0.199701 0.299721 0.499942 -6.12696e-05 0 0 0 0.1 0 0.5 0.5 0.401176 -0.298917 -0.0989165 0.103118 -0.396882 -0.397415 -0.198837 -0.398778 0.108928 0.111397 0.421031 -0.178882 -0.484577 0.503742 -0.497508 -0.102681 -0.201791 0.498769 -0.200335 0.199759 0.499951 0.400012 -0.5 0.1 -0.1 -0.1 0 -0.5 0.399454 0.099361 -0.500379 0.201621 -0.398165 0.000784735 -0.500476 -0.500989 -0.101016 -0.190955 0.0172885 0.0176207 -0.0879571 0.00175926 0.000660172 -0.307198 0.193935 0.498096 -0.401297 0.499882 -0.099858 -0.200023 -3.55171e-05 -0.2 0.1 0.5 -0.2 -0.4 -0.200302 0.299605 0.199264 0.49917 0.299802 0.298861 -0.401342 -0.00189387 -0.00148909 0.306921 0.0157513 0.0163998 -0.488706 0.000295601 0.200135 0.292051 0.393387 0.494152 0.497574 0.199834 0.400207 0.0999645 -0.400036 0.5 0 0.3 0.499993 -0.5 0.100244 -0.199849 -0.301912 0.398158 0.396063 -0.00481085 -0.506625 -0.307542 -0.103256 -0.19497 -0.284356 -0.183158 -0.280365 -0.194359 -0.00327991 -0.306592 -0.106566 -0.305912 0.296025 -0.401504 0.200202 -0.300035 6.81429e-06 0 0 -0.2 -0.400007 0.4 0.300247 0.000246967 0.399778 -0.301508 -0.303953 0.495516 0.493317 0.393715 -0.10441 0.405268 -0.483436 -0.38172 0.0205821 0.005805 0.497343 0.192989 0.293808 -0.20584 -0.403983 -0.00249836 -0.200008 -0.399993 0.1 0.5 0.2 0.1 -0.5 -0.4 2.9798e-06 0.0999954 -0.100448 0.29851 0.495159 0.0937422 -0.206848 -0.305505 0.396993 0.007015 0.120581 0.223615 0.0224008 0.108554 -0.10265 0.194225 -0.20616 -0.405517 -0.303719 0.497331 0.199991 0.399913 0.3 -0.4 0.2 0 -0.1 0.3 -0.199997 -0.400005 0.299908 0.296341 -0.303865 0.0961263 -0.00471908 0.0983148 0.298379 -0.194721 0.0223252 0.423054 0.122191 0.408927 0.49638 -0.104254 -0.0050133 -0.505591 -0.503606 -0.102578 -0.102183 0.399913 -0.4 -0.5 -0.1 -0.4 -0.5 0.2 -0.499997 0.0999954 0.499908 -0.503593 0.396481 -0.503906 -0.00382324 0.498153 -0.200999 -0.392845 -0.375985 -0.375938 -0.178129 0.305828 -0.30404 -0.402511 0.0974121 -0.00338207 0.497454 -0.00214481 -0.00219104 0.299913 0 0.3 -0.3 -0.2 0.2 0.3 0.100003 0.199995 0.49991 0.197213 -0.00273109 0.297183 -0.302467 -0.0992613 0.502867 0.0131275 0.523064 0.322659 0.318514 0.00393243 0.295589 0.198398 0.398393 0.39887 0.298058 0.197937 -0.00220516 -0.500101 0.500004 0 0.2 0.4 -0.4 0 0.200003 0.399995 -0.000106445 0.397506 -0.102451 -0.102678 0.0976207 -0.500441 0.501659 0.0126445 0.22269 0.419258 -0.380788 -0.20038 -0.000936341 0.0984754 -0.50084 -0.300243 -0.300653 -0.00146695 -0.00220516 -0.200101 0.100004 0.4 0.4 0 0 0.2 0.5 0.299995 0.499889 0.297792 0.0974195 0.0974358 -0.302603 0.0995562 0.101838 0.412387 0.22224 0.0190481 0.0174601 0.499165 0.0989768 0.00129103 0.403718 0.400193 -0.000716131 -0.300717 0.297891 0.499917 -0.2 0.5 0.4 -0.4 0.5 -0.5 -0.5 0.0999985 0.199886 -0.502299 0.297658 -0.502226 0.0977833 0.400256 0.400368 -0.0893216 -0.281524 0.119396 0.517092 -0.398884 0.402147 -0.0977391 0.402293 0.199281 0.399291 -0.200703 -0.302108 -0.100089 0.1 0 -0.4 0.2 0.4 0 0.5 -1.87183e-05 -0.400022 0.497678 0.197665 0.19769 0.0978918 0.397986 0.300235 0.0145703 0.118485 -0.484907 -0.285634 0.501305 -0.0982757 -0.0976913 0.00192777 -0.000722433 -0.000690583 -0.200702 0.499023 0.0999106 0 -0.1 0 0.5 -0.1 0.3 0 0.299998 0.399985 -0.401271 0.297511 -0.00213161 -0.0018609 0.498199 -0.201733 0.213652 0.116458 0.314606 0.414963 0.502203 -0.197157 0.50112 -0.297837 0.0993319 -0.300702 -0.500771 -0.000977396 -0.300089 0.1 -0.1 -0.5 0.5 -0.4 0.1 0 0.299998 0.299797 0.298862 0.197887 0.0978898 -0.00109143 -0.00225457 0.498298 0.212799 0.310974 -0.0848526 0.311159 0.10472 0.00363983 0.103978 0.29844 -0.00060183 0.399251 0.400124 -0.400938 -0.0999631 0.5 0 0.1 0.2 0.2 -0.5 -0.1 0.499998 -0.100198 0.299749 0.0980211 -0.00204134 -0.301276 0.397596 0.497418 -0.186946 0.309498 0.0155665 0.31267 0.504003 -0.0964563 0.303043 0.398312 0.299155 -0.200828 0.100028 -0.50005 -0.0999631 -0.3 -0.1 0.1 -0.4 0.4 0.2 0.2 -0.300002 -0.500205 0.499736 0.398825 0.297794 -0.00228956 -0.00222702 0.397391 -0.0921269 0.309675 0.214291 0.111325 -0.395108 0.302976 0.40045 -0.00167097 -0.499621 2.80673e-05 -0.300208 0.499904 -0.5 0.2 0.2 0.1 0 0.1 0 0.2 -5.85135e-05 -0.300248 0.299739 -0.400152 -0.00203117 0.397949 0.197376 -0.501584 0.30656 -0.190172 -0.483111 -0.387621 0.405593 -0.498617 0.000905024 -0.499896 0.399879 0.10073 0.30073 -0.500096 -0.5 -0.1 -0.2 0.3 0.5 -0.3 -0.5 0.5 -0.500059 0.299941 -0.100265 0.198812 -0.201029 -0.100337 -0.200067 0.30225 -0.494992 0.00874034 0.110927 0.00768447 0.302577 -0.100938 0.299763 0.0998027 0.000729976 -0.39927 -0.49927 0.299904 0.3 0.1 -0.1 0.2 0.5 0 0.1 0.4 0 0.5 -0.200148 0.199072 -0.301073 -0.00144971 -0.101135 -0.49908 -0.402192 0.398526 -0.301762 -0.302 -0.0015875 0.000138481 0.000494533 0.500826 0.000825926 0 -0.3 0.4 0.1 0.1 -0.2 0.4 0.5 0.1 0.5 0 0 3.9106e-05 -0.200934 0.499147 -0.00107339 -0.401098 -0.000204065 0.400007 -0.203808 -0.00380782 0.196193 0.197174 -0.302015 -0.500289 -0.000289174 0 0.5 0.3 -0.2 -0.2 -0.4 0 0 0.2 -0.4 0.5 0.3 0.5 0.3 -7.91032e-07 -0.100786 -0.000786249 0.499215 -0.3 -0.2 0.2 -0.4 -0.1 -0.1 0 -0.2 -0.3 -0.5 0.1 -0.2 -0.4 0 0.5 -0.4 -0.2 0.1 -0.3 -0.383987 
