0 0.3 -0.5 -0.4 0.5 -0.4 0 -0.5 0.3 -0.2 0.3 0 -0.1 0 0 -0.1 -0.3 0.2 0 0.1 -0.5 -0.1 0 0.3 -0.5 -0.4 0.3 0.2 -0.5 0.5 -0.3 -0.4 0.5 0.5 -0.4 0.3 -0.3 0.4 0.000306847 0.400307 -0.300001 0.3 -0.299986 -0.399945 0.50004 -0.49996 0.400001 0.499916 0.199916 0.299916 -0.4 0 -0.2 -0.2 0.5 0.5 0.5 -0.5 0 0 0.1 -0.4 -0.3 -0.299981 0.100026 -0.299974 -0.498837 -0.3988 0.00215551 0.00237573 -0.498423 0.40106 0.499386 -0.400717 -0.0990399 0.500665 0.0997351 0.0999004 -0.500036 -0.1 -0.4 0.2 -0.5 -0.5 0.5 0.3 0.2 0 -0.5 0.19982 -7.93376e-05 0.00741455 0.401288 -0.294626 -0.402438 0.185255 -0.0286618 -0.205823 -0.394878 -0.266619 -0.479476 -0.172509 -0.393154 0.0196924 -0.489698 -0.493762 -0.103822 -0.29998 -0.50004 0 0 -0.2 0 0.2 0.3 -0.1 -0.209404 -0.00400756 -0.385426 -0.382351 -0.416911 0.412875 -0.273517 0.198873 0.44271 0.45513 -0.442647 0.176394 0.0319502 -0.102485 -0.480309 -0.201304 -0.452292 -0.458291 -0.0362892 -0.323578 0.10374 0.100389 0 -0.3 0.5 -0.5 -0.3 0.0162322 -0.18205 0.246478 -0.432969 -0.0582092 -0.368613 -0.294759 0.0410828 0.0573162 -0.470525 -0.197676 -0.385471 0.0132144 -0.207222 -0.40411 -0.197008 -0.373965 -0.490064 0.299218 0.213981 -0.34802 -0.498714 -0.302776 -0.499089 -0.499994 0 0 0.199862 0.416755 0.132342 0.38899 0.40936 0.00111031 0.350168 -0.173201 -0.484293 0.449159 0.568298 0.538853 0.166128 0.149467 0.439918 -0.408896 -0.282079 0.0944089 0.102323 -0.0251516 0.0451632 -0.336163 -0.515043 -0.00219899 0.293112 0.19504 -0.199941 -0.497962 0.199819 0.427499 -0.441563 0.571248 0.601067 0.361134 0.107183 -0.221549 0.0704667 -0.247947 0.284001 -0.387871 0.0646348 0.0476037 0.436733 -0.431755 -0.421099 0.396133 -0.383174 0.197326 0.0104814 0.432128 -0.427577 -0.00622704 -0.00582021 -0.10496 -0.299941 -0.0999411 -0.299632 -0.272538 0.0723731 0.467518 0.115799 0.0920112 -0.0900372 0.193304 -0.424313 -0.521479 0.0192342 -0.407383 0.345809 0.335668 -0.0356307 0.0203782 0.37078 0.185034 0.0537637 0.048566 0.255309 -0.353397 -0.54019 -0.00599864 0.291132 -0.203986 5.88681e-05 0.302548 -0.382942 0.234557 0.457514 -0.337416 0.423945 -0.0432319 0.000318438 0.224103 -0.0527577 -0.322982 -0.525346 0.615507 0.62444 0.444633 0.370123 0.472311 0.318477 0.0808776 0.676976 -0.212395 -0.127232 0.234371 -0.0237449 0.0982752 0.49683 -0.00398616 0.5 -0.397511 0.517474 -0.16346 -0.256737 -0.319505 0.0269643 0.179727 -0.170719 0.136592 0.0710788 -0.424346 -0.14314 0.41638 -0.463451 -0.138827 0.52822 0.717887 0.20086 0.14926 -0.332097 0.0948635 0.475384 0.123703 0.0860937 0.194835 -0.00366434 -0.4 -0.5 0.000696911 -0.480433 0.539851 0.444809 0.147281 -0.338791 -0.00775795 -0.111489 -0.216247 -0.511633 0.305311 0.188033 -0.291921 0.12406 0.224301 0.161345 -0.244672 0.46119 0.532406 -0.122363 -0.0158166 -0.184238 -0.415187 -0.415607 -0.306452 -0.309923 4.80201e-10 0.4 0.3 0.201957 0.235016 -0.268813 -0.0761967 0.447491 -0.39189 -0.38864 -0.1459 -0.314553 -0.0600423 0.363798 0.00567814 0.0640829 0.531705 0.190264 0.140198 0.521994 -0.223158 -0.400309 0.381248 -0.184405 -0.005344 -0.0311374 -0.00570825 -0.00576562 -0.1 -0.1 -0.5 0.295943 0.224618 -0.48041 -0.494051 -0.31086 -0.187625 0.165525 0.387601 -0.481614 -0.556492 -0.234432 -0.366388 -0.200568 0.385929 0.0940588 -0.213445 0.196094 0.529602 -0.386913 0.0344276 -0.409611 -0.309694 -0.0184318 0.300623 -0.305766 -0.4 0.4 -0.1 0.00103528 -0.0897276 -0.158638 -0.387693 0.0681713 -0.137409 -0.419209 0.0644725 -0.0979494 -0.185992 -0.466902 -0.125765 0.103314 -0.0876156 -0.2492 -0.47081 0.330084 -0.0777127 -0.1637 -0.0307778 -0.424365 -0.090003 -0.288286 0.00759909 0.103596 0.4 0.5 0.1 -0.1 -0.18998 -0.454287 0.123747 -0.137942 0.124743 -0.484403 0.311544 -0.654935 -0.251417 -0.140016 0.229799 0.196607 0.369984 -0.515663 0.448978 0.162008 -0.342933 0.485873 0.284627 0.0794422 0.51049 0.0161382 0.510372 -0.196504 0.499931 -0.4 0.2 -0.378654 -0.386327 -0.225163 -0.429642 0.122804 0.0169652 -0.515942 -0.42461 -0.269363 -0.2688 0.155948 -0.569522 -0.272411 -0.486466 -0.456884 -0.116062 0.0389001 0.0283019 -0.14691 0.558556 -0.424511 -0.0212438 -0.500706 -0.199112 -3.2398e-05 0.0999309 0.5 0.5 0.502305 0.546669 0.179726 0.268197 -0.0351447 -0.236598 -0.323855 0.204902 0.28192 -0.128659 0.0981237 0.128656 -0.294103 0.505854 -0.19089 0.36285 0.555343 -0.0853462 0.080182 -0.00112556 0.128397 0.0655735 -0.008735 0.289879 0.000110832 -0.499891 0 0.5 0.419041 0.0703095 0.189923 0.102792 0.301197 -0.411764 -0.203274 0.17 -0.400643 -0.506745 -0.322274 -0.404478 -0.490047 0.0330442 -0.383709 -0.458219 -0.177087 -0.0643773 -0.521139 0.495302 -0.145196 -0.361905 -0.440039 0.18318 -0.299893 0.00324224 -0.5 -0.2 0.42043 0.55486 0.502265 -0.207811 0.49145 -0.450061 -0.417989 0.297469 -0.563608 -0.0287673 -0.426159 -0.0649109 0.413867 -0.3821 0.368226 0.0450088 0.0312134 0.0513379 0.44742 -0.0465119 -0.546945 -0.563692 -0.560425 0.0733961 -0.00589798 0.00334124 0 0.2 0.30413 -0.147936 -0.405397 0.100411 -0.367713 0.587056 0.0346079 -0.424675 0.00778497 0.31201 -0.232621 0.148798 0.531583 -0.143206 0.562108 0.0575008 -0.502506 -0.0903469 0.173824 -0.128532 -0.566028 0.427737 0.0498196 0.377827 -0.511864 -0.2 -0.4 -0.2 0.502924 -0.168598 -0.111361 0.0441037 0.0616659 0.00679269 0.0657493 0.435818 0.400397 -0.253385 -0.0654351 0.237162 -0.348074 0.166177 -0.283597 0.556063 -0.297402 -0.219645 -0.0110756 0.307422 -0.0300391 -0.140701 0.257576 -0.214807 0.287614 0.3 0 0 0.402054 0.526246 0.570455 -0.236379 0.308649 0.0473331 0.505871 0.277994 0.480447 -0.162199 0.0351189 0.041891 -0.353029 0.518335 0.441215 0.435646 0.274723 -0.350198 0.393059 0.200544 -0.236431 -0.140969 0.486565 -0.205337 0.392812 0.2 -0.3 -0.4 -0.299419 -0.0752485 -0.226933 -0.421369 0.258266 0.468916 -0.35308 0.130489 -0.21154 -0.327511 -0.300558 -0.0704063 -0.176831 -0.0592537 -0.269136 0.0149877 -0.0614591 -0.421735 -0.238712 0.172884 0.367967 0.281036 -0.509333 -0.201241 -0.301222 -0.4 0.4 -0.3 0.3 0.519415 -0.441387 -0.430208 -0.28275 0.137373 0.54416 0.432197 0.0947193 0.0696807 0.321896 0.108465 0.588338 0.502181 0.214815 0.147654 -0.446005 -0.0487688 -0.447717 -0.43466 0.068101 0.189162 0.49174 0.4 0 0.2 0 0.2 -0.3 -0.49964 -0.479617 -0.371602 0.0372856 0.245147 0.220942 -0.000507472 -0.230054 0.310104 -0.0307596 0.446382 -0.250699 0.398971 0.462805 0.0992249 -0.525324 -0.215831 -0.00991654 0.493109 -0.305057 -0.30504 -0.501882 0 -0.2 -0.5 -0.3 0.3 -0.4 0.29436 -0.00379645 -0.201219 -0.384652 -0.0869156 0.299781 0.111576 0.502482 -0.274578 0.530589 -0.173714 -0.439423 -0.259017 0.31595 0.000428108 -0.00536791 -0.0840092 0.00366978 -0.197597 0.401789 0.499499 0.2 0.4 0.5 0.2 0.1 0.4 0.1 -0.5 -0.1 -0.298338 -0.186895 0.213105 -0.288556 -0.299624 0.105715 0.00658295 -0.292971 0.119838 0.0346934 0.117319 0.4199 0.0230099 0.403793 -0.499894 -0.199399 0.00301208 -0.197007 -0.4 0 -0.3 0 0 -0.339098 
0.5 0.2 0.4 0.1 -0.2 0 0 -0.1 0 -0.2 0.1 0.5 0.5 -0.4 0 0.5 0.2 -0.2 -0.2 0.2 0.1 0.4 0.3 -0.5 -0.1 -0.1 0.5 -0.2 0.2 0.3 -0.4 -0.1 -0.4 -0.4 0.3 0.1 -0.4 -0.5 0.195968 0.495968 -0.299897 -0.29804 0.402885 0.40399 0.401208 -0.0983858 -0.199774 0.00150016 0.00150015 0.3015 3.76727e-08 0.2 0.1 -0.4 0.1 0.5 0.3 -0.2 -0.5 0.5 -0.2 -0.2 0.3 0.301194 -0.193327 -0.0909335 0.309956 -0.288902 -0.0855332 -0.473835 0.519577 0.107244 0.299519 -0.101056 0.418278 -0.382183 0.411276 0.00648791 -0.0965302 0.297528 -0.502614 0.2 0.5 -0.3 0.4 0.3 0.5 0.2 0.1 0.499998 -0.0993032 -0.493295 -0.287472 0.224895 0.420373 -0.371578 -0.255825 0.356757 -0.0657776 -0.470822 -0.28974 0.336678 0.0501439 0.354508 0.233734 0.316791 -0.294201 -0.39564 0.497151 0.1 -0.4 0 -0.5 -0.2 0.4 0.1 0.196083 0.00311928 -0.289442 -0.0859791 -0.29778 0.415484 0.297956 0.522548 0.444843 0.552666 0.532384 -0.181525 0.531241 0.215324 -0.166294 -0.0940486 -0.399541 0.177136 -0.126104 -0.415073 -0.306827 0.301032 -0.4 0.1 -0.4 -0.1 -0.2 -0.0985036 -0.400348 -0.289526 0.296992 0.122475 0.0106722 -0.0924637 0.0467863 -0.470317 0.264788 0.417954 0.429431 0.648223 -0.00323543 -0.0110629 0.324968 0.417539 0.223051 0.46109 -0.542317 0.177823 -0.405858 -0.499433 0.501763 0.400267 -0.5 -0.5 0.213826 -0.483962 -0.181377 0.273011 0.518139 -0.122938 -0.0543475 0.234888 0.448425 0.452339 0.092091 -0.0261241 0.080408 -0.295925 -0.284363 -0.255329 -0.36221 0.40348 0.450675 0.109816 0.101143 0.507479 0.407653 -0.0989435 0.302847 -0.0979826 -0.000362341 -0.000204618 0.512963 0.11253 0.414161 0.282688 0.516771 0.32814 0.189136 0.196598 -0.228239 -0.121978 0.304269 0.345667 -0.561605 -0.199858 0.171287 -0.140714 -0.377573 0.000678535 0.302519 -0.240986 -0.470921 -0.469597 -0.108076 -0.401421 -0.395386 -0.494018 -0.000362341 0.399638 -0.487037 -0.0767359 -0.197802 0.370626 0.202317 -0.0357773 0.153236 -0.427222 -0.230259 -0.479728 -0.0581467 0.161008 -0.0768301 -0.327522 0.361285 0.0881269 0.0543092 -0.30032 -0.214984 -0.229971 -0.248195 0.127968 -0.301071 -0.28108 0.512084 0.00423371 0.199638 -0.116661 0.399944 0.025152 -0.293806 -0.0177581 0.172274 -0.462417 -0.586946 0.09168 -0.137408 0.092202 0.29087 0.0877253 -0.0601741 -0.0452032 -0.044124 -0.14047 0.0932294 -0.0449977 -0.192422 -0.504545 0.135048 -0.0811775 0.126899 0.216383 0.414911 0.00423371 -0.4 0.383702 0.000811194 0.217046 -0.385323 0.278885 0.189273 -0.163466 -0.461898 0.139775 -0.372483 -0.264529 -0.605049 -0.519209 -0.0736156 -0.225436 -0.222 -0.102939 -0.359074 -0.688507 -0.582377 0.476472 -0.114327 0.228348 0.536594 0.118666 -0.294701 0 0.4 0.1 -0.0990215 0.000273684 0.0231273 -0.206323 -0.0268044 -0.489854 -0.322362 -0.0144277 -0.210768 -0.719101 -0.416029 -0.171361 0.313776 -0.325846 0.456009 -0.392953 -0.200912 0.0208596 -0.0374116 0.296023 0.250893 0.201635 -0.389536 0.116328 0.0988849 1.70104e-08 0.5 0.2 -0.30015 0.395328 0.284537 0.10761 0.326492 -0.16401 0.0568588 0.0902223 0.176936 -0.493501 0.0830274 0.231642 -0.011843 0.189056 0.510125 0.291623 0.113 0.0397699 0.379831 0.215589 -0.0318847 0.490483 -0.374476 0.118975 0.503574 1.70104e-08 0.5 -0.1 0.493847 -0.00547481 0.277851 0.0869161 -0.268065 0.173256 0.0290925 -0.263702 0.206854 0.397863 0.43965 0.217365 0.0316365 0.0405944 0.397604 -0.0206038 0.0516911 0.303362 -0.327456 0.0254087 -0.526114 0.395949 -0.460231 -0.191973 -0.0964259 -0.2 -0.4 -3.05412e-09 -0.400154 -0.104835 -0.0101294 -0.497831 0.0263448 -0.622751 -0.0677035 0.0268132 -0.101273 -0.0214447 -0.181386 0.676617 0.244216 0.0409472 -0.200749 -0.296228 0.18936 -0.216143 -0.221937 0.514924 -0.0393389 -0.00903637 -0.0794595 0.304951 0.0005707 -0.4 -0.3 -0.5 -0.2 0.000805527 0.305991 -0.497276 0.146224 0.358264 -0.231407 -0.0341256 -0.354907 -0.446061 0.497163 -0.108665 0.475957 0.126135 0.246324 -0.275391 -0.00226049 0.295309 -0.0784307 -0.472606 -0.420845 0.398198 -0.493342 -0.405344 0.297796 0.500123 -0.1 0.3 0.201174 -0.0881133 0.121669 0.180733 -0.0249236 -0.119316 -0.162123 -0.0223041 0.139079 -0.111204 -0.248591 -0.198226 0.458555 -0.192878 0.201356 0.384071 0.0794309 -0.0729205 -0.16768 0.432959 0.0358144 0.0193803 0.215415 -0.18251 -0.499239 -0.399877 0.4 0.4 -0.0998505 -0.382979 -0.467726 -0.0799096 -0.292469 -0.0419504 -0.147304 -0.0494183 -0.103579 -0.0291182 -0.414394 0.472166 -0.215745 -0.0665083 0.242633 -0.257015 -0.203131 0.019418 0.365434 -0.410072 0.466008 0.352509 0.0580441 0.431485 -0.0933792 0.106897 -0.5 -0.5 0.00309214 0.524382 0.222085 -0.456189 0.342379 -0.170116 0.467599 0.0973571 0.430887 0.378204 0.3891 -0.161268 -0.115395 0.0501148 -0.374344 -0.00302129 -0.207179 -0.453133 0.60861 0.0707798 0.169691 -0.063026 -0.44707 -0.0667589 -0.0929457 0.312893 -0.3 0 -0.400272 -0.379729 -0.164073 0.467683 0.309997 0.0893438 -0.178413 -0.339477 0.500381 0.363614 -0.376525 0.458222 -0.120331 0.0297533 -0.427185 -0.227045 0.00437769 -0.120627 -0.35615 0.372045 0.159085 0.13442 0.113272 0.401912 -0.299908 -0.194393 -0.3 0.4 -0.302353 -0.0787053 0.543624 0.443693 -0.212157 0.493472 -0.416973 0.434063 0.539674 0.523551 -0.287533 -0.152982 0.185383 0.549877 0.0816645 0.0236314 -0.0719102 -0.364698 0.327919 0.350975 0.399527 0.390494 -0.00277848 -0.39702 0.399772 -0.1 -0.4 -0.3 -0.302196 0.0131859 -0.259276 0.225349 0.577833 0.258693 0.418899 0.513607 -0.11823 0.15491 0.153183 0.370959 0.553059 -0.24311 0.0635643 0.501808 -0.344766 -0.369194 -0.245866 0.225436 0.281237 -0.0124906 -0.406975 -0.198351 0.499736 -0.2 -0.5 0.5 -0.298925 0.113419 -0.202451 0.379804 0.382786 -0.0267903 -0.466444 0.0613117 0.202991 0.0879869 -0.117664 0.057056 -0.330559 0.341344 -0.0383987 0.066027 -0.0169104 0.292526 -0.486145 0.289087 -0.0374252 -0.0219454 -0.11295 0.301651 0.300373 -0.3 0.1 0.5 0.200359 0.41016 -0.391299 0.276119 0.365543 0.457217 -0.0445737 -0.451608 -0.059592 -0.458772 0.166767 0.127415 0.418248 -0.115492 0.451545 -0.0401353 0.1794 0.106547 0.185043 0.0705216 -0.4154 0.181463 -0.50222 -0.399269 0.000693058 0 0 0.2 -0.5 -0.0918061 0.0874114 -0.221855 -0.0431028 -0.0492555 0.026729 -0.512753 0.0117333 0.097987 -0.302432 -0.271742 -0.33353 -0.42364 0.241424 0.416654 0.0730017 -0.30245 -0.199263 -0.523792 0.0856754 -0.520073 0.0985048 0.4 0 -0.2 0 0.2 0.5 5.74703e-05 -0.319739 -0.134602 -0.482183 -0.0844935 -0.282993 -0.375263 -0.535723 0.193394 -0.200392 0.132675 -0.593834 -0.191593 0.0103505 -0.28112 -0.0314871 0.0987298 0.294669 -0.113608 0.291073 -0.104595 -0.000282967 0.4 0.1 0 0 0.5 -0.5 0.0877007 -0.0167615 -0.521282 0.0580157 0.167379 -0.330605 -0.127451 -0.249263 -0.0589876 0.311262 -0.369184 -0.336174 -0.156749 -0.347367 -0.447207 -0.325393 0.494039 -0.104626 0.19548 -0.503769 -0.00403684 0 -0.5 0.5 0.5 -0.3 0.5 0.3 0.1 0.5 -0.300054 -0.302429 -0.402429 -0.102375 0.400003 0.29999 0.0999804 -0.105898 0.494098 -0.00576879 0.0999441 -0.200015 0.0988614 -0.301073 -0.00107629 0.000254727 -0.0997954 -0.199804 0.4 0.4 0.4 -0.2 -0.2 -0.430182 
0.5 0.2 -0.4 -0.3 0 0 0.5 0.2 0.5 0 0.2 -0.2 -0.2 -0.2 -0.2 0.3 0.1 -0.1 0 0.4 -0.1 0.3 0.2 0 0.2 -0.4 0.2 0.5 0.5 0.5 0.4 0.4 -0.4 -0.2 0.5 -0.3 0.3 0 0.392246 -0.00775417 0.397985 0.0973867 0.394556 0.394814 -0.00175735 -0.00171278 -0.200736 0.200061 0.50006 -0.49994 0.4 0.3 -0.1 -0.3 0 -0.2 0.1 0 0.2 -0.4 0.1 0.3 -0.2 0.196764 -0.106821 -0.114904 -0.527515 0.362023 -0.0307334 0.249533 0.0668287 -0.315206 -0.0878312 -0.0920448 -0.40922 -0.51165 -0.514274 -0.100294 -0.500095 -0.399837 0.200163 -0.3 -0.2 0 0.5 0 -0.5 0 0.3 -0.299957 -0.400794 0.495995 -0.308176 -0.026485 0.0566998 0.335863 -0.576634 -0.310471 -0.576081 -0.167242 -0.0325609 0.471968 -0.155627 -0.352941 0.376423 0.20483 0.116482 -0.102472 0.298712 -0.3 0.5 -0.3 -0.3 0 0.4 0.2 0.00525297 0.405352 -0.50841 0.197275 0.376193 0.359179 -0.157057 0.13217 0.0315982 -0.466834 -0.208602 -0.00896986 -0.016444 0.498463 -0.433649 -0.0230646 0.00990178 0.185927 -0.217443 0.470113 -0.415399 -0.00414531 -0.4 0.5 -0.3 0 0.2 0.10557 0.514068 -0.283751 -0.48609 -0.392553 -0.0167069 0.357894 0.167848 0.0707362 0.434553 0.515258 0.251663 0.172449 0.427188 0.547081 0.12428 -0.416422 -0.106912 -0.193544 -0.305486 -0.164131 0.487067 -0.498456 -0.307581 0.0980104 0 0.5 -0.201115 0.512428 -0.376564 -0.350084 -0.00290914 -0.414604 -0.23872 -0.220499 -0.270354 -0.349087 -0.236736 0.29804 -0.603027 -0.236315 -0.32733 -0.248377 -0.165447 0.102762 0.522179 0.441099 -0.244924 -0.3159 0.323903 0.0882714 -0.0793044 -0.300306 -0.0998147 -0.399958 0.299333 0.221002 0.327731 0.263267 0.0251567 0.102625 0.507843 0.439143 -0.365397 -0.434069 0.202554 -0.233906 -0.704798 -0.304914 -0.130003 -0.414967 -0.296192 0.0492109 -0.330534 0.10742 0.272641 -0.0440476 -0.0868984 0.179513 -0.383969 0.0990273 0.500185 -0.499815 -0.199925 0.0238607 -0.366907 0.254139 0.253748 0.531547 -0.0207183 0.204341 -0.441156 -0.259589 -0.270866 -0.455623 -0.601661 -0.262867 0.0210971 0.272549 -0.492174 -0.189226 -0.0118805 -0.0597255 0.138961 0.174704 0.180515 -0.147198 0.106595 -0.504814 0.400185 -0.501291 -0.402768 0.113725 -0.244745 0.555449 0.452653 -0.0681605 0.0871332 0.0804865 0.0568853 0.267218 -0.186104 -0.679921 -0.0295146 0.00330818 -0.118407 -0.00344512 -0.0417917 0.125075 0.180461 0.253126 0.567143 0.077006 0.490075 -0.465059 -0.297736 -0.00481425 0.3 -0.201476 -0.502788 -0.17866 0.448331 -0.184341 -0.242504 -0.47059 -0.22656 -0.300672 0.283408 0.100981 -0.479141 0.0866333 0.308462 -0.331323 -0.34553 -0.387536 0.109682 -0.0181363 -0.0449723 0.142308 -0.026381 0.623817 0.301237 -0.333494 -0.303031 -0.4 -0.2 -0.499336 -0.00148233 0.227359 0.351336 -0.383696 -0.179866 -0.199845 -0.155869 -0.391673 0.053122 -0.280564 0.0913731 0.450122 0.133209 -0.0953616 0.131444 0.531676 0.283321 0.118911 -0.0896025 -0.0934835 0.30222 -0.408753 0.226065 -0.521838 0.102853 1.29939e-08 -0.5 -0.3 -0.399091 0.508214 -0.0750315 -0.27744 -0.428621 0.0700413 -0.192846 0.489499 0.584543 0.206597 -0.0436614 -0.229281 -0.545775 0.0256408 -0.207924 0.422334 -0.342586 -0.378244 0.0471539 0.100051 0.490105 0.031264 0.428184 -0.30639 -0.401045 -0.4 0.5 0.5 -0.398948 0.00389041 -0.454839 0.514626 0.151506 -0.159668 -0.206513 0.491108 0.157645 0.231922 0.611253 -0.170592 -0.430276 0.359132 0.039731 0.243015 0.0377356 -0.0948426 -0.175482 -0.384814 0.356115 -0.214152 0.512475 -0.392041 0.0989548 -0.2 -0.4 0.2 -0.000261562 0.300478 0.235933 0.363847 0.524659 0.314102 0.322664 -0.094431 0.253392 0.465425 0.376548 -0.0772623 -0.354923 0.280057 -0.406245 -0.00666608 0.423936 0.382746 0.135606 0.500728 0.224854 0.0350441 0.086019 -0.204036 -0.117499 -0.3 0.5 -0.1 1.59255e-10 -0.00152955 0.0047772 -0.468643 0.348986 0.335926 -0.311469 0.00272683 -0.334459 0.379903 -0.239674 -0.574023 0.184637 -0.110087 -0.000235031 0.156737 0.327299 0.497651 -0.0798538 -0.028743 0.315183 -0.488523 0.193625 -0.519099 -0.116815 0.401096 0.3 -0.4 0.396997 -0.0328052 0.178978 0.0461126 0.0510712 0.19401 0.0537746 -0.228922 -0.0510004 0.129823 -0.0914558 0.207684 -0.00635717 -0.006547 0.030729 0.268494 0.105601 0.0253964 -0.101562 0.477649 -0.0843863 -0.15531 -0.388755 -0.22554 -0.315334 0.501096 -0.2 -0.3 -0.200404 0.267983 -0.0102475 -0.450799 -0.363056 0.194503 -0.111105 0.000524245 -0.24365 0.200408 0.355809 -0.392321 -0.527861 0.426935 0.0972282 0.0154731 0.0445488 -0.38624 0.27613 -0.559496 -0.152354 0.501417 -0.307368 -0.518892 0.383167 9.63158e-05 -0.4 0 -0.40268 0.0706718 0.377532 -0.268264 -0.496613 0.526196 0.521294 -0.0900442 0.102006 0.170091 0.215113 -0.421675 0.0489577 -0.197876 -0.133591 0.316778 -0.132875 -0.54249 -0.0288794 -0.0901783 0.145163 -0.0105518 -0.0302415 -0.420371 0.383154 0.39645 0.3 -0.2 -0.502619 -0.424788 0.262172 0.013249 0.355594 -0.479424 -0.303011 0.201257 0.121131 -0.445153 0.164969 0.0970821 -0.346399 -0.0306363 -0.416392 -0.317238 -0.136129 -0.155714 -0.0808873 -0.0175437 0.274438 -0.0106514 0.100496 -0.398945 -0.100535 0.096402 0 0.3 0.498252 0.27586 -0.3358 0.323211 -0.18003 -0.60583 -0.225497 -0.211657 -0.128566 -0.319425 -0.0927309 -0.0545857 0.44704 -0.131502 0.477953 -0.162374 0.416629 0.0802367 0.332425 -0.304291 0.0296469 -0.378235 -0.20435 0.203971 0.504131 -0.5 0.1 -0.2 -0.101578 0.0819967 0.0674246 0.486524 0.22022 -0.112275 -0.115084 0.189851 0.201818 -0.0649403 -0.484233 0.443088 -0.309986 -0.299501 0.279958 0.0823085 0.129197 -0.00767278 0.0672569 -0.0282199 0.0205077 -0.178926 0.0948709 0.00620674 0.403968 0.5 0.4 -0.1 -0.101286 0.392692 0.160504 -0.0145097 -0.440168 0.253411 0.305973 -0.0946107 0.0248676 0.193106 -0.2495 0.0588267 0.202611 -0.115516 -0.2929 -0.451948 -0.468931 -0.269582 0.388859 -0.278483 0.00564295 0.117663 0.0975697 0.00573936 0.00465722 -0.1 -0.5 -0.1 0.399758 -0.201362 0.361828 -0.239344 0.181052 -0.448833 0.468809 -0.117765 -0.242517 0.446194 0.110823 -0.195553 0.653292 0.394445 0.542837 0.0603826 -0.0195805 0.531049 -0.100343 -0.0942848 -0.273745 0.014047 0.214305 -0.498977 -8.17932e-06 0.1 0.5 0.2 0.2 -0.00220281 -0.013458 -0.225182 -0.10756 -0.420728 -0.521141 -0.22914 0.0354173 0.0534168 0.0104103 -0.414546 0.203209 0.25593 0.39438 0.279765 0.448757 -0.482985 0.375367 -0.521014 0.0781107 -0.104805 0.406983 -0.4 0.2 0.4 0.3 0 0.1 0.199994 0.39445 -0.409023 -0.31396 0.0642855 -0.330101 0.251194 0.0298022 -0.0759708 -0.121563 0.23448 0.354652 -0.241931 -0.310236 0.176416 0.0613534 0.16409 0.444407 0.0625848 0.162587 -0.404578 0.291776 0 -0.4 -0.4 0.1 0.2 0.3 0.299119 0.394227 -0.0107496 0.0788735 0.360086 0.357742 -0.338188 -0.259377 -0.332922 -0.0607514 -0.375981 -0.0825462 -0.47555 0.266577 -0.0322537 -0.240808 -0.508906 0.175541 -0.22441 -0.519552 -0.00271941 -0.4 -0.2 0 -0.4 0.5 -0.3 -0.5 -0.1 0 -0.100368 0.099916 0.499916 -0.299716 -0.49845 0.402517 -0.397622 0.200418 -0.00257062 0.2039 -0.197159 0.000114985 -0.39715 -0.503417 -0.00114029 -0.309947 -0.509953 0.390476 0 -0.2 -0.4 0.4 0 -0.0559935 
0.2 0.5 0.1 0.2 0.5 -0.4 -0.4 -0.1 -0.2 -0.2 0 0.1 0 -0.4 0.5 -0.2 -0.3 0.1 -0.2 -0.1 0 -0.1 0.2 0.4 0.5 0.2 -0.2 -0.2 0 0.4 -0.5 0.4 0 0.4 0.1 -0.4 0.2 -0.4 0.497011 0.497011 -0.00529019 -0.11105 0.287879 -0.00393781 0.00289267 0.103189 -0.303043 -0.00164232 -0.101642 0.198358 -0.1 0.1 -0.3 0 0 -0.2 0.4 -0.3 -0.5 -0.1 0 0.2 -0.3 -0.400449 -0.500076 0.395291 -0.409613 -0.205721 -0.203639 0.293146 0.290025 -0.324219 0.0598653 0.454722 0.0648705 0.0798994 -0.429377 -0.210443 0.391645 -0.101874 0.298724 -0.3 0 -0.5 0.4 -0.5 0 0.1 0 -0.0988522 -0.29961 0.0963477 0.201276 0.00812567 0.0187165 -0.180923 0.204009 -0.215658 0.0685011 -0.249401 -0.063955 -0.0881064 -0.183918 0.333142 -0.55922 0.0810215 0.379094 -0.0093714 0.298683 0.5 0.5 0 -0.3 0.1 0.1 0.3 0.0987106 -0.109061 -0.113941 -0.0104114 0.510782 -0.0942323 0.109299 -0.170935 0.0299309 -0.0664523 -0.250105 -0.244433 0.120225 0.184479 0.33273 -0.24937 0.164614 -0.505657 0.276125 -0.225653 0.493022 -0.400158 0.5 -0.5 -0.4 0 -0.5 -0.299333 -0.0028586 -0.520931 -0.0263771 -0.0105528 -0.473853 -0.52547 0.127912 -0.185306 0.495357 0.0545446 0.463108 0.312824 0.219285 -0.0131438 0.43538 -0.270895 -0.0835258 -0.487496 -0.513814 -0.0253308 0.485701 -0.202739 0.498209 -0.000408986 0.1 -0.4 -0.299609 -0.40155 -0.205239 0.0551791 -0.346259 0.154059 0.246516 0.170674 0.121154 0.148654 -0.060713 0.24629 -0.0581102 0.139366 0.520171 0.000231359 0.154148 0.115237 0.38911 -0.408402 -0.496656 0.185356 -0.423858 0.0803801 0.394618 -0.000202875 -4.97313e-05 0.498761 0.00159976 0.196273 0.0885551 0.170584 -0.23657 -0.0612224 -0.0573045 0.250483 -0.0721908 -0.409807 -0.0880283 0.115356 0.399514 0.0515704 0.336956 0.26184 0.189403 -0.0449644 0.172518 0.467089 0.501676 -0.00685986 -0.529915 -0.03613 0.287272 -0.0997613 0.49995 0.19995 -0.398228 -0.504922 -0.519919 -0.31171 -0.333845 -0.139899 -0.453562 -0.599411 -0.152865 -0.424161 0.131268 0.384986 0.0562206 -0.0113999 0.182959 -0.0535225 0.00647841 -0.127692 -0.013122 0.158379 0.387571 0.0625801 0.272985 -0.150876 -0.406829 -0.300224 -0.30005 -0.503862 -0.402216 0.0916517 0.497113 -0.292749 -0.05048 -0.0581742 0.423367 0.199644 -0.349752 0.331894 -0.0673517 0.229775 -0.171038 0.0674662 0.0616072 0.558623 0.0618149 -0.198529 -0.00224184 -0.000626161 0.237427 0.402159 -0.111326 -0.238084 -0.306952 -0.300224 0.5 0.496187 0.392274 0.288347 0.097334 0.103083 -0.131958 -0.267084 -0.311291 -0.249569 0.0348162 0.520653 -0.0979756 0.348909 0.210357 -0.487238 -0.444471 0.0471574 0.288644 0.468394 -0.447388 0.0656089 0.152057 -0.366655 0.294766 -0.413305 -0.500139 0.4 0.2 0.400117 -0.00822235 0.38801 -0.204634 0.303273 0.183893 0.52062 -0.491437 0.00556563 0.112524 0.513577 0.098189 -0.57206 -0.567643 -0.37903 -0.0551856 0.390195 0.029299 -0.256706 0.383241 0.469786 0.101961 -0.435853 0.102374 0.000992439 0.302087 -0.2 -0.1 -0.2 -0.00408611 -0.202201 -0.29816 -0.495167 0.174841 0.0300864 0.00331953 -0.404523 -0.0495104 -0.397588 -0.621747 -0.57446 -0.0269236 -0.530012 0.0163024 -0.218909 0.262413 0.00306719 0.166235 -0.145978 0.539805 -0.374597 -0.382668 0.196296 0.300808 -0.2 0.1 -0.3 0.106069 0.401686 0.00678012 0.0113131 -0.292466 0.499927 0.078453 -0.0661138 0.413476 0.395553 -0.254956 0.38988 0.401482 -0.43967 0.393611 -0.257087 0.150918 0.529703 0.536583 -0.473103 0.488631 0.219132 0.00394066 -0.198175 -0.0991923 0.2 0.2 0.2 -0.299958 0.407057 0.00322708 0.222477 0.510037 0.403041 0.271221 -0.227061 -0.563317 0.0665678 0.323649 0.258852 -0.448678 0.0251954 0.327288 -0.527581 -0.123997 -0.187471 0.0258132 0.450486 -0.261317 -0.506574 0.390667 -0.495588 0.302037 0 -0.2 2.67683e-09 0.1 -0.392445 -0.194036 0.363383 -0.267391 -0.458164 -0.0788823 0.0487855 0.0157456 0.0322679 0.423388 -0.43216 0.196035 0.204226 0.169921 -0.188054 -0.0658651 -0.596502 0.235025 0.394418 0.0264901 0.186997 0.0893734 0.17672 0.00233864 0.101086 0.1 0 -0.404293 -0.286391 0.0186006 0.0825309 0.464251 -0.344935 -0.023666 0.106424 0.0712131 0.0576471 -0.154952 -0.0688869 0.359482 0.459634 0.0294051 -0.413747 0.493886 -0.208129 -0.489677 -0.507995 -0.0698533 0.185151 -0.401176 0.479281 0.002278 -0.398914 -0.4 -0.3 0.499286 0.0945053 -0.391706 -0.215036 0.0573033 0.0425911 0.320534 0.606539 -0.213868 0.0434971 0.0147881 -0.466739 -0.54018 0.0463677 0.0128715 -0.283365 -0.203446 0.322273 0.402527 -0.173256 -0.0105192 -0.173225 -0.377178 -0.30792 -0.296004 0.00213243 0.5 -0.1 -0.00469067 -0.514599 0.00745544 -0.0395697 0.559521 0.00710107 0.00304198 0.0175638 0.340062 -0.00417881 -0.0259205 -0.0669697 -0.452984 0.288614 -0.124908 0.520462 -0.305099 -0.369323 -0.0628882 0.380175 -0.0856041 0.0490485 0.0290896 -0.196335 -0.0963941 -0.00174992 -0.1 0.1 0.492597 0.487114 0.0973248 0.069227 0.0919009 0.0338113 0.0390948 -0.307987 -0.190169 0.272651 0.272753 0.173099 -0.0771199 -0.137605 0.172295 -0.0464512 0.20771 -0.473659 -0.0166409 0.117725 0.201533 -0.350926 0.437672 0.300256 0.00178826 -0.103887 -0.5 -0.3 -0.30693 -0.520464 0.187982 -0.169212 0.10936 -0.397318 -0.455464 -0.384107 -0.118149 0.411156 -0.479528 -0.490435 0.00993604 -0.647387 -0.334946 -0.446113 -0.475094 0.179942 -0.0845412 0.173598 0.541793 -0.356471 -0.262861 0.20246 0.00412651 0.5 -0.1 -0.3 -0.206605 -0.213591 0.373049 0.433721 0.20004 0.0688752 0.149872 0.134065 -0.0215006 0.228131 -0.111684 -0.585787 -0.413492 0.267226 0.279588 -0.578733 -0.0188938 -0.489494 -0.0167969 -0.26226 0.133703 0.451351 -0.460793 -0.0905716 -0.495978 0 0.4 -0.3 -0.504747 -0.413504 -0.0390924 -0.395391 -0.316397 -0.106233 -0.46274 0.2234 -0.118331 0.372636 0.052511 0.0536224 0.306926 -0.258772 0.111061 -0.241646 -0.393984 0.515496 -0.0847917 -0.153496 0.445703 -0.275043 0.0181113 -0.29302 -0.0943237 -0.1 0.1 0.4 0.499547 -0.414752 -0.238802 -0.026826 -0.444633 -0.229632 0.329943 0.297431 0.266849 -0.0569863 -0.133429 0.0323643 0.291967 -0.0226321 0.477488 0.0661219 0.537337 -0.279917 0.324618 0.333875 0.521152 -0.381955 0.508429 0.204708 0.203338 -0.4 -0.2 0.1 -0.2 -0.209245 -0.0062727 0.387627 -0.526507 -0.142419 -0.337096 0.228188 -0.211258 -0.429451 0.207151 -0.41017 0.327945 -0.560571 -0.328421 -0.342084 -0.366613 0.528815 0.518007 -0.179229 0.216717 -0.495168 0.000245497 0.1 -0.1 0 -0.1 -0.1 0 0.499103 -0.498699 -0.106047 -0.0109732 -0.0357134 -0.139829 0.261894 -0.422973 -0.167953 0.0652775 0.0649791 -0.0264623 -0.223624 -0.0079194 0.0346039 0.517817 -0.198336 -0.404787 -0.0920237 0.507853 -0.297199 0.400378 -0.5 0.2 0 -0.1 -0.2 0.5 0.00542524 -0.49337 0.202278 -0.0966017 0.201998 -0.290004 -0.204105 0.394805 -0.212101 0.0154893 -0.382361 0.408046 0.205562 0.404282 0.401215 -0.0945917 0.4081 0.00477904 0.106023 -0.196894 0.00459756 -0.4 0.3 0 -0.1 0.5 0.5 -0.2 -0.5 0.3 -0.499254 0.298007 0.0980066 -0.202739 0.200065 -0.400356 -0.401257 0.096414 0.490107 -0.517318 -0.00106755 0.493825 -0.410017 -0.402406 -0.396665 -0.499913 -0.40012 0.300064 -0.2 0.5 0.3 -0.3 -0.4 -0.614461 
-0.4 0 0.1 -0.5 -0.3 -0.1 -0.3 0.4 -0.4 0.2 0 -0.3 -0.1 0.2 -0.3 0 0.5 -0.2 0.2 0.2 -0.5 -0.2 0.1 -0.5 -0.3 -0.4 -0.5 -0.2 0.5 0.3 -0.2 -0.3 0 -0.4 -0.1 0 -0.5 -0.3 0.395334 -0.304666 -0.00114993 -0.00606372 -0.207946 0.0902406 0.197036 0.297457 -0.202718 0.398797 0.298797 0.298797 -0.4 0 -0.5 -0.1 -0.4 0 0 0 -0.4 0.1 0.2 0.3 0 0.497245 0.00216941 0.40174 -0.205955 0.38563 -0.208887 0.171954 0.268691 0.253938 -0.447403 0.154523 0.372281 -0.110152 0.286045 0.293947 -0.204884 0.299053 -0.00043703 0 -0.4 0.2 0.2 -0.2 -0.5 0.5 0 -0.197868 0.50585 0.00199227 0.41334 -0.186912 0.109924 -0.0896493 0.390835 -0.132118 0.161792 -0.246065 -0.0291961 -0.0889022 0.429202 -0.440329 -0.0203288 0.488035 -0.00482831 0.00659195 0.102654 0.2 0.5 0 -0.3 -0.2 -0.1 -8.46505e-12 -0.481349 0.318244 0.510374 -0.0933114 -0.324808 0.526545 0.405565 0.0288866 -0.519937 0.471735 0.41004 0.287414 0.266405 -0.315955 -0.037443 -0.390659 -0.224592 0.0886778 0.564134 -0.150076 -0.387893 -0.0933956 0.2 -0.5 -0.1 0.1 5.22755e-10 0.390398 0.209323 -0.372418 0.109588 0.327424 0.0332095 -0.468732 -0.457577 0.04099 -0.400708 -0.280446 0.268144 0.41396 -0.126406 0.172277 -0.122864 -0.00380571 0.378597 -0.0247703 0.129866 0.478247 0.520171 -0.0783579 0.199284 -0.500467 0.2 0.2 0.200588 -0.503055 -0.282082 -0.391371 0.195553 -0.0250414 -0.200502 -0.469125 0.517654 0.430371 0.507141 -0.0702884 0.183577 0.427198 0.119613 0.071319 -0.317488 0.303307 0.362691 0.342592 -0.205147 0.197299 0.346884 0.425405 0.202303 -0.500682 4.64018e-05 -0.00117933 -0.197684 0.286652 -0.0985252 0.302187 0.0042397 -0.174238 -0.342281 0.4605 -0.313468 -0.278731 0.240696 -0.00617044 0.211798 -0.236933 -0.109028 0.374865 0.237594 0.514949 0.229726 0.466017 0.0822857 0.286972 0.0447191 -0.0679811 -0.482067 -0.300381 -0.499954 -0.299954 0.100573 0.496651 0.391263 0.402086 -0.209167 0.227944 0.495515 0.421829 0.373622 0.0114674 -0.352889 -0.0228946 -0.61873 -0.269676 0.0820692 -0.105698 0.296137 -0.00190561 0.284261 -0.133031 -0.270409 0.453714 0.0203942 -0.36667 0.0151839 0.099834 -0.399954 -0.00935867 -0.295517 -0.504431 0.0924841 -0.194791 -0.111396 0.560506 0.559895 0.137118 0.272567 -0.165032 0.523844 0.22153 -0.327697 0.0445985 -0.37182 -0.343214 -0.538638 0.0919653 -0.549153 -0.214308 0.259826 -0.375846 -0.517148 -0.286533 0.00566329 -0.400166 -0.1 0.290595 0.202401 -0.0819781 0.410444 -0.108744 0.103191 0.172466 -0.209665 -0.203154 0.0133848 0.0534084 0.497029 -0.261832 0.411096 -0.377897 -0.0196153 -0.105274 -0.315037 -0.0455536 0.00415834 -0.11209 0.297319 0.390107 -0.247926 -0.39589 -0.499566 0.5 0 -0.301855 -0.00210786 0.31475 -0.0765764 0.308963 -0.0857725 -0.453219 0.382634 0.112275 0.0880495 0.139642 -0.631919 0.218431 -0.447228 -0.277649 -0.206914 -0.0779856 -0.202709 -0.52457 0.34888 -0.392183 -0.528635 -0.169913 -0.364223 0.292004 0.496113 -0.5 0.2 -0.1 -0.202084 -0.383226 0.0302404 0.204442 0.494271 0.387222 -0.0197717 0.126626 0.218224 -0.362673 0.135987 -0.169575 -0.277264 0.551915 0.480882 -0.530172 0.135041 -0.554901 -0.610913 -0.36788 -0.111014 -0.0952947 0.448289 0.383132 0.292777 0.3 -0.1 0.4 -0.00546376 0.208389 0.11982 -0.273391 -0.321785 0.347478 0.157487 -0.663108 0.353661 -0.491053 0.454875 0.250778 -0.380522 0.100665 0.0440522 -0.278138 0.121136 -0.114603 0.340739 0.22553 -0.515726 -0.10709 0.0354881 -0.0135849 0.292777 0.1 0.1 0.5 1.23919e-05 0.500567 0.317086 0.43121 0.462212 -0.396217 -0.364846 -0.161008 0.0539028 -0.0405848 -0.293146 -0.0108285 -0.369354 0.301597 0.29305 -0.131549 0.372187 -0.145108 0.0579158 -0.289185 0.264315 0.404376 0.126734 0.00607959 -0.498701 0.4 0.1 0.3 -0.4 -0.483339 -0.279695 -0.0674728 0.0199191 0.506504 -0.290252 -0.306926 0.0588564 0.0117174 0.266745 0.0165808 -0.068931 0.352831 -0.121061 0.0223969 0.219838 0.326195 -0.285128 -0.536873 0.0229434 0.00471003 0.151505 -0.503873 0.00121008 -0.2 0 0 0.0945731 -0.187721 -0.209668 0.399693 -0.0322618 -0.305841 0.419611 0.446032 -0.0553537 -0.123962 0.0172061 -0.306948 0.383113 -0.130634 0.0715329 0.132918 0.0543968 -0.0971128 0.50728 -0.453291 0.252723 -0.0220627 -0.313311 0.30963 0.301307 0.1 0.5 0 -0.305454 0.00976035 0.283102 -0.395789 -0.393584 -0.111596 -0.166808 -0.503663 0.261458 0.0157846 0.0607453 0.298569 -0.227204 -0.0380062 0.0293567 -0.211957 -0.18363 0.490881 -0.267329 -0.359445 -0.246348 0.0308451 0.440406 0.038326 0.106041 -0.0950234 -0.4 -0.2 -0.500563 -0.288787 -0.204137 -0.407633 0.520073 0.431838 0.245576 -0.496924 0.242173 0.311558 0.305349 0.0807149 0.0546464 0.113481 0.497509 0.322869 0.0802992 0.423614 0.239144 0.498728 0.0792184 0.0721414 -0.264073 -0.167926 0.504841 0.204985 -0.5 -0.3 -0.299242 -0.486464 0.17293 0.293509 -0.425686 0.237824 -0.0211869 0.407532 0.201067 0.242361 -0.228382 0.309115 0.0823969 0.388849 -0.493745 0.00164167 0.0859087 -0.0594838 -0.416324 -0.061152 0.457051 0.240053 0.0442021 0.115004 0.00236895 -0.500033 0.5 -0.1 -0.299822 -0.0889917 0.299831 -0.0224273 0.46749 0.257128 -0.0304277 -0.0854745 0.0694127 -0.0134751 -0.575484 -0.551871 -0.0131441 -0.167938 -0.217471 -0.173914 -0.220892 0.477739 -0.208477 -0.374856 0.18895 0.544197 -0.364259 -0.293762 -0.401836 0.3 0.1 0 0.300229 0.51296 -0.104594 0.422274 -0.237258 -0.0786079 0.157366 0.390803 0.493367 -0.384159 -0.188321 -0.409622 -0.0824866 -0.521307 0.190593 -0.197666 -0.420036 0.503903 0.0616681 0.0815212 -0.225491 -0.439799 -0.464214 -0.0902552 0.498431 -0.3 0.2 0.1 -0.101531 -0.285819 -0.420974 0.0745692 -0.0219068 0.0344011 0.0946066 0.0824048 0.48625 0.207409 -0.19457 -0.312261 -0.453949 -0.306598 0.561898 0.146771 0.557055 -0.152957 0.38129 0.0775374 -0.0244676 0.350091 0.314842 -0.499904 0.0989604 -0.3 0 0 -2.32816e-05 -0.100005 -0.194557 -0.320203 0.0229747 -0.148284 -0.390276 -0.374868 -0.425131 -0.179396 -0.226721 -0.507783 0.408036 -0.23914 0.247909 0.178549 0.330453 -0.242315 -0.175486 0.350254 0.237628 0.324455 0.208541 0.00429584 0.00316572 0.3 -0.1 0.3 -0.3 0.0957896 -0.0110446 -0.322389 0.183485 0.0652745 0.478449 0.385639 -0.102974 -0.0427064 -0.382339 -0.493932 0.0920534 0.29849 0.389474 0.305478 0.500145 -0.328739 -0.390126 -0.286414 0.50734 0.00632321 0.502147 0.5 0.1 -0.5 0 0.5 0.4 -0.000147957 -0.501326 0.106951 0.497571 0.371194 -0.331743 -0.327442 -0.221708 -0.125836 0.491151 -0.415362 0.390282 0.102694 -0.0156504 -0.0129844 -0.536875 -0.0308655 -0.126347 -0.108324 0.288619 -0.300061 -0.300221 0.4 -0.1 -0.3 0.2 0.2 0.4 -0.499023 0.501082 -0.301771 -0.402629 -0.006054 -0.201727 -0.0993251 0.300331 0.10695 0.214726 -0.082955 -0.185533 -0.490739 -0.298538 -0.508127 -0.0104247 0.291918 0.395615 -0.504386 0.200044 0.00123027 -0.2 -0.5 -0.4 0.3 0.3 -0.4 -0.4 -0.4 -0.1 0.400137 -0.200889 -0.300889 -0.00102616 0.0999951 -0.500005 1.50424e-06 0.000876774 -0.499997 0.0988162 -0.501276 0.399987 -0.501379 0.199183 0.0961032 -0.00219596 -0.102019 0.399802 0.5 -0.5 0 0.3 0.2 -0.211999 
0.4 0.3 0 -0.2 -0.1 0.5 0.4 -0.3 -0.4 -0.5 -0.4 0.1 0.5 0.2 -0.3 -0.1 -0.1 0 -0.3 0.3 0.1 0 0 -0.2 0.3 -0.3 -0.4 0.4 0 0 -0.4 0.3 -0.2 -0.3 0 0.4 0 -0.4 -0.0020969 -0.0020969 -0.500535 -0.301396 -0.50134 -0.00752854 -0.306723 -0.50568 -0.500179 0.298729 -0.101271 0.0987285 -0.4 0 0.3 0.1 -0.2 -0.5 0.3 0.5 0.5 0.2 0.5 -0.2 0.1 -0.498645 0.101325 -0.000415857 -0.506789 0.494622 0.103122 0.296263 -0.00842935 0.0791426 -0.0351099 -0.536454 -0.525649 -0.433213 -0.027734 0.185165 -0.112264 0.000308061 0.000384244 0.5 0 0.3 -0.3 -0.1 -0.5 0 0.5 -0.100543 0.498311 -0.40862 -0.108365 0.287198 -0.0133377 -0.214384 0.472014 -0.228185 -0.436379 -0.333373 -0.221712 -0.0373197 0.143195 0.133309 0.244 -0.421971 0.489266 -0.395556 0.101844 -0.1 -0.2 -0.4 -0.3 0.2 -0.1 -0.4 0.502854 0.193778 0.187368 0.195091 -0.301402 0.402486 0.552162 0.0974848 -0.304163 0.414523 -0.271078 0.285281 0.425965 0.264258 0.148437 -0.248992 -0.162553 0.0596297 -0.419039 -0.293812 -0.404577 -0.399086 -0.1 0 0.5 -0.5 0.5 -0.0995713 0.312455 0.201421 0.000299914 0.295235 -0.174798 0.565345 0.404542 0.413453 0.0200322 -0.34625 0.368098 0.15964 -0.129289 -0.488176 -0.133183 -0.110934 -0.628218 0.408495 -0.0527494 0.483971 0.403052 0.211244 0.40004 0.200272 -0.1 0.5 0.199231 -0.296109 -0.190074 -0.511317 0.407869 0.0716509 0.410699 0.0836852 -0.231116 0.0519116 -0.218786 0.123988 0.257465 0.366529 -0.155246 0.337636 0.286885 -0.527309 -0.0562796 0.230369 -0.264666 -0.102185 -0.486583 0.0233632 0.0934743 -0.500694 -0.100204 0.000274199 -0.200985 -0.49739 0.00297366 -0.0243776 -0.127557 -0.125602 0.15895 0.463766 0.000607933 0.486802 -0.325061 -0.184259 -0.130614 0.627667 0.34943 0.175485 -0.175375 -0.0833587 0.483785 0.296273 -0.54424 -0.504705 -0.477423 0.438681 0.00180264 -0.400983 0.0997959 -0.200204 0.0989963 0.00565246 0.00603558 0.374835 0.0547505 0.455789 -0.514185 -0.491856 -0.385618 -0.0888239 -0.0422416 0.161026 0.131237 0.243146 0.0492542 -0.140419 0.112759 0.314015 0.0669617 0.267881 0.155149 0.0651155 0.12767 -0.147571 -0.389267 -0.399152 -0.000204093 -0.39993 0.503989 0.00734428 -0.139697 -0.551826 -0.365146 -0.0761364 0.314742 -0.0557818 0.27752 -0.45569 0.451019 -0.45532 -0.00848722 -0.0716927 0.0571703 -0.29978 0.492312 0.379562 -0.379654 0.393157 -0.0777018 -0.566832 0.00315376 -0.162886 0.0147205 -0.299152 0.4 0.000274061 0.304114 -0.204351 0.159858 -0.00302672 -0.15967 -0.284791 -0.17915 -0.129444 -0.38802 0.156261 0.452751 0.349734 0.105283 0.10319 0.0131418 0.0230913 0.334953 -0.322336 0.00722707 0.300693 -0.421503 -0.383281 -0.00941628 0.21205 -0.195161 -0.1 0.5 -0.300009 -0.301192 0.295827 0.464019 -0.420425 0.386445 0.146168 0.358145 0.00819137 -0.526941 -0.440161 0.580316 -0.291617 -0.247805 -0.00902429 0.472641 -0.352034 -0.118351 0.356903 0.178875 -0.17824 0.183277 -0.580035 -0.119146 -0.189859 -0.192378 -0.5 -0.5 -1.18294e-08 0.200255 0.395741 0.284043 0.302402 0.0145142 0.463278 0.4812 0.566879 0.150837 0.506984 0.0730739 -0.478296 -0.38657 0.12943 -0.303145 0.386488 -0.539945 0.135844 0.187896 -0.059419 -0.15733 0.270866 -0.221336 0.306489 -0.192409 0.1 -0.1 -0.2 -0.0990315 0.295484 0.193828 0.333961 -0.174299 0.232351 0.399424 -0.0371858 0.354872 0.13117 -0.0493827 0.21018 0.332118 -0.207199 -0.213098 -0.282734 0.495404 -0.40875 -0.0752804 -0.215762 0.00186806 -0.16487 -0.0234655 0.496036 0.00759131 0.4 0.2 0.4 0.100364 -0.299908 0.00278078 -0.146018 -0.282097 0.239204 -0.260064 -0.191963 0.0773836 0.0922351 0.00575335 0.0561237 0.0739347 -0.191326 0.0988109 0.1316 -0.0399749 -0.424919 -0.0010702 -0.0747669 -0.375675 -0.474502 0.378466 0.19052 0.00886662 -0.3 -0.5 -0.3 -0.2 0.299863 0.0125563 -0.228407 0.0122891 0.358926 0.281107 0.276516 0.123508 0.163291 -0.430077 -0.114739 -0.661344 0.0349416 -0.0922218 -0.471413 0.0346074 0.171514 0.478499 -0.0640693 -0.254894 -0.360611 -0.503894 -0.311529 0.414939 -0.2002 0.3 0.5 0.400007 -0.189097 -0.47597 -0.424894 0.506472 0.406927 0.306543 0.0230391 -0.505961 -0.622809 -0.319256 -0.0512882 -0.198783 -0.0851464 -0.266589 0.00821434 -0.304941 0.258987 -0.177116 -0.190601 -0.229615 0.370086 0.0130669 -0.199744 0.40673 -0.000200107 0 0.5 0.202253 0.512029 0.126746 -0.0415241 0.0214742 0.12869 0.348319 -0.625158 -0.638707 -0.209929 0.081538 -0.196156 -0.195024 -0.112713 0.285803 0.202916 0.0686005 0.114162 -0.272037 -0.0399148 -0.41862 0.483507 0.232784 -0.0969172 -0.393601 0.299548 -0.3 0.5 -0.199994 -0.187091 -0.0631818 0.353365 0.22332 0.418974 0.328693 0.281359 -0.569454 -0.774942 -0.0651765 -0.636027 0.33177 -0.287238 0.262551 -0.125923 0.406702 -0.438519 0.418307 0.207774 0.488879 -0.19833 0.528751 0.510644 0.505116 -0.200814 -0.2 0.1 -0.400136 -0.493551 -0.176019 0.322393 -0.190504 0.260262 0.0430189 -0.260831 0.248275 -0.350776 0.133202 -0.389934 0.309028 0.45062 0.449409 0.452697 -0.227038 0.0136673 0.325436 0.297563 -0.203368 0.108489 -0.486655 -0.103562 0.396443 -0.200091 -0.3 0.1 -0.19854 0.407958 -0.458793 -0.199391 -0.00453989 -0.299154 -0.298363 -0.398161 -0.0984046 -0.562347 -0.508814 0.382213 -0.0788039 -0.227462 -0.126812 0.360034 -0.234489 0.313603 -0.386925 0.024976 0.41215 0.293354 -0.0953266 -0.297037 0.00402076 0.3 0.4 0.3 0.500157 0.106646 0.221599 -0.0289207 0.21139 -0.368298 0.0015306 0.0173887 0.0484307 -0.3752 -0.0622318 -0.249512 0.0504397 -0.270926 0.184881 -0.0307619 -0.415632 0.395781 0.00368512 0.342533 0.131338 -0.485218 -0.290587 0.00652891 0.104864 -0.1 -0.4 0 0.299869 -0.199391 -0.467033 0.374789 -0.0628401 0.139989 -0.0100858 -0.057047 -0.14953 0.168911 0.535147 -0.00347822 0.199316 -0.325877 -0.420411 0.293732 0.291253 -0.53494 0.344979 -0.160017 0.431981 -0.192472 0.0155223 -0.195118 -0.0949879 -0.1 -0.4 -0.3 -0.200012 0.00463509 -0.290149 -0.0835171 0.183019 0.488812 0.0675858 -0.000351413 0.527793 0.469801 -0.397121 0.0288303 -0.217812 -0.346028 0.443839 -0.301716 0.503903 0.0376781 0.419377 -0.438315 0.429146 0.115088 0.30579 -0.402461 0.497434 0.5 0.3 -0.3 0.4 0.00419792 0.321277 -0.384179 0.233748 0.190393 0.237322 -0.162102 0.126613 0.0537344 -0.477885 0.475867 0.16668 -0.0354431 -0.135427 0.387516 -0.0794777 0.315432 0.0266781 -0.373466 0.217316 -0.0958327 0.400322 -0.2 0.5 0.5 0 0.2 0 0.00459042 -0.288224 0.218305 0.235524 -0.450741 0.263309 -0.0132276 0.300333 0.0966399 -0.0170156 0.111338 -0.372211 0.501229 0.0210361 0.342483 0.158201 -0.281251 0.51802 -0.383193 0.0155311 0.00516312 0.103449 -0.5 -0.5 -0.2 0.2 -0.1 0.3 -0.496545 -0.291674 0.111632 0.31542 0.421184 0.120606 0.310378 -0.397613 -0.215225 -0.190001 -0.390865 -0.173697 0.0228255 0.00999846 -0.0892497 0.214599 0.512603 0.00942666 -0.490661 -0.0914094 -0.49242 -0.4 0 0.2 0.3 0.5 -0.4 0 0.2 -0.1 -0.499841 0.499026 0.299026 -0.101133 -0.200216 -0.401638 -0.201784 -0.00141948 -0.00146123 0.30024 -0.200152 0.299803 0.401063 0.00131051 -0.398585 0.200797 0.000558416 0.400543 -0.5 -0.2 0.4 -0.5 0.5 -0.206648 
0.1 0.5 0.2 0 -0.4 -0.2 0.1 0.2 -0.2 0.2 0.5 0 0.2 -0.4 -0.1 -0.5 0.3 -0.4 0.5 -0.5 -0.4 -0.4 -0.1 0 0 0.2 -0.3 0.3 -0.5 0.5 0.1 0.5 -0.5 -0.1 0 0 0.5 0.1 0.404043 -0.395957 -0.000389884 0.39863 -0.0014516 -0.503722 0.49734 0.196326 -0.200152 -0.199965 0.300035 -0.299965 -0.1 0 0.4 -0.2 0.1 -0.5 -0.5 -0.4 0 -0.2 0.3 0.1 0.4 -0.000739527 -0.409741 -0.21014 -0.406397 0.0960468 0.193306 -0.116007 -0.0110004 0.202907 0.117205 0.21312 0.00451629 0.099438 -0.400263 0.099638 0.299618 -0.499421 0.000564776 0.2 -0.2 -0.3 0.5 0.5 -0.2 -0.3 0 -0.0969621 0.502848 0.0956553 0.287407 -0.21832 -0.0152032 -0.0175773 -0.233295 0.350132 -0.0325732 -0.540707 -0.415677 0.395951 0.385311 0.17778 0.484873 -0.200338 -0.0893716 -0.0961892 0.00181844 -0.5 -0.3 -0.4 -0.5 0 -0.5 -0.2 -0.289628 0.0132995 -0.500573 0.291039 0.509507 -0.497361 0.293693 0.271174 -0.290425 -0.0958892 -0.591946 0.000381468 0.361989 0.0116807 0.185946 0.0993256 -0.0738668 -0.266825 0.537565 0.123703 0.00513186 0.299901 -0.5 0.4 0 -0.2 -0.1 -0.499761 0.408158 0.00643898 0.1895 -0.224019 -0.113855 -0.409717 0.0476658 -0.37122 -0.384593 0.0855984 -0.140188 -0.626219 0.285207 0.019784 -0.536521 0.27078 -0.00640025 0.0204064 0.36772 0.549246 0.51549 -0.196728 -0.00249431 -2.41539e-05 0.3 -0.2 -0.203275 0.30225 0.400068 0.513287 -0.508583 -0.499917 -0.37436 0.126404 -0.414209 0.230527 0.0761652 -0.0222137 0.159797 -0.542302 -0.353863 -0.527568 0.435172 0.341256 -0.421773 0.389196 -0.448821 0.0468588 0.0457295 -0.278619 0.00302046 -0.00183495 0.399996 -0.202037 0.296997 -0.508482 -0.412089 -0.205719 -0.125 0.0122504 0.480791 0.168517 -0.360473 0.424317 0.0184444 0.214717 -0.122349 -0.578172 -0.418007 0.411866 0.0368074 0.0476325 -0.347855 -0.0430662 -0.390273 0.328713 0.0535563 0.426864 -0.395498 -0.301805 0.0999965 0.0999965 -0.00310187 -0.411219 -0.316849 -0.0998556 0.30861 0.551387 -0.0921295 -0.123 0.311615 0.000541632 -0.108801 -0.0551747 0.445601 0.191038 -0.0938175 -0.0933364 0.197744 0.101226 -0.43892 0.456399 -0.110734 0.416682 -0.246552 0.527428 0.100186 5.9666e-06 -0.200004 0.494032 -0.203123 -0.413453 0.00704393 0.503931 -0.160262 -0.320354 0.620336 0.507789 0.0422567 0.296529 0.504631 -0.0167018 0.389861 0.0670051 0.239432 0.0246278 -0.0913528 -0.404333 0.486239 0.26479 0.0945147 0.00757582 0.328918 0.117002 0.500432 0.400006 0.3 0.394036 -0.103366 0.297438 0.013307 0.52486 0.501028 0.34062 -0.24097 -0.138908 -0.121268 0.0895871 0.208454 -0.0180424 -0.495853 0.243453 0.305334 0.0621196 -0.335283 0.488669 -0.0338148 -0.428508 0.0802147 0.388328 -0.0966238 -0.20909 0.502593 0 0.4 0.499871 -0.202613 -0.0947969 0.319175 0.242418 -0.308433 -0.151308 0.148926 0.223328 -0.270858 -0.359419 0.394258 0.18323 0.010111 -0.0539501 -0.00913805 -0.266846 0.232278 0.00212292 -0.42462 0.149869 0.203747 0.397325 0.395312 -0.209374 0.00268245 3.82727e-09 -0.3 0.3 -0.201055 -0.49827 0.0154226 0.252831 -0.0779258 -0.235388 0.26054 -0.271894 -0.431512 0.436133 -0.175479 0.321617 0.197255 0.301079 0.0300194 0.237906 -0.045527 -0.259678 0.289908 0.258415 -0.468861 -0.0659089 0.209022 -0.199369 -0.39997 0.2 0.4 -4.46455e-09 -0.000336229 0.00570877 0.223514 0.153009 0.511782 0.125579 -0.352776 -0.363122 0.498417 0.291564 -0.39418 0.0135802 0.184996 -0.0512427 0.552751 0.518794 -0.137956 -0.0212761 -0.259417 -0.317507 -0.350892 -0.0465514 -0.395752 0.499257 0.20003 -0.1 0.2 0.4 0.299016 0.307099 0.308506 0.331601 -0.229715 0.267638 0.552495 0.0482746 0.0307932 -0.378832 0.312231 -0.46235 -0.120655 0.214651 0.0202311 0.555687 -0.231608 0.148946 0.047834 0.106898 -0.0883914 0.243668 0.121146 0.196723 0.49957 0.4 0 -0.3 -0.2 -0.00579664 0.388895 -0.188025 -0.345656 -0.0447907 0.418145 0.0202557 -0.209201 0.356416 0.443855 -0.396263 0.0074701 0.143106 0.397868 0.280259 0.0277101 0.00848721 0.0219967 0.121963 0.218252 0.555354 0.0133568 -0.297079 -0.300728 0.501219 -0.2 0 0.09205 -0.02576 -0.123156 -0.115839 -0.360027 0.374685 0.249809 0.54397 0.244723 0.251079 -0.455765 -0.389037 0.21094 -0.491513 0.179825 -0.193787 -0.403702 0.272854 -0.091672 0.11229 -0.365772 0.554886 -0.072906 0.0973752 0.00117206 0.201219 -0.5 0.3 -0.503618 0.0755423 -0.129628 -0.518306 -0.070171 0.54633 0.0259791 0.530211 -0.153184 -0.148796 -0.0812166 -0.119823 0.440266 -0.318071 -0.196486 -0.202234 -0.107488 0.0963713 -0.466846 0.00889826 -0.00325194 -0.262432 0.303385 -0.109464 0.399447 -0.29931 -0.5 0.3 -0.00476869 -0.129212 0.352252 0.26876 -0.0489296 0.183395 -0.0249046 -0.420162 -0.030662 0.49912 0.107203 0.37971 -0.407015 -0.22148 -0.405223 0.527299 0.265891 -0.43989 -0.255482 -0.00842335 -0.218469 -0.379079 0.400055 -0.308055 0.100594 0.400608 0.2 0.3 0.00556133 -0.518416 0.0424781 -0.454861 0.31982 0.239833 -0.231959 -0.165861 -0.41949 0.319509 -0.531725 -0.482528 0.0589843 0.366601 -0.207976 -0.433588 0.272693 -0.21102 0.0307797 0.484423 -0.0193703 0.297073 0.0138161 -0.299415 -0.000494279 0.000138514 0 0.4 0.0116029 0.491221 -0.0401591 -0.135423 -0.0583695 -0.5562 -0.323682 0.127634 0.1459 -0.109082 -0.240775 0.490653 0.0502714 -0.0130714 0.432662 0.46981 -0.378436 -4.02652e-05 0.0870875 -0.49794 0.192274 -0.490317 0.505628 0.500344 0.499543 -0.2 0.5 0 0.0082803 0.0958091 0.190214 0.486182 -0.381512 -0.358825 0.329852 -0.325483 -0.092189 -0.547854 0.00431876 0.426571 -0.027703 0.499366 -0.498204 -0.0414621 -0.0521122 -0.296061 -0.00108036 -0.219711 -0.0120332 -0.298259 0.00422673 -0.0041245 0.299571 -0.2 -0.4 0.3 0.400058 0.0913947 0.0012222 0.374307 -0.17388 0.132004 -0.570917 -0.118985 -0.568144 0.152883 -0.0165249 0.400299 -0.175187 0.487651 0.401654 0.176674 -0.0249515 -0.0917528 -0.315276 0.358981 0.00910446 0.0139029 0.00483269 -0.00290355 -0.103639 -0.5 -0.5 0 -0.200803 -0.505898 -0.120898 -0.117752 0.0743556 -0.553062 0.415132 -0.572706 -0.15596 0.197588 -0.457954 0.0639234 0.393977 0.344327 0.00475283 -0.207101 0.282919 0.0924348 0.52427 -0.206607 0.000686952 -0.294202 -0.192261 0.396971 -0.00367578 0.2 0 -0.1 0.1 0.293449 -0.222761 -0.125887 -0.357034 -0.190541 -0.0619315 0.457513 0.282669 0.504434 0.140949 -0.0479012 -0.0643479 0.306257 -0.0982735 0.273151 0.4858 0.497652 -0.420667 0.382769 -0.121049 -0.00679191 -0.297508 0.5 0 0.5 -0.1 0.1 0.4 0.399862 -0.00566651 -0.305496 -0.00969874 0.377082 0.0801792 0.0858091 0.194671 0.0121674 -0.178573 -0.175066 0.419252 0.0139381 0.00855265 -0.402695 0.300842 0.411241 -0.503833 -0.103924 -0.00655464 -0.503367 -0.00108943 -0.5 0.1 -0.3 -0.3 0.5 -0.3 -0.00135429 -0.401772 0.39877 -0.204325 0.292464 0.0926894 0.297229 -0.102986 0.000741349 -0.00248372 0.101456 -0.10247 -0.00330439 0.297178 -0.499859 0.298957 -0.00383722 -0.204564 0.295743 -0.203371 0.499481 -0.2 0.1 -0.3 -0.3 -0.3 0 -0.1 0.3 0.2 -0.101276 -0.102081 -0.402081 -0.300805 -0.4 -0.500099 -0.400124 -0.200188 -0.100305 -0.500331 0.499704 -0.000299907 -0.300674 0.199536 -0.400442 0.198374 -0.301706 -0.401705 0 -0.1 -0.2 0.4 -0.4 0.00255613 
-0.4 -0.1 -0.4 0 -0.3 0.4 0 0.5 -0.5 0.1 0.3 0.3 0.2 -0.5 0 -0.1 0.1 0.5 -0.2 -0.4 0 -0.3 0.1 0 -0.3 -0.5 0.3 0.2 -0.5 -0.2 -0.5 -0.3 0.4 0.3 0 -0.3 0.2 -0.4 -0.0158302 0.28417 -0.500867 0.494616 -0.0056523 0.393168 -0.102046 0.300565 0.0983301 0.399786 -0.500214 -0.500214 -0.5 -0.1 -0.2 -0.3 0 0.1 -0.2 0 0 0.4 0.2 0 -0.3 -0.0998128 0.200196 0.099427 -0.521085 0.483661 -0.19493 0.496348 0.489605 0.274273 -0.131611 -0.0287194 -0.3186 0.0806871 -0.319457 0.494203 0.298756 0.299476 -0.400505 0.3 0.1 0.3 -0.2 -0.1 -0.1 0.1 0 0.000459289 -0.296933 -0.0996363 0.101427 0.00685326 0.400197 -0.198576 0.0253509 -0.175403 -0.488794 0.00615333 -0.507603 -0.127717 0.0664816 0.453431 -0.536366 -0.314953 0.396552 0.401744 -0.00181459 0.4 0 0.2 0.1 -0.3 0.3 -0.2 0.406202 -0.389895 -0.0970518 -0.480633 0.0355588 0.227745 -0.175402 0.548726 0.289292 -0.103409 0.121236 0.513939 -0.00382678 -0.118404 0.0476755 0.202246 0.279849 -0.186926 0.19222 -0.201603 -0.102726 0.196707 0 -0.1 0 -0.1 0.5 -0.00192167 -0.291192 0.311638 0.014802 0.0366419 -0.45839 0.533058 0.0375184 -0.0381473 0.501952 0.311556 0.105277 0.474713 0.48288 0.552929 0.104775 0.552072 0.0608033 0.0500074 0.487256 0.0870635 -0.00249584 0.292762 -0.298376 0.499994 0.2 0.5 0.0010969 0.00305256 -0.281484 0.226537 -0.447023 0.0919433 0.0945205 -0.311312 -0.229004 0.00515618 0.519697 0.0341627 -0.00909359 0.0947603 -0.446441 -0.241943 0.44709 -0.119223 0.00440822 -0.432521 -0.237171 0.0168697 -0.308844 0.487361 0.220693 0.0064921 0.0998149 0.499192 0.501272 -0.391141 0.120296 -0.333356 -0.00389427 0.620607 -0.010106 -0.353149 0.388229 0.339293 0.177044 -0.113258 -0.528301 -0.0933397 -0.299021 0.179125 0.0888873 -0.34497 -0.220421 -0.152557 0.531838 0.295599 0.0640773 -0.131135 0.115515 0.00784589 0.199815 0.299815 -0.296234 0.0163332 0.117009 0.453046 -0.231084 -0.33095 0.26159 0.0252104 -0.137359 -0.437626 0.0482772 0.0760265 0.445387 0.0209535 -0.167369 0.175193 -0.348912 -0.154934 -0.463594 0.230183 -0.439847 0.500232 -0.528098 -0.0555777 -0.497527 0.0972234 0.199815 0.197714 0.206034 0.109363 0.226513 0.559511 0.0428236 -0.184469 -0.439661 -0.395929 -0.261514 0.187328 0.288684 -0.195583 -0.564774 -0.306792 0.537699 -0.0974829 0.0672552 0.0193236 0.254136 -0.00754838 0.0917728 0.346118 0.077435 0.135775 0.191373 -0.502777 0 -0.102101 0.00602538 -0.393408 -0.180297 0.488651 0.517997 0.0803853 -0.575591 0.502583 0.195855 0.0535465 -0.401319 -0.039082 -0.142681 -0.307454 0.0552138 0.127087 0.171086 0.34644 0.305313 0.116295 -0.404938 -0.449501 0.180818 0.164119 0.0955678 0 0.5 0.101977 -0.491738 0.109498 -0.0838286 -0.52573 0.0648893 -0.0697006 -0.214806 -0.0816073 0.18353 -0.174672 0.0786152 -0.125965 -0.429327 -0.241602 -0.475363 -0.0590548 0.493223 -0.218193 0.170884 0.448272 0.141974 0.289504 -0.48216 -0.296982 -0.400264 0.2 0.3 5.06634e-08 -0.397387 0.201642 -0.504039 -0.131745 -0.466324 -0.126585 -0.266857 0.269951 0.329511 0.0364231 0.028737 -0.057767 -0.00373785 0.269442 0.533884 -0.185649 -0.374444 0.527947 0.264238 0.0823397 -0.000396046 0.473136 0.0477388 -0.188291 0.00464736 0.5 0.1 0.4 -0.195338 -0.510891 0.402006 -0.334481 -0.566892 -0.0757823 0.447857 0.205168 -0.40233 0.0285127 -0.0753979 0.259147 -0.447244 -0.112362 0.163597 -0.410694 -0.0700518 0.265733 -0.197396 -0.0208572 0.360783 -0.31069 0.559452 0.11665 0.00464736 0.2 0 0.2 -0.500047 -0.126382 0.188874 0.0704487 -0.263602 -0.505136 0.478067 0.398832 -0.456887 0.0292269 0.421574 -0.457961 -0.137799 0.413927 -0.348451 0.260448 -0.281861 -0.0638361 -0.0499161 0.485767 0.131177 0.295124 -0.137681 0.202814 -0.0997705 0.1 0.3 0.5 1.81261e-09 -0.129502 0.25342 0.477741 0.305905 0.455942 0.0110958 0.0273018 0.625449 -0.299112 -0.372977 0.41778 -0.248023 -0.135032 -0.458579 -0.0925609 -0.0144352 -0.245015 0.0505254 0.176087 0.0532823 0.596286 -0.0323683 0.199099 0.498818 0.301534 -0.4 0 -0.39457 -0.041444 -0.0422159 0.00457139 -0.466883 0.185706 0.296816 -0.102198 -0.0443992 0.158251 0.134384 0.481889 -0.0184684 -0.498316 -0.284905 -0.327816 -0.434465 0.195149 -0.282519 -0.183555 -0.102853 -0.378854 0.0937096 0.329094 0.00544058 0.00153381 0.4 0 -0.500171 -0.225632 0.360633 0.0430827 -0.150575 0.0912442 -0.192181 0.570193 -0.159928 0.247039 0.102994 -0.131051 0.342238 0.271928 0.117137 -0.309079 -0.176291 0.335941 -0.394063 0.0926173 -0.1723 0.574594 0.144509 0.54904 0.0086834 -0.394471 0.4 0.4 -0.394569 -0.407833 -0.0277437 0.04521 0.587331 0.57 0.0675783 -0.14402 -0.128189 -0.0259198 -0.344602 -0.291611 0.405696 -0.285636 0.349703 -0.2278 0.408494 0.403554 0.087255 0.525607 0.536725 0.346987 0.623473 -0.362823 -0.193122 0.205174 0.3 -0.4 0.404605 0.402648 -0.488682 0.201061 -0.0599214 0.181374 0.0951926 0.195152 -0.293892 0.205807 -0.386677 -0.326796 0.333251 0.119889 -0.309018 0.377233 0.177698 -0.345445 0.129695 -0.375506 -0.174482 -0.0751674 -0.218285 0.018047 0.000153055 0.199145 -0.5 -0.5 -0.401374 -0.409604 0.335799 -0.28672 0.0759033 0.0694298 0.434476 -0.0610606 -0.15138 0.221062 0.0999577 -0.344742 0.531115 -0.293283 -0.115986 -0.14732 0.235208 0.224984 0.572624 0.332132 -0.400997 0.185477 0.5217 -0.49566 0.503853 0.5 -0.2 0.3 -0.501158 0.193274 -0.260858 0.184549 0.062169 -0.167984 -0.533366 0.459978 0.435104 0.291885 -0.0284123 0.39979 0.0052075 -0.296272 0.371068 0.249044 0.36238 0.214363 0.370825 0.25797 -0.0609804 0.549413 0.0185259 0.00527728 0.403846 -0.4 0.3 -0.4 -0.20069 0.399675 -0.399072 0.561527 -0.329221 0.47819 0.00253603 0.43426 -0.244193 0.364424 0.0944572 0.497813 0.554114 0.210085 0.328686 -0.24853 0.564487 -0.0364671 -0.0346824 -0.0659924 0.317615 -0.0910471 0.289456 0.104436 0.0041238 -0.2 0.1 0.3 0.200044 -0.00564621 -0.416455 -0.480524 -0.489304 -0.524097 0.163035 0.372744 -0.277767 0.554037 0.0776294 -0.205268 -0.183156 -0.488352 -0.275809 0.168534 -0.349327 -0.359872 0.414921 0.382772 -0.10191 -0.200796 -0.105121 0.000463429 0.200424 0.4 -0.3 -0.2 -0.4 -0.202267 -0.000738139 0.00373147 -0.00499102 -0.395903 0.0602243 -0.0233141 0.247598 0.263378 0.336924 -0.448781 -0.106907 -0.209273 0.240362 0.0754106 -0.10102 0.0307644 -0.196315 -0.322574 0.391061 0.289498 -0.207475 -0.5 0.5 0 -0.1 0 0 0.299323 0.197979 -0.103418 0.392046 0.289119 -0.136285 -0.533913 -0.581602 0.156474 -0.186917 -0.552621 0.256289 -0.0194214 0.26183 0.435474 -0.135243 -0.095672 -0.0129436 -0.51097 0.286497 -0.309578 -0.00864236 -0.5 -0.3 -0.4 -0.2 0.1 -0.4 -0.100325 -0.00310626 -0.00567218 -0.00477063 -0.00350943 0.18849 0.203335 -0.499688 0.516289 -0.119342 0.157356 0.0639977 0.264831 -0.203039 -0.00352471 0.187939 0.30045 0.0982066 -0.499723 -0.299901 0.497888 -0.2 -0.3 -0.5 0.2 0.5 0.5 0 0.2 -0.3 0.499702 0.000336746 0.000336731 -0.399365 0.40442 -0.196379 -0.0978263 0.298967 0.0918329 0.395821 -0.298205 -0.0973689 0.00370033 -0.199306 0.000940183 0.00229567 0.401795 -0.0982675 0.4 -0.4 -0.1 0 0.2 -0.41491 
-0.2 0.2 -0.2 -0.5 0.1 0 -0.3 0.5 -0.3 0 0.4 0.3 -0.3 -0.3 -0.3 -0.5 -0.5 0 -0.1 -0.5 0.2 -0.1 0.2 -0.3 -0.3 -0.3 -0.4 0 -0.2 -0.4 -0.2 -0.2 0.1 0.3 0.5 -0.2 -0.4 -0.3 0.00566176 0.00566176 -0.000157807 -0.0995264 0.401907 0.303127 0.301061 0.301064 0.301456 -0.40001 0.49999 -0.40001 1.52393e-08 0.1 -0.2 -0.5 0.2 -0.4 0.3 0.5 0 0.3 -0.2 0.1 0.3 0.000603695 0.0998235 -0.199007 -0.290285 -0.190328 -0.396046 0.00905854 0.110773 0.105089 0.207696 0.108856 0.0071592 0.405646 -0.197033 -0.50015 -0.500116 -0.29976 0.200245 -0.5 0.1 0.1 -0.4 -0.4 -0.4 0 0.3 -0.501556 -0.202109 -0.202553 0.196716 -0.403454 -0.298024 -0.110297 -0.120696 -0.118157 0.0890463 -0.507661 -0.21496 -0.207798 0.0051176 0.295278 -0.0258974 0.0766613 0.0752373 -0.21086 -0.0999633 0.5 0 0.1 -0.3 -0.5 0.4 0.3 -0.00589198 0.298929 0.408677 0.396027 0.150182 -0.245255 -0.0338064 -0.445217 -0.337813 -0.115137 -0.0305445 -0.231761 -0.222865 -0.0491936 0.358841 -0.44984 0.232623 -0.475161 0.44415 0.356716 -0.109333 -0.00296802 0.4 -0.5 0 -0.3 0.2 0.00160084 0.292758 0.201333 -0.518704 0.462154 -0.45222 -0.333121 0.013201 -0.294321 -0.061659 -0.543387 -0.0224102 -0.41478 -0.431118 -0.327367 0.153487 -0.222588 -0.514922 0.140035 -0.262419 -0.0717006 0.483402 -0.206085 -0.200539 -0.199944 0 0.5 -0.300038 -0.000166487 -0.209445 -0.311486 -0.0957155 0.0127767 0.0789251 -0.295644 -0.222182 -0.021698 -0.225278 0.214533 -0.0735344 -0.369193 -0.0858082 -0.00478104 0.512442 0.0783088 -0.406714 0.045142 -0.511188 -0.361683 -0.0484808 -0.348535 -0.0115751 0.00228333 -0.5 0.400026 0.299833 0.412877 0.106465 -0.000694884 0.53951 -0.423106 -0.523745 0.00709326 0.0947909 0.0497549 -0.223673 0.241587 -0.395187 0.271447 -0.132481 0.170434 0.115749 -0.0957484 -0.100432 0.0785304 -0.373553 0.209665 0.353999 0.354489 0.277714 -0.496524 0.0999998 -0.1 0.501088 -0.282821 0.112171 0.0043641 -0.140847 0.398808 0.499799 0.121488 0.437679 0.0119493 -0.269982 0.623594 -0.370628 0.539641 0.3012 0.388883 0.0598958 0.258273 0.421471 0.0172411 0.0943154 -0.337833 -0.19793 0.0566041 0.0910067 -0.49879 -0.2 0.202639 -0.497892 0.0199086 -0.476355 -0.406845 0.124397 -0.0126024 -0.300907 -0.550056 -0.392231 -0.0861603 0.164306 0.411565 0.158354 0.536319 0.437999 0.243195 0.692598 0.0876211 0.163662 0.159652 0.230979 0.184724 -0.26464 -0.0143802 -0.109018 0.00120952 0 -0.397361 0.102409 0.19772 0.391398 0.000180481 -0.0899881 -0.289972 -0.339352 -0.528838 0.466435 0.0757803 0.478235 0.227614 0.202483 -0.0475969 -0.311029 0.00330256 0.472884 -0.286401 -0.357504 -0.0810351 0.141602 -0.189489 -0.340942 -0.00559118 -0.100077 -0.1 0.1 0.20148 0.0024379 -0.00562483 0.388618 0.202791 -0.266113 -0.182696 0.383393 -0.0197017 0.0877414 0.0147476 -0.416484 0.526659 0.351838 -0.171664 -0.510956 0.409945 -0.419048 0.280016 -0.0983573 0.508103 0.426192 0.102317 -0.139598 -0.192252 -0.0997674 0.4 0.4 0.2 -0.0985142 -0.206752 -0.312875 0.419347 -0.264939 0.0248261 -0.0710153 -0.256062 0.141719 0.434939 0.54963 0.354041 0.375467 0.355437 0.346106 0.536381 0.357492 0.317134 0.0360362 -0.173043 -0.29352 0.205223 -0.248288 0.30573 -0.198063 -0.5 -0.3 0.1 -0.399905 -0.509341 -0.208141 -0.274354 -0.496535 0.203927 -0.4228 0.144829 -0.260454 0.0731623 0.0873988 0.15828 -0.0407201 0.410384 -0.350131 0.126171 -0.568867 0.361295 -0.540021 -0.263418 0.600546 -0.00817297 -0.140202 0.408964 0.00193664 -0.1 -0.1 -0.2 0.100059 0.291871 0.194819 0.00191574 -0.00148645 0.520319 -0.126966 0.16809 -0.112307 0.338963 0.424993 -0.447085 -0.161359 0.415073 -0.13767 0.0347793 -0.591019 -0.172863 -0.164257 -0.487351 -0.314768 -0.100227 0.569428 -0.284865 -0.294255 0.1 0.1 -1.18105e-09 -0.1 0.391583 0.284538 -0.091848 0.406137 -0.522554 -0.135036 -0.3275 0.0602074 0.244209 -0.0450297 0.183933 0.0833857 0.352729 -0.0940503 -0.232997 0.30078 0.121793 -0.132203 0.514688 0.36778 0.400736 -0.439888 0.214099 -0.39574 0.497807 0 0.3 0.401666 0.495143 -0.00716117 -0.463733 0.317369 0.286686 0.0250973 0.141299 -0.34667 0.0676823 0.22782 0.518928 -0.495125 0.306587 -0.44838 0.361728 -0.446053 -0.0321972 0.274893 0.0577104 0.495481 -0.22791 0.34956 0.110308 0.104265 -0.202193 -0.2 0 -0.199121 -0.000590963 0.27787 0.131419 0.447782 0.439015 -0.333402 -0.458807 0.0201688 -0.204152 0.289928 -0.37225 0.0248741 0.391441 0.276751 0.243623 -0.225596 0.271856 -0.418516 -0.260989 0.55725 0.149386 -0.46521 -0.100665 -0.19708 -0.102796 -0.4 -0.2 -0.0923399 0.491044 -0.218551 -0.384104 0.528996 0.118787 0.127935 -0.352615 -0.0565818 -0.515155 -0.00431685 0.389873 0.100872 -0.432591 0.249327 0.026787 0.19773 -0.456793 0.367051 0.114494 -0.156249 -0.184585 0.22916 -0.000623799 0.00293501 -0.202693 0.1 0.3 -0.402275 -0.0225736 -0.330628 -0.0920442 0.0896901 -0.159668 0.575535 0.33425 -0.276643 0.210784 0.365688 0.189456 0.245149 0.0738429 0.276856 -0.0385392 -0.137031 0.021833 0.291713 -0.300583 0.0170335 0.0118072 -0.0855912 0.497464 0.198546 -0.199853 0.5 0.3 0.290546 0.181233 0.36928 0.498775 -0.335444 -0.200316 0.27371 0.498462 0.044654 0.0216152 0.0352743 -0.358668 0.421597 0.084174 -0.318274 0.0863536 0.361711 0.202574 0.203669 -0.102172 -0.21338 0.504204 -0.0129994 -0.303851 0.498785 0.4 0.1 0 0.390536 -0.511634 -0.305988 -0.270669 -0.00993481 -0.0912903 0.037412 0.00315082 0.418887 -0.261526 0.040487 0.510468 0.394499 -0.181483 0.243836 0.163763 -0.0455314 -0.0654747 -0.382514 0.333451 -0.000569542 0.492647 0.486362 -0.102108 -0.301215 0.2 -0.2 -0.3 -0.399484 -0.29768 -0.00875609 -0.17893 0.461244 -0.0592824 -0.359821 0.00232897 0.122223 -0.15021 0.374748 -0.462343 0.335397 -0.279184 0.154339 -0.554462 0.389031 0.495631 0.531184 0.00722922 -0.331149 0.371028 -0.211815 -0.301539 -0.000493479 0.1 -0.3 -0.5 0.000248378 -0.492076 -0.000597066 0.109222 0.20695 -0.433413 -0.0483158 -0.15436 0.55956 -0.133718 0.298954 -0.235995 0.545323 -0.415651 -0.189799 -0.241006 0.205 -0.296805 0.0942329 -0.322785 -0.423232 -0.0147603 -0.506749 0.298219 -0.100732 -0.5 -0.1 0.4 0.5 0.10565 -0.111406 -0.39426 0.223436 -0.132419 -0.136919 -0.347157 0.552848 0.128818 -0.452295 -0.348352 0.0442365 0.0671042 -0.271143 0.425537 -0.18138 -0.37976 -0.090069 0.305473 0.00201609 0.496425 0.295095 -0.1 0 0 -0.1 0.1 0.3 -0.299892 0.100136 -0.301395 -0.28543 0.522146 0.419508 0.517916 0.417257 0.304105 -0.0130824 0.301029 -0.00274967 -0.291428 0.526723 0.0131593 0.419466 0.0229878 -0.0728435 0.317904 0.00877536 -0.00257876 -0.00104143 -0.5 -0.2 0.5 0.2 0 0.3 -0.200014 0.499879 -0.000137955 -0.200022 0.300057 0.000641843 0.50072 0.399684 -0.298234 -0.00224076 0.493599 0.199214 -0.00109973 0.405425 0.40967 -0.0917105 -0.487603 -0.479562 -0.179494 -0.385589 -0.201048 0.1 -0.5 -0.2 0 -0.2 -0.3 0 0 0.2 0.200002 0.100039 -0.0999607 -0.499963 6.83727e-05 -0.0999298 -0.299551 0.000362703 0.401472 0.0030147 0.201804 0.501917 -0.396474 -0.0978833 0.20514 0.113543 0.413555 0.110034 -0.1 0 0.5 -0.1 -0.2 -0.136079 
0 0 0.2 0 -0.3 -0.3 -0.1 0.5 -0.5 0.4 0.5 0 0.4 -0.3 0.5 -0.2 -0.1 0.4 0 0.2 -0.1 0.4 -0.2 -0.2 -0.1 0 0.2 0.1 0 0.1 -0.3 -0.4 0.2 0.4 0.2 0.1 0.4 -0.5 0.00727434 -0.192726 -0.198915 0.00122636 0.101511 -0.0995535 -0.299979 0.199707 -0.499198 0.300077 -0.0999229 -0.0999229 4.66135e-08 0.1 0.5 0.3 -0.4 0.5 0 -0.3 -0.2 0.4 -0.2 0.4 -0.5 0.0982269 0.493201 0.298899 -0.286692 -0.186066 0.510191 -0.37993 -0.283206 -0.188035 0.414035 -0.0884392 0.497741 0.318516 -0.38148 0.0142309 -0.189771 -0.099991 4.4115e-07 -0.5 0 -0.1 -0.4 -0.1 0 -0.4 0 -0.200583 -0.101245 0.400659 0.197945 0.110373 0.219242 -0.482848 0.00553924 0.124105 0.324255 0.341892 0.236635 0.246844 0.527664 0.548599 -0.0608863 -0.177561 -0.0860571 0.0987215 -0.101162 0.5 -0.3 -0.1 -0.5 0.5 -0.2 -0.3 0.302263 -0.293906 -0.0975851 -0.00816602 0.0847441 -0.296189 -0.0765935 0.194202 0.0928734 0.0828063 0.277554 0.427194 0.0298162 -0.249209 -0.333596 0.367915 0.516904 0.297374 -0.0112083 -0.0965637 0.403168 0.0965753 0.3 -0.2 0.3 0.4 0.2 0.299816 -0.396743 0.403814 0.112011 -0.40891 -0.00641339 -0.436599 0.320661 0.370752 -0.463425 -0.190132 -0.399853 0.0157751 -0.00997419 0.534084 0.376113 0.274532 0.401114 -0.364726 -0.148073 -0.431408 -0.502067 -0.506398 0.0996946 0.500003 -0.1 -0.3 0.299889 0.30944 0.0171753 0.518714 -0.157748 -0.462117 0.265036 0.314473 0.116752 0.243483 -0.476104 0.494658 0.460093 0.387024 -0.125411 0.342044 0.352679 -0.254603 -0.279629 -0.472187 -0.295956 0.0191062 0.15936 -0.0136537 0.48681 0.099906 0.199941 0.202853 0.099016 0.216741 0.0255394 0.329998 -0.46913 0.363337 0.599428 -0.370982 -0.035231 0.46352 0.215789 0.0234179 -0.0601728 0.570623 -0.0406889 0.217787 -0.319628 -0.14993 -0.454059 -0.436427 0.223395 -0.0851767 -0.195596 -0.261 -0.0254421 -0.000314274 -5.85354e-05 -0.100059 -0.298215 -0.378762 -0.355207 -0.0499593 0.138434 -0.257491 0.0854346 0.410365 -0.0669603 -0.160203 0.105618 -0.267469 -0.0927283 -0.469743 0.436924 0.554571 -0.190938 -0.274161 0.0180819 0.33124 -0.587101 0.296722 -0.341459 -0.310211 -0.0372639 -0.405999 -0.200059 -0.396224 -0.00170416 -0.484674 0.0365038 0.234072 0.538432 -0.362622 0.144702 0.361524 0.211998 -0.0835242 0.35364 0.0107716 -0.143155 0.356536 -0.266809 -0.0234221 -0.474786 -0.0505464 0.200823 -0.246962 -0.0697483 -0.12466 -0.0284508 -0.103337 -0.130799 0.394001 -0.2 0.203835 -0.202126 -0.186071 0.0196862 0.0495379 0.410876 -0.0654712 -0.131611 -0.227755 0.205665 -0.425823 -0.254814 -0.270067 -0.477011 0.320689 -0.438486 -0.050038 0.124665 0.29491 -0.00433568 0.435258 -0.34075 0.345807 -0.559948 -0.149446 -0.016201 0 0.1 0.00317186 0.101539 -0.290828 0.21148 -0.154675 -0.460479 0.551286 0.0542204 0.271694 -0.184964 -0.0437484 0.27244 -0.188072 -0.545458 0.107006 0.262517 0.229255 0.359595 -0.0984332 -0.308746 -0.141921 -0.300665 0.0791716 -0.0136712 -0.0167712 -0.00472134 0.1 -0.3 0.3 -0.198339 -0.477603 -0.251234 0.253382 0.350879 0.316099 0.266052 0.287512 0.0322313 0.254347 0.288119 -0.641505 0.22114 0.477992 -0.102694 0.256661 -0.21541 0.00483256 0.596936 0.0366586 -0.501702 0.303062 -0.217282 0.0996821 0.104462 -4.3956e-09 -0.4 0.5 0.397957 0.128759 -0.25604 -0.448299 0.0382435 0.507392 0.451507 -0.127777 0.5129 0.474565 -0.0844445 -0.197848 -0.458943 0.148333 0.00346061 0.0195522 0.205279 0.0593636 0.0506012 -0.27739 -0.0781082 0.49442 -0.00431616 0.204243 -0.195538 0.5 0.1 -3.67815e-11 0.000186674 0.131415 0.0380854 0.149984 0.52744 -0.501224 0.129011 0.452431 -0.342322 0.0556265 -0.287758 -0.114413 0.0146451 -0.0636459 0.401759 0.287038 0.128082 -0.0260303 -0.24862 0.55595 0.532191 0.403087 -0.198348 -0.203976 -0.30218 -0.4 -0.2 -0.5 -3.67815e-11 0.212472 0.439064 0.566954 -0.0775632 0.165598 0.2779 -0.0971146 -0.439188 -0.277751 -0.0936453 -0.0210773 0.216292 0.0768992 -0.28758 -0.0345209 -0.427602 0.469219 0.0899734 -0.0511955 -0.462776 -0.0902541 -0.101389 -0.206151 0.400444 0.198779 -0.4 0.1 -0.196947 0.408868 -0.453147 0.444007 0.214607 0.338577 0.383814 -0.216661 0.292585 0.225318 -0.231347 -0.343165 0.438157 0.250839 0.0260268 0.228514 0.22865 -0.19929 0.570105 0.248392 -0.374818 0.100492 0.296177 0.38991 0.201615 0.498779 -0.3 -0.1 -0.396906 0.197645 0.435782 -0.273729 -0.442291 -0.000110448 -0.283365 -0.257666 -0.301651 -0.170477 -0.3617 -0.585132 -0.566679 -0.441139 -0.372074 0.0363183 0.190581 0.398825 -0.235353 0.0334177 -0.183499 -0.205961 -0.224305 0.185407 0.499895 -0.201807 0 -0.3 0.201483 0.309684 0.0360634 -0.110582 0.206801 -0.0300486 -0.269953 -0.0510618 -0.0100269 -0.103803 -0.545663 0.237067 -0.191749 -0.378156 -0.271326 -0.500522 -0.0556088 0.32956 -0.239215 0.126935 0.0133712 -0.423767 -0.242736 -0.0138538 -0.499771 0.189643 -0.4 0 -0.0979892 -0.386793 0.260608 0.509542 -0.267445 -0.0868483 0.310726 0.227045 0.00628201 -0.561622 -0.38047 -0.291047 -0.199443 -0.0526448 0.00510775 0.229024 -0.0433186 -0.164999 0.369002 0.138868 0.0271042 0.267125 0.168908 0.0817746 -0.30271 0.191533 -0.4 -0.2 -0.493351 0.327332 -0.34519 -0.373438 -0.415471 -0.381282 -0.102397 -0.1475 0.421242 0.2291 -0.165367 -0.0262821 0.0634149 0.204223 0.328545 -0.121585 -0.245844 0.114324 0.0811734 -0.0535041 -0.363366 -0.00342056 0.0849723 -0.30757 -0.00274379 0.3 0 -0.1 0.206667 -0.470697 0.0625309 -0.368551 0.207064 -0.142287 -0.0432038 0.443437 0.387075 0.43168 0.0278915 0.433945 -0.437954 -0.0106046 0.389475 0.447477 0.540509 -0.402585 -0.338794 0.149537 0.549313 -0.0872517 -0.303498 0.0998367 -0.00479772 0.1 0 0.3 0.00647323 0.0192004 0.267431 0.052311 -0.355987 0.395967 -0.219883 0.0716484 -0.165202 0.297713 0.211987 -0.538888 -0.306478 0.448616 0.365056 -0.473056 0.337043 -0.0401544 -0.148872 -0.15446 -0.258766 0.0146125 -0.388915 -0.403959 -0.0039322 0 0 0 0.10004 0.0121707 -0.449754 -0.0628323 0.14079 0.347908 0.0359238 0.0381844 -0.52978 0.228627 -0.0121818 -0.532136 0.108659 -0.365944 -0.0239548 -0.0131838 -0.300913 0.237298 0.249623 0.0449303 -0.373632 -0.385529 0.203674 -0.00391742 0.296101 0 0 -0.3 0.1 0.00310115 -0.367663 0.543589 -0.252881 0.0774334 -0.264603 -0.0101159 0.175216 0.385496 0.151673 0.249903 -0.464997 -0.0188402 0.349558 0.00892482 0.0384237 -0.350365 0.350099 0.0390952 0.137854 0.315213 0.204885 0 0 -0.1 -0.3 -0.2 -0.2 -0.0998718 0.312389 -0.282447 0.0543731 -0.322623 0.180693 0.475633 0.290776 0.0923045 0.405012 -0.194645 -0.297792 0.311315 -0.284617 0.0174869 -0.367125 -0.0548435 -0.257991 0.125038 -0.37962 -0.0930121 -0.292056 0.1 -0.4 -0.1 -0.4 0.3 0.4 0.00600939 0.111574 0.317996 0.229777 -0.269343 -0.0794844 0.0130953 -0.28336 0.217474 0.44353 -0.0716905 0.129248 -0.0811931 -0.0872132 0.401746 0.0081613 0.417017 0.216032 -0.384915 0.208973 -0.493583 0.4 0.1 -0.4 0.4 0.5 0 0.2 -0.2 0 0.20007 0.200562 0.400562 0.300492 0.10005 -1.37688e-05 0.199996 0.403079 -0.296248 0.50255 -0.398482 -0.0996647 0.30253 -0.197782 -0.0963414 0.300711 -0.399227 -0.099542 -0.2 -0.1 -0.1 -0.1 -0.3 0.151975 
-0.4 0.4 -0.5 -0.5 0.1 -0.4 0.5 -0.2 0.3 -0.5 -0.4 0.2 -0.4 0 -0.1 0 0.3 -0.5 0 0.4 -0.2 0 0 0.1 -0.3 0.2 0.3 0.5 -0.5 0.2 -0.1 -0.3 0.2 0.2 0.4 0.4 0.1 0.2 -0.39932 -0.19932 -0.199717 0.101189 -0.39726 0.00304088 -0.499415 0.000584118 0.500064 -0.200001 -0.300001 -8.2712e-07 0.2 0.2 0 0 0.2 0.1 0.4 -0.1 0 -0.2 -0.5 0.3 -0.4 -0.199999 -0.499999 0.500067 -0.192883 0.304766 0.403207 0.00882508 0.403799 0.00565329 0.296987 -0.102349 -0.397546 0.000474587 0.300234 -0.499994 -0.4 -0.5 -0.4 0.2 0.2 -0.5 -0.5 -0.3 -0.5 0.3 0.1 0.0999564 0.499947 -0.192702 0.00731465 -0.186915 0.420457 -0.276927 0.220055 0.130326 0.314128 0.103304 0.099218 -0.303615 -0.498218 -0.500535 0.0979246 -0.400927 -0.400389 0.2 -0.3 0.5 0.2 0 0.1 0 0.3 0.3 -0.302826 0.196681 0.496988 -0.397779 -0.00162167 0.00851185 -0.479454 0.0112454 -0.199485 -0.114034 0.342009 -0.231364 -0.561347 -0.226588 0.117017 -0.295124 0.290112 -0.0113526 -0.507158 0.196019 -0.302075 0.401215 -0.2 0.2 0 -0.1 -1.88216e-09 -0.206807 -0.211325 -0.0156511 -0.111614 -0.0952082 0.510053 -0.466348 0.151355 -0.358753 -0.268172 -0.228813 -0.597077 0.18873 0.120669 -0.723414 -0.15534 -0.208327 -0.347904 -0.280559 0.037594 -0.0406171 0.0970006 0.393707 -0.497317 -0.0999978 -0.5 -0.4 0.198981 0.390726 -0.517775 -0.0905669 0.227753 -0.450405 -0.205137 -0.183531 -0.357167 0.179527 -0.0808434 -0.478285 -0.533521 -0.0674206 0.217792 -0.0797373 -0.567829 -0.0615771 -0.460451 -0.046786 -0.440809 0.285844 -0.340377 0.0874258 -0.41823 0.194432 0.400003 0.500003 -0.401029 0.49904 -0.502177 0.207369 0.303423 0.0468992 -0.254878 0.32897 -0.138012 -0.344048 0.0534361 0.290683 -0.277393 0.00849735 0.393441 0.365579 -0.31071 -0.346177 -0.133956 0.292787 0.331365 -0.256695 -0.142081 0.445599 0.0732058 -0.00683149 0.400003 -0.299997 0.399315 0.308893 0.0210252 0.518968 -0.0779662 0.342013 -0.0888364 0.0822667 -0.448438 0.252415 0.242981 0.141104 -0.0917476 0.019016 0.0567362 0.0912636 -0.284428 -0.437464 -0.00968247 0.402124 -0.162098 0.00194355 -0.329647 0.127968 -0.0309021 -0.203938 0.100003 -0.097891 0.00151897 0.516602 0.220252 0.321587 0.498929 0.449601 -0.558393 0.429937 -0.00328305 -0.124003 -0.0620739 -0.261335 0.365677 0.0961243 0.624477 0.418384 0.0677041 -0.236598 -0.0950797 -0.575411 0.354089 0.0174379 -0.0400656 -0.063161 -0.209761 0.196062 -0.5 0.102106 0.00163881 0.419123 0.0343601 -0.349093 0.357563 -0.549959 -0.0242263 -0.043705 0.0475849 0.156352 0.0858629 -0.0357117 -0.326782 0.508829 0.512257 0.315055 0.479976 0.197943 0.209967 -0.324196 0.434971 -0.0700798 -0.549392 0.277048 0.189676 0.1 -0.4 -0.39967 -0.098404 0.225924 0.0481791 0.00315358 0.495319 0.0211702 -0.493994 -0.354334 -0.0114909 -0.238752 0.230101 -0.450475 -0.14192 0.0503502 0.29877 0.628262 0.683715 -0.313549 0.00482365 -0.0156205 -0.41505 0.187435 0.498034 -0.0162284 0.0790869 0.2 0.4 -0.2 -0.199004 0.319159 -0.473854 -0.502635 0.379414 -0.315193 0.436742 -0.33546 -0.0683426 -0.580695 -0.48251 0.104409 0.603077 0.156547 -0.140508 0.374884 0.404797 0.152747 0.114437 0.257349 -0.501606 -0.00616454 0.0792065 -0.398495 -0.102438 0.4 0.1 1.32714e-07 0.297559 0.113934 0.123541 -0.20885 0.466681 -0.423804 0.0359409 0.332797 0.145291 0.143761 0.303259 -0.338238 0.248888 0.550715 -0.0467906 0.622758 -0.0555655 0.155077 0.528876 0.438621 -0.15537 0.288233 -0.0328822 -0.206576 -0.302438 -0.4 -0.2 -0.3 0.300543 0.305706 0.441409 0.254075 -0.421736 -0.480087 0.161813 -0.529673 0.474016 0.165605 -0.508425 -0.519986 -0.021993 0.101507 0.133006 0.627248 0.0667467 -0.302527 0.177984 -0.116665 0.329697 -0.017467 -0.537339 -0.506569 0.500096 0.4 -0.4 -0.1 0.4 -0.0988506 0.510659 -0.0549212 -0.252497 -0.0483104 -0.116789 0.22799 -0.1753 -0.487008 -0.0831636 -0.147607 0.154528 -0.381506 0.118186 0.559365 0.362371 -0.289872 -0.314843 -0.0236167 0.121858 -0.395972 -0.147819 -0.195238 0.102401 0.498433 -0.1 0.3 -0.298869 0.0216713 -0.297057 0.259493 -0.25137 -0.182278 -0.124718 -0.024411 -0.00669907 -0.521839 0.315419 -0.0304544 0.0618364 -0.457284 0.384282 0.168198 0.322445 -0.351988 -0.326441 0.202949 0.376269 -0.0445682 0.0554474 -0.206433 -0.00274473 0.398433 0 -0.2 0.202672 -0.182055 0.00100005 -0.22741 -0.374565 0.0460123 -0.530715 -0.235037 0.0995025 -0.320263 0.0590229 -0.102923 -0.183617 -0.366362 -0.387695 -0.0763003 0.324432 0.183449 -0.0554447 -0.0901324 -0.126876 0.15106 -0.331742 -0.422719 0.197783 -0.202287 -0.4 0.3 0.104479 -0.0908776 -0.203346 -0.449105 -0.524806 -0.0809565 0.304715 -0.427084 0.100406 -0.271706 -0.427794 0.380989 0.57911 -0.253392 -0.0666149 -0.322858 -0.0811295 -0.511642 -0.24157 -0.0564944 0.445892 -0.0229496 -0.319917 -0.11712 -0.40222 -0.202564 0.5 0.1 0.0994735 -0.386185 -0.176741 -0.540618 0.267637 0.119985 -0.462785 -0.578946 0.378011 0.430331 0.0490037 -0.29002 0.0329067 -0.0821561 -0.0210827 -0.3986 -0.0852836 0.35435 0.149403 -0.37244 0.27151 0.48142 0.0153359 -0.10355 -0.100026 0.299887 0.3 0 0.301241 -0.181002 -0.373888 0.346814 -0.171339 0.361897 -0.565299 0.403205 -0.413258 -0.129567 -0.0451225 0.0157684 -0.314901 -0.1406 -0.20911 0.338714 0.147444 -0.199373 -0.151288 -0.465397 -0.0337096 0.105355 0.226015 -0.511947 -0.210938 0 0.2 0.1 0.501303 0.118447 0.430599 0.2804 -0.544215 0.0114814 -0.0755585 -0.566275 -0.0170325 0.107783 0.410789 -0.570718 -0.338649 0.0439578 -0.303344 0.173312 0.332027 0.272587 -0.137089 -0.156408 -0.217217 0.191537 0.0992843 -0.0119188 -0.311019 0.1 -0.1 0 0.203729 0.206377 -0.363773 -0.250375 0.00789601 -0.315477 0.48418 0.433007 -0.438911 0.375237 -0.230099 -0.344464 0.350524 -0.347158 0.13099 -0.0235624 0.0378018 -0.647098 0.316617 -0.014308 -0.0134339 -0.314638 -0.2986 -0.412696 -0.111728 0 0 -0.4 -0.3999 0.10654 0.436168 0.340371 0.133281 0.46717 0.240466 0.356196 -0.444561 -0.141955 0.0469995 0.230011 -0.252185 0.17962 -0.399545 0.0309108 -0.355763 -0.13322 0.178984 -0.206125 -0.115474 0.291066 0.294213 0.0991134 0.0991842 -0.1 0.1 0.3 0 -0.50231 -0.47735 -0.0503096 -0.440132 -0.198435 -0.0813796 -0.0640399 -0.230473 0.261509 0.116698 -0.616452 -0.154579 0.438081 -0.107817 -0.381896 -0.474374 -0.057763 -0.396635 0.0124156 0.00805947 0.00211106 -0.00139839 0.2 0 0 0.3 -0.4 0.5 -0.496619 -0.178207 0.239299 0.28694 0.00168434 0.135489 -0.359887 -0.0319028 0.0539769 0.487226 -0.152776 0.406473 0.545955 -0.0640943 -0.0621866 0.245036 0.0941664 0.0108183 0.122913 -0.0822365 -0.0942064 -0.199952 -0.2 -0.2 0.3 0.1 -0.3 -0.5 0.204801 0.10795 -0.180053 -0.15385 0.462247 0.272717 0.553147 -0.248377 -0.36919 -0.337923 0.050595 0.56447 0.553035 0.126943 0.122458 -0.180617 -0.484303 -0.486766 0.209387 -0.196102 -0.0991143 0.1 -0.5 0.4 -0.3 0.4 0 -0.2 0 -0.1 -0.196318 -0.283954 0.0160461 0.0123637 -0.09991 0.201076 0.203875 -0.491874 -0.0774806 0.0237199 0.30326 -0.197465 0.00593649 0.304484 0.403138 -0.199522 0.403136 -0.197319 -0.5 0 0 0.4 0.1 0.150353 
0.5 0 -0.5 -0.1 -0.3 0.4 -0.1 0.4 0.1 0.1 0.1 0 -0.1 0.2 0.4 -0.4 0.3 0.5 0.3 0 0 0 0 0.2 -0.1 -0.3 0.4 -0.5 -0.5 -0.5 0.1 0 0.1 -0.5 -0.1 -0.4 -0.1 0.3 -0.499513 -0.399513 0.199295 -0.205049 0.395042 -0.102552 -0.498299 0.50164 0.300813 -0.20281 -0.20281 -0.20281 -0.2 0.1 -0.2 0 -0.2 0.1 0.5 -0.1 -0.3 0.3 0.3 0 0.2 0.299985 0.399846 -0.400043 0.493034 -0.215978 0.4751 0.466106 -0.337176 -0.218794 0.177812 -0.221405 -0.124394 -0.513812 0.492291 -0.305457 -0.201347 0.200237 0.400358 0 -0.1 0.1 0.5 0 0.4 0.2 0.3 0.399073 0.0952775 -0.508492 -0.509169 0.382933 -0.424401 0.465819 0.350813 -0.456571 -0.451196 -0.0398276 -0.0463834 0.422022 -0.099475 -0.181288 -0.465776 -0.525402 -0.417828 0.395044 -0.398341 0 -0.1 -0.3 0.1 -0.3 -0.1 6.97947e-11 -0.312528 -0.414477 -0.208357 -0.00988782 0.186923 0.152705 0.150394 -0.066003 -0.57902 -0.0414724 -0.211861 -0.313312 -0.0951469 -0.0514623 0.29276 0.228539 -0.210027 -0.556021 -0.455283 -0.03331 0.10783 0.49855 0 -0.1 0.5 -0.5 -0.2 0.195844 -0.00337655 0.295985 0.00626516 -0.00302187 0.00119877 -0.124641 -0.0619288 -0.173959 0.00963699 0.184043 -0.0964683 -0.303437 -0.213305 -0.0725226 0.175011 -0.240555 -0.577548 -0.394287 0.283544 -0.36053 -0.414283 -0.0126396 -0.500228 -0.499727 0 -0.4 -0.200109 -0.392375 0.195385 -0.218064 0.00774513 0.329082 -0.154796 -0.0614136 0.192689 -0.116259 -0.262875 -0.238097 0.138486 0.0488885 -0.0837885 -0.150723 0.279521 -0.410983 -0.447788 0.400855 0.183011 -0.571363 -0.477835 -0.347624 0.191284 -0.49345 -0.400009 0.000421847 -0.400546 0.0226909 0.114074 -0.0143864 0.228597 0.0949718 0.521378 -0.00372653 0.197238 -0.244693 0.329466 0.630897 0.673948 0.247823 0.623863 0.363764 0.461036 0.0819378 0.534345 -0.207532 -0.166861 0.245593 0.0279563 -0.0428635 -0.421354 -0.0926965 -0.200009 -0.300009 -0.100234 -0.271514 -0.18085 -0.500732 0.322838 -0.215778 0.315569 -0.140231 0.497583 0.465806 0.467877 0.118788 -0.0900017 0.494303 0.610152 0.477588 -0.202341 -0.11556 -0.116611 -0.0333782 -0.453664 0.480421 -0.522981 0.274296 0.190416 -0.398989 -0.200009 -0.490138 -0.503752 -0.492941 -0.281133 -0.00433849 -0.444464 -0.0329939 -0.158342 0.206186 -0.194972 0.169728 0.241836 -0.274176 -0.0480257 -0.421069 -0.407025 0.483595 0.659114 0.200322 -0.367017 -0.387942 0.490575 0.225644 0.10102 -0.21784 0.486918 0.201011 0 0.00987101 -0.504308 -0.0115136 0.102241 0.079125 0.173092 0.327427 0.441147 -0.34813 -0.282588 -0.292158 -0.182391 -0.157197 0.0857732 -0.0220136 0.401929 0.226265 0.241248 -0.259788 0.278336 0.213301 -0.17197 0.046844 0.306753 -0.10921 0.00753721 0 0 -0.0995135 0.496431 -0.209787 0.304578 -0.144771 0.0807592 0.192065 -0.190617 -0.454537 -0.329905 0.510423 0.552188 0.583604 -0.0532521 0.156755 0.219199 0.00548295 0.0567965 0.226106 0.162924 0.00855343 0.124077 -0.477422 -0.0051768 -0.404791 -0.40048 -0.1 -0.1 -0.3 0.399501 0.398485 0.309835 -0.463332 0.362478 0.0742447 -0.125738 0.459691 0.432384 -0.00642946 -0.339496 0.497227 -0.166211 0.312554 -0.54141 0.0719544 -0.353442 -0.0453134 -0.00599865 0.142226 0.365243 0.290252 -0.410486 0.491542 0.400435 -0.5 -0.5 0.5 0.00093137 0.108131 0.0032268 0.511224 0.410236 0.436367 0.249403 0.0369877 -0.145512 -0.669203 -0.149356 0.564367 -0.148462 0.268563 0.24777 0.0103586 0.371504 0.219135 0.246288 -0.0959731 -0.387043 -0.12175 0.0958619 0.00501197 0.300435 -0.3 -0.5 0.2 -0.199817 -0.292668 -0.503678 0.288077 -0.530833 -0.350947 0.0994259 0.260686 0.0529083 -0.208019 0.281659 0.0889028 0.0109031 -0.39049 -0.656417 -0.539403 0.0796934 -0.319196 -0.0834588 0.137207 -0.230162 -0.337235 0.483286 0.397845 0.201676 -0.1 -0.3 -0.5 -0.1 0.404559 0.506533 0.393278 0.0556456 -0.580015 -0.156991 -0.399697 -0.0537845 -0.608716 0.360317 -0.487531 -0.139729 -0.534046 -0.60186 -0.0545297 0.193334 0.156831 -0.240024 -0.430229 -0.0317293 -0.555606 -0.0408299 0.38624 0.2998 -0.200641 0 -0.3 -0.00185129 0.506723 -0.185622 0.106815 -0.0235979 0.165805 -0.464188 -0.401624 -0.144012 0.253059 -0.124039 0.373494 0.151106 -0.524154 -0.440821 0.431463 -0.00753665 -0.287436 0.268703 0.203272 -0.426113 -0.294317 -0.325675 -0.011441 -0.400821 0.199359 0.5 0 0.00301197 -0.390933 -0.296425 0.0148397 -0.0287812 -0.0253177 -0.34939 -0.335468 0.432033 -0.547144 0.161417 0.144456 -0.140978 -0.357145 -0.290674 0.410914 -0.496941 0.359186 -0.17489 0.360709 0.358887 0.0281196 -0.547302 0.0848231 0.201038 -0.202341 -0.1 0.4 -0.49999 -0.0772157 0.323186 -0.258351 -0.503286 -0.040089 0.197224 0.0394496 -0.540834 -0.112832 0.185793 -0.0385924 0.266378 -0.466651 0.0947324 -0.287937 0.305616 0.0128927 0.0465464 -0.117527 -0.0198777 -0.335556 -0.0420681 -0.109445 0.0969141 -0.404212 0.1 -0.4 0.396218 0.212734 -0.0728901 0.141331 0.0285352 0.130034 0.0371401 0.271634 -0.100629 -0.713316 0.26142 -0.162609 -0.00624772 -0.302239 -0.396054 0.0561462 0.26917 0.315172 -0.0381608 0.480498 -0.381122 0.473519 0.372013 -0.403218 0.297467 -0.0018326 0.2 -0.2 0.405932 -0.27188 0.0365755 0.0563158 0.0887201 -0.482635 0.494972 0.0906454 0.0868085 -0.0103872 -0.364255 -0.0735356 -0.642903 0.255773 -0.114207 -0.0680003 -0.0244278 -0.512635 -0.06119 -0.126093 0.191092 -0.136643 -0.531281 0.292111 0.0975919 -0.5 -0.5 0.4 0.00406276 -0.170127 -0.155505 0.473473 -0.399542 -0.0600303 0.0330503 -0.228475 0.136911 -0.166846 -0.462114 -0.609414 0.457406 0.136046 0.292825 -0.113395 -0.283076 0.0595576 -0.0610309 -0.414076 -0.122212 -0.238566 -0.0195906 -0.00211755 0.496574 0.2 -0.1 -0.1 0.409208 -0.48631 -0.147581 0.0702236 -0.0814672 0.072453 0.578198 0.284278 0.0756865 0.240858 -0.0507144 0.0173511 0.168932 0.610364 -0.205309 0.0438091 0.255675 0.236076 0.0694551 -0.13389 -0.129756 -0.214295 0.505531 -0.400581 0.100102 -0.4 0.3 -0.2 0.500076 -0.285526 -0.459289 -0.250233 -0.42734 0.177821 0.054755 0.212471 -0.0752222 0.54019 0.232017 0.00265978 0.201693 -0.353767 -0.312121 -0.361799 -0.391738 -0.128333 -0.0193513 0.387763 0.493031 -0.215354 -0.300644 0.199641 -2.34411e-05 -0.2 0.2 -0.1 0.4 0.407446 0.316697 0.128973 -0.288491 0.0223148 0.284992 0.0150982 0.190246 0.461431 0.20457 -0.0860282 0.0999094 -0.387631 0.222547 0.292019 0.476798 0.442667 -0.170462 -0.360202 0.0348971 -0.190777 -0.39512 0.1 0.2 0.2 -0.3 -0.1 -0.2 0.300008 0.504189 0.00514436 -0.20412 0.0915215 0.492771 0.0108339 -0.177854 0.418919 0.0977712 -0.193537 -0.181959 -0.359375 0.255577 0.00902507 0.326343 0.0530483 0.0489649 0.420688 0.0216335 -0.187431 0.310243 -0.3 -0.3 0.4 0.5 -0.1 -0.2 -0.497874 -0.497753 -0.296943 -0.299272 0.200911 0.00196734 0.100734 0.0118124 0.101902 -0.474683 0.0359211 0.247069 0.45082 0.112646 -0.098428 0.521094 0.303533 0.118413 0.118443 0.013616 -0.396385 -0.3 0 0 -0.2 -0.1 -0.3 0.3 0.2 -0.1 -0.100102 0.300304 0.200304 -0.399594 -0.00197437 -0.402485 0.397256 -0.00281205 0.298924 0.0966441 0.295016 0.494949 -0.209115 0.500595 0.102296 0.110415 0.109696 -0.191673 -0.2 -0.3 0.2 -0.2 0.3 -0.127455 
-0.3 -0.1 -0.5 0.4 0.2 -0.4 0.3 0.4 0.1 -0.2 -0.4 -0.1 0 -0.2 0.4 0.5 0.1 0.1 0.2 0 0 -0.2 -0.5 -0.4 0.4 0.5 0.5 0.4 -0.5 0.3 0.2 0.4 -0.4 -0.1 0 0.5 0.3 -0.1 3.14451e-06 -0.399997 0.300001 -0.199998 0.300065 0.20005 -1.38628e-05 -0.400023 0.400002 0.300002 0.300002 -0.299998 -0.3 0.1 0.1 -0.4 0.4 0.4 0.1 -0.4 0.1 0.4 0.4 0 0.3 0.2 -0.100755 -0.200741 0.0992832 0.19975 -0.0993212 0.302143 -0.397613 -0.293845 0.00613332 0.305933 0.00519689 0.00667913 0.206474 0.402791 0.20162 -0.499986 1.41376e-05 -0.3 0.1 -0.1 0.1 0.4 -0.3 -0.2 0.5 -0.399999 0.300001 0.200553 -0.200202 -0.299517 -0.199293 0.401542 0.000634363 0.407779 -0.290104 0.0108195 -0.0840647 0.0174755 -0.0796548 -0.482427 0.00969313 -0.495104 -0.296966 -0.299276 -0.200065 0 0.5 -0.1 -0.3 0 0.3 0.5 3.06915e-05 0.300057 0.300468 0.500083 -0.100847 0.505768 0.316119 0.211064 0.221103 0.441353 -0.248153 -0.137511 0.343549 -0.270724 0.5304 0.0292974 0.0154223 0.204311 -0.400211 -0.300669 0.0992189 0.199726 0 0 0.5 -0.2 0.2 0.500596 -0.0989973 0.301506 -0.202817 0.298998 -0.00483308 -0.395452 0.00808273 -0.210289 -0.0646589 -0.238046 -0.0265152 0.283249 0.177585 0.5575 -0.299281 0.191576 0.463297 0.330044 0.411037 0.100726 0.100096 0.099267 -0.499582 0.00011051 0 -0.4 0.300163 0.400782 0.00088886 -0.406984 -0.299233 -0.120967 -0.492554 0.425169 0.191309 -0.0139526 -0.317436 -0.207125 -0.290378 0.0520895 -0.23324 0.157446 -0.24591 0.348033 -0.288045 0.0239692 -0.218398 -0.426218 0.482908 0.191854 -0.20204 0.200282 -0.200909 0.399228 -0.200955 0.399762 0.0994096 0.499367 0.178608 0.493009 -0.00286477 0.169704 0.459932 -0.0676789 -0.32102 0.411234 -0.228986 -0.0277937 -0.0340379 -0.126526 0.245831 0.216353 -0.426412 -0.570798 0.475457 0.145788 -0.251864 0.36652 0.288915 0.300316 -0.500909 -0.200909 0.399101 -0.502939 0.499501 -0.000806051 -0.537671 -0.0369247 0.44067 -0.0631705 0.460924 0.401592 0.306205 -0.00724257 0.196847 -0.498164 -0.213894 0.495522 -0.160555 0.0138439 0.184868 -0.436285 -0.58534 -0.369385 0.350024 -0.242654 0.188888 0.399354 -0.000908517 0.499015 -0.502436 -0.00412389 -0.309068 0.186483 -0.028402 -0.169689 0.161325 0.451164 -0.440648 0.0805496 0.312501 0.426464 0.0252512 0.177854 -0.191547 -0.0257777 -0.353563 0.406541 -0.138318 -0.168314 -0.578238 -0.359852 -0.240367 0.0677353 0.190937 0.399354 -0.2 -0.100077 -0.305155 -0.0206658 0.0806948 0.500855 0.150002 0.158459 -0.0456014 -0.410124 -0.0186347 -0.21402 0.465402 0.0246584 -0.167311 -0.189976 -0.00339615 -0.375789 -0.602045 -0.618907 -0.0457775 -0.425911 0.448247 -0.145121 -0.408093 -0.00758373 -0.208252 -0.5 -0.4 0.000168694 0.0952216 0.478251 -0.424751 -0.0156424 -0.246189 0.449283 -0.138834 0.464761 0.361632 0.170814 0.10092 0.515613 -0.228223 0.0477484 0.106003 -0.0484343 0.00057762 -0.154137 -0.499324 -0.288597 0.283033 -0.309117 0.19473 -0.102266 0.49502 -2.92715e-11 -0.3 1.09817e-07 -0.303837 -0.319626 0.477364 -0.421077 0.439812 -0.133134 -0.440086 -0.168061 0.267221 0.182741 -0.487704 -0.225489 -0.315092 -0.115999 0.130765 0.25368 0.0285604 0.368221 -0.364916 0.234598 0.0655308 -0.107023 0.399094 0.400548 -0.497687 0.2 0.4 -0.5 0.50056 -0.417408 -0.0170785 -0.120687 -0.160006 -0.435773 -0.0479614 0.448177 -0.519717 -0.485012 0.0118525 0.0793291 0.348946 0.00874854 0.508156 0.213715 0.382461 -0.0172915 0.151009 -0.346476 0.278796 0.301232 -0.395492 0.20188 -0.297687 0.2 -0.1 -0.1 -0.500055 0.291485 0.471115 -0.0511695 -0.13358 0.0524322 -0.236124 0.0609951 0.00290947 0.0345224 0.202548 0.429102 0.115735 0.123181 0.102906 -0.312918 0.102789 -0.239688 0.0415119 0.0646648 0.292443 0.309848 -0.495399 -0.20061 -0.499349 0 0.2 -0.1 -0.3 0.295302 -0.128143 0.267251 -0.328122 0.0846368 0.152115 -0.0235594 -0.342082 0.190554 0.521833 0.45391 0.400411 0.11988 -0.344051 -0.0333616 -0.242036 -0.471161 0.460641 -0.529934 -0.303923 0.498737 0.100755 0.297271 0.00386973 0.299013 -0.2 -0.1 -0.300776 0.397881 -0.223871 0.373055 -0.311111 0.0836978 0.438093 0.0501619 -0.250761 -0.528055 0.279081 0.456581 -0.430115 0.0331101 -0.44239 -0.0435629 -0.00479007 0.33849 -0.0495687 0.291159 -0.202093 0.293645 0.198905 -0.103522 -0.400522 0.499013 -0.4 0.2 -0.199442 0.19109 0.475408 0.384975 -0.423975 -0.0293022 0.236358 -0.531607 -0.00860651 0.457459 0.0516405 0.0642108 -0.20395 0.388817 -0.0374147 -0.0441372 -0.41673 0.474554 0.379869 -0.485128 0.40088 -0.202271 -0.495865 -0.396094 -0.500934 0.29897 0 -0.4 -0.300693 -0.0055306 0.288684 0.281349 0.170149 0.186932 0.192729 -0.394099 0.295081 0.498529 0.440501 -0.557273 0.293983 0.0799334 0.507216 0.494476 -0.337197 -0.111725 0.297907 0.42108 -0.184429 0.106237 0.404876 -0.194948 -0.300934 -0.100839 0.1 0 -0.00095637 0.000915937 0.400015 -0.286755 0.015101 0.519334 0.0116755 0.389044 0.19383 -0.152436 0.165138 -0.530753 -0.105256 0.310947 0.376154 0.212165 -0.222767 -0.482006 0.410259 0.507879 -0.38851 0.399741 0.399794 -0.399933 -7.4858e-06 -0.299717 -0.5 0 0.100088 0.40229 0.216019 0.30928 0.120264 0.187867 0.190838 -0.0741369 0.120229 -0.238808 0.00677666 0.305889 -0.206155 0.167613 -0.283841 0.313456 -0.0323354 -0.283718 0.512434 0.409823 -0.396244 0.299715 0.299847 0.201453 -0.498709 0.1 0 0.5 0.400003 -0.296615 0.514806 0.313986 0.321471 0.176642 -0.16924 0.0406205 0.550877 -0.156572 -0.467333 0.00221865 0.0520025 -0.180433 0.323374 -0.478148 0.000804026 0.318602 0.10325 0.403731 0.201172 0.499644 0.500062 0.00134976 0.0019306 0 -0.4 0.2 0.300022 0.503146 0.212636 0.296414 0.394941 -0.382639 -0.474142 0.0340946 0.139907 -0.136783 0.101926 -0.0824316 -0.281101 -0.491763 0.301952 0.00120677 0.108536 -0.176006 -0.0934974 0.3987 0.500809 0.499932 0.300084 -0.398592 0.101408 0 0.2 0.1 -0.0999967 0.10712 -0.284671 0.0984763 -0.502872 0.413255 -0.191325 0.31014 -0.0507373 0.145475 0.203511 0.418384 -0.522091 0.249304 -0.213759 0.2129 0.115525 0.13018 0.405687 0.503571 -0.397882 0.200172 0.400209 -0.499891 -0.199891 -0.5 0.5 -0.3 0.4 0.105963 0.00322971 -0.195514 -0.503289 -0.442785 -0.405033 -0.485173 0.496358 -0.0771396 0.109518 0.068957 -0.343153 -0.34027 0.188237 0.212785 0.217676 -0.475813 0.515912 -0.19375 0.304701 0.200099 -0.499915 -0.1 0 0.3 -0.3 0.4 0.1 -0.49587 0.291118 -0.0120403 -0.333268 -0.456691 0.457726 0.372195 -0.0293758 0.0966576 -0.298196 0.354144 0.0227828 -0.590259 0.163412 0.0155519 -0.279646 -0.475829 -0.287947 0.205589 0.302546 0.400089 5.20898e-05 0.4 0.5 -0.4 0 0.2 -0.2 0.100007 -0.00263562 -0.488826 -0.315632 -0.0206366 0.284765 -0.00884435 0.317562 0.30724 0.220011 -0.183997 -0.505638 -0.0156957 -0.11762 0.185723 -0.207724 -0.305503 0.000247838 0.200245 -0.29995 0.299993 0.3 -0.3 -0.5 0.1 0.3 -0.5 0 -0.3 0 -0.00229147 0.381986 -0.318014 -0.115723 -0.400264 -0.11035 0.0847601 -0.512036 -0.0136676 -0.0242397 -0.31094 0.194157 0.190037 0.000115687 0.100294 0.300114 0.000108737 5.48568e-05 -0.5 0.2 -0.3 0.5 0.3 -0.538118 
-0.4 -0.4 -0.5 0.1 0.1 0 0.5 -0.2 0.1 0.1 0.2 0.2 -0.4 -0.2 -0.2 -0.2 0.2 0.5 0.2 -0.2 -0.4 0.2 0.5 0.2 -0.2 -0.1 -0.5 -0.2 -0.3 0 -0.5 0.2 0.2 -0.2 0 0.4 0 0.1 -0.199752 0.000247946 -0.399999 0.2 0.099946 0.299874 0.299929 -0.000354945 0.200046 0.200281 -0.0997193 0.000280671 0.4 0.3 0.5 0.2 -0.5 0.4 0 0.1 0.1 -0.2 0.5 0.4 0 -0.200002 0.0997186 -0.000281683 0.0999362 -0.000193691 0.494345 0.292985 0.0937012 0.0987736 -0.185466 -0.0841272 0.0064673 0.299799 -0.203177 0.396285 -0.502916 -0.299955 0.100048 -0.2 0.4 -0.2 -0.1 0.3 0.4 0.2 0.1 -0.199998 -0.300007 -0.201327 0.298395 -0.309968 0.391318 0.488789 -0.512953 -0.425345 -0.214034 0.396749 0.421641 -0.377301 0.301924 0.0804315 -0.0215676 -0.0158733 -0.198626 -0.105213 0.4003 0 0.4 -0.5 -0.5 0 -0.2 0.3 0.0998436 0.497234 -0.404854 0.393924 0.493256 0.392249 -0.0976516 -0.517699 -0.452983 0.271407 0.278818 -0.016827 0.205484 0.208316 0.119483 -0.0733995 0.296539 0.0968875 0.400128 -0.404858 -0.397879 0.000154433 -0.4 0.1 0.2 0.4 -0.3 0.399823 0.0940361 -0.0102795 0.28882 -0.0247387 -0.521633 0.0699993 -0.550101 -0.261154 -0.47902 -0.58474 0.441726 0.161257 -0.0158843 0.352954 0.0183912 0.141382 -0.0281315 -0.00474523 0.217258 0.110063 -0.38473 0.101328 0.298019 -0.300209 -0.2 0.1 -0.40929 -0.0134863 -0.418875 -0.105335 -0.513459 -0.508531 0.0287974 -0.0726591 -0.167595 -0.399369 -0.0238355 0.0854857 0.406833 -0.291569 -0.0767972 -0.566653 0.232503 0.199682 -0.524961 0.407964 0.357252 0.0394001 -0.354929 0.0256982 -0.100949 -0.302819 0.300558 -0.101113 -0.308686 -0.0957568 -0.394994 0.516142 0.00594062 -0.0397403 -0.292405 0.433837 -0.475477 0.220317 -0.551621 0.0268558 0.0905695 0.168219 -0.256852 -0.0695853 -0.0804472 -0.393893 0.00445901 -0.429473 0.428909 0.0423099 0.443951 0.525692 -0.196054 -0.502677 -0.0994417 0.400558 -0.209092 -0.298878 0.51636 -0.271672 0.0897394 -0.26034 -0.225119 0.349502 -0.0148817 -0.314766 0.0341601 0.511011 0.0845462 0.10299 0.00200618 -0.444002 0.0747671 -0.0595429 -0.429632 0.0202636 0.478844 -0.431184 -0.255183 0.328379 0.00287804 0.0983955 -0.0994417 -0.0992218 0.114935 -0.0921096 0.215375 0.297747 -0.095987 0.489348 0.194808 0.0833071 0.126156 -0.308125 -0.0328856 0.201471 0.0684259 -0.0551048 0.466105 0.0891516 0.496425 0.065357 0.117951 -0.396601 -0.206151 0.0504815 0.0149002 0.110927 -0.197464 0.498396 0.3 -0.39978 0.117992 -0.18092 0.0179146 0.311465 0.443225 -0.231048 0.259192 0.252898 0.233669 0.288555 -0.040307 0.0431659 0.0380146 -0.119178 0.0368164 0.417886 -0.28326 -0.432014 0.463958 0.168477 0.45143 0.334941 0.206895 -0.00731767 -0.501446 -0.5 -0.5 -0.000408747 0.0154782 0.336699 0.511534 0.0286612 -0.153004 -0.209369 0.535698 0.152503 -0.193024 0.36279 -0.129061 0.199268 0.383944 -0.317313 -0.40895 -0.254995 0.346558 -0.249533 0.0762946 0.0616651 0.448913 -0.475404 -0.190457 0.291923 0.00034186 -0.3 -0.5 -0.3 -0.0963562 0.328934 0.0287563 0.223812 0.143469 -0.442222 -0.350121 -0.351223 0.357646 -0.4589 0.492288 0.42655 -0.625265 0.0702277 -0.462026 0.0735982 -0.0447851 -0.1589 -0.370021 0.125965 -0.0307919 0.344665 -0.282235 -0.29887 0.000237891 -0.2 -0.3 -0.4 -0.19891 0.00782706 0.3257 0.149441 0.428303 -0.381368 0.0296969 -0.226207 -0.15193 0.517175 -0.372149 -0.0376513 -0.285488 0.034425 -0.357303 0.411151 -0.164472 0.149888 -0.110921 0.0186561 0.479865 0.455637 0.329397 0.499439 0.000237891 0.5 0.3 0.1 0.400388 0.107271 0.0256675 -0.242903 -0.0403255 -0.356751 0.57311 0.000675008 -0.361126 -0.0710994 0.388996 -0.284709 -0.322121 0.189096 0.0542574 -0.0673622 -0.457804 0.593925 -0.297902 0.0462371 0.0830215 -0.445793 -0.475839 0.0974768 0.299325 0.4 0.5 -0.5 2.86275e-09 -0.299935 -0.388435 0.457106 -0.437785 0.0586079 -0.255927 -0.384744 -0.379649 0.36784 -0.339724 -0.50331 -0.167635 -0.561813 -0.366844 0.00443284 -0.336499 0.396527 0.0517713 0.437719 0.0672616 -0.356984 -0.366975 -0.202848 0.501372 -0.0978714 0 0 0.408595 -0.210715 -0.487611 0.247571 -0.121561 0.060501 -0.080006 -0.386945 -0.19583 -0.149125 0.0783286 -0.175243 -0.494198 -0.313683 -0.229512 0.579256 -0.138854 0.143853 0.101386 -0.450189 0.370574 0.351131 0.135171 0.199667 -0.0979278 -0.0978714 -0.4 -0.2 -0.403946 0.188597 -0.200765 0.00344028 -0.0418742 0.391241 -0.463544 -0.0985508 -0.532151 -0.377771 0.187986 -0.251709 0.276836 0.0571385 -0.481937 0.0908041 -0.411758 0.268404 -0.439805 0.0214249 0.32188 -0.278819 0.209668 -0.104134 0.00184871 -0.298222 -0.4 0.1 -0.389537 0.197126 -0.308429 0.303612 0.0533476 -0.247538 -0.370963 -0.196415 -0.391195 -0.544211 -0.0163136 -0.446522 0.123932 0.22731 0.384299 0.119722 -0.175803 -0.189072 -0.525549 -0.327667 -0.313655 0.105391 -0.101541 -0.403843 0.401852 -0.10211 0 -0.1 0.516484 -0.0941068 0.0954713 0.298489 0.213322 -0.0731591 -0.271266 -0.507038 0.300973 0.307149 -0.444954 -0.284036 -0.223909 -0.0299879 -0.528915 0.249052 -0.510321 0.0572676 0.210673 -0.0635351 -0.142329 0.177824 0.486605 -0.20291 0.499983 -0.303566 0.4 0 0.0052273 -0.00210399 -0.0136694 -0.495471 -0.385768 0.214625 -0.231617 0.195646 -0.230827 0.524217 0.0557117 0.437207 -0.386336 0.00559901 0.375988 0.242401 0.159691 -0.496733 -0.408052 -0.440122 -0.31665 0.0013031 -0.506871 0.500449 0.000230052 -0.5 0.3 0 -0.39538 0.400239 0.199549 -0.511519 0.316765 -0.305386 0.248204 0.455687 0.394438 -0.338799 -0.43499 -0.0351739 -0.0795288 0.145031 -0.509529 0.481969 -0.0662721 -0.0726301 0.320435 -0.0566239 -0.42011 0.486924 -0.404914 -0.000221123 0.0999777 0.2 0.3 0 -0.101278 0.20021 0.20445 -0.0681429 0.402933 -0.465079 -0.254535 -0.0876438 -0.232761 -0.00559626 0.219313 0.524643 -0.0361357 -0.468466 -0.165081 0.408115 -0.25835 -0.157053 -0.0518873 0.372118 -0.223466 0.390115 0.496387 0.300103 -0.399916 0.2 -0.2 -0.5 -0.400992 -0.401576 0.399707 -0.0851411 0.199485 0.478605 0.396404 -0.485076 0.20482 -0.0707674 -0.145311 0.425022 0.204312 0.466509 -0.515987 0.390002 -0.44146 0.0944427 0.254358 -0.0320727 -0.213908 -0.00744728 -0.50256 -0.300163 -0.500163 0.4 -0.3 0.3 -0.5 -0.00451063 0.304965 0.38953 -0.504779 -0.520088 0.376043 -0.0428017 0.280562 0.497265 0.484114 -0.503874 0.488678 -0.496668 0.222165 -0.411983 -0.201782 0.0883334 -0.133992 -0.327941 0.0765487 0.395741 -0.00258862 0.3 0.4 -0.4 0.2 0.2 -0.5 0.000185576 -0.0945836 0.410957 0.0249084 0.0352846 -0.453343 -0.0671234 0.0461539 0.362517 0.23965 -0.175456 0.0429356 -0.268013 0.328894 -0.497705 0.484481 -0.0229236 0.0726381 0.0863899 0.382541 0.29618 0.291259 0 -0.3 0 -0.1 0.2 -0.1 -0.505144 0.290553 0.291572 0.209718 -0.483307 -0.298097 0.100633 0.415589 -0.164693 0.249882 0.337697 -0.135592 0.0348916 -0.366755 0.0288837 -0.00100822 -0.00193946 -0.201825 -0.40323 0.198109 -0.301953 -0.1 -0.5 0 0 0 -0.3 0.3 -0.2 -0.4 0.200283 0.0113871 0.0113871 0.111105 0.20063 -0.492211 -0.492021 0.00567843 0.306165 0.00645751 -0.404603 0.394895 -0.400245 -0.301043 -0.00129225 -0.500542 -0.399904 -0.0993929 -0.3 -0.1 0 0 -0.4 0.0642087 
